genomestart 1
trait 1 0.974906 1 0 0.539167 0 0 0.961293 0 
trait 2 0 0 0 0.607491 0 0 0 0.830347 
trait 3 0.375324 0 0 0 0 1 1 0.0469973 
node 1 3 1 3
node 2 1 1 1
node 3 3 1 1
node 4 3 1 1
node 5 2 1 1
node 6 1 1 1
node 7 1 1 1
node 8 1 1 1
node 9 1 1 1
node 10 1 1 1
node 11 1 1 1
node 12 2 1 1
node 13 1 1 1
node 14 1 1 1
node 15 3 1 1
node 16 2 1 1
node 17 1 0 2
node 18 1 0 2
node 21 1 0 0
node 27 1 0 0
node 60 1 0 0
node 80 1 0 0
node 108 1 0 0
node 119 1 0 0
node 161 1 0 0
node 166 1 0 0
node 210 1 0 0
node 212 1 0 0
gene 2 1 17 0.057103250667966565 0 1 0.057103250667966565 1
gene 2 2 17 0.64216982579891091 0 2 0.64216982579891091 1
gene 3 3 17 1.1639995962213725 0 3 1.1639995962213725 1
gene 1 4 17 6.495029976123492 0 4 6.495029976123492 0
gene 3 5 17 0.63989294815803555 0 5 0.63989294815803555 1
gene 1 6 17 2.3213151618006242 0 6 2.3213151618006242 1
gene 2 7 17 1.1714617755131151 0 7 1.1714617755131151 1
gene 3 8 17 3.0828243247619014 0 8 3.0828243247619014 1
gene 1 9 17 -1.3949788037664157 0 9 -1.3949788037664157 1
gene 3 10 17 0.93841929963716286 0 10 0.93841929963716286 1
gene 2 11 17 -1.2266323702533879 0 11 -1.2266323702533879 1
gene 1 12 17 1.1434610584487492 0 12 1.1434610584487492 0
gene 3 13 17 1.1323850823717121 0 13 1.1323850823717121 1
gene 2 14 17 -0.92173142145468456 0 14 -0.92173142145468456 1
gene 2 15 17 -0.64957646660021329 0 15 -0.64957646660021329 1
gene 3 16 17 -3.3645168572499031 0 16 -3.3645168572499031 0
gene 1 1 18 0.54836689124273463 0 17 0.54836689124273463 1
gene 1 2 18 0.71836743327713015 0 18 0.71836743327713015 1
gene 3 3 18 -0.7443675115911137 0 19 -0.7443675115911137 0
gene 3 4 18 -0.53959921376761044 0 20 -0.53959921376761044 1
gene 2 5 18 -5.2363862626889661 0 21 -5.2363862626889661 1
gene 3 6 18 -4.3837164288310877 0 22 -4.3837164288310877 1
gene 3 7 18 -3.241288178014238 0 23 -3.241288178014238 1
gene 2 8 18 3.977088530304417 0 24 3.977088530304417 1
gene 2 9 18 0.94283137700652309 0 25 0.94283137700652309 1
gene 1 10 18 1.1055352683670518 0 26 1.1055352683670518 0
gene 2 11 18 1.1187982687814153 0 27 1.1187982687814153 1
gene 3 12 18 2.1496292872585494 0 28 2.1496292872585494 1
gene 3 13 18 -1.1072746117633185 0 29 -1.1072746117633185 1
gene 3 14 18 1.0353210328776952 0 30 1.0353210328776952 1
gene 3 15 18 0.57177907720756671 0 31 0.57177907720756671 0
gene 1 16 18 -6.6404249063415568 0 32 -6.6404249063415568 1
gene 3 16 21 2.2926204406156301 0 49 2.2926204406156301 1
gene 3 21 17 0.76665626269143861 0 50 0.76665626269143861 1
gene 3 21 21 -3.9884513840025528 1 59 -3.9884513840025528 1
gene 3 3 21 -1.3201020745654135 0 69 -1.3201020745654135 1
gene 3 10 21 -0.62822910730178894 0 98 -0.62822910730178894 1
gene 3 4 21 -0.0025064055819559866 0 104 -0.0025064055819559866 1
gene 2 1 21 2.6088173680979838 0 110 2.6088173680979838 1
gene 1 15 27 1.2759180845580613 0 131 1.2759180845580613 1
gene 2 27 18 1.3044647394234616 0 132 1.3044647394234616 1
gene 3 16 27 -0.92790799212078945 0 155 -0.92790799212078945 0
gene 1 27 27 -0.53605806992205696 1 214 -0.53605806992205696 1
gene 1 11 27 0.85680373192615988 0 279 0.85680373192615988 1
gene 2 2 27 0.37226919288387017 0 293 0.37226919288387017 1
gene 1 6 21 -1.4030806570793879 0 312 -1.4030806570793879 1
gene 2 14 21 -1.9182733941908336 0 362 -1.9182733941908336 1
gene 3 17 17 2.2364508878609404 1 394 2.2364508878609404 0
gene 3 5 21 0.2047131120714889 0 413 0.2047131120714889 1
gene 2 8 27 -1.6225139843870486 0 469 -1.6225139843870486 1
gene 3 8 21 1.4437302464822914 0 474 1.4437302464822914 1
gene 1 12 21 -0.74619791458649465 0 480 -0.74619791458649465 0
gene 3 17 60 5.0890543249384752 1 495 5.0890543249384752 0
gene 3 60 17 1.3391923577707223 0 496 1.3391923577707223 1
gene 2 4 60 -3.6102539538919243 0 641 -3.6102539538919243 1
gene 1 4 80 -0.98492931108219972 0 722 -0.98492931108219972 1
gene 1 80 17 -2.5427778568318011 0 723 -2.5427778568318011 1
gene 1 14 80 -0.30598355331736782 0 842 -0.30598355331736782 1
gene 3 17 108 -1.4961141771618809 1 998 -1.4961141771618809 1
gene 3 108 60 0.91352159735445015 0 999 0.91352159735445015 1
gene 2 16 60 0.18205364615752065 0 1016 0.18205364615752065 1
gene 3 27 80 1.7246027969404141 0 1026 1.7246027969404141 1
gene 1 12 119 -1.4478321836552732 0 1098 -1.4478321836552732 1
gene 1 119 21 4.2016923288822605 0 1099 4.2016923288822605 1
gene 3 12 80 0.13424657989956745 0 1149 0.13424657989956745 1
gene 1 80 80 -0.098593171266183804 1 1167 -0.098593171266183804 1
gene 1 108 80 1.382778579780263 0 1177 1.382778579780263 1
gene 3 1 108 4.2056873939957873 0 1182 4.2056873939957873 1
gene 1 27 119 -1.1593368300978732 0 1189 -1.1593368300978732 1
gene 3 15 108 1.2437212407792553 0 1204 1.2437212407792553 1
gene 1 16 119 -0.82463845718868001 0 1234 -0.82463845718868001 0
gene 2 13 21 -0.54418778049023253 0 1254 -0.54418778049023253 1
gene 3 9 119 -1.5422678408409785 0 1308 -1.5422678408409785 1
gene 2 9 108 -0.69568145330794218 0 1448 -0.69568145330794218 1
gene 2 7 119 -0.52706574556746777 0 1477 -0.52706574556746777 1
gene 3 5 27 -0.68496897452742278 0 1480 -0.68496897452742278 1
gene 3 16 161 4.7067781361782828 0 1545 4.7067781361782828 1
gene 3 161 27 0.10597479697595112 0 1546 0.10597479697595112 1
gene 1 12 166 1.8741157817999439 0 1581 1.8741157817999439 1
gene 1 166 17 -1.4925328174105532 0 1582 -1.4925328174105532 1
gene 3 166 108 0.77859467304246266 0 1608 0.77859467304246266 1
gene 3 8 119 0.88494963612637911 0 1621 0.88494963612637911 1
gene 3 7 21 0.69156163753548727 0 1646 0.69156163753548727 1
gene 2 1 80 -2.0320697648134409 0 1683 -2.0320697648134409 1
gene 1 16 210 1 0 1979 0 1
gene 1 210 119 -0.82463845718868001 0 1980 0 1
gene 2 13 80 -0.52043669834753348 0 1996 -0.52043669834753348 1
gene 3 3 212 1 0 2003 0 1
gene 3 212 18 -0.7443675115911137 0 2004 0 1
gene 3 2 210 0.59965553488566337 0 2031 0.59965553488566337 1
genomeend 1
