genomestart 1
trait 1 1 0.64957 0 0 0 0.573529 1 0.548598 
trait 2 0 0.379618 0 0.8883 0 0 0.18225 0.906192 
trait 3 0.61569 0 1 0 0 0.0033558 1 0 
node 1 3 1 3
node 2 1 1 1
node 3 3 1 1
node 4 3 1 1
node 5 2 1 1
node 6 1 1 1
node 7 3 1 1
node 8 1 1 1
node 9 1 1 1
node 10 1 1 1
node 11 2 1 1
node 12 2 1 1
node 13 3 1 1
node 14 1 1 1
node 15 2 1 1
node 16 2 1 1
node 17 3 0 2
node 18 1 0 2
node 21 1 0 0
node 27 1 0 0
node 60 1 0 0
node 80 1 0 0
node 108 1 0 0
node 119 1 0 0
node 161 1 0 0
node 166 1 0 0
node 210 1 0 0
node 231 1 0 0
node 233 3 0 0
node 255 3 0 0
node 280 3 0 0
node 304 3 0 0
node 323 1 0 0
node 336 1 0 0
node 347 1 0 0
node 355 1 0 0
node 367 1 0 0
node 401 1 0 0
node 447 1 0 0
node 477 1 0 0
node 489 1 0 0
node 517 1 0 0
node 518 1 0 0
node 519 1 0 0
node 537 1 0 0
node 538 1 0 0
node 540 1 0 0
node 548 1 0 0
node 576 1 0 0
node 588 1 0 0
gene 2 1 17 1.5331306255111148 0 1 1.5331306255111148 1
gene 2 2 17 4.3806666740591949 0 2 4.3806666740591949 0
gene 3 3 17 -0.039387369779584638 0 3 -0.039387369779584638 1
gene 1 4 17 -1.353858500651018 0 4 -1.353858500651018 0
gene 3 5 17 0.36682185687442398 0 5 0.36682185687442398 1
gene 1 6 17 5.1420572268041118 0 6 5.1420572268041118 1
gene 2 7 17 4.4334764596696372 0 7 4.4334764596696372 1
gene 2 8 17 1.1277363426646851 0 8 1.1277363426646851 1
gene 1 9 17 -0.40387425753468387 0 9 -0.40387425753468387 1
gene 3 10 17 1.1034810147730081 0 10 1.1034810147730081 1
gene 2 11 17 0.89078709454778005 0 11 0.89078709454778005 0
gene 1 12 17 -1.6742420127495388 0 12 -1.6742420127495388 0
gene 3 13 17 2.4592606965262718 0 13 2.4592606965262718 1
gene 2 14 17 -3.3841529106181829 0 14 -3.3841529106181829 1
gene 2 15 17 -0.61057362151824579 0 15 -0.61057362151824579 1
gene 3 16 17 -1.3488668740488901 0 16 -1.3488668740488901 0
gene 1 1 18 0.86773640050913048 0 17 0.86773640050913048 1
gene 1 2 18 1.6467331220147816 0 18 1.6467331220147816 1
gene 3 3 18 -0.79230095250173505 0 19 -0.79230095250173505 1
gene 3 4 18 0.18656290470928089 0 20 0.18656290470928089 1
gene 2 5 18 -0.19994603805241451 0 21 -0.19994603805241451 1
gene 3 6 18 -6.3330757544995651 0 22 -6.3330757544995651 1
gene 3 7 18 -3.2576508872479435 0 23 -3.2576508872479435 1
gene 2 8 18 -1.9763281480298973 0 24 -1.9763281480298973 0
gene 2 9 18 0.50991961895950122 0 25 0.50991961895950122 1
gene 1 10 18 0.10060298889903474 0 26 0.10060298889903474 0
gene 2 11 18 -0.28402072483860907 0 27 -0.28402072483860907 1
gene 3 12 18 -0.25171311979727501 0 28 -0.25171311979727501 1
gene 3 13 18 1.0135038979414401 0 29 1.0135038979414401 0
gene 3 14 18 0.73346544813060455 0 30 0.73346544813060455 1
gene 3 15 18 0.12183448794383311 0 31 0.12183448794383311 0
gene 1 16 18 -1.3027941003920482 0 32 -1.3027941003920482 1
gene 3 16 21 -2.5338062616222565 0 49 -2.5338062616222565 0
gene 3 21 17 -0.8684886609523037 0 50 -0.8684886609523037 1
gene 3 21 21 0.7577288408101206 1 59 0.7577288408101206 1
gene 3 3 21 -0.98294292855213516 0 69 -0.98294292855213516 1
gene 3 10 21 0.3705024679054052 0 98 0.3705024679054052 1
gene 2 4 21 0.9208383282743573 0 104 0.9208383282743573 1
gene 2 1 21 0.65984749149524025 0 110 0.65984749149524025 1
gene 1 15 27 -0.60612866333971205 0 131 -0.60612866333971205 1
gene 3 27 18 -0.054284782639837256 0 132 -0.054284782639837256 0
gene 3 16 27 3.4658005768273958 0 155 3.4658005768273958 0
gene 1 27 27 -0.13206515397507007 1 214 -0.13206515397507007 1
gene 1 11 27 1.9163837374264299 0 279 1.9163837374264299 1
gene 2 2 27 1.2598383323102436 0 293 1.2598383323102436 1
gene 1 6 21 -2.9986627427854868 0 312 -2.9986627427854868 1
gene 2 14 21 0.85811789420345708 0 362 0.85811789420345708 1
gene 3 17 17 -0.71075674971135183 1 394 -0.71075674971135183 0
gene 3 5 21 0.71564129959588929 0 413 0.71564129959588929 1
gene 3 8 27 0.043910745551768104 0 469 0.043910745551768104 1
gene 3 8 21 0.73365796158726237 0 474 0.73365796158726237 1
gene 1 12 21 1.1045268953798928 0 480 1.1045268953798928 0
gene 3 17 60 -0.50505581358683105 1 495 -0.50505581358683105 0
gene 1 60 17 0.25558490457738997 0 496 0.25558490457738997 1
gene 2 4 60 -1.8010158731141201 0 641 -1.8010158731141201 0
gene 1 4 80 1.088363099185919 0 722 1.088363099185919 1
gene 1 80 17 2.5053777210439452 0 723 2.5053777210439452 1
gene 1 14 80 0.71604116108084148 0 842 0.71604116108084148 1
gene 3 17 108 -0.18423239685792114 1 998 -0.18423239685792114 1
gene 3 108 60 -0.71885442883654238 0 999 -0.71885442883654238 1
gene 2 16 60 0.55833544189032902 0 1016 0.55833544189032902 1
gene 3 27 80 -1.2513374116976455 0 1026 -1.2513374116976455 1
gene 1 12 119 1.7969873271868502 0 1098 1.7969873271868502 1
gene 2 119 21 0.64000491920858837 0 1099 0.64000491920858837 0
gene 3 12 80 1.1075037988403365 0 1149 1.1075037988403365 1
gene 1 80 80 0.57568046128176165 1 1167 0.57568046128176165 0
gene 1 108 80 0.95265474680469131 0 1177 0.95265474680469131 1
gene 3 1 108 0.25131128088166532 0 1182 0.25131128088166532 1
gene 1 27 119 -0.79300269242050248 0 1189 -0.79300269242050248 1
gene 3 15 108 -0.79025979632989496 0 1204 -0.79025979632989496 1
gene 1 16 119 2.8732340696143144 0 1234 2.8732340696143144 0
gene 2 13 21 -0.34877407776600405 0 1254 -0.34877407776600405 1
gene 3 9 119 3.5642462105323771 0 1308 3.5642462105323771 1
gene 2 9 108 0.61938668769755711 0 1448 0.61938668769755711 0
gene 2 7 119 -0.12413841398625561 0 1477 -0.12413841398625561 1
gene 3 5 27 -0.66168392736543158 0 1480 -0.66168392736543158 1
gene 3 16 161 0.35352025639895357 0 1545 0.35352025639895357 1
gene 3 161 27 -0.71355742016507184 0 1546 -0.71355742016507184 1
gene 1 12 166 0.28091617267621505 0 1581 0.28091617267621505 0
gene 3 166 17 -0.39286938234831648 0 1582 -0.39286938234831648 1
gene 3 166 108 -0.846111160165682 0 1608 -0.846111160165682 1
gene 3 8 119 -2.7256503569547323 0 1621 -2.7256503569547323 1
gene 3 7 21 1.7894462071310013 0 1646 1.7894462071310013 1
gene 2 1 80 0.00866380613700664 0 1683 0.00866380613700664 1
gene 1 16 210 -0.72388326550083404 0 1979 -0.72388326550083404 0
gene 1 210 119 1.8895924724124336 0 1980 1.8895924724124336 0
gene 1 11 21 0.66946943717518326 0 2015 0.66946943717518326 1
gene 2 15 21 0.043064512099635022 0 2090 0.043064512099635022 1
gene 1 210 231 0.012763785437104769 0 2116 0.012763785437104769 0
gene 1 231 119 -2.1072258761186271 0 2117 -2.1072258761186271 0
gene 1 12 233 -0.67329742092327094 0 2128 -0.67329742092327094 1
gene 1 233 166 -0.73565949580430035 0 2129 -0.73565949580430035 1
gene 2 10 166 0.37296834628701597 0 2225 0.37296834628701597 1
gene 2 119 119 -1.18231401344869 1 2297 -1.18231401344869 1
gene 2 210 210 -1.0584824043598409 1 2309 -1.0584824043598409 1
gene 1 16 255 -0.93994195267555392 0 2318 -0.93994195267555392 1
gene 1 255 210 -1.2358481386843359 0 2319 -1.2358481386843359 1
gene 3 9 166 -0.21366206776055605 0 2367 -0.21366206776055605 0
gene 1 7 255 -1.1635716399939597 0 2501 -1.1635716399939597 1
gene 3 12 27 -0.7405074761437751 0 2507 -0.7405074761437751 0
gene 3 119 80 -0.64613170486229088 0 2582 -0.64613170486229088 0
gene 3 13 280 1.5436062792053478 0 2587 1.5436062792053478 0
gene 3 280 18 -1.8703017513595062 0 2588 -1.8703017513595062 1
gene 3 12 304 2.0446513004343263 0 2792 2.0446513004343263 1
gene 3 304 27 -0.63224594999674999 0 2793 -0.63224594999674999 0
gene 1 231 161 0.55774268068268085 0 2871 0.55774268068268085 1
gene 3 6 280 -0.73976394684974289 0 2910 -0.73976394684974289 1
gene 2 233 233 1.9629945489405629 1 2919 1.9629945489405629 1
gene 3 9 323 1.2569679404874183 0 2987 1.2569679404874183 1
gene 3 323 166 0.46044619053622982 0 2988 0.46044619053622982 1
gene 3 231 231 -1.2786198108357469 1 3000 -1.2786198108357469 1
gene 3 5 119 1.3112914908264259 0 3042 1.3112914908264259 1
gene 3 119 336 -0.48489799722325894 0 3093 -0.48489799722325894 1
gene 3 336 80 0.078016536346644419 0 3094 0.078016536346644419 1
gene 3 323 119 1.0092417246239456 0 3122 1.0092417246239456 1
gene 1 108 108 0.63162237761152085 1 3150 0.63162237761152085 1
gene 1 80 347 -0.83222350889454766 1 3264 -0.83222350889454766 1
gene 1 347 80 -1.2916254204658908 0 3265 -1.2916254204658908 1
gene 2 2 347 -1.7074849208386078 0 3327 -1.7074849208386078 1
gene 1 166 119 1.0899518616916388 0 3340 1.0899518616916388 1
gene 1 210 355 -0.71587322057032643 0 3363 -0.71587322057032643 1
gene 1 355 231 1.1208437947187777 0 3364 1.1208437947187777 1
gene 2 280 347 0.76640704146884708 0 3386 0.76640704146884708 1
gene 3 108 161 0.21211616471974004 0 3393 0.21211616471974004 1
gene 2 355 355 0.18623738232359169 1 3399 0.18623738232359169 1
gene 3 304 17 -1.0401345468313128 0 3439 -1.0401345468313128 1
gene 1 304 304 0.233890544266389 1 3447 0.233890544266389 1
gene 2 10 355 1.5017689391978872 0 3458 1.5017689391978872 1
gene 1 233 336 -1.2236187631374311 0 3463 -1.2236187631374311 1
gene 3 27 367 -1.4055030361774856 0 3475 -1.4055030361774856 1
gene 3 367 18 -0.31136613702930793 0 3476 -0.31136613702930793 1
gene 1 2 80 -0.82648396437358307 0 3544 -0.82648396437358307 1
gene 2 11 233 -0.61407914297379507 0 3648 -0.61407914297379507 1
gene 2 367 367 1.4012626711750693 1 3740 1.4012626711750693 1
gene 2 2 401 0.075229755404977949 0 3840 0.075229755404977949 1
gene 2 401 17 -0.11504191305257466 0 3841 -0.11504191305257466 1
gene 1 355 280 -1.264744900755931 0 3862 -1.264744900755931 1
gene 1 323 280 -5.5985799679060371 0 3950 -5.5985799679060371 1
gene 2 355 347 -1.1462764538108727 0 3977 -1.1462764538108727 0
gene 1 231 447 0.68922068513427903 0 4316 0.68922068513427903 1
gene 1 447 119 2.8873137209505373 0 4317 2.8873137209505373 1
gene 2 210 347 1.1211066470114079 0 4554 1.1211066470114079 1
gene 3 304 477 0.63605092472212887 0 4589 0.63605092472212887 0
gene 3 477 27 -0.46247443089376894 0 4590 -0.46247443089376894 1
gene 2 166 336 -0.92380571338525308 0 4661 -0.92380571338525308 1
gene 1 166 255 2.3339765490190949 0 4670 2.3339765490190949 0
gene 2 9 489 0.727848457511444 0 4679 0.727848457511444 1
gene 2 489 108 -0.81763949609251663 0 4680 -0.81763949609251663 1
gene 1 166 18 -1.0948337656887406 0 4688 -1.0948337656887406 1
gene 3 489 280 0.17260424684388764 0 4862 0.17260424684388764 1
gene 3 161 367 1.7538022407115446 0 4891 1.7538022407115446 1
gene 1 447 161 -1.1046237091555371 0 4934 -1.1046237091555371 1
gene 2 2 119 0.33198213127068343 0 4948 0.33198213127068343 1
gene 3 1 161 -1.0703894000362553 0 4999 -1.0703894000362553 1
gene 1 14 517 5.5558077174033071 0 5024 5.5558077174033071 1
gene 1 517 80 -1.8826631733135615 0 5025 -1.8826631733135615 1
gene 2 5 161 -1.1850207597878857 0 5032 -1.1850207597878857 1
gene 3 323 27 1.7514538940747517 0 5041 1.7514538940747517 1
gene 2 119 518 -1.9018334715635672 0 5083 -1.9018334715635672 1
gene 2 518 21 -0.43858468110607218 0 5084 -0.43858468110607218 1
gene 2 8 519 1.5332150166077607 0 5092 1.5332150166077607 1
gene 2 519 18 -0.23479732649158558 0 5093 -0.23479732649158558 1
gene 3 161 477 0.75222376536215818 0 5099 0.75222376536215818 1
gene 3 14 161 0.13091847888702446 0 5161 0.13091847888702446 1
gene 1 401 233 1.295315111891979 0 5168 1.295315111891979 0
gene 1 280 280 -1.3347550760185136 1 5180 -1.3347550760185136 1
gene 3 304 231 -2.4239187636058399 0 5190 -2.4239187636058399 1
gene 3 5 489 -0.16069737619752875 0 5203 -0.16069737619752875 1
gene 3 60 447 0.40426660534193115 0 5259 0.40426660534193115 1
gene 3 13 537 -0.03568834231034318 0 5266 -0.03568834231034318 1
gene 3 537 280 -1.7137943439715517 0 5267 -1.7137943439715517 1
gene 1 166 538 2.2341396681657715 0 5271 2.2341396681657715 1
gene 1 538 255 2.2182354057292617 0 5272 2.2182354057292617 1
gene 3 304 540 -0.12295296630959629 0 5283 -0.12295296630959629 1
gene 3 540 477 -0.52642643685751889 0 5284 -0.52642643685751889 1
gene 1 401 548 0.59347530807995952 0 5347 0.59347530807995952 1
gene 1 548 233 -0.32952400545101801 0 5348 -0.32952400545101801 1
gene 3 15 336 0.84694677095252402 0 5360 0.84694677095252402 1
gene 1 2 519 0.032662538826774126 0 5630 0.032662538826774126 1
gene 3 16 576 3.9077058212867497 0 5676 3.9077058212867497 1
gene 3 576 21 -0.86963235627377067 0 5677 -0.86963235627377067 1
gene 1 15 537 -1.1594084020049351 0 5726 -1.1594084020049351 1
gene 2 5 537 -0.2242896227279163 0 5741 -0.2242896227279163 1
gene 3 401 401 0.14844292129783096 1 5802 0.14844292129783096 1
gene 2 4 588 -0.6930370536600412 0 5859 -0.6930370536600412 1
gene 2 588 60 -2.1074546378140595 0 5860 -2.1074546378140595 1
gene 1 347 347 -1.178876567715256 1 6019 -1.178876567715256 1
gene 1 537 537 -1.4657784807336416 1 6028 -1.4657784807336416 1
gene 2 477 280 -0.1727956028994152 0 6042 -0.1727956028994152 1
gene 2 15 447 0.89032184513766399 0 6051 0.89032184513766399 1
gene 2 537 60 0.16380085407933259 0 6072 0.16380085407933259 1
genomeend 1
