/*  */
genomestart 9
trait 1 0.100000 0.000000 0.000000 0.000000 0.000000 0.000000 0.000000 0.000000 
trait 2 0.200000 0.000000 0.000000 0.000000 0.000000 0.000000 0.000000 0.000000 
trait 3 0.300000 0.000000 0.000000 0.000000 0.000000 0.000000 0.000000 0.000000 
node 1 3 1 3
node 2 2 1 1
node 3 2 1 1
node 4 2 1 1
node 5 3 1 1
node 6 2 1 1
node 7 1 1 1
node 8 1 1 1
node 9 3 1 1
node 10 3 1 1
node 11 2 1 1
node 12 2 1 1
node 13 3 1 1
node 14 1 1 1
node 15 3 1 1
node 16 3 1 1
node 17 3 0 2
node 18 1 0 2
gene 2 1 17 -0.1644072701057453 0 1 -0.1644072701057453 1
gene 1 2 17 0.42961364771687127 0 2 0.42961364771687127 1
gene 1 3 17 -0.1243783403767172 0 3 -0.1243783403767172 1
gene 1 4 17 -0.92136669155273898 0 4 -0.92136669155273898 1
gene 2 5 17 0.8721258099526753 0 5 0.8721258099526753 1
gene 1 6 17 -0.2197460635657171 0 6 -0.2197460635657171 1
gene 2 7 17 -0.073086660389363137 0 7 -0.073086660389363137 1
gene 3 8 17 0.29844846636915973 0 8 0.29844846636915973 1
gene 3 9 17 -0.97617832942687832 0 9 -0.97617832942687832 1
gene 1 10 17 -0.55573492849047057 0 10 -0.55573492849047057 1
gene 3 11 17 0.35606452606435146 0 11 0.35606452606435146 1
gene 2 12 17 0.6817586820953333 0 12 0.6817586820953333 1
gene 3 13 17 -0.96218253577229684 0 13 -0.96218253577229684 1
gene 3 14 17 0.77502464725404263 0 14 0.77502464725404263 1
gene 3 15 17 -0.58649819185328589 0 15 -0.58649819185328589 1
gene 2 16 17 0.88153357006680855 0 16 0.88153357006680855 1
gene 1 1 18 -0.24816296540580829 0 17 -0.24816296540580829 1
gene 3 2 18 0.081010531206154507 0 18 0.081010531206154507 1
gene 1 3 18 -0.17028263545142611 0 19 -0.17028263545142611 1
gene 2 4 18 -0.78889231839631324 0 20 -0.78889231839631324 1
gene 3 5 18 -0.36540272942064456 0 21 -0.36540272942064456 1
gene 3 6 18 0.23901852603956056 0 22 0.23901852603956056 1
gene 2 7 18 0.8040288578737661 0 23 0.8040288578737661 1
gene 2 8 18 -0.62700914667314345 0 24 -0.62700914667314345 1
gene 3 9 18 0.41176527850877742 0 25 0.41176527850877742 1
gene 3 10 18 0.67503195846221964 0 26 0.67503195846221964 1
gene 3 11 18 0.62524824432341763 0 27 0.62524824432341763 1
gene 2 12 18 -0.30479314984045602 0 28 -0.30479314984045602 1
gene 2 13 18 0.4139864395437699 0 29 0.4139864395437699 1
gene 3 14 18 0.051216045884050453 0 30 0.051216045884050453 1
gene 2 15 18 0.39972518915297706 0 31 0.39972518915297706 1
gene 3 16 18 0.75139009335608686 0 32 0.75139009335608686 1
genomeend 9


