/*  */
genomestart 22
trait 1 0.100000 0.000000 0.000000 0.000000 0.000000 0.000000 0.000000 0.000000 
trait 2 0.200000 0.000000 0.000000 0.000000 0.000000 0.000000 0.000000 0.000000 
trait 3 0.300000 0.000000 0.000000 0.000000 0.000000 0.000000 0.000000 0.000000 
node 1 2 1 3
node 2 2 1 1
node 3 2 1 1
node 4 3 1 1
node 5 2 1 1
node 6 2 1 1
node 7 2 1 1
node 8 3 1 1
node 9 1 1 1
node 10 2 1 1
node 11 2 1 1
node 12 2 1 1
node 13 1 1 1
node 14 3 1 1
node 15 2 1 1
node 16 3 1 1
node 17 1 0 2
node 18 1 0 2
gene 1 1 17 0.30318371406904593 0 1 0.30318371406904593 1
gene 1 2 17 -0.26971619402510866 0 2 -0.26971619402510866 1
gene 3 3 17 -0.70866666860350713 0 3 -0.70866666860350713 1
gene 2 4 17 0.36447345575526052 0 4 0.36447345575526052 1
gene 2 5 17 0.75105906825096302 0 5 0.75105906825096302 1
gene 3 6 17 0.89868814307203893 0 6 0.89868814307203893 1
gene 3 7 17 0.028730238801208435 0 7 0.028730238801208435 1
gene 1 8 17 0.03196502664683621 0 8 0.03196502664683621 1
gene 3 9 17 0.17916405535264129 0 9 0.17916405535264129 1
gene 1 10 17 -0.65329958854862469 0 10 -0.65329958854862469 1
gene 2 11 17 0.66955301383023758 0 11 0.66955301383023758 1
gene 3 12 17 0.76302280685073831 0 12 0.76302280685073831 1
gene 3 13 17 0.39978685434897748 0 13 0.39978685434897748 1
gene 1 14 17 0.097513512753654982 0 14 0.097513512753654982 1
gene 3 15 17 0.46164375425392934 0 15 0.46164375425392934 1
gene 2 16 17 0.19142300365093304 0 16 0.19142300365093304 1
gene 1 1 18 -0.20288927815989091 0 17 -0.20288927815989091 1
gene 1 2 18 -0.79327319599374813 0 18 -0.79327319599374813 1
gene 3 3 18 -0.38817696431101156 0 19 -0.38817696431101156 1
gene 3 4 18 -0.90458576656160217 0 20 -0.90458576656160217 1
gene 3 5 18 0.53323686240857326 0 21 0.53323686240857326 1
gene 1 6 18 -0.10270830807402186 0 22 -0.10270830807402186 1
gene 1 7 18 0.58373352307068815 0 23 0.58373352307068815 1
gene 1 8 18 -0.74084771272765837 0 24 -0.74084771272765837 1
gene 3 9 18 0.28379501229328802 0 25 0.28379501229328802 1
gene 1 10 18 -0.7405194778649693 0 26 -0.7405194778649693 1
gene 1 11 18 0.4088099232915835 0 27 0.4088099232915835 1
gene 2 12 18 -0.11480381298568278 0 28 -0.11480381298568278 1
gene 2 13 18 0.24238158866874016 0 29 0.24238158866874016 1
gene 2 14 18 0.36986078804818018 0 30 0.36986078804818018 1
gene 2 15 18 0.29625397329044245 0 31 0.29625397329044245 1
gene 2 16 18 -0.15419520305199325 0 32 -0.15419520305199325 1
genomeend 22


