/*  */
genomestart 45
trait 1 0.100000 0.000000 0.000000 0.000000 0.000000 0.000000 0.000000 0.000000 
trait 2 0.200000 0.000000 0.000000 0.000000 0.000000 0.000000 0.000000 0.000000 
trait 3 0.300000 0.000000 0.000000 0.000000 0.000000 0.000000 0.000000 0.000000 
node 1 1 1 3
node 2 2 1 1
node 3 1 1 1
node 4 1 1 1
node 5 3 1 1
node 6 1 1 1
node 7 1 1 1
node 8 3 1 1
node 9 1 1 1
node 10 1 1 1
node 11 2 1 1
node 12 2 1 1
node 13 2 1 1
node 14 3 1 1
node 15 1 1 1
node 16 2 1 1
node 17 1 0 2
node 18 3 0 2
gene 1 1 17 -0.26664383908111783 0 1 -0.26664383908111783 1
gene 2 2 17 0.92057881640297301 0 2 0.92057881640297301 1
gene 1 3 17 0.75209140952308262 0 3 0.75209140952308262 1
gene 1 4 17 -0.56239271376393396 0 4 -0.56239271376393396 1
gene 1 5 17 0.61202852130496344 0 5 0.61202852130496344 1
gene 2 6 17 -0.2827783498367194 0 6 -0.2827783498367194 1
gene 2 7 17 0.62476355611568479 0 7 0.62476355611568479 1
gene 3 8 17 0.9213657793222767 0 8 0.9213657793222767 1
gene 3 9 17 -0.0023934408102153993 0 9 -0.0023934408102153993 1
gene 3 10 17 -0.13731970178769887 0 10 -0.13731970178769887 1
gene 2 11 17 -0.88917122031057771 0 11 -0.88917122031057771 1
gene 3 12 17 -0.093384463383529556 0 12 -0.093384463383529556 1
gene 2 13 17 -0.88163327047677398 0 13 -0.88163327047677398 1
gene 2 14 17 -0.45053144285945756 0 14 -0.45053144285945756 1
gene 2 15 17 0.42860021136170262 0 15 0.42860021136170262 1
gene 1 16 17 -0.058215430499154806 0 16 -0.058215430499154806 1
gene 3 1 18 -0.59946483867218014 0 17 -0.59946483867218014 1
gene 2 2 18 0.9375243279792016 0 18 0.9375243279792016 1
gene 1 3 18 0.35793772868716051 0 19 0.35793772868716051 1
gene 1 4 18 -0.0050413655140629813 0 20 -0.0050413655140629813 1
gene 2 5 18 -0.18404321194814668 0 21 -0.18404321194814668 1
gene 2 6 18 0.87413109507138431 0 22 0.87413109507138431 1
gene 1 7 18 0.59997543301432177 0 23 0.59997543301432177 1
gene 1 8 18 0.82486659000854312 0 24 0.82486659000854312 1
gene 1 9 18 0.46222172512776299 0 25 0.46222172512776299 1
gene 1 10 18 -0.15945141583655562 0 26 -0.15945141583655562 1
gene 3 11 18 0.99712740396947008 0 27 0.99712740396947008 1
gene 1 12 18 0.13884310477359366 0 28 0.13884310477359366 1
gene 3 13 18 -0.66834917136856786 0 29 -0.66834917136856786 1
gene 3 14 18 0.27201979526878323 0 30 0.27201979526878323 1
gene 2 15 18 -0.43430516143995579 0 31 -0.43430516143995579 1
gene 3 16 18 -0.1451369738882114 0 32 -0.1451369738882114 1
genomeend 45


