genomestart 16
trait 1 0.1 0 0 0 0 0 0 0 
trait 2 0.2 0 0 0 0 0 0 0 
trait 3 0.3 0 0 0 0 0 0 0 
node 1 2 1 3
node 2 2 1 1
node 3 1 1 1
node 4 1 1 1
node 5 1 1 1
node 6 1 1 1
node 7 1 1 1
node 8 2 1 1
node 9 2 1 1
node 10 3 1 1
node 11 2 1 1
node 12 2 1 1
node 13 3 1 1
node 14 3 1 1
node 15 1 1 1
node 16 3 1 1
node 17 3 0 2
node 18 1 0 2
gene 3 1 17 0.093952116600215491 0 1 0.093952116600215491 1
gene 3 2 17 -0.13660218386752632 0 2 -0.13660218386752632 1
gene 1 3 17 -0.11374479165009446 0 3 -0.11374479165009446 1
gene 2 4 17 0.2559092316105539 0 4 0.2559092316105539 1
gene 1 5 17 0.84427761325811856 0 5 0.84427761325811856 1
gene 3 6 17 0.95171573057384962 0 6 0.95171573057384962 1
gene 3 7 17 -0.11598012229240505 0 7 -0.11598012229240505 1
gene 3 8 17 0.057405266471861519 0 8 0.057405266471861519 1
gene 1 9 17 0.72385878615261001 0 9 0.72385878615261001 1
gene 1 10 17 0.82303323262512373 0 10 0.82303323262512373 1
gene 3 11 17 0.557954639921875 0 11 0.557954639921875 1
gene 2 12 17 -0.3112692829739625 0 12 -0.3112692829739625 1
gene 3 13 17 0.25746502133899601 0 13 0.25746502133899601 1
gene 2 14 17 0.41510245316433836 0 14 0.41510245316433836 1
gene 3 15 17 -0.94178875719280386 0 15 -0.94178875719280386 1
gene 1 16 17 -0.92090355787468303 0 16 -0.92090355787468303 1
gene 2 1 18 0.63900154160289169 0 17 0.63900154160289169 1
gene 1 2 18 0.18660126169519559 0 18 0.18660126169519559 1
gene 2 3 18 -0.85632776043206815 0 19 -0.85632776043206815 1
gene 1 4 18 0.0030907108462838043 0 20 0.0030907108462838043 1
gene 1 5 18 -0.36824580066290025 0 21 -0.36824580066290025 1
gene 3 6 18 -0.045739362503280569 0 22 -0.045739362503280569 1
gene 3 7 18 0.38577834255331117 0 23 0.38577834255331117 1
gene 2 8 18 0.70972342589391557 0 24 0.70972342589391557 1
gene 3 9 18 0.45196359159981997 0 25 0.45196359159981997 1
gene 3 10 18 0.48874063905735532 0 26 0.48874063905735532 1
gene 2 11 18 -0.38108027231929836 0 27 -0.38108027231929836 1
gene 1 12 18 0.206214510466072 0 28 0.206214510466072 1
gene 3 13 18 -0.24397507041877836 0 29 -0.24397507041877836 1
gene 2 14 18 0.55534948527596406 0 30 0.55534948527596406 1
gene 3 15 18 0.24914353212767446 0 31 0.24914353212767446 1
gene 3 16 18 0.12240093300230845 0 32 0.12240093300230845 1
genomeend 16
