/*  */
genomestart 1
trait 1 0.100000 0.000000 0.000000 0.000000 0.000000 0.000000 0.000000 0.000000 
trait 2 0.200000 0.000000 0.000000 0.000000 0.000000 0.000000 0.000000 0.000000 
trait 3 0.300000 0.000000 0.000000 0.000000 0.000000 0.000000 0.000000 0.000000 
node 1 2 1 3
node 2 3 1 1
node 3 1 1 1
node 4 2 1 1
node 5 2 1 1
node 6 2 1 1
node 7 1 1 1
node 8 2 1 1
node 9 3 1 1
node 10 3 1 1
node 11 1 1 1
node 12 1 1 1
node 13 1 1 1
node 14 1 1 1
node 15 3 1 1
node 16 3 1 1
node 17 2 0 2
node 18 2 0 2
gene 2 1 17 0.43583344176217609 0 1 0.43583344176217609 1
gene 1 2 17 -0.078387839290494019 0 2 -0.078387839290494019 1
gene 3 3 17 -0.82239396768733575 0 3 -0.82239396768733575 1
gene 3 4 17 0.50515934755334602 0 4 0.50515934755334602 1
gene 3 5 17 0.066053024523916204 0 5 0.066053024523916204 1
gene 1 6 17 0.94550655546854556 0 6 0.94550655546854556 1
gene 3 7 17 0.32174354061565524 0 7 0.32174354061565524 1
gene 1 8 17 -0.29320432818178288 0 8 -0.29320432818178288 1
gene 2 9 17 0.54186675676231588 0 9 0.54186675676231588 1
gene 2 10 17 -0.32182151932354158 0 10 -0.32182151932354158 1
gene 3 11 17 0.26756448450850534 0 11 0.26756448450850534 1
gene 1 12 17 -0.69507231735394914 0 12 -0.69507231735394914 1
gene 3 13 17 -0.020287187313794711 0 13 -0.020287187313794711 1
gene 2 14 17 0.032636011965869002 0 14 0.032636011965869002 1
gene 1 15 17 -0.60829170309393277 0 15 -0.60829170309393277 1
gene 1 16 17 -0.28481122026444006 0 16 -0.28481122026444006 1
gene 1 1 18 0.14015992085456844 0 17 0.14015992085456844 1
gene 3 2 18 -0.090842433316094068 0 18 -0.090842433316094068 1
gene 2 3 18 -0.2394313836653863 0 19 -0.2394313836653863 1
gene 2 4 18 -0.1899784515565161 0 20 -0.1899784515565161 1
gene 1 5 18 -0.45112890631478697 0 21 -0.45112890631478697 1
gene 1 6 18 0.077288761770952855 0 22 0.077288761770952855 1
gene 2 7 18 0.086433672386423535 0 23 0.086433672386423535 1
gene 2 8 18 -0.067369875529487561 0 24 -0.067369875529487561 1
gene 2 9 18 -0.49780746013755328 0 25 -0.49780746013755328 1
gene 3 10 18 -0.17326302135980828 0 26 -0.17326302135980828 1
gene 3 11 18 0.32284469638152269 0 27 0.32284469638152269 1
gene 1 12 18 -0.74583659029837535 0 28 -0.74583659029837535 1
gene 3 13 18 0.38942227996393214 0 29 0.38942227996393214 1
gene 1 14 18 -0.69629130591465682 0 30 -0.69629130591465682 1
gene 3 15 18 -0.076110407279855755 0 31 -0.076110407279855755 1
gene 2 16 18 -0.86619125672904362 0 32 -0.86619125672904362 1
genomeend 1


