genomestart 19
trait 1 0.1 0 0 0 0 0 0 0 
trait 2 0.2 0 0 0 0 0 0 0 
trait 3 0.3 0 0 0 0 0 0 0 
node 1 1 1 3
node 2 2 1 1
node 3 3 1 1
node 4 3 1 1
node 5 3 1 1
node 6 3 1 1
node 7 3 1 1
node 8 2 1 1
node 9 2 1 1
node 10 2 1 1
node 11 3 1 1
node 12 3 1 1
node 13 2 1 1
node 14 2 1 1
node 15 1 1 1
node 16 3 1 1
node 17 2 0 2
node 18 2 0 2
gene 3 1 17 -0.27379114053854309 0 1 -0.27379114053854309 1
gene 1 2 17 0.76246203424523684 0 2 0.76246203424523684 1
gene 3 3 17 0.72305447921299115 0 3 0.72305447921299115 1
gene 3 4 17 0.04814132165542865 0 4 0.04814132165542865 1
gene 2 5 17 0.92711327128443555 0 5 0.92711327128443555 1
gene 3 6 17 -0.29240816239845385 0 6 -0.29240816239845385 1
gene 2 7 17 0.19304456198264125 0 7 0.19304456198264125 1
gene 2 8 17 0.82728822241876654 0 8 0.82728822241876654 1
gene 2 9 17 0.47411068085306823 0 9 0.47411068085306823 1
gene 2 10 17 -0.69104507085450229 0 10 -0.69104507085450229 1
gene 3 11 17 -0.65498279717517216 0 11 -0.65498279717517216 1
gene 3 12 17 0.2723675813862903 0 12 0.2723675813862903 1
gene 3 13 17 -0.92161223009303783 0 13 -0.92161223009303783 1
gene 3 14 17 -0.043950232697627614 0 14 -0.043950232697627614 1
gene 1 15 17 -0.69128687292863 0 15 -0.69128687292863 1
gene 3 16 17 -0.80675343694479829 0 16 -0.80675343694479829 1
gene 3 1 18 -0.58300449586613312 0 17 -0.58300449586613312 1
gene 2 2 18 0.48862817859678909 0 18 0.48862817859678909 1
gene 3 3 18 0.59885487686789352 0 19 0.59885487686789352 1
gene 2 4 18 -0.21201383798011292 0 20 -0.21201383798011292 1
gene 1 5 18 -0.23379588650250616 0 21 -0.23379588650250616 1
gene 1 6 18 0.71905634259761142 0 22 0.71905634259761142 1
gene 1 7 18 0.56763558814657644 0 23 0.56763558814657644 1
gene 1 8 18 -0.26291551173800393 0 24 -0.26291551173800393 1
gene 1 9 18 0.66921746855099573 0 25 0.66921746855099573 1
gene 3 10 18 -0.50463613332465107 0 26 -0.50463613332465107 1
gene 3 11 18 0.022770351275229059 0 27 0.022770351275229059 1
gene 1 12 18 0.58438967148977783 0 28 0.58438967148977783 1
gene 3 13 18 -0.22380562463021167 0 29 -0.22380562463021167 1
gene 1 14 18 0.012929998809904791 0 30 0.012929998809904791 1
gene 3 15 18 -0.51962251938861914 0 31 -0.51962251938861914 1
gene 2 16 18 -0.88017051102601485 0 32 -0.88017051102601485 1
genomeend 19
