genomestart 29
trait 1 0.1 0 0 0 0 0 0 0 
trait 2 0.2 0 0 0 0 0 0 0 
trait 3 0.3 0 0 0 0 0 0 0 
node 1 1 1 3
node 2 1 1 1
node 3 2 1 1
node 4 3 1 1
node 5 1 1 1
node 6 3 1 1
node 7 2 1 1
node 8 1 1 1
node 9 2 1 1
node 10 3 1 1
node 11 3 1 1
node 12 1 1 1
node 13 1 1 1
node 14 1 1 1
node 15 3 1 1
node 16 3 1 1
node 17 3 0 2
node 18 1 0 2
gene 1 1 17 -0.66453774630303386 0 1 -0.66453774630303386 1
gene 3 2 17 -0.48329828096707272 0 2 -0.48329828096707272 1
gene 3 3 17 0.37475415522919697 0 3 0.37475415522919697 1
gene 1 4 17 -0.83160637264680415 0 4 -0.83160637264680415 1
gene 1 5 17 0.31981042787423841 0 5 0.31981042787423841 1
gene 3 6 17 -0.019705165186759629 0 6 -0.019705165186759629 1
gene 2 7 17 -0.32312403913732807 0 7 -0.32312403913732807 1
gene 1 8 17 0.36987545684439849 0 8 0.36987545684439849 1
gene 2 9 17 0.5446571812707266 0 9 0.5446571812707266 1
gene 1 10 17 0.93583032951496092 0 10 0.93583032951496092 1
gene 2 11 17 0.77678720083869401 0 11 0.77678720083869401 1
gene 3 12 17 0.62182237981903477 0 12 0.62182237981903477 1
gene 1 13 17 0.62447199207938831 0 13 0.62447199207938831 1
gene 3 14 17 0.28416381463602364 0 14 0.28416381463602364 1
gene 3 15 17 0.94893328517160069 0 15 0.94893328517160069 1
gene 3 16 17 0.51910202043089182 0 16 0.51910202043089182 1
gene 3 1 18 0.83189057131851585 0 17 0.83189057131851585 1
gene 1 2 18 0.32936183844197625 0 18 0.32936183844197625 1
gene 3 3 18 0.78577648652055132 0 19 0.78577648652055132 1
gene 1 4 18 0.74221473408034755 0 20 0.74221473408034755 1
gene 2 5 18 -0.89563815989328466 0 21 -0.89563815989328466 1
gene 2 6 18 0.91581003550244966 0 22 0.91581003550244966 1
gene 2 7 18 0.33523137789928886 0 23 0.33523137789928886 1
gene 1 8 18 0.72286897512286385 0 24 0.72286897512286385 1
gene 2 9 18 -0.71873825123474855 0 25 -0.71873825123474855 1
gene 2 10 18 0.45645198154097982 0 26 0.45645198154097982 1
gene 2 11 18 -0.55948346972441465 0 27 -0.55948346972441465 1
gene 2 12 18 0.5828211170541221 0 28 0.5828211170541221 1
gene 1 13 18 -0.95492433707924762 0 29 -0.95492433707924762 1
gene 2 14 18 -0.17993270148520019 0 30 -0.17993270148520019 1
gene 3 15 18 0.69795944201664972 0 31 0.69795944201664972 1
gene 2 16 18 0.54005755509252551 0 32 0.54005755509252551 1
genomeend 29
