/*  */
genomestart 42
trait 1 0.100000 0.000000 0.000000 0.000000 0.000000 0.000000 0.000000 0.000000 
trait 2 0.200000 0.000000 0.000000 0.000000 0.000000 0.000000 0.000000 0.000000 
trait 3 0.300000 0.000000 0.000000 0.000000 0.000000 0.000000 0.000000 0.000000 
node 1 2 1 3
node 2 2 1 1
node 3 3 1 1
node 4 2 1 1
node 5 3 1 1
node 6 3 1 1
node 7 1 1 1
node 8 3 1 1
node 9 1 1 1
node 10 2 1 1
node 11 1 1 1
node 12 1 1 1
node 13 3 1 1
node 14 3 1 1
node 15 3 1 1
node 16 3 1 1
node 17 3 0 2
node 18 1 0 2
gene 2 1 17 0.78480467655919706 0 1 0.78480467655919706 1
gene 1 2 17 0.6844741207009527 0 2 0.6844741207009527 1
gene 1 3 17 0.47440247492604071 0 3 0.47440247492604071 1
gene 2 4 17 -0.25748454791376579 0 4 -0.25748454791376579 1
gene 3 5 17 -0.87679871585071023 0 5 -0.87679871585071023 1
gene 1 6 17 -0.060763940243406193 0 6 -0.060763940243406193 1
gene 2 7 17 -0.67166897872074927 0 7 -0.67166897872074927 1
gene 1 8 17 -0.79151952303551121 0 8 -0.79151952303551121 1
gene 2 9 17 0.49480812088344622 0 9 0.49480812088344622 1
gene 2 10 17 -0.13555778802165658 0 10 -0.13555778802165658 1
gene 1 11 17 0.19952439805470612 0 11 0.19952439805470612 1
gene 1 12 17 -0.43774846076860485 0 12 -0.43774846076860485 1
gene 1 13 17 -0.35164066653309423 0 13 -0.35164066653309423 1
gene 2 14 17 -0.42824381842661829 0 14 -0.42824381842661829 1
gene 3 15 17 -0.98543811309404583 0 15 -0.98543811309404583 1
gene 3 16 17 0.91180744716516116 0 16 0.91180744716516116 1
gene 1 1 18 -0.60442166244817042 0 17 -0.60442166244817042 1
gene 2 2 18 -0.10201620082464824 0 18 -0.10201620082464824 1
gene 3 3 18 -0.77957230190726567 0 19 -0.77957230190726567 1
gene 2 4 18 0.89928834740970676 0 20 0.89928834740970676 1
gene 1 5 18 0.45213019915489955 0 21 0.45213019915489955 1
gene 2 6 18 0.84379004214135467 0 22 0.84379004214135467 1
gene 3 7 18 0.94935696523140978 0 23 0.94935696523140978 1
gene 2 8 18 0.31529548592646395 0 24 0.31529548592646395 1
gene 2 9 18 -0.29710920494846499 0 25 -0.29710920494846499 1
gene 1 10 18 -0.48688022256217905 0 26 -0.48688022256217905 1
gene 2 11 18 0.20385913746611176 0 27 0.20385913746611176 1
gene 2 12 18 -0.71081405678336229 0 28 -0.71081405678336229 1
gene 3 13 18 -0.94052121087001694 0 29 -0.94052121087001694 1
gene 2 14 18 -0.73558678000028566 0 30 -0.73558678000028566 1
gene 3 15 18 -0.59240255904961492 0 31 -0.59240255904961492 1
gene 3 16 18 0.1363504450471841 0 32 0.1363504450471841 1
genomeend 42


