/*  */
genomestart 18
trait 1 0.100000 0.000000 0.000000 0.000000 0.000000 0.000000 0.000000 0.000000 
trait 2 0.200000 0.000000 0.000000 0.000000 0.000000 0.000000 0.000000 0.000000 
trait 3 0.300000 0.000000 0.000000 0.000000 0.000000 0.000000 0.000000 0.000000 
node 1 3 1 3
node 2 3 1 1
node 3 2 1 1
node 4 3 1 1
node 5 1 1 1
node 6 2 1 1
node 7 2 1 1
node 8 1 1 1
node 9 1 1 1
node 10 1 1 1
node 11 3 1 1
node 12 2 1 1
node 13 3 1 1
node 14 1 1 1
node 15 3 1 1
node 16 2 1 1
node 17 2 0 2
node 18 2 0 2
gene 3 1 17 0.70366258439778473 0 1 0.70366258439778473 1
gene 3 2 17 -0.18800795645825935 0 2 -0.18800795645825935 1
gene 1 3 17 0.48088003624271602 0 3 0.48088003624271602 1
gene 2 4 17 -0.39545988403049293 0 4 -0.39545988403049293 1
gene 3 5 17 -0.22546400512823089 0 5 -0.22546400512823089 1
gene 1 6 17 -0.61119124694317173 0 6 -0.61119124694317173 1
gene 3 7 17 -0.65780394135872089 0 7 -0.65780394135872089 1
gene 2 8 17 -0.67408909214385282 0 8 -0.67408909214385282 1
gene 2 9 17 -0.57743896431170361 0 9 -0.57743896431170361 1
gene 3 10 17 -0.3508294291565332 0 10 -0.3508294291565332 1
gene 1 11 17 0.26151947829011801 0 11 0.26151947829011801 1
gene 2 12 17 -0.29343550759061959 0 12 -0.29343550759061959 1
gene 3 13 17 -0.28198100406768778 0 13 -0.28198100406768778 1
gene 3 14 17 0.26143094909444031 0 14 0.26143094909444031 1
gene 3 15 17 -0.26888599818054865 0 15 -0.26888599818054865 1
gene 3 16 17 -0.77955983336063095 0 16 -0.77955983336063095 1
gene 2 1 18 0.89580060723042143 0 17 0.89580060723042143 1
gene 3 2 18 0.40612515686365086 0 18 0.40612515686365086 1
gene 1 3 18 0.96462468661583245 0 19 0.96462468661583245 1
gene 2 4 18 0.051985127875574459 0 20 0.051985127875574459 1
gene 1 5 18 0.18079921192526779 0 21 0.18079921192526779 1
gene 1 6 18 -0.25573954184341224 0 22 -0.25573954184341224 1
gene 2 7 18 0.93779042220571562 0 23 0.93779042220571562 1
gene 1 8 18 0.24281644366812727 0 24 0.24281644366812727 1
gene 1 9 18 -0.54425807788235048 0 25 -0.54425807788235048 1
gene 2 10 18 -0.70509402253902242 0 26 -0.70509402253902242 1
gene 1 11 18 -0.29713810388796874 0 27 -0.29713810388796874 1
gene 3 12 18 -0.78081794352308753 0 28 -0.78081794352308753 1
gene 1 13 18 0.22045284659622835 0 29 0.22045284659622835 1
gene 2 14 18 -0.24292135669054526 0 30 -0.24292135669054526 1
gene 2 15 18 -0.15156778607124824 0 31 -0.15156778607124824 1
gene 1 16 18 -0.1242939080690471 0 32 -0.1242939080690471 1
genomeend 18


