genomestart 24
trait 1 0.1 0 0 0 0 0 0 0 
trait 2 0.2 0 0 0 0 0 0 0 
trait 3 0.3 0 0 0 0 0 0 0 
node 1 3 1 3
node 2 2 1 1
node 3 3 1 1
node 4 3 1 1
node 5 2 1 1
node 6 3 1 1
node 7 1 1 1
node 8 3 1 1
node 9 2 1 1
node 10 2 1 1
node 11 1 1 1
node 12 1 1 1
node 13 3 1 1
node 14 1 1 1
node 15 3 1 1
node 16 3 1 1
node 17 2 0 2
node 18 3 0 2
gene 3 1 17 -0.61286366386938085 0 1 -0.61286366386938085 1
gene 3 2 17 0.16159832950755876 0 2 0.16159832950755876 1
gene 1 3 17 -0.60253557218356779 0 3 -0.60253557218356779 1
gene 3 4 17 -0.86443269199898121 0 4 -0.86443269199898121 1
gene 3 5 17 -0.92537833374244083 0 5 -0.92537833374244083 1
gene 2 6 17 0.30400951220840661 0 6 0.30400951220840661 1
gene 3 7 17 0.54686787004902393 0 7 0.54686787004902393 1
gene 2 8 17 -0.58368374248206789 0 8 -0.58368374248206789 1
gene 3 9 17 0.26565717173072378 0 9 0.26565717173072378 1
gene 1 10 17 -0.94956515540814268 0 10 -0.94956515540814268 1
gene 2 11 17 -0.41386580207099477 0 11 -0.41386580207099477 1
gene 2 12 17 0.19311410616762661 0 12 0.19311410616762661 1
gene 1 13 17 -0.97503683388933393 0 13 -0.97503683388933393 1
gene 3 14 17 0.25108926289299932 0 14 0.25108926289299932 1
gene 1 15 17 0.3733276777776553 0 15 0.3733276777776553 1
gene 3 16 17 -0.11922858009078939 0 16 -0.11922858009078939 1
gene 3 1 18 0.51263210154726735 0 17 0.51263210154726735 1
gene 2 2 18 -0.9574413946631557 0 18 -0.9574413946631557 1
gene 3 3 18 -0.13784301380526415 0 19 -0.13784301380526415 1
gene 2 4 18 -0.93176330576267252 0 20 -0.93176330576267252 1
gene 2 5 18 -0.61097451281313531 0 21 -0.61097451281313531 1
gene 2 6 18 -0.037061652651551015 0 22 -0.037061652651551015 1
gene 3 7 18 0.85735944372478845 0 23 0.85735944372478845 1
gene 3 8 18 0.15254791414018157 0 24 0.15254791414018157 1
gene 3 9 18 0.65707675537889676 0 25 0.65707675537889676 1
gene 2 10 18 -0.50222778762794462 0 26 -0.50222778762794462 1
gene 3 11 18 0.42139405357716331 0 27 0.42139405357716331 1
gene 2 12 18 0.14352011268191045 0 28 0.14352011268191045 1
gene 2 13 18 0.99944934854258283 0 29 0.99944934854258283 1
gene 2 14 18 0.99004507716281576 0 30 0.99004507716281576 1
gene 2 15 18 -0.36900006065564234 0 31 -0.36900006065564234 1
gene 1 16 18 0.35896836750161293 0 32 0.35896836750161293 1
genomeend 24
