genomestart 39
trait 1 0.1 0 0 0 0 0 0 0 
trait 2 0.2 0 0 0 0 0 0 0 
trait 3 0.3 0 0 0 0 0 0 0 
node 1 3 1 3
node 2 1 1 1
node 3 1 1 1
node 4 3 1 1
node 5 3 1 1
node 6 3 1 1
node 7 1 1 1
node 8 1 1 1
node 9 2 1 1
node 10 1 1 1
node 11 1 1 1
node 12 2 1 1
node 13 2 1 1
node 14 2 1 1
node 15 3 1 1
node 16 1 1 1
node 17 2 0 2
node 18 1 0 2
gene 2 1 17 0.50690148980678129 0 1 0.50690148980678129 1
gene 1 2 17 -0.49910476966719364 0 2 -0.49910476966719364 1
gene 3 3 17 0.52270006133369173 0 3 0.52270006133369173 1
gene 2 4 17 0.480908723306334 0 4 0.480908723306334 1
gene 1 5 17 -0.94440342623014162 0 5 -0.94440342623014162 1
gene 3 6 17 0.23865137120646024 0 6 0.23865137120646024 1
gene 2 7 17 0.48278416995088763 0 7 0.48278416995088763 1
gene 2 8 17 -0.59133952371372822 0 8 -0.59133952371372822 1
gene 3 9 17 -0.83356588978020751 0 9 -0.83356588978020751 1
gene 1 10 17 0.81411231999011358 0 10 0.81411231999011358 1
gene 2 11 17 -0.13743381162054549 0 11 -0.13743381162054549 1
gene 2 12 17 0.12564120400959683 0 12 0.12564120400959683 1
gene 1 13 17 0.38542492705649928 0 13 0.38542492705649928 1
gene 1 14 17 -0.47599178015999111 0 14 -0.47599178015999111 1
gene 2 15 17 0.46416035735242084 0 15 0.46416035735242084 1
gene 2 16 17 0.6164769477287666 0 16 0.6164769477287666 1
gene 1 1 18 0.33656836549591662 0 17 0.33656836549591662 1
gene 1 2 18 0.87600851053186157 0 18 0.87600851053186157 1
gene 1 3 18 -0.71636515237221732 0 19 -0.71636515237221732 1
gene 1 4 18 -0.81228216495936834 0 20 -0.81228216495936834 1
gene 2 5 18 0.97966241416505651 0 21 0.97966241416505651 1
gene 3 6 18 0.76397534961065994 0 22 0.76397534961065994 1
gene 2 7 18 -0.038859443757151925 0 23 -0.038859443757151925 1
gene 1 8 18 -0.476081917749756 0 24 -0.476081917749756 1
gene 2 9 18 0.23196192329375162 0 25 0.23196192329375162 1
gene 3 10 18 0.67295866816908056 0 26 0.67295866816908056 1
gene 2 11 18 -0.74465729982809037 0 27 -0.74465729982809037 1
gene 1 12 18 -0.58646874902139823 0 28 -0.58646874902139823 1
gene 1 13 18 0.45234264920109074 0 29 0.45234264920109074 1
gene 1 14 18 -0.6710203637699691 0 30 -0.6710203637699691 1
gene 1 15 18 0.18786433766962232 0 31 0.18786433766962232 1
gene 3 16 18 -0.88756485371271376 0 32 -0.88756485371271376 1
genomeend 39
