/*  */
genomestart 44
trait 1 0.100000 0.000000 0.000000 0.000000 0.000000 0.000000 0.000000 0.000000 
trait 2 0.200000 0.000000 0.000000 0.000000 0.000000 0.000000 0.000000 0.000000 
trait 3 0.300000 0.000000 0.000000 0.000000 0.000000 0.000000 0.000000 0.000000 
node 1 3 1 3
node 2 3 1 1
node 3 3 1 1
node 4 2 1 1
node 5 2 1 1
node 6 3 1 1
node 7 2 1 1
node 8 1 1 1
node 9 3 1 1
node 10 2 1 1
node 11 3 1 1
node 12 3 1 1
node 13 3 1 1
node 14 3 1 1
node 15 3 1 1
node 16 1 1 1
node 17 3 0 2
node 18 1 0 2
gene 1 1 17 0.76870259445565869 0 1 0.76870259445565869 1
gene 1 2 17 -0.11836949741391907 0 2 -0.11836949741391907 1
gene 3 3 17 -0.4593346963912876 0 3 -0.4593346963912876 1
gene 2 4 17 -0.18194719505586995 0 4 -0.18194719505586995 1
gene 3 5 17 0.54176916859195068 0 5 0.54176916859195068 1
gene 2 6 17 0.66834183906593447 0 6 0.66834183906593447 1
gene 1 7 17 0.60737627074465916 0 7 0.60737627074465916 1
gene 1 8 17 0.38045872998445235 0 8 0.38045872998445235 1
gene 1 9 17 -0.54642678357028718 0 9 -0.54642678357028718 1
gene 3 10 17 -0.45842455441990149 0 10 -0.45842455441990149 1
gene 1 11 17 0.049079658486451794 0 11 0.049079658486451794 1
gene 2 12 17 -0.29355349777897516 0 12 -0.29355349777897516 1
gene 2 13 17 -0.51310820249519695 0 13 -0.51310820249519695 1
gene 1 14 17 0.89399521234165658 0 14 0.89399521234165658 1
gene 1 15 17 0.29623736967157449 0 15 0.29623736967157449 1
gene 2 16 17 0.3931373527241579 0 16 0.3931373527241579 1
gene 1 1 18 -0.80121109532248747 0 17 -0.80121109532248747 1
gene 3 2 18 -0.43190742909531454 0 18 -0.43190742909531454 1
gene 2 3 18 0.28386662261740614 0 19 0.28386662261740614 1
gene 2 4 18 0.38177951815620975 0 20 0.38177951815620975 1
gene 1 5 18 0.017711883419059164 0 21 0.017711883419059164 1
gene 1 6 18 -0.54702634948632978 0 22 -0.54702634948632978 1
gene 1 7 18 0.28338163871475569 0 23 0.28338163871475569 1
gene 1 8 18 0.40036793863417952 0 24 0.40036793863417952 1
gene 1 9 18 0.21996672228908479 0 25 0.21996672228908479 1
gene 2 10 18 -0.26947316027687546 0 26 -0.26947316027687546 1
gene 3 11 18 -0.16087165016721544 0 27 -0.16087165016721544 1
gene 2 12 18 0.61839301167912453 0 28 0.61839301167912453 1
gene 3 13 18 -0.8354364688673227 0 29 -0.8354364688673227 1
gene 2 14 18 -0.5454825924455573 0 30 -0.5454825924455573 1
gene 2 15 18 -0.17757761626391561 0 31 -0.17757761626391561 1
gene 3 16 18 -0.1966138017348078 0 32 -0.1966138017348078 1
genomeend 44


