/*  */
genomestart 4
trait 1 0.100000 0.000000 0.000000 0.000000 0.000000 0.000000 0.000000 0.000000 
trait 2 0.200000 0.000000 0.000000 0.000000 0.000000 0.000000 0.000000 0.000000 
trait 3 0.300000 0.000000 0.000000 0.000000 0.000000 0.000000 0.000000 0.000000 
node 1 1 1 3
node 2 3 1 1
node 3 2 1 1
node 4 2 1 1
node 5 1 1 1
node 6 2 1 1
node 7 3 1 1
node 8 2 1 1
node 9 3 1 1
node 10 1 1 1
node 11 1 1 1
node 12 3 1 1
node 13 3 1 1
node 14 2 1 1
node 15 1 1 1
node 16 2 1 1
node 17 1 0 2
node 18 3 0 2
gene 3 1 17 0.27489498689532976 0 1 0.27489498689532976 1
gene 3 2 17 -0.30795693877523622 0 2 -0.30795693877523622 1
gene 1 3 17 -0.53270624789069698 0 3 -0.53270624789069698 1
gene 3 4 17 0.47633786661379873 0 4 0.47633786661379873 1
gene 3 5 17 0.030267935725985066 0 5 0.030267935725985066 1
gene 3 6 17 0.39794462611803066 0 6 0.39794462611803066 1
gene 2 7 17 0.46629653939339172 0 7 0.46629653939339172 1
gene 3 8 17 0.58388781807566426 0 8 0.58388781807566426 1
gene 3 9 17 0.14576726320468228 0 9 0.14576726320468228 1
gene 3 10 17 -0.39459549048663839 0 10 -0.39459549048663839 1
gene 1 11 17 -0.19311090614325874 0 11 -0.19311090614325874 1
gene 2 12 17 0.057315533541755531 0 12 0.057315533541755531 1
gene 2 13 17 -0.60836968273314163 0 13 -0.60836968273314163 1
gene 2 14 17 -0.039796398971134982 0 14 -0.039796398971134982 1
gene 2 15 17 0.94426084586617576 0 15 0.94426084586617576 1
gene 1 16 17 -0.13685469428862199 0 16 -0.13685469428862199 1
gene 2 1 18 -0.009632112462833577 0 17 -0.009632112462833577 1
gene 2 2 18 -0.083087414541788127 0 18 -0.083087414541788127 1
gene 2 3 18 -0.16150404986064137 0 19 -0.16150404986064137 1
gene 1 4 18 0.98399466834217064 0 20 0.98399466834217064 1
gene 3 5 18 0.77392322326727359 0 21 0.77392322326727359 1
gene 3 6 18 0.259599433401413 0 22 0.259599433401413 1
gene 2 7 18 -0.36703659611150463 0 23 -0.36703659611150463 1
gene 1 8 18 0.64869719820502081 0 24 0.64869719820502081 1
gene 2 9 18 -0.052427177807515102 0 25 -0.052427177807515102 1
gene 1 10 18 0.25089768052608596 0 26 0.25089768052608596 1
gene 2 11 18 -0.43933761326565296 0 27 -0.43933761326565296 1
gene 2 12 18 0.97251094364212409 0 28 0.97251094364212409 1
gene 3 13 18 -0.67298160850674915 0 29 -0.67298160850674915 1
gene 2 14 18 0.31176650492091035 0 30 0.31176650492091035 1
gene 1 15 18 -0.93551704750187559 0 31 -0.93551704750187559 1
gene 3 16 18 0.83639828666876925 0 32 0.83639828666876925 1
genomeend 4


