genomestart 3
trait 1 0.1 0 0 0 0 0 0 0 
trait 2 0.2 0 0 0 0 0 0 0 
trait 3 0.3 0 0 0 0 0 0 0 
node 1 1 1 3
node 2 3 1 1
node 3 2 1 1
node 4 1 1 1
node 5 1 1 1
node 6 1 1 1
node 7 2 1 1
node 8 3 1 1
node 9 2 1 1
node 10 3 1 1
node 11 3 1 1
node 12 3 1 1
node 13 3 1 1
node 14 3 1 1
node 15 3 1 1
node 16 3 1 1
node 17 2 0 2
node 18 1 0 2
gene 1 1 17 0.50335841928765102 0 1 0.50335841928765102 1
gene 3 2 17 -0.3879520364049599 0 2 -0.3879520364049599 1
gene 2 3 17 0.44102827759507496 0 3 0.44102827759507496 1
gene 3 4 17 -0.60631036414127348 0 4 -0.60631036414127348 1
gene 1 5 17 0.81279577492400812 0 5 0.81279577492400812 1
gene 2 6 17 -0.50430624815835912 0 6 -0.50430624815835912 1
gene 3 7 17 -0.90306255496249654 0 7 -0.90306255496249654 1
gene 1 8 17 -0.31120422962643401 0 8 -0.31120422962643401 1
gene 3 9 17 0.17574748405057355 0 9 0.17574748405057355 1
gene 3 10 17 0.88787793642276802 0 10 0.88787793642276802 1
gene 1 11 17 0.9353729132261932 0 11 0.9353729132261932 1
gene 3 12 17 0.87597401620632687 0 12 0.87597401620632687 1
gene 1 13 17 0.61963625094836405 0 13 0.61963625094836405 1
gene 1 14 17 -0.94044497140703953 0 14 -0.94044497140703953 1
gene 1 15 17 -0.038698510284860856 0 15 -0.038698510284860856 1
gene 3 16 17 0.56235756564995165 0 16 0.56235756564995165 1
gene 2 1 18 0.84079115830398687 0 17 0.84079115830398687 1
gene 1 2 18 0.61085540038107677 0 18 0.61085540038107677 1
gene 1 3 18 -0.21939148345002507 0 19 -0.21939148345002507 1
gene 2 4 18 -0.58467203778432308 0 20 -0.58467203778432308 1
gene 3 5 18 0.58352609890677321 0 21 0.58352609890677321 1
gene 2 6 18 0.94265292908188558 0 22 0.94265292908188558 1
gene 1 7 18 -0.8581393113630541 0 23 -0.8581393113630541 1
gene 2 8 18 -0.29523855647781799 0 24 -0.29523855647781799 1
gene 2 9 18 -0.26133599516997857 0 25 -0.26133599516997857 1
gene 1 10 18 0.28380844149915896 0 26 0.28380844149915896 1
gene 2 11 18 0.77374119161336741 0 27 0.77374119161336741 1
gene 1 12 18 -0.63241933688168384 0 28 -0.63241933688168384 1
gene 2 13 18 -0.8936340598825524 0 29 -0.8936340598825524 1
gene 1 14 18 -0.97357402554413952 0 30 -0.97357402554413952 1
gene 1 15 18 -0.46266622071278574 0 31 -0.46266622071278574 1
gene 2 16 18 -0.12575379159569453 0 32 -0.12575379159569453 1
genomeend 3
