/*  */
genomestart 7
trait 1 0.100000 0.000000 0.000000 0.000000 0.000000 0.000000 0.000000 0.000000 
trait 2 0.200000 0.000000 0.000000 0.000000 0.000000 0.000000 0.000000 0.000000 
trait 3 0.300000 0.000000 0.000000 0.000000 0.000000 0.000000 0.000000 0.000000 
node 1 3 1 3
node 2 3 1 1
node 3 2 1 1
node 4 1 1 1
node 5 3 1 1
node 6 1 1 1
node 7 3 1 1
node 8 3 1 1
node 9 1 1 1
node 10 1 1 1
node 11 1 1 1
node 12 2 1 1
node 13 3 1 1
node 14 2 1 1
node 15 1 1 1
node 16 1 1 1
node 17 2 0 2
node 18 2 0 2
gene 1 1 17 -0.5187810014555142 0 1 -0.5187810014555142 1
gene 1 2 17 0.83409243581541459 0 2 0.83409243581541459 1
gene 1 3 17 0.98228649794230538 0 3 0.98228649794230538 1
gene 1 4 17 0.53409271991536611 0 4 0.53409271991536611 1
gene 2 5 17 -0.3457016685724732 0 5 -0.3457016685724732 1
gene 2 6 17 0.84506407233190917 0 6 0.84506407233190917 1
gene 1 7 17 -0.74005672183821758 0 7 -0.74005672183821758 1
gene 3 8 17 0.93926161617937576 0 8 0.93926161617937576 1
gene 3 9 17 0.095287459015514456 0 9 0.095287459015514456 1
gene 1 10 17 0.090120540508125235 0 10 0.090120540508125235 1
gene 3 11 17 0.29795778603197903 0 11 0.29795778603197903 1
gene 2 12 17 -0.32270589765287278 0 12 -0.32270589765287278 1
gene 1 13 17 0.93560811362024776 0 13 0.93560811362024776 1
gene 2 14 17 0.17923508965374674 0 14 0.17923508965374674 1
gene 1 15 17 0.48341898316676679 0 15 0.48341898316676679 1
gene 1 16 17 -0.86005582281390947 0 16 -0.86005582281390947 1
gene 3 1 18 -0.98691080044345503 0 17 -0.98691080044345503 1
gene 3 2 18 0.45676188983803701 0 18 0.45676188983803701 1
gene 2 3 18 -0.11012446512939617 0 19 -0.11012446512939617 1
gene 3 4 18 0.92404179038668133 0 20 0.92404179038668133 1
gene 1 5 18 -0.25355603697409668 0 21 -0.25355603697409668 1
gene 3 6 18 0.54587368366582023 0 22 0.54587368366582023 1
gene 1 7 18 0.15208539560068651 0 23 0.15208539560068651 1
gene 1 8 18 -0.26727814053524201 0 24 -0.26727814053524201 1
gene 2 9 18 -0.3655947238977974 0 25 -0.3655947238977974 1
gene 2 10 18 -0.64939720353549213 0 26 -0.64939720353549213 1
gene 2 11 18 -0.099291959823710821 0 27 -0.099291959823710821 1
gene 2 12 18 -0.94797581618091831 0 28 -0.94797581618091831 1
gene 2 13 18 -0.77906440840059166 0 29 -0.77906440840059166 1
gene 2 14 18 -0.45728438322305881 0 30 -0.45728438322305881 1
gene 2 15 18 -0.014030586003340123 0 31 -0.014030586003340123 1
gene 2 16 18 0.26468337525831692 0 32 0.26468337525831692 1
genomeend 7


