/*  */
genomestart 2
trait 1 0.100000 0.000000 0.000000 0.000000 0.000000 0.000000 0.000000 0.000000 
trait 2 0.200000 0.000000 0.000000 0.000000 0.000000 0.000000 0.000000 0.000000 
trait 3 0.300000 0.000000 0.000000 0.000000 0.000000 0.000000 0.000000 0.000000 
node 1 1 1 3
node 2 3 1 1
node 3 2 1 1
node 4 1 1 1
node 5 1 1 1
node 6 1 1 1
node 7 1 1 1
node 8 2 1 1
node 9 3 1 1
node 10 3 1 1
node 11 1 1 1
node 12 1 1 1
node 13 2 1 1
node 14 2 1 1
node 15 3 1 1
node 16 1 1 1
node 17 3 0 2
node 18 1 0 2
gene 2 1 17 -0.52941666195607584 0 1 -0.52941666195607584 1
gene 1 2 17 0.3347590478764656 0 2 0.3347590478764656 1
gene 2 3 17 -0.34146850199507012 0 3 -0.34146850199507012 1
gene 3 4 17 0.93956339356469143 0 4 0.93956339356469143 1
gene 2 5 17 -0.83259657855732205 0 5 -0.83259657855732205 1
gene 3 6 17 0.9455582443371221 0 6 0.9455582443371221 1
gene 3 7 17 0.50285752327314459 0 7 0.50285752327314459 1
gene 2 8 17 0.1304233610306044 0 8 0.1304233610306044 1
gene 2 9 17 -0.64676371200325145 0 9 -0.64676371200325145 1
gene 3 10 17 -0.60484474785851539 0 10 -0.60484474785851539 1
gene 3 11 17 -0.50840553758126006 0 11 -0.50840553758126006 1
gene 3 12 17 0.73161748504807123 0 12 0.73161748504807123 1
gene 2 13 17 0.42674956816562898 0 13 0.42674956816562898 1
gene 1 14 17 -0.65430913802902635 0 14 -0.65430913802902635 1
gene 3 15 17 -0.99337191087816468 0 15 -0.99337191087816468 1
gene 3 16 17 0.54697474816207525 0 16 0.54697474816207525 1
gene 2 1 18 0.41351584131527497 0 17 0.41351584131527497 1
gene 3 2 18 0.53166664695910493 0 18 0.53166664695910493 1
gene 3 3 18 -0.65436422296537278 0 19 -0.65436422296537278 1
gene 3 4 18 -0.30977283991397025 0 20 -0.30977283991397025 1
gene 3 5 18 0.48138164797862137 0 21 0.48138164797862137 1
gene 3 6 18 0.53379442474515848 0 22 0.53379442474515848 1
gene 3 7 18 0.88776475185889969 0 23 0.88776475185889969 1
gene 3 8 18 -0.2334972937747358 0 24 -0.2334972937747358 1
gene 3 9 18 -0.40607983265355224 0 25 -0.40607983265355224 1
gene 2 10 18 0.68002051286400322 0 26 0.68002051286400322 1
gene 2 11 18 0.0059320824248399974 0 27 0.0059320824248399974 1
gene 3 12 18 -0.44996337147893539 0 28 -0.44996337147893539 1
gene 3 13 18 -0.51770127123114718 0 29 -0.51770127123114718 1
gene 2 14 18 -0.72233008859787606 0 30 -0.72233008859787606 1
gene 1 15 18 -0.6359942414034131 0 31 -0.6359942414034131 1
gene 1 16 18 0.95895818991538051 0 32 0.95895818991538051 1
genomeend 2


