genomestart 13
trait 1 0.1 0 0 0 0 0 0 0 
trait 2 0.2 0 0 0 0 0 0 0 
trait 3 0.3 0 0 0 0 0 0 0 
node 1 3 1 3
node 2 2 1 1
node 3 2 1 1
node 4 2 1 1
node 5 2 1 1
node 6 1 1 1
node 7 2 1 1
node 8 1 1 1
node 9 2 1 1
node 10 1 1 1
node 11 3 1 1
node 12 3 1 1
node 13 1 1 1
node 14 2 1 1
node 15 3 1 1
node 16 3 1 1
node 17 1 0 2
node 18 2 0 2
gene 1 1 17 0.21645308389163254 0 1 0.21645308389163254 1
gene 1 2 17 -0.70323599116096092 0 2 -0.70323599116096092 1
gene 3 3 17 0.67201666891203105 0 3 0.67201666891203105 1
gene 3 4 17 0.39367426763925434 0 4 0.39367426763925434 1
gene 1 5 17 0.31955932794118269 0 5 0.31955932794118269 1
gene 1 6 17 -0.071173241860779585 0 6 -0.071173241860779585 1
gene 3 7 17 0.53618536169463082 0 7 0.53618536169463082 1
gene 3 8 17 -0.57882127472144607 0 8 -0.57882127472144607 1
gene 2 9 17 -0.84287811389326961 0 9 -0.84287811389326961 1
gene 1 10 17 0.58495108531087225 0 10 0.58495108531087225 1
gene 1 11 17 0.071394850067512533 0 11 0.071394850067512533 1
gene 2 12 17 0.46019624614165922 0 12 0.46019624614165922 1
gene 2 13 17 -0.5170892162793731 0 13 -0.5170892162793731 1
gene 1 14 17 0.76384075207814606 0 14 0.76384075207814606 1
gene 1 15 17 0.55028836361611655 0 15 0.55028836361611655 1
gene 1 16 17 -0.82960856651403414 0 16 -0.82960856651403414 1
gene 2 1 18 -0.4032892251402555 0 17 -0.4032892251402555 1
gene 3 2 18 -0.56301560465386868 0 18 -0.56301560465386868 1
gene 3 3 18 -0.11110109421941503 0 19 -0.11110109421941503 1
gene 3 4 18 -0.69062113933759794 0 20 -0.69062113933759794 1
gene 2 5 18 0.80555122941990909 0 21 0.80555122941990909 1
gene 2 6 18 -0.99763888446504201 0 22 -0.99763888446504201 1
gene 1 7 18 -0.58304148660183019 0 23 -0.58304148660183019 1
gene 1 8 18 -0.33264939316206116 0 24 -0.33264939316206116 1
gene 1 9 18 0.81067518229162094 0 25 0.81067518229162094 1
gene 1 10 18 -0.2657569629446403 0 26 -0.2657569629446403 1
gene 3 11 18 0.1917185663207055 0 27 0.1917185663207055 1
gene 3 12 18 0.31116361138930715 0 28 0.31116361138930715 1
gene 2 13 18 -0.085023657924040999 0 29 -0.085023657924040999 1
gene 1 14 18 0.46115131744237214 0 30 0.46115131744237214 1
gene 3 15 18 0.8367354748010335 0 31 0.8367354748010335 1
gene 2 16 18 -0.40205346904790656 0 32 -0.40205346904790656 1
genomeend 13
