genomestart 38
trait 1 0.1 0 0 0 0 0 0 0 
trait 2 0.2 0 0 0 0 0 0 0 
trait 3 0.3 0 0 0 0 0 0 0 
node 1 2 1 3
node 2 2 1 1
node 3 2 1 1
node 4 2 1 1
node 5 2 1 1
node 6 2 1 1
node 7 3 1 1
node 8 3 1 1
node 9 2 1 1
node 10 1 1 1
node 11 1 1 1
node 12 3 1 1
node 13 2 1 1
node 14 1 1 1
node 15 2 1 1
node 16 2 1 1
node 17 3 0 2
node 18 3 0 2
gene 2 1 17 -0.91160188704338008 0 1 -0.91160188704338008 1
gene 1 2 17 0.009413409982534782 0 2 0.009413409982534782 1
gene 1 3 17 -0.87176716042299152 0 3 -0.87176716042299152 1
gene 2 4 17 -0.80028150593875047 0 4 -0.80028150593875047 1
gene 3 5 17 0.95369931401391483 0 5 0.95369931401391483 1
gene 2 6 17 0.39223347575973416 0 6 0.39223347575973416 1
gene 3 7 17 -0.97143428678225463 0 7 -0.97143428678225463 1
gene 3 8 17 0.66506874592279497 0 8 0.66506874592279497 1
gene 3 9 17 -0.60804031910749168 0 9 -0.60804031910749168 1
gene 1 10 17 -0.48320285672471058 0 10 -0.48320285672471058 1
gene 3 11 17 -0.85078657504673427 0 11 -0.85078657504673427 1
gene 2 12 17 0.33484560033997779 0 12 0.33484560033997779 1
gene 3 13 17 0.80806610118973354 0 13 0.80806610118973354 1
gene 2 14 17 -0.57852371110512113 0 14 -0.57852371110512113 1
gene 2 15 17 0.47635562321001462 0 15 0.47635562321001462 1
gene 1 16 17 0.56382861899390291 0 16 0.56382861899390291 1
gene 1 1 18 0.73654578567321682 0 17 0.73654578567321682 1
gene 3 2 18 0.1523281359823086 0 18 0.1523281359823086 1
gene 3 3 18 0.51414605300600924 0 19 0.51414605300600924 1
gene 3 4 18 -0.63272854249585819 0 20 -0.63272854249585819 1
gene 3 5 18 0.59881364814881866 0 21 0.59881364814881866 1
gene 1 6 18 0.17830446044835468 0 22 0.17830446044835468 1
gene 3 7 18 -0.23681296093240983 0 23 -0.23681296093240983 1
gene 1 8 18 0.45073736573138151 0 24 0.45073736573138151 1
gene 1 9 18 0.36042712319662196 0 25 0.36042712319662196 1
gene 3 10 18 -0.07932230275092754 0 26 -0.07932230275092754 1
gene 2 11 18 0.69547425661956619 0 27 0.69547425661956619 1
gene 2 12 18 0.17125926547276754 0 28 0.17125926547276754 1
gene 1 13 18 -0.70156126362344307 0 29 -0.70156126362344307 1
gene 2 14 18 -0.67811270695091819 0 30 -0.67811270695091819 1
gene 2 15 18 0.11877817153873768 0 31 0.11877817153873768 1
gene 2 16 18 -0.56587439708685239 0 32 -0.56587439708685239 1
genomeend 38
