genomestart 17
trait 1 0.1 0 0 0 0 0 0 0 
trait 2 0.2 0 0 0 0 0 0 0 
trait 3 0.3 0 0 0 0 0 0 0 
node 1 2 1 3
node 2 3 1 1
node 3 2 1 1
node 4 1 1 1
node 5 3 1 1
node 6 1 1 1
node 7 3 1 1
node 8 1 1 1
node 9 3 1 1
node 10 2 1 1
node 11 1 1 1
node 12 2 1 1
node 13 1 1 1
node 14 3 1 1
node 15 3 1 1
node 16 3 1 1
node 17 2 0 2
node 18 1 0 2
gene 1 1 17 -0.34739440043801179 0 1 -0.34739440043801179 1
gene 2 2 17 -0.4041270107981409 0 2 -0.4041270107981409 1
gene 1 3 17 -0.48053544409598009 0 3 -0.48053544409598009 1
gene 3 4 17 0.43528734866310254 0 4 0.43528734866310254 1
gene 1 5 17 0.74945199990153877 0 5 0.74945199990153877 1
gene 2 6 17 0.46486348494182506 0 6 0.46486348494182506 1
gene 2 7 17 0.059034212985557603 0 7 0.059034212985557603 1
gene 2 8 17 -0.88383070420652199 0 8 -0.88383070420652199 1
gene 2 9 17 -0.60860526310680674 0 9 -0.60860526310680674 1
gene 2 10 17 0.9610203662705703 0 10 0.9610203662705703 1
gene 3 11 17 -0.51732181735212068 0 11 -0.51732181735212068 1
gene 2 12 17 -0.28428312124883903 0 12 -0.28428312124883903 1
gene 1 13 17 -0.36017307842158391 0 13 -0.36017307842158391 1
gene 1 14 17 0.31000450081657827 0 14 0.31000450081657827 1
gene 1 15 17 0.85147709252847226 0 15 0.85147709252847226 1
gene 3 16 17 0.59856858458303319 0 16 0.59856858458303319 1
gene 2 1 18 -0.8131810612106608 0 17 -0.8131810612106608 1
gene 3 2 18 -0.0028256759991988896 0 18 -0.0028256759991988896 1
gene 3 3 18 0.13196234504317975 0 19 0.13196234504317975 1
gene 3 4 18 -0.64029884787290303 0 20 -0.64029884787290303 1
gene 1 5 18 -0.62713447195810013 0 21 -0.62713447195810013 1
gene 2 6 18 0.30882636332364116 0 22 0.30882636332364116 1
gene 2 7 18 -0.30878700283765187 0 23 -0.30878700283765187 1
gene 1 8 18 -0.86557436495347617 0 24 -0.86557436495347617 1
gene 2 9 18 -0.34331830374119726 0 25 -0.34331830374119726 1
gene 3 10 18 -0.98297587082859872 0 26 -0.98297587082859872 1
gene 1 11 18 0.03190679570283126 0 27 0.03190679570283126 1
gene 2 12 18 -0.54897322298445428 0 28 -0.54897322298445428 1
gene 2 13 18 -0.98392639587816144 0 29 -0.98392639587816144 1
gene 1 14 18 0.75631170149720817 0 30 0.75631170149720817 1
gene 2 15 18 0.80852670725832076 0 31 0.80852670725832076 1
gene 1 16 18 -0.034274980441795187 0 32 -0.034274980441795187 1
genomeend 17
