/*  */
genomestart 50
trait 1 0.100000 0.000000 0.000000 0.000000 0.000000 0.000000 0.000000 0.000000 
trait 2 0.200000 0.000000 0.000000 0.000000 0.000000 0.000000 0.000000 0.000000 
trait 3 0.300000 0.000000 0.000000 0.000000 0.000000 0.000000 0.000000 0.000000 
node 1 2 1 3
node 2 1 1 1
node 3 3 1 1
node 4 3 1 1
node 5 1 1 1
node 6 1 1 1
node 7 2 1 1
node 8 2 1 1
node 9 1 1 1
node 10 3 1 1
node 11 2 1 1
node 12 1 1 1
node 13 3 1 1
node 14 3 1 1
node 15 3 1 1
node 16 3 1 1
node 17 2 0 2
node 18 1 0 2
gene 2 1 17 -0.22441899973173579 0 1 -0.22441899973173579 1
gene 1 2 17 0.69756728163807058 0 2 0.69756728163807058 1
gene 2 3 17 -0.12522191886101938 0 3 -0.12522191886101938 1
gene 1 4 17 0.27583720547884572 0 4 0.27583720547884572 1
gene 3 5 17 -0.86330544057456093 0 5 -0.86330544057456093 1
gene 3 6 17 -0.86833532381259615 0 6 -0.86833532381259615 1
gene 2 7 17 0.36936147248808365 0 7 0.36936147248808365 1
gene 3 8 17 0.70637263111135584 0 8 0.70637263111135584 1
gene 1 9 17 -0.48259363159658092 0 9 -0.48259363159658092 1
gene 1 10 17 0.36643685976343082 0 10 0.36643685976343082 1
gene 3 11 17 0.14340534952627745 0 11 0.14340534952627745 1
gene 2 12 17 0.96254469731941106 0 12 0.96254469731941106 1
gene 3 13 17 0.29396057421991628 0 13 0.29396057421991628 1
gene 2 14 17 -0.75105384166867184 0 14 -0.75105384166867184 1
gene 2 15 17 0.29302369630570696 0 15 0.29302369630570696 1
gene 3 16 17 -0.44775343846890769 0 16 -0.44775343846890769 1
gene 2 1 18 0.94725287703203642 0 17 0.94725287703203642 1
gene 3 2 18 -0.13430801552455315 0 18 -0.13430801552455315 1
gene 2 3 18 -0.56669459844319825 0 19 -0.56669459844319825 1
gene 3 4 18 0.24460673716133774 0 20 0.24460673716133774 1
gene 2 5 18 -0.31911359649110288 0 21 -0.31911359649110288 1
gene 2 6 18 -0.061877789470310224 0 22 -0.061877789470310224 1
gene 3 7 18 -0.98747372347278228 0 23 -0.98747372347278228 1
gene 2 8 18 0.00027924962354789005 0 24 0.00027924962354789005 1
gene 1 9 18 0.042803572510743314 0 25 0.042803572510743314 1
gene 2 10 18 -0.12311513960506541 0 26 -0.12311513960506541 1
gene 2 11 18 -0.4660907827625474 0 27 -0.4660907827625474 1
gene 3 12 18 -0.6617570992846773 0 28 -0.6617570992846773 1
gene 2 13 18 -0.97867461618905638 0 29 -0.97867461618905638 1
gene 3 14 18 0.33535961356729249 0 30 0.33535961356729249 1
gene 1 15 18 0.67242553256099369 0 31 0.67242553256099369 1
gene 1 16 18 0.78914100899786732 0 32 0.78914100899786732 1
genomeend 50


