/*  */
genomestart 6
trait 1 0.100000 0.000000 0.000000 0.000000 0.000000 0.000000 0.000000 0.000000 
trait 2 0.200000 0.000000 0.000000 0.000000 0.000000 0.000000 0.000000 0.000000 
trait 3 0.300000 0.000000 0.000000 0.000000 0.000000 0.000000 0.000000 0.000000 
node 1 1 1 3
node 2 2 1 1
node 3 3 1 1
node 4 2 1 1
node 5 3 1 1
node 6 2 1 1
node 7 2 1 1
node 8 2 1 1
node 9 2 1 1
node 10 3 1 1
node 11 1 1 1
node 12 2 1 1
node 13 2 1 1
node 14 3 1 1
node 15 2 1 1
node 16 1 1 1
node 17 2 0 2
node 18 2 0 2
gene 3 1 17 -0.61349737905594404 0 1 -0.61349737905594404 1
gene 2 2 17 0.71124826358223714 0 2 0.71124826358223714 1
gene 2 3 17 0.40679160012248511 0 3 0.40679160012248511 1
gene 2 4 17 0.82827548441862475 0 4 0.82827548441862475 1
gene 3 5 17 -0.89034131397043415 0 5 -0.89034131397043415 1
gene 3 6 17 0.86221993894419635 0 6 0.86221993894419635 1
gene 2 7 17 -0.88097696652681423 0 7 -0.88097696652681423 1
gene 2 8 17 0.95224558839213358 0 8 0.95224558839213358 1
gene 2 9 17 0.42244159869032055 0 9 0.42244159869032055 1
gene 1 10 17 -0.30439989050123833 0 10 -0.30439989050123833 1
gene 2 11 17 -0.82346903431390828 0 11 -0.82346903431390828 1
gene 2 12 17 -0.69686779272596711 0 12 -0.69686779272596711 1
gene 2 13 17 -0.39720125328619094 0 13 -0.39720125328619094 1
gene 3 14 17 0.7083497958762337 0 14 0.7083497958762337 1
gene 1 15 17 -0.2467124984817172 0 15 -0.2467124984817172 1
gene 2 16 17 -0.56504743898522458 0 16 -0.56504743898522458 1
gene 3 1 18 0.67530717871864665 0 17 0.67530717871864665 1
gene 1 2 18 -0.90995512665712974 0 18 -0.90995512665712974 1
gene 3 3 18 -0.60067376894907731 0 19 -0.60067376894907731 1
gene 1 4 18 0.82729896755297616 0 20 0.82729896755297616 1
gene 2 5 18 -0.73003429720645507 0 21 -0.73003429720645507 1
gene 2 6 18 -0.52669658303572642 0 22 -0.52669658303572642 1
gene 2 7 18 0.420036500049772 0 23 0.420036500049772 1
gene 1 8 18 -0.019515695059446475 0 24 -0.019515695059446475 1
gene 1 9 18 0.94962920106464499 0 25 0.94962920106464499 1
gene 3 10 18 0.62862840696639777 0 26 0.62862840696639777 1
gene 3 11 18 0.65783395369436315 0 27 0.65783395369436315 1
gene 3 12 18 0.5797337221818667 0 28 0.5797337221818667 1
gene 1 13 18 -0.093457579190590223 0 29 -0.093457579190590223 1
gene 2 14 18 0.18546284883537462 0 30 0.18546284883537462 1
gene 2 15 18 -0.090362617322412603 0 31 -0.090362617322412603 1
gene 1 16 18 -0.64907789400270111 0 32 -0.64907789400270111 1
genomeend 6


