/*  */
genomestart 25
trait 1 0.100000 0.000000 0.000000 0.000000 0.000000 0.000000 0.000000 0.000000 
trait 2 0.200000 0.000000 0.000000 0.000000 0.000000 0.000000 0.000000 0.000000 
trait 3 0.300000 0.000000 0.000000 0.000000 0.000000 0.000000 0.000000 0.000000 
node 1 3 1 3
node 2 1 1 1
node 3 3 1 1
node 4 1 1 1
node 5 3 1 1
node 6 3 1 1
node 7 1 1 1
node 8 2 1 1
node 9 2 1 1
node 10 2 1 1
node 11 3 1 1
node 12 3 1 1
node 13 3 1 1
node 14 3 1 1
node 15 2 1 1
node 16 1 1 1
node 17 1 0 2
node 18 1 0 2
gene 1 1 17 -0.46886444951820394 0 1 -0.46886444951820394 1
gene 2 2 17 -0.98398522612824346 0 2 -0.98398522612824346 1
gene 1 3 17 0.8681060624626028 0 3 0.8681060624626028 1
gene 1 4 17 -0.63385906099987177 0 4 -0.63385906099987177 1
gene 3 5 17 0.39641189547088551 0 5 0.39641189547088551 1
gene 2 6 17 0.087527870706994026 0 6 0.087527870706994026 1
gene 2 7 17 0.94297980514493762 0 7 0.94297980514493762 1
gene 1 8 17 -0.82012714111252094 0 8 -0.82012714111252094 1
gene 1 9 17 0.84198649406525605 0 9 0.84198649406525605 1
gene 1 10 17 -0.51078565209674909 0 10 -0.51078565209674909 1
gene 2 11 17 -0.52186650853690997 0 11 -0.52186650853690997 1
gene 3 12 17 0.8746784123939827 0 12 0.8746784123939827 1
gene 1 13 17 0.94199838952254433 0 13 0.94199838952254433 1
gene 1 14 17 0.082794806492885023 0 14 0.082794806492885023 1
gene 3 15 17 -0.61347742686675744 0 15 -0.61347742686675744 1
gene 3 16 17 -0.67233009714276071 0 16 -0.67233009714276071 1
gene 3 1 18 0.0086111775639518984 0 17 0.0086111775639518984 1
gene 3 2 18 -0.52942141123554731 0 18 -0.52942141123554731 1
gene 3 3 18 0.29440945400596108 0 19 0.29440945400596108 1
gene 3 4 18 0.46533703313457642 0 20 0.46533703313457642 1
gene 2 5 18 -0.62535992712963373 0 21 -0.62535992712963373 1
gene 2 6 18 -0.7540648033628542 0 22 -0.7540648033628542 1
gene 2 7 18 0.82108340497179111 0 23 0.82108340497179111 1
gene 2 8 18 -0.90532113234760292 0 24 -0.90532113234760292 1
gene 1 9 18 -0.47578395133641732 0 25 -0.47578395133641732 1
gene 2 10 18 -0.52942140937290216 0 26 -0.52942140937290216 1
gene 2 11 18 -0.58587689725024483 0 27 -0.58587689725024483 1
gene 3 12 18 -0.74304848431751525 0 28 -0.74304848431751525 1
gene 2 13 18 -0.066904723209750244 0 29 -0.066904723209750244 1
gene 2 14 18 -0.11478879727180526 0 30 -0.11478879727180526 1
gene 2 15 18 -0.56687934955902364 0 31 -0.56687934955902364 1
gene 3 16 18 0.52220956865800994 0 32 0.52220956865800994 1
genomeend 25


