/*  */
genomestart 30
trait 1 0.100000 0.000000 0.000000 0.000000 0.000000 0.000000 0.000000 0.000000 
trait 2 0.200000 0.000000 0.000000 0.000000 0.000000 0.000000 0.000000 0.000000 
trait 3 0.300000 0.000000 0.000000 0.000000 0.000000 0.000000 0.000000 0.000000 
node 1 3 1 3
node 2 2 1 1
node 3 2 1 1
node 4 2 1 1
node 5 2 1 1
node 6 1 1 1
node 7 2 1 1
node 8 1 1 1
node 9 3 1 1
node 10 2 1 1
node 11 3 1 1
node 12 3 1 1
node 13 2 1 1
node 14 1 1 1
node 15 3 1 1
node 16 3 1 1
node 17 1 0 2
node 18 2 0 2
gene 2 1 17 -0.70100029450887824 0 1 -0.70100029450887824 1
gene 2 2 17 -0.10873583802428834 0 2 -0.10873583802428834 1
gene 3 3 17 -0.84908496441742631 0 3 -0.84908496441742631 1
gene 2 4 17 0.37544397468466495 0 4 0.37544397468466495 1
gene 2 5 17 -0.46169972720635111 0 5 -0.46169972720635111 1
gene 1 6 17 -0.8481547878348058 0 6 -0.8481547878348058 1
gene 3 7 17 0.31856857534431321 0 7 0.31856857534431321 1
gene 2 8 17 -0.37305914162334947 0 8 -0.37305914162334947 1
gene 2 9 17 -0.21064582663152639 0 9 -0.21064582663152639 1
gene 2 10 17 0.58536093243647414 0 10 0.58536093243647414 1
gene 2 11 17 -0.19728483129166291 0 11 -0.19728483129166291 1
gene 2 12 17 0.30818945509762946 0 12 0.30818945509762946 1
gene 1 13 17 -0.95574351537774482 0 13 -0.95574351537774482 1
gene 1 14 17 -0.38534475880923902 0 14 -0.38534475880923902 1
gene 3 15 17 -0.25729070988357566 0 15 -0.25729070988357566 1
gene 3 16 17 0.69796615871506096 0 16 0.69796615871506096 1
gene 3 1 18 0.7512324968125822 0 17 0.7512324968125822 1
gene 2 2 18 -0.098208824684009335 0 18 -0.098208824684009335 1
gene 3 3 18 -0.48204366605824028 0 19 -0.48204366605824028 1
gene 3 4 18 0.22885024884196475 0 20 0.22885024884196475 1
gene 3 5 18 -0.62468048307331303 0 21 -0.62468048307331303 1
gene 3 6 18 -0.38720325957387836 0 22 -0.38720325957387836 1
gene 2 7 18 -0.48059415839640152 0 23 -0.48059415839640152 1
gene 3 8 18 -0.44620378243094488 0 24 -0.44620378243094488 1
gene 3 9 18 -0.38501938916045214 0 25 -0.38501938916045214 1
gene 1 10 18 -0.29579626456638625 0 26 -0.29579626456638625 1
gene 3 11 18 0.10956759709379058 0 27 0.10956759709379058 1
gene 1 12 18 -0.95584213405653928 0 28 -0.95584213405653928 1
gene 3 13 18 -0.64426932467346509 0 29 -0.64426932467346509 1
gene 3 14 18 -0.041214562971710493 0 30 -0.041214562971710493 1
gene 2 15 18 0.32482280690447557 0 31 0.32482280690447557 1
gene 2 16 18 -0.85985103848383349 0 32 -0.85985103848383349 1
genomeend 30


