genomestart 23
trait 1 0.1 0 0 0 0 0 0 0 
trait 2 0.2 0 0 0 0 0 0 0 
trait 3 0.3 0 0 0 0 0 0 0 
node 1 1 1 3
node 2 2 1 1
node 3 1 1 1
node 4 1 1 1
node 5 3 1 1
node 6 1 1 1
node 7 3 1 1
node 8 2 1 1
node 9 3 1 1
node 10 1 1 1
node 11 3 1 1
node 12 1 1 1
node 13 1 1 1
node 14 3 1 1
node 15 3 1 1
node 16 1 1 1
node 17 1 0 2
node 18 3 0 2
gene 2 1 17 -0.77663554659887946 0 1 -0.77663554659887946 1
gene 1 2 17 -0.29364466820547575 0 2 -0.29364466820547575 1
gene 3 3 17 -0.43322149451506392 0 3 -0.43322149451506392 1
gene 3 4 17 0.055355898130385155 0 4 0.055355898130385155 1
gene 3 5 17 -0.70014099250554152 0 5 -0.70014099250554152 1
gene 3 6 17 -0.64665982203868211 0 6 -0.64665982203868211 1
gene 1 7 17 -0.090882499278933979 0 7 -0.090882499278933979 1
gene 1 8 17 0.27420784499226503 0 8 0.27420784499226503 1
gene 1 9 17 0.36587600240757501 0 9 0.36587600240757501 1
gene 1 10 17 0.80559767307974295 0 10 0.80559767307974295 1
gene 1 11 17 0.78636711965611539 0 11 0.78636711965611539 1
gene 3 12 17 0.92428010372644298 0 12 0.92428010372644298 1
gene 1 13 17 -0.78473137821291172 0 13 -0.78473137821291172 1
gene 1 14 17 -0.97920388168618266 0 14 -0.97920388168618266 1
gene 2 15 17 -0.7200533005967984 0 15 -0.7200533005967984 1
gene 2 16 17 0.31351061924989831 0 16 0.31351061924989831 1
gene 3 1 18 -0.12358791712838593 0 17 -0.12358791712838593 1
gene 2 2 18 -0.80161461224854669 0 18 -0.80161461224854669 1
gene 1 3 18 -0.58128172325961369 0 19 -0.58128172325961369 1
gene 2 4 18 0.49633019999430056 0 20 0.49633019999430056 1
gene 1 5 18 0.8169517441731653 0 21 0.8169517441731653 1
gene 3 6 18 0.082082642746196421 0 22 0.082082642746196421 1
gene 3 7 18 -0.23086547862313012 0 23 -0.23086547862313012 1
gene 1 8 18 -0.87118381488657737 0 24 -0.87118381488657737 1
gene 1 9 18 -0.23862264176766512 0 25 -0.23862264176766512 1
gene 3 10 18 0.66113646126405168 0 26 0.66113646126405168 1
gene 3 11 18 -0.94421552724401259 0 27 -0.94421552724401259 1
gene 1 12 18 -0.27015027975204881 0 28 -0.27015027975204881 1
gene 2 13 18 0.81474294923932433 0 29 0.81474294923932433 1
gene 2 14 18 0.059433835120608021 0 30 0.059433835120608021 1
gene 1 15 18 0.14976590413123644 0 31 0.14976590413123644 1
gene 1 16 18 -0.031485096100478012 0 32 -0.031485096100478012 1
genomeend 23
