/*  */
genomestart 15
trait 1 0.100000 0.000000 0.000000 0.000000 0.000000 0.000000 0.000000 0.000000 
trait 2 0.200000 0.000000 0.000000 0.000000 0.000000 0.000000 0.000000 0.000000 
trait 3 0.300000 0.000000 0.000000 0.000000 0.000000 0.000000 0.000000 0.000000 
node 1 3 1 3
node 2 1 1 1
node 3 1 1 1
node 4 2 1 1
node 5 1 1 1
node 6 3 1 1
node 7 2 1 1
node 8 1 1 1
node 9 3 1 1
node 10 3 1 1
node 11 3 1 1
node 12 2 1 1
node 13 2 1 1
node 14 1 1 1
node 15 2 1 1
node 16 1 1 1
node 17 1 0 2
node 18 2 0 2
gene 3 1 17 -0.49175202264066414 0 1 -0.49175202264066414 1
gene 3 2 17 0.49067675298577024 0 2 0.49067675298577024 1
gene 3 3 17 -0.32338618595310775 0 3 -0.32338618595310775 1
gene 1 4 17 -0.79735381798695482 0 4 -0.79735381798695482 1
gene 1 5 17 0.46203552533967213 0 5 0.46203552533967213 1
gene 3 6 17 0.46398322957753352 0 6 0.46398322957753352 1
gene 1 7 17 -0.64198326256218519 0 7 -0.64198326256218519 1
gene 2 8 17 0.93752532309737302 0 8 0.93752532309737302 1
gene 3 9 17 -0.81122316923515092 0 9 -0.81122316923515092 1
gene 1 10 17 0.42698142231767133 0 10 0.42698142231767133 1
gene 1 11 17 0.18694997447866479 0 11 0.18694997447866479 1
gene 1 12 17 -0.043185590786480155 0 12 -0.043185590786480155 1
gene 3 13 17 0.85177768154618227 0 13 0.85177768154618227 1
gene 1 14 17 -0.49539144080848968 0 14 -0.49539144080848968 1
gene 1 15 17 0.85925202158244884 0 15 0.85925202158244884 1
gene 3 16 17 -0.29588175578782416 0 16 -0.29588175578782416 1
gene 2 1 18 -0.98064390149928815 0 17 -0.98064390149928815 1
gene 1 2 18 -0.12316197768000978 0 18 -0.12316197768000978 1
gene 3 3 18 0.95637364497239408 0 19 0.95637364497239408 1
gene 1 4 18 -0.23052929166263403 0 20 -0.23052929166263403 1
gene 2 5 18 -0.28118210904355256 0 21 -0.28118210904355256 1
gene 2 6 18 -0.072865794912383791 0 22 -0.072865794912383791 1
gene 1 7 18 0.53775653826899661 0 23 0.53775653826899661 1
gene 1 8 18 -0.72033447759241542 0 24 -0.72033447759241542 1
gene 3 9 18 0.94786762397171354 0 25 0.94786762397171354 1
gene 2 10 18 0.70769255129047326 0 26 0.70769255129047326 1
gene 2 11 18 -0.38644601050133165 0 27 -0.38644601050133165 1
gene 3 12 18 0.85495691786285344 0 28 0.85495691786285344 1
gene 3 13 18 0.3826462744654372 0 29 0.3826462744654372 1
gene 2 14 18 -0.25626061030489422 0 30 -0.25626061030489422 1
gene 1 15 18 0.93449254051525732 0 31 0.93449254051525732 1
gene 3 16 18 -0.018560598147362748 0 32 -0.018560598147362748 1
genomeend 15


