/*  */
genomestart 1
trait 1 0.100000 0.000000 0.000000 0.000000 0.000000 0.000000 0.000000 0.000000 
trait 2 0.200000 0.000000 0.000000 0.000000 0.000000 0.000000 0.000000 0.000000 
trait 3 0.300000 0.000000 0.000000 0.000000 0.000000 0.000000 0.000000 0.000000 
node 1 2 1 3
node 2 3 1 1
node 3 1 1 1
node 4 2 1 1
node 5 1 1 1
node 6 3 1 1
node 7 3 1 1
node 8 2 1 1
node 9 2 1 1
node 10 1 1 1
node 11 2 1 1
node 12 3 1 1
node 13 1 1 1
node 14 1 1 1
node 15 2 1 1
node 16 3 1 1
node 17 1 0 2
node 18 3 0 2
gene 2 1 17 0.13014079776133447 0 1 0.13014079776133447 1
gene 1 2 17 0.66213075055839998 0 2 0.66213075055839998 1
gene 2 3 17 0.31353448718485166 0 3 0.31353448718485166 1
gene 1 4 17 0.0053927786673385551 0 4 0.0053927786673385551 1
gene 3 5 17 -0.49348879721643812 0 5 -0.49348879721643812 1
gene 3 6 17 -0.29941894593621554 0 6 -0.29941894593621554 1
gene 2 7 17 0.84491193799530717 0 7 0.84491193799530717 1
gene 1 8 17 -0.39647738234907265 0 8 -0.39647738234907265 1
gene 3 9 17 0.19257900872853539 0 9 0.19257900872853539 1
gene 3 10 17 -0.96096161425158455 0 10 -0.96096161425158455 1
gene 2 11 17 -0.18609330532424773 0 11 -0.18609330532424773 1
gene 1 12 17 -0.95077289638611162 0 12 -0.95077289638611162 1
gene 1 13 17 0.92578975107790429 0 13 0.92578975107790429 1
gene 3 14 17 0.95612122628657203 0 14 0.95612122628657203 1
gene 3 15 17 -0.77809757449575589 0 15 -0.77809757449575589 1
gene 3 16 17 0.21330128200971582 0 16 0.21330128200971582 1
gene 1 1 18 -0.39001836925280203 0 17 -0.39001836925280203 1
gene 1 2 18 -0.51856836654179184 0 18 -0.51856836654179184 1
gene 2 3 18 0.29453724636441903 0 19 0.29453724636441903 1
gene 1 4 18 0.92499018736416017 0 20 0.92499018736416017 1
gene 2 5 18 -0.99536132905416252 0 21 -0.99536132905416252 1
gene 3 6 18 0.75046036380830239 0 22 0.75046036380830239 1
gene 1 7 18 -0.62592894566521462 0 23 -0.62592894566521462 1
gene 1 8 18 -0.81426560031914408 0 24 -0.81426560031914408 1
gene 1 9 18 0.72721225010566981 0 25 0.72721225010566981 1
gene 1 10 18 0.55296617259875225 0 26 0.55296617259875225 1
gene 1 11 18 0.45532487866251026 0 27 0.45532487866251026 1
gene 3 12 18 -0.5419294203361168 0 28 -0.5419294203361168 1
gene 1 13 18 -0.37417140434224688 0 29 -0.37417140434224688 1
gene 3 14 18 -0.05614980219684066 0 30 -0.05614980219684066 1
gene 3 15 18 0.2013670677325535 0 31 0.2013670677325535 1
gene 2 16 18 0.06050735016377054 0 32 0.06050735016377054 1
genomeend 1


