/*  */
genomestart 32
trait 1 0.100000 0.000000 0.000000 0.000000 0.000000 0.000000 0.000000 0.000000 
trait 2 0.200000 0.000000 0.000000 0.000000 0.000000 0.000000 0.000000 0.000000 
trait 3 0.300000 0.000000 0.000000 0.000000 0.000000 0.000000 0.000000 0.000000 
node 1 3 1 3
node 2 2 1 1
node 3 1 1 1
node 4 1 1 1
node 5 2 1 1
node 6 3 1 1
node 7 3 1 1
node 8 1 1 1
node 9 3 1 1
node 10 3 1 1
node 11 3 1 1
node 12 2 1 1
node 13 2 1 1
node 14 2 1 1
node 15 1 1 1
node 16 2 1 1
node 17 2 0 2
node 18 1 0 2
gene 2 1 17 -0.77840147296823625 0 1 -0.77840147296823625 1
gene 2 2 17 -0.58214954686451215 0 2 -0.58214954686451215 1
gene 1 3 17 0.066504017480883762 0 3 0.066504017480883762 1
gene 1 4 17 -0.85674568910931503 0 4 -0.85674568910931503 1
gene 3 5 17 0.36590272950283381 0 5 0.36590272950283381 1
gene 1 6 17 -0.17492215529779073 0 6 -0.17492215529779073 1
gene 1 7 17 0.27621439717533736 0 7 0.27621439717533736 1
gene 3 8 17 -0.99742423277228331 0 8 -0.99742423277228331 1
gene 2 9 17 0.86342200816768311 0 9 0.86342200816768311 1
gene 3 10 17 -0.74330007598889059 0 10 -0.74330007598889059 1
gene 1 11 17 -0.45322752439101577 0 11 -0.45322752439101577 1
gene 1 12 17 0.43538260014512697 0 12 0.43538260014512697 1
gene 1 13 17 -0.69027900122584729 0 13 -0.69027900122584729 1
gene 1 14 17 0.21854017405702741 0 14 0.21854017405702741 1
gene 3 15 17 0.26622235601126326 0 15 0.26622235601126326 1
gene 1 16 17 0.11046619858148797 0 16 0.11046619858148797 1
gene 1 1 18 -0.84814341266087412 0 17 -0.84814341266087412 1
gene 1 2 18 -0.33284212245272571 0 18 -0.33284212245272571 1
gene 2 3 18 0.39667708817714692 0 19 0.39667708817714692 1
gene 1 4 18 0.50226795044833228 0 20 0.50226795044833228 1
gene 2 5 18 -0.46074408360791586 0 21 -0.46074408360791586 1
gene 1 6 18 0.55228109497217515 0 22 0.55228109497217515 1
gene 3 7 18 -0.34263814768876794 0 23 -0.34263814768876794 1
gene 2 8 18 0.40032174130916676 0 24 0.40032174130916676 1
gene 1 9 18 -0.52757438902164544 0 25 -0.52757438902164544 1
gene 3 10 18 0.50767355761848088 0 26 0.50767355761848088 1
gene 1 11 18 -0.67048394245583742 0 27 -0.67048394245583742 1
gene 1 12 18 0.085976233280252778 0 28 0.085976233280252778 1
gene 2 13 18 0.75835008116362157 0 29 0.75835008116362157 1
gene 3 14 18 0.36192672949374033 0 30 0.36192672949374033 1
gene 2 15 18 -0.47879842411670759 0 31 -0.47879842411670759 1
gene 3 16 18 -0.069196265688723071 0 32 -0.069196265688723071 1
genomeend 32


