genomestart 5
trait 1 0.1 0 0 0 0 0 0 0 
trait 2 0.2 0 0 0 0 0 0 0 
trait 3 0.3 0 0 0 0 0 0 0 
node 1 3 1 3
node 2 2 1 1
node 3 3 1 1
node 4 1 1 1
node 5 2 1 1
node 6 3 1 1
node 7 3 1 1
node 8 2 1 1
node 9 2 1 1
node 10 2 1 1
node 11 1 1 1
node 12 1 1 1
node 13 3 1 1
node 14 2 1 1
node 15 3 1 1
node 16 3 1 1
node 17 3 0 2
node 18 1 0 2
gene 1 1 17 0.55588896598475468 0 1 0.55588896598475468 1
gene 3 2 17 0.18654528967409642 0 2 0.18654528967409642 1
gene 3 3 17 0.78649330362048619 0 3 0.78649330362048619 1
gene 1 4 17 0.10384030179299428 0 4 0.10384030179299428 1
gene 2 5 17 0.60287702670454846 0 5 0.60287702670454846 1
gene 1 6 17 -0.86783475795194265 0 6 -0.86783475795194265 1
gene 3 7 17 0.86131636512527077 0 7 0.86131636512527077 1
gene 3 8 17 -0.30963250915968443 0 8 -0.30963250915968443 1
gene 1 9 17 -0.34078260107933667 0 9 -0.34078260107933667 1
gene 1 10 17 -0.7489342991024881 0 10 -0.7489342991024881 1
gene 1 11 17 0.071050909846579149 0 11 0.071050909846579149 1
gene 2 12 17 0.21251367694349665 0 12 0.21251367694349665 1
gene 3 13 17 -0.017245539472087072 0 13 -0.017245539472087072 1
gene 1 14 17 -0.44059144539786105 0 14 -0.44059144539786105 1
gene 3 15 17 -0.75538632588246202 0 15 -0.75538632588246202 1
gene 1 16 17 0.42177712331608735 0 16 0.42177712331608735 1
gene 2 1 18 -0.12814809527627569 0 17 -0.12814809527627569 1
gene 3 2 18 0.83251869856962879 0 18 0.83251869856962879 1
gene 3 3 18 0.77872297204040131 0 19 0.77872297204040131 1
gene 2 4 18 0.26923084923496043 0 20 0.26923084923496043 1
gene 1 5 18 -0.45919448298364623 0 21 -0.45919448298364623 1
gene 1 6 18 -0.31038632491155821 0 22 -0.31038632491155821 1
gene 1 7 18 0.0056331921395068952 0 23 0.0056331921395068952 1
gene 3 8 18 0.99921907763891815 0 24 0.99921907763891815 1
gene 3 9 18 -0.55720639301333874 0 25 -0.55720639301333874 1
gene 3 10 18 0.012834893079863345 0 26 0.012834893079863345 1
gene 1 11 18 -0.060367711847819257 0 27 -0.060367711847819257 1
gene 2 12 18 -0.18296711527880613 0 28 -0.18296711527880613 1
gene 2 13 18 -0.71721876259763673 0 29 -0.71721876259763673 1
gene 1 14 18 -0.98493384941710804 0 30 -0.98493384941710804 1
gene 3 15 18 -0.5977924520139547 0 31 -0.5977924520139547 1
gene 3 16 18 -0.78388037988165415 0 32 -0.78388037988165415 1
genomeend 5
