genomestart 49
trait 1 0.1 0 0 0 0 0 0 0 
trait 2 0.2 0 0 0 0 0 0 0 
trait 3 0.3 0 0 0 0 0 0 0 
node 1 2 1 3
node 2 2 1 1
node 3 3 1 1
node 4 1 1 1
node 5 1 1 1
node 6 3 1 1
node 7 2 1 1
node 8 2 1 1
node 9 3 1 1
node 10 3 1 1
node 11 1 1 1
node 12 1 1 1
node 13 2 1 1
node 14 2 1 1
node 15 2 1 1
node 16 2 1 1
node 17 3 0 2
node 18 1 0 2
gene 1 1 17 0.65621611273671321 0 1 0.65621611273671321 1
gene 1 2 17 -0.1736676339868771 0 2 -0.1736676339868771 1
gene 3 3 17 -0.96062213180615663 0 3 -0.96062213180615663 1
gene 1 4 17 0.28125298362283641 0 4 0.28125298362283641 1
gene 3 5 17 0.62454295047770392 0 5 0.62454295047770392 1
gene 2 6 17 0.037451285886322745 0 6 0.037451285886322745 1
gene 3 7 17 0.8504668557320102 0 7 0.8504668557320102 1
gene 1 8 17 -0.9349710163357533 0 8 -0.9349710163357533 1
gene 3 9 17 -0.15478057048971791 0 9 -0.15478057048971791 1
gene 1 10 17 0.78907531536606856 0 10 0.78907531536606856 1
gene 2 11 17 -0.37076603778207956 0 11 -0.37076603778207956 1
gene 2 12 17 -0.20848125089354871 0 12 -0.20848125089354871 1
gene 3 13 17 0.6192229625858473 0 13 0.6192229625858473 1
gene 3 14 17 -0.35563291951810611 0 14 -0.35563291951810611 1
gene 3 15 17 -0.31745325416207931 0 15 -0.31745325416207931 1
gene 3 16 17 0.80962003991455778 0 16 0.80962003991455778 1
gene 1 1 18 -0.6563302025461244 0 17 -0.6563302025461244 1
gene 1 2 18 0.31248364844940774 0 18 0.31248364844940774 1
gene 3 3 18 0.35082029055376551 0 19 0.35082029055376551 1
gene 3 4 18 -0.039966969769432661 0 20 -0.039966969769432661 1
gene 3 5 18 -0.66069959786753152 0 21 -0.66069959786753152 1
gene 3 6 18 0.29187267287255853 0 22 0.29187267287255853 1
gene 3 7 18 -0.96052655529255349 0 23 -0.96052655529255349 1
gene 3 8 18 -0.57665057414055365 0 24 -0.57665057414055365 1
gene 1 9 18 0.48193041164517886 0 25 0.48193041164517886 1
gene 2 10 18 -0.84856566500317565 0 26 -0.84856566500317565 1
gene 3 11 18 -0.5043357189299239 0 27 -0.5043357189299239 1
gene 3 12 18 -0.94602245043312316 0 28 -0.94602245043312316 1
gene 3 13 18 0.56803623659910463 0 29 0.56803623659910463 1
gene 3 14 18 0.89868449740981893 0 30 0.89868449740981893 1
gene 3 15 18 0.60932638943629636 0 31 0.60932638943629636 1
gene 1 16 18 -0.97415928355146164 0 32 -0.97415928355146164 1
genomeend 49
