genomestart 40
trait 1 0.1 0 0 0 0 0 0 0 
trait 2 0.2 0 0 0 0 0 0 0 
trait 3 0.3 0 0 0 0 0 0 0 
node 1 1 1 3
node 2 1 1 1
node 3 2 1 1
node 4 1 1 1
node 5 2 1 1
node 6 1 1 1
node 7 1 1 1
node 8 2 1 1
node 9 2 1 1
node 10 1 1 1
node 11 3 1 1
node 12 1 1 1
node 13 3 1 1
node 14 3 1 1
node 15 1 1 1
node 16 1 1 1
node 17 2 0 2
node 18 1 0 2
gene 2 1 17 -0.59358652103393639 0 1 -0.59358652103393639 1
gene 2 2 17 -0.077692807222573462 0 2 -0.077692807222573462 1
gene 3 3 17 0.77800485621113558 0 3 0.77800485621113558 1
gene 2 4 17 -0.67429512165221162 0 4 -0.67429512165221162 1
gene 1 5 17 -0.11446139640848217 0 5 -0.11446139640848217 1
gene 1 6 17 -0.9777460698866034 0 6 -0.9777460698866034 1
gene 1 7 17 -0.210209798631356 0 7 -0.210209798631356 1
gene 1 8 17 -0.36432953288980274 0 8 -0.36432953288980274 1
gene 1 9 17 0.6653055421380818 0 9 0.6653055421380818 1
gene 1 10 17 -0.85083204407749324 0 10 -0.85083204407749324 1
gene 2 11 17 0.83825547519990029 0 11 0.83825547519990029 1
gene 3 12 17 -0.32845824553093789 0 12 -0.32845824553093789 1
gene 3 13 17 0.75548799976496395 0 13 0.75548799976496395 1
gene 2 14 17 -0.78684039217738455 0 14 -0.78684039217738455 1
gene 3 15 17 0.42495071488663122 0 15 0.42495071488663122 1
gene 2 16 17 -0.43011001424403394 0 16 -0.43011001424403394 1
gene 3 1 18 -0.95594088125784926 0 17 -0.95594088125784926 1
gene 3 2 18 0.69422655398688582 0 18 0.69422655398688582 1
gene 3 3 18 0.46013126823125933 0 19 0.46013126823125933 1
gene 3 4 18 0.84960484870225417 0 20 0.84960484870225417 1
gene 2 5 18 0.92898745412425487 0 21 0.92898745412425487 1
gene 1 6 18 0.25426603912108858 0 22 0.25426603912108858 1
gene 1 7 18 0.050885076192619783 0 23 0.050885076192619783 1
gene 2 8 18 -0.11964166821895245 0 24 -0.11964166821895245 1
gene 2 9 18 -0.44779402224709935 0 25 -0.44779402224709935 1
gene 3 10 18 0.070184374726463286 0 26 0.070184374726463286 1
gene 2 11 18 0.25429297762657188 0 27 0.25429297762657188 1
gene 3 12 18 -0.032864977620944834 0 28 -0.032864977620944834 1
gene 1 13 18 -0.85976696287270959 0 29 -0.85976696287270959 1
gene 1 14 18 0.56581345971944441 0 30 0.56581345971944441 1
gene 1 15 18 -0.14743131173189325 0 31 -0.14743131173189325 1
gene 3 16 18 -0.30325491321424719 0 32 -0.30325491321424719 1
genomeend 40
