/*  */
genomestart 12
trait 1 0.100000 0.000000 0.000000 0.000000 0.000000 0.000000 0.000000 0.000000 
trait 2 0.200000 0.000000 0.000000 0.000000 0.000000 0.000000 0.000000 0.000000 
trait 3 0.300000 0.000000 0.000000 0.000000 0.000000 0.000000 0.000000 0.000000 
node 1 3 1 3
node 2 1 1 1
node 3 1 1 1
node 4 1 1 1
node 5 2 1 1
node 6 2 1 1
node 7 2 1 1
node 8 1 1 1
node 9 3 1 1
node 10 2 1 1
node 11 1 1 1
node 12 2 1 1
node 13 3 1 1
node 14 2 1 1
node 15 2 1 1
node 16 1 1 1
node 17 2 0 2
node 18 3 0 2
gene 2 1 17 0.62677459168563343 0 1 0.62677459168563343 1
gene 1 2 17 0.67572429667959188 0 2 0.67572429667959188 1
gene 1 3 17 0.7472695921302166 0 3 0.7472695921302166 1
gene 3 4 17 -0.91894705170716484 0 4 -0.91894705170716484 1
gene 3 5 17 -0.47694613527364382 0 5 -0.47694613527364382 1
gene 3 6 17 0.43144479414049758 0 6 0.43144479414049758 1
gene 1 7 17 -0.5229842721125969 0 7 -0.5229842721125969 1
gene 1 8 17 0.53085661145432694 0 8 0.53085661145432694 1
gene 3 9 17 -0.15214332107088682 0 9 -0.15214332107088682 1
gene 2 10 17 0.022601438231114969 0 10 0.022601438231114969 1
gene 2 11 17 0.61847323859970704 0 11 0.61847323859970704 1
gene 2 12 17 -0.62081992142871945 0 12 -0.62081992142871945 1
gene 2 13 17 0.65910788423340205 0 13 0.65910788423340205 1
gene 3 14 17 0.80049768267222576 0 14 0.80049768267222576 1
gene 3 15 17 -0.11779671866344135 0 15 -0.11779671866344135 1
gene 3 16 17 -0.2295651991057979 0 16 -0.2295651991057979 1
gene 3 1 18 -0.29442982622162894 0 17 -0.29442982622162894 1
gene 2 2 18 -0.406266233141658 0 18 -0.406266233141658 1
gene 2 3 18 0.52604922024814837 0 19 0.52604922024814837 1
gene 3 4 18 0.59971939986558598 0 20 0.59971939986558598 1
gene 3 5 18 -0.781656446765017 0 21 -0.781656446765017 1
gene 1 6 18 0.97734127751427757 0 22 0.97734127751427757 1
gene 1 7 18 -0.70377109698195528 0 23 -0.70377109698195528 1
gene 3 8 18 0.64807139413807135 0 24 0.64807139413807135 1
gene 2 9 18 0.65511568433377687 0 25 0.65511568433377687 1
gene 1 10 18 -0.013828392612667937 0 26 -0.013828392612667937 1
gene 2 11 18 0.84972752111485583 0 27 0.84972752111485583 1
gene 1 12 18 -0.98052456834377932 0 28 -0.98052456834377932 1
gene 2 13 18 0.55458590414122955 0 29 0.55458590414122955 1
gene 1 14 18 -0.24904958589423895 0 30 -0.24904958589423895 1
gene 1 15 18 0.91284002126792452 0 31 0.91284002126792452 1
gene 1 16 18 -0.85778697899439693 0 32 -0.85778697899439693 1
genomeend 12


