genomestart 27
trait 1 0.1 0 0 0 0 0 0 0 
trait 2 0.2 0 0 0 0 0 0 0 
trait 3 0.3 0 0 0 0 0 0 0 
node 1 2 1 3
node 2 3 1 1
node 3 2 1 1
node 4 1 1 1
node 5 1 1 1
node 6 2 1 1
node 7 1 1 1
node 8 2 1 1
node 9 3 1 1
node 10 2 1 1
node 11 1 1 1
node 12 1 1 1
node 13 3 1 1
node 14 3 1 1
node 15 1 1 1
node 16 1 1 1
node 17 1 0 2
node 18 1 0 2
gene 3 1 17 0.87793355150052044 0 1 0.87793355150052044 1
gene 2 2 17 -0.2948368537681349 0 2 -0.2948368537681349 1
gene 1 3 17 -0.076193154824987591 0 3 -0.076193154824987591 1
gene 3 4 17 -0.051260180795220746 0 4 -0.051260180795220746 1
gene 2 5 17 -0.96081940548532618 0 5 -0.96081940548532618 1
gene 1 6 17 0.080360561181027704 0 6 0.080360561181027704 1
gene 1 7 17 -0.72754621213653414 0 7 -0.72754621213653414 1
gene 1 8 17 -0.27164603549598065 0 8 -0.27164603549598065 1
gene 1 9 17 -0.73117521858363188 0 9 -0.73117521858363188 1
gene 1 10 17 -0.94549380985344467 0 10 -0.94549380985344467 1
gene 3 11 17 0.54023050914529269 0 11 0.54023050914529269 1
gene 2 12 17 0.99787781108071927 0 12 0.99787781108071927 1
gene 1 13 17 0.80066754100875348 0 13 0.80066754100875348 1
gene 3 14 17 0.010223842696390973 0 14 0.010223842696390973 1
gene 2 15 17 0.15714155843348315 0 15 0.15714155843348315 1
gene 3 16 17 0.148186218993825 0 16 0.148186218993825 1
gene 3 1 18 -0.20719352281056042 0 17 -0.20719352281056042 1
gene 2 2 18 0.12242471478992362 0 18 0.12242471478992362 1
gene 2 3 18 -0.81554349782669144 0 19 -0.81554349782669144 1
gene 1 4 18 0.92106497796301967 0 20 0.92106497796301967 1
gene 1 5 18 0.87177304964129487 0 21 0.87177304964129487 1
gene 1 6 18 0.8188676255842986 0 22 0.8188676255842986 1
gene 1 7 18 -0.02073422913473762 0 23 -0.02073422913473762 1
gene 2 8 18 0.22624486974731314 0 24 0.22624486974731314 1
gene 2 9 18 0.78050092783779879 0 25 0.78050092783779879 1
gene 1 10 18 0.36796488210929784 0 26 0.36796488210929784 1
gene 1 11 18 0.56561906755232205 0 27 0.56561906755232205 1
gene 3 12 18 -0.019169323155269643 0 28 -0.019169323155269643 1
gene 2 13 18 0.28775505176175153 0 29 0.28775505176175153 1
gene 2 14 18 0.95004814441783736 0 30 0.95004814441783736 1
gene 2 15 18 0.54878888118490055 0 31 0.54878888118490055 1
gene 1 16 18 0.47997172012923833 0 32 0.47997172012923833 1
genomeend 27
