genomestart 8
trait 1 0.1 0 0 0 0 0 0 0 
trait 2 0.2 0 0 0 0 0 0 0 
trait 3 0.3 0 0 0 0 0 0 0 
node 1 3 1 3
node 2 3 1 1
node 3 3 1 1
node 4 2 1 1
node 5 1 1 1
node 6 2 1 1
node 7 3 1 1
node 8 2 1 1
node 9 2 1 1
node 10 1 1 1
node 11 1 1 1
node 12 3 1 1
node 13 2 1 1
node 14 1 1 1
node 15 2 1 1
node 16 2 1 1
node 17 2 0 2
node 18 1 0 2
gene 3 1 17 -0.52986247163725197 0 1 -0.52986247163725197 1
gene 2 2 17 0.56221306536449733 0 2 0.56221306536449733 1
gene 1 3 17 -0.84525450917205514 0 3 -0.84525450917205514 1
gene 2 4 17 -0.7189644625033087 0 4 -0.7189644625033087 1
gene 3 5 17 0.23079708741549268 0 5 0.23079708741549268 1
gene 2 6 17 0.2998210705350251 0 6 0.2998210705350251 1
gene 3 7 17 0.42136185915272767 0 7 0.42136185915272767 1
gene 1 8 17 0.3613111727690842 0 8 0.3613111727690842 1
gene 3 9 17 -0.58978686136649305 0 9 -0.58978686136649305 1
gene 3 10 17 0.23566018149054618 0 10 0.23566018149054618 1
gene 3 11 17 -0.89162906021421262 0 11 -0.89162906021421262 1
gene 2 12 17 0.91587753217475376 0 12 0.91587753217475376 1
gene 1 13 17 0.16149856530199691 0 13 0.16149856530199691 1
gene 2 14 17 0.73619855462396455 0 14 0.73619855462396455 1
gene 1 15 17 -0.8949709007958746 0 15 -0.8949709007958746 1
gene 1 16 17 -0.16581219442459391 0 16 -0.16581219442459391 1
gene 1 1 18 0.41557247397283675 0 17 0.41557247397283675 1
gene 3 2 18 -0.41800514302123576 0 18 -0.41800514302123576 1
gene 3 3 18 -0.46586023339343269 0 19 -0.46586023339343269 1
gene 1 4 18 0.8328940793093732 0 20 0.8328940793093732 1
gene 1 5 18 -0.84641013380438557 0 21 -0.84641013380438557 1
gene 1 6 18 0.43190498623620022 0 22 0.43190498623620022 1
gene 1 7 18 0.13042887771987768 0 23 0.13042887771987768 1
gene 2 8 18 0.11335505736682334 0 24 0.11335505736682334 1
gene 3 9 18 -0.35802990214807445 0 25 -0.35802990214807445 1
gene 3 10 18 -0.56536206955339852 0 26 -0.56536206955339852 1
gene 1 11 18 -0.93422120759925864 0 27 -0.93422120759925864 1
gene 3 12 18 -0.076551384328189948 0 28 -0.076551384328189948 1
gene 2 13 18 -0.53059292236836297 0 29 -0.53059292236836297 1
gene 2 14 18 0.41765642651247625 0 30 0.41765642651247625 1
gene 1 15 18 -0.095849905207683286 0 31 -0.095849905207683286 1
gene 1 16 18 -0.85039719466604158 0 32 -0.85039719466604158 1
genomeend 8
