genomestart 26
trait 1 0.1 0 0 0 0 0 0 0 
trait 2 0.2 0 0 0 0 0 0 0 
trait 3 0.3 0 0 0 0 0 0 0 
node 1 2 1 3
node 2 3 1 1
node 3 2 1 1
node 4 3 1 1
node 5 2 1 1
node 6 2 1 1
node 7 1 1 1
node 8 2 1 1
node 9 3 1 1
node 10 3 1 1
node 11 2 1 1
node 12 2 1 1
node 13 3 1 1
node 14 1 1 1
node 15 1 1 1
node 16 3 1 1
node 17 2 0 2
node 18 3 0 2
gene 3 1 17 -0.016288754072174783 0 1 -0.016288754072174783 1
gene 3 2 17 -0.27439764806739875 0 2 -0.27439764806739875 1
gene 3 3 17 0.099385891621646419 0 3 0.099385891621646419 1
gene 1 4 17 0.95659051740383283 0 4 0.95659051740383283 1
gene 3 5 17 0.47137145207793052 0 5 0.47137145207793052 1
gene 3 6 17 0.3977934994724549 0 6 0.3977934994724549 1
gene 2 7 17 -0.55694006455919709 0 7 -0.55694006455919709 1
gene 1 8 17 -0.85413227875443742 0 8 -0.85413227875443742 1
gene 1 9 17 0.76515409292893211 0 9 0.76515409292893211 1
gene 2 10 17 0.81942691738690576 0 10 0.81942691738690576 1
gene 3 11 17 -0.67129873282802233 0 11 -0.67129873282802233 1
gene 3 12 17 0.38767426246203213 0 12 0.38767426246203213 1
gene 2 13 17 0.20095817195296203 0 13 0.20095817195296203 1
gene 2 14 17 0.6333600299588219 0 14 0.6333600299588219 1
gene 3 15 17 0.96955231901703043 0 15 0.96955231901703043 1
gene 2 16 17 -0.19819289594804537 0 16 -0.19819289594804537 1
gene 1 1 18 0.93743267978422007 0 17 0.93743267978422007 1
gene 1 2 18 0.22852939471068298 0 18 0.22852939471068298 1
gene 3 3 18 0.96332038564762124 0 19 0.96332038564762124 1
gene 3 4 18 -0.70810731766191648 0 20 -0.70810731766191648 1
gene 2 5 18 -0.61506875307069564 0 21 -0.61506875307069564 1
gene 1 6 18 -0.27665253089584996 0 22 -0.27665253089584996 1
gene 2 7 18 -0.40009528836239844 0 23 -0.40009528836239844 1
gene 1 8 18 0.32392847320247836 0 24 0.32392847320247836 1
gene 2 9 18 0.045270010850052354 0 25 0.045270010850052354 1
gene 2 10 18 0.76898248063818664 0 26 0.76898248063818664 1
gene 2 11 18 0.40502384463559082 0 27 0.40502384463559082 1
gene 3 12 18 0.981240018262174 0 28 0.981240018262174 1
gene 1 13 18 0.56671170264795034 0 29 0.56671170264795034 1
gene 3 14 18 0.3472714001998638 0 30 0.3472714001998638 1
gene 3 15 18 -0.17308979815481687 0 31 -0.17308979815481687 1
gene 1 16 18 0.68291739778729033 0 32 0.68291739778729033 1
genomeend 26
