/*  */
genomestart 20
trait 1 0.100000 0.000000 0.000000 0.000000 0.000000 0.000000 0.000000 0.000000 
trait 2 0.200000 0.000000 0.000000 0.000000 0.000000 0.000000 0.000000 0.000000 
trait 3 0.300000 0.000000 0.000000 0.000000 0.000000 0.000000 0.000000 0.000000 
node 1 2 1 3
node 2 1 1 1
node 3 1 1 1
node 4 1 1 1
node 5 3 1 1
node 6 1 1 1
node 7 3 1 1
node 8 3 1 1
node 9 2 1 1
node 10 3 1 1
node 11 3 1 1
node 12 2 1 1
node 13 3 1 1
node 14 2 1 1
node 15 3 1 1
node 16 3 1 1
node 17 1 0 2
node 18 3 0 2
gene 2 1 17 -0.44457177931655745 0 1 -0.44457177931655745 1
gene 1 2 17 0.18343282126981431 0 2 0.18343282126981431 1
gene 2 3 17 -0.048203977312987659 0 3 -0.048203977312987659 1
gene 2 4 17 0.83956259155625601 0 4 0.83956259155625601 1
gene 1 5 17 -0.52944335738636705 0 5 -0.52944335738636705 1
gene 1 6 17 -0.16061632342665286 0 6 -0.16061632342665286 1
gene 3 7 17 -0.27878561163264587 0 7 -0.27878561163264587 1
gene 3 8 17 -0.46068892323444083 0 8 -0.46068892323444083 1
gene 3 9 17 0.81372749284549029 0 9 0.81372749284549029 1
gene 1 10 17 0.037307775596765694 0 10 0.037307775596765694 1
gene 1 11 17 -0.63991040486838224 0 11 -0.63991040486838224 1
gene 2 12 17 -0.030539562474256179 0 12 -0.030539562474256179 1
gene 2 13 17 -0.8967231008674591 0 13 -0.8967231008674591 1
gene 3 14 17 -0.058496136711210074 0 14 -0.058496136711210074 1
gene 3 15 17 0.64825623745483174 0 15 0.64825623745483174 1
gene 1 16 17 -0.95727066973097186 0 16 -0.95727066973097186 1
gene 2 1 18 0.82743355763490944 0 17 0.82743355763490944 1
gene 2 2 18 0.77734895319554442 0 18 0.77734895319554442 1
gene 1 3 18 0.08729986198586405 0 19 0.08729986198586405 1
gene 1 4 18 -0.42873417745751058 0 20 -0.42873417745751058 1
gene 1 5 18 -0.49168630153484938 0 21 -0.49168630153484938 1
gene 3 6 18 0.11793246824198052 0 22 0.11793246824198052 1
gene 2 7 18 -0.7661724946304096 0 23 -0.7661724946304096 1
gene 1 8 18 -0.3588365685934371 0 24 -0.3588365685934371 1
gene 2 9 18 0.51253191917786933 0 25 0.51253191917786933 1
gene 2 10 18 0.15565480625054556 0 26 0.15565480625054556 1
gene 3 11 18 0.44859976388914502 0 27 0.44859976388914502 1
gene 2 12 18 0.27747544193522794 0 28 0.27747544193522794 1
gene 1 13 18 -0.40602236027178462 0 29 -0.40602236027178462 1
gene 1 14 18 0.86939426458878177 0 30 0.86939426458878177 1
gene 2 15 18 -0.1004713043107052 0 31 -0.1004713043107052 1
gene 2 16 18 0.14710661403234424 0 32 0.14710661403234424 1
genomeend 20


