genomestart 14
trait 1 0.1 0 0 0 0 0 0 0 
trait 2 0.2 0 0 0 0 0 0 0 
trait 3 0.3 0 0 0 0 0 0 0 
node 1 3 1 3
node 2 2 1 1
node 3 2 1 1
node 4 3 1 1
node 5 2 1 1
node 6 1 1 1
node 7 3 1 1
node 8 3 1 1
node 9 1 1 1
node 10 2 1 1
node 11 2 1 1
node 12 2 1 1
node 13 3 1 1
node 14 3 1 1
node 15 2 1 1
node 16 3 1 1
node 17 2 0 2
node 18 1 0 2
gene 2 1 17 -0.12254314130290558 0 1 -0.12254314130290558 1
gene 3 2 17 -0.025822462991728662 0 2 -0.025822462991728662 1
gene 3 3 17 0.74198238073940503 0 3 0.74198238073940503 1
gene 3 4 17 0.46473722367768044 0 4 0.46473722367768044 1
gene 2 5 17 0.67853095274350184 0 5 0.67853095274350184 1
gene 1 6 17 -0.69223440982971085 0 6 -0.69223440982971085 1
gene 3 7 17 0.21141933799321733 0 7 0.21141933799321733 1
gene 3 8 17 0.20391374370265461 0 8 0.20391374370265461 1
gene 2 9 17 -0.51912405924830773 0 9 -0.51912405924830773 1
gene 2 10 17 -0.49399859108682659 0 10 -0.49399859108682659 1
gene 2 11 17 -0.75773882947756854 0 11 -0.75773882947756854 1
gene 2 12 17 0.23824526892893261 0 12 0.23824526892893261 1
gene 2 13 17 -0.043677707688732866 0 13 -0.043677707688732866 1
gene 2 14 17 0.30363894221542354 0 14 0.30363894221542354 1
gene 3 15 17 0.90403264430539343 0 15 0.90403264430539343 1
gene 1 16 17 0.14466145967350411 0 16 0.14466145967350411 1
gene 1 1 18 -0.80747349644427813 0 17 -0.80747349644427813 1
gene 2 2 18 -0.002559957095682601 0 18 -0.002559957095682601 1
gene 2 3 18 -0.87728068878747556 0 19 -0.87728068878747556 1
gene 1 4 18 -0.14655192156627397 0 20 -0.14655192156627397 1
gene 2 5 18 -0.82284092475792436 0 21 -0.82284092475792436 1
gene 2 6 18 -0.029681221130155595 0 22 -0.029681221130155595 1
gene 3 7 18 0.94148969926940729 0 23 0.94148969926940729 1
gene 3 8 18 -0.023314139350929363 0 24 -0.023314139350929363 1
gene 3 9 18 0.53291883065035517 0 25 0.53291883065035517 1
gene 2 10 18 0.16390462180781393 0 26 0.16390462180781393 1
gene 1 11 18 -0.58530280067832341 0 27 -0.58530280067832341 1
gene 2 12 18 0.44627645446279851 0 28 0.44627645446279851 1
gene 1 13 18 -0.95205676599967148 0 29 -0.95205676599967148 1
gene 3 14 18 0.96764249073697373 0 30 0.96764249073697373 1
gene 3 15 18 -0.83378470262223148 0 31 -0.83378470262223148 1
gene 3 16 18 -0.8826651954477025 0 32 -0.8826651954477025 1
genomeend 14
