genomestart 41
trait 1 0.1 0 0 0 0 0 0 0 
trait 2 0.2 0 0 0 0 0 0 0 
trait 3 0.3 0 0 0 0 0 0 0 
node 1 2 1 3
node 2 1 1 1
node 3 1 1 1
node 4 1 1 1
node 5 1 1 1
node 6 1 1 1
node 7 2 1 1
node 8 2 1 1
node 9 3 1 1
node 10 3 1 1
node 11 3 1 1
node 12 3 1 1
node 13 1 1 1
node 14 1 1 1
node 15 3 1 1
node 16 2 1 1
node 17 1 0 2
node 18 1 0 2
gene 2 1 17 0.23526193165931009 0 1 0.23526193165931009 1
gene 2 2 17 0.93568512701228501 0 2 0.93568512701228501 1
gene 2 3 17 0.74018356797293927 0 3 0.74018356797293927 1
gene 1 4 17 0.739866306884152 0 4 0.739866306884152 1
gene 1 5 17 0.63998988626524334 0 5 0.63998988626524334 1
gene 2 6 17 0.13386979519104109 0 6 0.13386979519104109 1
gene 1 7 17 0.13317965210097826 0 7 0.13317965210097826 1
gene 2 8 17 -0.31152827214055151 0 8 -0.31152827214055151 1
gene 3 9 17 -0.99248685454599883 0 9 -0.99248685454599883 1
gene 1 10 17 -0.55097134436991591 0 10 -0.55097134436991591 1
gene 2 11 17 -0.81654094290758528 0 11 -0.81654094290758528 1
gene 1 12 17 0.13173285691613931 0 12 0.13173285691613931 1
gene 1 13 17 0.68595884446332178 0 13 0.68595884446332178 1
gene 1 14 17 -0.79599941978044786 0 14 -0.79599941978044786 1
gene 3 15 17 0.75037018151505397 0 15 0.75037018151505397 1
gene 1 16 17 -0.20197852477523429 0 16 -0.20197852477523429 1
gene 2 1 18 0.10289480867930446 0 17 0.10289480867930446 1
gene 3 2 18 -0.83083739356642472 0 18 -0.83083739356642472 1
gene 3 3 18 0.42753942144454432 0 19 0.42753942144454432 1
gene 1 4 18 0.72841896197219336 0 20 0.72841896197219336 1
gene 1 5 18 0.50848594610974474 0 21 0.50848594610974474 1
gene 2 6 18 0.56135960508201255 0 22 0.56135960508201255 1
gene 1 7 18 -0.082005692684094272 0 23 -0.082005692684094272 1
gene 2 8 18 -0.33624579866241933 0 24 -0.33624579866241933 1
gene 1 9 18 -0.54056435103554479 0 25 -0.54056435103554479 1
gene 2 10 18 -0.35402301622276333 0 26 -0.35402301622276333 1
gene 3 11 18 0.72876747917792173 0 27 0.72876747917792173 1
gene 1 12 18 0.73382254444706374 0 28 0.73382254444706374 1
gene 3 13 18 0.75104050978601 0 29 0.75104050978601 1
gene 3 14 18 0.46939690479514978 0 30 0.46939690479514978 1
gene 1 15 18 0.89025891008333258 0 31 0.89025891008333258 1
gene 3 16 18 -0.4870428035441054 0 32 -0.4870428035441054 1
genomeend 41
