genomestart 47
trait 1 0.1 0 0 0 0 0 0 0 
trait 2 0.2 0 0 0 0 0 0 0 
trait 3 0.3 0 0 0 0 0 0 0 
node 1 2 1 3
node 2 3 1 1
node 3 2 1 1
node 4 1 1 1
node 5 2 1 1
node 6 3 1 1
node 7 2 1 1
node 8 1 1 1
node 9 2 1 1
node 10 3 1 1
node 11 3 1 1
node 12 2 1 1
node 13 2 1 1
node 14 2 1 1
node 15 1 1 1
node 16 2 1 1
node 17 2 0 2
node 18 3 0 2
gene 3 1 17 0.67981940818942121 0 1 0.67981940818942121 1
gene 3 2 17 -0.22085188292937907 0 2 -0.22085188292937907 1
gene 1 3 17 -0.73972986998955248 0 3 -0.73972986998955248 1
gene 2 4 17 0.91753173243139485 0 4 0.91753173243139485 1
gene 1 5 17 -0.84598442066739521 0 5 -0.84598442066739521 1
gene 1 6 17 -0.99645226122646235 0 6 -0.99645226122646235 1
gene 1 7 17 -0.081040073689557651 0 7 -0.081040073689557651 1
gene 2 8 17 -0.67835294999105522 0 8 -0.67835294999105522 1
gene 2 9 17 0.23429722303259057 0 9 0.23429722303259057 1
gene 2 10 17 -0.67532065355932369 0 10 -0.67532065355932369 1
gene 3 11 17 -0.59188771415124075 0 11 -0.59188771415124075 1
gene 1 12 17 0.55201709203050331 0 12 0.55201709203050331 1
gene 1 13 17 0.15727110307536604 0 13 0.15727110307536604 1
gene 1 14 17 -0.93474959159956761 0 14 -0.93474959159956761 1
gene 2 15 17 -0.69801911371667824 0 15 -0.69801911371667824 1
gene 1 16 17 -0.14875135298294545 0 16 -0.14875135298294545 1
gene 1 1 18 -0.56721210226752428 0 17 -0.56721210226752428 1
gene 3 2 18 -0.87404734402617779 0 18 -0.87404734402617779 1
gene 3 3 18 0.78515947274172659 0 19 0.78515947274172659 1
gene 1 4 18 0.40485643986838704 0 20 0.40485643986838704 1
gene 1 5 18 -0.099977444903914553 0 21 -0.099977444903914553 1
gene 2 6 18 0.59519505295678743 0 22 0.59519505295678743 1
gene 3 7 18 0.15205648408832795 0 23 0.15205648408832795 1
gene 1 8 18 0.078911396245896534 0 24 0.078911396245896534 1
gene 1 9 18 0.36290948156402886 0 25 0.36290948156402886 1
gene 2 10 18 0.8828826434364927 0 26 0.8828826434364927 1
gene 2 11 18 0.74349357175803443 0 27 0.74349357175803443 1
gene 3 12 18 0.17285458891319791 0 28 0.17285458891319791 1
gene 1 13 18 0.78387024895468271 0 29 0.78387024895468271 1
gene 1 14 18 -0.29179790862454003 0 30 -0.29179790862454003 1
gene 2 15 18 -0.83206140568110221 0 31 -0.83206140568110221 1
gene 3 16 18 0.79845183705838951 0 32 0.79845183705838951 1
genomeend 47
