/*  */
genomestart 10
trait 1 0.100000 0.000000 0.000000 0.000000 0.000000 0.000000 0.000000 0.000000 
trait 2 0.200000 0.000000 0.000000 0.000000 0.000000 0.000000 0.000000 0.000000 
trait 3 0.300000 0.000000 0.000000 0.000000 0.000000 0.000000 0.000000 0.000000 
node 1 1 1 3
node 2 2 1 1
node 3 2 1 1
node 4 3 1 1
node 5 1 1 1
node 6 1 1 1
node 7 1 1 1
node 8 1 1 1
node 9 2 1 1
node 10 2 1 1
node 11 3 1 1
node 12 3 1 1
node 13 1 1 1
node 14 1 1 1
node 15 2 1 1
node 16 3 1 1
node 17 2 0 2
node 18 1 0 2
gene 2 1 17 -0.028036393703909774 0 1 -0.028036393703909774 1
gene 3 2 17 0.5547849231189047 0 2 0.5547849231189047 1
gene 1 3 17 0.26066030853458694 0 3 0.26066030853458694 1
gene 1 4 17 0.72453151071655164 0 4 0.72453151071655164 1
gene 1 5 17 0.91217105272792798 0 5 0.91217105272792798 1
gene 2 6 17 0.3025577637844522 0 6 0.3025577637844522 1
gene 3 7 17 0.7566920690036808 0 7 0.7566920690036808 1
gene 3 8 17 0.10427993075190109 0 8 0.10427993075190109 1
gene 3 9 17 -0.84252407347900982 0 9 -0.84252407347900982 1
gene 1 10 17 -0.49098952044313288 0 10 -0.49098952044313288 1
gene 1 11 17 0.31935054218366304 0 11 0.31935054218366304 1
gene 1 12 17 -0.44972149955561452 0 12 -0.44972149955561452 1
gene 1 13 17 -0.96848659262456305 0 13 -0.96848659262456305 1
gene 2 14 17 -0.34101316674659643 0 14 -0.34101316674659643 1
gene 3 15 17 0.56052851703042561 0 15 0.56052851703042561 1
gene 3 16 17 -0.68218058426034667 0 16 -0.68218058426034667 1
gene 1 1 18 0.55031319593559636 0 17 0.55031319593559636 1
gene 1 2 18 0.46460654701320758 0 18 0.46460654701320758 1
gene 3 3 18 0.5040686868615768 0 19 0.5040686868615768 1
gene 2 4 18 -0.26863846335031022 0 20 -0.26863846335031022 1
gene 3 5 18 0.5135495353087548 0 21 0.5135495353087548 1
gene 2 6 18 0.21737549650360621 0 22 0.21737549650360621 1
gene 1 7 18 -0.73907625663051202 0 23 -0.73907625663051202 1
gene 2 8 18 -0.29399211066495262 0 24 -0.29399211066495262 1
gene 3 9 18 0.18566744410696787 0 25 0.18566744410696787 1
gene 1 10 18 -0.91672860687446245 0 26 -0.91672860687446245 1
gene 1 11 18 0.38188013079663746 0 27 0.38188013079663746 1
gene 1 12 18 0.51278048591352088 0 28 0.51278048591352088 1
gene 1 13 18 -0.33296103278778544 0 29 -0.33296103278778544 1
gene 2 14 18 0.1388645950420129 0 30 0.1388645950420129 1
gene 2 15 18 0.94072600171935095 0 31 0.94072600171935095 1
gene 2 16 18 -0.48205446008688513 0 32 -0.48205446008688513 1
genomeend 10


