genomestart 19
trait 1 0 1 0.562588 0 0.291407 0 0 0.607015 
trait 2 0.990843 0.24726 1 1 0 1 0 1 
trait 3 0 0.757661 0.675016 0.872026 0 1 0.588693 1 
node 1 2 1 3
node 2 3 1 1
node 3 3 0 2
node 4 1 0 2
nodegru 7 0 1.56152 -0.131002 1.48301 -1.90594 -1.95998 -0.739199 [ 0.861734 -0.0946636 0 ] [ 0.765068 0.202707 0 ] [ 1.56621 0.544708 0 ]
node 14 1 0 0
node 23 1 0 0
node 27 3 0 0
node 73 1 0 0
nodegru 113 0 -3.65393 1.9902 -0.929144 1.27295 -2.4184 1.16989 [ -5.2313 0.0938767 0.912626 0.395836 ] [ -0.254885 1.01953 0.0813068 -0.26807 ] [ 0.880745 0.345306 -0.213745 0.181828 ]
nodegru 145 0 0.401041 -0.816678 -1.60208 -0.687265 0.580475 -1.18725 [ -2.24243 -0.244734 0.0392157 -0.150527 1.22914 -1.51556 0.483202 0.259839 1.31648 0.55545 0.00144869 -0.17747 0.667177 -0.65671 ] [ -0.527397 -1.09723 0.987363 -1.2288 -2.81477 0.0938091 -1.44451 0.579079 1.1798 -1.18529 1.05083 0.638873 0.513407 0.610872 ] [ 0.764883 3.30972 0.982785 2.03192 0.878553 0.280989 0.809374 0.557548 -1.22074 -0.0572395 0.172257 -0.139142 -0.664015 0.0988929 ]
node 231 3 0 0
nodegru 257 0 -0.364046 0.338511 0.204407 2.39255 0.0931835 1.01378 [ -3.44856 2.4091 0.390482 1.14759 ] [ 2.23586 -0.503035 -0.238693 0.900723 ] [ 0.942335 -0.611487 -0.563079 -0.820853 ]
node 264 2 0 0
node 266 1 0 0
node 340 2 0 0
nodegru 347 0 2.9972 1.96605 -1.76033 -1.06647 -0.932753 0.211171 [ -1.07107 0.299696 0.413283 -0.659859 0.887002 1.02611 ] [ -1.3029 0.535054 0.90685 -0.340605 -2.13524 0.942812 ] [ -3.5346 2.39845 -0.409529 -1.44603 -1.44186 -0.358917 ]
node 414 1 0 0
node 477 3 0 0
node 700 1 0 0
nodegru 1104 0 -0.348139 -1.80887 0.712475 -0.253722 0.0219386 -0.0235959 [ -0.0255919 0 ] [ -0.45423 0 ] [ -0.641278 0 ]
node 1366 2 0 0
node 1400 3 0 0
node 1574 1 0 0
node 1581 1 0 0
nodegru 1605 0 -0.244582 -1.54635 0.841217 -0.0889831 0.370972 -0.760735 [ -1.22993 -0.0662141 0 ] [ -0.683724 -0.256299 0 ] [ -0.996729 -0.170282 -0.24409 ]
node 1607 1 0 0
node 1614 2 0 0
node 1677 1 0 0
node 1705 1 0 0
node 1707 3 0 0
node 1748 1 0 0
node 1767 1 0 0
node 1797 1 0 0
nodegru 2027 0 -0.380436 0 0.08417 0.16958 0 -0.625367 [ 1.00841 ] [ 0.232572 ] [ -0.579262 ]
nodegru 2111 0 0 -0.239467 0 0 0 0.17312 [ -0.672525 0 ] [ 0.60152 0 ] [ 0 0 ]
node 2143 1 0 0
gene 3 1 3 -1.2326 0 1 -1.2326 1
gene 1 2 3 -0.970791 0 2 -0.970791 1
gene 3 1 4 0.361853 0 3 0.361853 0
gene 2 2 4 0.57135 0 4 0.57135 0
gene 3 2 7 0.449744 0 12 0.449744 1
gene 2 7 4 0.727069 0 13 0.727069 1
gene 1 1 7 -1.98573 0 23 -1.98573 1
gene 3 2 14 1.00686 0 43 1.00686 0
gene 1 14 3 0.166073 0 44 0.166073 0
gene 3 7 14 -0.41473 0 58 -0.41473 1
gene 3 14 4 -0.989884 0 67 -0.989884 0
gene 1 7 3 0.198373 0 86 0.198373 0
gene 1 2 23 -2.1991 0 93 -2.1991 0
gene 1 23 14 -0.550862 0 94 -0.550862 1
gene 1 14 27 -0.675533 0 110 -0.675533 1
gene 1 27 3 2.99349 0 111 2.99349 1
gene 2 1 27 -1.68458 0 114 -1.68458 1
gene 3 7 23 -0.16791 0 137 -0.16791 0
gene 2 23 27 0.13968 0 280 0.13968 0
gene 2 4 14 -2.27843 1 303 -2.27843 0
gene 1 1 23 -1.00668 0 441 -1.00668 1
gene 1 2 73 0.965076 0 459 0.965076 0
gene 2 73 23 0.397543 0 460 0.397543 1
gene 3 3 3 1.43363 1 550 1.43363 1
gene 1 2 113 -1.31728 0 722 -1.31728 1
gene 1 113 73 1.37603 0 723 1.37603 1
gene 2 4 145 -1.94185 1 970 -1.94185 0
gene 2 145 14 -1.70992 0 971 -1.70992 1
gene 2 145 3 0.0323822 0 1294 0.0323822 1
gene 2 145 27 3.8064 0 1375 3.8064 1
gene 1 1 73 -0.39072 0 1460 -0.39072 1
gene 1 23 231 -0.152864 0 1540 -0.152864 0
gene 2 231 27 -0.108441 0 1541 -0.108441 1
gene 2 73 73 1.12454 1 1661 1.12454 1
gene 2 1 113 -0.851862 0 1691 -0.851862 1
gene 1 2 145 1.51125 0 1697 1.51125 0
gene 3 23 23 -0.422602 1 1707 -0.422602 1
gene 2 7 257 -0.423323 0 1750 -0.423323 1
gene 2 257 3 -0.780474 0 1751 -0.780474 0
gene 2 257 264 -0.0220549 0 1790 -0.0220549 1
gene 1 264 3 0.231832 0 1791 0.231832 1
gene 1 23 266 0.46929 0 1800 0.46929 0
gene 2 266 231 -1.37279 0 1801 -1.37279 1
gene 3 2 264 0.108511 0 1959 0.108511 1
gene 2 23 264 -0.795348 0 1968 -0.795348 0
gene 3 231 145 0.933452 0 2009 0.933452 1
gene 1 231 264 0.516827 0 2050 0.516827 0
gene 3 27 4 0.826745 0 2177 0.826745 1
gene 2 231 231 -4.91439 1 2333 -4.91439 1
gene 2 4 340 -0.342768 1 2351 -0.342768 0
gene 2 340 145 -0.498842 0 2352 -0.498842 1
gene 3 2 347 0.147061 0 2381 0.147061 0
gene 3 347 145 2.40858 0 2382 2.40858 1
gene 1 1 264 1.51655 0 2477 1.51655 1
gene 3 264 27 0.374285 0 2638 0.374285 1
gene 2 145 257 1.30783 0 2691 1.30783 1
gene 2 23 414 0.917286 0 2778 0.917286 1
gene 2 414 264 -0.195478 0 2779 -0.195478 0
gene 1 7 347 1.50516 0 2790 1.50516 1
gene 1 23 4 0.137759 0 2810 0.137759 1
gene 3 73 145 -0.63741 0 2866 -0.63741 1
gene 3 73 231 -1.78849 0 3037 -1.78849 1
gene 3 7 231 0.100275 0 3115 0.100275 1
gene 3 414 3 -1.31639 0 3123 -1.31639 1
gene 2 7 477 -0.674559 0 3343 -0.674559 1
gene 3 477 23 1.6665 0 3344 1.6665 1
gene 1 113 477 -1.78299 0 3372 -1.78299 1
gene 2 73 266 0.741833 0 3383 0.741833 0
gene 1 7 73 1.52599 0 3447 1.52599 1
gene 3 414 414 0.472478 1 3528 0.472478 1
gene 2 347 477 2.80645 0 3590 2.80645 0
gene 2 340 14 -1.29285 0 3614 -1.29285 1
gene 3 340 23 3.40242 0 3806 3.40242 0
gene 1 2 340 4.60397 0 3982 4.60397 1
gene 1 231 347 0.47705 1 4123 0.47705 1
gene 1 347 231 0.306394 0 4134 0.306394 1
gene 3 1 266 -0.846515 0 4291 -0.846515 1
gene 1 113 264 0.781364 0 4310 0.781364 1
gene 2 1 145 0.164285 0 4481 0.164285 1
gene 3 414 23 2.81836 1 4602 2.81836 1
gene 3 347 266 1.62117 0 4760 1.62117 1
gene 3 2 700 -0.322212 0 4984 -0.322212 0
gene 3 700 347 1.20228 0 4985 1.20228 1
gene 1 347 23 1.68779 0 5172 1.68779 1
gene 1 477 73 0.394641 0 5211 0.394641 1
gene 3 340 700 -0.790252 0 5283 -0.790252 1
gene 3 73 14 -1.0701 0 5353 -1.0701 1
gene 2 266 145 2.7219 0 5392 2.7219 1
gene 2 477 266 -1.52091 0 5628 -1.52091 1
gene 1 7 414 0.973887 0 5849 0.973887 0
gene 1 340 477 -1.80349 0 6075 -1.80349 1
gene 3 73 700 -5.08718 1 6371 -5.08718 1
gene 2 257 14 -0.238082 0 6510 -0.238082 1
gene 1 347 414 0.964023 0 6648 0.964023 1
gene 3 23 145 1.21854 0 6873 1.21854 1
gene 3 2 231 -0.561336 0 6973 -0.561336 1
gene 1 700 113 0.00492459 0 6988 0.00492459 1
gene 3 73 414 1.70087 0 7223 1.70087 1
gene 2 231 14 -0.222272 0 7242 -0.222272 1
gene 1 7 145 0.683125 0 7295 0.683125 1
gene 1 477 4 -0.426268 0 7454 -0.426268 1
gene 3 14 14 -3.00628 1 7470 -3.00628 1
gene 3 27 414 -3.41843 0 7699 -3.41843 1
gene 1 700 23 -0.120515 0 7731 -0.120515 1
gene 3 2 1104 -0.436899 0 7878 -0.436899 1
gene 3 1104 700 -0.483461 0 7879 -0.483461 1
gene 1 1104 477 0.594069 0 7900 0.594069 1
gene 2 113 23 0.526659 0 7950 0.526659 1
gene 1 27 27 1.93692 1 8108 1.93692 1
gene 1 700 700 0.855702 1 8130 0.855702 1
gene 1 3 700 -0.472373 1 8160 -0.472373 1
gene 1 1 477 0.142936 0 8175 0.142936 1
gene 1 231 414 -1.1766 0 8341 -1.1766 1
gene 3 1 14 0.490017 0 8386 0.490017 1
gene 3 1 231 1.22952 0 8550 1.22952 1
gene 2 700 264 1.49377 0 8623 1.49377 1
gene 2 113 145 0.179132 0 8645 0.179132 1
gene 2 14 414 -1.7777 0 8849 -1.7777 1
gene 2 266 264 1.14886 0 8956 1.14886 1
gene 1 700 27 -2.62443 0 9089 -2.62443 1
gene 3 3 73 -1.43235 1 9314 -1.43235 1
gene 3 145 414 -1.13421 0 9548 -1.13421 1
gene 2 347 27 -0.616814 0 9569 -0.616814 0
gene 2 477 264 -1.87555 0 9731 -1.87555 1
gene 2 264 14 -0.174124 0 9782 -0.174124 1
gene 1 231 1366 1.59264 0 9791 1.59264 1
gene 1 1366 264 -0.504136 0 9792 -0.504136 1
gene 3 1104 347 0.181719 0 9806 0.181719 0
gene 2 145 1366 -0.637834 0 9819 -0.637834 1
gene 1 700 1366 0.267917 0 9825 0.267917 1
gene 1 264 264 0.42466 1 9835 0.42466 1
gene 1 1104 145 -2.26905 0 9994 -2.26905 1
gene 1 1104 14 1.22424 0 10006 1.22424 1
gene 2 7 340 2.3839 0 10044 2.3839 1
gene 2 23 1400 1.94809 0 10052 1.94809 0
gene 2 1400 266 -0.748778 0 10053 -0.748778 1
gene 3 1 1366 1.31659 0 10219 1.31659 1
gene 3 73 27 1.57401 0 10440 1.57401 1
gene 1 1 700 -0.927192 0 10464 -0.927192 1
gene 1 113 1366 1.03937 0 10691 1.03937 1
gene 1 14 257 0.474144 0 10706 0.474144 0
gene 1 1366 4 -0.515684 0 10805 -0.515684 1
gene 2 3 1400 -0.034847 1 10933 -0.034847 1
gene 2 7 1400 0.622644 0 10958 0.622644 1
gene 3 477 145 1.07261 0 10970 1.07261 1
gene 1 1400 1400 0.887218 1 11121 0.887218 1
gene 1 1366 1366 1.50354 1 11128 1.50354 0
gene 2 340 4 -1.31054 0 11341 -1.31054 1
gene 1 7 1574 0.186272 0 11367 0.186272 1
gene 1 1574 414 2.90816 0 11368 2.90816 1
gene 3 14 1581 -0.177794 0 11405 -0.177794 1
gene 3 1581 4 -0.32414 0 11406 -0.32414 1
gene 3 264 4 -0.84577 0 11412 -0.84577 1
gene 1 347 1605 -0.497039 0 11578 -0.497039 1
gene 3 1605 477 1.58623 0 11579 1.58623 1
gene 3 1104 1607 0.152663 0 11591 0.152663 1
gene 3 1607 347 -0.152741 0 11592 -0.152741 1
gene 2 414 1614 -0.314303 0 11623 -0.314303 1
gene 2 1614 264 -0.747504 0 11624 -0.747504 1
gene 3 7 27 -0.357851 0 11628 -0.357851 1
gene 1 1607 1400 -0.420195 0 11644 -0.420195 1
gene 3 1574 3 1.24805 0 11784 1.24805 1
gene 2 4 1677 -1.06824 1 12050 -1.06824 1
gene 2 1677 340 -1.15203 0 12051 -1.15203 1
gene 3 700 477 -0.467 0 12141 -0.467 1
gene 2 113 27 -0.486865 0 12254 -0.486865 0
gene 2 113 1705 -0.104163 0 12272 -0.104163 1
gene 2 1705 27 0.789435 0 12273 0.789435 1
gene 1 14 1707 -3.20512 0 12293 -3.20512 1
gene 1 1707 257 -0.201353 0 12294 -0.201353 1
gene 1 1104 3 1.00029 0 12387 1.00029 1
gene 3 113 1677 -0.210198 1 12397 -0.210198 1
gene 3 231 4 0.71706 0 12494 0.71706 1
gene 1 1605 1574 -0.463699 0 12506 -0.463699 1
gene 2 347 1748 0.858104 0 12613 0.858104 1
gene 2 1748 27 -0.964022 0 12614 -0.964022 1
gene 3 4 414 -2.73051 1 12627 -2.73051 1
gene 1 113 7 0.78836 1 12723 0.78836 1
gene 2 340 1605 0.49681 0 12739 0.49681 0
gene 2 23 1767 0.611019 0 12765 0.611019 1
gene 2 1767 1400 -0.0349361 0 12766 -0.0349361 1
gene 2 340 1797 0.596516 0 12926 0.596516 1
gene 2 1797 1605 -0.980665 0 12927 -0.980665 1
gene 2 1677 1574 -0.0860046 0 12955 -0.0860046 1
gene 3 1104 231 -0.370766 0 12977 -0.370766 0
gene 2 27 264 0.522656 0 12985 0.522656 1
gene 3 113 1797 0.26251 0 13048 0.26251 1
gene 3 7 1767 -0.852264 0 13150 -0.852264 1
gene 3 1705 1705 -1.20963 1 13167 -1.20963 1
gene 3 1 414 -0.582209 0 13202 -0.582209 1
gene 3 27 231 -0.341226 1 13213 -0.341226 1
gene 2 1607 145 -1.33232 0 13320 -1.33232 1
gene 3 2 1748 -0.280412 0 13334 -0.280412 1
gene 1 1574 14 -1.35242 0 13427 -1.35242 1
gene 1 1104 1400 0.311789 0 13573 0.311789 1
gene 2 347 1581 0.198853 0 13683 0.198853 1
gene 3 347 113 1.09018 0 13932 1.09018 1
gene 3 1748 3 -0.174715 0 14164 -0.174715 1
gene 3 1797 14 -0.219262 0 14188 -0.219262 1
gene 2 1677 1677 -0.67226 1 14199 -0.67226 1
gene 2 1705 1797 -0.229398 0 14339 -0.229398 1
gene 3 1581 3 0.560387 0 14362 0.560387 1
gene 3 1366 27 -0.541416 0 14387 -0.541416 1
gene 3 1767 1104 -1.05156 1 14403 -1.05156 1
gene 1 700 1581 0.718438 0 14599 0.718438 1
gene 1 1605 1705 0.681417 1 14617 0.681417 1
gene 3 113 1707 -0.159271 0 14638 -0.159271 1
gene 3 340 2027 -0.9795 0 14758 -0.9795 1
gene 3 2027 23 -0.107008 0 14759 -0.107008 1
gene 3 113 1581 -0.568368 0 14833 -0.568368 1
gene 3 700 1705 0.402721 0 14966 0.402721 1
gene 3 1797 3 -0.623834 0 15069 -0.623834 1
gene 1 1748 1748 0.416338 1 15089 0.416338 1
gene 1 1677 1797 0.553738 0 15100 0.553738 1
gene 3 1104 1707 0.00286173 0 15113 0.00286173 1
gene 1 1767 1707 0.879419 0 15296 0.879419 1
gene 3 700 266 -1.19438 0 15327 -1.19438 1
gene 1 1366 2111 -0.0718197 1 15337 -0.0718197 1
gene 1 2111 1366 0.286341 0 15338 0.286341 1
gene 2 1366 1707 0.416879 0 15545 0.416879 1
gene 3 1104 2143 -0.330967 0 15575 -0.330967 1
gene 3 2143 231 -0.445879 0 15576 -0.445879 1
gene 2 1797 27 0.746437 0 15608 0.746437 1
gene 2 1366 2111 0.684813 0 15807 0.684813 1
genomeend 19
