genomestart 66
trait 1 1 0.0588767 1 0 1 0.531611 1 1 
trait 2 0 0 0 0 1 0.596168 0 0 
trait 3 0.0567543 0 0 1 1 1 1 0 
node 1 3 1 3
node 2 3 1 1
node 3 2 0 2
node 4 1 0 2
nodegru 22 0 -0.14436478686722218 0.49529753578607805 0.44786490707093146 0.10996011300476273 0.18277083159553392 1.2390185928619553 [ 0.98071453160639588 ] [ -0.5051842283015997 ] [ -0.8335664134163252 ]
nodegru 84 0 -1.9973584301757432 -0.30531452098177492 0.10991670266255583 0.91876651133353193 -0.62327084696072665 1.6148339452291065 [ -0.64852497477481374 -0.39484666399417756 0.23717794974203127 -0.02347036335778907 ] [ -0.090522631113660809 -0.32542160261674857 -0.32627303540998748 0.20580382538298325 ] [ 0.15141714953417759 -0.08405022629725295 -0.10391561761680787 0.10504713962089603 ]
node 968 2 0 0
node 2064 3 0 0
nodegru 2075 0 -0.66341608141708019 -0.36573626304312434 -0.31822615387766906 0.22062837575591554 2.2201857768093167 -1.3149607730167732 [ -1.6316022670974966 0.26457868249368793 0 ] [ -0.48477004793694711 0.47740336483223522 0 ] [ 0.43516616939341934 -0.22742202772173192 0 ]
node 2100 1 0 0
node 2360 1 0 0
node 2476 2 0 0
nodegru 2567 0 -0.69477346851247057 -0.70164861795569222 -0.259566717669166 -0.15063924535673076 0.054499049230711138 0.0081384996921468888 [ ] [ ] [ ]
nodegru 2991 0 0.0023572056099573357 0.71134549179642703 0.09121069572456679 0.59021313306419787 -0.88096445187971206 -0.95379912618258922 [ ] [ ] [ ]
node 3038 1 0 0
node 3043 2 0 0
node 3139 1 0 0
nodegru 3401 0 -0.20010816012514204 0 0 -0.92617013348553801 -0.10772813768485939 -0.24967044743228259 [ -0.92428211817717276 0 ] [ 0.07036838963179308 -0.15792420583680469 ] [ 0.38701943442552322 0 ]
nodegru 3458 0 -0.019132981318576717 -0.37076788203360878 -0.90625780793198274 -0.088184851495635153 0.7052915465111339 0 [ 0.45448643362824176 ] [ 0.087700475513795617 ] [ 0.15853832692771141 ]
nodegru 3470 0 0.23252185025835495 0.31234790515729594 -0.79533141748762293 -0.63484205893932011 0.40263822367537683 -0.13042725838275035 [ -0.35763868869172349 ] [ 0.35039388288296469 ] [ -0.49487441358849144 ]
gene 3 2 3 6.4134236545830143 0 2 6.4134236545830143 1
gene 1 1 4 -1.1736782203305882 0 3 -1.1736782203305882 1
gene 1 2 22 -1.3248469626181045 0 63 -1.3248469626181045 1
gene 3 22 3 -6.6456384438302543 0 314 -6.6456384438302543 1
gene 3 968 84 -0.95479887931365459 0 4587 -0.95479887931365459 1
gene 1 84 3 1.5614931918967012 0 6078 1.5614931918967012 1
gene 2 2100 2476 -0.026803839964235104 0 12031 -0.026803839964235104 1
gene 3 2567 2064 1.716552315380681 0 12511 1.716552315380681 1
gene 2 968 2476 0.15306427639586118 0 14617 0.15306427639586118 0
gene 2 3038 84 -0.010862956061429785 0 14870 -0.010862956061429785 0
gene 3 3043 84 -0.45019749177163348 0 14893 -0.45019749177163348 0
gene 3 22 2476 -0.097419531129961615 0 14952 -0.097419531129961615 1
gene 2 2 2064 -0.40226978408278419 0 15552 -0.40226978408278419 1
gene 1 968 2075 1.1428787327105545 1 16157 1.1428787327105545 1
gene 3 3139 2360 -0.018345683355976694 0 16173 -0.018345683355976694 1
gene 1 3038 2360 0.63622376794750979 0 16371 0.63622376794750979 1
gene 2 2 968 -0.72248397125978225 0 16622 -0.72248397125978225 1
gene 3 3043 3401 0.50379689713185516 0 16671 0.50379689713185516 1
gene 3 3401 84 -0.42071806239928961 0 16672 -0.42071806239928961 1
gene 3 22 3139 -1.2608148978374967 0 16945 -1.2608148978374967 1
gene 2 968 3458 -0.63682307891399748 0 16948 -0.63682307891399748 1
gene 2 3458 2476 0.26928541379481807 0 16949 0.26928541379481807 1
gene 1 2100 2100 0.21680340343937435 1 16963 0.21680340343937435 1
gene 2 2075 3401 0.63837719878106247 0 16984 0.63837719878106247 1
gene 1 3401 3139 0.35525910456444099 0 16988 0.35525910456444099 1
gene 2 2100 3470 0.19749886505189299 0 17018 0.19749886505189299 1
gene 2 3470 2476 -0.23212738392507998 0 17019 -0.23212738392507998 1
gene 1 2991 2075 -0.18371731447229037 0 17026 -0.18371731447229037 1
gene 3 968 2075 -0.41850532960077069 0 17306 -0.41850532960077069 1
genomeend 66
