genomestart 75
trait 1 0 0 0 0.565823 0.489295 0 0.626529 0 
trait 2 0 0 0.773798 1 0.834247 1 0 0.410148 
trait 3 0.992522 0.698111 0 0 1 0 0.671041 0.464471 
node 1 3 1 3
node 2 1 1 1
node 3 3 0 2
node 4 3 0 2
node 7 3 0 0
node 13 3 0 0
node 64 3 0 0
node 126 3 0 0
node 152 1 0 0
node 270 3 0 0
nodegru 298 0 -0.79519533077031146 0.69994364827868694 1.2936076004028356 0.1363589906303021 -0.30217860699732724 0.039538721106731567 [ -1.1971039945246205 -0.66505313113567099 ] [ -0.17626725541253901 0.095463848484430402 ] [ 0.77235398151555756 1.2271452235184355 ]
node 378 2 0 0
node 482 1 0 0
node 485 1 0 0
node 487 3 0 0
node 570 1 0 0
node 576 2 0 0
node 628 1 0 0
node 647 1 0 0
node 747 1 0 0
node 958 2 0 0
nodegru 967 0 0.55042055926770939 0.15702394240397216 -0.32940241826204697 -0.84233796775449898 -0.92637757604307369 0.060920801042076575 [ 0.35913528588560195 0.29921983173080724 0.13230352668664586 ] [ 0.2699939030082868 0.32211227101372197 0.0016554153997709116 ] [ -0.044306222137206336 -1.1078796459398603 0.015658799566169668 ]
nodegru 1069 0 -2.3207073615960345 -0.28301350389747576 0.019470832319683717 0.23741520393519444 0.21105978694328098 0.38418368384436874 [ 0.13087813026778305 ] [ 0.40193139338024492 ] [ -1.6793534868300677 ]
node 1095 1 0 0
node 1176 1 0 0
node 1206 1 0 0
node 1257 1 0 0
node 1325 1 0 0
nodegru 1516 0 0.21279570353813271 0.75161518936586347 -0.74529333656900243 0.093647485642529851 -0.18948981384257313 -0.43928498352844497 [ -0.0808726277113299 0.45344949488223035 -0.14495004277906848 ] [ 0.69841674957350675 0.33170290143774017 0 ] [ -0.2518268275315998 -0.32899468640284363 0 ]
node 1655 2 0 0
nodegru 1679 0 -0.31411906392971012 0.21838439964614081 0.68110304986178083 -0.40236296570038554 0.13243705249970641 -0.65371547227432747 [ -0.4337051782913996 ] [ 0.89130703913574427 ] [ 0.97994742960666648 ]
nodegru 1685 0 0 0.25199155008978746 0.42783553731992635 -0.25821461493997583 0 0 [ 0.21525095576199282 0.11307126917553659 ] [ 0 0 ] [ 0.074731090373700071 0.14271156706042196 ]
node 1793 1 0 0
node 2000 3 0 0
node 2003 3 0 0
nodegru 2030 0 0.24900523654604576 -0.92976008049666892 -0.4300999152148608 0.79960674759913553 0.13816318178463877 -0.20391964502815141 [ 0.19008742467970002 ] [ 0.91294849753051466 ] [ -0.18472197194803597 ]
nodegru 2088 0 0 0 0 0 0 0 [ 0 ] [ 0 ] [ 0 ]
node 2230 1 0 0
node 2233 1 0 0
nodegru 2258 0 0 0 0 0 0 0 [ 0 ] [ 0 ] [ 0 ]
gene 2 1 3 1.3225750365865305 0 1 1.3225750365865305 1
gene 3 2 3 -0.90125234536884924 0 2 -0.90125234536884924 1
gene 2 1 4 -0.70819834163794204 0 3 -0.70819834163794204 1
gene 2 2 4 -1.2342009603670803 0 4 -1.2342009603670803 1
gene 3 2 7 -0.11880312167052326 0 12 -0.11880312167052326 1
gene 3 7 4 -0.77395980980897316 0 13 -0.77395980980897316 1
gene 3 7 13 -0.22134102239335934 0 41 -0.22134102239335934 0
gene 3 13 4 -0.38752177329152898 0 42 -0.38752177329152898 0
gene 1 1 13 -0.38884970936404989 0 106 -0.38884970936404989 1
gene 2 2 64 -2.4440308960359687 0 291 -2.4440308960359687 0
gene 3 64 7 -0.24299863481102452 0 292 -0.24299863481102452 1
gene 3 2 13 0.40690859309719346 0 407 0.40690859309719346 1
gene 2 64 13 0.35673091018420211 0 423 0.35673091018420211 0
gene 2 13 3 0.77105174691930967 0 430 0.77105174691930967 0
gene 1 64 126 2.0312723948300215 0 627 2.0312723948300215 1
gene 2 126 13 1.0179643142120745 0 628 1.0179643142120745 0
gene 2 1 126 0.013063471304747963 0 724 0.013063471304747963 1
gene 2 2 152 0.99418440856700041 0 739 0.99418440856700041 0
gene 3 152 64 0.23407880064755621 0 740 0.23407880064755621 0
gene 2 152 126 -0.75509729318092456 0 888 -0.75509729318092456 0
gene 2 126 152 -0.10371892275461878 1 1098 -0.10371892275461878 0
gene 3 1 64 0.046899061904707488 0 1138 0.046899061904707488 1
gene 2 126 270 0.50790628232430024 1 1314 0.50790628232430024 0
gene 2 270 152 -0.27054534236460243 0 1315 -0.27054534236460243 1
gene 1 7 298 -0.46753664988444021 0 1460 -0.46753664988444021 1
gene 2 298 13 0.63984829240471508 0 1461 0.63984829240471508 1
gene 1 1 298 0.81303369990225582 0 1486 0.81303369990225582 1
gene 3 152 13 0.96214331219072591 0 1500 0.96214331219072591 1
gene 1 1 7 0.50070636300402993 0 1755 0.50070636300402993 1
gene 2 2 270 0.42196063018495245 0 1808 0.42196063018495245 0
gene 3 152 378 -1.9692850007998222 0 1887 -1.9692850007998222 1
gene 2 378 126 1.1088427291758558 0 1888 1.1088427291758558 0
gene 3 4 13 1.3686985321662848 1 1912 1.3686985321662848 1
gene 1 152 482 -0.52569109109495349 0 2385 -0.52569109109495349 0
gene 3 482 64 0.92564465288335684 0 2386 0.92564465288335684 1
gene 2 13 485 1.4448930332180545 0 2402 1.4448930332180545 1
gene 3 485 3 -0.84378316874792014 0 2403 -0.84378316874792014 1
gene 3 13 487 -1.0937322781392058 0 2409 -1.0937322781392058 1
gene 3 487 4 0.49951201793714994 0 2410 0.49951201793714994 1
gene 2 482 487 1.0879646419025792 0 2422 1.0879646419025792 0
gene 1 7 126 0.51429354842486485 0 2575 0.51429354842486485 1
gene 2 482 378 -0.7994184716601942 0 2625 -0.7994184716601942 0
gene 3 152 570 0.48479116521067511 0 2782 0.48479116521067511 0
gene 3 570 482 1.6935569391090222 0 2783 1.6935569391090222 1
gene 2 126 576 -0.75594797067155495 1 2820 -0.75594797067155495 1
gene 2 576 270 -0.41740241526505095 0 2821 -0.41740241526505095 1
gene 1 1 152 0.31100974153308653 0 2926 0.31100974153308653 1
gene 2 482 628 0.44370993643240536 0 3095 0.44370993643240536 1
gene 2 628 487 0.15808137839570713 0 3096 0.15808137839570713 1
gene 2 482 7 -0.29137250212550747 0 3143 -0.29137250212550747 1
gene 1 2 647 0.2466009674810809 0 3189 0.2466009674810809 1
gene 1 647 270 -0.52104078653316976 0 3190 -0.52104078653316976 1
gene 3 1 570 -0.26872606052492115 0 3427 -0.26872606052492115 1
gene 2 2 482 0.12522876547892983 0 3507 0.12522876547892983 0
gene 1 570 64 0.49053429462506171 0 3551 0.49053429462506171 1
gene 2 298 487 -0.26618254150551857 0 3714 -0.26618254150551857 1
gene 2 2 747 -0.033636956491338479 0 3728 -0.033636956491338479 1
gene 2 747 3 -0.37317464331778449 0 3729 -0.37317464331778449 1
gene 3 378 485 -0.44805024026336626 0 4106 -0.44805024026336626 0
gene 1 576 126 0.48386530344554468 0 4675 0.48386530344554468 1
gene 1 647 487 0.30861001848644115 0 4729 0.30861001848644115 1
gene 3 378 487 0.40418946156473345 0 4772 0.40418946156473345 1
gene 2 378 958 -0.62220399227095957 0 4806 -0.62220399227095957 1
gene 2 958 126 0.54385536980994753 0 4807 0.54385536980994753 1
gene 3 378 967 -1.0707140737542482 0 4851 -1.0707140737542482 1
gene 3 967 485 0.96219328858991771 0 4852 0.96219328858991771 1
gene 3 647 958 -0.13504154008582314 0 5050 -0.13504154008582314 1
gene 1 1 487 0.49189536203252748 0 5135 0.49189536203252748 1
gene 2 482 1069 -1.643786550333624 0 5384 -1.643786550333624 1
gene 2 1069 378 -0.39568081400156058 0 5385 -0.39568081400156058 0
gene 3 628 628 0.92251702534152047 1 5391 0.92251702534152047 1
gene 2 1069 1095 0.63083987293338395 0 5494 0.63083987293338395 0
gene 2 1095 378 0.089755323524472908 0 5495 0.089755323524472908 0
gene 2 485 1095 -2.259011206803383 1 5566 -2.259011206803383 0
gene 3 958 7 0.25919512112587462 0 5597 0.25919512112587462 1
gene 3 1095 485 0.40900255549186959 0 5763 0.40900255549186959 1
gene 3 378 152 0.31616696310982428 1 5806 0.31616696310982428 0
gene 3 378 1176 -0.58571618403574277 1 5931 -0.58571618403574277 0
gene 2 1176 152 -0.12151364452276082 0 5932 -0.12151364452276082 1
gene 1 576 7 0.51253821841093627 0 5946 0.51253821841093627 1
gene 3 958 487 -0.34879115333258692 0 6036 -0.34879115333258692 1
gene 1 2 1206 -0.4088388811372401 0 6058 -0.4088388811372401 1
gene 2 1206 482 -0.91433896329921627 0 6059 -0.91433896329921627 1
gene 2 378 628 -0.75841322297156477 0 6143 -0.75841322297156477 0
gene 1 126 126 -0.13174113055306538 1 6185 -0.13174113055306538 1
gene 3 126 1257 1.1754735539087438 0 6272 1.1754735539087438 1
gene 2 1257 13 0.65422692180342368 0 6273 0.65422692180342368 1
gene 1 958 958 -1.6198117235302048 1 6280 -1.6198117235302048 1
gene 1 747 647 -0.75684612000214213 0 6527 -0.75684612000214213 1
gene 2 2 1325 -0.25593066530112674 0 6591 -0.25593066530112674 1
gene 2 1325 152 0.16730277550746817 0 6592 0.16730277550746817 1
gene 2 967 13 0.17316841388734455 0 6608 0.17316841388734455 1
gene 2 1206 1095 0.56366242680869183 0 6778 0.56366242680869183 1
gene 1 570 1176 -0.81561332583223156 0 6793 -0.81561332583223156 1
gene 1 747 958 0.92764150580747129 0 6846 0.92764150580747129 0
gene 3 487 487 0.43454904664985328 1 7207 0.43454904664985328 0
gene 2 1176 270 -0.75545698206660206 0 7216 -0.75545698206660206 1
gene 2 378 1516 -0.11520836577527613 0 7638 -0.11520836577527613 1
gene 3 1516 628 -0.056497471433364532 0 7639 -0.056497471433364532 0
gene 2 3 3 0.64206644177533045 1 7645 0.64206644177533045 1
gene 2 64 64 0.25152003776818516 1 7927 0.25152003776818516 1
gene 1 747 1655 0.3459935427391872 0 8320 0.3459935427391872 1
gene 1 1655 958 -0.72802495664359301 0 8321 -0.72802495664359301 1
gene 1 152 967 1.0122339527645308 0 8325 1.0122339527645308 0
gene 3 1206 152 -1.2010355052543038 0 8413 -1.2010355052543038 0
gene 2 1069 1679 0.46373386795806415 0 8422 0.46373386795806415 1
gene 2 1679 1095 0.45477155384364143 0 8423 0.45477155384364143 1
gene 3 2 1685 1.5390718637681902 0 8453 1.5390718637681902 1
gene 2 1685 7 -0.63740233338317009 0 8454 -0.63740233338317009 0
gene 3 1325 747 -1.4300737073319376 0 8612 -1.4300737073319376 1
gene 3 1655 1685 0.25091433420354237 0 8654 0.25091433420354237 1
gene 3 1095 1516 0.14611227677488337 0 8756 0.14611227677488337 1
gene 3 967 487 -1.3645032403825332 0 8785 -1.3645032403825332 1
gene 1 1176 1176 -0.2438769844564968 1 8925 -0.2438769844564968 1
gene 2 1095 1793 -0.010667279600476531 0 9005 -0.010667279600476531 1
gene 2 1793 378 -0.31422531246870072 0 9006 -0.31422531246870072 1
gene 2 1655 570 0.51080317772496642 0 9331 0.51080317772496642 1
gene 1 1679 485 1.2477860433272021 0 9653 1.2477860433272021 1
gene 3 1206 747 0.17559372036512649 0 9740 0.17559372036512649 1
gene 3 1685 2000 -0.25278632424435876 0 10062 -0.25278632424435876 1
gene 3 2000 7 -0.02780179657405326 0 10063 -0.02780179657405326 1
gene 3 1206 2003 0.50421280227797705 0 10072 0.50421280227797705 1
gene 3 2003 152 -0.45361449311190022 0 10073 -0.45361449311190022 1
gene 1 1069 3 0.20109791271439656 0 10087 0.20109791271439656 1
gene 2 1516 2030 -0.42951907423768149 0 10183 -0.42951907423768149 1
gene 2 2030 628 -0.78577724787675662 0 10184 -0.78577724787675662 1
gene 2 576 1095 -0.55863726328063634 0 10375 -0.55863726328063634 1
gene 1 152 2088 0.62442354235072783 0 10477 0.62442354235072783 1
gene 1 2088 967 -0.064234080754329487 0 10478 -0.064234080754329487 1
gene 1 270 7 0.3091999906158075 0 10802 0.3091999906158075 1
gene 2 1793 1257 -0.60302299149475203 0 10829 -0.60302299149475203 1
gene 3 378 2230 -0.62221332435599219 1 11233 -0.62221332435599219 1
gene 3 2230 1176 -0.12080828385465232 0 11234 -0.12080828385465232 1
gene 3 487 2233 -0.5566309211108047 1 11242 -0.5566309211108047 1
gene 3 2233 487 0.10327792545001857 0 11243 0.10327792545001857 1
gene 1 570 647 -0.0081495912783544275 0 11312 -0.0081495912783544275 1
gene 3 1095 2258 1.2315780672857435 0 11358 1.2315780672857435 1
gene 3 2258 1516 -0.021461649342189415 0 11359 -0.021461649342189415 1
gene 2 1655 378 -0.64104402118411108 0 11702 -0.64104402118411108 1
gene 3 152 570 -0.73224398341600039 1 12100 -0.73224398341600039 1
genomeend 75
