genomestart 25
trait 1 0.0458838 1 1 0 0.19867 0.279513 1 0.480333 
trait 2 0.253273 0.74961 0 1 1 0 0.449201 0 
trait 3 0.208622 0 0.645861 1 1 0.758417 1 0.987838 
node 1 3 1 3
node 2 2 1 1
node 3 1 0 2
node 4 1 0 2
node 6 2 0 0
node 8 3 0 0
node 12 1 0 0
node 17 3 0 0
node 38 1 0 0
nodegru 60 0 -0.77755812452061046 1.3903597925744762 1.0129818946649238 0.75133114669068313 0.23480340872649264 0.21867964776171359 [ -0.64832865570128373 -0.91173885991412162 -0.66240445206053766 -0.374721080006436 0.33718063209074572 -0.38686620531923421 0.017420823228275786 ] [ -1.3441876693834496 -0.53888334941066962 -0.74003199964763222 -0.2768321678865851 -0.33685691670368284 0.12364655645734005 0.16801177136041773 ] [ 0.49922902858780194 1.0013282140723097 0.33387311028031319 0.34521737827231053 -0.022289305702917886 0.43247018751337668 -0.57505816573978308 ]
nodegru 93 0 -0.70317532061747057 -1.76090387034272 0.46766656263157103 0.11548127216076537 0.64429575188285448 -0.077213766554935698 [ 0.80555285620761696 1.0153610268679265 0.79924489478545491 0.49111777147795904 -0.58648129719611308 0.79687707978155331 -0.26368416276000634 0 ] [ -0.11495145881313433 0.23197988943754685 -0.1587884636403939 -0.73222682589303101 0.89326481725706941 -0.30216071559216856 -0.6188708230009633 -0.18313768677559575 ] [ -0.13353111717548735 -0.19975817538786594 0.049670901405471757 0.32913284251891678 0.055271835790608015 0.17179381110323305 0.7647365272346589 -1.2350522280833927 ]
node 198 1 0 0
node 443 2 0 0
node 467 2 0 0
node 545 2 0 0
node 666 3 0 0
node 837 2 0 0
node 920 2 0 0
node 1055 3 0 0
node 1214 1 0 0
nodegru 1231 0 -0.58037387862818957 0.18988505852869014 0.24890774709587343 -0.76285680721646965 -0.088349022943689015 -0.20785135156840615 [ -0.59702353556501864 1.4021145747518702 ] [ 0.10618267166716167 0.1286948596260952 ] [ -0.0031686192393156789 -0.019396036872359024 ]
node 1290 1 0 0
nodegru 1616 0 0.23238502197544322 -0.99285844340587892 -0.35450221032579521 -0.38071361388113051 0.32018878768206988 0.2630651496644435 [ -0.40184856364589583 ] [ -0.080577748865158186 ] [ 0.25215646380193368 ]
nodegru 1646 0 -0.37078985961656546 0.31318112663607167 -3.0621431742618528 -0.60228493651481574 0.17979630673294714 0.19312184010312045 [ -0.43834664506760734 -0.4680004219841214 ] [ -1.9435870847402079 0.084653568493506665 ] [ -0.6713090954214842 0.052649583226372296 ]
node 1692 1 0 0
node 1714 1 0 0
node 1795 3 0 0
nodegru 1913 0 0.86729471635413113 -0.34112029515258979 0.086453564970965291 0.11459574574352976 -0.43757849463148901 -0.55613483561022892 [ 0.13166463846883947 0.63883612614070828 0.040829909751578193 0.37180294672576847 ] [ 0.2128096628993795 -0.80893632760687562 -0.33680937571302494 0 ] [ 0.33168367358468642 -0.12873783364367569 0.24297204159338587 0.19419905203124463 ]
node 1945 1 0 0
node 1978 1 0 0
nodegru 2005 0 -0.40525722918345464 0.55452281472018117 0.25355570123230836 -0.53682096513771493 0.72838832611608706 0.57211564391484271 [ 0.36847511765941748 0.46703110540613119 ] [ -0.072891985798669998 0 ] [ 0.52122679516730208 0 ]
node 2044 1 0 0
nodegru 2103 0 0.65331816354455341 0.85349134372244184 1.5560251924004522 -0.32456788761753957 1.7630394263020901 0.79412401667522459 [ -0.19252439527424253 ] [ 0.12312701699469565 ] [ 0.45526820861514117 ]
node 2119 1 0 0
node 2211 1 0 0
nodegru 2227 0 0.59975315355684289 -0.35744959388740805 -1.7698524756216687 0.43142624778273814 0.92303522323399545 -0.067290360372183111 [ -0.27253087459715591 0 ] [ -0.74334286886423029 -0.6950243828795033 ] [ -0.49543097009669568 0.35090956667014844 ]
node 2385 1 0 0
nodegru 2480 0 1.0921893215701866 0.46957236061318425 1.0662304503220277 -0.13058831991189546 0.14841552807410041 -0.041558825663085497 [ -0.1608663539685618 0.20707453727120279 0.43803317003791836 0.21442412106060615 0.074865699547746078 ] [ -0.6290626328573854 0.31004804689905047 -0.26620603923974839 -0.16303798400938421 -0.2593496668894541 ] [ 0.047362113859207425 -0.43372093976182907 -0.16857713072960132 -0.28794277379659133 -0.13023834262519998 ]
nodegru 2488 0 -2.0744640722751915 -0.91201011180505631 -0.30708484738463759 0.49444891907947558 0.68480697701908955 0.71486706902033981 [ 0.32406674433688942 -0.6514279617236125 -0.15320867214035647 ] [ -0.49815544579092202 -0.95879315117317876 0.20688136117853287 ] [ 1.8926775322261629 -0.45139679426858054 -0.57935530346788244 ]
nodegru 2491 0 0.35487608860939557 0.48614273219655396 -0.59529615011778481 -0.43736502664972332 -0.27216482384696827 -0.6086600015911553 [ -0.018104327385362391 -0.81437152522353984 ] [ 0.34273656217508791 0.98977205901861764 ] [ 0.1621007938692815 -0.012788966769719939 ]
nodegru 2667 0 0.28575996252976354 -0.65493485525014572 -0.15224821150873238 -0.57419341480089048 0.60372376539917838 0.47013988041791127 [ -0.47941642928841355 0.3224508784815906 ] [ -1.1361379083879934 0.41841731076986405 ] [ 0.4579291273643864 0 ]
node 2757 1 0 0
node 2766 1 0 0
node 2969 1 0 0
node 2975 2 0 0
node 3073 1 0 0
node 3085 1 0 0
node 3107 1 0 0
node 3355 1 0 0
node 3485 1 0 0
nodegru 3516 0 0.74229488556380141 0.23639911843296096 -0.45220202438170187 0.26690095791914542 0.26556582062764367 0.047442520990708115 [ 0.19227575356712368 ] [ -0.21861015526513111 ] [ 0.32218785063465494 ]
nodegru 3581 0 -0.62212797260010988 -0.47870591444834409 0.93317581197860455 0.35499870979925563 -0.15042393498608109 0.11612570500752228 [ -0.37033015227426314 ] [ 0.15299884446570594 ] [ 0.13864200661826973 ]
node 3603 1 0 0
node 3638 1 0 0
nodegru 3649 0 0 -0.21235833466628487 0.29912646315019881 -0.48271491633854569 -0.0045340631643934204 0 [ 0.54178160756909366 ] [ 0 ] [ -0.36904047190632694 ]
nodegru 3656 0 0 -0.30425524912041391 0 -0.43301244938420713 0 0 [ -0.40077526513523204 ] [ 0 ] [ -0.26031774108312916 ]
nodegru 3804 0 0.13864222850587324 0.25431249209414819 0 0 -0.53334758292573858 -0.11882422264610613 [ -0.14330961049688498 0 ] [ -0.37561528728139365 -0.075177120312665185 ] [ 0.17150847784779433 -0.36922495340426681 ]
node 3943 1 0 0
node 3993 2 0 0
nodegru 4079 0 0.29768713251579881 0.42364705420269028 0.23951083572558635 0.6559501610025531 -0.12788469117501966 0.1105265331503593 [ -0.72768173144556658 ] [ 0.14894753445356504 ] [ -0.29803801388388407 ]
node 4344 1 0 0
nodegru 4348 0 0.29672231538999932 0.35886094037390359 -0.73273823863488541 -0.042129277736940141 0.25408187008187266 -0.2696579402637006 [ -0.54988488324446827 ] [ -0.03574051337118285 ] [ -0.72253829414143145 ]
nodegru 4359 0 0 0 0 0 0 0 [ 0 ] [ 0 ] [ 0 ]
node 4629 1 0 0
nodegru 4640 0 -0.7475383566913838 0 -0.23893243364940045 -0.42340361439781432 0.8018587226056767 -0.20397751485182788 [ 0 ] [ 0.27028759628082044 ] [ -0.82065111343779185 ]
node 4681 1 0 0
nodegru 4707 0 0.12725460139441053 0.25827927643353088 0.41845582584778585 0 -0.56843083378320136 -0.12390472210194205 [ 0.20951116374205386 ] [ -0.2841005438399038 ] [ 0.2644027458803741 ]
nodegru 4713 0 -0.46318302301838205 -0.21115060789098522 0.43288408286538166 -0.06108945704115995 0 0.20342725315290838 [ -0.50491705141259224 ] [ 0.067609603548240665 ] [ -0.31107883286246973 ]
node 5009 1 0 0
node 5011 1 0 0
nodegru 5027 0 0 0 0 0.46602408982162552 0.17641787891109376 0.025614869094274413 [ 0 ] [ 0.40295493109289321 ] [ 0 ]
nodegru 5051 0 -0.22806518069844003 0.055377871522390223 0.33280203902758754 0 0 -0.25775978749513617 [ 0 ] [ 0 ] [ -0.27203833790125248 ]
node 5074 1 0 0
nodegru 5198 0 0 0 0 0 0 0 [ 0 ] [ 0 ] [ 0 ]
gene 2 1 3 -1.5081594856493921 0 1 -1.5081594856493921 1
gene 1 2 3 0.73402769152728264 0 2 0.73402769152728264 1
gene 3 1 4 0.16331955425595859 0 3 0.16331955425595859 1
gene 2 2 4 -1.8234415854436534 0 4 -1.8234415854436534 1
gene 1 2 6 -0.048212015790963431 0 9 -0.048212015790963431 1
gene 3 6 3 0.23182956140107921 0 10 0.23182956140107921 1
gene 2 2 8 0.70066868360185464 0 18 0.70066868360185464 0
gene 1 8 4 -0.13229235128140651 0 19 -0.13229235128140651 0
gene 2 2 12 0.82017387557782884 0 31 0.82017387557782884 1
gene 2 12 8 -1.349909711792092 0 32 -1.349909711792092 1
gene 2 6 17 0.096149731705034991 0 49 0.096149731705034991 1
gene 3 17 3 0.4311242999653912 0 50 0.4311242999653912 1
gene 1 1 12 -0.56274480189324583 0 74 -0.56274480189324583 1
gene 1 6 4 0.35117005060947037 0 88 0.35117005060947037 1
gene 3 1 8 -0.98185486042958481 0 115 -0.98185486042958481 1
gene 1 12 17 -0.3393891331923144 0 141 -0.3393891331923144 1
gene 1 6 38 -1.1484993349986614 0 160 -1.1484993349986614 1
gene 3 38 17 -0.64927017975098922 0 161 -0.64927017975098922 0
gene 3 38 60 0.89806422050952173 0 256 0.89806422050952173 0
gene 1 60 17 0.78624442931555416 0 257 0.78624442931555416 0
gene 3 17 93 1.0756266208252061 0 385 1.0756266208252061 1
gene 3 93 3 -1.8658489961483744 0 386 -1.8658489961483744 0
gene 2 4 4 2.3883229102419334 1 407 2.3883229102419334 0
gene 1 4 198 1.5632131558671658 1 951 1.5632131558671658 1
gene 1 198 4 1.1559236511382851 0 952 1.1559236511382851 1
gene 2 3 4 0.13773231121605836 1 961 0.13773231121605836 1
gene 3 12 6 -1.4387277888314465 0 1138 -1.4387277888314465 1
gene 3 8 6 -1.4813872924919183 0 1689 -1.4813872924919183 0
gene 1 17 17 0.067456607039764804 1 1784 0.067456607039764804 0
gene 2 8 38 -0.57122713167743155 0 1799 -0.57122713167743155 1
gene 1 12 443 3.1403484754917903 0 2178 3.1403484754917903 0
gene 1 443 17 -0.6188729324465958 0 2179 -0.6188729324465958 1
gene 2 443 443 -0.010633307281245175 1 2254 -0.010633307281245175 0
gene 2 93 467 -0.78187578161334437 0 2294 -0.78187578161334437 0
gene 3 467 3 -0.44713938676153281 0 2295 -0.44713938676153281 1
gene 1 198 17 -1.3188821656251708 0 2328 -1.3188821656251708 0
gene 3 12 545 0.56040299081262346 0 2657 0.56040299081262346 1
gene 2 545 443 -1.1249539408017668 0 2658 -1.1249539408017668 0
gene 3 60 4 2.5907381915444225 0 2744 2.5907381915444225 1
gene 3 545 3 -1.5419182856762403 0 2885 -1.5419182856762403 0
gene 3 38 443 0.13277335005475838 0 3070 0.13277335005475838 1
gene 2 8 93 0.43541255450593891 0 3151 0.43541255450593891 1
gene 3 38 666 0.019546170262408402 0 3304 0.019546170262408402 0
gene 3 666 60 0.34300703152222889 0 3305 0.34300703152222889 0
gene 3 2 60 1.5423648734774276 0 3494 1.5423648734774276 1
gene 1 545 545 0.50848590303607555 1 3973 0.50848590303607555 0
gene 3 545 837 -0.23093553736383818 1 4147 -0.23093553736383818 1
gene 1 837 545 0.26129564748205969 0 4148 0.26129564748205969 1
gene 1 1 60 -1.0935713106736407 0 4167 -1.0935713106736407 1
gene 3 443 3 -0.3920139464978194 0 4189 -0.3920139464978194 0
gene 3 443 8 -1.2780952003216814 1 4212 -1.2780952003216814 0
gene 2 38 545 -0.83533945625430883 0 4376 -0.83533945625430883 1
gene 1 666 920 -1.3184129301544338 0 4577 -1.3184129301544338 1
gene 3 920 60 -0.41401168164518276 0 4578 -0.41401168164518276 1
gene 3 666 666 -0.22662924589897931 1 4590 -0.22662924589897931 0
gene 1 2 837 1.6401250514388666 0 4617 1.6401250514388666 1
gene 2 545 60 0.02408423252593922 0 4679 0.02408423252593922 1
gene 3 6 545 -0.059724641758820335 0 5044 -0.059724641758820335 0
gene 2 443 1055 -1.0311039597872198 1 5201 -1.0311039597872198 0
gene 2 1055 443 -0.14740975999618383 0 5202 -0.14740975999618383 1
gene 3 1 17 0.46020664552236279 0 5232 0.46020664552236279 1
gene 3 3 3 -0.85297294652693578 1 5347 -0.85297294652693578 0
gene 2 1 467 0.61863875301491411 0 5353 0.61863875301491411 1
gene 3 198 8 -0.94540651209904158 0 5371 -0.94540651209904158 1
gene 2 60 467 -0.53838161450735378 0 5815 -0.53838161450735378 0
gene 2 60 1214 -0.14116932504864849 0 5985 -0.14116932504864849 0
gene 2 1214 467 0.12408648180965635 0 5986 0.12408648180965635 0
gene 3 17 1231 1.6102506439714928 1 6064 1.6102506439714928 1
gene 1 1231 17 -0.43984305762678511 0 6065 -0.43984305762678511 1
gene 2 666 467 0.32714537755918938 0 6264 0.32714537755918938 1
gene 3 545 666 0.58896095915183477 0 6316 0.58896095915183477 1
gene 2 1055 6 -0.022384722261868759 0 6328 -0.022384722261868759 1
gene 2 198 1290 -0.12029630463584157 0 6377 -0.12029630463584157 1
gene 2 1290 17 0.25594638812166937 0 6378 0.25594638812166937 0
gene 2 666 837 0.53377555498563478 1 6509 0.53377555498563478 0
gene 1 198 443 -0.65917652317284459 0 6600 -0.65917652317284459 0
gene 1 443 666 0.068581153903427144 0 6763 0.068581153903427144 0
gene 1 666 1290 -0.93874197776370771 0 6963 -0.93874197776370771 0
gene 2 6 1290 -0.33263952696353177 0 7083 -0.33263952696353177 1
gene 2 198 3 -0.36675356974208423 0 7281 -0.36675356974208423 1
gene 2 8 60 -0.48934039310055788 0 7506 -0.48934039310055788 1
gene 2 443 1290 0.6306683656902371 0 7765 0.6306683656902371 0
gene 1 198 6 -0.0025170543242789556 0 7821 -0.0025170543242789556 0
gene 2 920 1290 -0.027038173529802839 0 8089 -0.027038173529802839 0
gene 3 6 1616 0.5578719058809205 0 8111 0.5578719058809205 1
gene 3 1616 3 0.3708967298133749 0 8112 0.3708967298133749 1
gene 1 6 1646 2.3173031733917551 0 8246 2.3173031733917551 1
gene 1 1646 38 -0.20395560362560469 0 8247 -0.20395560362560469 1
gene 3 8 1692 0.95300515296543253 0 8453 0.95300515296543253 0
gene 3 1692 6 -0.79766480219441704 0 8454 -0.79766480219441704 1
gene 1 60 1714 0.71161333458107578 0 8582 0.71161333458107578 0
gene 3 1714 17 -0.24340658413404906 0 8583 -0.24340658413404906 1
gene 2 837 666 0.24637775786518018 0 8592 0.24637775786518018 0
gene 2 2 17 -0.018673553605877587 0 8714 -0.018673553605877587 1
gene 2 1692 467 0.087602753465810215 0 8752 0.087602753465810215 0
gene 3 1231 6 0.15895608517292709 0 8900 0.15895608517292709 0
gene 2 545 1795 1.250138776726154 0 8971 1.250138776726154 1
gene 2 1795 443 -1.4526066344476336 0 8972 -1.4526066344476336 1
gene 3 1646 666 -0.48170589421955212 0 9098 -0.48170589421955212 1
gene 3 920 4 -0.11711819382250219 0 9126 -0.11711819382250219 0
gene 1 1 666 -0.025335685827460014 0 9359 -0.025335685827460014 1
gene 3 1290 1714 0.33704927043851896 0 9424 0.33704927043851896 1
gene 1 443 1913 1.2798955616447589 0 9577 1.2798955616447589 0
gene 2 1913 1290 -0.16905369710598778 0 9578 -0.16905369710598778 1
gene 3 6 1945 1.7145796435487362 0 9748 1.7145796435487362 1
gene 3 1945 545 -0.77752183064702973 0 9749 -0.77752183064702973 1
gene 1 443 1978 0.60992262936659269 0 9927 0.60992262936659269 0
gene 1 1978 666 -0.026299217728105895 0 9928 -0.026299217728105895 0
gene 2 1 1231 0.5228881465843358 0 9940 0.5228881465843358 1
gene 3 1945 1290 0.59076825463714455 0 9970 0.59076825463714455 1
gene 3 2 93 1.1100148906046594 0 10040 1.1100148906046594 0
gene 3 443 2005 1 0 10058 1 1
gene 2 2005 3 0.95421626114017155 0 10059 0.95421626114017155 1
gene 1 666 2044 1.2077803009691557 0 10253 1.2077803009691557 1
gene 1 2044 1290 0.2671800657488313 0 10254 0.2671800657488313 1
gene 2 1945 1795 0.22832322364129276 0 10398 0.22832322364129276 0
gene 2 920 93 1.0448307176329337 0 10523 1.0448307176329337 0
gene 3 1231 2103 0.97398736745770431 0 10581 0.97398736745770431 1
gene 3 2103 6 -0.31885927208646164 0 10582 -0.31885927208646164 1
gene 3 6 666 1.0371939032511757 0 10595 1.0371939032511757 0
gene 1 837 837 0.48628063196608823 1 10610 0.48628063196608823 1
gene 3 920 2119 0.73496332007225762 0 10671 0.73496332007225762 1
gene 3 2119 1290 -0.59342104410446295 0 10672 -0.59342104410446295 1
gene 2 837 1055 0.70451523349830658 0 10680 0.70451523349830658 1
gene 2 1231 1692 -0.92121393579114885 0 10953 -0.92121393579114885 1
gene 3 17 2211 1 0 11093 1 1
gene 3 2211 3 0.4727858516726578 0 11094 0.4727858516726578 1
gene 2 837 2227 1.1900727007026191 0 11210 1.1900727007026191 1
gene 2 2227 666 0.39576385794010194 0 11211 0.39576385794010194 1
gene 2 1616 93 -0.014618436114219216 0 11380 -0.014618436114219216 1
gene 1 443 1646 -0.48741329716863724 1 11562 -0.48741329716863724 1
gene 3 2044 2211 0.71465020613495733 0 11732 0.71465020613495733 1
gene 3 1646 1714 -0.0071737892027822275 0 11979 -0.0071737892027822275 0
gene 3 2 2385 0.59409046037778745 0 12041 0.59409046037778745 1
gene 3 2385 93 0.43445435186589809 0 12042 0.43445435186589809 1
gene 1 2 1714 -1.0632475992027892 0 12243 -1.0632475992027892 1
gene 1 60 2480 1.1096662735145848 0 12497 1.1096662735145848 0
gene 1 2480 1714 0.86063420905761157 0 12498 0.86063420905761157 1
gene 3 17 2488 0.62413793598494394 0 12548 0.62413793598494394 1
gene 3 2488 3 0.40145571059615165 0 12549 0.40145571059615165 1
gene 2 60 2491 0.77195663925817071 0 12562 0.77195663925817071 1
gene 2 2491 1214 0.036925810173584928 0 12563 0.036925810173584928 1
gene 1 1795 1290 0.39371397061912061 0 12581 0.39371397061912061 1
gene 2 8 2044 -1.1264054424252385 0 12910 -1.1264054424252385 1
gene 3 1795 2211 -0.47164849679528198 0 12982 -0.47164849679528198 1
gene 3 17 2480 0.45447099695656029 0 13147 0.45447099695656029 1
gene 2 666 2667 1.211490492434935 1 13496 1.211490492434935 0
gene 2 2667 837 0.404362001644616 0 13497 0.404362001644616 0
gene 1 1 2488 -0.012295244733009136 0 13505 -0.012295244733009136 1
gene 2 1290 8 -0.52330709785377005 1 13686 -0.52330709785377005 0
gene 3 1714 1714 0.96021466653804044 1 13855 0.96021466653804044 1
gene 1 1692 2757 1.0963263370079577 0 13942 1.0963263370079577 1
gene 2 2757 467 0.19085422982035868 0 13943 0.19085422982035868 1
gene 3 443 2766 1 1 13995 1 1
gene 3 2766 8 -1.6796297853252058 0 13996 -1.6796297853252058 1
gene 3 4 8 1.3614464697248518 1 14010 1.3614464697248518 1
gene 2 2757 1055 0.40085570206905519 0 14086 0.40085570206905519 1
gene 3 2385 1290 0.62444692366963572 0 14162 0.62444692366963572 1
gene 3 1978 1978 -0.22810815052506894 1 14440 -0.22810815052506894 0
gene 2 1290 666 0.86469927703249239 1 14599 0.86469927703249239 1
gene 3 1978 1714 0.20588617595186745 0 15056 0.20588617595186745 1
gene 3 2766 2969 1 0 15064 1 1
gene 3 2969 8 -0.79646179885438728 0 15065 -0.79646179885438728 1
gene 3 6 2975 1 0 15089 1 1
gene 1 2975 666 0.94993523156733028 0 15090 0.94993523156733028 1
gene 2 443 2480 0.9239069430268867 0 15270 0.9239069430268867 1
gene 3 2385 3073 1.3213849350909632 0 15610 1.3213849350909632 1
gene 3 3073 93 0.43445435186589809 0 15611 0.43445435186589809 1
gene 1 443 3085 0.55360614254772944 1 15677 0.55360614254772944 1
gene 1 3085 1055 0.10607937728337914 0 15678 0.10607937728337914 1
gene 1 443 3107 1.1851160142967085 0 15781 1.1851160142967085 1
gene 1 3107 1978 1.0914713405498635 0 15782 1.0914713405498635 1
gene 2 1616 2975 -0.029020700151576054 0 16548 -0.029020700151576054 0
gene 3 2211 2211 -0.53199081799573766 1 16591 -0.53199081799573766 1
gene 2 2044 2385 -0.6433480925128553 0 16645 -0.6433480925128553 1
gene 2 2766 3085 -0.032312052805122032 0 16851 -0.032312052805122032 0
gene 1 60 3355 1.1621023827055945 0 16991 1.1621023827055945 1
gene 1 3355 2480 0.87025130836770459 0 16992 0.87025130836770459 1
gene 2 2 2975 0.54143948528982677 0 17340 0.54143948528982677 1
gene 2 12 3485 1 0 17656 1 0
gene 2 3485 8 -1.349909711792092 0 17657 -1.349909711792092 1
gene 2 920 3516 1.0287189602519939 0 17804 1.0287189602519939 1
gene 2 3516 93 1.2555901586336968 0 17805 1.2555901586336968 1
gene 1 1290 1290 -0.21767133531052216 1 17877 -0.21767133531052216 1
gene 2 1945 3581 0.70389913381258917 0 18139 0.70389913381258917 1
gene 2 3581 1795 0.33760001689083874 0 18140 0.33760001689083874 1
gene 2 2491 3 -0.16912135117180707 0 18170 -0.16912135117180707 0
gene 2 2766 3603 0.7993359252807386 0 18245 0.7993359252807386 1
gene 2 3603 3085 -0.15919566161893109 0 18246 -0.15919566161893109 1
gene 3 467 3073 0.47458301995628654 0 18375 0.47458301995628654 1
gene 2 38 3638 0.62636877020186221 0 18458 0.62636877020186221 1
gene 3 3638 666 0.1577827002190903 0 18459 0.1577827002190903 1
gene 3 545 3649 1 0 18530 1 1
gene 3 3649 3 -1.921525889971073 0 18531 -1.921525889971073 1
gene 2 2667 3656 1.207012282082351 0 18579 1.207012282082351 1
gene 2 3656 837 0.40696857050385721 0 18580 0.40696857050385721 1
gene 2 8 467 -0.18744204784158713 0 18640 -0.18744204784158713 1
gene 1 1231 2969 -0.25006985303483431 0 18808 -0.25006985303483431 1
gene 2 1231 2480 -0.027391627909332361 0 18957 -0.027391627909332361 1
gene 2 2044 2488 -0.12765657930991453 0 19249 -0.12765657930991453 1
gene 1 2667 443 0.43312230633251475 0 19256 0.43312230633251475 1
gene 1 3638 1913 -0.67829788694078941 0 19267 -0.67829788694078941 1
gene 3 920 3804 -0.03244440631589126 0 19361 -0.03244440631589126 1
gene 3 3804 4 -0.16493403453609623 0 19362 -0.16493403453609623 1
gene 1 2480 3603 0.67383189018528533 1 19581 0.67383189018528533 1
gene 1 1 3085 1.1084672122301846 0 19970 1.1084672122301846 1
gene 1 198 3943 1.1582064340627782 0 20183 1.1582064340627782 1
gene 1 3943 443 -1.3261698441701801 0 20184 -1.3261698441701801 1
gene 3 8 3638 0.1671413319032366 0 20244 0.1671413319032366 1
gene 3 1646 3993 1.1417329803303504 0 20433 1.1417329803303504 0
gene 3 3993 1714 -0.0071737892027822275 0 20434 -0.0071737892027822275 1
gene 1 2488 1795 -0.075472998933621221 1 20450 -0.075472998933621221 0
gene 2 3649 3943 -0.18024737861950293 0 20468 -0.18024737861950293 1
gene 3 1214 1913 -0.6689525575698132 0 20643 -0.6689525575698132 1
gene 2 1290 3993 -0.42597936951833748 0 20652 -0.42597936951833748 1
gene 1 545 3355 0.83233113485962673 0 20883 0.83233113485962673 1
gene 2 93 4079 0.72950417559105163 0 20890 0.72950417559105163 1
gene 2 4079 467 -0.43122281037793636 0 20891 -0.43122281037793636 1
gene 3 2766 2766 -0.43877354727069545 1 20940 -0.43877354727069545 1
gene 2 1616 1714 0.18746619400915981 0 22070 0.18746619400915981 1
gene 1 2227 2385 0.54257155072063745 0 22114 0.54257155072063745 1
gene 2 666 4344 -0.19965962539411133 1 22153 -0.19965962539411133 1
gene 2 4344 2667 0.53838768207393017 0 22154 0.53838768207393017 1
gene 1 2488 4348 0.40494115855774898 1 22184 0.40494115855774898 1
gene 1 4348 1795 -0.075472998933621221 0 22185 -0.075472998933621221 1
gene 3 6 4359 1.2754738150515936 0 22235 1.2754738150515936 1
gene 3 4359 3 0.41229648232101301 0 22236 0.41229648232101301 1
gene 3 2103 3603 0.33383585574749663 0 22248 0.33383585574749663 1
gene 1 1214 1214 -0.21701713358844496 1 22400 -0.21701713358844496 1
gene 2 3638 2005 -0.52024849225778524 0 22569 -0.52024849225778524 1
gene 2 4 3804 -0.16760148488339105 1 22576 -0.16760148488339105 1
gene 2 2005 3993 -0.47168493083290985 0 23282 -0.47168493083290985 1
gene 2 17 2491 -0.73308998380465895 1 23383 -0.73308998380465895 1
gene 3 1214 2227 0.26451192110055682 1 23749 0.26451192110055682 1
gene 1 443 4629 1 0 23761 0 1
gene 1 4629 1913 1.2798955616447589 0 23762 0 1
gene 3 3638 1214 -0.81751026903163193 0 23778 -0.81751026903163193 1
gene 1 1978 4640 1 0 23849 0 1
gene 1 4640 666 -0.026299217728105895 0 23850 0 1
gene 3 1646 4681 1 0 24046 0 1
gene 3 4681 3993 1.1417329803303504 0 24047 0 1
gene 2 1290 4707 1 1 24203 0 1
gene 2 4707 8 -0.52330709785377005 0 24204 0 1
gene 2 2491 4713 1 0 24225 0 1
gene 2 4713 3 -0.16912135117180707 0 24226 0 1
gene 1 1646 1978 0.15987742839375391 0 24545 0.15987742839375391 1
gene 1 2757 3993 -0.14487093414406801 0 24611 -0.14487093414406801 1
gene 3 1978 5009 1 1 25693 0 1
gene 3 5009 1978 -0.22810815052506894 0 25694 0 1
gene 2 1290 5011 1 0 25703 0 1
gene 2 5011 17 0.25594638812166937 0 25704 0 1
gene 2 12 5027 1 0 25780 0 1
gene 2 5027 3485 1 0 25781 0 1
gene 2 2 5051 1 0 25915 0 1
gene 2 5051 8 0.70066868360185464 0 25916 0 1
gene 2 2975 4681 -0.24984886369195247 0 26020 -0.24984886369195247 1
gene 1 3085 666 0.42100566598633565 0 26044 0.42100566598633565 1
gene 1 198 5074 1 0 26066 0 1
gene 1 5074 6 -0.0025170543242789556 0 26067 0 1
gene 2 1692 3993 0.28474032985267245 0 26076 0.28474032985267245 1
gene 1 3656 3355 0.062678516871611828 0 26463 0.062678516871611828 1
gene 1 8 5198 1 0 26745 0 1
gene 1 5198 4 -0.13229235128140651 0 26746 0 1
gene 3 1714 17 -0.16908800516700745 1 27163 -0.16908800516700745 1
genomeend 25
