genomestart 11
trait 1 1 1 1 0 0.37027 1 1 0.241796 
trait 2 0 0.0544238 0 0 0 0 0.5821 0 
trait 3 0.915681 1 0.0680132 0 0 1 0.371993 0 
node 1 1 1 3
node 2 1 1 1
node 3 1 0 2
node 4 1 0 2
node 15 1 0 0
node 26 1 0 0
node 44 1 0 0
node 86 3 0 0
nodegru 105 0 1.6797500470093218 0.42372702570805654 -0.73039283136855482 -0.71184917921752167 1.0972674097154604 -0.46142251741207307 [ -0.36007981403268863 -2.0822579509496024 1.0958093500676607 ] [ -0.76424576843355096 -0.061977426550340553 -0.43811927488451791 ] [ -1.5204156625645309 0.074024081148218318 1.4345049597017956 ]
node 122 1 0 0
node 125 1 0 0
node 199 1 0 0
node 205 1 0 0
nodegru 287 0 0.090494879912815462 -0.64014288323938051 0.47987868763966424 -0.68119548118263273 0.36677245498484579 0.018187122311530246 [ 1.2136048726800852 0 ] [ 0.18596994093897284 0.34789153810026663 ] [ -0.59919501682705945 -0.22500640653306914 ]
nodegru 313 0 0 -0.28798577400761927 0.66642088939734778 0.11186385928274312 0.93375432837463657 0.22228640805570704 [ 0.55479403960276119 0.14395502297857543 ] [ 0.57807175888590134 -0.74118700157440598 ] [ 0.73958271543475917 0.10485898510313546 ]
nodegru 330 0 -0.51370366372340537 1.1841648756219842 -1.0074717970599754 -0.13858250698008689 -0.54823054911020697 -2.0189596782526742 [ 0.46939788710763586 ] [ -1.7161300583817671 ] [ -0.14237984439468943 ]
nodegru 420 0 0.34234277547446207 -0.55825376757804945 0.10352482150938586 0 0 -0.88360882882662528 [ 0 -0.72759067068229921 0 0 ] [ 0.071096074916932789 0 0.7218740429831082 0 ] [ 0.67552649936430453 0.39369682112880833 0.24552405730147103 0 ]
nodegru 435 0 0.26146711747230367 0.81292529232470567 0.82817293916743839 -0.54886172143689438 -0.91835629272663799 -0.44390946950014193 [ 0.60074226656031893 ] [ -0.4894601927322616 ] [ 0.56302186349081884 ]
node 522 1 0 0
nodegru 694 0 0 0 0 0.31694952809109794 -0.92587444462155666 0 [ 0 ] [ 0 ] [ 0 ]
gene 3 1 3 -3.7812074812972956 0 1 -3.7812074812972956 1
gene 1 2 3 1.8429182504037942 0 2 1.8429182504037942 1
gene 3 1 4 -0.25133682787480616 0 3 -0.25133682787480616 1
gene 2 2 4 -0.19168366256248348 0 4 -0.19168366256248348 0
gene 1 2 15 3.3414568226279027 0 32 3.3414568226279027 1
gene 1 15 3 0.40133742808892264 0 33 0.40133742808892264 1
gene 2 1 15 -1.6590899300803847 0 38 -1.6590899300803847 1
gene 3 4 4 1.5767875998638514 1 47 1.5767875998638514 0
gene 2 2 26 -1.1594485420079197 0 82 -1.1594485420079197 0
gene 2 26 4 -0.63562706514989387 0 83 -0.63562706514989387 1
gene 2 2 44 -0.63031407393529737 0 164 -0.63031407393529737 0
gene 2 44 26 -2.8143819264668886 0 165 -2.8143819264668886 0
gene 1 15 4 -1.5806235942666529 0 191 -1.5806235942666529 1
gene 1 4 86 -0.2920425316747477 1 335 -0.2920425316747477 1
gene 3 86 4 1.7605095946977425 0 336 1.7605095946977425 1
gene 1 26 26 -3.3650953088026001 1 343 -3.3650953088026001 0
gene 1 3 3 -2.4423489880013971 1 373 -2.4423489880013971 0
gene 1 3 105 1.9973506506054433 1 445 1.9973506506054433 1
gene 1 105 3 -0.39781714156168391 0 446 -0.39781714156168391 0
gene 3 15 105 0.3801722285012587 0 525 0.3801722285012587 1
gene 1 26 122 0.55998015813994217 1 540 0.55998015813994217 0
gene 1 122 26 0.83663933541934898 0 541 0.83663933541934898 0
gene 1 122 125 -0.71486121402814107 0 547 -0.71486121402814107 0
gene 1 125 26 1.4941841441878043 0 548 1.4941841441878043 1
gene 3 15 122 -0.06327526088025219 0 654 -0.06327526088025219 1
gene 2 44 199 -1.8238275945530402 0 882 -1.8238275945530402 0
gene 2 199 26 -0.65149012773832782 0 883 -0.65149012773832782 1
gene 1 105 205 2.763501112937695 0 910 2.763501112937695 1
gene 1 205 3 2.5350366565562021 0 911 2.5350366565562021 1
gene 2 86 86 -0.57480602761488697 1 944 -0.57480602761488697 1
gene 3 2 105 0.33343098269935267 0 1186 0.33343098269935267 1
gene 2 44 287 2.148572820424369 0 1323 2.148572820424369 0
gene 2 287 199 -0.64118522773086339 0 1324 -0.64118522773086339 0
gene 1 122 313 -0.56112520294782031 0 1427 -0.56112520294782031 1
gene 1 313 125 -1.2009763990999089 0 1428 -1.2009763990999089 0
gene 2 287 330 0.39229943214091445 0 1507 0.39229943214091445 1
gene 2 330 199 1.3227864394769009 0 1508 1.3227864394769009 0
gene 1 44 125 0.71285662251191972 0 1919 0.71285662251191972 1
gene 3 86 122 0.69678289161379592 0 1950 0.69678289161379592 1
gene 2 205 313 0.59852840127354878 0 1963 0.59852840127354878 1
gene 2 44 420 1.7134496420451673 0 1987 1.7134496420451673 0
gene 2 420 287 0.29336710357729678 0 1988 0.29336710357729678 1
gene 2 44 435 1.4895202754947916 0 2061 1.4895202754947916 1
gene 2 435 420 -0.38689248817362482 0 2062 -0.38689248817362482 1
gene 2 330 522 0.46284137874042675 0 2441 0.46284137874042675 1
gene 2 522 199 -0.33327635055560456 0 2442 -0.33327635055560456 1
gene 3 15 420 1.048381448280244 0 2461 1.048381448280244 1
gene 2 435 15 -0.97131989359451454 0 2500 -0.97131989359451454 1
gene 1 205 522 0.60201020788029314 0 2518 0.60201020788029314 1
gene 3 287 26 0.45254918814289813 0 2636 0.45254918814289813 1
gene 2 2 694 1 0 3348 1 1
gene 2 694 44 0.85841773583480041 0 3349 0.85841773583480041 1
gene 1 313 3 -0.051804184937758457 0 3363 -0.051804184937758457 1
gene 1 1 420 0.34193425001200956 0 3467 0.34193425001200956 1
gene 3 26 122 -0.38547153090381603 0 4114 -0.38547153090381603 1
genomeend 11
