genomestart 61
trait 1 0.414234 1 1 1 1 1 0.618741 1 
trait 2 1 0 1 0.863402 0 0 0 0.0832541 
trait 3 0 0.253707 0.256062 0.993738 0.436543 0.879802 0.96893 0.068992 
node 1 3 1 3
node 2 3 1 1
node 3 2 0 2
node 4 2 0 2
nodegru 8 0 0.11381699080291065 -1.2668343534538682 0.46359659345522375 0.31001704212278908 0.36168743582055324 0.77160212584845822 [ 1.0408765506189672 ] [ -0.87412979389733159 ] [ 0.64837501367944061 ]
node 15 1 0 0
node 18 1 0 0
nodegru 235 0 -1.3782487429577155 1.6207786251887579 -1.9395628135835574 -1.5747546139521318 1.7357792266345489 -1.8552200424509215 [ 0.21245617068487049 -0.096618047727559719 ] [ 0.68592037956040375 -0.63274746475869204 ] [ -0.45004303751049701 0.36247533402055288 ]
node 283 1 0 0
nodegru 484 0 -0.084086283149237939 2.1026659461682033 -0.13781773899114586 1.7808909515295599 0.48704026359461261 -1.3410120127215106 [ 0.46757175085021729 1.3235200823161377 ] [ 0.45232740438185981 -0.62981045252169032 ] [ 0.70757138203250758 -0.20451496388042112 ]
node 840 1 0 0
node 911 1 0 0
node 972 1 0 0
node 1104 1 0 0
nodegru 1242 0 -0.8300472455239144 -0.20710136844175933 -0.60059018391211993 0.76723799610847521 -0.093480633615274367 0.70536294507578146 [ -0.40222448071102807 ] [ -0.14088750660460791 ] [ 0.71369749713395625 ]
nodegru 1256 0 -1.4036866134981099 0.35200876491237842 0.06488982742414337 -0.42163343269919662 -0.41929183524069003 -1.5431354264929591 [ ] [ ] [ ]
node 1273 1 0 0
node 1276 2 0 0
nodegru 1386 0 -0.48340723453248258 0.154304334150769 0.13491948397593545 0.010045772423057712 0 1.1512536579516035 [ 0.042748590834787388 0 ] [ 0 0 ] [ 0.16084981123490716 0 ]
node 1464 1 0 0
nodegru 1563 0 0 0 0 0 0 0 [ 0 ] [ 0 ] [ 0 ]
gene 3 2 4 -0.70343229277219288 0 4 -0.70343229277219288 1
gene 3 235 4 -1.8885079400560389 0 1950 -1.8885079400560389 1
gene 1 18 15 0.76049537805863443 0 2331 0.76049537805863443 1
gene 2 283 840 1.7454212487188268 0 5458 1.7454212487188268 1
gene 3 15 840 0.1294446713893882 0 5697 0.1294446713893882 1
gene 2 15 4 0.12356834817843898 0 6045 0.12356834817843898 1
gene 3 972 484 -1.9831175091597799 0 6390 -1.9831175091597799 1
gene 3 1 484 0.26197505137509436 0 7088 0.26197505137509436 1
gene 2 2 1104 -0.90431507800441002 0 7277 -0.90431507800441002 1
gene 2 1104 8 -1.6491739842571196 0 7278 -1.6491739842571196 1
gene 1 972 18 -0.53039321793727279 0 7800 -0.53039321793727279 1
gene 1 8 283 -0.49272161745127363 0 7825 -0.49272161745127363 1
gene 2 283 1242 -0.98465857735586293 0 8187 -0.98465857735586293 0
gene 2 8 3 3.7806784232522732 0 8208 3.7806784232522732 1
gene 2 1256 911 0.027548219322947889 0 8305 0.027548219322947889 1
gene 2 283 1276 -0.062794937665013151 0 8415 -0.062794937665013151 0
gene 2 484 1276 0.37922678684314082 0 8453 0.37922678684314082 0
gene 2 283 235 0.18480246860291924 0 8857 0.18480246860291924 1
gene 2 1104 235 -0.42355187606231859 0 9064 -0.42355187606231859 1
gene 1 840 1104 0.53718783591742991 0 9066 0.53718783591742991 1
gene 2 1273 1386 -1.4956254536498457 0 9186 -1.4956254536498457 1
gene 2 1464 1104 -1.8972314152155216 0 9768 -1.8972314152155216 1
gene 3 1242 1386 0.077349958511698041 0 10319 0.077349958511698041 1
gene 1 1386 972 -1.1354003445643002 0 10374 -1.1354003445643002 1
gene 2 484 1563 -0.74333971319409997 0 10384 -0.74333971319409997 1
gene 2 1563 1276 1.6375446324877183 0 10385 1.6375446324877183 1
gene 3 283 840 1.2279671413022872 1 10453 1.2279671413022872 1
genomeend 61
