genomestart 50
trait 1 0.07371 1 0.37581 1 1 0.941377 0 1 
trait 2 0.544072 0.646869 0.598371 0.490047 0 1 0 0.967929 
trait 3 0.684035 0.51424 0.5117 1 0.414201 0 0.983775 0 
node 1 3 1 3
node 2 1 1 1
node 3 3 0 2
node 4 1 0 2
node 62 3 0 0
nodegru 476 0 0.87477108807059545 2.0572314701542407 0.012268068856684522 0.95234068527461035 2.3077721513378306 -0.23525348258449386 [ 1.1804673237169474 0.62391205242551495 ] [ -2.4923863330587679 0.0048770760208727212 ] [ -0.70860169919142568 0 ]
nodegru 498 0 0.50646482792518321 1.5856533801814792 0.2516563729157934 0.50869227538755735 -0.10134716918754735 -0.37462263047910421 [ -0.28029733641552618 0 ] [ 0 0 ] [ 0 0 ]
node 888 3 0 0
nodegru 1284 0 -0.65920641350522924 0.32712166783265845 -0.047586975292110423 -1.0910378951071937 -1.1809946564868998 0.0039820839902302563 [ 0.1790262378887395 0 ] [ -0.76639872731938896 0.67052802754125007 ] [ 0.17399917364772355 -0.19541871195911376 ]
nodegru 1680 0 0.14242301189453488 -0.74311990965768693 0.97054294041383238 -0.98958487156293584 1.1136492715979225 -0.52099594428250373 [ 0 ] [ 0.72858722553522659 ] [ 0.50642735662703742 ]
node 1717 1 0 0
node 1747 1 0 0
nodegru 1930 0 0 0.018285702922514503 0 0 0.44705637995947911 0.50099200848536185 [ 0 ] [ 0 ] [ 0.72200231124740211 ]
nodegru 1967 0 -0.018361639123578383 -0.9102977808380025 -0.018293406939270618 0.19358536621722641 -0.193866655902875 0.28650305445143165 [ ] [ ] [ ]
nodegru 1971 0 0.16686461850389123 0 0.0042386191218339933 0 0 0 [ -0.0018065861667537068 0 ] [ -0.50982102158471054 0 ] [ 0 0 ]
nodegru 1992 0 -0.4881424887516268 -0.73471028159126184 0.056660643921541347 0.41385154247463291 -0.61764679423889457 -0.65209679906354134 [ -0.025088050414383438 ] [ -0.11393245815482571 ] [ 0 ]
nodegru 2004 0 -0.6000468025915543 0.68665337175440666 -0.03070481961160193 -0.13036729680857029 0.045504500179320811 -1.4267509256846975 [ ] [ ] [ ]
node 2120 3 0 0
node 2252 1 0 0
node 2274 1 0 0
node 2286 1 0 0
gene 2 2 4 5.9580796252508108 0 4 5.9580796252508108 1
gene 1 4 4 -4.495497953028182 1 167 -4.495497953028182 1
gene 2 2 476 -0.067555221294776924 0 3062 -0.067555221294776924 1
gene 3 2 62 2.4391434904835854 0 6781 2.4391434904835854 1
gene 1 476 4 -3.8734046531018826 0 8025 -3.8734046531018826 1
gene 3 1284 4 -0.20517888814452051 0 9924 -0.20517888814452051 1
gene 1 1 1284 2.3121957842084564 0 10581 2.3121957842084564 1
gene 3 62 3 2.4311402712162309 0 11331 2.4311402712162309 1
gene 3 2 1717 5.5013334817492101 0 12498 5.5013334817492101 1
gene 1 1747 1930 0.3545771085678493 0 13941 0.3545771085678493 1
gene 1 1930 888 -1.7248997625312301 0 13942 -1.7248997625312301 1
gene 2 1967 476 -0.034849697274551492 0 14117 -0.034849697274551492 1
gene 2 62 1971 0.39015973691835976 1 14137 0.39015973691835976 1
gene 2 2004 62 0.05645468589219016 0 14383 0.05645468589219016 1
gene 3 498 1284 -0.85625404392194659 0 14731 -0.85625404392194659 1
gene 3 1747 1680 -1.2256985864256036 0 14996 -1.2256985864256036 1
gene 2 1967 2120 1.3165781364387732 0 15171 1.3165781364387732 1
gene 3 498 62 0.72394413592943185 0 15229 0.72394413592943185 0
gene 3 498 888 -0.86246940079725798 0 15564 -0.86246940079725798 1
gene 1 1992 4 -0.98495896555714268 0 15596 -0.98495896555714268 1
gene 1 3 3 0.48612190945359035 1 15680 0.48612190945359035 1
gene 2 476 1992 -0.97898294589434887 0 15751 -0.97898294589434887 1
gene 2 2 498 0.44148094367304863 0 16094 0.44148094367304863 1
gene 3 498 2252 1 0 16130 0 1
gene 3 2252 62 0.72394413592943185 0 16131 0 0
gene 3 2252 2274 1 0 16262 0 1
gene 3 2274 62 0.72394413592943185 0 16263 0 0
gene 3 1 498 0.37166577175802817 0 16320 0.37166577175802817 1
gene 3 1992 2120 -0.90800462658889802 0 16334 -0.90800462658889802 1
gene 3 2274 2286 1 0 16346 0 1
gene 3 2286 62 0.72394413592943185 0 16347 0 1
gene 3 1747 2120 -0.53127399391088359 0 16464 -0.53127399391088359 1
gene 1 62 1971 0.75652258505882819 0 16538 0.75652258505882819 1
genomeend 50
