genomestart 83
trait 1 1 1 1 0.387664 0 1 1 1 
trait 2 0 1 0 0.573932 0.550251 0.223769 0.761421 0.199298 
trait 3 0.731882 0.87652 0 1 1 1 1 1 
node 1 3 1 3
node 2 2 1 1
node 3 1 0 2
node 4 3 0 2
node 14 1 0 0
nodegru 18 0 0.29908726750830528 0.94521608713325855 -0.54559266150258146 -0.32917672899979017 -0.8271639988884163 0.18840262093041216 [ -0.27509834164525315 -0.94883713053950913 -0.2616975443724997 -0.061493016575227037 ] [ -0.31504227515079181 -0.38269721687896979 0.40821091779890051 -0.51838458702824297 ] [ -0.13099076954228372 -0.15542653117115918 -0.047202508918569641 -0.21485656998812064 ]
node 39 2 0 0
nodegru 49 0 -0.0045126625357719552 -0.36202005197388121 0.47087243035010645 0.15018280765515885 -0.042833979727157356 0.11088071000337635 [ -1.3713935990218975 0.81658725641508922 0.42494007289639679 0.11600217973627253 0.13153565099068718 0.33990892993282013 ] [ 1.1741667874968456 -0.77054791770435316 0.52961555730067911 -0.065277035378514342 0.16341155588785725 0 ] [ -0.48144450573317915 -0.63535301370329833 0.36776290920924526 0.40639361269138458 0.33419169664112464 0 ]
node 75 3 0 0
nodegru 216 0 0.35320950991157885 -1.4158097977823625 -0.23153567161948219 -0.31447249199937682 -0.72757916512320708 0.016708057614373072 [ 0.31667117602968176 0.72422312094095309 0.13204361225107852 ] [ -0.37014416994999366 -0.52738549049356276 0.33719425361472843 ] [ 1.0993073983580373 -0.069387433151429256 0.40236095404362349 ]
node 220 2 0 0
node 226 2 0 0
nodegru 308 0 -0.51786110830393661 -0.43257217408743315 -1.1719800213687028 -0.41085143196901841 -1.7861895508999885 0.28606173176600702 [ 0.42160511106327414 -0.38947134273567757 0.33718572642523126 ] [ 0.1643932723274423 0.28419432732471933 0.34218079566125797 ] [ -1.0273803451691663 -0.50689921947517402 0.31167295217126278 ]
node 465 2 0 0
nodegru 605 0 -0.44837265435996132 0.1134126147317759 -0.20565790762456967 -0.19143741214249163 0.26896674873724891 -0.3812553816853349 [ 0.50629383535417449 0.0731605715459029 -0.24350236484012683 0.20384634132676122 0.080197616284805179 ] [ 0.0045104550684386679 -0.26291988685863088 -0.23224034078057892 0.017356371282300165 0.086053212679016042 ] [ -0.93838603977970125 -0.28981607025014983 0.092503027567874194 -0.0068933561010721123 0.057160238761995108 ]
node 787 2 0 0
node 901 1 0 0
nodegru 1021 0 1.0696109673332475 0.40940893320804878 -0.53124313546868174 1.0241407435499787 1.2623101639385848 0.41920354423076078 [ 1.7323834110202192 -0.14440844959784693 ] [ -0.3260118511160891 0.4741317038303855 ] [ -0.32682226194386477 0.047715098153667104 ]
node 1110 2 0 0
node 1203 2 0 0
node 1276 3 0 0
node 1305 1 0 0
node 1412 1 0 0
node 1436 1 0 0
node 1567 3 0 0
nodegru 1652 0 -0.24421961593638158 0.49286375473852445 0.89445573738517981 0.79556514476219431 -0.068816226240627568 0.46438564661163168 [ -0.51751060854527664 0 ] [ -0.76773710444929877 0.39745072503455481 ] [ 0.46341882341700558 0 ]
nodegru 1741 0 -1.7139318039239999 0.047670841937731412 -0.041386181507905108 0.26891782729370417 -0.14165086422192438 -0.68298066974756333 [ -1.0412496242398628 -0.25308983179418826 0.05979913289649369 ] [ -0.33346449226767966 0.80239338860958498 -0.18401915658452508 ] [ -0.30776994503465016 -0.07834006570202301 -0.75216611626193219 ]
node 1773 1 0 0
node 1806 3 0 0
node 1844 1 0 0
node 2039 1 0 0
node 2041 1 0 0
nodegru 2060 0 -0.14830295562199455 -0.43254418505008529 0.42217620388706034 -0.16815958016931992 -0.028796115903554537 -0.29145051855195803 [ 0.44075806343031954 0 ] [ -0.413508423796626 0 ] [ -0.21493111467684206 0 ]
nodegru 2231 0 0 0 0 0 0 0 [ 0 ] [ 0 ] [ 0 ]
gene 1 1 3 0.038962821028643672 0 1 0.038962821028643672 1
gene 2 2 3 -0.36633286246393476 0 2 -0.36633286246393476 0
gene 3 1 4 3.9932908550804895 0 3 3.9932908550804895 1
gene 3 2 4 -0.080083365356588443 0 4 -0.080083365356588443 0
gene 3 2 14 -0.061992809670973981 0 29 -0.061992809670973981 1
gene 1 14 3 1.9124656139931016 0 30 1.9124656139931016 1
gene 1 2 18 0.81385817276959216 0 44 0.81385817276959216 0
gene 1 18 4 0.68164178039023737 0 45 0.68164178039023737 0
gene 2 14 4 -0.28229991289894085 0 76 -0.28229991289894085 0
gene 2 18 14 0.70023581883881059 0 102 0.70023581883881059 1
gene 2 2 39 0.32217491852220842 0 114 0.32217491852220842 0
gene 1 39 18 0.042657017494857785 0 115 0.042657017494857785 0
gene 2 14 49 0.64388269798079634 0 153 0.64388269798079634 0
gene 1 49 4 -0.65784769908424834 0 154 -0.65784769908424834 0
gene 3 39 75 0.29992019166234885 0 282 0.29992019166234885 0
gene 1 75 18 0.52449814184778276 0 283 0.52449814184778276 1
gene 2 4 4 0.2117234800065512 1 295 0.2117234800065512 1
gene 3 75 4 -0.0043947482502063595 0 422 -0.0043947482502063595 1
gene 2 39 4 0.22116761711480451 0 657 0.22116761711480451 1
gene 2 1 75 0.35997085383160543 0 668 0.35997085383160543 1
gene 1 2 216 -0.45669013189929075 0 956 -0.45669013189929075 0
gene 2 216 39 0.085872072533644775 0 957 0.085872072533644775 0
gene 2 49 220 -0.28640920821875754 0 966 -0.28640920821875754 1
gene 2 220 4 0.14951925056498463 0 967 0.14951925056498463 0
gene 3 75 226 0.82991993838451805 0 1023 0.82991993838451805 1
gene 1 226 4 -0.26252137695556571 0 1024 -0.26252137695556571 1
gene 2 216 75 -0.099212724063178867 0 1309 -0.099212724063178867 1
gene 3 220 308 -0.1491019640346532 0 1426 -0.1491019640346532 0
gene 1 308 4 0.29382437038879111 0 1427 0.29382437038879111 1
gene 2 49 226 -0.47452198526566947 0 2040 -0.47452198526566947 0
gene 1 216 465 0.24238345364219671 0 2167 0.24238345364219671 1
gene 1 465 39 -0.20240196269117386 0 2168 -0.20240196269117386 0
gene 3 465 18 -0.93143852936636584 0 2534 -0.93143852936636584 1
gene 3 1 226 0.016279281590263983 0 2559 0.016279281590263983 1
gene 1 39 226 0.37700221239449533 0 2803 0.37700221239449533 1
gene 1 39 308 0.049020058731092137 0 2861 0.049020058731092137 1
gene 2 49 605 1.7559808302931399 0 2870 1.7559808302931399 1
gene 2 605 226 -0.97579362964061711 0 2871 -0.97579362964061711 1
gene 2 465 465 0.11626702086826179 1 3234 0.11626702086826179 0
gene 3 14 220 1.1440745387897242 0 3373 1.1440745387897242 1
gene 1 75 75 -0.62590656807921197 1 3438 -0.62590656807921197 0
gene 2 14 226 -1.0014464734128892 0 3604 -1.0014464734128892 1
gene 2 226 226 0.42084556814322505 1 3689 0.42084556814322505 0
gene 1 75 787 0.50952635449800932 1 3790 0.50952635449800932 1
gene 1 787 75 0.22996921964453967 0 3791 0.22996921964453967 0
gene 3 216 220 -0.34257892255791411 0 4011 -0.34257892255791411 0
gene 1 465 787 -0.14300023514917132 0 4180 -0.14300023514917132 1
gene 1 465 901 1.3719560673329776 0 4360 1.3719560673329776 0
gene 1 901 39 0.22775179996516165 0 4361 0.22775179996516165 0
gene 1 39 787 0.01295355777859386 0 4383 0.01295355777859386 0
gene 1 465 1021 0.22661300479742372 0 4921 0.22661300479742372 1
gene 1 1021 901 -0.096733541738583506 0 4922 -0.096733541738583506 1
gene 1 18 3 -4.2052281835140786 0 4933 -4.2052281835140786 1
gene 3 49 39 -0.55333927462498622 1 5153 -0.55333927462498622 1
gene 3 220 226 0.3538955889427548 0 5237 0.3538955889427548 1
gene 2 39 1110 0.85496471955206466 0 5301 0.85496471955206466 1
gene 3 1110 75 -0.33464076455432962 0 5302 -0.33464076455432962 0
gene 3 901 605 -0.27423724009387063 0 5319 -0.27423724009387063 0
gene 3 1021 39 -0.29616034370668248 0 5402 -0.29616034370668248 1
gene 1 2 226 -0.29266527541571541 0 5664 -0.29266527541571541 0
gene 2 18 1203 0.42876187173126357 0 5793 0.42876187173126357 1
gene 2 1203 4 0.21394194439702766 0 5794 0.21394194439702766 1
gene 1 901 787 0.046560528476983526 0 5853 0.046560528476983526 1
gene 2 14 1276 -0.30625237655185733 0 6130 -0.30625237655185733 0
gene 2 1276 49 0.24738772783772447 0 6131 0.24738772783772447 1
gene 3 216 1021 0.32585993075084857 0 6143 0.32585993075084857 0
gene 3 1110 1305 -0.28808207380961726 0 6251 -0.28808207380961726 1
gene 2 1305 75 -0.40227335081541599 0 6252 -0.40227335081541599 1
gene 1 220 1412 -0.42948593871178381 0 6730 -0.42948593871178381 0
gene 3 1412 308 -0.34418224303246581 0 6731 -0.34418224303246581 1
gene 2 465 1436 -0.25996501290237767 1 6848 -0.25996501290237767 0
gene 2 1436 465 0.79421503762445178 0 6849 0.79421503762445178 1
gene 3 1203 3 0.39711729152925185 0 6862 0.39711729152925185 1
gene 2 14 14 -0.19307069419560519 1 7035 -0.19307069419560519 1
gene 1 465 605 -0.27348881693253707 0 7118 -0.27348881693253707 1
gene 3 216 1567 0.59498628745553372 0 7481 0.59498628745553372 1
gene 3 1567 220 -0.39357918332963215 0 7482 -0.39357918332963215 1
gene 1 1 1412 -0.16360834970306989 0 7861 -0.16360834970306989 1
gene 1 1567 901 0.41256211088623951 0 7931 0.41256211088623951 1
gene 2 14 1652 -0.95262745835475038 0 7966 -0.95262745835475038 1
gene 2 1652 1276 -0.44848462494485297 0 7967 -0.44848462494485297 1
gene 3 2 465 -0.27144171473171641 0 8058 -0.27144171473171641 1
gene 2 1412 1412 -0.64729835006748249 1 8141 -0.64729835006748249 1
gene 1 787 1741 -0.50308045395793433 0 8419 -0.50308045395793433 1
gene 1 1741 75 0.69821863770401971 0 8420 0.69821863770401971 1
gene 1 465 4 0.32435675841959044 0 8540 0.32435675841959044 1
gene 2 465 1773 -0.36346410604355117 1 8581 -0.36346410604355117 1
gene 2 1773 1436 -0.40508235381221502 0 8582 -0.40508235381221502 1
gene 1 1276 1276 -0.1975256550114256 1 8597 -0.1975256550114256 1
gene 1 2 1806 -0.4593681306389012 0 8744 -0.4593681306389012 1
gene 1 1806 216 0.73857457062163134 0 8745 0.73857457062163134 1
gene 3 39 49 -0.46334972975931588 0 8953 -0.46334972975931588 1
gene 1 220 1844 -0.36326902865584426 0 8958 -0.36326902865584426 1
gene 1 1844 1412 -0.78123100929950884 0 8959 -0.78123100929950884 1
gene 1 39 216 -0.1443480726537984 1 9395 -0.1443480726537984 1
gene 2 1773 1773 0.36981712461906352 1 9788 0.36981712461906352 1
gene 3 901 1741 -0.59680817886107052 0 9795 -0.59680817886107052 1
gene 1 1436 49 -1.2291406321940666 0 9802 -1.2291406321940666 1
gene 3 1021 605 1.0112132043629947 0 9960 1.0112132043629947 1
gene 3 901 2039 -0.098779362439540885 0 9976 -0.098779362439540885 1
gene 3 2039 605 0.67340083311935928 0 9977 0.67340083311935928 1
gene 1 39 2041 -1.0165095534252513 0 9982 -1.0165095534252513 1
gene 1 2041 787 0.21028431025812602 0 9983 0.21028431025812602 1
gene 3 1 2041 0.11971928277971189 0 9987 0.11971928277971189 1
gene 3 1741 1652 0.5835893436258609 0 10101 0.5835893436258609 1
gene 2 226 2060 1.2051658575447117 1 10114 1.2051658575447117 1
gene 2 2060 226 0.12461168208374254 0 10115 0.12461168208374254 1
gene 2 18 49 -0.079983940618105209 0 10367 -0.079983940618105209 1
gene 2 1844 2039 1.1823643209330572 0 10387 1.1823643209330572 1
gene 1 1741 4 -0.1091558065308052 0 10400 -0.1091558065308052 1
gene 1 75 1276 -0.24408143234629243 0 10517 -0.24408143234629243 1
gene 2 1806 1741 0.092791000424321271 0 10555 0.092791000424321271 1
gene 3 1 465 -0.048455552686217963 0 10762 -0.048455552686217963 1
gene 3 1741 49 0.42724892889487043 0 10935 0.42724892889487043 1
gene 2 901 2041 0.20578190693901011 0 10988 0.20578190693901011 1
gene 1 901 2231 0.91961563304980087 0 10995 0.91961563304980087 1
gene 1 2231 39 -0.35309736004709141 0 10996 -0.35309736004709141 1
gene 3 226 2060 0.034765181147849739 0 11484 0.034765181147849739 1
genomeend 83
