genomestart 25
trait 1 0.536534 0.616569 1 1 0 1 0 0.52743 
trait 2 0 1 0.467436 0.699222 0.0465071 1 0 1 
trait 3 1 0.827405 0.226047 0 0.621516 1 0.534568 0 
node 1 2 1 3
node 2 2 1 1
node 3 1 0 2
node 4 2 0 2
node 9 1 0 0
node 22 2 0 0
node 44 1 0 0
node 113 3 0 0
node 186 1 0 0
node 188 3 0 0
node 196 3 0 0
node 205 2 0 0
node 317 2 0 0
node 329 2 0 0
node 397 1 0 0
node 419 2 0 0
node 433 2 0 0
node 521 3 0 0
node 523 2 0 0
node 638 2 0 0
node 645 2 0 0
node 653 1 0 0
node 673 3 0 0
node 732 1 0 0
node 764 2 0 0
node 796 1 0 0
node 856 1 0 0
node 889 2 0 0
node 1009 1 0 0
node 1136 2 0 0
node 1275 1 0 0
node 1365 1 0 0
node 1378 1 0 0
node 1416 3 0 0
node 1427 1 0 0
node 1445 3 0 0
node 1493 2 0 0
node 1551 1 0 0
node 1554 2 0 0
node 1631 2 0 0
node 1718 1 0 0
node 1780 1 0 0
node 1792 1 0 0
node 1815 1 0 0
node 1981 1 0 0
node 1984 1 0 0
node 2029 1 0 0
node 2035 1 0 0
node 2060 1 0 0
node 2107 1 0 0
node 2125 1 0 0
node 2279 1 0 0
node 2281 1 0 0
node 2360 1 0 0
node 2364 3 0 0
node 2433 3 0 0
node 2435 1 0 0
node 2493 1 0 0
node 2517 1 0 0
node 2543 1 0 0
node 2553 1 0 0
node 2710 1 0 0
node 2717 1 0 0
node 2764 1 0 0
node 2804 1 0 0
node 2826 1 0 0
node 2841 1 0 0
node 2885 1 0 0
node 2919 3 0 0
node 2964 1 0 0
node 3053 1 0 0
node 3057 1 0 0
node 3127 1 0 0
node 3190 1 0 0
node 3247 1 0 0
node 3317 1 0 0
node 3411 1 0 0
node 3423 1 0 0
node 3437 1 0 0
node 3471 1 0 0
node 3503 1 0 0
node 3549 1 0 0
node 3588 1 0 0
node 3605 1 0 0
gene 1 1 3 0.082253675014830052 0 1 0.082253675014830052 1
gene 2 2 3 -0.55666659099825977 0 2 -0.55666659099825977 1
gene 1 1 4 0.22801492047869362 0 3 0.22801492047869362 1
gene 1 2 4 -0.036980300227636612 0 4 -0.036980300227636612 1
gene 1 2 9 -0.17298184157022362 0 21 -0.17298184157022362 1
gene 2 9 4 -0.0062413292500382855 0 22 -0.0062413292500382855 1
gene 2 9 3 -0.16540251563554748 0 35 -0.16540251563554748 1
gene 2 9 22 0.057378102120653772 0 62 0.057378102120653772 1
gene 3 22 3 1.3032375335708437 0 63 1.3032375335708437 1
gene 1 1 9 0.051118772733546231 0 86 0.051118772733546231 1
gene 1 2 22 -0.27679333499483449 0 117 -0.27679333499483449 1
gene 3 3 9 -0.6316263264192391 1 160 -0.6316263264192391 1
gene 1 22 4 0.20421077693077305 0 201 0.20421077693077305 1
gene 3 3 44 0.10376024274330597 1 281 0.10376024274330597 1
gene 3 44 9 -0.30479361666589677 0 282 -0.30479361666589677 1
gene 3 2 44 0.46544048840433383 0 413 0.46544048840433383 1
gene 2 4 22 1.9127437604650597 1 448 1.9127437604650597 1
gene 3 44 22 0.49920013081245129 0 741 0.49920013081245129 1
gene 3 44 44 0.083975628057483404 1 777 0.083975628057483404 1
gene 3 44 113 0.29587049796053699 0 901 0.29587049796053699 1
gene 3 113 9 0.76915243350395579 0 902 0.76915243350395579 1
gene 3 1 113 -0.64149944281275362 0 1223 -0.64149944281275362 1
gene 1 2 113 0.29914710801055056 0 1377 0.29914710801055056 1
gene 2 2 186 -1.583364550295921 0 1435 -1.583364550295921 1
gene 2 186 3 0.37879509938824696 0 1436 0.37879509938824696 1
gene 3 186 44 -0.27396934399100459 0 1444 -0.27396934399100459 1
gene 3 186 188 -1.8265985126265318 0 1450 -1.8265985126265318 1
gene 3 188 44 -0.93171467908272265 0 1451 -0.93171467908272265 1
gene 3 2 196 0.34288868999243188 0 1537 0.34288868999243188 1
gene 3 196 44 0.14606609109140287 0 1538 0.14606609109140287 0
gene 1 188 186 -0.11817032989029322 1 1540 -0.11817032989029322 1
gene 1 22 205 0.39107648161755709 0 1604 0.39107648161755709 0
gene 3 205 4 -0.42707244140425343 0 1605 -0.42707244140425343 0
gene 1 188 113 -0.024997735174837398 0 1621 -0.024997735174837398 1
gene 3 196 186 0.15189356154384723 0 1676 0.15189356154384723 0
gene 2 205 3 0.534272206031844 0 1709 0.534272206031844 0
gene 2 1 186 -1.1202078762558325 0 1722 -1.1202078762558325 0
gene 2 1 22 0.24542478460139816 0 1941 0.24542478460139816 1
gene 2 188 9 -0.4383704024080049 0 1968 -0.4383704024080049 1
gene 3 188 3 0.15644557525238267 0 1979 0.15644557525238267 0
gene 3 113 3 -0.10077428752592504 0 1990 -0.10077428752592504 1
gene 1 9 205 -0.21266348111101588 0 2049 -0.21266348111101588 1
gene 2 186 186 -0.34311693852912489 1 2169 -0.34311693852912489 1
gene 3 196 3 -1.749077759333457 0 2239 -1.749077759333457 1
gene 3 1 188 0.46538439973508217 0 2262 0.46538439973508217 1
gene 2 1 205 0.062259005877309981 0 2397 0.062259005877309981 1
gene 1 196 4 0.062822975713211562 0 2498 0.062822975713211562 1
gene 3 186 317 0.19171278280751441 0 2550 0.19171278280751441 0
gene 3 317 188 -0.056935164172637817 0 2551 -0.056935164172637817 1
gene 3 3 188 -0.018479537227414335 1 2591 -0.018479537227414335 1
gene 1 44 205 0.9677053135669349 0 2628 0.9677053135669349 0
gene 1 2 329 -0.026305940712944578 0 2675 -0.026305940712944578 0
gene 1 329 9 -0.082324422934243524 0 2676 -0.082324422934243524 0
gene 1 196 205 -0.066661946273717076 0 2758 -0.066661946273717076 1
gene 3 329 44 0.11723051854280314 0 2820 0.11723051854280314 1
gene 1 329 3 0.13246917591079566 0 2872 0.13246917591079566 0
gene 2 329 22 1.4894495976574018 0 2901 1.4894495976574018 0
gene 2 9 44 -0.10738694463269177 0 3054 -0.10738694463269177 1
gene 1 1 317 0.59099282794212593 0 3086 0.59099282794212593 1
gene 2 329 397 1.4883300664314674 0 3311 1.4883300664314674 1
gene 2 397 3 0.048217268450286815 0 3312 0.048217268450286815 0
gene 2 397 419 -0.29183260388292026 0 3504 -0.29183260388292026 0
gene 3 419 3 -0.34793279732015581 0 3505 -0.34793279732015581 0
gene 3 419 22 -0.29055295851573021 0 3562 -0.29055295851573021 0
gene 2 205 433 -0.42216264196772252 0 3627 -0.42216264196772252 1
gene 2 433 3 -0.03648624198347622 0 3628 -0.03648624198347622 1
gene 1 329 188 -0.33404384592270658 0 3716 -0.33404384592270658 1
gene 1 433 196 -0.064865608962655849 1 3836 -0.064865608962655849 0
gene 1 186 22 -0.035519716812074054 0 4017 -0.035519716812074054 1
gene 3 317 329 0.32880289495401221 0 4097 0.32880289495401221 1
gene 2 196 397 0.52280531196054314 0 4216 0.52280531196054314 1
gene 3 329 521 -0.15925644974189646 0 4332 -0.15925644974189646 1
gene 2 521 22 -0.068089553419542287 0 4333 -0.068089553419542287 0
gene 2 2 523 0.67270328415217961 0 4353 0.67270328415217961 0
gene 2 523 196 0.042601073646266516 0 4354 0.042601073646266516 1
gene 3 113 521 -0.036767725617050995 0 4505 -0.036767725617050995 1
gene 1 419 9 -0.32490985366744446 0 4614 -0.32490985366744446 1
gene 3 113 419 -0.060719120810143246 0 4780 -0.060719120810143246 1
gene 1 317 419 -0.26417717629306825 0 4810 -0.26417717629306825 0
gene 3 188 521 -0.69320187843088121 0 4848 -0.69320187843088121 1
gene 1 523 419 0.42853809307726942 0 4943 0.42853809307726942 1
gene 3 1 329 -0.92244644552583166 0 4950 -0.92244644552583166 1
gene 1 521 419 -0.22716440387403802 0 4978 -0.22716440387403802 1
gene 3 433 9 -0.13402718358395024 1 5099 -0.13402718358395024 0
gene 1 523 4 -0.7119635689128021 0 5133 -0.7119635689128021 1
gene 3 196 521 0.65224412090715223 0 5147 0.65224412090715223 0
gene 3 3 638 1.1918338319248678 1 5264 1.1918338319248678 0
gene 3 638 44 0.30336811873287339 0 5265 0.30336811873287339 1
gene 3 196 645 -0.21393212942123976 0 5351 -0.21393212942123976 1
gene 3 645 186 -0.73204886667991431 0 5352 -0.73204886667991431 1
gene 2 44 653 0.33468631647279778 0 5413 0.33468631647279778 1
gene 1 653 205 1.2191140235956364 0 5414 1.2191140235956364 1
gene 1 186 205 0.48960231733024229 0 5470 0.48960231733024229 1
gene 2 397 673 0.32130240896777362 0 5549 0.32130240896777362 0
gene 2 673 419 0.66432318960517789 0 5550 0.66432318960517789 1
gene 3 645 419 0.48655539354614696 0 5646 0.48655539354614696 0
gene 1 4 9 -0.13206117326955369 1 5760 -0.13206117326955369 0
gene 2 397 397 -0.13923554478177594 1 5965 -0.13923554478177594 1
gene 1 317 732 1.2840042213369181 0 5995 1.2840042213369181 1
gene 1 732 419 0.30794335706529363 0 5996 0.30794335706529363 0
gene 2 645 397 0.54704616058014621 0 6020 0.54704616058014621 1
gene 3 186 653 0.1018059968956774 0 6088 0.1018059968956774 1
gene 3 397 653 -1.0100119216414223 0 6113 -1.0100119216414223 0
gene 1 186 433 0.29377849576705062 0 6142 0.29377849576705062 1
gene 3 196 764 -0.18089691255283399 0 6255 -0.18089691255283399 1
gene 2 764 44 -0.40204923199585135 0 6256 -0.40204923199585135 1
gene 2 3 3 -1.6132057849844943 1 6346 -1.6132057849844943 0
gene 1 186 397 -0.13695263356759804 0 6513 -0.13695263356759804 1
gene 3 3 796 0.97719786710906675 1 6551 0.97719786710906675 1
gene 3 796 638 0.079488653260976372 0 6552 0.079488653260976372 0
gene 2 9 521 0.53972930416452203 1 6570 0.53972930416452203 1
gene 3 113 113 -0.042754854095519934 1 6581 -0.042754854095519934 1
gene 1 9 9 0.7071025505229378 1 6593 0.7071025505229378 1
gene 2 673 653 -0.11775029712251867 0 6654 -0.11775029712251867 0
gene 3 397 732 0.20060196993900553 0 6766 0.20060196993900553 1
gene 2 419 796 -0.68735691797330833 0 6830 -0.68735691797330833 1
gene 2 397 856 -0.63471423258758808 0 6972 -0.63471423258758808 1
gene 2 856 673 0.68078206883779824 0 6973 0.68078206883779824 1
gene 3 521 521 -0.44284098080491696 1 6986 -0.44284098080491696 0
gene 1 329 796 0.080952211786504955 0 7045 0.080952211786504955 1
gene 1 44 433 -0.121640462252144 0 7142 -0.121640462252144 0
gene 2 196 22 0.74136660166148438 0 7154 0.74136660166148438 1
gene 1 764 645 2.1324603330029461 0 7160 2.1324603330029461 1
gene 1 186 732 0.26574207994422971 0 7210 0.26574207994422971 1
gene 2 764 419 -0.22328690007482038 0 7265 -0.22328690007482038 1
gene 1 397 889 0.16713426968415002 0 7289 0.16713426968415002 1
gene 1 889 653 -0.64656221268072822 0 7290 -0.64656221268072822 1
gene 2 2 188 -0.05644702355211928 0 7341 -0.05644702355211928 1
gene 2 196 113 -0.35587134671205251 0 7442 -0.35587134671205251 1
gene 2 889 856 0.66024549243051811 0 7562 0.66024549243051811 1
gene 3 397 22 0.86065118962929166 0 7570 0.86065118962929166 1
gene 1 2 397 -0.20180682637812888 0 7616 -0.20180682637812888 1
gene 3 188 329 -2.0906475112264267 1 7643 -2.0906475112264267 1
gene 1 523 113 -0.051853363891995199 0 7731 -0.051853363891995199 1
gene 1 764 3 -0.75083731825036804 0 7744 -0.75083731825036804 1
gene 3 523 653 0.28748523271059861 0 8139 0.28748523271059861 1
gene 3 186 856 -0.023754411620904886 0 8142 -0.023754411620904886 1
gene 2 764 113 0.90746625345547982 0 8154 0.90746625345547982 0
gene 3 317 205 -0.32466764786498054 0 8225 -0.32466764786498054 1
gene 2 329 329 0.62513120059162897 1 8292 0.62513120059162897 1
gene 2 3 1009 -0.31289847186435876 1 8317 -0.31289847186435876 1
gene 2 1009 3 0.47162618300487574 0 8318 0.47162618300487574 0
gene 1 732 9 -0.35652631793940742 0 8368 -0.35652631793940742 1
gene 3 673 4 0.015878340003955337 0 8403 0.015878340003955337 1
gene 2 317 317 0.38989531592926724 1 8514 0.38989531592926724 1
gene 3 523 186 -0.79425922096439594 0 8572 -0.79425922096439594 1
gene 2 1009 188 0.17253410521547036 0 8850 0.17253410521547036 1
gene 1 433 397 -1.0543588267426747 1 9008 -1.0543588267426747 1
gene 2 1009 9 0.35178475703661549 0 9085 0.35178475703661549 0
gene 1 1009 186 0.044219780501080573 0 9167 0.044219780501080573 1
gene 3 856 764 0.72258887706445019 1 9251 0.72258887706445019 0
gene 2 419 44 -0.24924096639698418 0 9421 -0.24924096639698418 1
gene 2 9 764 -1.0502693674295531 1 9434 -1.0502693674295531 1
gene 3 419 1136 -1.0377389432572475 0 9437 -1.0377389432572475 1
gene 1 1136 3 -0.46875049987284023 0 9438 -0.46875049987284023 1
gene 2 1 856 -0.29093512929553866 0 9451 -0.29093512929553866 1
gene 3 673 188 -1.8712810382113236 0 9476 -1.8712810382113236 0
gene 2 645 732 -0.034083410182075301 0 9487 -0.034083410182075301 1
gene 3 673 638 -1.0313787998312054 0 9607 -1.0313787998312054 1
gene 3 397 638 0.4340674760444404 0 9904 0.4340674760444404 1
gene 3 732 3 0.11526590544509976 0 9970 0.11526590544509976 1
gene 3 645 188 -0.64424445300560651 0 10012 -0.64424445300560651 1
gene 1 673 3 -0.27308955126120221 0 10140 -0.27308955126120221 1
gene 3 2 889 0.2161337776184705 0 10306 0.2161337776184705 1
gene 2 1 419 -0.96638815173245418 0 10391 -0.96638815173245418 1
gene 2 1009 1275 0.5015087628278454 0 10616 0.5015087628278454 1
gene 2 1275 3 -1.1605573625585797 0 10617 -1.1605573625585797 1
gene 2 1275 653 -1.3905477886509838 0 10685 -1.3905477886509838 1
gene 1 1 732 -1.4496348141458046 0 10745 -1.4496348141458046 0
gene 1 889 188 0.64837904816883574 0 10835 0.64837904816883574 1
gene 1 196 196 -1.2734839270233569 1 10902 -1.2734839270233569 1
gene 2 1275 673 0.46816901791289861 0 10913 0.46816901791289861 1
gene 2 673 22 -0.2721899178680916 0 10916 -0.2721899178680916 1
gene 3 329 856 0.35504991903670591 0 11037 0.35504991903670591 1
gene 1 329 638 0.94329086478952817 0 11077 0.94329086478952817 1
gene 3 317 796 -1.2315901898460417 0 11080 -1.2315901898460417 0
gene 2 856 419 0.447377643523448 0 11130 0.447377643523448 0
gene 2 521 638 1.1103974902585136 0 11181 1.1103974902585136 1
gene 3 1009 732 -0.22385133696899345 0 11304 -0.22385133696899345 1
gene 1 329 205 -0.25956051110269523 0 11355 -0.25956051110269523 1
gene 1 188 1365 -0.16531754991287251 0 11479 -0.16531754991287251 1
gene 1 1365 3 -0.34510637416742107 0 11480 -0.34510637416742107 1
gene 1 317 856 2.6396039482856186 0 11496 2.6396039482856186 1
gene 2 673 1378 1.2230327721792424 0 11574 1.2230327721792424 1
gene 2 1378 653 -0.249988692696201 0 11575 -0.249988692696201 0
gene 3 764 4 0.92676089607493994 0 11727 0.92676089607493994 1
gene 2 764 1416 0.28102914024192333 0 11807 0.28102914024192333 0
gene 2 1416 113 1.0621373954052744 0 11808 1.0621373954052744 0
gene 1 1275 523 -0.055696574531354279 0 11890 -0.055696574531354279 1
gene 3 196 1378 0.44320007946491247 0 11895 0.44320007946491247 1
gene 3 732 889 -0.18425400167901723 0 11914 -0.18425400167901723 1
gene 2 521 1427 -0.35259695553807391 1 11920 -0.35259695553807391 1
gene 3 1427 521 -0.45881420302149567 0 11921 -0.45881420302149567 1
gene 3 645 1445 -0.10426011220750414 0 12054 -0.10426011220750414 1
gene 3 1445 419 1.0037606221175568 0 12055 1.0037606221175568 1
gene 3 397 317 0.6164637920989019 1 12126 0.6164637920989019 1
gene 2 2 796 0.39719304274636935 0 12194 0.39719304274636935 1
gene 3 1275 4 0.27039105434454563 0 12214 0.27039105434454563 1
gene 2 2 1365 0.16211781867878411 0 12243 0.16211781867878411 1
gene 1 856 44 -0.076612169424356974 0 12307 -0.076612169424356974 0
gene 2 764 186 -0.73900765680661795 0 12318 -0.73900765680661795 1
gene 3 1416 673 0.11654197849172249 0 12333 0.11654197849172249 1
gene 1 1136 1378 0.40065769078240621 0 12348 0.40065769078240621 0
gene 1 205 1493 -0.63711635541967881 0 12481 -0.63711635541967881 1
gene 2 1493 4 0.85802360733878968 0 12482 0.85802360733878968 1
gene 1 113 653 2.996146701507338 0 12505 2.996146701507338 1
gene 1 638 1493 -0.2311451336048288 0 12540 -0.2311451336048288 1
gene 3 113 1378 0.12131608143510113 0 12667 0.12131608143510113 1
gene 3 732 113 0.48324762004578842 0 12844 0.48324762004578842 1
gene 1 433 1427 -0.17750036282348464 0 12948 -0.17750036282348464 0
gene 2 856 1551 -0.16030649871579675 0 12970 -0.16030649871579675 1
gene 2 1551 419 0.47866190619704402 0 12971 0.47866190619704402 1
gene 2 4 1554 0.55207562961246592 1 12992 0.55207562961246592 1
gene 2 1554 22 0.65606527037735352 0 12993 0.65606527037735352 1
gene 2 329 433 0.26870116906645758 0 13027 0.26870116906645758 0
gene 1 188 205 0.13645496854393507 0 13239 0.13645496854393507 1
gene 2 1554 673 1.0643259280195114 0 13278 1.0643259280195114 0
gene 3 1416 1416 -0.10744238486860064 1 13325 -0.10744238486860064 0
gene 1 397 1136 0.069219762025968995 0 13371 0.069219762025968995 1
gene 2 1378 9 -0.021256963266645074 0 13488 -0.021256963266645074 1
gene 3 1416 645 1.2380974643109819 0 13556 1.2380974643109819 1
gene 3 764 796 0.3307704982956734 0 13579 0.3307704982956734 1
gene 1 1136 1365 0.87965691223724596 0 13681 0.87965691223724596 1
gene 3 186 1631 -0.4897135088638 0 13710 -0.4897135088638 1
gene 3 1631 317 -0.48325766901637318 0 13711 -0.48325766901637318 1
gene 3 732 1009 -1.005392008463569 1 13919 -1.005392008463569 0
gene 1 9 1378 0.57045614187161253 0 13988 0.57045614187161253 1
gene 1 205 1365 -0.13005446858240965 0 14169 -0.13005446858240965 0
gene 1 764 1136 0.74514509120264316 0 14178 0.74514509120264316 1
gene 2 1 1378 -0.27247126552857059 0 14254 -0.27247126552857059 1
gene 2 1416 521 0.42318796828537619 0 14417 0.42318796828537619 1
gene 1 44 1718 0.018342955512154369 0 14503 0.018342955512154369 1
gene 1 1718 433 -0.88233821880181229 0 14504 -0.88233821880181229 1
gene 2 1009 1009 -0.43335100702631807 1 14578 -0.43335100702631807 1
gene 3 1554 397 -0.72636983600741734 0 14638 -0.72636983600741734 1
gene 1 1416 1365 -0.08424366362590513 0 14664 -0.08424366362590513 1
gene 2 638 1136 0.29088696781121542 0 14761 0.29088696781121542 1
gene 1 1718 1493 -0.17953507540725874 0 14841 -0.17953507540725874 1
gene 1 419 433 -0.076918118203486374 0 14958 -0.076918118203486374 1
gene 2 764 1445 1.5834810214971569 0 14977 1.5834810214971569 1
gene 3 329 1554 -0.028169970739712169 0 14992 -0.028169970739712169 0
gene 3 521 1780 0.072101681992458963 0 15068 0.072101681992458963 0
gene 2 1780 22 0.02674793290288556 0 15069 0.02674793290288556 0
gene 1 1416 732 -0.46415218173719569 0 15148 -0.46415218173719569 1
gene 3 433 1792 0.16079568032212355 1 15159 0.16079568032212355 1
gene 3 1792 9 -0.81712299716524917 0 15160 -0.81712299716524917 1
gene 2 1365 653 0.40755397263334786 0 15168 0.40755397263334786 1
gene 3 653 4 -0.26704251545809327 0 15230 -0.26704251545809327 0
gene 2 856 1365 -0.41617312534534057 0 15286 -0.41617312534534057 1
gene 1 4 4 -0.086562346707360016 1 15381 -0.086562346707360016 1
gene 1 2 1815 -0.30386883989156638 0 15418 -0.30386883989156638 0
gene 1 1815 329 0.17378172100232062 0 15419 0.17378172100232062 1
gene 3 22 1427 -1.1387397975841256 0 15684 -1.1387397975841256 1
gene 1 1445 3 -0.42847194239891689 0 15717 -0.42847194239891689 0
gene 2 521 1792 -1.1754544871744952 0 15731 -1.1754544871744952 0
gene 1 419 1365 -0.38780382084092302 0 15757 -0.38780382084092302 1
gene 3 521 205 1.4779353102100712 0 15881 1.4779353102100712 1
gene 2 638 638 -0.37233091186374934 1 15918 -0.37233091186374934 0
gene 2 1551 9 -0.35695945092335324 0 16005 -0.35695945092335324 1
gene 1 638 1718 -0.41758506205751794 0 16026 -0.41758506205751794 1
gene 1 397 1493 -0.13769273489606229 0 16100 -0.13769273489606229 1
gene 3 1792 645 0.054818153174043704 1 16161 0.054818153174043704 1
gene 3 521 1815 0.37421543960190168 1 16167 0.37421543960190168 1
gene 1 1275 1275 -0.41828851025471858 1 16175 -0.41828851025471858 1
gene 3 645 1493 -0.81060656104730744 0 16206 -0.81060656104730744 1
gene 3 1 889 1.0898166469250885 0 16216 1.0898166469250885 1
gene 3 1365 397 0.03770237231520121 1 16441 0.03770237231520121 1
gene 3 1792 1445 -0.46681612169687453 0 16450 -0.46681612169687453 1
gene 2 796 796 0.081001648484264333 1 16561 0.081001648484264333 1
gene 3 329 673 -0.049906904599585994 0 16581 -0.049906904599585994 1
gene 3 1718 1718 0.6240537220724176 1 16657 0.6240537220724176 0
gene 2 2 433 0.22650813694415062 0 16699 0.22650813694415062 1
gene 2 186 1981 -0.45337744311121175 0 16933 -0.45337744311121175 1
gene 2 1981 3 0.046078712933733376 0 16934 0.046078712933733376 1
gene 2 2 1984 0.39554177778565408 0 16966 0.39554177778565408 0
gene 2 1984 523 -0.54958775385729397 0 16967 -0.54958775385729397 1
gene 1 329 4 0.46917258713821536 0 17087 0.46917258713821536 1
gene 1 4 2029 -0.18708719345139674 1 17326 -0.18708719345139674 1
gene 1 2029 9 -0.090315700550710643 0 17327 -0.090315700550710643 1
gene 2 1554 2035 -0.64710690507064894 0 17382 -0.64710690507064894 1
gene 2 2035 673 -0.15473591101110723 0 17383 -0.15473591101110723 1
gene 1 1554 1554 -0.41716326862441527 1 17441 -0.41716326862441527 1
gene 3 1009 1365 -2.1880648539811678 0 17498 -2.1880648539811678 1
gene 1 1780 1427 -3.5786713641503223 0 17511 -3.5786713641503223 0
gene 1 1 645 0.24284597637264344 0 17536 0.24284597637264344 1
gene 1 1493 1493 1.3216461827147967 1 17605 1.3216461827147967 1
gene 3 419 2060 -0.46267434743357561 0 17661 -0.46267434743357561 1
gene 1 2060 22 -0.46046748080312622 0 17662 -0.46046748080312622 0
gene 1 1554 317 0.031768208850067203 0 17683 0.031768208850067203 0
gene 2 22 1378 0.26755481784583757 0 17688 0.26755481784583757 1
gene 1 889 889 1.6144716961376704 1 17694 1.6144716961376704 1
gene 3 188 653 1.3456012782853102 0 17759 1.3456012782853102 0
gene 3 1631 1780 -0.47176015492144979 0 17860 -0.47176015492144979 1
gene 3 9 1416 -0.004600689981412498 1 17927 -0.004600689981412498 1
gene 3 732 1718 -0.085217945084542931 0 17952 -0.085217945084542931 1
gene 1 433 1365 0.40528599564232209 0 17967 0.40528599564232209 1
gene 2 1136 1718 0.08744118506435361 0 18080 0.08744118506435361 0
gene 2 764 1792 0.046835199020260565 0 18132 0.046835199020260565 0
gene 2 1009 2107 0.35116533509044229 0 18234 0.35116533509044229 1
gene 2 2107 9 -0.020495163984827286 0 18235 -0.020495163984827286 1
gene 2 1136 2125 -0.16326455244015181 0 18360 -0.16326455244015181 1
gene 2 2125 1718 -0.39967625373959365 0 18361 -0.39967625373959365 0
gene 1 523 523 1.2305167020440646 1 18370 1.2305167020440646 1
gene 2 523 1631 -1.2905839689963421 0 18385 -1.2905839689963421 1
gene 2 1136 1427 0.51432165154922826 0 18666 0.51432165154922826 1
gene 3 2035 1815 -0.20160647933446171 0 18690 -0.20160647933446171 1
gene 1 732 732 0.45833828181882308 1 18704 0.45833828181882308 1
gene 3 2029 1815 0.50655334070630054 0 18735 0.50655334070630054 1
gene 3 186 889 1.6508783926958586 0 18755 1.6508783926958586 1
gene 1 2035 205 0.81641433356162829 0 18858 0.81641433356162829 1
gene 1 1427 1427 -0.24072129011187762 1 18879 -0.24072129011187762 1
gene 2 1815 1815 1.9821324800057956 1 18989 1.9821324800057956 1
gene 2 1984 1378 -0.80412944769679084 0 19024 -0.80412944769679084 1
gene 2 329 889 0.349882963742075 0 19101 0.349882963742075 1
gene 3 1981 1981 0.1863775747764751 1 19108 0.1863775747764751 1
gene 1 1981 186 -0.91215192755318797 1 19320 -0.91215192755318797 1
gene 1 1554 732 1.3190330471000788 0 19610 1.3190330471000788 1
gene 1 2125 2125 0.13593839511086159 1 19616 0.13593839511086159 1
gene 2 1378 2279 -0.71527980720404527 0 19711 -0.71527980720404527 1
gene 2 2279 653 -0.31837853548041478 0 19712 -0.31837853548041478 1
gene 3 317 2281 -0.45776757456258294 0 19736 -0.45776757456258294 1
gene 3 2281 796 0.025209400814589777 0 19737 0.025209400814589777 1
gene 1 1984 44 0.29272178411144872 0 19748 0.29272178411144872 1
gene 1 1984 419 0.38378946244893103 0 19846 0.38378946244893103 1
gene 2 1378 433 -0.16333097343488168 0 19852 -0.16333097343488168 1
gene 2 1554 638 0.46873341336321717 0 20004 0.46873341336321717 1
gene 3 2281 397 0.06020206006253237 0 20020 0.06020206006253237 1
gene 1 2029 433 0.59455650211058397 0 20101 0.59455650211058397 1
gene 3 2060 1136 0.044971891001319458 0 20235 0.044971891001319458 1
gene 3 22 1792 1.0019647732851864 0 20318 1.0019647732851864 1
gene 2 653 653 -0.09075524662190837 1 20374 -0.09075524662190837 0
gene 3 1718 2360 0.16930730951452036 1 20449 0.16930730951452036 1
gene 3 2360 1718 -0.13122353662328023 0 20450 -0.13122353662328023 1
gene 1 1009 2125 -2.1228795347841825 0 20466 -2.1228795347841825 1
gene 1 856 2364 1.2940041074967032 0 20490 1.2940041074967032 1
gene 2 2364 44 -0.088404045481422888 0 20491 -0.088404045481422888 1
gene 2 1984 521 0.6087978140491983 0 20601 0.6087978140491983 1
gene 1 1718 205 0.52903450794007356 0 20612 0.52903450794007356 1
gene 3 1275 22 1.118836446022073 0 20615 1.118836446022073 1
gene 2 1984 645 0.32573858337744072 0 20667 0.32573858337744072 1
gene 3 1554 1984 -1.7860571538498891 0 20738 -1.7860571538498891 1
gene 3 1984 329 1.0007816948931578 0 20767 1.0007816948931578 1
gene 1 521 653 -0.25563228840736307 0 20771 -0.25563228840736307 1
gene 2 638 1416 0.74298054549981862 1 20876 0.74298054549981862 1
gene 2 2 1009 -0.57970200459458954 0 20902 -0.57970200459458954 1
gene 2 22 2360 0.25331919186437468 0 20928 0.25331919186437468 1
gene 3 1445 1718 -0.28873633653332309 0 20945 -0.28873633653332309 1
gene 3 673 44 0.40095738736025877 0 21013 0.40095738736025877 0
gene 3 1984 1984 1.088385278400213 1 21047 1.088385278400213 0
gene 3 673 2433 0.28923877621499761 0 21063 0.28923877621499761 1
gene 2 2433 44 -0.20124174873402417 0 21064 -0.20124174873402417 0
gene 1 2060 2435 0.32101370385895189 0 21076 0.32101370385895189 1
gene 1 2435 22 0.6813579994167005 0 21077 0.6813579994167005 1
gene 2 1416 9 0.40595557582841979 0 21151 0.40595557582841979 1
gene 2 2279 205 -0.080947861811587529 0 21173 -0.080947861811587529 1
gene 3 2029 1551 0.34043815794421273 0 21243 0.34043815794421273 1
gene 2 1718 1365 0.42882636465543245 0 21254 0.42882636465543245 1
gene 2 1551 1275 -0.15043433296980069 1 21271 -0.15043433296980069 1
gene 2 1815 1378 -0.56151623677532936 0 21376 -0.56151623677532936 1
gene 2 732 796 0.84327775838006191 0 21487 0.84327775838006191 1
gene 3 2 1554 -1.4005588814153147 0 21499 -1.4005588814153147 1
gene 1 2 2493 -0.73565955377913061 0 21550 -0.73565955377913061 1
gene 1 2493 1815 0.22965229266772613 0 21551 0.22965229266772613 1
gene 3 796 673 0.49049798352201379 0 21682 0.49049798352201379 1
gene 2 1416 2517 1.0010060006757295 0 21711 1.0010060006757295 1
gene 2 2517 113 0.24353703402147489 0 21712 0.24353703402147489 1
gene 3 186 2517 0.3637120695150049 0 21822 0.3637120695150049 1
gene 1 1136 2543 -0.11151315416745522 0 21899 -0.11151315416745522 1
gene 1 2543 1378 0.19693126492059387 0 21900 0.19693126492059387 1
gene 1 397 2360 0.3284294653350624 0 21911 0.3284294653350624 1
gene 2 329 2553 -0.21636334444226851 0 21961 -0.21636334444226851 1
gene 2 2553 433 -0.11742379265717406 0 21962 -0.11742379265717406 1
gene 1 1780 521 1.0612209285894505 0 21976 1.0612209285894505 1
gene 1 1009 2493 0.37537703191646232 0 22010 0.37537703191646232 1
gene 3 188 22 0.11253860504950328 0 22070 0.11253860504950328 0
gene 1 1554 1009 0.12163580587209938 0 22195 0.12163580587209938 1
gene 3 1416 3 -0.056309778269524657 0 22255 -0.056309778269524657 1
gene 2 1981 205 0.15458209726707176 0 22723 0.15458209726707176 1
gene 3 2553 2553 -1.6392701031357375 1 22731 -1.6392701031357375 1
gene 3 2435 1554 1.4213166357582978 1 22787 1.4213166357582978 0
gene 1 2035 889 0.03270780296656671 0 22800 0.03270780296656671 0
gene 2 1792 2364 0.11091873846525263 0 22871 0.11091873846525263 0
gene 2 1815 638 0.36005062486978745 0 22896 0.36005062486978745 1
gene 3 2107 1551 0.38130259717875281 0 22976 0.38130259717875281 1
gene 3 3 673 0.50202719681059338 1 23130 0.50202719681059338 1
gene 3 188 796 0.022082656166554734 0 23193 0.022082656166554734 1
gene 3 1416 196 0.0686229546873936 0 23217 0.0686229546873936 1
gene 3 1378 1427 -0.022672932838403131 0 23227 -0.022672932838403131 1
gene 3 1378 1378 0.24868039914811046 1 23237 0.24868039914811046 1
gene 1 2 2360 1.0596428136619009 0 23260 1.0596428136619009 1
gene 3 188 2710 0.73320228826869394 0 23272 0.73320228826869394 1
gene 3 2710 22 0.33398506596404365 0 23273 0.33398506596404365 1
gene 1 1416 2717 -0.56286615206062129 0 23372 -0.56286615206062129 1
gene 1 2717 1365 -0.444577880177916 0 23373 -0.444577880177916 1
gene 2 2517 2517 -0.1813788410189463 1 23462 -0.1813788410189463 1
gene 1 9 2543 0.083503713870189955 0 23499 0.083503713870189955 1
gene 1 1493 2279 0.43739133464982327 0 23551 0.43739133464982327 1
gene 2 1378 205 0.023099275782284906 0 23587 0.023099275782284906 1
gene 1 1780 2764 0.41437489651812931 0 23790 0.41437489651812931 0
gene 1 2764 1427 -0.1856183659683999 0 23791 -0.1856183659683999 1
gene 3 2553 1551 0.24212038924084994 0 23805 0.24212038924084994 1
gene 1 2717 2125 0.21807320658959134 0 24004 0.21807320658959134 1
gene 3 196 638 0.10842635254768018 0 24060 0.10842635254768018 1
gene 2 1554 889 0.81324903332313947 0 24087 0.81324903332313947 1
gene 3 856 2804 -0.69924416565301084 1 24098 -0.69924416565301084 1
gene 3 2804 764 0.73660056513575856 0 24099 0.73660056513575856 1
gene 2 2433 2433 0.34205874094835431 1 24160 0.34205874094835431 1
gene 2 1792 2826 -0.13792028587214661 0 24272 -0.13792028587214661 1
gene 2 2826 2364 -0.078878824170156736 0 24273 -0.078878824170156736 1
gene 3 1551 2364 -0.3222540609176523 0 24316 -0.3222540609176523 1
gene 1 433 2841 -0.56818258649119302 0 24425 -0.56818258649119302 1
gene 1 2841 1427 -1.2503538880266034 0 24426 -1.2503538880266034 1
gene 3 317 2493 0.18652865252761575 0 24472 0.18652865252761575 0
gene 2 2493 2493 0.029146060361129267 1 24593 0.029146060361129267 0
gene 2 1718 2841 -1.3245452052562241 0 24612 -1.3245452052562241 1
gene 3 1378 4 0.51502728486202065 0 24681 0.51502728486202065 1
gene 1 2804 196 -0.69218155890339139 0 24754 -0.69218155890339139 1
gene 3 796 2885 -0.50305584236190459 0 24801 -0.50305584236190459 1
gene 3 2885 638 0.83702455011057886 0 24802 0.83702455011057886 1
gene 3 523 2804 0.1589110673679556 0 24903 0.1589110673679556 1
gene 3 1554 205 0.35441119449884223 0 24985 0.35441119449884223 1
gene 3 196 2919 0.45182815238452895 0 25077 0.45182815238452895 1
gene 3 2919 521 0.62971891771523225 0 25078 0.62971891771523225 1
gene 1 113 1981 -0.80197703689428845 0 25309 -0.80197703689428845 1
gene 3 2435 2435 -1.053597418849169 1 25358 -1.053597418849169 1
gene 1 196 796 -0.7870110521498187 0 25388 -0.7870110521498187 1
gene 2 1365 1984 -0.34665060362156974 1 25406 -0.34665060362156974 1
gene 3 653 2964 -0.06836888732778322 0 25444 -0.06836888732778322 1
gene 3 2964 4 0.33362148368434119 0 25445 0.33362148368434119 1
gene 2 2060 1378 -0.33982854817985952 0 25569 -0.33982854817985952 1
gene 1 1365 1365 -0.8045836281052714 1 25828 -0.8045836281052714 1
gene 3 856 856 -0.12829783494970659 1 25852 -0.12829783494970659 1
gene 2 44 1551 -0.35429438615883435 0 25955 -0.35429438615883435 1
gene 3 2885 2885 -1.8149555613356438 1 26071 -1.8149555613356438 1
gene 1 329 3053 1.0345299497873197 0 26173 1.0345299497873197 1
gene 1 3053 9 0.081164280688932292 0 26174 0.081164280688932292 1
gene 2 2125 3057 0.10761192329582386 0 26189 0.10761192329582386 1
gene 2 3057 1718 1.5390961484699959 0 26190 1.5390961484699959 1
gene 2 188 732 -0.059599863393045904 1 26194 -0.059599863393045904 1
gene 2 732 638 0.35963965806161968 0 26236 0.35963965806161968 1
gene 2 2841 2964 0.035261149301780925 0 26387 0.035261149301780925 1
gene 3 1275 2360 -0.9010790262376327 0 26412 -0.9010790262376327 1
gene 1 3053 856 -0.0030008428744044413 0 26713 -0.0030008428744044413 1
gene 1 1984 1365 0.038759501436147606 0 26739 0.038759501436147606 1
gene 1 732 3127 0.33060696014697061 0 26762 0.33060696014697061 1
gene 1 3127 419 -0.38399236038513129 0 26763 -0.38399236038513129 1
gene 2 196 673 0.0040283652506900858 0 26768 0.0040283652506900858 1
gene 3 2717 2493 0.40051944712201099 0 26811 0.40051944712201099 1
gene 2 1981 673 -0.80547459251502274 0 26936 -0.80547459251502274 1
gene 2 732 433 -0.26672149927668348 0 26994 -0.26672149927668348 1
gene 2 2964 2060 0.11870208690813841 0 27034 0.11870208690813841 1
gene 2 317 2435 -0.48947563929924542 0 27155 -0.48947563929924542 1
gene 3 317 3190 -0.51895184094037461 0 27267 -0.51895184094037461 1
gene 3 3190 2493 0.80776665886294419 0 27268 0.80776665886294419 1
gene 1 796 2435 -0.61647590068936164 0 27340 -0.61647590068936164 1
gene 1 3057 2435 -0.41517711939065582 0 27547 -0.41517711939065582 1
gene 1 2543 433 -0.3746650732935709 0 27612 -0.3746650732935709 1
gene 3 397 113 -0.52806551895479925 0 27705 -0.52806551895479925 1
gene 2 521 3247 -0.44982668103176482 0 27759 -0.44982668103176482 1
gene 2 3247 1792 -0.10831131581604075 0 27760 -0.10831131581604075 1
gene 1 2764 2364 -0.78982283980111712 0 27975 -0.78982283980111712 1
gene 1 2493 44 0.03850385595043368 0 28008 0.03850385595043368 1
gene 3 1981 2125 0.16167349771674419 0 28182 0.16167349771674419 1
gene 3 3190 1365 0.0044487649595591483 0 28235 0.0044487649595591483 1
gene 3 2543 2717 1.165062212694931 1 28310 1.165062212694931 1
gene 3 1984 3317 0.19329546261266595 1 28346 0.19329546261266595 1
gene 3 3317 1984 -0.27132665401852069 0 28347 -0.27132665401852069 1
gene 2 44 1365 0.12064477946639283 0 28373 0.12064477946639283 1
gene 3 1792 1815 0.66937379220937088 1 28669 0.66937379220937088 1
gene 1 3053 397 -0.084135320542443229 0 28686 -0.084135320542443229 1
gene 2 856 1792 -0.13135302631713125 0 28970 -0.13135302631713125 1
gene 3 188 188 -0.41829213193538234 1 28976 -0.41829213193538234 1
gene 2 188 1981 0.53470653017736347 0 29024 0.53470653017736347 1
gene 2 764 3411 -0.15715240135656317 0 29072 -0.15715240135656317 1
gene 2 3411 1792 -0.43714637562499675 0 29073 -0.43714637562499675 1
gene 1 1780 3423 0.75897225400385082 0 29162 0.75897225400385082 1
gene 1 3423 2764 -0.68968008770126865 0 29163 -0.68968008770126865 1
gene 2 186 3053 0.18960855444409352 0 29236 0.18960855444409352 1
gene 2 1780 3437 0.49001103546005254 0 29298 0.49001103546005254 1
gene 2 3437 22 0.62017813703053548 0 29299 0.62017813703053548 1
gene 3 2279 1718 -0.80910132420673109 0 29305 -0.80910132420673109 1
gene 2 2035 523 0.40520147648882188 0 29507 0.40520147648882188 1
gene 3 186 3471 0.51223776140820132 0 29559 0.51223776140820132 1
gene 3 3471 44 -0.32094382020688794 0 29560 -0.32094382020688794 1
gene 1 3423 44 -0.48317147022260887 0 29666 -0.48317147022260887 1
gene 3 2964 2107 -0.52414632193937272 0 29687 -0.52414632193937272 1
gene 2 3437 2764 0.56709517332124304 0 29726 0.56709517332124304 1
gene 2 638 3503 0.48646966949406528 1 29828 0.48646966949406528 1
gene 2 3503 638 -0.84400404144264951 0 29829 -0.84400404144264951 1
gene 3 329 732 0.89947468200674041 0 29836 0.89947468200674041 1
gene 3 2543 2543 0.48589588654502097 1 29855 0.48589588654502097 1
gene 1 9 2029 -0.19379817633600821 1 29961 -0.19379817633600821 1
gene 1 638 521 -0.032931568116383425 0 29982 -0.032931568116383425 1
gene 1 2060 3471 -0.47995993005109949 0 30074 -0.47995993005109949 1
gene 1 2517 1493 1.0420083694821263 0 30078 1.0420083694821263 1
gene 1 205 3549 0.50597929279598375 0 30169 0.50597929279598375 1
gene 1 3549 1365 -0.53932189733689739 0 30170 -0.53932189733689739 1
gene 3 22 653 0.25540843967134524 0 30197 0.25540843967134524 1
gene 2 2279 2279 0.82329009348679794 1 30246 0.82329009348679794 1
gene 2 2107 521 0.38957520126811007 0 30316 0.38957520126811007 1
gene 1 3190 3 -0.25774894224374967 0 30430 -0.25774894224374967 1
gene 1 1551 673 -0.13838302746339842 0 30523 -0.13838302746339842 1
gene 1 1554 3588 -0.13747938193263456 0 30542 -0.13747938193263456 1
gene 1 3588 317 -0.12294354528325779 0 30543 -0.12294354528325779 1
gene 1 673 1780 -1.19687780118402 0 30620 -1.19687780118402 1
gene 3 188 3605 -0.13097958179702032 0 30664 -0.13097958179702032 1
gene 3 3605 653 0.098777486988705338 0 30665 0.098777486988705338 1
gene 2 113 2841 0.4318978662751139 0 30761 0.4318978662751139 1
gene 1 3588 397 0.69039212269261108 0 30817 0.69039212269261108 1
gene 1 653 2107 -0.64065514488176212 0 30849 -0.64065514488176212 1
gene 2 3423 44 0.58663141521934015 1 31004 0.58663141521934015 1
gene 1 433 2060 -0.67304128276791486 0 31014 -0.67304128276791486 1
gene 1 433 2710 1.0289393291012101 0 31148 1.0289393291012101 1
genomeend 25
