genomestart 1
trait 1 0.537938 0.649013 0.156353 0.645442 0.809861 0.860568 1 0.641627 
trait 2 0.95829 0 0.208026 0.926927 0.968817 1 0 0 
trait 3 0.106458 0.308096 0.80398 0 0.910379 0.0664492 0 0.968465 
node 1 3 1 3
node 2 3 1 1
node 3 2 1 1
node 4 2 1 1
node 5 1 1 1
node 6 2 1 1
node 7 1 1 1
node 8 3 1 1
node 9 2 1 1
node 10 3 1 1
node 11 1 1 1
node 12 1 1 1
node 13 3 1 1
node 14 2 1 1
node 15 3 0 2
node 16 3 0 2
node 30 3 0 0
node 101 1 0 0
node 127 3 0 0
node 130 1 0 0
nodegru 222 0 0.0071408 -0.181831 0.66805 -2.54275 0.522397 -0.00363854 [ -0.277711 0.96884 ] [ -0.47129 -0.651489 ] [ -0.00635256 -1.52181 ]
node 232 1 0 0
node 282 1 0 0
nodegru 300 0 2.01641 -1.28325 -0.163125 0.472317 -1.32876 -0.0818179 [ 1.61117 0.764585 2.46971 0.0922441 1.54138 1.98798 0.186702 ] [ 0.502678 0.252565 1.56555 1.57083 0.65856 0.305562 1.90814 ] [ 0.00174304 1.03062 0.539884 0.599353 -0.518607 2.34117 1.65362 ]
nodegru 302 0 2.20287 -0.159959 -0.183517 -0.967829 -1.59337 2.23916 [ 0.138382 0.44601 0.507066 ] [ -0.88339 1.72824 0 ] [ -1.4765 0.360376 -0.367001 ]
node 305 2 0 0
nodegru 395 0 -1.16701 0.90096 1.12168 -1.19114 -1.50861 0.0623313 [ 0.646948 0.635603 0.519585 0.528093 -0.451943 0 0.166692 0 ] [ 1.17676 0.00545175 -0.695727 0 0 0.183418 0 0 ] [ 0.220511 -0.259477 -0.501402 1.10052 0 0 0 0 ]
node 413 3 0 0
node 418 1 0 0
nodegru 459 0 0 0.27123 -1.53472 -0.312843 -1.26493 -0.907032 [ -0.305372 0 0 0 0 0 ] [ -1.01665 0 0 0 0 0 ] [ -0.583628 0 0 0 0 0 ]
node 539 1 0 0
node 600 1 0 0
node 634 1 0 0
nodegru 659 0 -1.5565 1.35041 -0.907924 -0.521081 -0.799192 -2.20494 [ -0.601578 -0.965305 -0.114028 -0.745871 0.668224 ] [ 0.292085 1.24925 -0.134493 0.449665 -0.309789 ] [ -0.966013 0.213857 0.335568 0 0 ]
nodegru 665 0 -1.16089 2.19144 -0.424794 -1.21835 2.42155 -0.393683 [ -2.63005 -1.84155 -0.0996227 -0.0435025 0.871184 ] [ -0.0310281 -0.538148 0.392907 -0.536707 -0.407408 ] [ -0.135135 0.191585 -0.769444 0.401153 -0.0569995 ]
node 722 1 0 0
nodegru 735 0 -0.873086 0.594653 0.427456 0.963298 2.37948 0.533289 [ 0.303216 -1.2176 ] [ 0.642604 -0.324729 ] [ 0.304029 -0.303376 ]
nodegru 740 0 0.462964 0.338448 0.444716 -0.559847 0.559694 -0.396322 [ -1.35961 -0.457993 0 ] [ 0.151287 0 0 ] [ -0.337952 0.681993 0 ]
nodegru 777 0 -0.117451 -1.17589 1.95781 -0.540437 -1.34771 -0.312613 [ 0.926163 0.111746 0.55377 -0.43501 0 ] [ 0.625468 -0.696558 0.785723 0.103815 -0.603738 ] [ -0.283882 0.381931 0 0.0759931 -0.479341 ]
nodegru 830 0 0.51593 -0.592604 -0.164802 0.88592 -0.628214 -0.425067 [ -1.35014 -0.265535 0 ] [ 0.500196 -0.858086 0 ] [ -1.61306 -0.915562 0.522718 ]
nodegru 831 0 -0.515331 0.406135 0.0394476 0.706601 -0.594756 0.277554 [ 0.195534 0 ] [ 0.634701 0.210182 ] [ -1.14588 -0.373433 ]
nodegru 923 0 0.646923 -0.568519 -0.0438063 -0.211308 0.821696 1.28856 [ 1.12078 0 0 ] [ -1.34359 0 0 ] [ -0.128798 0 0 ]
node 931 3 0 0
node 1036 1 0 0
nodegru 1259 0 1.04333 -0.102892 0.0549492 0.686061 -0.224748 -0.0290029 [ 0.056637 ] [ 1.09237 ] [ 0.727134 ]
nodegru 1324 0 0.314386 -0.184634 1.24282 0.415178 -0.0453413 -0.73697 [ -1.27844 ] [ -0.165923 ] [ 0 ]
nodegru 1337 0 1.2652 0.697941 0.958724 0.328174 -0.975674 -0.865669 [ -1.20342 0 ] [ 0.65586 0 ] [ -0.679847 0 ]
node 1459 1 0 0
node 1473 1 0 0
nodegru 1565 0 -0.413448 -0.159043 -0.0545821 0.502054 -0.0513547 0.960831 [ -0.369564 ] [ 0.42043 ] [ -0.831542 ]
node 1567 1 0 0
nodegru 1581 0 0 0 0 0 0 0 [ 0 ] [ 0 ] [ 0 ]
node 1832 1 0 0
node 1856 1 0 0
nodegru 2032 0 0 0 0 0 0 0 [ 0 ] [ 0 ] [ 0 ]
node 2098 1 0 0
nodegru 2155 0 0 0 0 0 0 0 [ 0 ] [ 0 ] [ 0 ]
nodegru 2160 0 0 0 0 0 0 0 [ 0 ] [ 0 ] [ 0 ]
gene 2 1 15 -2.40858 0 1 -2.40858 0
gene 1 2 15 1.62225 0 2 1.62225 1
gene 1 3 15 -4.44588 0 3 -4.44588 1
gene 1 4 15 -4.01052 0 4 -4.01052 0
gene 2 5 15 -6.76937 0 5 -6.76937 1
gene 1 6 15 5.99843 0 6 5.99843 1
gene 3 7 15 -0.806407 0 7 -0.806407 1
gene 1 8 15 1.15772 0 8 1.15772 1
gene 1 9 15 -1.52033 0 9 -1.52033 1
gene 1 10 15 -0.525884 0 10 -0.525884 0
gene 3 11 15 2.20389 0 11 2.20389 1
gene 2 12 15 -3.06628 0 12 -3.06628 1
gene 3 13 15 -2.38102 0 13 -2.38102 1
gene 2 14 15 -5.89613 0 14 -5.89613 1
gene 3 1 16 0.622143 0 15 0.622143 1
gene 3 2 16 1.42146 0 16 1.42146 1
gene 1 3 16 3.78625 0 17 3.78625 1
gene 3 4 16 0.137494 0 18 0.137494 0
gene 2 5 16 3.5896 0 19 3.5896 1
gene 3 6 16 5.26496 0 20 5.26496 1
gene 3 7 16 -0.0888395 0 21 -0.0888395 1
gene 1 8 16 -0.61383 0 22 -0.61383 1
gene 1 9 16 0.354707 0 23 0.354707 0
gene 3 10 16 -2.48788 0 24 -2.48788 1
gene 1 11 16 -2.79166 0 25 -2.79166 0
gene 2 12 16 7.46681 0 26 7.46681 1
gene 1 13 16 2.67862 0 27 2.67862 1
gene 1 14 16 6.20978 0 28 6.20978 1
gene 1 2 30 4.21551 0 74 4.21551 1
gene 1 30 15 2.48605 0 75 2.48605 0
gene 1 3 30 1.59655 0 90 1.59655 1
gene 3 30 30 2.0909 1 186 2.0909 1
gene 3 14 30 -5.30096 0 233 -5.30096 0
gene 2 13 30 4.26374 0 244 4.26374 1
gene 1 8 30 1.64744 0 299 1.64744 0
gene 2 4 30 2.61987 0 350 2.61987 0
gene 1 1 30 5.25843 0 486 5.25843 1
gene 3 16 16 -4.96712 1 506 -4.96712 1
gene 2 6 30 0.379708 0 605 0.379708 0
gene 2 3 101 1.76409 0 618 1.76409 0
gene 2 101 16 4.92723 0 619 4.92723 1
gene 3 10 101 5.14515 0 647 5.14515 1
gene 1 30 127 -2.76586 0 804 -2.76586 0
gene 1 127 15 -1.28301 0 805 -1.28301 0
gene 1 4 130 -0.721542 0 822 -0.721542 0
gene 1 130 15 1.94711 0 823 1.94711 1
gene 1 130 130 1.42957 1 867 1.42957 0
gene 1 4 101 -1.9664 0 884 -1.9664 1
gene 2 127 30 -0.262185 1 1060 -0.262185 0
gene 2 5 130 1.31422 0 1127 1.31422 1
gene 2 1 127 -0.808175 0 1241 -0.808175 1
gene 2 7 30 -2.31436 0 1292 -2.31436 1
gene 2 127 130 -2.19482 0 1457 -2.19482 0
gene 2 8 222 -0.367448 0 1493 -0.367448 1
gene 1 222 30 2.21424 0 1494 2.21424 1
gene 3 15 15 2.46429 1 1514 2.46429 0
gene 3 15 232 -1.86081 1 1556 -1.86081 1
gene 3 232 15 -1.97466 0 1557 -1.97466 1
gene 2 5 101 -2.05303 0 1699 -2.05303 1
gene 1 222 101 7.79506 0 1825 7.79506 1
gene 1 232 130 -5.53559 0 1850 -5.53559 1
gene 3 9 30 -3.74607 0 1900 -3.74607 0
gene 1 11 282 -1.30872 0 1968 -1.30872 1
gene 2 282 16 1.79037 0 1969 1.79037 1
gene 1 6 222 3.65297 0 2053 3.65297 1
gene 3 11 300 2.08274 0 2102 2.08274 0
gene 2 300 15 -0.275403 0 2103 -0.275403 1
gene 3 11 302 3.3278 0 2121 3.3278 1
gene 3 302 300 1.33063 0 2122 1.33063 0
gene 2 30 305 -4.53719 0 2139 -4.53719 0
gene 1 305 127 -0.0511887 0 2140 -0.0511887 1
gene 3 300 232 0.766605 0 2178 0.766605 1
gene 1 2 282 4.34793 0 2197 4.34793 1
gene 3 127 282 2.66757 0 2204 2.66757 1
gene 2 6 130 -3.67492 0 2222 -3.67492 1
gene 1 282 282 3.36017 1 2291 3.36017 1
gene 3 13 300 -4.12122 0 2317 -4.12122 1
gene 2 130 101 -3.55573 0 2398 -3.55573 1
gene 2 8 127 3.32128 0 2477 3.32128 1
gene 3 101 101 2.23249 1 2498 2.23249 1
gene 3 302 395 -2.69153 0 2733 -2.69153 0
gene 3 395 300 -0.54567 0 2734 -0.54567 1
gene 2 222 300 -0.024997 0 2848 -0.024997 0
gene 1 127 127 0.418724 1 2880 0.418724 1
gene 3 9 413 0.961079 0 2890 0.961079 1
gene 3 413 30 1.00573 0 2891 1.00573 1
gene 3 222 232 -2.69915 0 2921 -2.69915 1
gene 1 10 418 4.7497 0 2932 4.7497 1
gene 1 418 15 3.76625 0 2933 3.76625 1
gene 2 413 413 -1.99489 1 2994 -1.99489 0
gene 3 7 459 0.910386 0 3186 0.910386 0
gene 3 459 15 -6.61337 0 3187 -6.61337 1
gene 2 413 101 3.75243 0 3195 3.75243 0
gene 2 282 15 -1.09372 0 3476 -1.09372 1
gene 3 418 413 2.0375 0 3639 2.0375 1
gene 2 413 539 -0.699871 0 3764 -0.699871 1
gene 2 539 101 -1.45487 0 3765 -1.45487 1
gene 2 14 232 0.967849 0 3970 0.967849 1
gene 2 459 418 8 0 3991 8 0
gene 1 2 127 -0.702691 0 4011 -0.702691 1
gene 3 302 600 2.35901 0 4150 2.35901 1
gene 3 600 395 0.182243 0 4151 0.182243 0
gene 3 232 395 0.267965 1 4229 0.267965 0
gene 3 459 101 -4.76686 0 4237 -4.76686 1
gene 1 413 127 0.830252 0 4262 0.830252 0
gene 1 600 600 -1.23439 1 4264 -1.23439 1
gene 2 222 634 0.91792 0 4363 0.91792 0
gene 2 634 300 -1.24889 0 4364 -1.24889 1
gene 2 600 634 4.67222 0 4449 4.67222 1
gene 1 4 659 1.14035 0 4544 1.14035 1
gene 1 659 130 2.71905 0 4545 2.71905 1
gene 2 222 665 0.638613 0 4596 0.638613 1
gene 2 665 634 -0.121908 0 4597 -0.121908 1
gene 3 413 634 -0.234917 0 4646 -0.234917 1
gene 3 3 232 1.52097 0 4717 1.52097 1
gene 2 634 302 0.369552 1 4937 0.369552 1
gene 2 459 722 0.545263 0 4947 0.545263 1
gene 2 722 418 3.23864 0 4948 3.23864 0
gene 1 8 735 -3.59334 0 5033 -3.59334 1
gene 1 735 15 -1.32484 0 5034 -1.32484 1
gene 2 735 232 0.451626 0 5060 0.451626 1
gene 2 127 740 -6.38771 0 5071 -6.38771 1
gene 2 740 130 1.45665 0 5072 1.45665 1
gene 1 413 777 -2.22406 0 5336 -2.22406 1
gene 1 777 127 2.54752 0 5337 2.54752 1
gene 2 539 539 1.32031 1 5407 1.32031 1
gene 3 395 305 5.39568 0 5418 5.39568 1
gene 3 7 830 6.18944 0 5745 6.18944 1
gene 3 830 459 -3.16163 0 5746 -3.16163 1
gene 3 600 831 -4.1979 0 5752 -4.1979 1
gene 3 831 395 -0.803189 0 5753 -0.803189 0
gene 1 5 305 -0.794102 0 5904 -0.794102 1
gene 3 12 130 -1.73054 0 5983 -1.73054 1
gene 2 232 300 0.396494 1 6056 0.396494 1
gene 1 830 665 2.16477 0 6236 2.16477 1
gene 2 418 735 -0.0654938 0 6279 -0.0654938 1
gene 3 722 459 -3.9169 1 6332 -3.9169 0
gene 1 127 923 -4.13036 0 6359 -4.13036 1
gene 1 923 15 -1.30408 0 6360 -1.30408 1
gene 3 305 665 -0.466714 0 6373 -0.466714 1
gene 2 722 931 -0.584074 1 6398 -0.584074 0
gene 3 931 459 1.14718 0 6399 1.14718 1
gene 2 931 418 -0.149 0 6567 -0.149 1
gene 2 459 413 -5.04268 0 6685 -5.04268 1
gene 1 2 130 -1.65732 0 6756 -1.65732 1
gene 1 3 130 -0.781052 0 6848 -0.781052 1
gene 1 665 232 0.173509 0 6896 0.173509 1
gene 2 14 101 -4.30067 0 7123 -4.30067 1
gene 1 130 1036 0.438756 1 7151 0.438756 1
gene 1 1036 130 -0.816928 0 7152 -0.816928 1
gene 1 13 418 2.63571 0 7597 2.63571 1
gene 3 1036 831 3.27077 0 7620 3.27077 1
gene 1 2 413 -0.0159866 0 7743 -0.0159866 0
gene 2 634 634 -0.796079 1 7835 -0.796079 1
gene 1 722 722 -2.73311 1 8081 -2.73311 1
gene 1 1 830 -2.70232 0 8106 -2.70232 1
gene 3 282 127 1.08072 1 8289 1.08072 1
gene 1 418 539 -1.0012 0 8376 -1.0012 0
gene 1 413 600 1.30246 0 8394 1.30246 1
gene 3 418 232 -1.92053 0 8410 -1.92053 1
gene 1 931 931 -1.30702 1 8421 -1.30702 1
gene 2 14 1036 1.35399 0 8539 1.35399 1
gene 3 300 282 -0.483053 0 8595 -0.483053 1
gene 2 302 1036 1.16577 0 8623 1.16577 1
gene 1 30 1259 -0.213959 0 8647 -0.213959 1
gene 1 1259 305 -1.49966 0 8648 -1.49966 1
gene 1 15 127 -1.12684 1 8722 -1.12684 1
gene 1 127 413 -2.46459 1 8760 -2.46459 1
gene 2 232 16 2.25979 0 8834 2.25979 1
gene 1 5 931 -2.81544 0 8960 -2.81544 1
gene 2 127 1324 -0.350553 1 9097 -0.350553 1
gene 1 1324 30 1.23996 0 9098 1.23996 1
gene 3 12 413 0.417567 0 9165 0.417567 1
gene 2 735 634 0.193143 0 9192 0.193143 1
gene 1 418 1337 0.111777 0 9202 0.111777 1
gene 1 1337 539 1.6501 0 9203 1.6501 1
gene 3 305 305 -0.301633 1 9297 -0.301633 1
gene 2 10 30 3.05206 0 9310 3.05206 1
gene 2 305 634 2.77749 0 9505 2.77749 1
gene 2 300 459 -0.0147319 1 9651 -0.0147319 1
gene 2 923 127 -1.34121 1 9778 -1.34121 1
gene 3 665 16 -4.19067 0 9783 -4.19067 1
gene 1 1259 600 0.210078 0 9888 0.210078 1
gene 3 831 1459 -2.35022 0 10150 -2.35022 1
gene 3 1459 395 1.10488 0 10151 1.10488 0
gene 1 395 15 1.27475 0 10218 1.27475 1
gene 2 413 1473 -0.370127 1 10259 -0.370127 0
gene 2 1473 413 1.15985 0 10260 1.15985 1
gene 3 222 305 -1.89199 0 10305 -1.89199 1
gene 2 1459 127 -0.471086 0 10316 -0.471086 1
gene 1 302 665 -0.363409 0 10612 -0.363409 1
gene 3 665 282 -0.0351291 0 10632 -0.0351291 1
gene 2 12 539 -2.56111 0 10774 -2.56111 1
gene 1 30 777 2.07314 0 10779 2.07314 1
gene 1 735 600 -0.507832 0 10789 -0.507832 1
gene 3 722 1565 0.811331 1 10829 0.811331 1
gene 3 1565 931 -0.705859 0 10830 -0.705859 0
gene 2 3 1567 -0.00775389 0 10838 -0.00775389 1
gene 2 1567 101 -0.526579 0 10839 -0.526579 1
gene 3 418 302 -0.886882 0 10913 -0.886882 1
gene 2 2 777 -0.315831 0 10919 -0.315831 1
gene 2 5 600 -1.95935 0 10935 -1.95935 1
gene 3 232 1581 0.0562926 1 10952 0.0562926 1
gene 3 1581 395 -0.116879 0 10953 -0.116879 1
gene 3 14 1567 -0.580898 0 11109 -0.580898 1
gene 1 127 539 -0.483156 0 11165 -0.483156 1
gene 1 1259 659 -0.048451 0 11181 -0.048451 1
gene 1 1567 305 -0.940569 0 11419 -0.940569 1
gene 1 12 1567 -0.302128 0 11512 -0.302128 1
gene 2 1036 1036 -0.3325 1 11558 -0.3325 0
gene 3 600 539 -1.09354 0 11688 -1.09354 1
gene 1 30 395 0.542502 0 11933 0.542502 1
gene 1 830 777 -1.63834 0 11957 -1.63834 1
gene 1 1036 282 0.0948714 0 12120 0.0948714 1
gene 3 722 634 -0.0456225 0 12384 -0.0456225 1
gene 3 931 722 1.26747 0 12426 1.26747 1
gene 1 418 665 1.37185 0 12528 1.37185 1
gene 3 459 1473 -0.827211 0 12532 -0.827211 1
gene 3 1337 305 -0.162674 0 12542 -0.162674 1
gene 3 101 740 0.624236 1 12654 0.624236 1
gene 3 777 1337 1.17813 0 12676 1.17813 1
gene 1 2 1832 0.599024 0 12710 0.599024 1
gene 1 1832 413 -0.257455 0 12711 -0.257455 1
gene 2 722 1856 1.12596 0 12864 1.12596 1
gene 2 1856 418 3.26227 0 12865 3.26227 1
gene 2 127 659 -0.334341 0 12888 -0.334341 1
gene 1 9 1856 0.805829 0 12904 0.805829 1
gene 2 1567 30 0.390144 0 13087 0.390144 1
gene 1 2 923 -0.591437 0 13119 -0.591437 1
gene 2 127 1459 0.235362 1 13323 0.235362 1
gene 3 600 459 -0.491541 1 13530 -0.491541 1
gene 2 1459 1459 -0.261969 1 13968 -0.261969 1
gene 2 659 923 -0.901885 0 14159 -0.901885 1
gene 1 10 1832 0.0859226 0 14191 0.0859226 1
gene 2 413 2032 1.54427 1 14280 1.54427 1
gene 2 2032 1473 -0.187549 0 14281 -0.187549 1
gene 2 413 232 0.242405 0 14356 0.242405 1
gene 1 14 539 -0.308861 0 14367 -0.308861 1
gene 3 831 16 -0.426185 0 14394 -0.426185 1
gene 1 1832 1832 -0.00958564 1 14499 -0.00958564 1
gene 3 395 931 0.512907 1 14651 0.512907 1
gene 3 665 659 0.536915 0 14682 0.536915 1
gene 3 30 740 -0.0169088 0 14683 -0.0169088 1
gene 1 8 282 0.513159 0 14718 0.513159 1
gene 3 1565 2098 0.407806 0 14756 0.407806 1
gene 3 2098 931 -0.133823 0 14757 -0.133823 1
gene 2 11 777 0.813342 0 14872 0.813342 1
gene 1 735 659 -0.222136 0 14884 -0.222136 1
gene 1 8 830 0.652357 0 15025 0.652357 1
gene 3 1459 2155 1 0 15086 0 1
gene 3 2155 395 1.10488 0 15087 0 1
gene 2 1036 2160 1 1 15101 0 1
gene 2 2160 1036 -0.3325 0 15102 0 1
genomeend 1
