genomestart 1
trait 1 0.949423 0.493788 0 0 1 1 0 0.222436 
trait 2 0.609433 0 0.00923579 0 0.00108336 0 0.42524 0.162897 
trait 3 0.71119 0.257537 0.289028 1 0 0 0 1 
node 1 3 1 3
node 2 2 1 1
node 3 1 0 2
node 4 3 0 2
node 15 1 0 0
nodegru 21 0 -1.2845470780900434 0.52836589144001056 0.09886836335010285 0.78743544816385769 -1.0793484941028748 0.37330206617401079 [ 0.29626539223653514 1.1419092310322025 -0.9760860963613196 1.6048898676433088 -0.50862713787175118 ] [ -0.76359213062729325 1.089726863237902 0.073771105415081195 0.14490233042505679 -1.5187107040633963 ] [ -1.8297909020119305 -0.22800626709498756 -0.89245607209971922 -1.4900343711441542 -0.12039150349814048 ]
node 22 1 0 0
node 26 2 0 0
nodegru 31 0 1.2747655134996236 0.14014504414058526 -0.46778574514565335 0.18791833226006399 2.319239071951825 -1.0932100208444568 [ -0.66842634005864454 -1.0545547076289332 -0.24555892927830986 ] [ -0.18819914534138477 0.24806550552512777 0.11135677719086258 ] [ -0.4600435190182382 0.16582651071521753 0.2393127201308089 ]
node 200 3 0 0
node 272 3 0 0
node 370 1 0 0
nodegru 486 0 0.247585685806156 0.24620984599283424 0.31910189675125383 0.16472459173049991 -0.11661495017661477 -0.27008376911752102 [ -0.86633296025280515 ] [ 0.3296096098281488 ] [ 0.16121140060071432 ]
gene 2 1 3 -0.35784220991555704 0 1 -0.35784220991555704 1
gene 1 2 3 -1.3758981695286456 0 2 -1.3758981695286456 1
gene 1 1 4 -0.36549698392185243 0 3 -0.36549698392185243 1
gene 2 2 4 -0.4292982467120971 0 4 -0.4292982467120971 0
gene 1 4 4 -0.30790193393263127 1 9 -0.30790193393263127 0
gene 2 2 15 -0.12899325211951193 0 41 -0.12899325211951193 0
gene 1 15 4 -0.63352161954786701 0 42 -0.63352161954786701 0
gene 1 15 21 -0.2266716194463296 0 57 -0.2266716194463296 0
gene 1 21 4 0.15749190498957963 0 58 0.15749190498957963 1
gene 1 15 22 0.79984002178527414 0 61 0.79984002178527414 1
gene 1 22 21 0.28503000353697217 0 62 0.28503000353697217 1
gene 1 2 26 0.14424141060758447 0 83 0.14424141060758447 1
gene 3 26 15 -0.35778915479676293 0 84 -0.35778915479676293 0
gene 1 2 31 -0.774308242497178 0 112 -0.774308242497178 1
gene 1 31 3 -2.5628309978930419 0 113 -2.5628309978930419 1
gene 3 22 4 0.32055223631698282 0 129 0.32055223631698282 1
gene 2 31 4 0.76831353514842382 0 193 0.76831353514842382 0
gene 1 1 31 -0.46335828558698217 0 261 -0.46335828558698217 1
gene 1 15 31 0.029735562405425742 0 479 0.029735562405425742 1
gene 1 2 21 -0.60068868221747151 0 780 -0.60068868221747151 1
gene 1 26 200 -0.0080358136948365799 0 954 -0.0080358136948365799 1
gene 1 200 15 -0.47596336061878286 0 955 -0.47596336061878286 0
gene 1 200 4 1.8279862694106939 0 986 1.8279862694106939 1
gene 1 31 21 0.10412026806926368 0 1241 0.10412026806926368 0
gene 1 31 272 -1.434989978761873 0 1274 -1.434989978761873 1
gene 1 272 21 0.26767455566100523 0 1275 0.26767455566100523 1
gene 2 21 3 -0.67653547724547591 0 1701 -0.67653547724547591 1
gene 1 200 370 0.44173785179934366 0 1727 0.44173785179934366 1
gene 3 370 15 0.5947295097143992 0 1728 0.5947295097143992 1
gene 3 1 26 0.4404804024102541 0 1885 0.4404804024102541 1
gene 2 1 200 -0.17351357320952862 0 1952 -0.17351357320952862 1
gene 1 4 486 0.037212363461597037 1 2252 0.037212363461597037 1
gene 1 486 4 0.24573534179745957 0 2253 0.24573534179745957 1
gene 1 26 4 0.41733217468361006 0 2465 0.41733217468361006 1
gene 1 1 22 0.3265238226514886 0 2698 0.3265238226514886 1
gene 2 486 370 -0.62684292771240835 0 2826 -0.62684292771240835 1
genomeend 1
