genomestart 1
trait 1 0 0.17712 0.689234 0.879514 0.545793 0.489857 0.749006 1 
trait 2 0 0 0 0 1 0.856614 0 0 
trait 3 0.327501 0 0.69151 0 0.815062 0.785939 0.634916 0.181054 
node 1 3 1 3
node 2 1 1 1
node 3 2 0 2
node 4 1 0 2
node 5 3 0 0
node 29 3 0 0
node 60 1 0 0
node 108 3 0 0
node 117 1 0 0
node 196 3 0 0
node 209 1 0 0
nodegru 246 0 -0.012662717379938238 -1.2720043390393279 -0.98914760397241808 -0.1625566308677926 -0.2705044873387108 0.033146875925896158 [ -0.59067631610235027 -0.69312758170679556 -0.97633842540734372 -0.28305247299515296 0 0 ] [ -0.15920445679649919 0.079983844226218681 0.32224520986072963 -0.20060651106788149 0 0 ] [ -0.22908551396293797 0.42015519315384103 1.0929739780691332 -0.31114786644985332 0 0 ]
node 294 1 0 0
node 320 1 0 0
node 334 3 0 0
nodegru 537 0 -0.69974996391672173 -0.86885418457391395 0.24625319789454958 -0.9481827127505944 -0.79847570476051222 0.29217537762232848 [ -0.20747661297557718 ] [ -0.29846850493851512 ] [ 0.7025295573764152 ]
nodegru 590 0 0.86720941256136153 0.097598104084654747 0.29719526171553662 -0.20936681665916326 -0.69740079282661938 0.56542258712715587 [ 0.45328969506234384 -0.077658295900401797 0.88122066570502744 ] [ -0.94595628368945639 -0.7148449726937548 0.10713288029987966 ] [ 0.011055174521661911 0.22073660847765236 0.35786746435699401 ]
node 646 2 0 0
nodegru 737 0 0.23274862055329076 0.96573860452777649 0.49019386362759099 0.038665986637895 -0.88022453867840789 0.24278204131069686 [ -0.57616360349401996 0 ] [ 0.47237620594556273 0.26734091423793738 ] [ -0.10313957166072885 0 ]
node 750 1 0 0
node 794 2 0 0
nodegru 824 0 0.050146983726949888 0.26820737671489242 0.063193760376048153 0.93112491114583085 -0.27122309537195743 0.15368377750445333 [ -0.22332522143764666 0 0 0 0 0 ] [ -0.32086909460875629 0 0 0 0 0 ] [ 0.28177172401071138 0 0 0 0 0 ]
node 928 1 0 0
node 1013 2 0 0
node 1049 2 0 0
node 1056 2 0 0
nodegru 1065 0 0.14320789447203647 0.35329394757435373 0.041839834089316325 -0.024545710545287341 0.020729702674192219 0.18492537163427353 [ -0.021439718791022765 0 ] [ 0.57964916274866518 0.48091987449718632 ] [ 0.10361327887681004 0.10853999485659413 ]
nodegru 1291 0 -1.2456375266172166 0.26319139905422523 0.16356218218037966 0.25103129737592828 -0.2543526826213825 0.089958454989808811 [ 0.61363240034022948 0.80523158833628117 ] [ -0.025619546894738221 0.83086836097336758 ] [ -1.756050034778216 0.12069953750851539 ]
node 1339 1 0 0
nodegru 1371 0 0.28401863821037987 0.038483485131749429 0.48624665824987306 0.22067942247757663 -0.60474700974521545 -0.14416839957431352 [ -0.51060891780564965 0.41849304010090094 0.16090684787412493 ] [ -0.14129635977619159 0.14492991852803622 -0.13731796510392708 ] [ -0.07885901633596934 0.04135700689691911 0 ]
nodegru 1767 0 -0.835808834683061 -1.5166848518497704 -2.0625917138823273 -0.31716314066069345 0.03815448635171842 0.033225183157820803 [ -0.78444140557406539 -0.098037415928224764 ] [ 0.7392664620369982 -0.59493297552453961 ] [ 0.072734533842995108 0.11555647040510386 ]
node 1841 1 0 0
node 1894 1 0 0
node 1997 2 0 0
node 2098 1 0 0
nodegru 2132 0 0.37814641063015281 1.0885280121995733 -0.65698380216815688 0.61187483817891908 -0.14482794219852793 -0.7499145698966061 [ 0.84699036453244747 -0.11689378047217326 ] [ -0.047397874550613561 0.26003442157992834 ] [ -0.67866497308884988 -0.0060707861585871936 ]
node 2310 1 0 0
nodegru 2409 0 0.8102409685078269 -0.46585125614230116 0.18431963407635671 0.18713836101216189 -0.14452190587507652 -0.22699270361428742 [ 0.011919505899734617 0.57129727190886492 ] [ -0.25997252751140509 -0.35636988578195211 ] [ 0.29403145159316779 0.36068060987660688 ]
nodegru 2682 0 0.18633282915052624 0.038557158568202125 0.78217599158276618 -0.32136664554540378 -0.48856279975202066 -0.22237816603033717 [ -1.3885234987309778 0.053968792340703647 ] [ -0.58134438124547916 -0.43033463015702306 ] [ -0.53836773081606615 -0.97337442728382284 ]
node 2960 1 0 0
nodegru 3014 0 0.49365500895942327 0.21687523797940242 0.06009781409990872 -0.029177283881780362 0.46701417582436194 0.83223860609915035 [ 0.075524095248209355 ] [ 0.33558230653199478 ] [ 0.35511012182343288 ]
node 3033 1 0 0
nodegru 3142 0 -0.16437662610056647 0.44253156494467127 -0.090810377425891514 0.2767636069454083 -0.19969159420565311 0.098538267704908866 [ 0.61143401293616462 0.53248855473123891 ] [ -0.032261996545019558 -0.49569123144992217 ] [ -0.41739591789310604 -0.70905019259501723 ]
nodegru 3170 0 0.21013617851312094 0 0.45842167290785429 0.45065195506934635 0 -0.1897689235349041 [ -0.25535936875052723 ] [ -0.19226549644594337 ] [ -0.19954820056424857 ]
node 3527 1 0 0
node 3534 2 0 0
nodegru 3590 0 -0.23038991085737476 -0.26665239234764709 -0.2618228209958518 -0.1235044203342425 0.38803866151163297 -0.012454702059018774 [ -0.34589868916473293 ] [ 0.1394341649205583 ] [ -0.15538684518792986 ]
node 3623 1 0 0
node 3641 3 0 0
nodegru 3674 0 -0.97993957622905237 0.23743478080138322 0.79046311731937491 0.18589385910234127 0 0.42759676739927233 [ 0.36659803840638977 ] [ -0.31747776680508527 ] [ -0.32074715677683574 ]
node 3738 3 0 0
nodegru 3770 0 0 -0.043327593031957559 0 0.046374809018510772 0 0 [ 0 0 ] [ 0 0 ] [ 0 0 ]
node 3796 1 0 0
node 3823 1 0 0
node 3850 1 0 0
node 3927 2 0 0
node 4169 1 0 0
nodegru 4195 0 0 -0.24211687023850012 -0.37852088496020103 -0.32029785440317254 0 -0.066850952602387853 [ 0 ] [ -0.041688616406958839 ] [ 0 ]
nodegru 4261 0 -0.16315257743147787 0.13520577602796527 0.40181079991246144 -0.06884555009605621 0.39087311964988386 0.55891284675286756 [ 0.43681747207269883 ] [ 0.27075712162570892 ] [ 0.26121319050957131 ]
nodegru 4295 0 0.33034162005891166 0.43878280834238176 0 0.36744127206850857 0 0 [ 0 ] [ 0 ] [ -0.035118758461959082 ]
nodegru 4430 0 0 0.061743746307559196 0 0 -0.10126093127823478 0 [ 0 0 ] [ 0 -0.2227879442380685 ] [ 0 0.17213760370953829 ]
nodegru 4432 0 0 0 0 0 0 0 [ 0 0 ] [ 0 0 ] [ 0 0 ]
node 4477 1 0 0
nodegru 4548 0 0 -0.038321222662143939 0.57484300135394695 -0.21354214554351855 -0.017163461082225415 0.0033245983083381309 [ -0.11463694070216125 ] [ -0.32586483137023858 ] [ 0 ]
node 4646 1 0 0
nodegru 4667 0 0 0 0 0 0 0 [ 0 ] [ 0 ] [ 0 ]
nodegru 4670 0 0 0 0 0 0 0 [ 0 ] [ 0 ] [ 0 ]
nodegru 4677 0 0 0 0 0 0 0 [ 0 ] [ 0 ] [ 0 ]
node 4679 1 0 0
nodegru 4681 0 0.019649606207222496 0.42905340386976182 0 0.53699125327961117 0.015924071434849908 0.51783918497052006 [ 0 ] [ -0.13235355570556295 ] [ -0.48974723345122639 ]
nodegru 4804 0 0 0 0 0 0 0 [ 0 ] [ 0 ] [ 0 ]
gene 1 1 3 0.26778754650977793 0 1 0.26778754650977793 1
gene 1 2 3 -0.0055154459576660098 0 2 -0.0055154459576660098 0
gene 1 1 4 0.18705655875944371 0 3 0.18705655875944371 1
gene 3 2 4 0.56257967467539927 0 4 0.56257967467539927 1
gene 1 2 5 0.88460454292809809 0 5 0.88460454292809809 0
gene 1 5 3 -0.89766461001600351 0 6 -0.89766461001600351 0
gene 2 1 5 -0.30505010127325077 0 13 -0.30505010127325077 1
gene 2 5 29 -1.2260407794853863 0 108 -1.2260407794853863 0
gene 1 29 3 -0.53230455356291706 0 109 -0.53230455356291706 0
gene 1 1 29 -0.51298906282195311 0 146 -0.51298906282195311 1
gene 3 2 29 -0.0012317996012194965 0 164 -0.0012317996012194965 0
gene 2 5 60 0.42744889106948342 0 264 0.42744889106948342 0
gene 1 60 29 0.60853067394743243 0 265 0.60853067394743243 1
gene 2 1 60 0.78031386890463228 0 355 0.78031386890463228 1
gene 2 2 60 -0.25649534131237078 0 438 -0.25649534131237078 1
gene 1 60 108 -0.79666513358087498 0 512 -0.79666513358087498 0
gene 2 108 29 -0.23375708550855381 0 513 -0.23375708550855381 0
gene 2 2 117 -0.32635513149497825 0 540 -0.32635513149497825 0
gene 1 117 29 -0.39322677389403188 0 541 -0.39322677389403188 1
gene 2 29 196 -2.0645125047604149 0 898 -2.0645125047604149 0
gene 2 196 3 0.95237302219140041 0 899 0.95237302219140041 0
gene 1 117 60 0.36937156499799884 0 938 0.36937156499799884 0
gene 1 2 209 -0.11838667659013843 0 964 -0.11838667659013843 1
gene 1 209 5 -0.029115824042407756 0 965 -0.029115824042407756 0
gene 3 209 246 -0.046728838256899663 0 1106 -0.046728838256899663 0
gene 1 246 5 0.49310453910990826 0 1107 0.49310453910990826 0
gene 1 117 108 1.1042027120032361 0 1116 1.1042027120032361 0
gene 1 209 108 -0.68459669765299025 0 1270 -0.68459669765299025 0
gene 2 60 294 -0.046147345819579133 0 1339 -0.046147345819579133 0
gene 3 294 108 0.53696590314477932 0 1340 0.53696590314477932 0
gene 1 117 209 0.059435264467930071 0 1483 0.059435264467930071 1
gene 3 108 320 -0.45993930984285625 0 1489 -0.45993930984285625 0
gene 3 320 29 -0.28793241585974227 0 1490 -0.28793241585974227 1
gene 3 2 334 0.044630554991136606 0 1549 0.044630554991136606 1
gene 3 334 117 0.55555674738975092 0 1550 0.55555674738975092 0
gene 2 117 320 0.17341494265637122 0 1821 0.17341494265637122 0
gene 2 196 334 -0.24771486094580714 1 1837 -0.24771486094580714 0
gene 1 108 196 0.20741233798089082 0 1917 0.20741233798089082 0
gene 3 196 4 0.89319406654368794 0 2113 0.89319406654368794 0
gene 2 196 537 0.56984456655096483 1 2591 0.56984456655096483 1
gene 1 537 334 -1.110639800369106 0 2592 -1.110639800369106 0
gene 3 246 60 -0.41810422456735014 0 2787 -0.41810422456735014 0
gene 3 117 590 0.32475786252168842 0 2891 0.32475786252168842 0
gene 3 590 60 2.967723873661702 0 2892 2.967723873661702 0
gene 1 117 5 -0.016160067644044762 0 3117 -0.016160067644044762 0
gene 2 209 209 -1.4415739737179007 1 3120 -1.4415739737179007 1
gene 3 108 646 -0.31557448106611824 0 3137 -0.31557448106611824 0
gene 3 646 320 -0.71441901531741903 0 3138 -0.71441901531741903 0
gene 3 2 737 0.41968556908875965 0 3604 0.41968556908875965 1
gene 3 737 334 -1.3591821230292236 0 3605 -1.3591821230292236 0
gene 1 334 750 -0.85434131457206863 0 3659 -0.85434131457206863 1
gene 2 750 117 0.37778328353435886 0 3660 0.37778328353435886 1
gene 3 646 794 0.40637710802554017 0 3878 0.40637710802554017 1
gene 2 794 320 0.014859942493429368 0 3879 0.014859942493429368 1
gene 2 196 824 -0.22498431672574221 0 4011 -0.22498431672574221 1
gene 2 824 3 -1.6779498682254692 0 4012 -1.6779498682254692 1
gene 3 590 29 1.8799703630525479 0 4092 1.8799703630525479 0
gene 3 209 60 -1.1914481516887658 0 4334 -1.1914481516887658 1
gene 1 209 928 0.25153276894778609 0 4544 0.25153276894778609 0
gene 1 928 108 0.30417792885758821 0 4545 0.30417792885758821 0
gene 3 590 646 0.21221060199300312 0 4599 0.21221060199300312 1
gene 3 1 117 0.38420860533798518 0 4808 0.38420860533798518 1
gene 3 590 1013 0.73268679447131557 0 4970 0.73268679447131557 1
gene 3 1013 60 -0.60682039433476542 0 4971 -0.60682039433476542 1
gene 2 117 3 -0.039823793824680098 0 4976 -0.039823793824680098 0
gene 2 537 1049 0.10345545043398416 0 5142 0.10345545043398416 1
gene 2 1049 334 0.32321129777618279 0 5143 0.32321129777618279 1
gene 1 5 1056 0.053668640346112045 0 5184 0.053668640346112045 1
gene 1 1056 60 -0.17276070158591528 0 5185 -0.17276070158591528 0
gene 3 737 117 -0.44561235650703884 0 5223 -0.44561235650703884 1
gene 3 196 1065 -0.67564136845788048 0 5232 -0.67564136845788048 1
gene 3 1065 4 0.42761574682202924 0 5233 0.42761574682202924 1
gene 3 108 5 0.29387776637164775 1 5261 0.29387776637164775 1
gene 1 117 1291 -0.55402785169613911 0 6434 -0.55402785169613911 1
gene 1 1291 5 -0.16184811092067888 0 6435 -0.16184811092067888 1
gene 1 117 1339 0.10175593830726853 0 6730 0.10175593830726853 1
gene 1 1339 108 1.1145873142474274 0 6731 1.1145873142474274 1
gene 2 108 1371 0.16018707615332078 0 6892 0.16018707615332078 1
gene 2 1371 196 0.64786183026054034 0 6893 0.64786183026054034 1
gene 1 209 1339 0.41877969955968652 0 7109 0.41877969955968652 1
gene 2 794 29 0.46461147231264577 0 7146 0.46461147231264577 0
gene 2 737 196 -1.8445984867143435 0 7292 -1.8445984867143435 1
gene 1 5 5 1.6268488315990419 1 7773 1.6268488315990419 0
gene 1 1 294 -1.630678018383066 0 7940 -1.630678018383066 1
gene 2 537 246 -1.2951644245978278 0 8448 -1.2951644245978278 0
gene 1 246 1767 -0.085782059508274347 0 8937 -0.085782059508274347 0
gene 3 1767 60 1.3877259694913988 0 8938 1.3877259694913988 1
gene 2 737 750 1.8790820543091196 0 9021 1.8790820543091196 0
gene 2 294 3 -0.047798152103926128 0 9216 -0.047798152103926128 1
gene 2 750 5 0.80045680832139077 0 9232 0.80045680832139077 0
gene 2 29 1841 -0.48943657520666561 0 9263 -0.48943657520666561 1
gene 2 1841 196 0.34941424352555267 0 9264 0.34941424352555267 0
gene 2 60 1894 0.59596850564515613 0 9539 0.59596850564515613 1
gene 3 1894 294 0.34269307802556692 0 9540 0.34269307802556692 0
gene 3 1894 1013 0.27100882691843847 1 9552 0.27100882691843847 1
gene 3 590 1056 -0.31875370969937822 0 9693 -0.31875370969937822 1
gene 1 794 794 1.0581564831352592 1 9916 1.0581564831352592 1
gene 3 794 1997 -0.23636906977573829 0 10075 -0.23636906977573829 1
gene 3 1997 29 -0.80466986857572098 0 10076 -0.80466986857572098 1
gene 1 537 108 -0.93394945023299636 0 10113 -0.93394945023299636 1
gene 2 1339 1339 0.64847203048340607 1 10285 0.64847203048340607 1
gene 2 537 1339 0.74764888256213102 0 10476 0.74764888256213102 0
gene 1 928 2098 0.2553648842756473 0 10591 0.2553648842756473 0
gene 1 2098 108 0.56634468797889759 0 10592 0.56634468797889759 1
gene 1 320 1841 0.045510594521421283 0 10632 0.045510594521421283 1
gene 2 117 2132 0.61228233301652701 0 10810 0.61228233301652701 1
gene 2 2132 320 1.5383377422291495 0 10811 1.5383377422291495 1
gene 1 246 1997 -0.24014810623607971 0 10867 -0.24014810623607971 1
gene 2 750 29 -0.86512099386431318 0 10949 -0.86512099386431318 0
gene 3 590 1371 0.13997191942295617 0 10999 0.13997191942295617 1
gene 3 1997 1997 0.27530076414127885 1 11350 0.27530076414127885 1
gene 3 1997 108 -0.13190860284115588 1 11493 -0.13190860284115588 1
gene 2 117 2310 -0.65505528387383338 0 11732 -0.65505528387383338 1
gene 2 2310 3 -0.23801400127728195 0 11733 -0.23801400127728195 1
gene 1 2310 794 1.3206403091645988 0 11821 1.3206403091645988 1
gene 2 537 2409 0.9779354894896668 0 12207 0.9779354894896668 1
gene 2 2409 246 -0.78313498794247172 0 12208 -0.78313498794247172 0
gene 3 1894 1894 -1.2824393200140631 1 12299 -1.2824393200140631 1
gene 3 590 928 0.35792622499071353 0 12317 0.35792622499071353 1
gene 2 1 1291 0.13867384970126401 0 12372 0.13867384970126401 1
gene 1 1291 590 0.19202845715546446 0 12383 0.19202845715546446 1
gene 2 1049 108 -0.28132969340371417 0 12700 -0.28132969340371417 0
gene 2 334 334 -0.18879058756343581 1 12723 -0.18879058756343581 1
gene 2 60 824 -1.2901880020695682 0 13105 -1.2901880020695682 0
gene 3 108 2682 0.027116146649753745 0 13638 0.027116146649753745 1
gene 3 2682 646 0.43677313878982005 0 13639 0.43677313878982005 1
gene 2 2409 1049 -0.1844561485035606 0 13648 -0.1844561485035606 1
gene 1 2 750 0.21043348927536679 0 13692 0.21043348927536679 0
gene 2 2310 2682 1.6898450223681727 0 13731 1.6898450223681727 1
gene 2 1997 928 -0.24337139574036529 1 13789 -0.24337139574036529 1
gene 1 5 1013 -0.30539057068777764 0 13946 -0.30539057068777764 0
gene 1 1 928 1.2787525848386589 0 14035 1.2787525848386589 1
gene 3 1291 29 0.22103119954514838 0 14105 0.22103119954514838 1
gene 2 1049 2960 -0.44053784638668309 0 15010 -0.44053784638668309 1
gene 2 2960 108 0.58326539354550899 0 15011 0.58326539354550899 1
gene 2 2 3014 -0.57951806372940451 0 15298 -0.57951806372940451 1
gene 2 3014 750 -0.42593096379466855 0 15299 -0.42593096379466855 1
gene 3 537 737 -0.37657317606572677 0 15408 -0.37657317606572677 1
gene 1 5 3033 0.064434006840192681 0 15419 0.064434006840192681 1
gene 1 3033 1013 -0.97475626714283425 0 15420 -0.97475626714283425 0
gene 3 3014 2409 -0.43881979186032893 0 15451 -0.43881979186032893 1
gene 3 246 3142 -0.21685608719329166 0 15976 -0.21685608719329166 1
gene 3 3142 1767 0.33884171295857135 0 15977 0.33884171295857135 1
gene 2 750 60 -0.092523863116523206 0 16080 -0.092523863116523206 1
gene 3 209 3170 -0.099473390308894863 0 16102 -0.099473390308894863 1
gene 2 3170 246 -0.99297632136986413 0 16103 -0.99297632136986413 1
gene 2 1 750 0.45845639517458925 0 16230 0.45845639517458925 1
gene 1 1013 1894 0.79265791121528384 0 16243 0.79265791121528384 1
gene 1 2098 1997 -0.2334588357403217 0 16362 -0.2334588357403217 1
gene 3 320 824 0.31053477214208558 0 16920 0.31053477214208558 0
gene 3 29 2960 0.13209090737257662 1 16929 0.13209090737257662 1
gene 3 590 3033 -0.23078642307351638 0 17036 -0.23078642307351638 1
gene 1 2 794 -0.11620686860578457 0 17193 -0.11620686860578457 1
gene 3 1013 294 -0.75489325251192474 0 17317 -0.75489325251192474 0
gene 2 196 1997 0.61954395618268476 0 17366 0.61954395618268476 1
gene 3 117 3527 0.75233340601079801 0 17953 0.75233340601079801 0
gene 3 3527 590 -0.39509504074002388 0 17954 -0.39509504074002388 1
gene 1 928 3534 -0.021191354618031233 0 17997 -0.021191354618031233 1
gene 1 3534 2098 -0.43648224297747118 0 17998 -0.43648224297747118 1
gene 1 3014 3527 -1.2235132461523233 0 18066 -1.2235132461523233 1
gene 3 117 3590 1.2646175733602687 0 18339 1.2646175733602687 1
gene 3 3590 3527 0.49042134382315972 0 18340 0.49042134382315972 1
gene 1 246 3623 -0.18398582385107215 0 18502 -0.18398582385107215 0
gene 1 3623 5 1.3128589795962256 0 18503 1.3128589795962256 0
gene 2 750 3641 0.39499748260481171 0 18591 0.39499748260481171 1
gene 2 3641 5 0.56051532438048868 0 18592 0.56051532438048868 1
gene 3 29 1065 -0.76614590560372264 0 18625 -0.76614590560372264 1
gene 2 2 3674 1.0770525359907432 0 18764 1.0770525359907432 1
gene 3 3674 29 -0.13802717585956079 0 18765 -0.13802717585956079 1
gene 1 646 2132 -0.45012916924903595 0 18833 -0.45012916924903595 1
gene 1 2960 1997 0.27670722956615834 0 18935 0.27670722956615834 1
gene 3 294 1371 -0.87804448342791042 0 19012 -0.87804448342791042 1
gene 3 590 3527 0.31498008073073813 1 19028 0.31498008073073813 1
gene 1 1056 3738 0.35309677098556275 0 19078 0.35309677098556275 1
gene 1 3738 60 -0.5511839490156546 0 19079 -0.5511839490156546 1
gene 3 1894 824 -0.50967004592980736 0 19109 -0.50967004592980736 1
gene 1 3623 3623 -1.0303836004018709 1 19207 -1.0303836004018709 1
gene 3 1013 3770 0.86465140612081226 0 19217 0.86465140612081226 1
gene 3 3770 294 -0.31425320977077503 0 19218 -0.31425320977077503 1
gene 2 1841 3796 0.6112045592680595 0 19372 0.6112045592680595 1
gene 2 3796 196 -0.26749720436869989 0 19373 -0.26749720436869989 1
gene 1 246 3033 -0.15937060614087181 0 19389 -0.15937060614087181 1
gene 1 2 320 0.74999758123885729 0 19423 0.74999758123885729 1
gene 2 537 3770 -0.4456156932029946 0 19434 -0.4456156932029946 1
gene 3 3142 60 0.34178280380637516 0 19527 0.34178280380637516 1
gene 3 590 3823 1.2197168160787397 0 19545 1.2197168160787397 1
gene 3 3823 29 2.1792317804318073 0 19546 2.1792317804318073 1
gene 3 1767 2310 0.29154890183897175 0 19635 0.29154890183897175 1
gene 1 246 3850 -0.017898482744534726 0 19698 -0.017898482744534726 1
gene 1 3850 3623 1.0625837408297618 0 19699 1.0625837408297618 1
gene 2 537 5 0.2785007852495186 0 19724 0.2785007852495186 1
gene 1 3738 3738 0.15973681498306658 1 19824 0.15973681498306658 1
gene 3 3527 3823 -0.31295894240632605 0 19830 -0.31295894240632605 0
gene 2 1894 928 0.29571759900810085 0 20013 0.29571759900810085 1
gene 1 3033 3927 1.5256947751742296 0 20053 1.5256947751742296 1
gene 3 3927 1013 0.49472654284663803 0 20054 0.49472654284663803 1
gene 3 334 1013 -0.050721747591496308 0 20063 -0.050721747591496308 0
gene 2 537 1056 -0.90646247328559992 0 20164 -0.90646247328559992 1
gene 2 3142 1013 0.49526007962192409 0 20180 0.49526007962192409 1
gene 3 3770 928 0.031784441802550245 0 20574 0.031784441802550245 1
gene 1 2409 320 -1.1573473921312707 0 20602 -1.1573473921312707 1
gene 3 2960 3142 0.32909792420877976 0 20743 0.32909792420877976 1
gene 3 2098 646 0.97096314978364995 0 20926 0.97096314978364995 1
gene 2 29 29 0.012304582638807876 1 21244 0.012304582638807876 1
gene 2 750 4169 0.35452808595938984 0 21376 0.35452808595938984 0
gene 2 4169 29 -0.52977788193606679 0 21377 -0.52977788193606679 1
gene 1 5 4195 1.2442370353938252 1 21508 1.2442370353938252 1
gene 1 4195 5 1.7473316249658033 0 21509 1.7473316249658033 1
gene 1 3590 1056 -0.37517238938024844 0 21625 -0.37517238938024844 0
gene 3 3527 4261 -0.24468947888570347 0 21845 -0.24468947888570347 1
gene 3 4261 3823 1.4718072817063925 0 21846 1.4718072817063925 1
gene 2 2409 4295 -0.11900118650822024 0 22025 -0.11900118650822024 1
gene 2 4295 246 -0.71440309924744216 0 22026 -0.71440309924744216 0
gene 1 1 646 0.49401387292612986 0 22030 0.49401387292612986 1
gene 3 2 294 -0.072887619758438132 0 22343 -0.072887619758438132 1
gene 2 60 4430 1.0327004273574336 0 22705 1.0327004273574336 0
gene 2 4430 824 -1.0564107543585872 0 22706 -1.0564107543585872 1
gene 2 60 4432 1.6002917017789053 0 22721 1.6002917017789053 1
gene 2 4432 4430 -0.44478441725707818 0 22722 -0.44478441725707818 1
gene 1 3623 4477 0.58062352686218155 0 22925 0.58062352686218155 1
gene 1 4477 5 1.4317829652837402 0 22926 1.4317829652837402 1
gene 2 537 3534 -0.7229698620377899 0 23082 -0.7229698620377899 1
gene 3 334 4548 1 0 23251 1 1
gene 3 4548 1013 0.15895247490096487 0 23252 0.15895247490096487 1
gene 3 3927 3927 -1.1298973635443939 1 23422 -1.1298973635443939 1
gene 2 3823 3927 -0.74252312758123651 0 23583 -0.74252312758123651 1
gene 3 2409 1056 -0.40224421974376046 0 23657 -0.40224421974376046 1
gene 1 209 4646 0.19685112670848665 0 23710 0.19685112670848665 1
gene 1 4646 928 -0.041817960814488075 0 23711 -0.041817960814488075 1
gene 3 320 4667 0.73508248442554969 0 23823 0.73508248442554969 1
gene 3 4667 824 -0.15633095249362805 0 23824 -0.15633095249362805 1
gene 2 750 4670 1 0 23835 1 1
gene 2 4670 4169 -0.18618911140886563 0 23836 -0.18618911140886563 1
gene 3 1894 4677 1.1629045315379765 0 23869 1.1629045315379765 1
gene 3 4677 294 0.33876321550401078 0 23870 0.33876321550401078 1
gene 2 4295 4679 1.0682932488006973 0 23875 1.0682932488006973 1
gene 2 4679 246 -0.79129868386839453 0 23876 -0.79129868386839453 1
gene 1 3590 4681 1.1812390208622623 0 23883 1.1812390208622623 1
gene 1 4681 1056 -0.42149593793856721 0 23884 -0.42149593793856721 1
gene 1 4646 1997 -0.27505414549962343 0 23905 -0.27505414549962343 1
gene 3 2409 4646 0.78910278472541961 0 23939 0.78910278472541961 1
gene 3 209 4432 -0.73676603088936121 0 24211 -0.73676603088936121 1
gene 2 1894 320 -0.62155595450734535 0 24334 -0.62155595450734535 1
gene 3 294 4804 1 0 24499 0 1
gene 3 4804 108 0.53696590314477932 0 24500 0 1
genomeend 1
