genomestart 1
trait 1 0.956976 0.822178 0.835057 1 0 0.61862 1 0 
trait 2 1 1 0.696587 0.525635 0.88021 0 0 0.194823 
trait 3 0.103173 0 0.901525 0 0.959004 0 0 0 
node 1 2 1 3
node 2 3 1 1
node 3 2 0 2
node 4 1 0 2
node 14 3 0 0
node 33 1 0 0
node 37 3 0 0
node 46 1 0 0
node 114 1 0 0
node 136 1 0 0
node 137 2 0 0
node 151 2 0 0
node 157 2 0 0
node 166 2 0 0
node 248 1 0 0
node 312 1 0 0
node 324 1 0 0
node 362 1 0 0
node 363 2 0 0
node 430 1 0 0
node 480 1 0 0
node 541 1 0 0
node 592 1 0 0
node 615 1 0 0
node 661 1 0 0
node 700 1 0 0
gene 2 1 3 -1.2094031319531626 0 1 -1.2094031319531626 1
gene 2 2 3 -0.082703209287814425 0 2 -0.082703209287814425 0
gene 2 1 4 -1.5950277762464378 0 3 -1.5950277762464378 1
gene 2 2 4 1.5533342880910888 0 4 1.5533342880910888 1
gene 2 2 14 0.0069827670263977572 0 43 0.0069827670263977572 0
gene 3 14 3 -0.10684024477696057 0 44 -0.10684024477696057 0
gene 3 1 14 0.083409718975149899 0 57 0.083409718975149899 1
gene 3 2 33 0.50216573244061591 0 153 0.50216573244061591 1
gene 2 33 14 0.096131779996739608 0 154 0.096131779996739608 1
gene 3 14 37 -0.31161452448536386 0 200 -0.31161452448536386 0
gene 3 37 3 -0.14605009050390222 0 201 -0.14605009050390222 0
gene 1 37 37 0.23686043929162456 1 240 0.23686043929162456 0
gene 2 37 46 -0.27277110227047052 0 265 -0.27277110227047052 1
gene 2 46 3 -0.46228268461408217 0 266 -0.46228268461408217 1
gene 3 33 4 -0.066294847319971248 0 274 -0.066294847319971248 0
gene 1 1 37 0.010949093620734818 0 327 0.010949093620734818 1
gene 1 4 4 -0.57387652926793153 1 345 -0.57387652926793153 0
gene 3 33 46 -0.30452089584643061 0 600 -0.30452089584643061 1
gene 3 46 4 -0.68104406734045808 0 614 -0.68104406734045808 1
gene 2 1 46 -0.23369217302356482 0 654 -0.23369217302356482 1
gene 2 14 14 0.27829045163387917 1 728 0.27829045163387917 0
gene 1 4 114 0.4301065432047968 1 738 0.4301065432047968 1
gene 2 114 4 -0.69880004865061496 0 739 -0.69880004865061496 1
gene 1 37 136 -0.030080536627248244 1 916 -0.030080536627248244 0
gene 1 136 37 -0.76197379769849305 0 917 -0.76197379769849305 1
gene 2 14 137 0.40089620924596497 1 924 0.40089620924596497 0
gene 1 137 14 0.58350156996562219 0 925 0.58350156996562219 0
gene 2 137 151 -0.74256663221985386 0 998 -0.74256663221985386 1
gene 2 151 14 -0.34169931632545725 0 999 -0.34169931632545725 1
gene 3 14 157 0.05549832412763421 0 1044 0.05549832412763421 0
gene 2 157 37 -0.096353170739651273 0 1045 -0.096353170739651273 1
gene 2 151 151 0.91261654180130769 1 1053 0.91261654180130769 1
gene 1 1 114 -0.12804196431676018 0 1071 -0.12804196431676018 1
gene 2 14 166 0.90201350017544524 0 1098 0.90201350017544524 1
gene 3 166 157 -1.4735698036260763 0 1099 -1.4735698036260763 1
gene 3 1 151 -0.1220809117062395 0 1534 -0.1220809117062395 1
gene 3 33 136 0.46024140969861366 0 1677 0.46024140969861366 1
gene 3 37 248 1.5605488305727713 1 1772 1.5605488305727713 1
gene 1 248 136 0.29470172887421292 0 1773 0.29470172887421292 1
gene 3 157 46 0.72834203402900233 0 1787 0.72834203402900233 0
gene 2 136 14 0.40660595423849577 0 2006 0.40660595423849577 0
gene 2 2 136 -0.49703192314926159 0 2068 -0.49703192314926159 0
gene 3 248 33 0.36744494078096235 0 2089 0.36744494078096235 0
gene 2 137 157 0.43702784526954763 0 2103 0.43702784526954763 1
gene 1 137 137 -0.52376777097758265 1 2295 -0.52376777097758265 1
gene 2 14 312 -0.79259142898609469 1 2319 -0.79259142898609469 0
gene 1 312 137 -0.37749697471852278 0 2320 -0.37749697471852278 0
gene 1 136 151 -0.21355159870048593 0 2335 -0.21355159870048593 0
gene 2 248 46 -0.22739313087770396 0 2388 -0.22739313087770396 1
gene 2 14 324 -0.028168529285196364 1 2412 -0.028168529285196364 1
gene 2 324 312 -0.27290649096151187 0 2413 -0.27290649096151187 0
gene 2 312 157 0.51552279503807563 0 2540 0.51552279503807563 1
gene 2 324 46 -0.4924054336698751 0 2608 -0.4924054336698751 1
gene 2 324 137 -0.032282546876130025 0 2722 -0.032282546876130025 1
gene 1 248 166 0.71208806764897337 0 2761 0.71208806764897337 1
gene 1 136 362 0.24531222122968743 0 2803 0.24531222122968743 1
gene 1 362 151 0.014730919857849772 0 2804 0.014730919857849772 1
gene 3 33 363 -0.6084494279271222 0 2822 -0.6084494279271222 1
gene 3 363 4 0.46234959944260756 0 2823 0.46234959944260756 1
gene 2 1 362 0.34137840584915985 0 3302 0.34137840584915985 1
gene 2 46 363 0.017667176908658488 0 3430 0.017667176908658488 1
gene 3 157 430 0.047539354324126315 0 3455 0.047539354324126315 1
gene 3 430 46 -0.094190587799153541 0 3456 -0.094190587799153541 1
gene 3 166 430 -0.13762515091226663 0 3579 -0.13762515091226663 1
gene 2 1 137 -0.3391072164937422 0 3682 -0.3391072164937422 1
gene 2 248 248 0.43098927192901693 1 3751 0.43098927192901693 1
gene 3 136 324 0.81123621753008868 0 3847 0.81123621753008868 0
gene 3 248 480 0.85887827135570283 0 3910 0.85887827135570283 1
gene 3 480 33 0.41793034873806423 0 3911 0.41793034873806423 1
gene 3 151 363 0.25825198542245287 0 4278 0.25825198542245287 1
gene 3 136 541 -1.2359396883919556 0 4385 -1.2359396883919556 1
gene 3 541 324 -0.5419338797414367 0 4386 -0.5419338797414367 1
gene 2 312 430 0.45478099652322979 0 4399 0.45478099652322979 1
gene 1 136 137 -0.27035573137474977 0 4417 -0.27035573137474977 1
gene 1 114 37 -0.50742566516037346 0 4442 -0.50742566516037346 1
gene 3 480 136 0.57957727815004867 0 4501 0.57957727815004867 1
gene 2 541 137 0.50914466684178672 0 4589 0.50914466684178672 0
gene 1 114 362 0.89718156256581727 0 4679 0.89718156256581727 1
gene 3 157 157 -0.019680999927074182 1 4804 -0.019680999927074182 0
gene 1 541 541 0.17294521963826626 1 4821 0.17294521963826626 1
gene 1 157 4 -0.42864082144975701 0 4834 -0.42864082144975701 1
gene 2 114 136 -0.44053261258664195 0 4860 -0.44053261258664195 1
gene 3 157 592 0.077968770907245938 1 4866 0.077968770907245938 1
gene 3 592 157 -0.2396497473770984 0 4867 -0.2396497473770984 1
gene 3 114 114 -0.46022225984382542 1 4952 -0.46022225984382542 1
gene 2 324 615 0.99043424799592894 0 5112 0.99043424799592894 1
gene 2 615 312 -0.11634625662879379 0 5113 -0.11634625662879379 1
gene 3 157 363 0.28417554068573542 0 5154 0.28417554068573542 1
gene 3 615 157 0.32791887564953365 0 5404 0.32791887564953365 1
gene 2 33 166 -0.46247877108979907 0 5439 -0.46247877108979907 1
gene 1 480 312 0.47414485457080641 0 5493 0.47414485457080641 1
gene 2 541 661 1.2033187817797617 0 5507 1.2033187817797617 1
gene 2 661 137 -0.91004001857249062 0 5508 -0.91004001857249062 1
gene 1 2 137 0.14992371208496569 0 5550 0.14992371208496569 1
gene 2 136 700 1.4721879188307505 0 5774 1.4721879188307505 1
gene 2 700 14 0.38777590467956657 0 5775 0.38777590467956657 1
gene 2 312 700 0.38300493843062078 0 5782 0.38300493843062078 1
genomeend 1
