genomestart 1
trait 1 0.771251 1 0.200239 0.584268 0 1 0 0.770716 
trait 2 1 0.454409 0.887773 1 0 0.234731 1 0.711727 
trait 3 0.894515 1 0 0.98304 0.832996 1 0.705246 0.539496 
node 1 1 1 3
node 2 2 1 1
node 3 1 0 2
node 4 1 0 2
nodegru 19 0 -1.6135728876635307 0.45373681162192336 0.38325121294858466 0.25030631700079253 0.42403225131520644 0.85382376557859763 [ -0.073523551958391234 -0.18784251515187439 -0.26137569954682871 0.72585231704909925 -0.13442856102922399 0 0.32721305374391985 ] [ -1.0023459875967102 1.0262526436831114 -0.39297310770162064 -0.43334466471958194 -0.34820030645849198 0 0.00084001966791228376 ] [ -0.11514382302534953 0.034460160198835743 0.1092238009950257 -0.24563058547006478 -0.43503801731161679 0 -0.31513550054055428 ]
nodegru 47 0 0.30545287733220161 1.3749832601169978 0.31827777033591537 0.8579431443279345 -0.039953147778265738 -0.91949029495915879 [ -0.35076929784881383 -0.13111593463975743 ] [ -0.66211375345574397 0.13421677990547237 ] [ 0.018997447341213669 -0.7401304013282668 ]
nodegru 125 0 0.22071779110502349 0.53357127543239447 -0.94298071481426282 0.46219339103540097 -0.10410979488124596 0.41795661832110798 [ -1.3344043806821126 -0.41988893524738446 -1.75342054863154 0.093301801985735899 -0.17568203326113616 -0.79590083765606434 0.11629029741338004 -0.41127068265866051 0.65869818751639597 0.042426694437128806 0.32371678590947611 0.0094721342946738635 0.084486726710799487 0 -0.13774605590745156 0 ] [ -0.56638791391923471 -0.66325613770785563 0.75599956035427729 0.038462884742050785 -0.093394984301829242 -0.56909150796434449 0.049240076937358879 0.53479163955654552 0.30389111247094869 -0.25270523468624112 -0.19890776774795157 0.72681860356909156 0.6399779103882508 0.8241742641311951 -0.075233733782187895 0 ] [ 0.45387144384620304 1.0163183687330775 0.41708618258921715 -0.63883224136141692 -2.1895957552779448 0.35308368450639938 -1.003775623861596 -0.010653724433227318 -0.66842797778939267 -0.33192020390737809 -0.34181671512397782 0.037973754591296316 -0.48851617960655885 0.0089568940498665761 0.25639682438056766 0 ]
nodegru 169 0 -0.49307191441444304 -1.4456586723428493 0.081633320814759158 0.60509033156795911 -0.87487575312837751 0.39645637217744084 [ -0.4177627965890629 0.81966610337592005 0.23201438469440414 0.040838043457287393 -0.289598324005305 0.03737097142141823 -0.48638744465372874 0.32508229921808574 0.020838637613150589 0.34048258924879254 0 0 ] [ 0.55791375835328993 -1.0051071336516677 -0.28377467034560377 -1.084582940947536 -0.22566994359980802 0.31952197678364908 0.20797132105006433 1.272163962606417 0.22561178087518169 0 0 -0.47642028190960189 ] [ 0.32506691213933153 1.1937933802575773 -0.27184442373544188 -0.29877758179734348 0.24388649512263322 -0.0044715520946642107 0.21695602299503802 0 0.47756992186306507 0.48603700799217309 -0.15328806110345203 0 ]
node 260 1 0 0
nodegru 305 0 0.21386120152373855 -0.72608274720892441 0.61734723701018268 0.40902340477752658 -0.31833807370548045 -0.67754766935368416 [ 0.3021741797226361 -0.14776805050101505 0.77631756070829827 0.44007695510055728 ] [ -0.026810669352677962 0.16756366690041669 0.32836945067549567 0.6766136117170628 ] [ 0.61233264399335374 0.16131983122849836 -0.11614885326295571 0.099908710736738848 ]
node 563 1 0 0
nodegru 584 0 -0.45819406442260091 -0.98724811686540415 0.36041664907728166 -0.66369385116905621 -0.00061755371308769291 0.4563780245168032 [ 0.22288720133848827 -0.47812539221631611 0.46214499252948216 0.26474494522658409 0.5238234505633933 0.82197553842420479 0.37344123696602938 0.24959515302888824 0.28677888227942344 ] [ 0.31702275565686766 0.63264344825066776 0.42050291081913876 1.2140766094504281 -1.4045130954610712 -0.0017061703846353582 0.12936870247561888 -1.3830292627136358 -0.21429051073002187 ] [ -0.88182372873733916 0.88392379851263192 -0.14800515032746137 0.48394237015579938 -0.68191525418400534 0.079627858744760915 -0.30362502918747486 0.022038911013882057 -0.43954937995390475 ]
node 715 1 0 0
nodegru 1084 0 -0.025216880499020627 0.17345980819010159 0.69308624635128602 -1.5501157171326299 -0.18482552035005087 0.31119666542447949 [ 0.56081403072961344 -0.45603085074388927 0.8126299904252543 -0.1805198484475351 -0.2901222378900844 ] [ -0.22319200459085031 0.047626860461955356 -1.2076620493119872 0.23779922711560469 -0.36193269927144645 ] [ -0.96239469571150593 0.13460893027233373 -0.059538384694391107 0.84656178850986141 0 ]
node 1103 3 0 0
node 1106 2 0 0
node 1197 3 0 0
nodegru 1229 0 0.64705330815494677 -0.48816875437654961 -0.94401910828613633 0.48376722237270664 0.067858473429390442 0.32151499871235106 [ 0.43801258501504203 ] [ -0.91289051129151622 ] [ 0.34773984474490388 ]
nodegru 1450 0 0.68848939411737464 0.03588425975101267 0.46990109745874131 -0.55049077470344054 0.22293880359406529 0.51734506735454544 [ -0.14469668136196986 0.21576765212964624 ] [ 0.634370039279745 0.57146465269451241 ] [ 0.79186429399618152 -0.47101361698983868 ]
node 1554 2 0 0
node 1569 3 0 0
nodegru 1579 0 -0.65074519936495701 -0.51353464415927175 -0.15677814495599743 0.11800934752356695 0.46029831723323944 -0.11945213103641389 [ -0.84938754716393894 -0.36510399326919762 ] [ -0.38921622251589605 0.30297009428170046 ] [ 0.16624665850133016 0.83300615839334491 ]
node 1649 1 0 0
node 1661 1 0 0
nodegru 1694 0 -0.42213583175192393 -1.1621099150097509 0.52230454423572148 -0.32436880135180834 0.25279447191990656 -0.93735342330176086 [ -0.31265155589797144 0 ] [ 0.35007874963343083 -0.3166889784935345 ] [ -0.33823419564321366 0.35407514537408724 ]
node 1916 1 0 0
node 1976 3 0 0
nodegru 2006 0 -0.44417069384091101 -1.1315446296388025 0.96251763052424311 -0.44136406315554122 0.36002605215647543 -0.92523092726489098 [ 0.17227565365483782 0.071793102227055039 ] [ -0.31356321196703391 -0.98970935143982497 ] [ 0.93728061087302883 -0.34752584032133493 ]
node 2093 1 0 0
node 2100 3 0 0
node 2150 1 0 0
nodegru 2216 0 -0.12351519783191157 -0.037143686105098425 0.154252019782668 -0.13955513650530724 -0.84442429726218049 0.22258344582402306 [ 0.44854883358280589 -0.14264038980130123 0 ] [ -0.77749375220271477 -0.16758364051002247 0 ] [ -0.29652625196451615 0.28962716659979298 0 ]
node 2310 3 0 0
nodegru 2332 0 1.1801867104043191 -0.64209493163139331 0.8701309910370647 0.40830244282647155 0.32019240843141095 0.056617969207753416 [ 0.19730671574236208 0.53244543961828827 ] [ 0.4242313580700342 -0.37870903586908666 ] [ 0.37921123480387553 0.11731830524155795 ]
nodegru 2357 0 -0.0013704781892571738 0.29562497548555255 -0.20304792290695381 -0.56062380343704676 -0.071153861037992816 0.1538436765101942 [ 0.0037367297353859408 -0.4823069455951019 ] [ 0.24744785402316966 -0.6191823089584626 ] [ -0.95880744161960096 0 ]
nodegru 2408 0 -0.31268008021296939 -0.5322770036441633 -0.2837482033221741 -0.15329835920282564 -0.36022312676544449 -0.28619096488048834 [ -0.028085586395154516 -0.48437498369457899 0 ] [ -0.91131943646414182 0.27753603704158963 0.18175781270570951 ] [ 0.54552371196706018 -1.2843785217424755 -0.1795068863683878 ]
nodegru 2482 0 0.53277470382525338 0.033057576060787575 -0.19307171818477648 0.23264860419214173 0.75493744143980435 -0.00054286816182680386 [ -0.10872112242911061 0.40841100314092404 0 ] [ 0.11533688340118942 -0.3605609500597049 0 ] [ 0.011960865003969923 -0.0082692946345868032 0 ]
nodegru 2511 0 0.76099725964525589 0.82271292145490327 -0.086438050766679486 -0.19968586820163103 0.53694508156596921 -0.23976795409795268 [ 0.39007925982125075 ] [ -0.16070205888743599 ] [ -0.17464601233352256 ]
nodegru 2621 0 0.35096045273866533 -0.58386265048005748 0.67807797048151408 0.4555431827695775 -0.38592551573455591 -0.15474329733044995 [ -0.9519843419324534 -0.34541609806260842 -1.0952743839450527 -0.64323237079346196 0 ] [ 0.92223617430880489 -0.53658380943191419 1.3000767490826903 -0.45918662867470955 -0.088181640761057681 ] [ 1.1117215145433887 0.10442949044724437 -0.48142464434794358 -0.42984353538129644 0 ]
nodegru 2623 0 -0.91116963415926766 -0.87389022967493646 -0.53603106133454992 0.16436009768599649 -0.38962993206904734 0.12387962132872998 [ -0.13578713575181883 ] [ 0.027459217946724603 ] [ 0.19234364325755446 ]
nodegru 2659 0 0 0 -0.24156824161371601 0 0 0 [ 0 0 ] [ 0.27810966492542516 0 ] [ 0 0 ]
node 2661 1 0 0
nodegru 2682 0 0.24918397085237501 -1.5489200074453464 0.18521248930376605 -0.64305727842406246 -0.32443504329977324 0.37718949973452348 [ -0.42728711591441515 0 ] [ -0.85174950810696437 0 ] [ 0.12249969952856174 0.54037386390397968 ]
node 2729 2 0 0
node 2762 2 0 0
nodegru 2934 0 0.51735103876206612 -0.75988725771190935 -1.3641298824754218 0.21601631549001499 -0.29804106862193014 0.54886411295685178 [ -0.59054520683854128 ] [ 0.65319325223248148 ] [ 1.0881000694763381 ]
node 2980 1 0 0
node 3058 3 0 0
nodegru 3125 0 -0.28179405107246436 0.0017384924002636654 0 -0.15929389589433274 -0.43634859679096777 0 [ 0 0 ] [ 0 0 ] [ 0 0 ]
node 3221 1 0 0
node 3276 1 0 0
node 3369 1 0 0
node 3408 1 0 0
nodegru 3524 0 0.091852681288427065 0.34461292477539412 1.108385685416118 -0.64652539796499786 0.14618431271341834 0.26366121404043452 [ -0.087460943771275196 ] [ -0.099586417246417369 ] [ -0.83832751905467706 ]
nodegru 3735 0 0 0.31472495259471467 0 0 0 0 [ 0 ] [ 0 ] [ 0 ]
node 3745 1 0 0
nodegru 3751 0 0.023108898207130329 0 0 -0.06830374992839236 0.098092548362022469 -0.18471026592175954 [ 0.10756035712899656 ] [ 0 ] [ 0 ]
nodegru 3763 0 -0.410800693980791 0.10924636321572884 -0.049580754269650529 0.26496189542345794 0.89116332046276114 -0.18888534730714066 [ 0.11582934442713361 0 ] [ 0.44165531752708143 0 ] [ 0.44979132872530786 0 ]
nodegru 3998 0 0.039994108742100236 -0.21698596664564029 -0.3739670758945714 0 -0.26495129138461843 -0.45831082689497193 [ 0.039984710533164776 ] [ 0 ] [ 0.29120732508190317 ]
nodegru 4086 0 0.40483368393258828 -0.343716506074982 0 -0.34731744245966778 -0.014406481531637944 -0.23629574046297733 [ -0.42501041475916768 ] [ 0 ] [ 0.2176744191523988 ]
nodegru 4107 0 0 0.076039068203437643 -0.22405945706370262 0 0.04308993138516784 0 [ 0.29821024197070406 ] [ 0 ] [ 0 ]
nodegru 4186 0 0 0 0 0 0 0 [ 0 ] [ 0 ] [ 0 ]
node 4189 1 0 0
nodegru 4216 0 0.38385266944945451 -0.048372454498136624 0.10858913027150051 -0.45507156451003233 0 -0.13219028391511656 [ 0.20172809446311002 ] [ 0 ] [ 0.17644168607724908 ]
nodegru 4301 0 0 0 0 0 0 0 [ 0 ] [ 0 ] [ 0 ]
nodegru 4485 0 0.056234679909532272 0 0.34653651963292459 -0.35288283524703368 -0.025445429852905418 0 [ 0 ] [ 0 ] [ 0.45501344905002666 ]
node 4504 1 0 0
nodegru 4679 0 0 0 0 0 0 0 [ 0 ] [ 0 ] [ 0 ]
node 4729 1 0 0
gene 2 1 3 -0.72509494620612602 0 1 -0.72509494620612602 1
gene 3 2 3 2.3424152922082766 0 2 2.3424152922082766 1
gene 1 1 4 -0.0096465919677385104 0 3 -0.0096465919677385104 1
gene 2 2 4 1.0146988586125425 0 4 1.0146988586125425 1
gene 3 2 19 -1.2000375579577114 0 48 -1.2000375579577114 1
gene 3 19 4 1.4312562769890094 0 49 1.4312562769890094 1
gene 3 1 19 0.01796918968575506 0 63 0.01796918968575506 1
gene 3 2 47 0.28698731855814685 0 154 0.28698731855814685 1
gene 1 47 19 0.81584037179864966 0 155 0.81584037179864966 1
gene 2 1 47 -0.0010027494286200533 0 171 -0.0010027494286200533 1
gene 2 19 3 1.0400962145254464 0 415 1.0400962145254464 1
gene 3 19 125 -2.0425974386942563 0 463 -2.0425974386942563 1
gene 1 125 4 -0.19412793949904295 0 464 -0.19412793949904295 0
gene 2 47 4 -0.20165537283832913 0 653 -0.20165537283832913 0
gene 2 2 169 0.13821599522522465 0 661 0.13821599522522465 0
gene 3 169 3 -0.15276526666840784 0 662 -0.15276526666840784 1
gene 2 47 260 -0.36299744451558102 0 1112 -0.36299744451558102 0
gene 3 260 19 -0.48864494333446257 0 1113 -0.48864494333446257 0
gene 3 4 4 0.87719753169324122 1 1126 0.87719753169324122 0
gene 1 1 169 0.61144806193720924 0 1246 0.61144806193720924 1
gene 2 47 305 -0.62279094831216653 0 1318 -0.62279094831216653 0
gene 3 305 260 -0.5122018705644652 0 1319 -0.5122018705644652 0
gene 1 1 260 -1.9715474925337118 0 1895 -1.9715474925337118 1
gene 1 169 125 0.77379030281388672 0 2112 0.77379030281388672 1
gene 2 260 3 -0.55849236555327308 0 2118 -0.55849236555327308 0
gene 2 305 3 -0.059832783210944707 0 2147 -0.059832783210944707 1
gene 1 47 3 2.9335973842225949 0 2332 2.9335973842225949 1
gene 2 19 169 -0.1242374496647331 0 2338 -0.1242374496647331 0
gene 1 2 125 0.34888275915239136 0 2347 0.34888275915239136 0
gene 2 47 125 -0.066760015239361675 0 2366 -0.066760015239361675 0
gene 3 305 19 -0.51440873649642271 0 2475 -0.51440873649642271 0
gene 2 2 563 0.41300936062494731 0 2479 0.41300936062494731 1
gene 2 563 169 0.36321857425534099 0 2480 0.36321857425534099 1
gene 2 1 125 -1.054783794821605 0 2558 -1.054783794821605 1
gene 1 125 584 -0.53137366312154266 0 2576 -0.53137366312154266 0
gene 1 584 4 -0.4371798210484813 0 2577 -0.4371798210484813 1
gene 3 2 305 -0.36103582911241605 0 2702 -0.36103582911241605 1
gene 3 2 260 0.16007701873782884 0 2781 0.16007701873782884 1
gene 2 260 305 -0.25904040842272358 0 2793 -0.25904040842272358 0
gene 1 169 584 0.10764364344423805 0 2795 0.10764364344423805 0
gene 2 563 563 -0.19600999504141978 1 2917 -0.19600999504141978 1
gene 3 47 715 1.132304722737663 0 3137 1.132304722737663 0
gene 2 715 4 0.3702941082279636 0 3138 0.3702941082279636 0
gene 1 1 715 -1.5951902911044613 0 3154 -1.5951902911044613 1
gene 2 3 3 0.045318285722899393 1 3648 0.045318285722899393 0
gene 1 563 260 0.32485909030067689 0 3650 0.32485909030067689 0
gene 2 563 584 0.4401763479412425 0 3831 0.4401763479412425 1
gene 1 563 125 0.8888299858145553 0 3842 0.8888299858145553 1
gene 2 715 563 -0.015571879695901592 0 4142 -0.015571879695901592 0
gene 3 47 169 -0.4370902571534227 0 4165 -0.4370902571534227 0
gene 2 2 715 0.13307631278088144 0 4697 0.13307631278088144 0
gene 2 19 584 0.33593240698610077 0 4737 0.33593240698610077 0
gene 3 715 260 0.29004477653188854 0 4742 0.29004477653188854 0
gene 3 260 169 -0.13698712044255207 0 4895 -0.13698712044255207 0
gene 2 3 1084 0.50464257062628992 1 4901 0.50464257062628992 0
gene 2 1084 3 2.3801490198262729 0 4902 2.3801490198262729 0
gene 1 47 1103 0.17646906742661683 0 4998 0.17646906742661683 1
gene 1 1103 169 -0.7926683941821886 0 4999 -0.7926683941821886 1
gene 1 47 1106 0.48977523506142906 0 5011 0.48977523506142906 1
gene 3 1106 715 0.32847811622939915 0 5012 0.32847811622939915 0
gene 1 715 125 0.30901591889980057 0 5442 0.30901591889980057 0
gene 1 1084 1197 -0.10983656328629549 0 5458 -0.10983656328629549 1
gene 2 1197 3 -0.26440376870539212 0 5459 -0.26440376870539212 1
gene 2 1 584 0.67238659978489701 0 5518 0.67238659978489701 1
gene 2 2 1229 0.36068697593206872 0 5630 0.36068697593206872 1
gene 2 1229 715 0.076325761422666616 0 5631 0.076325761422666616 1
gene 3 1 563 -1.2470640257220083 0 5713 -1.2470640257220083 1
gene 2 1 1103 0.55572966023149417 0 6405 0.55572966023149417 1
gene 3 1103 1197 0.42581961905854737 0 6612 0.42581961905854737 0
gene 1 715 1450 -0.14330161788654594 0 6727 -0.14330161788654594 1
gene 1 1450 125 -0.0099042996344642243 0 6728 -0.0099042996344642243 1
gene 1 1106 1103 0.23747297410735532 0 6977 0.23747297410735532 0
gene 1 1084 563 -0.010764596290311122 0 7227 -0.010764596290311122 0
gene 1 2 1554 -0.044469523729975036 0 7236 -0.044469523729975036 1
gene 1 1554 125 0.97831969940025343 0 7237 0.97831969940025343 0
gene 3 260 1569 1.8462085858202579 0 7330 1.8462085858202579 1
gene 2 1569 305 -0.025025818508596132 0 7331 -0.025025818508596132 1
gene 2 1197 169 0.44670637228838467 0 7346 0.44670637228838467 1
gene 3 715 1579 0.18313789609034442 0 7375 0.18313789609034442 1
gene 3 1579 260 0.44441537742708592 0 7376 0.44441537742708592 1
gene 2 1103 1084 -0.11168932454273539 0 7424 -0.11168932454273539 1
gene 1 563 1649 -0.37541653163517663 0 7698 -0.37541653163517663 1
gene 1 1649 260 0.44306280135319698 0 7699 0.44306280135319698 0
gene 1 1649 1661 -1.1715225657315564 0 7775 -1.1715225657315564 0
gene 1 1661 260 1.7560593112167249 0 7776 1.7560593112167249 0
gene 2 1106 125 -0.36074089042876889 0 7796 -0.36074089042876889 1
gene 1 1649 1694 0.38080111024007257 0 7924 0.38080111024007257 0
gene 1 1694 1661 0.43028542396160091 0 7925 0.43028542396160091 1
gene 1 563 1661 1.511150479787565 0 8220 1.511150479787565 1
gene 1 47 563 0.94611737176129451 0 8625 0.94611737176129451 1
gene 3 1 1106 0.16383050017237222 0 9027 0.16383050017237222 0
gene 2 4 1916 -1.440714980447998 1 9044 -1.440714980447998 0
gene 3 1916 4 0.95286491580906552 0 9045 0.95286491580906552 0
gene 3 4 1976 -0.22368691941894911 1 9318 -0.22368691941894911 0
gene 3 1976 1916 -0.89149033599136884 0 9319 -0.89149033599136884 1
gene 1 1 1976 -0.24232834216315685 0 9454 -0.24232834216315685 0
gene 2 125 2006 -0.17914819912013979 0 9489 -0.17914819912013979 1
gene 2 2006 584 -0.42406185130777851 0 9490 -0.42406185130777851 1
gene 1 1103 2006 -0.30169928157781217 0 9506 -0.30169928157781217 1
gene 1 1916 1976 0.75190429890151345 1 9740 0.75190429890151345 1
gene 1 584 1916 -0.11600868665427379 0 9765 -0.11600868665427379 1
gene 2 715 2093 -0.72787113055953345 0 9882 -0.72787113055953345 0
gene 2 2093 4 -0.82958736029900026 0 9883 -0.82958736029900026 0
gene 2 715 2100 -0.4808609029189036 0 9904 -0.4808609029189036 1
gene 2 2100 2093 1.3249317832872882 0 9905 1.3249317832872882 0
gene 1 169 2150 0.37314130499639608 0 10096 0.37314130499639608 1
gene 1 2150 584 0.4973683794948125 0 10097 0.4973683794948125 1
gene 3 305 1197 -0.83161439203266729 0 10353 -0.83161439203266729 0
gene 2 19 2216 0.13001739053522124 0 10374 0.13001739053522124 0
gene 2 2216 169 0.2535888165019401 0 10375 0.2535888165019401 0
gene 1 715 1197 -0.41007744167469323 0 10433 -0.41007744167469323 0
gene 3 305 1916 0.21262811483472033 0 10598 0.21262811483472033 1
gene 1 715 2310 -0.12132328940617082 0 10799 -0.12132328940617082 0
gene 1 2310 1197 0.23448448988352177 0 10800 0.23448448988352177 1
gene 1 2100 1661 -0.22552528778348366 0 10819 -0.22552528778348366 1
gene 1 1661 2332 -0.45733530724297061 0 10896 -0.45733530724297061 1
gene 1 2332 260 0.87196774076296379 0 10897 0.87196774076296379 1
gene 2 19 2357 0.1148757394938151 0 11030 0.1148757394938151 0
gene 3 2357 584 -0.26894528408020046 0 11031 -0.26894528408020046 0
gene 1 1554 1554 -1.2231705397009713 1 11038 -1.2231705397009713 0
gene 3 260 2408 -0.12578638299637773 0 11261 -0.12578638299637773 0
gene 3 2408 19 0.15858535895058204 0 11262 0.15858535895058204 1
gene 3 1579 1976 -0.27027991030843923 0 11475 -0.27027991030843923 1
gene 1 2 2150 0.0044744780773643966 0 11535 0.0044744780773643966 1
gene 1 1084 2482 -0.29021835526927298 0 11621 -0.29021835526927298 0
gene 1 2482 563 1.2599054424836793 0 11622 1.2599054424836793 1
gene 2 47 2511 0.87234641535782553 0 11746 0.87234641535782553 1
gene 2 2511 125 -0.30938953152363635 0 11747 -0.30938953152363635 1
gene 2 2216 2621 0.13998124126344047 0 12287 0.13998124126344047 1
gene 2 2621 169 -1.3625132752873532 0 12288 -1.3625132752873532 0
gene 2 2621 2623 1.0688517005503417 0 12297 1.0688517005503417 1
gene 2 2623 169 0.53083448160012925 0 12298 0.53083448160012925 1
gene 2 19 2659 0.44369442572057921 0 12474 0.44369442572057921 1
gene 2 2659 2216 -0.6047132248546524 0 12475 -0.6047132248546524 1
gene 1 1106 2661 0.85523618820832858 0 12479 0.85523618820832858 0
gene 1 2661 1103 -0.21465745345440573 0 12480 -0.21465745345440573 1
gene 3 305 2682 -0.13722863590215739 0 12571 -0.13722863590215739 1
gene 3 2682 1197 -0.069531684308094699 0 12572 -0.069531684308094699 1
gene 2 2682 1450 -0.067982405688605474 0 12741 -0.067982405688605474 0
gene 3 4 2729 0.25478543376307256 1 12749 0.25478543376307256 0
gene 3 2729 1976 -0.78581357038850597 0 12750 -0.78581357038850597 1
gene 1 305 4 -0.24810023896773359 0 12799 -0.24810023896773359 1
gene 2 1450 2621 -0.07733638262252153 0 12925 -0.07733638262252153 1
gene 3 305 2762 0.3734559770084247 0 12934 0.3734559770084247 1
gene 2 2762 19 1.2085288691839793 0 12935 1.2085288691839793 1
gene 2 2100 4 -0.17552135986067424 0 13025 -0.17552135986067424 1
gene 2 2357 4 0.39178516291630694 0 13042 0.39178516291630694 1
gene 1 2216 584 -0.040500277206534652 0 13145 -0.040500277206534652 1
gene 3 1649 2332 -0.010364007675258441 0 13253 -0.010364007675258441 1
gene 2 1084 715 0.80622445037878321 0 13322 0.80622445037878321 0
gene 2 2729 2661 0.33894888723220157 0 13753 0.33894888723220157 1
gene 2 3 2934 1.01363328961359 1 13764 1.01363328961359 1
gene 2 2934 1084 0.13186555827589033 0 13765 0.13186555827589033 0
gene 3 2729 125 -0.25637423585000174 0 13883 -0.25637423585000174 1
gene 3 1103 2980 -1.1142916936028244 0 14024 -1.1142916936028244 1
gene 3 2980 1197 -1.7564041119797174 0 14025 -1.7564041119797174 1
gene 3 2729 2150 -0.4571578795822141 0 14407 -0.4571578795822141 1
gene 2 1084 3058 1.9623785214323448 0 14416 1.9623785214323448 1
gene 2 3058 715 -0.0095970055598751675 0 14417 -0.0095970055598751675 0
gene 2 2934 3125 0.86026360646833822 0 14742 0.86026360646833822 1
gene 2 3125 1084 0.32795264517327427 0 14743 0.32795264517327427 1
gene 3 1661 1649 0.45148483731387407 1 15101 0.45148483731387407 1
gene 2 3058 3221 0.090489047621604535 0 15176 0.090489047621604535 1
gene 2 3221 715 0.5386860529140971 0 15177 0.5386860529140971 0
gene 1 1106 3276 0.026936474268760779 0 15458 0.026936474268760779 0
gene 1 3276 2661 0.019609643854019032 0 15459 0.019609643854019032 1
gene 2 1 2621 -0.62745774124164955 0 15474 -0.62745774124164955 1
gene 1 2934 1106 -0.47467850170781767 0 15692 -0.47467850170781767 1
gene 1 19 3369 1.0043194573392715 0 15912 1.0043194573392715 1
gene 3 3369 125 0.63517073664589341 0 15913 0.63517073664589341 1
gene 2 2310 1916 -1.1103420055519519 0 15928 -1.1103420055519519 1
gene 2 1569 2150 0.16057475384351552 0 15957 0.16057475384351552 0
gene 3 3058 1579 -1.0389963332745229 0 15963 -1.0389963332745229 1
gene 3 1554 2661 -0.079457717984662279 0 15978 -0.079457717984662279 1
gene 2 19 3408 -0.031968902112901633 0 16081 -0.031968902112901633 1
gene 2 3408 2357 -0.48735156747854858 0 16082 -0.48735156747854858 1
gene 3 1661 2408 -0.45753701983836348 0 16089 -0.45753701983836348 1
gene 1 1694 2482 -0.6972541796030729 1 16339 -0.6972541796030729 1
gene 1 3276 1916 0.87643936689777258 0 16598 0.87643936689777258 1
gene 3 1106 3524 0.7723904900589913 0 16672 0.7723904900589913 1
gene 3 3524 715 -0.042047835440397197 0 16673 -0.042047835440397197 1
gene 1 2682 1103 0.43742076490885617 1 16768 0.43742076490885617 1
gene 3 2934 1554 -0.12893888732834669 0 17412 -0.12893888732834669 1
gene 1 715 3735 0.17794028002672843 0 17749 0.17794028002672843 1
gene 1 3735 2310 0.61653765622365175 0 17750 0.61653765622365175 1
gene 3 260 3745 -0.10823288658085879 0 17793 -0.10823288658085879 1
gene 3 3745 2408 1.2883247015012078 0 17794 1.2883247015012078 1
gene 2 715 3751 1.4373779890301535 0 17813 1.4373779890301535 1
gene 2 3751 563 -0.017901779859281042 0 17814 -0.017901779859281042 1
gene 3 1554 3763 0.66037486687320046 1 17866 0.66037486687320046 1
gene 3 3763 1554 1.0901581892232215 0 17867 1.0901581892232215 1
gene 1 1450 1649 -0.14958172461464134 0 18361 -0.14958172461464134 1
gene 1 584 3408 0.72595483331287036 0 18536 0.72595483331287036 1
gene 2 1103 1103 0.31241181833316189 1 18577 0.31241181833316189 1
gene 2 125 2093 -0.45375623924366948 0 18777 -0.45375623924366948 0
gene 2 1554 1649 0.24208043503671905 0 18801 0.24208043503671905 1
gene 1 2511 2661 -0.0014193197718911366 0 19001 -0.0014193197718911366 1
gene 2 260 3998 0.42166704075488592 0 19009 0.42166704075488592 1
gene 2 3998 3 0.28526187491848221 0 19010 0.28526187491848221 1
gene 1 1694 2682 -0.32228762811156347 0 19180 -0.32228762811156347 0
gene 2 2661 2621 -0.22685103548078384 0 19309 -0.22685103548078384 1
gene 3 3998 2093 0.004599304173420791 0 19343 0.004599304173420791 1
gene 2 4 1661 1.2404041256478076 1 19420 1.2404041256478076 1
gene 1 1106 4086 0.90634581744966369 0 19485 0.90634581744966369 1
gene 1 4086 3276 -0.45177124531556445 0 19486 -0.45177124531556445 1
gene 3 260 4107 1.4568675951831358 0 19592 1.4568675951831358 1
gene 3 4107 169 0.11269843350755909 0 19593 0.11269843350755909 1
gene 3 3276 3221 0.72795175049824257 0 19600 0.72795175049824257 1
gene 3 3125 2980 -1.3430365667878821 0 19621 -1.3430365667878821 1
gene 3 2659 2621 -0.18164484188037219 0 19692 -0.18164484188037219 1
gene 2 1197 125 0.054542885420165436 0 19866 0.054542885420165436 0
gene 3 2623 3369 0.17891581108743129 0 19880 0.17891581108743129 1
gene 1 1649 4186 0.90684620333222965 0 20022 0.90684620333222965 1
gene 1 4186 1694 0.42619572995519067 0 20023 0.42619572995519067 1
gene 1 1084 4189 0.64401810948924076 0 20033 0.64401810948924076 1
gene 1 4189 2482 -0.17381672452847319 0 20034 -0.17381672452847319 1
gene 2 1197 4216 0.15897126573090037 0 20163 0.15897126573090037 1
gene 2 4216 125 0.024997707467990848 0 20164 0.024997707467990848 1
gene 2 3221 1084 -0.084813334552949898 0 20285 -0.084813334552949898 1
gene 2 1916 2659 -1.395504489026733 0 20458 -1.395504489026733 1
gene 2 1569 4301 1.653872762412705 0 20594 1.653872762412705 1
gene 2 4301 2150 -0.3234607043319665 0 20595 -0.3234607043319665 1
gene 2 3408 3408 0.33704094488035929 1 20608 0.33704094488035929 1
gene 2 2093 4485 0.2106795095422675 0 21454 0.2106795095422675 1
gene 2 4485 4 -0.4803145066743319 0 21455 -0.4803145066743319 1
gene 1 1554 4504 0.89464114182379151 0 21552 0.89464114182379151 1
gene 1 4504 125 0.23789700667275906 0 21553 0.23789700667275906 1
gene 2 2729 2729 -0.70005657509903274 1 21558 -0.70005657509903274 1
gene 3 2216 2100 0.21289727450949014 0 21862 0.21289727450949014 1
gene 2 305 2216 0.22232162543680595 0 21884 0.22232162543680595 1
gene 2 1554 1661 0.41444487516509598 0 21981 0.41444487516509598 1
gene 2 2408 260 -0.3579035028153581 0 22167 -0.3579035028153581 1
gene 2 3221 4679 -0.021867014477898839 0 22467 -0.021867014477898839 1
gene 2 4679 715 0.13355010893826841 0 22468 0.13355010893826841 1
gene 2 125 4729 0.32518784251305644 0 22722 0.32518784251305644 1
gene 2 4729 2093 -1.5797571512310564 0 22723 -1.5797571512310564 1
gene 1 1 3125 -0.44297808289666568 0 23014 -0.44297808289666568 1
gene 3 2100 4729 0.43681910281852776 0 23577 0.43681910281852776 1
gene 1 2729 3763 0.95236251547576978 0 23694 0.95236251547576978 1
genomeend 1
