genomestart 1
trait 1 0.0458838 1 1 0 1 0 1 1 
trait 2 0.253273 0 0 1 1 0 0.0576076 0.384136 
trait 3 0 0 0 0.902031 0.831477 1 1 0.272157 
node 1 3 1 3
node 2 2 1 1
node 3 1 0 2
node 4 1 0 2
node 6 2 0 0
node 8 3 0 0
node 12 1 0 0
node 17 3 0 0
node 38 1 0 0
nodegru 60 0 -0.77755812452061046 1.3903597925744762 1.0129818946649238 0.75133114669068313 0.23480340872649264 0.21867964776171359 [ -0.64832865570128373 -0.91173885991412162 -0.66240445206053766 -0.374721080006436 0.33718063209074572 -0.38686620531923421 0.017420823228275786 ] [ -1.3441876693834496 -0.53888334941066962 -0.74003199964763222 -0.2768321678865851 -0.33685691670368284 0.12364655645734005 0.16801177136041773 ] [ 0.49922902858780194 1.0013282140723097 0.33387311028031319 0.34521737827231053 -0.022289305702917886 0.43247018751337668 -0.57505816573978308 ]
nodegru 93 0 -0.91982034962615944 -1.3642391999551275 0.46766656263157103 0.11548127216076537 0.83548851839056615 -0.077213766554935698 [ 0.54586517556843583 0.44945305094563076 0.30053917169596028 0.49111777147795904 -0.28651194171351929 0.80044206338955182 0.086179157526315719 0 ] [ -0.11495145881313433 0.18196865924725708 0.32620635294644457 -0.85949083108431246 0.51743748761594177 0.12698140187514084 -0.68680921880845414 -0.23983436740927136 ] [ -0.13353111717548735 0.10723909577691887 0.51590353088262653 0.34289271260746418 0.50337689393357232 0.35483767830526347 0.82751769936993613 -0.56579064697296855 ]
node 198 1 0 0
node 443 2 0 0
node 467 2 0 0
node 545 2 0 0
node 666 3 0 0
node 837 2 0 0
node 920 3 0 0
node 1055 3 0 0
node 1214 1 0 0
nodegru 1231 0 -0.58037387862818957 0.18988505852869014 0.24890774709587343 -0.76285680721646965 -0.088349022943689015 -0.20785135156840615 [ -0.59702353556501864 1.4021145747518702 ] [ 0.10618267166716167 0.1286948596260952 ] [ -0.0031686192393156789 -0.019396036872359024 ]
node 1290 1 0 0
nodegru 1616 0 0.39373234933881657 -0.69894342250141472 -0.099385209195029411 0.48205423517248325 0.0088603128720356195 0.11669420363227567 [ -0.20967255752052766 ] [ 0.2548224126244068 ] [ 0.37077081919217991 ]
nodegru 1646 0 -0.37078985961656546 0.31318112663607167 -3.0621431742618528 -0.60228493651481574 0.17979630673294714 0.18628101292358756 [ -0.43834664506760734 -0.4680004219841214 0 ] [ -1.9435870847402079 0.050603331555893333 0 ] [ -0.2224743676942188 -0.24027041496721582 0 ]
node 1692 1 0 0
node 1714 1 0 0
node 1795 3 0 0
nodegru 1913 0 1.1950042467541082 -0.34112029515258979 0.56686261299385809 0.11459574574352976 -0.43757849463148901 -0.55613483561022892 [ 0.13166463846883947 0.63883612614070828 -0.099878900730926035 0.15007606621369535 ] [ 0.2128096628993795 -0.80893632760687562 -0.55753557968769951 0.38825138955761279 ] [ 0.33168367358468642 -0.12873783364367569 0.24297204159338587 -0.15227866482561395 ]
node 1945 1 0 0
node 1978 1 0 0
nodegru 2005 0 -0.44670546774133363 0.75996322918681569 0.37500855972757963 -0.66277376569936686 0.84549010700801852 -0.19606879735182448 [ 0.95089310731314736 0.094841089609470727 ] [ 0.24550049972976581 0.23586129873798289 ] [ 0.27105230245322554 -0.27822289163163999 ]
node 2044 1 0 0
nodegru 2103 0 0.65331816354455341 0.85349134372244184 -0.27161834843997767 -0.32456788761753957 1.7630394263020901 0.79412401667522459 [ -0.54725626904855307 ] [ 0.12312701699469565 ] [ 0.45526820861514117 ]
node 2119 1 0 0
node 2211 1 0 0
nodegru 2227 0 0.59975315355684289 0.031580867260499357 -1.7698524756216687 0.43142624778273814 0.92303522323399545 -0.067290360372183111 [ -0.27253087459715591 0.44878422908893983 ] [ -0.74334286886423029 -0.98443996020799507 ] [ -0.10423262678283851 0.35090956667014844 ]
node 2385 1 0 0
nodegru 2480 0 1.0921893215701866 0.75398619508090725 1.0662304503220277 -0.042943198952331757 0.37156382802481014 -0.26508612361042116 [ -0.1608663539685618 0.20707453727120279 0.43803317003791836 0.21442412106060615 -0.22585862256859363 0 ] [ -0.6290626328573854 0.31004804689905047 -0.26620603923974839 -0.50019883876675686 -0.50085040438028539 0.22197893900888924 ] [ -0.10613643289829437 -0.43372093976182907 -0.16857713072960132 -0.28794277379659133 -0.13023834262519998 0 ]
nodegru 2488 0 -1.3197330447471389 -0.91201011180505631 0.15097586398524043 0.80372592308732038 0.33072934291825118 0.80546246785924891 [ -0.28902147863480332 -0.26993823785797599 -0.15320867214035647 ] [ -0.60358913527037439 -1.0165858611076075 -0.31837021481169864 ] [ 1.6873173884522716 -0.11765278741608036 -0.57935530346788244 ]
nodegru 2491 0 0.35487608860939557 0.48614273219655396 -0.61916680849118477 -0.43736502664972332 -0.7383332765839683 -0.6086600015911553 [ -0.018104327385362391 -1.2893771791315531 ] [ 0.34273656217508791 0.98977205901861764 ] [ 0.1621007938692815 -0.36807916516814343 ]
nodegru 2667 0 0.10698069287789083 -0.67731366896876766 -0.35879586956407683 -0.013989699079650314 -0.38960818568691991 0.14776144835528052 [ -1.2998642126563305 -0.046046613271369878 ] [ -0.14044001565335318 0.52868293879026684 ] [ 0.12627511896485236 0.020952828471061228 ]
node 2757 1 0 0
node 2766 1 0 0
node 2969 1 0 0
node 2975 2 0 0
node 3073 1 0 0
node 3085 1 0 0
node 3107 1 0 0
node 3355 1 0 0
node 3485 1 0 0
nodegru 3516 0 0.77090016718530097 0.53555256083400571 -0.45220202438170187 0.61962179449369281 0.12972643069444525 0.20000208411365841 [ 0.49502331483877421 ] [ -0.13155071816013694 ] [ 0.57202478943952584 ]
nodegru 3581 0 -0.49368830956224741 -0.95503307737178778 0.93317581197860455 0.35499870979925563 -0.15042393498608109 0.11612570500752228 [ -0.21464960147377549 ] [ 0.15299884446570594 ] [ 0.13864200661826973 ]
node 3603 1 0 0
node 3638 1 0 0
nodegru 3649 0 0.38670244854255692 0.014124725951871241 -0.65014280758339105 -0.58682024808918132 -0.026006971032361936 0.44719457717016087 [ 0.29042290676870519 ] [ 0.25571184058473995 ] [ 0.72545136382125852 ]
nodegru 3656 0 0 -0.30425524912041391 0 -0.43301244938420713 0 0.38289394410461836 [ -0.40077526513523204 ] [ 0 ] [ -0.26031774108312916 ]
nodegru 3804 0 0.13864222850587324 0.25431249209414819 0 0 -0.53334758292573858 -0.11882422264610613 [ 0.2119520538076535 0 ] [ -0.66643456912899124 0 ] [ 0.17150847784779433 -0.36922495340426681 ]
node 3943 1 0 0
node 3993 1 0 0
nodegru 4079 0 0.27477497946227664 1.3772030502451598 0.20697026127342616 0.6559501610025531 0.068172367321407606 0.21265247916460614 [ -0.72768173144556658 ] [ -0.32002787842416575 ] [ 0.37095894332554147 ]
node 4344 1 0 0
nodegru 4348 0 0.29672231538999932 0.35886094037390359 -0.94995372879782403 -0.016038992915320727 0.55851142274146504 -0.2696579402637006 [ -0.45922962225006403 ] [ -0.03574051337118285 ] [ -0.63954738534034572 ]
nodegru 4359 0 -0.16283707514537363 0 0.07293308692655201 0 -0.44818624060050877 0.79922057678886715 [ 0 -0.15910057241986533 ] [ 0.36712939635251157 0.17467091170822779 ] [ 0.12436965742351938 0.43911465301137165 ]
node 4629 1 0 0
nodegru 4640 0 -0.56586675279115628 0.58821069825822991 0.22191258739769112 -0.01384171005982987 0.33172837241167591 -0.17704539405044417 [ -0.26019437925899142 ] [ -0.17115810963844791 ] [ -0.85237961325439615 ]
node 4681 1 0 0
nodegru 4707 0 0 -0.19122753277943821 -0.087910678511443865 0 -0.71206988613683253 -0.12390472210194205 [ -0.053512315057922311 ] [ 0 ] [ -0.19529394069467387 ]
nodegru 4713 0 -0.52816056461453464 -0.22679465507473545 0.70911793443798921 0.053804281425571199 0 0.20342725315290838 [ -0.014766738291255542 ] [ 0.067609603548240665 ] [ -0.034038111816178128 ]
node 5009 1 0 0
node 5011 1 0 0
nodegru 5027 0 -0.32390816268693107 0.025960173935610883 -0.17868727244375612 -0.20674259946995535 0.021864621444542251 0.22246112475286289 [ -0.28951075779716984 ] [ -0.087732253404209481 ] [ -0.29786234456014926 ]
nodegru 5075 0 0.49676454556023913 -0.14258625085586041 -0.36271356016523837 0.28313260841329235 -0.1957083948402239 0.1876209858747297 [ 0.4290704202973612 -0.15870371584720153 ] [ 0.010273244702384455 -0.090372279794128749 ] [ 0.12144409847513032 -0.27225632815261203 ]
nodegru 5192 0 0.15096369392749096 -0.34942755841157752 -0.40307425609932945 -0.49735596007544358 0.10913307015278054 -0.26814604842483347 [ -0.26832363650590352 ] [ 0 ] [ 0.061053257231159723 ]
nodegru 5337 0 0 0 0 0 0 0 [ 0 ] [ 0 ] [ 0 ]
gene 2 1 3 -1.7135216024301585 0 1 -1.7135216024301585 1
gene 1 2 3 1.0709717166940549 0 2 1.0709717166940549 1
gene 3 1 4 0.16331955425595859 0 3 0.16331955425595859 1
gene 2 2 4 -1.8234415854436534 0 4 -1.8234415854436534 1
gene 1 2 6 -0.048212015790963431 0 9 -0.048212015790963431 1
gene 3 6 3 0.23182956140107921 0 10 0.23182956140107921 1
gene 2 2 8 0.70066868360185464 0 18 0.70066868360185464 1
gene 1 8 4 -0.13229235128140651 0 19 -0.13229235128140651 1
gene 2 2 12 0.81674736636539336 0 31 0.81674736636539336 1
gene 2 12 8 -1.0126080140530171 0 32 -1.0126080140530171 1
gene 2 6 17 0.096149731705034991 0 49 0.096149731705034991 1
gene 3 17 3 0.86597694031241224 0 50 0.86597694031241224 1
gene 1 1 12 -0.56274480189324583 0 74 -0.56274480189324583 1
gene 1 6 4 0.14330878394809962 0 88 0.14330878394809962 1
gene 3 1 8 -0.98185486042958481 0 115 -0.98185486042958481 1
gene 1 12 17 -0.3393891331923144 0 141 -0.3393891331923144 1
gene 1 6 38 -1.0529462017831144 0 160 -1.0529462017831144 1
gene 3 38 17 -0.64927017975098922 0 161 -0.64927017975098922 0
gene 3 38 60 -0.45457847903230159 0 256 -0.45457847903230159 0
gene 1 60 17 0.78624442931555416 0 257 0.78624442931555416 0
gene 3 17 93 1.2139717592922838 0 385 1.2139717592922838 1
gene 3 93 3 -1.8658489961483744 0 386 -1.8658489961483744 0
gene 2 4 4 2.5959524915534784 1 407 2.5959524915534784 0
gene 1 4 198 1.5632131558671658 1 951 1.5632131558671658 1
gene 1 198 4 1.1559236511382851 0 952 1.1559236511382851 1
gene 2 3 4 0.47765185077565342 1 961 0.47765185077565342 1
gene 3 12 6 -1.4387277888314465 0 1138 -1.4387277888314465 1
gene 3 8 6 -1.3854519354111758 0 1689 -1.3854519354111758 0
gene 1 17 17 -0.16800789705850552 1 1784 -0.16800789705850552 0
gene 2 8 38 -0.61771752318261075 0 1799 -0.61771752318261075 1
gene 1 12 443 2.864627916535655 0 2178 2.864627916535655 0
gene 1 443 17 -0.6188729324465958 0 2179 -0.6188729324465958 1
gene 2 443 443 -0.39106405009099471 1 2254 -0.39106405009099471 0
gene 2 93 467 -0.78187578161334437 0 2294 -0.78187578161334437 0
gene 3 467 3 -0.44713938676153281 0 2295 -0.44713938676153281 1
gene 1 198 17 -1.3188821656251708 0 2328 -1.3188821656251708 0
gene 3 12 545 0.484270664157472 0 2657 0.484270664157472 1
gene 2 545 443 -1.4962212070805121 0 2658 -1.4962212070805121 0
gene 3 60 4 2.5907381915444225 0 2744 2.5907381915444225 1
gene 3 545 3 -1.2621057535345228 0 2885 -1.2621057535345228 0
gene 3 38 443 0.13277335005475838 0 3070 0.13277335005475838 1
gene 2 8 93 0.5721116862595601 0 3151 0.5721116862595601 1
gene 3 38 666 0.1137654663127685 0 3304 0.1137654663127685 0
gene 3 666 60 0.34300703152222889 0 3305 0.34300703152222889 0
gene 3 2 60 1.0437441359012127 0 3494 1.0437441359012127 1
gene 1 545 545 0.50848590303607555 1 3973 0.50848590303607555 0
gene 3 545 837 -0.43068382350294099 1 4147 -0.43068382350294099 1
gene 1 837 545 0.26129564748205969 0 4148 0.26129564748205969 1
gene 2 1 60 -1.0935713106736407 0 4167 -1.0935713106736407 1
gene 3 443 3 0.023825561173178966 0 4189 0.023825561173178966 0
gene 3 443 8 -0.91506083072864497 1 4212 -0.91506083072864497 0
gene 2 38 545 -1.1966474089755899 0 4376 -1.1966474089755899 1
gene 1 666 920 -1.57642501270232 0 4577 -1.57642501270232 1
gene 3 920 60 -0.41401168164518276 0 4578 -0.41401168164518276 1
gene 3 666 666 -0.026531775727184348 1 4590 -0.026531775727184348 0
gene 1 2 837 1.5220968546448725 0 4617 1.5220968546448725 1
gene 2 545 60 -0.40336467111639895 0 4679 -0.40336467111639895 1
gene 3 6 545 -0.22799134171939983 0 5044 -0.22799134171939983 0
gene 2 443 1055 -1.0311039597872198 1 5201 -1.0311039597872198 0
gene 2 1055 443 -0.14740975999618383 0 5202 -0.14740975999618383 1
gene 3 1 17 0.46020664552236279 0 5232 0.46020664552236279 1
gene 3 3 3 -0.85297294652693578 1 5347 -0.85297294652693578 0
gene 2 1 467 0.61863875301491411 0 5353 0.61863875301491411 1
gene 3 198 8 -0.94540651209904158 0 5371 -0.94540651209904158 1
gene 2 60 467 -0.24892442242657981 0 5815 -0.24892442242657981 0
gene 2 60 1214 0.24283336742913042 0 5985 0.24283336742913042 0
gene 2 1214 467 0.41165204505047392 0 5986 0.41165204505047392 0
gene 3 17 1231 1.6102506439714928 1 6064 1.6102506439714928 1
gene 1 1231 17 -0.43984305762678511 0 6065 -0.43984305762678511 1
gene 2 666 467 0.32714537755918938 0 6264 0.32714537755918938 1
gene 3 545 666 0.25833884056580209 0 6316 0.25833884056580209 1
gene 2 1055 6 -0.35052585059335728 0 6328 -0.35052585059335728 1
gene 1 198 1290 -0.4386369771969677 0 6377 -0.4386369771969677 1
gene 2 1290 17 0.25594638812166937 0 6378 0.25594638812166937 0
gene 2 666 837 0.53377555498563478 1 6509 0.53377555498563478 0
gene 1 198 443 -0.8638206009584577 0 6600 -0.8638206009584577 0
gene 1 443 666 0.068581153903427144 0 6763 0.068581153903427144 0
gene 1 666 1290 -0.93874197776370771 0 6963 -0.93874197776370771 0
gene 2 6 1290 -0.33263952696353177 0 7083 -0.33263952696353177 1
gene 2 198 3 0.052437247267196563 0 7281 0.052437247267196563 1
gene 2 8 60 -0.38489675935585815 0 7506 -0.38489675935585815 1
gene 2 443 1290 0.6306683656902371 0 7765 0.6306683656902371 0
gene 1 198 6 0.32242286802382358 0 7821 0.32242286802382358 1
gene 2 920 1290 -0.086499100591288403 0 8089 -0.086499100591288403 0
gene 3 6 1616 0.89117531706168096 0 8111 0.89117531706168096 1
gene 3 1616 3 0.3708967298133749 0 8112 0.3708967298133749 1
gene 1 6 1646 2.4963585389761058 0 8246 2.4963585389761058 1
gene 1 1646 38 0.20727397278289961 0 8247 0.20727397278289961 1
gene 3 8 1692 0.95300515296543253 0 8453 0.95300515296543253 0
gene 3 1692 6 -0.48194909956396997 0 8454 -0.48194909956396997 1
gene 1 60 1714 0.64144408127360231 0 8582 0.64144408127360231 0
gene 3 1714 17 0.039764922596404767 0 8583 0.039764922596404767 1
gene 2 837 666 0.48164351143950762 0 8592 0.48164351143950762 0
gene 2 2 17 -0.018673553605877587 0 8714 -0.018673553605877587 1
gene 2 1692 467 0.46743424444805565 0 8752 0.46743424444805565 0
gene 3 1231 6 0.59063601172093128 0 8900 0.59063601172093128 0
gene 2 545 1795 1.3679212538376084 0 8971 1.3679212538376084 1
gene 2 1795 443 -1.6049285638634714 0 8972 -1.6049285638634714 1
gene 3 1646 666 -0.48170589421955212 0 9098 -0.48170589421955212 1
gene 3 920 4 -0.35648888319567251 0 9126 -0.35648888319567251 0
gene 1 1 666 0.014569568687383794 0 9359 0.014569568687383794 1
gene 1 1290 1714 0.6753384958372165 0 9424 0.6753384958372165 1
gene 1 443 1913 1.2798955616447589 0 9577 1.2798955616447589 0
gene 2 1913 1290 -0.078832085746727912 0 9578 -0.078832085746727912 1
gene 3 6 1945 1.7145796435487362 0 9748 1.7145796435487362 1
gene 3 1945 545 -0.77752183064702973 0 9749 -0.77752183064702973 1
gene 1 443 1978 0.60992262936659269 0 9927 0.60992262936659269 0
gene 1 1978 666 -0.026299217728105895 0 9928 -0.026299217728105895 0
gene 2 1 1231 0.5228881465843358 0 9940 0.5228881465843358 1
gene 3 1945 1290 0.50293000345254779 0 9970 0.50293000345254779 1
gene 3 2 93 1.1100148906046594 0 10040 1.1100148906046594 0
gene 3 443 2005 1 0 10058 1 1
gene 2 2005 3 0.92029985851622176 0 10059 0.92029985851622176 1
gene 1 666 2044 1.2077803009691557 0 10253 1.2077803009691557 1
gene 1 2044 1290 0.50786027638607667 0 10254 0.50786027638607667 1
gene 2 1945 1795 0.22832322364129276 0 10398 0.22832322364129276 0
gene 2 920 93 1.2969872158938025 0 10523 1.2969872158938025 0
gene 3 1231 2103 0.97398736745770431 0 10581 0.97398736745770431 1
gene 3 2103 6 -0.31885927208646164 0 10582 -0.31885927208646164 1
gene 3 6 666 0.97500503364717817 0 10595 0.97500503364717817 0
gene 1 837 837 0.48628063196608823 1 10610 0.48628063196608823 1
gene 3 920 2119 1.018926477301366 0 10671 1.018926477301366 1
gene 3 2119 1290 -0.89395317011231235 0 10672 -0.89395317011231235 1
gene 2 837 1055 0.70451523349830658 0 10680 0.70451523349830658 0
gene 2 1231 1692 -0.92121393579114885 0 10953 -0.92121393579114885 1
gene 3 17 2211 1.2601582199615231 0 11093 1.2601582199615231 1
gene 3 2211 3 0.16300800752966116 0 11094 0.16300800752966116 1
gene 2 837 2227 0.97725053316785504 0 11210 0.97725053316785504 1
gene 2 2227 666 0.45687544623244342 0 11211 0.45687544623244342 0
gene 2 1616 93 -0.014618436114219216 0 11380 -0.014618436114219216 1
gene 1 443 1646 -0.48741329716863724 1 11562 -0.48741329716863724 1
gene 3 2044 2211 0.71465020613495733 0 11732 0.71465020613495733 1
gene 1 1646 1714 -0.0071737892027822275 0 11979 -0.0071737892027822275 0
gene 3 2 2385 0.22451946662018052 0 12041 0.22451946662018052 1
gene 3 2385 93 0.052849078342713962 0 12042 0.052849078342713962 0
gene 1 2 1714 -1.0632475992027892 0 12243 -1.0632475992027892 1
gene 1 60 2480 0.68551399031910765 0 12497 0.68551399031910765 0
gene 1 2480 1714 0.86063420905761157 0 12498 0.86063420905761157 1
gene 3 17 2488 0.62413793598494394 0 12548 0.62413793598494394 1
gene 3 2488 3 0.8223492644365642 0 12549 0.8223492644365642 1
gene 2 60 2491 0.77195663925817071 0 12562 0.77195663925817071 1
gene 2 2491 1214 0.16144850182414444 0 12563 0.16144850182414444 0
gene 1 1795 1290 0.39371397061912061 0 12581 0.39371397061912061 1
gene 2 8 2044 -1.1264054424252385 0 12910 -1.1264054424252385 1
gene 3 1795 2211 -0.47164849679528198 0 12982 -0.47164849679528198 1
gene 3 17 2480 0.40242361924723891 0 13147 0.40242361924723891 1
gene 2 666 2667 1.1176837117493543 1 13496 1.1176837117493543 0
gene 2 2667 837 0.26526178268960759 0 13497 0.26526178268960759 0
gene 1 1 2488 -0.012295244733009136 0 13505 -0.012295244733009136 1
gene 2 1290 8 -0.66409576691877836 1 13686 -0.66409576691877836 0
gene 3 1714 1714 1.0305238391880522 1 13855 1.0305238391880522 1
gene 1 1692 2757 0.68869064407827829 0 13942 0.68869064407827829 1
gene 2 2757 467 -0.15584844590902722 0 13943 -0.15584844590902722 1
gene 3 443 2766 0.75892663503015723 1 13995 0.75892663503015723 0
gene 3 2766 8 -1.5961111959051859 0 13996 -1.5961111959051859 1
gene 3 4 8 1.3614464697248518 1 14010 1.3614464697248518 1
gene 2 2757 1055 0.088132627116578044 0 14086 0.088132627116578044 1
gene 3 2385 1290 0.62444692366963572 0 14162 0.62444692366963572 1
gene 3 1978 1978 0.21108395685957926 1 14440 0.21108395685957926 0
gene 2 1290 666 0.86469927703249239 1 14599 0.86469927703249239 1
gene 3 1978 1714 0.20588617595186745 0 15056 0.20588617595186745 1
gene 3 2766 2969 0.99474036693328083 0 15064 0.99474036693328083 1
gene 3 2969 8 -0.79646179885438728 0 15065 -0.79646179885438728 1
gene 3 6 2975 1 0 15089 1 1
gene 1 2975 666 0.49394618649685113 0 15090 0.49394618649685113 0
gene 2 443 2480 0.9208353550270364 0 15270 0.9208353550270364 1
gene 3 2385 3073 1.3213849350909632 0 15610 1.3213849350909632 1
gene 3 3073 93 0.43445435186589809 0 15611 0.43445435186589809 1
gene 1 443 3085 0.36264227580402147 1 15677 0.36264227580402147 1
gene 1 3085 1055 0.29636579160409315 0 15678 0.29636579160409315 1
gene 1 443 3107 1.1851160142967085 0 15781 1.1851160142967085 1
gene 1 3107 1978 0.84383584155879721 0 15782 0.84383584155879721 1
gene 2 1616 2975 -0.029020700151576054 0 16548 -0.029020700151576054 0
gene 3 2211 2211 -0.53199081799573766 1 16591 -0.53199081799573766 1
gene 3 2044 2385 -0.6433480925128553 0 16645 -0.6433480925128553 1
gene 2 2766 3085 -0.032312052805122032 0 16851 -0.032312052805122032 0
gene 1 60 3355 1.613774844265438 0 16991 1.613774844265438 1
gene 1 3355 2480 0.87025130836770459 0 16992 0.87025130836770459 1
gene 2 2 2975 0.8194893485957242 0 17340 0.8194893485957242 1
gene 2 12 3485 1 0 17656 1 0
gene 2 3485 8 -1.349909711792092 0 17657 -1.349909711792092 1
gene 2 920 3516 1.2903758742801732 0 17804 1.2903758742801732 1
gene 2 3516 93 1.6395184426286808 0 17805 1.6395184426286808 1
gene 1 1290 1290 -0.21767133531052216 1 17877 -0.21767133531052216 1
gene 2 1945 3581 0.62080146028697558 0 18139 0.62080146028697558 1
gene 2 3581 1795 0.50971670356100274 0 18140 0.50971670356100274 1
gene 2 2491 3 -0.030447160373650084 0 18170 -0.030447160373650084 0
gene 2 2766 3603 0.035114008949656973 0 18245 0.035114008949656973 1
gene 2 3603 3085 0.23159505460951244 0 18246 0.23159505460951244 1
gene 3 467 3073 0.67360715413168404 0 18375 0.67360715413168404 1
gene 2 38 3638 0.62636877020186221 0 18458 0.62636877020186221 1
gene 3 3638 666 0.1577827002190903 0 18459 0.1577827002190903 1
gene 3 545 3649 1 0 18530 1 1
gene 3 3649 3 -1.870266577866984 0 18531 -1.870266577866984 1
gene 2 2667 3656 1.207012282082351 0 18579 1.207012282082351 1
gene 2 3656 837 0.40696857050385721 0 18580 0.40696857050385721 1
gene 2 8 467 0.2371393161533118 0 18640 0.2371393161533118 1
gene 1 1231 2969 -0.25006985303483431 0 18808 -0.25006985303483431 1
gene 2 1231 2480 -0.027391627909332361 0 18957 -0.027391627909332361 1
gene 2 2044 2488 -0.12765657930991453 0 19249 -0.12765657930991453 1
gene 1 2667 443 0.22874787553620893 0 19256 0.22874787553620893 1
gene 1 3638 1913 -0.67829788694078941 0 19267 -0.67829788694078941 1
gene 3 920 3804 -0.42053698791215988 0 19361 -0.42053698791215988 1
gene 3 3804 4 -0.13798580767493029 0 19362 -0.13798580767493029 1
gene 1 2480 3603 0.8965827053862544 1 19581 0.8965827053862544 1
gene 1 1 3085 0.64251245704596505 0 19970 0.64251245704596505 1
gene 1 198 3943 1.1582064340627782 0 20183 1.1582064340627782 1
gene 1 3943 443 -1.2954765790121057 0 20184 -1.2954765790121057 1
gene 3 8 3638 0.1671413319032366 0 20244 0.1671413319032366 1
gene 3 1646 3993 1.1054051332666563 0 20433 1.1054051332666563 0
gene 3 3993 1714 -0.26585613273356862 0 20434 -0.26585613273356862 1
gene 1 2488 1795 0.13846102945434907 1 20450 0.13846102945434907 0
gene 3 3649 3943 -0.046031033641673158 0 20468 -0.046031033641673158 1
gene 3 1214 1913 -1.0259197177486121 0 20643 -1.0259197177486121 1
gene 2 1290 3993 -0.12662707694183434 0 20652 -0.12662707694183434 1
gene 1 545 3355 0.83233113485962673 0 20883 0.83233113485962673 1
gene 2 93 4079 0.72950417559105163 0 20890 0.72950417559105163 1
gene 2 4079 467 -0.085839965653531358 0 20891 -0.085839965653531358 1
gene 3 2766 2766 -0.54359753268938393 1 20940 -0.54359753268938393 1
gene 2 1616 1714 0.043193880255890049 0 22070 0.043193880255890049 1
gene 1 2227 2385 -0.15366133239756399 0 22114 -0.15366133239756399 1
gene 2 666 4344 -0.11516907676829449 1 22153 -0.11516907676829449 1
gene 2 4344 2667 0.58065567378916583 0 22154 0.58065567378916583 1
gene 1 2488 4348 0.85651618421846831 1 22184 0.85651618421846831 1
gene 1 4348 1795 0.43601714839973355 0 22185 0.43601714839973355 1
gene 3 6 4359 1.0733215394771292 0 22235 1.0733215394771292 1
gene 3 4359 3 0.84517752814347746 0 22236 0.84517752814347746 1
gene 3 2103 3603 0.33383585574749663 0 22248 0.33383585574749663 1
gene 1 1214 1214 0.36098220472269793 1 22400 0.36098220472269793 1
gene 2 3638 2005 -0.93871234261370828 0 22569 -0.93871234261370828 1
gene 2 4 3804 -0.16760148488339105 1 22576 -0.16760148488339105 1
gene 2 2005 3993 -0.47168493083290985 0 23282 -0.47168493083290985 1
gene 2 17 2491 -0.73308998380465895 1 23383 -0.73308998380465895 1
gene 3 1214 2227 0.26451192110055682 1 23749 0.26451192110055682 1
gene 1 443 4629 1 0 23761 1 1
gene 1 4629 1913 -0.30185612607833751 0 23762 -0.30185612607833751 1
gene 3 3638 1214 0.064094132075130067 0 23778 0.064094132075130067 1
gene 1 1978 4640 1 0 23849 1 1
gene 1 4640 666 -0.17746596465700579 0 23850 -0.17746596465700579 1
gene 3 1646 4681 1.2234359193702395 0 24046 1.2234359193702395 1
gene 3 4681 3993 1.1417329803303504 0 24047 1.1417329803303504 1
gene 2 1290 4707 1.2905148311008303 1 24203 1.2905148311008303 1
gene 2 4707 8 -0.2581923668078111 0 24204 -0.2581923668078111 1
gene 3 2491 4713 1 0 24225 1 1
gene 2 4713 3 -0.099135708808496453 0 24226 -0.099135708808496453 1
gene 1 1646 1978 0.15987742839375391 0 24545 0.15987742839375391 1
gene 1 2757 3993 -0.14487093414406801 0 24611 -0.14487093414406801 1
gene 3 1978 5009 1 1 25693 1 1
gene 3 5009 1978 0.054708291569123178 0 25694 0.054708291569123178 1
gene 2 1290 5011 1.113563308545185 0 25703 1.113563308545185 1
gene 2 5011 17 0.25594638812166937 0 25704 0.25594638812166937 1
gene 2 12 5027 1.4868954499191118 0 25780 1.4868954499191118 1
gene 2 5027 3485 -0.039524454641865776 0 25781 -0.039524454641865776 1
gene 3 4348 4629 -0.52082712320649394 0 25924 -0.52082712320649394 1
gene 3 1616 1646 0.6745106830142954 0 25991 0.6745106830142954 1
gene 3 38 2044 0.92608651655078233 0 26004 0.92608651655078233 1
gene 3 3581 2044 0.094543665225870752 0 26011 0.094543665225870752 1
gene 3 1692 1795 0.18996246074790249 0 26022 0.18996246074790249 1
gene 1 2975 5075 1.4844578984121131 0 26069 1.4844578984121131 1
gene 1 5075 666 0.75837105664348736 0 26070 0.75837105664348736 1
gene 3 1055 1714 -0.072333080262100835 0 26205 -0.072333080262100835 1
gene 2 837 5192 1 0 26707 0 1
gene 2 5192 1055 0.70451523349830658 0 26708 0 1
gene 2 3603 5075 0.32024698719393785 0 26873 0.32024698719393785 1
gene 3 3073 2480 -0.14060784510365121 0 26892 -0.14060784510365121 1
gene 1 2227 4359 0.20189568130387722 0 27055 0.20189568130387722 1
gene 2 2491 5337 1 0 27511 0 1
gene 2 5337 1214 0.16144850182414444 0 27512 0 1
gene 3 2969 666 0.18443573880215908 0 27883 0.18443573880215908 1
gene 1 2480 2211 0.66842537404430347 0 27903 0.66842537404430347 1
gene 3 5192 3638 -0.90694587813082428 0 28143 -0.90694587813082428 1
genomeend 1
