genomestart 1
trait 1 1 1 0 1 0.711912 0.909604 1 1 
trait 2 0 0.879747 0 1 0.0445508 0 0 1 
trait 3 0.220019 0.870574 1 0.599552 0.137051 0.0977438 0.421582 1 
node 1 2 1 3
node 2 2 1 1
node 3 1 0 2
node 4 1 0 2
node 5 1 0 0
node 14 3 0 0
node 18 1 0 0
node 19 1 0 0
node 42 3 0 0
node 147 2 0 0
node 183 3 0 0
node 271 1 0 0
node 275 3 0 0
node 344 3 0 0
node 362 1 0 0
node 395 3 0 0
node 431 1 0 0
node 485 1 0 0
node 525 3 0 0
node 607 1 0 0
node 614 2 0 0
node 695 1 0 0
node 699 1 0 0
node 712 1 0 0
node 826 1 0 0
node 883 3 0 0
node 923 1 0 0
node 963 1 0 0
node 972 2 0 0
node 976 1 0 0
node 1003 1 0 0
node 1055 1 0 0
node 1084 1 0 0
node 1196 1 0 0
node 1233 1 0 0
node 1260 2 0 0
node 1324 1 0 0
node 1359 2 0 0
node 1374 2 0 0
node 1407 1 0 0
node 1434 3 0 0
node 1585 3 0 0
node 1621 1 0 0
node 1623 1 0 0
node 1815 1 0 0
node 1857 1 0 0
node 1869 1 0 0
node 2018 1 0 0
node 2062 2 0 0
node 2118 1 0 0
node 2166 1 0 0
node 2201 3 0 0
node 2207 1 0 0
node 2341 3 0 0
node 2342 3 0 0
node 2381 1 0 0
node 2383 1 0 0
node 2433 1 0 0
node 2455 1 0 0
node 2472 1 0 0
node 2504 1 0 0
node 2547 1 0 0
node 2565 1 0 0
gene 1 1 3 -1.3832829591740308 0 1 -1.3832829591740308 1
gene 3 2 3 0.80008593890819979 0 2 0.80008593890819979 1
gene 1 1 4 -4.5893033266017724 0 3 -4.5893033266017724 1
gene 2 2 4 1.9182982609692483 0 4 1.9182982609692483 1
gene 3 2 5 1.2136194164462477 0 5 1.2136194164462477 1
gene 2 5 3 1.8741091952538624 0 6 1.8741091952538624 1
gene 1 4 4 0.45538024904922592 1 22 0.45538024904922592 1
gene 2 5 14 -0.13930373622072112 0 44 -0.13930373622072112 1
gene 1 14 3 -0.41869052868275458 0 45 -0.41869052868275458 1
gene 2 1 14 0.093777401183628206 0 52 0.093777401183628206 1
gene 2 14 18 -0.2489715846017802 0 64 -0.2489715846017802 1
gene 3 18 3 0.11434256989245423 0 65 0.11434256989245423 1
gene 2 5 18 0.32651442886633542 0 72 0.32651442886633542 1
gene 2 18 19 -0.22685684064722467 0 75 -0.22685684064722467 1
gene 2 19 3 -0.11055759252540526 0 76 -0.11055759252540526 1
gene 1 5 5 0.47656188368637187 1 111 0.47656188368637187 1
gene 1 3 19 -1.4382671883507943 1 119 -1.4382671883507943 1
gene 1 3 18 -1.3411962251836416 1 135 -1.3411962251836416 1
gene 1 18 18 0.19811623878689305 1 147 0.19811623878689305 1
gene 2 1 5 1.6580304115349573 0 148 1.6580304115349573 1
gene 1 2 14 1.1525991750660349 0 195 1.1525991750660349 1
gene 2 5 42 0.87911111390176733 0 252 0.87911111390176733 1
gene 2 42 14 -0.19502887301846822 0 253 -0.19502887301846822 1
gene 2 42 42 0.93383010916124587 1 296 0.93383010916124587 1
gene 1 1 42 1.704006148597228 0 355 1.704006148597228 1
gene 1 5 19 1.4672597907331122 0 380 1.4672597907331122 1
gene 1 19 19 -0.14075499593315413 1 400 -0.14075499593315413 1
gene 2 42 4 0.1814680770884585 0 427 0.1814680770884585 1
gene 3 1 18 -1.2231270385548134 0 437 -1.2231270385548134 1
gene 1 2 42 2.0450671548233679 0 599 2.0450671548233679 1
gene 3 14 4 -1.5949642339697874 0 615 -1.5949642339697874 1
gene 2 42 3 -3.4716823680660132 0 808 -3.4716823680660132 1
gene 1 14 14 -0.51204192708807161 1 983 -0.51204192708807161 1
gene 1 2 18 0.70141161452113265 0 1167 0.70141161452113265 1
gene 2 5 147 -0.80926588937140342 0 1193 -0.80926588937140342 1
gene 2 147 42 -1.5087590299121845 0 1194 -1.5087590299121845 1
gene 2 3 3 -0.29494851166147207 1 1472 -0.29494851166147207 1
gene 2 18 183 1.0442703271025189 0 1481 1.0442703271025189 1
gene 2 183 19 -0.29970950856791317 0 1482 -0.29970950856791317 0
gene 1 42 183 -0.19891221667589257 0 1516 -0.19891221667589257 1
gene 2 147 18 0.60136844920989518 0 1622 0.60136844920989518 1
gene 2 42 147 1.4183505081657091 1 1676 1.4183505081657091 0
gene 3 147 3 -1.1937282135215255 0 1829 -1.1937282135215255 1
gene 1 19 4 1.126051435771422 0 1851 1.126051435771422 0
gene 1 1 147 -0.97889888355457177 0 1867 -0.97889888355457177 1
gene 3 19 183 -0.27685934504347826 1 2007 -0.27685934504347826 1
gene 2 147 147 -0.11758685978948469 1 2107 -0.11758685978948469 1
gene 3 5 4 -0.22299320098152045 0 2246 -0.22299320098152045 0
gene 2 42 271 -0.70383952986627751 1 2270 -0.70383952986627751 1
gene 2 271 147 -0.20361265852284272 0 2271 -0.20361265852284272 0
gene 1 2 147 0.7307718262219669 0 2276 0.7307718262219669 1
gene 1 2 271 0.81665903763689984 0 2308 0.81665903763689984 1
gene 2 42 275 2.211855763202466 1 2321 2.211855763202466 1
gene 2 275 42 0.78694745585645898 0 2322 0.78694745585645898 0
gene 1 275 5 0.36402808612400106 0 2518 0.36402808612400106 0
gene 3 4 18 -0.40303139966122409 1 2603 -0.40303139966122409 0
gene 3 271 271 -0.36430640442497397 1 2607 -0.36430640442497397 0
gene 3 271 183 -0.59051404757914794 0 2729 -0.59051404757914794 0
gene 2 275 14 0.10516746347079386 0 2740 0.10516746347079386 1
gene 1 275 18 0.69108846024195125 0 2826 0.69108846024195125 1
gene 3 2 183 -0.79715325138399074 0 2923 -0.79715325138399074 1
gene 2 5 344 0.092431949960269003 0 2963 0.092431949960269003 1
gene 3 344 14 0.72653669990903547 0 2964 0.72653669990903547 1
gene 1 5 271 0.3383086481310002 0 2993 0.3383086481310002 1
gene 2 344 18 0.50910481904126015 0 3080 0.50910481904126015 0
gene 3 271 362 -1.497106853405529 1 3093 -1.497106853405529 1
gene 3 362 271 -1.1419065595333959 0 3094 -1.1419065595333959 1
gene 1 344 395 -0.42400806230679533 0 3295 -0.42400806230679533 1
gene 2 395 18 -0.23022510005637309 0 3296 -0.23022510005637309 1
gene 1 395 14 0.28707813857452857 0 3326 0.28707813857452857 1
gene 1 395 395 -0.26339642319986434 1 3340 -0.26339642319986434 0
gene 1 275 183 2.1089935806156106 0 3486 2.1089935806156106 0
gene 3 275 431 2.2119032864979955 0 3575 2.2119032864979955 1
gene 3 431 5 0.7701601452520862 0 3576 0.7701601452520862 1
gene 3 19 362 -1.0241746730283716 1 3743 -1.0241746730283716 1
gene 3 431 271 1.0175333430606561 0 3752 1.0175333430606561 1
gene 3 344 42 0.81419252572310741 0 3893 0.81419252572310741 0
gene 2 344 362 -0.23200005187280479 0 3953 -0.23200005187280479 0
gene 2 344 19 -1.2258412457191579 0 3989 -1.2258412457191579 1
gene 2 3 5 -1.1034222359784982 1 4028 -1.1034222359784982 1
gene 2 3 485 0.03782837793129884 1 4137 0.03782837793129884 0
gene 1 485 3 -1.0071692506350436 0 4138 -1.0071692506350436 1
gene 2 42 18 0.40000884416513527 0 4169 0.40000884416513527 1
gene 3 5 525 -0.27546242823612987 0 4465 -0.27546242823612987 0
gene 3 525 4 0.42602724648361462 0 4466 0.42602724648361462 0
gene 2 362 42 -1.9596623352075289 0 4474 -1.9596623352075289 1
gene 3 362 4 0.36316360480299376 0 4742 0.36316360480299376 1
gene 2 183 183 -0.95089634412475688 1 4760 -0.95089634412475688 1
gene 3 344 485 1.6134953147794564 0 4982 1.6134953147794564 1
gene 1 147 395 0.15660826147376014 0 5037 0.15660826147376014 0
gene 3 1 395 -0.56481009794623149 0 5104 -0.56481009794623149 1
gene 2 3 607 -1.9312140219524565 1 5126 -1.9312140219524565 1
gene 1 607 19 -0.22739519352437707 0 5127 -0.22739519352437707 0
gene 2 3 614 1.5402780976334016 1 5163 1.5402780976334016 0
gene 1 614 18 -0.13964596816322111 0 5164 -0.13964596816322111 1
gene 1 614 5 -0.22535947837185094 0 5434 -0.22535947837185094 1
gene 1 485 183 0.12596731312850828 0 5446 0.12596731312850828 1
gene 1 1 183 -0.34816362305924464 0 5461 -0.34816362305924464 1
gene 3 362 14 -0.83227286829253333 0 5474 -0.83227286829253333 1
gene 3 3 4 0.88446044567248805 1 5489 0.88446044567248805 0
gene 1 614 275 -0.022558028587399997 0 5527 -0.022558028587399997 0
gene 3 431 19 0.43539276064159022 0 5533 0.43539276064159022 1
gene 2 362 19 0.58326140282827499 0 5545 0.58326140282827499 1
gene 2 607 607 -0.60744382120084195 1 5553 -0.60744382120084195 1
gene 1 485 42 1.2115189622675624 0 5632 1.2115189622675624 1
gene 1 14 607 -0.08841162016075646 0 5783 -0.08841162016075646 0
gene 1 2 695 0.22025743369956383 0 5815 0.22025743369956383 1
gene 1 695 14 -0.26638909325301136 0 5816 -0.26638909325301136 1
gene 3 5 699 -1.0757922437394933 0 5856 -1.0757922437394933 0
gene 3 699 525 0.67959445863011969 0 5857 0.67959445863011969 1
gene 3 362 3 0.34572361309347843 0 5889 0.34572361309347843 1
gene 3 2 712 2.0543354591607743 0 5940 2.0543354591607743 1
gene 3 712 5 0.83920333364010025 0 5941 0.83920333364010025 1
gene 2 431 695 0.79653943599971933 0 5946 0.79653943599971933 1
gene 1 183 525 -0.80353868464172762 0 6053 -0.80353868464172762 1
gene 1 695 5 0.31718626144211104 0 6137 0.31718626144211104 1
gene 1 712 3 -0.46842364616152998 0 6149 -0.46842364616152998 0
gene 2 431 431 -0.35422719612448811 1 6247 -0.35422719612448811 1
gene 2 147 607 -0.40489014303539417 0 6303 -0.40489014303539417 1
gene 3 695 695 -0.23207774396616859 1 6414 -0.23207774396616859 1
gene 3 275 485 0.054557757244705109 0 6438 0.054557757244705109 1
gene 3 344 271 -1.2129913210929331 0 6603 -1.2129913210929331 1
gene 2 525 525 0.44216972656649062 1 6646 0.44216972656649062 1
gene 3 275 147 -0.00011614640248759948 0 6686 -0.00011614640248759948 1
gene 3 42 395 -0.14738912235358226 0 6835 -0.14738912235358226 1
gene 1 14 826 0.11010178206958893 0 6896 0.11010178206958893 0
gene 1 826 607 0.84528565399594868 0 6897 0.84528565399594868 1
gene 1 275 712 0.75145623867933442 0 6986 0.75145623867933442 1
gene 3 1 614 -2.3871978753652412 0 7014 -2.3871978753652412 1
gene 1 147 19 -0.5653148086580051 0 7092 -0.5653148086580051 0
gene 1 712 826 0.60074007981491273 0 7273 0.60074007981491273 0
gene 1 3 883 -0.073694897151410088 1 7312 -0.073694897151410088 1
gene 2 883 614 -0.55630918734535084 0 7313 -0.55630918734535084 0
gene 3 271 42 -0.010487520373653447 0 7459 -0.010487520373653447 1
gene 2 431 362 1.4036559033690281 0 7749 1.4036559033690281 0
gene 2 4 923 -0.55965301327391204 1 7774 -0.55965301327391204 1
gene 3 923 18 0.24847644462644891 0 7775 0.24847644462644891 1
gene 2 183 826 0.41386170169052749 0 7815 0.41386170169052749 1
gene 3 4 5 -0.36715367802751886 1 8039 -0.36715367802751886 1
gene 2 614 963 -0.43925007173756608 0 8079 -0.43925007173756608 1
gene 2 963 275 -1.4489254052512932 0 8080 -1.4489254052512932 1
gene 3 271 395 -0.29638261827471785 0 8086 -0.29638261827471785 1
gene 2 183 972 0.75519764435253922 0 8144 0.75519764435253922 1
gene 2 972 19 0.12515222403460746 0 8145 0.12515222403460746 1
gene 2 525 976 -2.5637185888195977 0 8165 -2.5637185888195977 1
gene 3 976 4 0.10142573253317964 0 8166 0.10142573253317964 0
gene 2 923 607 0.46740779884504519 0 8237 0.46740779884504519 1
gene 2 344 1003 -0.019037945670559053 0 8371 -0.019037945670559053 1
gene 2 1003 362 -0.062049317202553744 0 8372 -0.062049317202553744 0
gene 3 42 826 -0.49253548821086784 0 8537 -0.49253548821086784 1
gene 3 362 362 -1.4935703850321336 1 8577 -1.4935703850321336 1
gene 1 14 1055 -1.2357865056189645 1 8853 -1.2357865056189645 1
gene 1 1055 14 0.41719538085963359 0 8854 0.41719538085963359 1
gene 3 712 695 -0.23712167899921616 0 8898 -0.23712167899921616 1
gene 1 972 972 2.1092879821589627 1 9024 2.1092879821589627 1
gene 2 699 607 -0.93541385276960853 0 9068 -0.93541385276960853 0
gene 2 1003 1084 -0.38678892324063413 0 9115 -0.38678892324063413 1
gene 2 1084 362 -0.26502092916752251 0 9116 -0.26502092916752251 1
gene 2 614 485 0.31755993227360763 0 9141 0.31755993227360763 1
gene 1 485 923 -1.0684719451556317 0 9168 -1.0684719451556317 1
gene 1 614 976 -1.0826299707790046 0 9343 -1.0826299707790046 1
gene 2 395 972 0.61285571316855769 0 9463 0.61285571316855769 1
gene 2 395 344 1.0363678529562277 1 9629 1.0363678529562277 1
gene 1 19 826 0.13771182514620572 0 9711 0.13771182514620572 1
gene 3 923 923 2.2417261478219772 1 9851 2.2417261478219772 0
gene 2 275 976 0.41777481460840205 0 9933 0.41777481460840205 1
gene 2 344 344 -0.11515509528813654 1 9975 -0.11515509528813654 1
gene 1 5 1003 -1.8562698971276501 0 10085 -1.8562698971276501 1
gene 2 5 1196 0.023920761432461801 0 10108 0.023920761432461801 1
gene 2 1196 18 -0.46266502699007517 0 10109 -0.46266502699007517 1
gene 1 431 1196 0.11193547426347411 0 10227 0.11193547426347411 1
gene 2 3 1233 0.29488945998944788 1 10355 0.29488945998944788 1
gene 2 1233 485 0.49673551926237325 0 10356 0.49673551926237325 1
gene 3 712 712 0.37998011632821527 1 10487 0.37998011632821527 1
gene 1 275 1260 -0.32943587113611206 0 10557 -0.32943587113611206 1
gene 1 1260 183 -0.035604387538323373 0 10558 -0.035604387538323373 1
gene 3 699 1084 0.51061025448637565 0 10729 0.51061025448637565 1
gene 2 1003 395 -0.03395121173651483 0 10853 -0.03395121173651483 1
gene 3 344 972 0.20132538895184413 0 11112 0.20132538895184413 1
gene 1 883 1003 0.7206144140663624 0 11153 0.7206144140663624 1
gene 1 18 1324 -0.40649003158625668 1 11167 -0.40649003158625668 1
gene 1 1324 18 -0.61091823811219914 0 11168 -0.61091823811219914 1
gene 2 883 972 0.019436937300226276 0 11212 0.019436937300226276 1
gene 1 525 1003 0.39063978422928591 1 11264 0.39063978422928591 1
gene 1 271 976 0.23368853108663518 0 11315 0.23368853108663518 1
gene 1 1324 183 1.7650401067291575 0 11374 1.7650401067291575 1
gene 3 2 972 1.2728295634839821 0 11397 1.2728295634839821 1
gene 1 5 1359 -0.18156656910738284 0 11436 -0.18156656910738284 1
gene 1 1359 1003 0.060452262899117704 0 11437 0.060452262899117704 1
gene 1 395 1374 0.45153415852763412 1 11575 0.45153415852763412 1
gene 1 1374 395 1.8397699458709778 0 11576 1.8397699458709778 0
gene 1 1374 972 -0.72444867911955757 0 11590 -0.72444867911955757 1
gene 2 147 4 0.25000721507240431 0 11704 0.25000721507240431 1
gene 2 699 1407 -0.8456311437048164 0 11824 -0.8456311437048164 1
gene 2 1407 607 -0.0042619593461332705 0 11825 -0.0042619593461332705 0
gene 1 972 525 0.072850579196983289 0 11880 0.072850579196983289 1
gene 2 1084 1084 0.79521355186366172 1 11923 0.79521355186366172 1
gene 1 525 1260 -0.21690383982700479 0 12016 -0.21690383982700479 1
gene 1 695 147 1.0414361241466534 0 12044 1.0414361241466534 1
gene 1 1196 826 0.83640750792641527 0 12072 0.83640750792641527 1
gene 3 976 1434 -0.94645092564004063 0 12132 -0.94645092564004063 1
gene 3 1434 4 1.8805744663721764 0 12133 1.8805744663721764 1
gene 1 883 1434 0.065388005722960441 0 12163 0.065388005722960441 1
gene 3 1084 183 0.41011803243780415 0 12312 0.41011803243780415 1
gene 1 1233 1084 -0.52901078016916803 0 12353 -0.52901078016916803 1
gene 2 1407 1233 0.099080722592342907 0 12429 0.099080722592342907 1
gene 1 42 431 0.56774598735745341 1 12563 0.56774598735745341 1
gene 1 485 18 0.12278658762703959 0 12683 0.12278658762703959 1
gene 3 344 1260 -0.15077527619468789 0 12792 -0.15077527619468789 1
gene 2 1324 1359 -0.21645622826947658 0 12927 -0.21645622826947658 1
gene 1 695 1260 1.5756983789967831 0 12977 1.5756983789967831 1
gene 3 1374 712 0.40912305140361332 0 12995 0.40912305140361332 0
gene 3 42 1434 0.83313948234223734 0 13098 0.83313948234223734 1
gene 2 1196 183 1.1280708937570783 0 13169 1.1280708937570783 1
gene 1 42 1260 0.18715062885878173 0 13265 0.18715062885878173 1
gene 3 431 1374 0.21907660817684446 0 13354 0.21907660817684446 1
gene 3 3 1585 0.47566780470109915 1 13397 0.47566780470109915 0
gene 3 1585 4 -0.35602973744088307 0 13398 -0.35602973744088307 1
gene 1 1196 1196 -0.088455064729068 1 13426 -0.088455064729068 0
gene 3 1003 1003 -1.490732044908559 1 13546 -1.490732044908559 1
gene 3 699 4 0.3162303323933065 0 13585 0.3162303323933065 1
gene 1 5 1055 0.054947432388992717 0 13590 0.054947432388992717 1
gene 3 1055 344 1.1748657367075168 0 13717 1.1748657367075168 1
gene 2 2 1374 -0.2295518749065473 0 13747 -0.2295518749065473 1
gene 1 147 1621 1.0081168024372853 0 13782 1.0081168024372853 1
gene 1 1621 395 0.22758599753844833 0 13783 0.22758599753844833 1
gene 1 14 1623 0.32087058682035219 0 13788 0.32087058682035219 1
gene 1 1623 826 0.4489665939234973 0 13789 0.4489665939234973 1
gene 3 395 923 0.34130504137897172 0 13800 0.34130504137897172 1
gene 1 1374 1359 2.3434843494759336 0 13861 2.3434843494759336 1
gene 1 1621 183 0.2984598399132769 0 13876 0.2984598399132769 1
gene 3 147 1434 -0.37059364089304286 0 14019 -0.37059364089304286 1
gene 3 1585 614 0.10333567047647002 0 14419 0.10333567047647002 0
gene 3 1 963 0.20464290525049109 0 14517 0.20464290525049109 0
gene 1 826 183 -0.095993431329723905 1 14528 -0.095993431329723905 1
gene 2 275 275 -1.34539853215469 1 14542 -1.34539853215469 1
gene 2 19 972 0.15435206967142961 0 14562 0.15435206967142961 1
gene 3 923 19 0.2786101448715711 0 14581 0.2786101448715711 1
gene 3 2 1260 -0.817473256642685 0 14620 -0.817473256642685 1
gene 2 1621 3 2.0500494709937129 0 15029 2.0500494709937129 1
gene 3 1434 972 -0.66749744660570165 0 15084 -0.66749744660570165 1
gene 3 1359 976 -0.4124309583159308 0 15195 -0.4124309583159308 1
gene 3 1407 923 0.41588821654016533 0 15262 0.41588821654016533 1
gene 1 1196 1815 -0.48936083074163672 1 15285 -0.48936083074163672 1
gene 1 1815 1196 -0.17308178458971984 0 15286 -0.17308178458971984 1
gene 3 699 14 0.80158417010753591 0 15292 0.80158417010753591 1
gene 2 275 1407 0.59982239622614464 0 15450 0.59982239622614464 1
gene 3 1585 1857 -0.47227172086586788 0 15580 -0.47227172086586788 1
gene 3 1857 614 -0.55296654140249202 0 15581 -0.55296654140249202 1
gene 2 344 1857 -0.62060268205618629 1 15602 -0.62060268205618629 1
gene 1 614 14 0.86090282158036857 0 15632 0.86090282158036857 1
gene 2 1407 1869 0.59682132401355614 0 15702 0.59682132401355614 1
gene 2 1869 607 -0.89907221933783599 0 15703 -0.89907221933783599 1
gene 3 712 525 1.2159392785820826 0 15706 1.2159392785820826 1
gene 1 976 923 0.32208054062075936 0 15852 0.32208054062075936 1
gene 3 1857 695 -1.3243117520233207 0 16062 -1.3243117520233207 1
gene 1 1869 14 -0.79958424312043208 0 16099 -0.79958424312043208 1
gene 3 431 4 0.9138797758677415 0 16115 0.9138797758677415 1
gene 1 1407 614 -0.250326547655429 1 16228 -0.250326547655429 1
gene 1 1815 395 0.24587232025613648 0 16309 0.24587232025613648 1
gene 1 1815 1815 0.65064801725123456 1 16535 0.65064801725123456 1
gene 3 1407 1407 2.6891029622355025 1 16694 2.6891029622355025 1
gene 2 18 699 0.42362842705269732 1 16724 0.42362842705269732 1
gene 1 614 614 -0.20773897748800879 1 16750 -0.20773897748800879 1
gene 2 1621 1621 -0.023723292175551469 1 16928 -0.023723292175551469 1
gene 1 42 485 0.63962913800013665 1 16960 0.63962913800013665 1
gene 2 1233 826 -0.56391417354527584 0 16985 -0.56391417354527584 1
gene 1 883 2018 -0.3883715222535522 0 16995 -0.3883715222535522 1
gene 1 2018 614 -0.14722507477143087 0 16996 -0.14722507477143087 1
gene 1 695 972 -0.37371298758020299 0 17215 -0.37371298758020299 1
gene 1 883 183 -0.062935391004632857 0 17220 -0.062935391004632857 1
gene 1 183 976 0.33380220845984399 0 17339 0.33380220845984399 1
gene 3 826 4 0.35060254104929167 0 17410 0.35060254104929167 1
gene 3 1434 1434 0.35215027250915321 1 17424 0.35215027250915321 1
gene 3 699 362 0.047825473848649047 0 17443 0.047825473848649047 1
gene 3 147 1407 -1.1204404892029429 1 17446 -1.1204404892029429 1
gene 3 344 2062 -0.88387946313427734 0 17510 -0.88387946313427734 1
gene 3 2062 42 -0.44673786635824375 0 17511 -0.44673786635824375 1
gene 1 1585 19 0.2510977109200776 0 17565 0.2510977109200776 1
gene 2 14 395 -0.42529332774006451 0 17623 -0.42529332774006451 1
gene 1 1857 1815 -0.0767168773229778 0 17693 -0.0767168773229778 1
gene 1 963 923 -0.64849950356804742 0 17724 -0.64849950356804742 1
gene 3 5 923 0.38663311716477999 0 17747 0.38663311716477999 1
gene 3 1815 431 0.56091481240508834 0 17800 0.56091481240508834 1
gene 3 614 1623 0.028896619113579769 0 17872 0.028896619113579769 1
gene 3 923 2118 0.075096761144277047 1 17985 0.075096761144277047 1
gene 3 2118 923 -0.21542148395228267 0 17986 -0.21542148395228267 1
gene 1 1055 1055 -0.57797929508517454 1 18137 -0.57797929508517454 1
gene 2 1434 1260 -0.036388551600458355 0 18147 -0.036388551600458355 1
gene 2 1815 271 -0.069095433954659585 0 18289 -0.069095433954659585 1
gene 1 147 2166 -0.059868334354771541 0 18365 -0.059868334354771541 1
gene 1 2166 19 -0.40339717101463918 0 18366 -0.40339717101463918 1
gene 3 2118 5 -0.35587458515347659 0 18418 -0.35587458515347659 1
gene 1 695 699 0.029530614395407287 0 18482 0.029530614395407287 1
gene 1 2118 2118 -0.31666812012748241 1 18591 -0.31666812012748241 1
gene 1 712 2201 0.17499161566374433 0 18627 0.17499161566374433 1
gene 1 2201 826 -0.3541811403605068 0 18628 -0.3541811403605068 1
gene 1 1374 2207 0.61195012722720865 0 18672 0.61195012722720865 1
gene 1 2207 395 -0.42692168100128025 0 18673 -0.42692168100128025 1
gene 3 1623 1621 -0.22542813407509965 0 18765 -0.22542813407509965 1
gene 3 1 972 -0.094452373028943493 0 18874 -0.094452373028943493 1
gene 3 1359 1260 0.1667946126157393 0 19091 0.1667946126157393 1
gene 3 972 271 -0.78084411298895451 1 19109 -0.78084411298895451 1
gene 2 976 525 -0.02049325454071782 1 19200 -0.02049325454071782 1
gene 2 712 1003 0.21208070368137241 0 19343 0.21208070368137241 1
gene 3 1196 1324 0.47355563355309682 0 19427 0.47355563355309682 1
gene 1 1857 1324 0.81206788346733327 0 19440 0.81206788346733327 1
gene 3 1857 395 0.16285845481923708 0 19505 0.16285845481923708 1
gene 2 1623 183 0.013120592810735382 0 19669 0.013120592810735382 1
gene 2 2118 1055 -1.3513847188332047 0 19729 -1.3513847188332047 0
gene 2 42 2341 0.38588057942030979 0 19813 0.38588057942030979 1
gene 2 2341 4 0.48111830976843756 0 19814 0.48111830976843756 1
gene 1 607 2342 -0.23817687143486779 0 19831 -0.23817687143486779 1
gene 1 2342 19 -0.091806222727432024 0 19832 -0.091806222727432024 1
gene 3 1815 1003 0.35657568432231235 0 19862 0.35657568432231235 1
gene 3 42 1621 -0.21469276408417745 0 19969 -0.21469276408417745 1
gene 3 1407 18 0.31935436409868034 0 20093 0.31935436409868034 1
gene 2 271 2381 -0.92342931657257932 0 20225 -0.92342931657257932 1
gene 2 2381 147 1.0265707830090871 0 20226 1.0265707830090871 1
gene 3 3 2383 -0.027371357906317062 1 20241 -0.027371357906317062 1
gene 3 2383 1585 -0.22126734779275364 0 20242 -0.22126734779275364 1
gene 1 344 525 -0.4713192372449298 0 20251 -0.4713192372449298 1
gene 2 431 2433 0.47816623560067556 0 20669 0.47816623560067556 1
gene 2 2433 362 -0.27464783227753259 0 20670 -0.27464783227753259 1
gene 3 1374 2455 -0.0020283740023283167 0 20845 -0.0020283740023283167 1
gene 3 2455 712 1.6443392309101017 0 20846 1.6443392309101017 1
gene 1 1084 712 -1.1797236770762707 1 20960 -1.1797236770762707 1
gene 1 972 3 0.33890760822170768 0 21001 0.33890760822170768 1
gene 3 271 2472 -0.17521013746746356 0 21059 -0.17521013746746356 1
gene 3 2472 183 -0.60693139680984032 0 21060 -0.60693139680984032 1
gene 3 1003 1869 -0.13396851002889149 0 21149 -0.13396851002889149 1
gene 2 1585 1585 0.18705096989267087 1 21231 0.18705096989267087 1
gene 3 2472 2201 0.1989126259921643 0 21331 0.1989126259921643 1
gene 3 5 2504 0.2282235316132305 0 21339 0.2282235316132305 1
gene 3 2504 699 0.43958257205764878 0 21340 0.43958257205764878 1
gene 3 2383 2383 1.1874425523855923 1 21585 1.1874425523855923 1
gene 1 2201 1260 -0.83218240986214131 0 21671 -0.83218240986214131 1
gene 1 712 2547 0.72937738882814407 0 21766 0.72937738882814407 1
gene 1 2547 3 0.46625677657604997 0 21767 0.46625677657604997 1
gene 3 2342 923 -0.10318722254745068 0 21830 -0.10318722254745068 0
gene 3 2342 2565 1 0 21942 0 1
gene 3 2565 923 -0.10318722254745068 0 21943 0 1
gene 2 1585 1084 -0.28800724041089754 0 21951 -0.28800724041089754 1
gene 2 614 1003 -0.15595995828321202 0 21987 -0.15595995828321202 1
gene 3 2118 275 -0.11843995243238283 0 22077 -0.11843995243238283 1
gene 1 699 18 -0.13917829521893443 0 22089 -0.13917829521893443 1
gene 3 2 923 -0.59137751422420959 0 22243 -0.59137751422420959 1
genomeend 1
