genomestart 1
trait 1 1 0 1 0.563013 1 1 0 1 
trait 2 0.465121 0 0 0 1 1 0.526609 1 
trait 3 1 0 0.10177 0 1 0 1 1 
node 1 3 1 3
node 2 1 1 1
node 3 1 0 2
node 4 1 0 2
nodegru 12 0 -0.23520314704403425 0.10455155843149475 -3.7520373443849557 0.12461084249644111 0.10109537215954403 2.1152577892016891 [ -1.2654586277275617 0.05306493819368302 0.057328880558409304 ] [ 1.2830891207713115 0.34719431905410919 0.72701745933248552 ] [ 0.2440087035037618 -0.82398325639031045 0.10639190958179157 ]
node 14 1 0 0
node 52 2 0 0
node 77 1 0 0
node 105 1 0 0
nodegru 162 0 0.32733760556547792 0.48789669689158754 -0.3336263051413122 0.38557870564310748 -0.47427980134928593 0.56705173014991528 [ 0.26145509922013388 -1.3626787158952463 -0.75153362506606314 0.63002897339408703 ] [ -0.35201205934957225 -0.1460685823792911 -0.32076916951721962 0.16353950750247553 ] [ -0.043556890936362065 0.095437782861030565 -0.21586336834163566 -0.47102636772721368 ]
nodegru 221 0 -0.23827362071642347 -0.20287874094344616 -0.48329227300514116 -0.31492839977840348 1.2708588972552022 -0.56208957292236827 [ -1.5578969009490202 0.57499133589444273 0.39597434988057911 ] [ -1.0421555428962015 0.09165430678597386 -1.5966615730881046 ] [ 0.32747057491329989 0.42175665424287162 -0.90791109037022621 ]
node 227 3 0 0
node 273 3 0 0
node 378 1 0 0
node 510 3 0 0
nodegru 567 0 -0.12699575378885294 0.16175384244963248 0.52744787047963959 0.43427776472376545 -0.25036273605672771 -0.27495690680805451 [ -0.60272725885860967 0.55718831231686672 0 ] [ -0.072911923319525979 0.59914350537543337 0 ] [ 0.42399039628169982 0.80003499672749778 0 ]
node 590 3 0 0
nodegru 612 0 -0.082193436837845246 -0.1037777080683865 0.039298962354333555 -0.16768422241680522 -0.1940244358005116 -0.039614029014303359 [ -0.33168537441253915 0.35972987877192436 ] [ -0.045145234346923059 0.232054400365825 ] [ -0.22194158459172658 0.2467822009915403 ]
node 643 3 0 0
nodegru 667 0 -1.1517098898308864 0.040114213032701157 1.2430293912734041 0.13130212767575966 -0.25649771199398569 -0.25192109739963015 [ 0.18848254470549647 -0.33384669564377839 0.43840565995238984 -1.6428806335399302 -0.8059606176363121 0.30522772823703836 -1.3626804004249538 ] [ -0.73561139997821834 0.76877674589342293 0.63172294997224721 -1.2755834731625315 0.38722460385748403 0.255960870420542 -0.23470133786774303 ] [ 0.03804679845368808 -0.35663656790584164 0.011300859046774386 -0.87682910234519706 0.39386383020033305 -0.29900979660405302 -0.054264800881158926 ]
nodegru 701 0 -0.62171808379782267 -0.28190259206197343 -1.0016267155304677 -0.70940163811175228 0.047702697127919039 0.29011510721878853 [ -0.93728594944685972 -0.33069956248193022 -0.17427018316195825 ] [ -0.23547021543396179 -0.29571688468368562 0.55848859462816669 ] [ -0.88837746339308898 0.05360783732198543 -1.0708341491738493 ]
nodegru 766 0 0.31782578715021992 -0.085839224553592136 0.17150590320653558 0.56465751238384176 0.26749531029141288 0.9240453787725631 [ 0.27836111899389004 -0.44696754261244442 -2.5602712380049151 0.76619038231027803 ] [ -0.39180992352394844 -0.14397040761260815 0.87615096959106209 -0.24773222335974326 ] [ -0.062580783647755489 -1.1274993243289646 1.2334346492930475 0.031041716705561485 ]
nodegru 1178 0 -0.39587867604376686 0.72788264892431098 0.85908571461173044 0.070282317963560256 0.45064338410768817 -0.1619068061289875 [ 0.51841194556020764 -0.093741242351821269 0.48765479958972646 ] [ 0.047995218563822717 -0.45564121611213371 -0.48279335605110663 ] [ 0.58177700875409744 -0.25751170062344131 -0.16877190613596316 ]
nodegru 1182 0 0.58723929575050215 0.20581298424201694 -1.5258223882530921 -0.37012576911138639 -0.39586499538080067 -0.3124596126435602 [ -0.34587140793254201 -0.046976767036587375 ] [ -0.20147727322833486 -0.025176367501344665 ] [ -0.28187971831386893 1.120398269789479 ]
nodegru 1254 0 0.47413175388897383 0.48021110192882416 -0.044601304477360715 0.2591404673918804 -0.010963988495508203 0.75623617822129097 [ 0.257006086994431 -0.027377935372003337 ] [ -0.77814668686042854 -0.13965812681226905 ] [ -0.82704145313568489 -0.70559936072938112 ]
nodegru 1331 0 0.87618146342047576 -0.46798212801477967 0.13460041751833651 -0.074916831485422719 -0.709565577660485 1.0124240221979208 [ 0.44959744226634385 ] [ 0.016101726338314637 ] [ 0.68395006828194027 ]
node 1600 1 0 0
node 1646 1 0 0
nodegru 1749 0 -0.31847551200467883 0.20332608428007273 -0.45356749461664242 1.180467441063592 -0.98354199807324538 -0.81762629855313618 [ 0.44841314966250828 -0.71179528497708744 0.45097700108353839 0 ] [ 0.47894150669637209 0.46959135214313463 -0.022822540031197731 0 ] [ 0.35377982903913585 -0.18336107730090667 0 0 ]
nodegru 1811 0 0.55581363991639288 0.42086308352689406 -0.360486112237203 0.43373922441794505 0.09171098474958489 0.14905973228116504 [ -0.055048282051015779 ] [ -0.36551715241070704 ] [ -0.09750798675115592 ]
nodegru 1813 0 -0.078582719237814985 -0.080633522281718217 0.12521305686105649 0.61983645200721749 -0.074951164924982605 -0.031281574178152499 [ -0.35185746003494478 -0.5143604576654548 ] [ -0.087164818117006104 -0.029170580221885151 ] [ 0.69611276462493121 -0.65432104289267257 ]
node 1941 1 0 0
node 2208 1 0 0
node 2209 3 0 0
nodegru 2260 0 0.29689263263572596 -0.29521850766391422 -0.2693047452575083 -0.0033723355752287298 -0.07887824325770057 -0.80264680124942522 [ -0.20988923600404019 0.3464158642321899 0.21406832277498597 0.030960360323526132 ] [ 0.72488657768111975 -0.21927832007374537 0.44843564901893751 0.17751644187491222 ] [ 1.2671540734670841 0.28349355132481713 -0.28798058549313832 -0.13803193352093546 ]
nodegru 2451 0 0.6494801459598728 -0.633360048119612 -0.77337327216443286 0.33213757576054781 0.1322679068577792 0.15864831495967149 [ -0.46792429171871591 0.34551789813931932 0.4411870417842581 ] [ -0.39775652619905605 -0.46370325631634485 0 ] [ 0.10438662679138902 -0.41353191850405741 -0.0643429723867881 ]
nodegru 2464 0 0.35222793759416227 -0.4083503162992887 0 0.39017040556770305 0.48410098253940276 0.090590512422188421 [ -0.38351123006246574 -0.083774445850297086 ] [ 0.098988780565088974 0 ] [ 0.31037061303405583 0 ]
nodegru 2546 0 0.13199527521244958 -0.042354304130354126 0.21623218674968561 -0.18456072229173068 0.058874422246066122 -0.057979741626409689 [ 0.19713383619540079 0 ] [ -0.063121526065804845 0 ] [ -0.034997674420009214 0 ]
node 2609 3 0 0
node 2994 1 0 0
node 3003 1 0 0
node 3149 3 0 0
node 3401 1 0 0
node 3454 1 0 0
node 3473 1 0 0
nodegru 3528 0 0.43136770903662208 0.34132773095803698 -0.41785064708341407 -0.1980543808071196 -0.41532993405839891 -0.4453140489968071 [ 0 ] [ 0 ] [ 0.061213856824307633 ]
node 3564 1 0 0
node 3614 1 0 0
node 3619 1 0 0
nodegru 3714 0 0 0 0 0 0 0 [ 0 ] [ 0 ] [ 0 ]
nodegru 3885 0 0 0 0 0 0 0 [ 0 ] [ 0 ] [ 0 ]
node 3958 1 0 0
gene 2 1 3 -2.631301975404519 0 1 -2.631301975404519 1
gene 2 2 3 0.30184615976263135 0 2 0.30184615976263135 1
gene 1 1 4 -0.49108237004423616 0 3 -0.49108237004423616 0
gene 3 2 4 2.5262168594758094 0 4 2.5262168594758094 1
gene 1 2 12 0.96880652963593916 0 24 0.96880652963593916 0
gene 3 12 3 2.3763127400895176 0 25 2.3763127400895176 0
gene 3 12 14 -0.47348734339395881 0 29 -0.47348734339395881 1
gene 2 14 3 1.2691344764405554 0 30 1.2691344764405554 0
gene 1 2 14 0.0013785061898541201 0 36 0.0013785061898541201 0
gene 2 2 52 -1.8721776566804285 0 178 -1.8721776566804285 0
gene 3 52 3 0.74693386291476616 0 179 0.74693386291476616 0
gene 3 1 14 -0.81708686534179709 0 197 -0.81708686534179709 1
gene 2 2 77 -0.081299022809275909 0 294 -0.081299022809275909 0
gene 2 77 52 -0.044685463907516307 0 295 -0.044685463907516307 0
gene 3 52 52 0.31958047478440244 1 349 0.31958047478440244 0
gene 3 14 52 -0.18176206372760334 0 407 -0.18176206372760334 0
gene 3 2 105 0.31405970049745385 0 420 0.31405970049745385 0
gene 2 105 12 0.59546955679332325 0 421 0.59546955679332325 0
gene 2 77 14 1.3674306454450966 0 512 1.3674306454450966 0
gene 2 105 14 0.39355596988161834 0 659 0.39355596988161834 0
gene 2 14 162 0.057895355884868355 0 674 0.057895355884868355 0
gene 2 162 3 -0.71699697580980004 0 675 -0.71699697580980004 1
gene 2 2 221 -0.53198916606232016 0 919 -0.53198916606232016 0
gene 1 221 77 -0.87703797285307095 0 920 -0.87703797285307095 0
gene 3 14 227 1.1646775715819921 0 937 1.1646775715819921 0
gene 3 227 52 -0.59963762252574715 0 938 -0.59963762252574715 0
gene 2 4 4 0.58073110812377704 1 1194 0.58073110812377704 1
gene 2 14 273 0.22147809887373732 0 1208 0.22147809887373732 0
gene 2 273 162 0.10121298749056325 0 1209 0.10121298749056325 1
gene 2 77 3 -0.29035250995790235 0 1218 -0.29035250995790235 0
gene 2 227 227 -0.81306286217321788 1 1232 -0.81306286217321788 1
gene 1 105 227 0.21625007768918297 0 1524 0.21625007768918297 1
gene 3 12 221 0.46471492874655634 0 1662 0.46471492874655634 1
gene 3 227 378 0.514221220982364 0 1695 0.514221220982364 1
gene 3 378 52 1.8283338264228468 0 1696 1.8283338264228468 0
gene 2 14 14 -1.8376301575161658 1 1709 -1.8376301575161658 0
gene 2 1 105 0.45452235380863859 0 1754 0.45452235380863859 1
gene 2 162 227 0.061702562059137323 0 2043 0.061702562059137323 1
gene 3 221 510 -0.64585847623919068 0 2323 -0.64585847623919068 1
gene 3 510 77 0.49294763500473815 0 2324 0.49294763500473815 0
gene 2 4 227 -0.44617164016057342 1 2636 -0.44617164016057342 1
gene 3 77 567 0.53570923560099182 0 2663 0.53570923560099182 1
gene 3 567 14 0.1344347855236544 0 2664 0.1344347855236544 1
gene 3 52 590 0.32979373183557475 1 2795 0.32979373183557475 1
gene 3 590 52 -0.52867698740618163 0 2796 -0.52867698740618163 1
gene 2 2 612 -0.5031691163327402 0 2884 -0.5031691163327402 1
gene 1 612 221 -1.4347208148961519 0 2885 -1.4347208148961519 1
gene 3 3 3 -0.75882260280606462 1 2989 -0.75882260280606462 0
gene 3 1 612 -0.26864136046201048 0 3024 -0.26864136046201048 1
gene 2 510 643 -0.86997798102441148 0 3037 -0.86997798102441148 1
gene 3 643 77 0.0057502631124808634 0 3038 0.0057502631124808634 1
gene 3 105 510 -0.71203707540968297 0 3072 -0.71203707540968297 1
gene 2 14 667 0.35578402544175458 0 3143 0.35578402544175458 0
gene 2 667 273 -0.25439310923888958 0 3144 -0.25439310923888958 1
gene 3 14 701 0.70905249552291472 0 3312 0.70905249552291472 1
gene 3 701 227 0.30685801096579896 0 3313 0.30685801096579896 0
gene 1 612 590 -4.912942085141756 0 3316 -4.912942085141756 1
gene 1 567 378 -1.1786623015900433 0 3617 -1.1786623015900433 0
gene 2 77 766 -0.35279358893297313 0 3623 -0.35279358893297313 1
gene 2 766 52 0.78169062071558604 0 3624 0.78169062071558604 1
gene 1 612 162 -0.6718611573669413 0 3654 -0.6718611573669413 1
gene 2 12 667 0.091454703636213525 0 3722 0.091454703636213525 0
gene 2 590 227 0.44508345795100712 0 3729 0.44508345795100712 1
gene 1 105 52 -0.14323727513814216 0 3890 -0.14323727513814216 1
gene 3 221 590 0.23899630421725862 0 4234 0.23899630421725862 0
gene 1 221 162 0.030337475720018835 0 4256 0.030337475720018835 1
gene 3 1 77 -0.44730630258438464 0 4445 -0.44730630258438464 0
gene 3 273 52 -0.35091625682586625 0 4691 -0.35091625682586625 1
gene 1 162 4 -6.1012827852281193 0 4709 -6.1012827852281193 1
gene 2 3 378 -0.13422920281730089 1 4910 -0.13422920281730089 1
gene 3 590 667 0.38488244632486346 0 4926 0.38488244632486346 1
gene 1 643 766 -0.33500059430254658 0 4939 -0.33500059430254658 1
gene 3 510 52 -1.8520350681394502 0 5176 -1.8520350681394502 0
gene 1 378 766 0.14142097655749919 0 5205 0.14142097655749919 1
gene 2 14 1178 0.42126200973115024 0 5673 0.42126200973115024 0
gene 2 1178 667 -0.081812170605087733 0 5674 -0.081812170605087733 1
gene 3 701 1182 0.21608937937584199 0 5702 0.21608937937584199 1
gene 3 1182 227 0.91943899421926534 0 5703 0.91943899421926534 0
gene 2 567 701 0.035662106022081391 0 5845 0.035662106022081391 1
gene 3 77 590 -0.57699895909847643 0 5853 -0.57699895909847643 0
gene 2 2 1254 1.6477259284107602 0 6051 1.6477259284107602 0
gene 2 1254 105 0.15938264884025907 0 6052 0.15938264884025907 0
gene 2 643 510 0.42306394335956499 1 6084 0.42306394335956499 1
gene 2 1254 701 0.12422838673192464 0 6199 0.12422838673192464 1
gene 2 77 667 0.20608843313813596 0 6384 0.20608843313813596 1
gene 3 1182 1331 0.33919903046414202 0 6412 0.33919903046414202 1
gene 3 1331 227 0.015860866296971643 0 6413 0.015860866296971643 1
gene 2 2 567 0.19061217070120021 0 7498 0.19061217070120021 0
gene 3 1182 52 0.54177372601897156 0 7781 0.54177372601897156 0
gene 3 378 1600 1.8702329189377989 0 7859 1.8702329189377989 0
gene 3 1600 52 -0.15382782330449102 0 7860 -0.15382782330449102 1
gene 1 2 1600 -0.35467111382385308 0 7918 -0.35467111382385308 1
gene 2 162 1600 -2.0421270281272603 0 8057 -2.0421270281272603 1
gene 3 1600 3 -0.20185443139721382 0 8110 -0.20185443139721382 0
gene 1 105 1646 -0.10387818589987147 0 8117 -0.10387818589987147 0
gene 3 1646 12 0.59338515861583174 0 8118 0.59338515861583174 1
gene 2 1 1178 0.045033413006473955 0 8162 0.045033413006473955 1
gene 3 378 378 0.019714692151041144 1 8169 0.019714692151041144 0
gene 3 1 1646 0.86099215893121084 0 8189 0.86099215893121084 1
gene 3 3 1182 0.78999598337802857 1 8325 0.78999598337802857 1
gene 2 12 378 0.55874331810453126 0 8437 0.55874331810453126 1
gene 3 1254 3 0.21767228060293584 0 8558 0.21767228060293584 1
gene 1 273 378 0.22091373182875743 0 8577 0.22091373182875743 1
gene 2 1254 77 -0.015877474106791186 0 8604 -0.015877474106791186 1
gene 2 510 1749 -0.43278642391450078 0 8632 -0.43278642391450078 0
gene 2 1749 52 -0.26060176862431778 0 8633 -0.26060176862431778 1
gene 2 77 1811 0.72112068334646551 0 8959 0.72112068334646551 1
gene 1 1811 3 1.2487215852591775 0 8960 1.2487215852591775 1
gene 3 1600 1813 0.30892753848290427 0 8969 0.30892753848290427 1
gene 3 1813 3 0.077344418306529716 0 8970 0.077344418306529716 1
gene 2 590 378 0.1256807263128836 0 9328 0.1256807263128836 1
gene 2 14 1941 -0.43112855797220417 0 9647 -0.43112855797220417 1
gene 2 1941 1178 -0.66884807691390069 0 9648 -0.66884807691390069 1
gene 2 14 1600 -0.95225225014251313 0 10118 -0.95225225014251313 1
gene 2 1 667 0.13746569591456359 0 10307 0.13746569591456359 1
gene 3 1178 590 0.12686265265888658 0 10617 0.12686265265888658 1
gene 2 1941 378 -0.19150265175453518 0 10922 -0.19150265175453518 1
gene 3 105 2208 0.58008002051156016 0 11010 0.58008002051156016 1
gene 2 2208 14 -0.32793275072608741 0 11011 -0.32793275072608741 0
gene 2 52 2209 0.6530808832743582 0 11014 0.6530808832743582 0
gene 2 2209 3 0.29963544374314854 0 11015 0.29963544374314854 1
gene 2 1749 227 -1.8463561881083788 0 11135 -1.8463561881083788 1
gene 3 221 1813 0.9899797979695627 0 11260 0.9899797979695627 1
gene 3 77 2260 -0.26573103934793307 0 11262 -0.26573103934793307 1
gene 3 2260 590 1.6769681604006181 0 11263 1.6769681604006181 1
gene 1 1811 14 -1.0567966923382119 0 11721 -1.0567966923382119 1
gene 2 766 1600 -0.67789254438965241 0 11771 -0.67789254438965241 1
gene 2 221 2260 1.5827797516634594 0 12116 1.5827797516634594 1
gene 3 162 590 -0.17747346366638014 1 12150 -0.17747346366638014 0
gene 2 643 643 0.82456495348576686 1 12178 0.82456495348576686 1
gene 2 12 2451 0.70585784558479581 0 12210 0.70585784558479581 0
gene 2 2451 667 0.47435650484373626 0 12211 0.47435650484373626 1
gene 3 667 2208 0.98091096639675557 1 12214 0.98091096639675557 1
gene 2 510 2464 0.43763083146774717 0 12274 0.43763083146774717 1
gene 2 2464 1749 -0.28001360212453347 0 12275 -0.28001360212453347 1
gene 3 1182 2546 -0.28476141080481998 0 12705 -0.28476141080481998 1
gene 3 2546 52 -0.31712838509917651 0 12706 -0.31712838509917651 1
gene 1 510 2260 -0.38199106668214833 0 12735 -0.38199106668214833 1
gene 3 3 2609 -0.34352922292590576 1 13023 -0.34352922292590576 1
gene 3 2609 3 -0.56103081980768155 0 13024 -0.56103081980768155 1
gene 2 1182 766 -0.074101657641167606 0 13485 -0.074101657641167606 1
gene 3 766 2451 -0.18206915151424199 1 13692 -0.18206915151424199 1
gene 1 52 2609 0.46701766409306678 0 13973 0.46701766409306678 0
gene 1 105 1941 -0.74743955640468729 0 14213 -0.74743955640468729 1
gene 2 2209 2209 0.45453029240226844 1 14479 0.45453029240226844 1
gene 2 2208 1941 -0.29699181360052518 0 14634 -0.29699181360052518 1
gene 3 612 2464 -0.46668407203009554 0 14879 -0.46668407203009554 1
gene 1 52 2994 0.71454390288076541 0 14955 0.71454390288076541 1
gene 1 2994 2609 -0.2043134408091723 0 14956 -0.2043134408091723 0
gene 2 2 3003 -0.28589449044591492 0 15013 -0.28589449044591492 1
gene 2 3003 1254 -0.863208886172254 0 15014 -0.863208886172254 1
gene 2 2260 1600 0.71538888952480106 0 15587 0.71538888952480106 1
gene 1 2994 2209 -0.77644629067575854 0 15731 -0.77644629067575854 1
gene 3 162 3149 -0.63997465751132676 1 15740 -0.63997465751132676 1
gene 3 3149 590 0.36444439942224155 0 15741 0.36444439942224155 1
gene 1 643 3149 0.33269477790812735 0 15861 0.33269477790812735 1
gene 3 1178 378 -0.11165732662736311 0 16235 -0.11165732662736311 1
gene 2 701 2260 0.3986814349883615 0 16378 0.3986814349883615 1
gene 1 612 2609 -0.33547410384541104 0 16396 -0.33547410384541104 0
gene 3 1 2208 -0.13869416510625471 0 16890 -0.13869416510625471 1
gene 2 2546 2209 -0.20642403732353079 0 17049 -0.20642403732353079 1
gene 3 1646 643 0.07355764139143639 0 17074 0.07355764139143639 1
gene 1 105 3401 0.54645559612962213 0 17128 0.54645559612962213 0
gene 1 3401 1646 -0.475041674904079 0 17129 -0.475041674904079 1
gene 3 3149 3149 -0.87576916365687241 1 17138 -0.87576916365687241 1
gene 1 2208 227 0.22109087566895913 0 17350 0.22109087566895913 1
gene 2 378 3454 -0.81655303892519004 1 17415 -0.81655303892519004 1
gene 3 3454 378 0.46647904415916608 0 17416 0.46647904415916608 1
gene 3 1749 2546 0.10383576648488446 0 17433 0.10383576648488446 1
gene 2 2208 3473 0.086544997099109483 0 17507 0.086544997099109483 1
gene 2 3473 14 0.90617350624230397 0 17508 0.90617350624230397 1
gene 2 52 3528 -0.093031450683731323 0 17774 -0.093031450683731323 1
gene 2 3528 2209 -0.63110095804142818 0 17775 -0.63110095804142818 1
gene 2 12 3564 -0.23590083175147919 0 17954 -0.23590083175147919 1
gene 2 3564 2451 0.38638401957526053 0 17955 0.38638401957526053 1
gene 1 567 3614 1.084238612132258 0 18175 1.084238612132258 1
gene 1 3614 378 0.33470901932320979 0 18176 0.33470901932320979 1
gene 1 105 3619 -0.35871231735624015 0 18198 -0.35871231735624015 1
gene 1 3619 3401 0.26328926569004046 0 18199 0.26328926569004046 1
gene 2 3614 3614 0.21212813966541 1 18623 0.21212813966541 1
gene 1 612 3714 -0.22483250881770278 0 18754 -0.22483250881770278 1
gene 1 3714 2609 0.20111327883839294 0 18755 0.20111327883839294 1
gene 3 2609 2994 -0.22279267395976587 0 18993 -0.22279267395976587 1
gene 2 2546 590 0.074073708185029077 0 19142 0.074073708185029077 1
gene 1 3401 2994 -0.43409046900183451 0 19220 -0.43409046900183451 1
gene 2 1254 273 -0.39255029423746757 0 19409 -0.39255029423746757 1
gene 1 1178 1749 0.72471358660828022 0 19567 0.72471358660828022 1
gene 3 378 3885 1 0 19602 1 1
gene 3 3885 1600 1.8702329189377989 0 19603 1.8702329189377989 1
gene 3 590 590 -1.0792295504730332 1 19665 -1.0792295504730332 1
gene 2 3619 3614 0.63842105522678283 0 19789 0.63842105522678283 1
gene 2 3473 3473 0.1581891082032533 1 19898 0.1581891082032533 1
gene 2 2 3958 0.67711687329090986 0 19992 0.67711687329090986 1
gene 2 3958 567 0.33308532244203859 0 19993 0.33308532244203859 1
gene 1 1254 378 -1.0812414456537187 0 20015 -1.0812414456537187 1
gene 3 567 52 0.37425070250139142 0 20061 0.37425070250139142 1
gene 1 3454 1749 -0.46622044056012318 0 20664 -0.46622044056012318 1
gene 1 3619 643 0.72832916152120064 0 20678 0.72832916152120064 1
genomeend 1
