genomestart 1
trait 1 1 1 1 0.789998 0.66082 0.573589 0.160869 0.414929 
trait 2 0.9 0.328305 0 1 0 0 1 0 
trait 3 0 0 1 0.383539 0.83948 0.438932 0 0.808551 
node 1 3 1 3
node 2 3 1 1
node 3 3 0 2
node 4 1 0 2
node 10 2 0 0
node 20 2 0 0
node 27 3 0 0
node 29 2 0 0
node 34 2 0 0
node 74 2 0 0
node 162 1 0 0
node 233 3 0 0
node 246 1 0 0
node 261 3 0 0
node 399 1 0 0
node 416 1 0 0
node 422 1 0 0
node 444 3 0 0
node 505 1 0 0
node 556 1 0 0
node 574 1 0 0
node 616 1 0 0
node 648 1 0 0
node 657 1 0 0
node 664 1 0 0
node 682 1 0 0
node 731 1 0 0
node 759 1 0 0
node 789 1 0 0
node 804 1 0 0
node 837 1 0 0
node 878 1 0 0
gene 2 1 3 -1.7898886624210928 0 1 -1.7898886624210928 1
gene 3 2 3 0.23681762522869632 0 2 0.23681762522869632 1
gene 1 1 4 -8 0 3 -8 1
gene 3 2 4 0.038217683573354817 0 4 0.038217683573354817 0
gene 2 4 3 0.00016545853585259174 1 14 0.00016545853585259174 1
gene 3 4 10 -0.32057988914688113 1 38 -0.32057988914688113 1
gene 1 10 3 -0.072374528540472743 0 39 -0.072374528540472743 1
gene 3 2 20 -0.049060747515904113 0 91 -0.049060747515904113 0
gene 3 20 3 -0.84415252662457163 0 92 -0.84415252662457163 1
gene 1 2 10 -1.018120380126927 0 100 -1.018120380126927 1
gene 3 2 27 0.79097834219735974 0 151 0.79097834219735974 1
gene 3 27 20 -0.43036226529179245 0 152 -0.43036226529179245 0
gene 2 3 4 0.47421250328152093 1 164 0.47421250328152093 0
gene 3 27 29 -0.28898096377448224 0 167 -0.28898096377448224 1
gene 3 29 20 -0.49239242169651776 0 168 -0.49239242169651776 0
gene 2 29 34 0.89307765168746822 0 200 0.89307765168746822 1
gene 3 34 20 -1.1690061514587169 0 201 -1.1690061514587169 0
gene 3 1 27 0.001815644792195259 0 213 0.001815644792195259 1
gene 3 4 4 -0.39025528002076565 1 436 -0.39025528002076565 0
gene 3 4 74 -0.33139048671880289 1 502 -0.33139048671880289 0
gene 3 74 4 -0.039159250231068254 0 503 -0.039159250231068254 1
gene 2 27 34 0.15027494595864552 0 519 0.15027494595864552 0
gene 3 2 74 -0.18638766588940642 0 561 -0.18638766588940642 1
gene 1 20 10 -0.26720012946389621 0 579 -0.26720012946389621 0
gene 1 1 74 0.4088001711800695 0 635 0.4088001711800695 1
gene 1 74 74 -0.17095016439955224 1 831 -0.17095016439955224 1
gene 3 3 3 2.4871270933594212 1 1002 2.4871270933594212 1
gene 2 3 162 -0.21711151963896655 1 1210 -0.21711151963896655 1
gene 2 162 4 -0.20820914730811918 0 1211 -0.20820914730811918 1
gene 2 162 162 0.16557850044480454 1 1229 0.16557850044480454 1
gene 2 162 27 -0.45680496979356044 0 1387 -0.45680496979356044 0
gene 2 20 20 -0.32706832318895884 1 1501 -0.32706832318895884 1
gene 2 162 34 -0.24926473025663978 0 1644 -0.24926473025663978 0
gene 3 74 20 0.41776601454139034 0 1674 0.41776601454139034 1
gene 3 29 74 0.019961039544996395 0 1692 0.019961039544996395 0
gene 3 34 4 0.18819657302843248 0 1798 0.18819657302843248 1
gene 2 27 233 -0.47576895890560422 0 1848 -0.47576895890560422 1
gene 2 233 34 2.9279382433406718 0 1849 2.9279382433406718 1
gene 1 2 233 -1.3955016524510002 0 1931 -1.3955016524510002 1
gene 2 34 74 -0.51603079727666024 0 1966 -0.51603079727666024 0
gene 2 2 246 1.1558317063170631 0 1974 1.1558317063170631 1
gene 3 246 4 -0.43074811549426434 0 1975 -0.43074811549426434 0
gene 1 10 4 1.9772188176760537 0 2105 1.9772188176760537 1
gene 2 27 261 2.0862531310814685 0 2118 2.0862531310814685 1
gene 2 261 233 0.30883657969945882 0 2119 0.30883657969945882 1
gene 2 20 29 0.89187659155199117 1 2268 0.89187659155199117 1
gene 2 261 4 -0.82442356358488256 0 2379 -0.82442356358488256 1
gene 2 233 20 -0.49876937968599128 0 2388 -0.49876937968599128 0
gene 1 261 261 1.4982097349121282 1 2396 1.4982097349121282 1
gene 1 29 10 0.54516775628792502 0 2408 0.54516775628792502 1
gene 2 34 10 0.35883089241517285 0 2498 0.35883089241517285 0
gene 2 246 246 -0.30653992425954896 1 2527 -0.30653992425954896 1
gene 2 20 4 -0.74072764964808135 0 2553 -0.74072764964808135 1
gene 2 27 27 0.49973348597983536 1 2600 0.49973348597983536 1
gene 2 233 4 -0.43069725061333608 0 2636 -0.43069725061333608 0
gene 1 246 20 -0.57508123995507188 0 2646 -0.57508123995507188 1
gene 1 261 20 0.24699855421064357 0 2687 0.24699855421064357 1
gene 2 162 74 0.070603221920599812 0 2699 0.070603221920599812 1
gene 2 1 246 -0.47151100494503556 0 2759 -0.47151100494503556 1
gene 2 2 261 -0.30149429771187447 0 2773 -0.30149429771187447 0
gene 2 27 10 0.13907599735030718 0 2779 0.13907599735030718 0
gene 1 27 74 0.68084412542211115 0 3040 0.68084412542211115 0
gene 2 246 233 0.18040448039788962 0 3095 0.18040448039788962 1
gene 2 29 3 0.44751854122035134 0 3106 0.44751854122035134 1
gene 3 246 74 -0.34461130939638768 0 3150 -0.34461130939638768 1
gene 3 2 399 0.59418252207999234 0 3276 0.59418252207999234 1
gene 3 399 261 -0.40633483412970556 0 3277 -0.40633483412970556 1
gene 3 399 3 0.51776111010357795 0 3287 0.51776111010357795 1
gene 1 27 416 0.38097088056661688 0 3402 0.38097088056661688 1
gene 1 416 74 -0.82547539720566732 0 3403 -0.82547539720566732 1
gene 2 34 422 -0.37452404847113602 0 3488 -0.37452404847113602 1
gene 2 422 10 0.032265582136933521 0 3489 0.032265582136933521 0
gene 3 422 416 0.55206594292636302 0 3514 0.55206594292636302 0
gene 1 1 399 0.68900196798564961 0 3539 0.68900196798564961 1
gene 2 162 399 -0.5540156178427933 0 3564 -0.5540156178427933 0
gene 2 399 233 0.44792155593071215 0 3625 0.44792155593071215 0
gene 1 1 29 -0.33884580612128873 0 3668 -0.33884580612128873 1
gene 3 74 3 0.28674212158040241 0 3705 0.28674212158040241 1
gene 2 27 444 0.051226241072279473 0 3716 0.051226241072279473 1
gene 2 444 10 -0.3944188081167726 0 3717 -0.3944188081167726 1
gene 3 34 34 -0.31073191916138487 1 3732 -0.31073191916138487 1
gene 2 444 261 -0.069086106060578564 0 4040 -0.069086106060578564 1
gene 2 34 505 0.39114406397153811 0 4161 0.39114406397153811 1
gene 3 505 74 0.098366049396975921 0 4162 0.098366049396975921 1
gene 3 505 20 0.48223487892292199 0 4166 0.48223487892292199 1
gene 2 505 29 1.359279926102273 1 4259 1.359279926102273 1
gene 3 399 422 -0.33492395320670865 0 4469 -0.33492395320670865 1
gene 1 261 422 -0.36291938687810643 0 4514 -0.36291938687810643 1
gene 3 29 556 0.6848905676439826 0 4533 0.6848905676439826 1
gene 3 556 74 -0.16271623348012401 0 4534 -0.16271623348012401 1
gene 1 27 422 -0.93429832762773068 0 4544 -0.93429832762773068 0
gene 3 505 422 0.019945721151281903 0 4606 0.019945721151281903 1
gene 3 162 505 0.60578598412954532 0 4659 0.60578598412954532 1
gene 3 246 574 0.46656231836721418 0 4673 0.46656231836721418 1
gene 3 574 4 0.28264880496200584 0 4674 0.28264880496200584 1
gene 2 1 505 -0.51920177578888915 0 4895 -0.51920177578888915 1
gene 2 574 574 -0.75258453923863566 1 5007 -0.75258453923863566 1
gene 2 29 422 -0.21321528251898256 0 5013 -0.21321528251898256 1
gene 1 27 616 -0.93689418697585092 0 5046 -0.93689418697585092 1
gene 1 616 422 0.0021933417311838558 0 5047 0.0021933417311838558 1
gene 1 399 27 0.43670366189289073 0 5246 0.43670366189289073 1
gene 2 233 648 1.3378249331553584 0 5324 1.3378249331553584 1
gene 2 648 4 1.7363590322138551 0 5325 1.7363590322138551 1
gene 3 1 556 -0.21689133146632986 0 5334 -0.21689133146632986 1
gene 1 2 416 0.77634411457755803 0 5374 0.77634411457755803 1
gene 3 34 657 -0.57432099668044634 0 5403 -0.57432099668044634 1
gene 3 657 20 -0.12889405182976932 0 5404 -0.12889405182976932 1
gene 2 505 616 1.5310014228015214 0 5407 1.5310014228015214 1
gene 1 74 574 -0.23028240829253679 0 5438 -0.23028240829253679 1
gene 2 399 664 0.041157836113664234 0 5446 0.041157836113664234 1
gene 2 664 233 -0.56939015075070321 0 5447 -0.56939015075070321 1
gene 2 1 616 0.23235845273936095 0 5587 0.23235845273936095 1
gene 3 4 682 -0.15052868642403217 1 5601 -0.15052868642403217 1
gene 3 682 74 -0.51134279021590145 0 5602 -0.51134279021590145 1
gene 1 34 682 -0.31485593170619375 0 5797 -0.31485593170619375 1
gene 3 2 731 -0.28083662794941877 0 6054 -0.28083662794941877 1
gene 3 731 3 0.35974180226202207 0 6055 0.35974180226202207 1
gene 1 682 416 0.41039367132372861 0 6064 0.41039367132372861 1
gene 1 20 759 0.31521686367467833 0 6280 0.31521686367467833 1
gene 1 759 10 0.13481659867559403 0 6281 0.13481659867559403 1
gene 1 27 3 -0.12158917804322636 0 6337 -0.12158917804322636 1
gene 3 682 505 -0.44282831621488011 0 6531 -0.44282831621488011 1
gene 3 422 789 -0.20824124650482145 0 6551 -0.20824124650482145 1
gene 3 789 416 -0.34309854420977576 0 6552 -0.34309854420977576 1
gene 3 399 10 0.19787935782125191 0 6573 0.19787935782125191 1
gene 3 246 399 0.041308484990759009 0 6709 0.041308484990759009 1
gene 2 162 804 1.2869381535737487 0 6718 1.2869381535737487 1
gene 2 804 27 1.5552704450931729 0 6719 1.5552704450931729 1
gene 1 505 556 0.21499273027991536 0 6725 0.21499273027991536 1
gene 3 731 657 -0.37874877936148493 0 6793 -0.37874877936148493 1
gene 1 574 3 0.77967593645661892 0 6815 0.77967593645661892 1
gene 2 399 616 -0.3962205701490028 0 6824 -0.3962205701490028 1
gene 2 616 759 -1.1089330802713209 0 6850 -1.1089330802713209 1
gene 2 422 837 0.19666279861548114 0 7035 0.19666279861548114 1
gene 2 837 10 -0.26008288970220966 0 7036 -0.26008288970220966 1
gene 3 574 648 -0.058686250848083876 0 7051 -0.058686250848083876 1
gene 2 616 657 -0.83535276555239824 0 7158 -0.83535276555239824 1
gene 3 731 261 -1.0615019500541976 0 7166 -1.0615019500541976 1
gene 1 682 682 -0.9251020596945202 1 7237 -0.9251020596945202 1
gene 2 162 878 1 0 7387 0 1
gene 2 878 34 -0.24926473025663978 0 7388 0 1
genomeend 1
