genomestart 1
trait 1 0.930261 0.871831 0.874107 1 0 1 0.655138 0.665053 
trait 2 0.704858 1 0 1 0 0 0.356032 0.919231 
trait 3 0.780753 0.804104 1 1 0 0 1 1 
node 1 3 1 3
node 2 1 1 1
node 3 3 0 2
node 4 2 0 2
node 14 1 0 0
nodegru 24 0 0.030597123797329678 -0.16475501734053488 0.79885675515926291 0.2748257027821735 0.98689229855634841 0.39139411826217274 [ -0.3142200707524177 0.4938934717764582 -0.24979157384940961 0.13762220257782479 ] [ -0.57435828823333523 -0.22034279826113154 0.55584362105272878 0.07424309829913224 ] [ 0.2470660606618347 -0.80238813920989083 0.2773732113546567 0 ]
nodegru 34 0 -0.082721180321053217 0.27944807628143953 -0.083761857395880768 1.1008924837694003 0.033923145865054405 -0.44480579111017554 [ 0.34489895698842554 ] [ 0.012765636440723038 ] [ 0.56109510644390026 ]
node 39 1 0 0
node 305 3 0 0
node 353 2 0 0
node 462 3 0 0
node 594 1 0 0
node 687 1 0 0
nodegru 717 0 0.54881131162345931 -0.15839329206309902 -0.36873143439587736 0.64545307897285231 -0.39979494498101764 0.30211483142437173 [ 0.058890371843655767 -0.25475131266505985 0.18090630494100335 -0.5708959875958487 ] [ -0.8431938382998081 0.52570364881572484 -0.086505094350550843 -0.018294027782182198 ] [ 1.0191553616985471 0.19651049035438825 -0.40974795464880204 0.37544067547444288 ]
nodegru 723 0 0.25010852154815033 -0.58350091291754547 0.29641337869521855 -0.49795690970400203 0.4710816349699542 -0.26660178148495117 [ -0.18036256575973825 0 ] [ 0.80032503083363404 -0.42202937785630551 ] [ -0.094040181531589565 0 ]
nodegru 793 0 0.32237489047570844 -0.11928360495682977 -0.33792772532344223 -0.15358179744965475 -0.74567970365550351 -0.2708519875401873 [ 0.4015041442594976 -0.97087691327132153 ] [ 0.1620345745058891 -0.89760052547678382 ] [ -0.32050971864746408 -0.29027320551233049 ]
nodegru 839 0 0.081657953365546598 -0.86490622715321663 0.47906945388720812 0.57008908017076965 -0.40014010523452426 -0.0013118437497465774 [ -0.47591181889917322 0.22050299040065285 ] [ -0.00315179512982805 -1.6809950297144218 ] [ -0.40180229810150453 0.84219183090244965 ]
node 856 1 0 0
node 977 1 0 0
nodegru 980 0 -0.096503274327378374 0.4579325818726479 -0.06744132473480019 0.73719858552198791 0.17899751345580323 0.64618590690483613 [ -0.68016065269716108 -0.019208023566383875 0.52143295086986996 0.45332854355374747 ] [ -0.25786290842008919 0.2512561051413677 0.38304690685265086 -0.34473077060875057 ] [ -0.587964361108823 -0.19222456225763287 0.86215501388635252 0.053403016204667753 ]
node 1007 2 0 0
nodegru 1174 0 0.14305345371507736 -0.79906205404506159 0.16453695561016768 -0.52241129941419295 0.079583200663134096 0.93116228046415483 [ -0.10219861292382636 -0.092820452103773377 0.12915291387082678 ] [ -0.33893377908455852 -0.04882505841032838 -0.23150216007209484 ] [ 1.1264426317654748 0.6524823741766077 0.045956322944702734 ]
node 1249 1 0 0
node 1254 1 0 0
nodegru 1325 0 -0.058897503679104853 0.32737471853726297 0 0.30007464359517888 -0.0085773537906712605 -0.0171881511421819 [ -0.3191493525258961 ] [ 0 ] [ 0 ]
nodegru 1349 0 0.074122585623582163 0.61901519918768444 -0.10739026503050245 -0.13894162449936459 -0.58804531655648973 -0.16773358856687956 [ -0.59301525824378021 0.044157480375914604 ] [ 0.18491760044587663 -0.11492621973851985 ] [ -0.32232067772295359 0 ]
node 1401 1 0 0
nodegru 1410 0 -0.71096919370394629 0.27908745816866282 -0.026758774894642998 0.30915109385231093 0.44349362000054382 0.10478855907208684 [ -0.67045907032231766 0.093790132596059769 0.11832646984529051 ] [ 0.17821626373483623 0.29521694816426236 0 ] [ 0.2198389334230865 0.069695836896866523 -0.58200676486920877 ]
node 1435 1 0 0
node 1448 1 0 0
nodegru 1700 0 -0.37622256757515604 -0.67467548496773255 -0.19998563765547497 -0.46617800740812809 -0.22880940685458923 -0.09219849812434916 [ -0.67383439474452023 -0.30908405050127025 ] [ 0.43052434801614115 -0.48393441153873434 ] [ -0.71065030117083827 0.32112511541746791 ]
node 1725 1 0 0
node 1774 1 0 0
nodegru 1950 0 0.20590866436525651 -0.33596497906184059 0.47041959523708543 0 0.31105259308174837 0.13022117835014183 [ 0.21603129790911046 ] [ -0.4987929284101319 ] [ 0 ]
node 2053 1 0 0
node 2110 1 0 0
nodegru 2184 0 -0.45849500990402653 0 0.2775372142333245 0.39241410693731815 -0.058209167820498897 -0.44983287642236469 [ -0.13439256331622254 ] [ 0 ] [ 0.20299449898441999 ]
node 2235 1 0 0
node 2239 1 0 0
nodegru 2336 0 0 -0.33437047471961495 -0.38336954912327675 -0.41058288137921267 0.11204459686393133 -0.43902922837949787 [ -0.49628716241395432 ] [ 0.24763151013647741 ] [ -0.29699104176694108 ]
node 2500 1 0 0
gene 1 1 3 1.4439822607412849 0 1 1.4439822607412849 1
gene 1 2 3 0.75109217560435271 0 2 0.75109217560435271 0
gene 1 1 4 0.42529628725037738 0 3 0.42529628725037738 1
gene 3 2 4 -0.40948196799004544 0 4 -0.40948196799004544 0
gene 2 3 3 -1.1094444343398533 1 26 -1.1094444343398533 0
gene 2 2 14 -0.45858042126455362 0 34 -0.45858042126455362 0
gene 2 14 3 -0.7213911284792196 0 35 -0.7213911284792196 0
gene 2 14 14 -0.24772802821720397 1 49 -0.24772802821720397 0
gene 1 2 24 0.34637109089939411 0 63 0.34637109089939411 0
gene 1 24 4 -0.22105664234657613 0 64 -0.22105664234657613 0
gene 2 2 34 -0.16437197414430432 0 105 -0.16437197414430432 1
gene 3 34 24 -0.30528152561992467 0 106 -0.30528152561992467 1
gene 3 24 39 -0.91194469198209416 0 123 -0.91194469198209416 0
gene 1 39 4 -2.1677003454732247 0 124 -2.1677003454732247 1
gene 2 34 4 2.9533662637478515 0 132 2.9533662637478515 1
gene 1 1 14 0.26839057112503356 0 168 0.26839057112503356 1
gene 3 24 305 -0.049599426355957738 0 1347 -0.049599426355957738 0
gene 3 305 39 -1.785204868430833 0 1348 -1.785204868430833 1
gene 3 305 3 -0.2730860385452798 0 1359 -0.2730860385452798 0
gene 2 305 14 0.14923448332084083 0 1431 0.14923448332084083 1
gene 3 24 353 0.4376059092756388 0 1551 0.4376059092756388 0
gene 2 353 305 0.46770388352112097 0 1552 0.46770388352112097 0
gene 2 1 353 -0.21299053645366361 0 1669 -0.21299053645366361 1
gene 1 2 353 -0.58448147102467773 0 1742 -0.58448147102467773 0
gene 2 2 39 2.0247404810622061 0 1791 2.0247404810622061 1
gene 1 34 305 1.3965456024261871 0 1799 1.3965456024261871 1
gene 3 39 14 0.94423643869545137 0 1900 0.94423643869545137 0
gene 1 34 14 0.29203981337698182 0 1910 0.29203981337698182 1
gene 2 14 462 -0.8893839832811542 1 2082 -0.8893839832811542 0
gene 3 462 14 0.67268380507486125 0 2083 0.67268380507486125 0
gene 3 34 39 0.51777268970281476 0 2433 0.51777268970281476 1
gene 2 305 462 -0.95750943802181143 0 2474 -0.95750943802181143 1
gene 3 24 594 0.61689040629048386 0 2733 0.61689040629048386 0
gene 3 594 353 0.60069260261985125 0 2734 0.60069260261985125 1
gene 3 2 594 -0.76702000213182531 0 2879 -0.76702000213182531 1
gene 3 34 594 0.27609382419665057 0 2928 0.27609382419665057 1
gene 2 3 24 -0.40345590277735882 1 3048 -0.40345590277735882 1
gene 3 305 687 0.043774866519390998 0 3176 0.043774866519390998 0
gene 1 687 3 0.22254278986833187 0 3177 0.22254278986833187 1
gene 2 14 717 2.5050933128246542 1 3354 2.5050933128246542 1
gene 2 717 462 0.86193642851986763 0 3355 0.86193642851986763 1
gene 1 353 723 -0.091673771893453604 0 3390 -0.091673771893453604 0
gene 3 723 305 -0.4015617598321114 0 3391 -0.4015617598321114 0
gene 3 24 793 -0.1892680517347847 0 3730 -0.1892680517347847 1
gene 3 793 594 0.7870107822991026 0 3731 0.7870107822991026 0
gene 1 717 3 0.29486202648601589 0 3874 0.29486202648601589 1
gene 1 2 839 0.6792063131831616 0 3949 0.6792063131831616 0
gene 1 839 353 1.756730376629499 0 3950 1.756730376629499 0
gene 2 1 717 -0.044491880594050445 0 4027 -0.044491880594050445 1
gene 1 2 856 1.6305180062216322 0 4036 1.6305180062216322 0
gene 1 856 839 -0.46411570020211662 0 4037 -0.46411570020211662 1
gene 2 687 687 -2.3281149344184038 1 4375 -2.3281149344184038 0
gene 2 3 977 0.59628504356196377 1 4660 0.59628504356196377 1
gene 2 977 3 0.31821312770164256 0 4661 0.31821312770164256 0
gene 2 687 980 -0.15006291035100019 1 4672 -0.15006291035100019 1
gene 2 980 687 -1.3595292921455249 0 4673 -1.3595292921455249 1
gene 1 594 594 -1.1929108920474121 1 4693 -1.1929108920474121 0
gene 1 594 1007 -0.58584828399394095 1 4788 -0.58584828399394095 1
gene 1 1007 594 0.048587858233874515 0 4789 0.048587858233874515 0
gene 3 687 793 0.34392219076115738 1 5201 0.34392219076115738 1
gene 2 305 980 -0.1928204766906893 0 5212 -0.1928204766906893 0
gene 3 4 4 0.50036323675902727 1 5544 0.50036323675902727 0
gene 2 462 1174 0.16984764890272525 0 5639 0.16984764890272525 1
gene 2 1174 14 0.49343594279765901 0 5640 0.49343594279765901 1
gene 3 723 3 1.285318500728029 0 5880 1.285318500728029 0
gene 2 977 1249 -1.0875063185056235 0 5968 -1.0875063185056235 0
gene 1 1249 3 -0.51873111562744301 0 5969 -0.51873111562744301 1
gene 2 2 1254 -0.43226284879830801 0 5997 -0.43226284879830801 0
gene 3 1254 14 0.49166084453075226 0 5998 0.49166084453075226 1
gene 1 2 1325 0.26515683357843972 0 6309 0.26515683357843972 1
gene 1 1325 856 -0.26104380994152454 0 6310 -0.26104380994152454 1
gene 3 723 1349 1.2227783211147314 0 6412 1.2227783211147314 0
gene 3 1349 305 -1.6838101719896355 0 6413 -1.6838101719896355 1
gene 2 462 3 0.56627744579048711 0 6421 0.56627744579048711 1
gene 2 305 1401 1.5342633382111153 0 6653 1.5342633382111153 1
gene 2 1401 980 -1.1053653273756454 0 6654 -1.1053653273756454 1
gene 3 305 1410 1.5334041970937533 0 6697 1.5334041970937533 1
gene 3 1410 687 0.28230964079606796 0 6698 0.28230964079606796 1
gene 2 2 1435 -0.0063661227498045536 0 6815 -0.0063661227498045536 0
gene 2 1435 1254 -0.52645921615253166 0 6816 -0.52645921615253166 0
gene 2 1435 1448 0.1333000027264003 0 6876 0.1333000027264003 1
gene 1 1448 1254 -0.89008206217087893 0 6877 -0.89008206217087893 1
gene 3 1349 462 -0.014865728102096271 0 7086 -0.014865728102096271 1
gene 1 839 14 -0.17715993159318338 0 7374 -0.17715993159318338 1
gene 2 24 1007 -0.45902614386706897 0 7476 -0.45902614386706897 1
gene 3 353 1448 -0.18948512416774643 0 7522 -0.18948512416774643 1
gene 2 1174 1448 0.26556492236702001 0 7565 0.26556492236702001 0
gene 1 723 1254 -2.05400304498803 0 7589 -2.05400304498803 1
gene 3 353 1410 0.55545457408551802 0 7877 0.55545457408551802 1
gene 1 839 1700 -0.14070895413901141 0 8033 -0.14070895413901141 1
gene 1 1700 353 0.63844427938500625 0 8034 0.63844427938500625 1
gene 2 2 1725 0.37205333768951399 0 8167 0.37205333768951399 1
gene 2 1725 1435 -0.52221863205647967 0 8168 -0.52221863205647967 1
gene 3 723 1774 0.1390642252001279 0 8401 0.1390642252001279 1
gene 3 1774 3 0.41749162549036167 0 8402 0.41749162549036167 1
gene 3 1700 1174 0.29619111157776373 0 8410 0.29619111157776373 1
gene 2 1249 1007 1.4692664076431032 0 8572 1.4692664076431032 1
gene 3 1435 1007 0.11190898302565749 0 8821 0.11190898302565749 1
gene 1 687 462 -0.71937225745961642 0 9119 -0.71937225745961642 1
gene 2 1774 1774 -0.40220331372795781 1 9243 -0.40220331372795781 1
gene 3 723 1950 -0.43270621864716813 0 9282 -0.43270621864716813 1
gene 3 1950 1349 0.16878982734344425 0 9283 0.16878982734344425 1
gene 3 1401 1774 0.054092325062533989 0 9671 0.054092325062533989 1
gene 3 1249 462 -0.16077759706451444 0 9698 -0.16077759706451444 1
gene 2 34 717 -0.33154009391159756 0 9755 -0.33154009391159756 1
gene 3 4 2053 1.2233492954277196 1 9770 1.2233492954277196 1
gene 1 2053 4 0.65867153748808049 0 9771 0.65867153748808049 0
gene 1 1325 1448 -0.06404030232878416 0 9945 -0.06404030232878416 1
gene 3 2053 2110 -0.08962071691156398 0 10060 -0.08962071691156398 1
gene 3 2110 4 1.121963058189472 0 10061 1.121963058189472 1
gene 3 1249 980 0.33165829667433083 0 10139 0.33165829667433083 1
gene 1 353 2184 0.30908800536258518 0 10412 0.30908800536258518 1
gene 1 2184 723 -0.073451176552777692 0 10413 -0.073451176552777692 1
gene 3 2184 717 -0.20815907079175072 0 10419 -0.20815907079175072 1
gene 3 1249 1249 -0.30522593031880724 1 10430 -0.30522593031880724 1
gene 2 977 1174 0.091735723936807234 0 10493 0.091735723936807234 1
gene 2 1007 1410 0.026967327355857607 0 10536 0.026967327355857607 1
gene 3 2184 462 -1.1350800404954144 0 10693 -1.1350800404954144 1
gene 1 2 2235 0.62814901565581049 0 10700 0.62814901565581049 1
gene 1 2235 3 -0.11874004947894265 0 10701 -0.11874004947894265 1
gene 1 1007 2239 0.74871083872798405 0 10724 0.74871083872798405 1
gene 1 2239 594 -0.3692288935972512 0 10725 -0.3692288935972512 1
gene 1 1 1725 -0.91462967657234051 0 10742 -0.91462967657234051 1
gene 1 1774 2110 0.72078138344026232 0 10766 0.72078138344026232 1
gene 3 1249 1700 0.76745786902842006 0 11081 0.76745786902842006 1
gene 3 793 2336 0.46837299944291494 0 11265 0.46837299944291494 1
gene 3 2336 594 0.37127959582548553 0 11266 0.37127959582548553 1
gene 3 723 462 0.60035353600995311 0 11354 0.60035353600995311 1
gene 2 1725 24 -0.088090756483418284 0 11961 -0.088090756483418284 1
gene 2 977 2500 1 0 12064 0 1
gene 2 2500 1249 -1.0875063185056235 0 12065 0 1
gene 1 2336 1254 0.70856804014582564 0 12194 0.70856804014582564 1
gene 1 34 2500 -0.27968536749467504 0 12241 -0.27968536749467504 1
gene 2 793 462 0.62924702355137418 0 12304 0.62924702355137418 1
genomeend 1
