genomestart 1
trait 1 1 0.0376644 0.563711 0.32437 1 0 1 0.229704 
trait 2 0.506276 0 1 0 1 1 0.0603482 0.875567 
trait 3 0 0 0.127646 0 0 0.521432 0 0.673743 
node 1 2 1 3
node 2 3 1 1
node 3 3 0 2
node 4 2 0 2
nodegru 18 0 0.38938958192681411 0.33173984164918768 0.12055741419110327 -0.18844625502286771 -0.053998225393704247 -0.29438171502872446 [ -1.8830113284676389 -0.33386261054960198 -0.35595387213675017 -0.36041038779560958 0 ] [ 0.22953522402305865 0.252164507867845 0 0.48474318230745533 0 ] [ 0.20502461502562497 0.12285732087812264 -0.054751208776026593 0.67006212946496069 0 ]
nodegru 28 0 0.35184926602609889 -0.034306019327745782 -0.20687428149714801 -1.5584211622171202 0.01090356242419388 -0.36877904500289777 [ -0.26210171369002283 -0.88376951631334111 -0.24710397177706656 -0.097885493467508577 0.41715670536139826 0.38365950499831675 ] [ -0.24665090686020022 -1.8927873679868821 -0.087260455865068531 -0.049126680963266028 0.14942713158644136 0 ] [ 0.79548865128098467 -0.27336197987821048 1.7546475286384338 -0.89477640362213196 -0.10170200937506829 -0.42804611703755618 ]
node 35 1 0 0
node 102 1 0 0
nodegru 296 0 0.021979570631859624 0.34735436474315562 -1.1139947251016249 1.6893652745938699 0.86721097625196497 0.16599324376601413 [ -0.33373992300300848 -0.016933013460101953 0.61347720265084738 -0.21898631552187092 -0.69007219685710586 -0.23852620750597037 0.42841646910105668 0.59166663307308531 -0.37953345262423782 -0.2775770082499725 ] [ -0.75038860377408034 -0.92425200549152309 0.89471543715089363 0.4129454048410735 1.3787278578983289 0.068909344295463221 0.071198150083049278 0.50770191825353628 0 0 ] [ -0.83267992587419248 -0.29456169777296565 0.73164439375123214 0.36529967694790089 0.3137612407159811 -0.26917635359297337 0.5205583942684151 -0.44332869650951057 -0.39694000263555906 -0.2519844135977255 ]
node 382 1 0 0
node 385 3 0 0
node 393 1 0 0
node 437 3 0 0
nodegru 544 0 0.36061979847057707 -0.35458654763856279 -0.28454590392510681 1.5893617778035634 -0.51642067684625315 -0.23486349207109936 [ 0.19001890681219236 0 ] [ 0.5220881756497957 0 ] [ 0.78599612730834445 0 ]
node 656 1 0 0
node 678 2 0 0
nodegru 752 0 -0.67636783289553959 -1.0467084227347319 -0.6306822850046131 -0.4990160248703398 0.16180922773750928 -0.53926789087209293 [ -0.76691269630888137 ] [ 0.18826604620007145 ] [ 1.1708668636488109 ]
nodegru 775 0 0.98601857176330809 -0.039493737527864892 0.48049163072392886 0.35172189299563028 -0.26027847722185704 0.56502535197186532 [ -0.10154331876036871 ] [ -0.084334629627100491 ] [ 0.30086700515861947 ]
node 830 1 0 0
nodegru 841 0 0.37169480713628922 0.092291458320008332 0.062435056344808559 -0.24601240979787539 -0.48606914770140741 0.40826060641941642 [ 0.75088168575935144 ] [ -0.66587565218372069 ] [ 0.04153554003757215 ]
nodegru 995 0 0.37903295288748712 -1.2668066638367281 -0.68297551185031202 -0.12132173968540585 0.41532699177755367 0 [ -0.20772063811669156 ] [ -0.18213753806526659 ] [ -0.29267150759355698 ]
node 1116 1 0 0
nodegru 1187 0 0.054922809617092276 -0.3682135699168842 -0.063380534790167836 0.015735343571629035 -0.1928489313893248 -0.74043742019703496 [ 0.35362119267397613 ] [ -0.056155738214103385 ] [ -0.34038964861090742 ]
nodegru 1193 0 0.18123292372619404 -0.41323631718439807 0.12802140746639173 -0.84101473602513543 -0.17844039373027179 0.39011488337540762 [ -0.37462605669844246 ] [ 0.234060112263104 ] [ 0.36151679971325995 ]
node 1232 3 0 0
nodegru 1252 0 -0.26723789156751609 0 0.014107374480975501 0.15659768048515435 0 0 [ 0.32684778460620334 ] [ -0.20880562030189001 ] [ 0 ]
nodegru 1278 0 0 0.13573630346718071 0 0 0 -0.31996585629878838 [ 0 ] [ 0 ] [ 0 ]
gene 2 1 3 -3.6183268991849973 0 1 -3.6183268991849973 1
gene 1 2 3 -0.2962510850263067 0 2 -0.2962510850263067 1
gene 1 1 4 0.10556865162475434 0 3 0.10556865162475434 1
gene 1 2 4 3.1734279725576884 0 4 3.1734279725576884 1
gene 1 3 4 0.18508035162700354 1 15 0.18508035162700354 1
gene 3 2 18 -1.0224592208501226 0 56 -1.0224592208501226 1
gene 3 18 4 3.581134277433685 0 57 3.581134277433685 1
gene 1 3 28 0.67339014083770565 1 97 0.67339014083770565 1
gene 1 28 4 -1.5432166697193015 0 98 -1.5432166697193015 0
gene 1 3 35 -0.52029791358872224 1 130 -0.52029791358872224 1
gene 3 35 28 0.29863191107224296 0 131 0.29863191107224296 0
gene 3 28 3 1.2478010117764591 0 137 1.2478010117764591 1
gene 3 2 35 -0.27867499169831866 0 398 -0.27867499169831866 0
gene 2 1 28 0.2185953688894377 0 411 0.2185953688894377 1
gene 3 2 102 -0.3153802628234868 0 429 -0.3153802628234868 0
gene 1 102 35 -0.21199988676793868 0 430 -0.21199988676793868 1
gene 2 3 3 0.11412603669526336 1 445 0.11412603669526336 1
gene 1 18 3 0.56618808841620949 0 620 0.56618808841620949 0
gene 3 1 102 -1.2667819637650539 0 1014 -1.2667819637650539 1
gene 3 1 18 1.3581531035518988 0 1020 1.3581531035518988 1
gene 3 18 35 -0.31301820572140537 0 1152 -0.31301820572140537 1
gene 2 18 296 1.2273330482315892 0 1372 1.2273330482315892 0
gene 1 296 3 -0.66045672384111986 0 1373 -0.66045672384111986 1
gene 3 28 296 -0.1714685965196549 0 1476 -0.1714685965196549 1
gene 1 4 18 -0.49880162859279742 1 1549 -0.49880162859279742 1
gene 3 102 296 0.61358461743853265 0 1709 0.61358461743853265 0
gene 2 102 3 0.65060464532608386 0 1716 0.65060464532608386 1
gene 3 102 382 -0.09761024759971082 0 1807 -0.09761024759971082 0
gene 3 382 296 0.062177728657693443 0 1808 0.062177728657693443 0
gene 1 3 385 -1.0952738852218138 1 1814 -1.0952738852218138 1
gene 1 385 4 -0.22182581141676094 0 1815 -0.22182581141676094 1
gene 1 4 4 1.0585081849985329 1 1847 1.0585081849985329 1
gene 3 2 393 -0.48111390647530272 0 1856 -0.48111390647530272 0
gene 3 393 3 1.1965135353135474 0 1857 1.1965135353135474 1
gene 3 382 28 -0.39570362930917358 0 1977 -0.39570362930917358 1
gene 1 2 296 0.75877622899542385 0 2033 0.75877622899542385 1
gene 3 2 437 0.16868288590045777 0 2064 0.16868288590045777 1
gene 3 437 393 -0.85962789755297253 0 2065 -0.85962789755297253 1
gene 2 3 18 1.1421445743842722 1 2081 1.1421445743842722 1
gene 1 382 382 0.66439073610323984 1 2168 0.66439073610323984 1
gene 1 296 393 -0.44927936254501305 0 2223 -0.44927936254501305 0
gene 1 3 544 0.12742795684720762 1 2514 0.12742795684720762 1
gene 1 544 385 0.75652933179239235 0 2515 0.75652933179239235 1
gene 1 437 382 0.49318612226899067 0 2882 0.49318612226899067 0
gene 3 2 656 0.064609104331866424 0 3055 0.064609104331866424 1
gene 3 656 102 0.0052151607839461545 0 3056 0.0052151607839461545 0
gene 3 544 4 0.44568652307879486 0 3180 0.44568652307879486 1
gene 3 656 678 0.11129100160267719 0 3183 0.11129100160267719 1
gene 3 678 102 2.0216041873309782 0 3184 2.0216041873309782 0
gene 2 1 296 0.46118940155077237 0 3240 0.46118940155077237 1
gene 3 102 752 -1.4170309532978715 0 3561 -1.4170309532978715 1
gene 3 752 382 0.046067802024105486 0 3562 0.046067802024105486 0
gene 2 544 28 0.44832213430121642 0 3653 0.44832213430121642 1
gene 3 752 775 0.19855676740340741 0 3674 0.19855676740340741 1
gene 1 775 382 1.3490507522826318 0 3675 1.3490507522826318 1
gene 3 28 102 0.18599491947609698 1 3815 0.18599491947609698 0
gene 2 437 385 0.023311356093413838 0 3901 0.023311356093413838 1
gene 3 28 830 0.34381224999381799 1 3936 0.34381224999381799 1
gene 2 830 102 0.51186444773891204 0 3937 0.51186444773891204 1
gene 1 385 296 0.59729486009911392 0 3949 0.59729486009911392 0
gene 3 382 841 0.073047629591565411 0 3995 0.073047629591565411 1
gene 3 841 296 -0.386156300728282 0 3996 -0.386156300728282 1
gene 3 656 656 0.36939847486531291 1 4594 0.36939847486531291 1
gene 3 678 995 1.3760040895435979 0 4781 1.3760040895435979 1
gene 3 995 102 1.8409866610732799 0 4782 1.8409866610732799 1
gene 2 437 544 -1.090785790742741 0 4936 -1.090785790742741 1
gene 1 752 18 0.12670822517327415 0 5158 0.12670822517327415 1
gene 2 35 102 0.43203416440264986 1 5215 0.43203416440264986 0
gene 2 296 382 -0.165333840141694 1 5374 -0.165333840141694 1
gene 1 385 1116 1.4699418651731415 0 5387 1.4699418651731415 1
gene 1 1116 296 0.76491271763337432 0 5388 0.76491271763337432 1
gene 2 35 1187 1.1094225927299926 1 5747 1.1094225927299926 1
gene 3 1187 102 0.26917168836536431 0 5748 0.26917168836536431 1
gene 2 18 1193 1 0 5781 1 1
gene 2 1193 296 1.0854547883316199 0 5782 1.0854547883316199 1
gene 3 830 830 0.43690662106355027 1 5894 0.43690662106355027 1
gene 3 35 1232 1.429552872632422 0 5998 1.429552872632422 1
gene 3 1232 28 0.69510954045462858 0 5999 0.69510954045462858 1
gene 1 1 1232 0.0036123069020045488 0 6022 0.0036123069020045488 1
gene 1 296 1252 0.60463399328507206 0 6102 0.60463399328507206 1
gene 1 1252 393 -0.81187095740431492 0 6103 -0.81187095740431492 1
gene 2 437 437 -0.47048104087378878 1 6108 -0.47048104087378878 1
gene 1 437 1278 1 0 6216 0 1
gene 1 1278 382 0.49318612226899067 0 6217 0 1
gene 1 841 1116 0.70024196929309612 0 6439 0.70024196929309612 1
gene 1 678 437 0.090480516241155801 0 7008 0.090480516241155801 1
gene 1 35 35 -0.87011069193021895 1 7033 -0.87011069193021895 1
gene 2 995 1232 0.11154396883749589 0 7151 0.11154396883749589 1
gene 1 752 385 -0.042692234293880048 0 7406 -0.042692234293880048 1
genomeend 1
