genomestart 1
trait 1 0.353983 1 1 0.398108 0.210425 0 0 1 
trait 2 0.548216 0 0 0.637774 0.920202 0 0 0 
trait 3 0.020444 0.0569117 0 0.539872 1 0 0 0 
node 1 2 1 3
node 2 2 1 1
node 3 1 0 2
node 4 1 0 2
node 26 1 0 0
node 37 2 0 0
node 39 1 0 0
node 93 3 0 0
node 115 1 0 0
node 189 3 0 0
gene 3 1 3 1.4171978374557561 0 1 1.4171978374557561 1
gene 3 2 3 -1.4271367180287542 0 2 -1.4271367180287542 1
gene 1 1 4 0.96055482978027074 0 3 0.96055482978027074 1
gene 1 2 4 -1.8820986952083647 0 4 -1.8820986952083647 1
gene 1 3 3 0.44156734176984397 1 54 0.44156734176984397 1
gene 3 3 26 -0.31756434045618609 1 89 -0.31756434045618609 1
gene 3 26 3 0.58801053072698906 0 90 0.58801053072698906 1
gene 3 1 26 1.5649488154169866 0 101 1.5649488154169866 1
gene 1 2 26 0.92909761328673812 0 153 0.92909761328673812 1
gene 2 2 37 1.0283832799309787 0 161 1.0283832799309787 1
gene 3 37 3 0.010582658699984981 0 162 0.010582658699984981 0
gene 1 26 37 1.1915984883399673 0 171 1.1915984883399673 1
gene 3 3 39 1.5610807966725346 1 181 1.5610807966725346 1
gene 3 39 26 0.42235511118655794 0 182 0.42235511118655794 1
gene 2 4 4 0.94950405762042089 1 188 0.94950405762042089 1
gene 3 37 37 -0.97171803911762211 1 193 -0.97171803911762211 0
gene 1 39 37 0.010780811547665248 0 246 0.010780811547665248 1
gene 2 1 37 -0.42932461897345475 0 422 -0.42932461897345475 1
gene 1 39 39 0.48923276201320476 1 499 0.48923276201320476 0
gene 2 26 26 -0.90478848056159389 1 533 -0.90478848056159389 1
gene 3 37 93 -0.39709843969768766 1 550 -0.39709843969768766 1
gene 3 93 37 -0.015401504242514075 0 551 -0.015401504242514075 1
gene 3 37 115 0.19640992637556509 0 750 0.19640992637556509 1
gene 3 115 3 -0.41614485458291361 0 751 -0.41614485458291361 1
gene 2 1 115 -1.0594079208371268 0 834 -1.0594079208371268 1
gene 2 1 39 3.2574249409406559 0 878 3.2574249409406559 1
gene 2 39 3 -0.23144803719196844 0 967 -0.23144803719196844 1
gene 3 2 115 0.13232362625762989 0 1035 0.13232362625762989 1
gene 2 93 115 0.10853855899001404 0 1072 0.10853855899001404 1
gene 3 115 26 -0.28239906801953868 1 1141 -0.28239906801953868 1
gene 1 93 93 1.2236602309735773 1 1155 1.2236602309735773 1
gene 1 1 93 0.9599890413042107 0 1212 0.9599890413042107 1
gene 1 39 189 0.92042114162837219 1 1274 0.92042114162837219 1
gene 1 189 39 0.45069778452194192 0 1275 0.45069778452194192 1
gene 3 37 26 0.18879265719502819 1 1334 0.18879265719502819 1
gene 3 189 93 -1.5559063079095941 0 1817 -1.5559063079095941 1
gene 3 2 93 0.86790500784660918 0 1999 0.86790500784660918 1
gene 1 189 189 -0.18312245802167917 1 2092 -0.18312245802167917 1
gene 1 115 93 -0.5313209849555609 1 2182 -0.5313209849555609 1
gene 3 26 115 0.030965040685127065 0 2363 0.030965040685127065 1
gene 2 189 115 -0.75836758211179056 0 2647 -0.75836758211179056 1
gene 3 189 26 0.45926803325268811 0 2665 0.45926803325268811 1
gene 3 39 93 -0.082521490325462771 0 2771 -0.082521490325462771 1
genomeend 1
