genomestart 1
trait 1 0.96761 1 0.887062 0.177057 0 0 1 0 
trait 2 1 0.493451 0.106423 1 0 0.266129 0.802118 0 
trait 3 0 0.848037 0 1 0.14132 1 0.0837181 0 
node 1 3 1 3
node 2 1 1 1
node 3 1 0 2
node 4 2 0 2
node 6 1 0 0
node 23 2 0 0
node 46 3 0 0
node 53 1 0 0
node 60 3 0 0
node 81 3 0 0
node 123 1 0 0
node 161 3 0 0
node 174 3 0 0
node 218 1 0 0
node 273 1 0 0
node 282 3 0 0
node 286 2 0 0
node 314 1 0 0
node 361 2 0 0
node 430 2 0 0
node 472 2 0 0
node 543 3 0 0
node 578 1 0 0
node 592 1 0 0
node 631 2 0 0
node 769 1 0 0
node 872 1 0 0
node 885 1 0 0
node 894 1 0 0
node 961 2 0 0
node 982 1 0 0
node 1006 2 0 0
node 1057 1 0 0
node 1067 2 0 0
node 1078 1 0 0
node 1115 3 0 0
node 1199 1 0 0
node 1214 1 0 0
node 1256 1 0 0
node 1266 1 0 0
node 1279 3 0 0
node 1407 1 0 0
node 1409 3 0 0
node 1422 1 0 0
node 1446 1 0 0
node 1513 1 0 0
node 1574 1 0 0
node 1725 1 0 0
node 1746 1 0 0
node 1751 1 0 0
node 1756 1 0 0
node 1863 1 0 0
gene 2 1 3 -4.9840060200002068 0 1 -4.9840060200002068 1
gene 1 2 3 -0.16327688291821482 0 2 -0.16327688291821482 1
gene 1 1 4 -1.1945442839965899 0 3 -1.1945442839965899 1
gene 3 2 4 0.92297302532148218 0 4 0.92297302532148218 1
gene 1 2 6 -0.29141747941794688 0 9 -0.29141747941794688 1
gene 3 6 3 0.21992087258022314 0 10 0.21992087258022314 1
gene 3 1 6 -0.068533935848872185 0 14 -0.068533935848872185 1
gene 1 6 23 0.11642001970504412 0 78 0.11642001970504412 1
gene 3 23 3 0.54375656463380739 0 79 0.54375656463380739 1
gene 3 23 46 -0.74042694537920273 0 235 -0.74042694537920273 1
gene 3 46 3 -0.28023566667932814 0 236 -0.28023566667932814 1
gene 2 1 46 0.6563874942513126 0 289 0.6563874942513126 1
gene 3 23 53 0.47176872681443038 0 296 0.47176872681443038 1
gene 3 53 46 0.075106286478744025 0 297 0.075106286478744025 1
gene 3 53 60 0.44877429699933824 0 330 0.44877429699933824 1
gene 2 60 46 -0.80927118696704103 0 331 -0.80927118696704103 1
gene 1 46 4 0.23885586147143312 0 455 0.23885586147143312 1
gene 1 6 46 -0.4972826263389003 0 465 -0.4972826263389003 1
gene 1 23 81 0.13349012058856438 0 469 0.13349012058856438 1
gene 2 81 53 0.073050016105663973 0 470 0.073050016105663973 1
gene 3 4 46 0.74805975344407361 1 498 0.74805975344407361 1
gene 1 6 53 -0.85571703727157644 0 589 -0.85571703727157644 1
gene 1 2 23 0.71271248614076188 0 652 0.71271248614076188 1
gene 1 6 81 -0.47438478096126802 0 678 -0.47438478096126802 1
gene 2 81 46 -0.016260170152532019 0 850 -0.016260170152532019 1
gene 2 6 60 0.25820277084512766 0 860 0.25820277084512766 1
gene 1 2 123 0.27078896913248529 0 910 0.27078896913248529 0
gene 3 123 6 0.45224303121317316 0 911 0.45224303121317316 0
gene 2 23 60 0.80553627424199903 0 918 0.80553627424199903 1
gene 3 6 161 0.34696018991384653 0 1207 0.34696018991384653 1
gene 2 161 81 -0.32105393745985533 0 1208 -0.32105393745985533 1
gene 3 2 174 0.80110413525304947 0 1323 0.80110413525304947 0
gene 3 174 123 -1.0005697070157946 0 1324 -1.0005697070157946 0
gene 3 60 3 0.38793225720894164 0 1446 0.38793225720894164 1
gene 2 1 161 0.47925115096347926 0 1666 0.47925115096347926 1
gene 3 53 218 -0.52963496396766752 0 1683 -0.52963496396766752 0
gene 3 218 46 0.19362709587143134 0 1684 0.19362709587143134 0
gene 2 81 161 -0.34952905673977408 1 1704 -0.34952905673977408 1
gene 3 174 4 -0.21599162310175207 0 1826 -0.21599162310175207 1
gene 1 2 161 0.26865109580971819 0 1983 0.26865109580971819 1
gene 1 1 23 0.69540545772547158 0 2078 0.69540545772547158 1
gene 1 23 218 0.29079313124101291 0 2130 0.29079313124101291 0
gene 1 174 273 0.47643646200952888 0 2143 0.47643646200952888 1
gene 3 273 123 1.2292736220309852 0 2144 1.2292736220309852 0
gene 2 218 282 0.68152546169307338 0 2249 0.68152546169307338 1
gene 3 282 46 0.16516653036939286 0 2250 0.16516653036939286 1
gene 3 53 286 0.088888899697404766 0 2289 0.088888899697404766 0
gene 3 286 60 0.27605499642717418 0 2290 0.27605499642717418 1
gene 2 23 161 -1.2277586840688057 0 2295 -1.2277586840688057 0
gene 3 53 314 -0.40773401125694347 0 2535 -0.40773401125694347 0
gene 3 314 286 -1.9564458718320568 0 2536 -1.9564458718320568 1
gene 2 53 3 0.071961271144431627 0 2546 0.071961271144431627 0
gene 3 53 361 -1.1318723136241884 0 2911 -1.1318723136241884 1
gene 3 361 218 -0.44544324183158729 0 2912 -0.44544324183158729 0
gene 1 286 361 -0.18322515007258633 0 3120 -0.18322515007258633 0
gene 1 174 361 0.85749391808989173 0 3329 0.85749391808989173 1
gene 2 286 218 -0.88931186771453929 0 3333 -0.88931186771453929 0
gene 3 60 218 0.61680355487242511 0 3367 0.61680355487242511 1
gene 3 174 430 -0.17579207135168468 0 3429 -0.17579207135168468 1
gene 3 430 273 -0.11233674646929687 0 3430 -0.11233674646929687 1
gene 1 123 123 -0.87940183299565777 1 3471 -0.87940183299565777 1
gene 1 6 286 -0.52733464610173131 0 3593 -0.52733464610173131 1
gene 2 314 3 -0.48687549796275592 0 3599 -0.48687549796275592 1
gene 3 23 282 -0.26912156132474618 0 3729 -0.26912156132474618 1
gene 1 123 53 0.50102232862311524 0 3800 0.50102232862311524 1
gene 3 286 472 0.27675948747282819 0 3824 0.27675948747282819 1
gene 2 472 218 -0.032035544296743136 0 3825 -0.032035544296743136 1
gene 2 81 273 -0.66344985163931258 1 3911 -0.66344985163931258 1
gene 2 174 23 0.039316527330929656 0 4111 0.039316527330929656 1
gene 1 3 3 0.28001903476194434 1 4145 0.28001903476194434 1
gene 2 218 3 0.087764425011241987 0 4312 0.087764425011241987 0
gene 2 123 81 -0.04523411651385674 0 4343 -0.04523411651385674 1
gene 3 123 543 0.17110362051571887 0 4380 0.17110362051571887 1
gene 3 543 6 -1.0177212939680189 0 4381 -1.0177212939680189 1
gene 3 123 23 1.1234023331773477 0 4515 1.1234023331773477 1
gene 1 430 46 -0.72451464679302413 0 4665 -0.72451464679302413 0
gene 3 2 578 0.31494423296067131 0 4725 0.31494423296067131 1
gene 3 578 6 0.26763520728220941 0 4726 0.26763520728220941 1
gene 1 273 273 -1.5839020756929658 1 4793 -1.5839020756929658 0
gene 1 286 592 -0.16399540061317169 0 4816 -0.16399540061317169 1
gene 1 592 361 0.52687263117491856 0 4817 0.52687263117491856 1
gene 3 4 472 0.4109889026316762 1 4862 0.4109889026316762 0
gene 3 543 161 -0.26183881273578802 0 4871 -0.26183881273578802 1
gene 1 578 430 -0.27653458890343763 0 4912 -0.27653458890343763 0
gene 3 472 472 0.22810307667968008 1 5007 0.22810307667968008 0
gene 2 174 60 0.11565953545070234 0 5169 0.11565953545070234 0
gene 3 53 631 0.2819153441963323 0 5187 0.2819153441963323 0
gene 3 631 314 -1.6758144987634449 0 5188 -1.6758144987634449 1
gene 2 2 273 -0.45041182565056337 0 5252 -0.45041182565056337 0
gene 2 430 23 0.6381034125285705 0 5285 0.6381034125285705 1
gene 1 314 314 -0.23157823888192819 1 5391 -0.23157823888192819 0
gene 2 273 161 0.67940796920070801 0 5458 0.67940796920070801 1
gene 2 314 46 0.43242306724769203 0 5487 0.43242306724769203 1
gene 3 1 174 0.67145752239574563 0 5562 0.67145752239574563 1
gene 1 2 472 0.92087152782868187 0 5668 0.92087152782868187 1
gene 1 314 60 0.21937315618590134 0 5741 0.21937315618590134 0
gene 1 23 23 -0.2677047202678885 1 5776 -0.2677047202678885 1
gene 1 430 3 -0.48735312744386172 0 5967 -0.48735312744386172 0
gene 1 161 161 0.6409395402953677 1 6006 0.6409395402953677 1
gene 2 23 361 0.29636569567786797 0 6081 0.29636569567786797 1
gene 1 361 472 -0.27433056257401151 0 6095 -0.27433056257401151 1
gene 2 6 6 0.96934120751421027 1 6172 0.96934120751421027 0
gene 1 60 60 0.7555585744583786 1 6281 0.7555585744583786 1
gene 2 578 218 0.37610053777513119 0 6314 0.37610053777513119 1
gene 1 631 631 -1.3605712239446914 1 6474 -1.3605712239446914 1
gene 1 273 769 -0.24272564181253578 1 6553 -0.24272564181253578 1
gene 2 769 273 -0.41454482866197118 0 6554 -0.41454482866197118 0
gene 1 578 578 -0.35622091607946016 1 6589 -0.35622091607946016 0
gene 2 769 4 -0.40101414867724017 0 6604 -0.40101414867724017 1
gene 3 123 282 0.41065773037758546 0 6750 0.41065773037758546 0
gene 3 578 769 -0.46735869462944507 0 6813 -0.46735869462944507 1
gene 1 361 361 -0.95995892838573038 1 7135 -0.95995892838573038 1
gene 2 769 81 0.51138310414337718 0 7262 0.51138310414337718 1
gene 1 578 872 -0.068847810648776514 1 7322 -0.068847810648776514 1
gene 1 872 578 0.2192550905604172 0 7323 0.2192550905604172 1
gene 1 161 361 0.31044041659237837 0 7403 0.31044041659237837 1
gene 3 53 885 0.028801255872846265 0 7424 0.028801255872846265 0
gene 3 885 631 0.76254558109796866 0 7425 0.76254558109796866 1
gene 1 314 894 0.35865478397284389 0 7488 0.35865478397284389 0
gene 1 894 60 0.95433310696591278 0 7489 0.95433310696591278 1
gene 3 46 472 0.66350751144974851 0 7494 0.66350751144974851 1
gene 3 578 631 -0.093857003885254753 0 7507 -0.093857003885254753 0
gene 1 578 81 0.68151841973025284 0 7613 0.68151841973025284 1
gene 1 578 53 -0.15099973331717753 0 7962 -0.15099973331717753 1
gene 2 872 361 0.24524300021363563 0 8092 0.24524300021363563 1
gene 3 361 961 -0.49928194261122583 0 8107 -0.49928194261122583 1
gene 3 961 218 0.087293915025561108 0 8108 0.087293915025561108 1
gene 2 174 174 0.54938597443950643 1 8226 0.54938597443950643 1
gene 3 578 982 -0.41648718315013089 0 8236 -0.41648718315013089 1
gene 3 982 631 -0.21102421344771247 0 8237 -0.21102421344771247 1
gene 2 53 1006 0.44451307945163598 0 8422 0.44451307945163598 1
gene 2 1006 3 0.46401998352446594 0 8423 0.46401998352446594 1
gene 1 286 961 0.44557348682804665 0 8604 0.44557348682804665 0
gene 1 2 769 -0.77300275223003823 0 8705 -0.77300275223003823 1
gene 3 174 872 0.56526934195555256 0 8723 0.56526934195555256 1
gene 2 769 543 0.18313855663088083 0 8903 0.18313855663088083 0
gene 3 472 1057 0.60521041769776973 1 8946 0.60521041769776973 1
gene 3 1057 472 0.4383376282352664 0 8947 0.4383376282352664 0
gene 3 2 1067 -1.5640184998344715 0 9014 -1.5640184998344715 1
gene 3 1067 174 -0.60756360628063022 0 9015 -0.60756360628063022 1
gene 1 314 592 0.51680665883086929 0 9078 0.51680665883086929 1
gene 2 23 1078 -0.10448192879766316 0 9142 -0.10448192879766316 1
gene 2 1078 161 1.561718340293373 0 9143 1.561718340293373 1
gene 3 81 631 -0.20408354476284396 0 9183 -0.20408354476284396 0
gene 2 6 314 0.13988035108888541 0 9308 0.13988035108888541 1
gene 2 769 1115 0.76500960638048587 0 9444 0.76500960638048587 1
gene 2 1115 273 1.257439945944324 0 9445 1.257439945944324 1
gene 2 543 361 -0.48567684063952271 0 9635 -0.48567684063952271 1
gene 1 174 314 0.79314515078121106 0 9704 0.79314515078121106 0
gene 1 872 1057 0.472847572515182 0 9756 0.472847572515182 1
gene 2 1 218 -1.2488542095519857 0 9902 -1.2488542095519857 1
gene 1 23 961 -0.216384022830233 0 10157 -0.216384022830233 0
gene 2 174 1199 0.062013914604677783 0 10176 0.062013914604677783 1
gene 2 1199 60 0.52837810666690488 0 10177 0.52837810666690488 1
gene 1 23 1214 -0.39085692045784409 0 10278 -0.39085692045784409 1
gene 3 1214 218 -1.1115490242892636 0 10279 -1.1115490242892636 1
gene 3 314 1057 -1.4484689719735038 0 10301 -1.4484689719735038 1
gene 1 1078 1067 0.82920117877852229 1 10341 0.82920117877852229 1
gene 1 578 123 -2.1912501974456249 0 10473 -2.1912501974456249 1
gene 3 961 961 -0.37618868023910962 1 10503 -0.37618868023910962 1
gene 1 174 1115 0.13691787823891169 0 10517 0.13691787823891169 1
gene 1 2 1078 0.26430130250020945 0 10650 0.26430130250020945 0
gene 2 81 1256 0.23035240835992266 0 10658 0.23035240835992266 1
gene 2 1256 53 -0.42764881226590318 0 10659 -0.42764881226590318 1
gene 1 6 1266 0.26885237766842002 0 10740 0.26885237766842002 1
gene 1 1266 53 0.24647223565097537 0 10741 0.24647223565097537 1
gene 2 1115 592 0.71960775145311273 0 10760 0.71960775145311273 1
gene 1 314 1279 0.51109711267570834 0 10879 0.51109711267570834 1
gene 1 1279 894 1.4513911988825496 0 10880 1.4513911988825496 1
gene 1 430 6 0.40740057169804378 0 10978 0.40740057169804378 1
gene 2 592 3 -0.050595423230247294 0 11042 -0.050595423230247294 1
gene 2 314 961 0.2043273123932664 0 11094 0.2043273123932664 0
gene 1 1067 1067 -0.29741336605391155 1 11312 -0.29741336605391155 1
gene 1 543 472 -1.6618121877134833 0 11467 -1.6618121877134833 1
gene 3 60 1006 0.63859682024391207 0 11501 0.63859682024391207 1
gene 2 218 218 0.31930689901081238 1 11517 0.31930689901081238 1
gene 3 769 894 0.99153087799974293 0 11536 0.99153087799974293 1
gene 3 46 46 -0.15274211515334532 1 11605 -0.15274211515334532 1
gene 3 286 46 -0.30657898695514496 0 11682 -0.30657898695514496 1
gene 1 123 60 0.97530237188344004 0 11746 0.97530237188344004 1
gene 2 543 81 -0.3267679371995702 0 11781 -0.3267679371995702 1
gene 3 872 872 -0.22774800273019266 1 11847 -0.22774800273019266 1
gene 2 872 286 -0.23586674581089373 0 11910 -0.23586674581089373 1
gene 2 982 769 0.018936217072855782 0 11963 0.018936217072855782 1
gene 2 2 1199 -1.357427900823498 0 11980 -1.357427900823498 1
gene 1 314 1407 -0.78995825945863407 1 11994 -0.78995825945863407 1
gene 1 1407 314 0.91797765526826391 0 11995 0.91797765526826391 1
gene 1 2 1409 0.55566449279695029 0 12014 0.55566449279695029 1
gene 1 1409 1078 0.018931170934313523 0 12015 0.018931170934313523 1
gene 1 982 361 1.747007736119911 0 12040 1.747007736119911 1
gene 1 430 982 0.41655474827464423 0 12158 0.41655474827464423 1
gene 1 161 769 -0.068760194614883613 1 12164 -0.068760194614883613 1
gene 3 1057 1422 -0.067892330264622491 0 12207 -0.067892330264622491 1
gene 3 1422 472 -0.07520084296129681 0 12208 -0.07520084296129681 1
gene 2 1279 1199 -0.43496264770392451 0 12348 -0.43496264770392451 1
gene 2 314 1446 -0.74106243566659402 0 12404 -0.74106243566659402 1
gene 2 1446 961 0.5025047033571195 0 12405 0.5025047033571195 1
gene 3 123 161 -0.71472671218902184 0 12420 -0.71472671218902184 1
gene 2 894 1057 -1.5086386811494075 0 12621 -1.5086386811494075 1
gene 1 1 1067 -1.0526888789854425 0 12682 -1.0526888789854425 1
gene 1 894 1446 -0.79893233035641353 0 12855 -0.79893233035641353 1
gene 3 81 1513 -0.16611755297804132 0 12993 -0.16611755297804132 1
gene 3 1513 631 -0.19606103431250016 0 12994 -0.19606103431250016 1
gene 1 161 282 0.32125548940210391 0 13069 0.32125548940210391 1
gene 3 894 894 -0.057166144278443451 1 13208 -0.057166144278443451 1
gene 3 1513 282 -0.54822382542687653 0 13275 -0.54822382542687653 1
gene 1 1 1422 -1.060920036659073 0 13345 -1.060920036659073 0
gene 3 1115 1279 -0.84726701110939817 0 13365 -0.84726701110939817 1
gene 1 1279 1214 0.44299756569927451 0 13388 0.44299756569927451 1
gene 3 1513 161 -0.08568953330893514 1 13419 -0.08568953330893514 1
gene 3 1409 6 -0.56968945058513876 0 13541 -0.56968945058513876 1
gene 2 6 1574 1.6861111808969227 1 13548 1.6861111808969227 1
gene 2 1574 6 -0.39547127829653755 0 13549 -0.39547127829653755 1
gene 1 6 631 -1.1950388409639889 0 13708 -1.1950388409639889 1
gene 2 982 1446 -0.33986984674812754 0 13730 -0.33986984674812754 1
gene 1 161 218 -0.32386563477286412 0 13908 -0.32386563477286412 1
gene 2 1266 1422 -0.90116816754507278 0 13981 -0.90116816754507278 1
gene 1 1446 1446 -0.51814615005540943 1 14030 -0.51814615005540943 1
gene 2 872 218 -0.75116477126775538 0 14177 -0.75116477126775538 1
gene 1 1115 23 0.0054592872063905507 0 14207 0.0054592872063905507 1
gene 2 1407 472 -0.30781108527808038 0 14473 -0.30781108527808038 1
gene 3 1574 282 -0.13536343217611474 0 14728 -0.13536343217611474 1
gene 2 769 1725 0.24278908490333201 0 14916 0.24278908490333201 1
gene 2 1725 543 1.8437049984204141 0 14917 1.8437049984204141 1
gene 1 314 1422 -0.067177313876886538 0 15009 -0.067177313876886538 1
gene 3 769 769 -0.084117823086733851 1 15068 -0.084117823086733851 1
gene 3 53 1746 -0.049062690720456971 0 15077 -0.049062690720456971 1
gene 3 1746 885 0.2177736639127944 0 15078 0.2177736639127944 1
gene 3 23 1751 -0.52596178069988342 0 15114 -0.52596178069988342 1
gene 3 1751 3 0.15180603747805854 0 15115 0.15180603747805854 1
gene 2 1266 1078 0.23538048879028323 0 15148 0.23538048879028323 1
gene 1 578 1756 -0.055169534196690406 0 15156 -0.055169534196690406 1
gene 1 1756 430 -0.11365162702913005 0 15157 -0.11365162702913005 1
gene 2 53 53 0.44782255471116983 1 15188 0.44782255471116983 1
gene 3 1756 1199 0.070199478683154792 0 15477 0.070199478683154792 1
gene 1 174 81 -0.61423263960249375 0 15515 -0.61423263960249375 1
gene 2 1256 1409 0.19240550379846502 1 15576 0.19240550379846502 1
gene 2 1078 631 -0.55341920002988498 0 15606 -0.55341920002988498 1
gene 3 1746 1746 0.53634872312487514 1 15648 0.53634872312487514 1
gene 2 1513 1513 -0.039280271641574924 1 15768 -0.039280271641574924 1
gene 3 1574 218 0.022413274749374611 0 15838 0.022413274749374611 1
gene 3 4 3 0.24224752385273926 1 15973 0.24224752385273926 1
gene 1 174 1863 1 0 16114 0 1
gene 1 1863 314 0.79314515078121106 0 16115 0 1
gene 3 1574 1214 -0.98428166656954297 0 16244 -0.98428166656954297 1
gene 2 6 1422 0.23707858623800734 0 16306 0.23707858623800734 1
gene 3 361 1199 -0.84626871014305793 0 16337 -0.84626871014305793 1
gene 1 1006 894 -0.60542710712432257 0 16466 -0.60542710712432257 1
gene 1 430 543 0.81981681418596619 0 16491 0.81981681418596619 1
gene 3 885 1446 0.53208660265993635 0 16564 0.53208660265993635 1
gene 1 430 1057 -0.74853998969706703 0 16583 -0.74853998969706703 1
gene 3 1199 1199 -0.34419650041693661 1 16688 -0.34419650041693661 1
gene 1 1199 1266 0.81216349304288793 1 16722 0.81216349304288793 1
gene 2 472 982 -0.65990443604993843 1 16897 -0.65990443604993843 1
gene 3 1863 1422 0.74275524110661595 0 16994 0.74275524110661595 1
gene 1 1279 1279 -0.78672661110140696 1 17137 -0.78672661110140696 1
genomeend 1
