genomestart 1
trait 1 0 0 0 0.122705 1 0 0.00692458 1 
trait 2 0.80675 0.691817 0.497758 0.692826 0.935933 0.0465837 1 0.940974 
trait 3 0 0.652999 0 1 0.340105 0 1 0 
node 1 2 1 3
node 2 3 1 1
node 3 2 0 2
node 4 1 0 2
node 5 1 0 0
node 7 2 0 0
node 45 2 0 0
node 51 1 0 0
node 55 1 0 0
node 77 2 0 0
node 110 3 0 0
node 238 2 0 0
node 240 1 0 0
node 242 2 0 0
node 255 2 0 0
node 381 3 0 0
node 456 3 0 0
node 460 3 0 0
node 490 1 0 0
node 549 2 0 0
node 560 1 0 0
node 565 1 0 0
node 592 1 0 0
node 605 1 0 0
node 671 3 0 0
node 690 2 0 0
node 768 1 0 0
node 783 3 0 0
node 830 1 0 0
node 857 3 0 0
node 954 3 0 0
node 994 2 0 0
node 1052 2 0 0
node 1101 3 0 0
node 1122 1 0 0
node 1165 2 0 0
node 1194 2 0 0
node 1212 2 0 0
node 1268 2 0 0
node 1287 1 0 0
node 1421 2 0 0
node 1432 2 0 0
node 1453 2 0 0
node 1500 3 0 0
node 1534 3 0 0
node 1540 2 0 0
node 1552 3 0 0
node 1560 3 0 0
node 1563 1 0 0
node 1573 2 0 0
node 1576 1 0 0
node 1611 3 0 0
node 1637 1 0 0
node 1657 1 0 0
node 1663 3 0 0
node 1681 1 0 0
node 1751 2 0 0
node 1762 1 0 0
node 1768 1 0 0
node 1838 1 0 0
node 1909 1 0 0
node 2110 1 0 0
node 2150 1 0 0
node 2162 1 0 0
node 2174 1 0 0
node 2183 1 0 0
node 2196 1 0 0
node 2230 1 0 0
node 2268 1 0 0
node 2292 1 0 0
node 2298 2 0 0
node 2361 1 0 0
node 2384 2 0 0
node 2601 1 0 0
node 2731 1 0 0
node 2753 2 0 0
node 2773 1 0 0
node 2851 1 0 0
node 2936 1 0 0
node 2982 1 0 0
node 3049 1 0 0
node 3061 1 0 0
node 3114 1 0 0
gene 2 1 3 -1.1886146369802835 0 1 -1.1886146369802835 1
gene 2 2 3 0.62508508103205118 0 2 0.62508508103205118 1
gene 3 1 4 -0.28491202242901181 0 3 -0.28491202242901181 1
gene 1 2 4 -3.3271602831441722 0 4 -3.3271602831441722 1
gene 1 2 5 0.9835730739792683 0 5 0.9835730739792683 1
gene 2 5 3 0.4262434369540975 0 6 0.4262434369540975 1
gene 3 1 5 0.30922065526676396 0 8 0.30922065526676396 1
gene 3 5 4 0.67379973464356724 0 10 0.67379973464356724 1
gene 2 5 7 0.8396511340232804 0 19 0.8396511340232804 1
gene 1 7 3 0.9949956736504082 0 20 0.9949956736504082 1
gene 3 3 4 -0.056237703215441526 1 44 -0.056237703215441526 1
gene 1 3 3 0.41534168362400575 1 100 0.41534168362400575 1
gene 1 3 45 -0.2925173036253626 1 358 -0.2925173036253626 1
gene 1 45 3 -0.63424193399690187 0 359 -0.63424193399690187 1
gene 1 7 45 0.6871374867330946 0 421 0.6871374867330946 1
gene 1 45 51 -0.76284341479784046 0 430 -0.76284341479784046 1
gene 2 51 3 0.58056538695495818 0 431 0.58056538695495818 1
gene 3 7 55 -0.098521986789313093 0 447 -0.098521986789313093 1
gene 1 55 45 0.57206881119500341 0 448 0.57206881119500341 1
gene 2 3 77 -0.24027645552543758 1 605 -0.24027645552543758 1
gene 1 77 45 0.27498745418851611 0 606 0.27498745418851611 1
gene 2 7 77 0.032257733648762943 0 696 0.032257733648762943 1
gene 1 1 77 0.50888508465554805 0 774 0.50888508465554805 1
gene 1 2 110 -1.0070315883527656 0 871 -1.0070315883527656 1
gene 1 110 5 -0.24885452154504811 0 872 -0.24885452154504811 0
gene 3 5 77 -0.0037198457884229002 0 1076 -0.0037198457884229002 0
gene 1 4 55 -0.12415871029913365 1 1099 -0.12415871029913365 1
gene 2 110 77 -1.636459563223859 0 1162 -1.636459563223859 0
gene 1 7 51 -0.290528045404017 0 1217 -0.290528045404017 1
gene 2 77 77 -0.31757743531725252 1 1263 -0.31757743531725252 0
gene 3 77 55 -0.39218697249525553 0 1475 -0.39218697249525553 1
gene 2 1 110 0.83164654990269182 0 1587 0.83164654990269182 1
gene 3 2 45 -0.07758957896269375 0 1669 -0.07758957896269375 1
gene 3 7 4 -0.0052764117742313266 0 1692 -0.0052764117742313266 1
gene 3 3 7 0.52113598097168656 1 1710 0.52113598097168656 0
gene 1 5 51 0.58030551652438256 0 1741 0.58030551652438256 1
gene 2 110 4 -0.091733898311729498 0 1801 -0.091733898311729498 1
gene 3 51 4 0.085312259888887521 0 1916 0.085312259888887521 1
gene 1 110 55 -0.1416877287634126 0 2016 -0.1416877287634126 0
gene 1 2 7 -0.7760768238343656 0 2022 -0.7760768238343656 1
gene 2 110 51 0.68097308449492466 0 2041 0.68097308449492466 1
gene 1 5 238 -0.036075996717473469 0 2072 -0.036075996717473469 0
gene 1 238 4 0.60794460289550223 0 2073 0.60794460289550223 0
gene 3 238 240 -0.43399001165944623 0 2086 -0.43399001165944623 1
gene 2 240 4 -1.0422218556246823 0 2087 -1.0422218556246823 0
gene 1 110 242 0.95818886694414029 0 2106 0.95818886694414029 1
gene 1 242 5 -0.45618671968401719 0 2107 -0.45618671968401719 1
gene 1 4 242 0.15070141858919589 1 2156 0.15070141858919589 0
gene 1 2 242 1.7968276600804307 0 2162 1.7968276600804307 1
gene 2 242 240 0.075848894461919045 0 2182 0.075848894461919045 0
gene 1 7 255 0.089874973795318461 0 2226 0.089874973795318461 0
gene 1 255 3 -0.97472214557916026 0 2227 -0.97472214557916026 1
gene 3 1 55 0.63938966493093863 0 2265 0.63938966493093863 1
gene 3 1 45 -1.4293113238780346 0 2604 -1.4293113238780346 1
gene 3 110 110 -0.03837561306468007 1 2654 -0.03837561306468007 0
gene 2 240 45 -0.067838247897028053 0 2761 -0.067838247897028053 1
gene 3 255 45 -0.45113552219752945 0 2769 -0.45113552219752945 1
gene 2 240 77 0.39543160837862257 0 3166 0.39543160837862257 1
gene 2 242 381 -0.34171441678968928 0 3194 -0.34171441678968928 1
gene 2 381 240 0.8789559767483528 0 3195 0.8789559767483528 1
gene 3 238 51 0.69930295306225432 0 3206 0.69930295306225432 0
gene 2 55 4 0.92687781850196316 0 3408 0.92687781850196316 1
gene 1 110 255 0.021271321932445898 0 3480 0.021271321932445898 1
gene 2 242 238 0.36020636971118225 0 3537 0.36020636971118225 1
gene 1 3 51 0.036070478631216318 1 3609 0.036070478631216318 1
gene 3 3 456 0.1415027783445561 1 3752 0.1415027783445561 1
gene 3 456 7 -0.70733856954953567 0 3753 -0.70733856954953567 1
gene 3 238 77 0.17339997606975957 0 3771 0.17339997606975957 1
gene 2 2 460 -0.22662942168611541 0 3798 -0.22662942168611541 1
gene 3 460 4 -0.20114698433370659 0 3799 -0.20114698433370659 1
gene 1 381 51 -1.1083879357242901 0 3812 -1.1083879357242901 0
gene 2 240 3 0.010516084502691442 0 3959 0.010516084502691442 0
gene 3 110 490 -0.087901837699069563 1 3967 -0.087901837699069563 1
gene 3 490 110 -0.64115908399278265 0 3968 -0.64115908399278265 0
gene 1 2 456 -0.18031514281421643 0 4235 -0.18031514281421643 1
gene 3 1 238 -0.36680917947870167 0 4379 -0.36680917947870167 1
gene 1 110 549 -0.29782873289558515 0 4471 -0.29782873289558515 1
gene 2 549 77 -0.13585584291063985 0 4472 -0.13585584291063985 1
gene 3 490 460 0.32684014333730571 0 4564 0.32684014333730571 0
gene 2 460 55 0.89522672556118421 0 4593 0.89522672556118421 1
gene 3 242 560 0.98170162317422294 0 4620 0.98170162317422294 1
gene 2 560 238 1.3805304320438441 0 4621 1.3805304320438441 0
gene 2 381 565 0.072445338858498881 0 4712 0.072445338858498881 0
gene 1 565 51 -0.29088024599052958 0 4713 -0.29088024599052958 1
gene 3 560 55 0.9360865917690504 0 4744 0.9360865917690504 0
gene 2 560 560 0.55109506242493866 1 4858 0.55109506242493866 0
gene 3 238 3 -0.43217465790555565 0 4926 -0.43217465790555565 0
gene 1 7 592 -0.28518048687147929 0 4962 -0.28518048687147929 1
gene 1 592 255 0.25100870605139469 0 4963 0.25100870605139469 0
gene 1 7 7 -0.10948771802218991 1 4987 -0.10948771802218991 0
gene 1 4 605 0.10013794694102274 1 5125 0.10013794694102274 0
gene 1 605 242 -0.19754096828286583 0 5126 -0.19754096828286583 1
gene 2 460 5 0.45727272748820147 0 5260 0.45727272748820147 1
gene 2 460 238 0.14040898631345899 0 5362 0.14040898631345899 0
gene 3 5 55 -0.245076241085807 0 5454 -0.245076241085807 0
gene 2 456 560 0.40836774832958717 0 5607 0.40836774832958717 0
gene 3 456 240 0.44417267476402811 0 5667 0.44417267476402811 1
gene 3 238 671 -0.14698160725970821 0 5697 -0.14698160725970821 1
gene 3 671 77 -0.10959325433224124 0 5698 -0.10959325433224124 0
gene 2 55 565 -0.58149223079974388 0 5797 -0.58149223079974388 1
gene 3 1 560 -0.12506480963205213 0 5808 -0.12506480963205213 1
gene 2 560 690 0.048454101918476628 1 5904 0.048454101918476628 1
gene 1 690 560 -0.22232759009223779 0 5905 -0.22232759009223779 1
gene 2 456 381 0.3014744859195661 0 5940 0.3014744859195661 1
gene 3 255 565 -1.3488734661829069 0 6028 -1.3488734661829069 1
gene 1 240 240 -3.1693788094769131 1 6138 -3.1693788094769131 1
gene 3 690 460 0.21897436385926536 0 6150 0.21897436385926536 0
gene 1 255 255 0.26671713486626614 1 6195 0.26671713486626614 1
gene 2 255 55 0.48116878465803731 0 6280 0.48116878465803731 0
gene 3 456 242 1.2466067232874252 0 6379 1.2466067232874252 1
gene 3 5 768 -0.5358198657798674 0 6516 -0.5358198657798674 1
gene 3 768 55 0.12194955331364159 0 6517 0.12194955331364159 1
gene 3 5 560 0.32865596088983862 0 6535 0.32865596088983862 1
gene 3 2 783 0.44942692664890871 0 6674 0.44942692664890871 0
gene 2 783 110 -0.25160719559137112 0 6675 -0.25160719559137112 1
gene 2 490 77 -0.099552458897024618 0 6767 -0.099552458897024618 0
gene 1 5 255 0.18338640252285937 0 6794 0.18338640252285937 1
gene 2 240 830 -0.12424885929760004 0 7122 -0.12424885929760004 1
gene 2 830 3 0.3855017979561825 0 7123 0.3855017979561825 0
gene 3 77 830 0.60578655712575957 0 7188 0.60578655712575957 1
gene 2 238 238 1.2482080323380456 1 7300 1.2482080323380456 0
gene 2 830 830 -0.83200309394486394 1 7315 -0.83200309394486394 1
gene 1 592 857 -0.0094407482582333224 0 7326 -0.0094407482582333224 0
gene 1 857 255 -1.3590842435877231 0 7327 -1.3590842435877231 0
gene 3 110 690 -0.64384915360428829 0 7356 -0.64384915360428829 1
gene 3 560 4 -0.5517880846987423 0 7634 -0.5517880846987423 0
gene 2 605 605 -0.033864823185775814 1 7945 -0.033864823185775814 1
gene 2 456 690 -0.39750198363210176 0 8053 -0.39750198363210176 1
gene 1 783 560 0.4973939286998445 0 8108 0.4973939286998445 1
gene 2 456 954 0.26510451164334292 0 8129 0.26510451164334292 0
gene 2 954 560 -0.67660134037798336 0 8130 -0.67660134037798336 1
gene 1 45 490 0.35570608445243262 1 8285 0.35570608445243262 1
gene 2 2 55 -0.11773089348232881 0 8378 -0.11773089348232881 0
gene 2 783 7 -0.11593602463413775 0 8415 -0.11593602463413775 1
gene 3 857 994 -0.15179596336176432 0 8502 -0.15179596336176432 0
gene 3 994 255 -0.42650987251033567 0 8503 -0.42650987251033567 1
gene 2 242 592 0.088904446730811354 0 8620 0.088904446730811354 1
gene 3 456 456 -0.44632561758455169 1 8664 -0.44632561758455169 1
gene 2 490 45 -0.081319229016694861 0 8680 -0.081319229016694861 1
gene 2 45 830 0.079058801093631795 0 8791 0.079058801093631795 1
gene 1 5 671 0.90825703270186531 0 8811 0.90825703270186531 1
gene 3 560 240 -1.6136740109015602 0 8868 -1.6136740109015602 1
gene 2 255 549 -0.66097192171075014 0 8905 -0.66097192171075014 1
gene 2 240 857 -0.19947513551426826 0 8939 -0.19947513551426826 1
gene 1 5 1052 0.41684798170665649 0 8989 0.41684798170665649 1
gene 1 1052 238 -0.10758817992526493 0 8990 -0.10758817992526493 1
gene 2 671 857 -0.68615865390103248 0 9313 -0.68615865390103248 1
gene 1 77 1101 0.16760056380536434 0 9499 0.16760056380536434 0
gene 1 1101 45 0.5566724310892972 0 9500 0.5566724310892972 1
gene 3 5 565 0.35340584761156041 0 9551 0.35340584761156041 0
gene 3 560 671 -0.22158683939910812 0 9581 -0.22158683939910812 1
gene 3 5 381 -0.072020251337448271 0 9591 -0.072020251337448271 1
gene 2 238 565 -0.5592501787744697 0 9631 -0.5592501787744697 1
gene 3 55 1122 0.15305071401086204 0 9716 0.15305071401086204 1
gene 3 1122 45 -0.24330286576566418 0 9717 -0.24330286576566418 1
gene 3 490 3 -0.02291549068080051 0 9800 -0.02291549068080051 1
gene 1 240 549 -0.21822618377312364 0 9973 -0.21822618377312364 0
gene 1 240 1165 0.19287363076250705 0 10086 0.19287363076250705 0
gene 3 1165 549 0.096371503824541127 0 10087 0.096371503824541127 1
gene 2 565 381 -0.016990037410049716 1 10199 -0.016990037410049716 1
gene 1 1165 1165 0.60865245066054741 1 10285 0.60865245066054741 1
gene 2 783 4 0.027151412576041867 0 10322 0.027151412576041867 1
gene 3 242 549 0.18085172617847645 0 10347 0.18085172617847645 1
gene 3 830 1194 1.0843973525727155 0 10362 1.0843973525727155 1
gene 2 1194 3 -0.29639466423373423 0 10363 -0.29639466423373423 1
gene 2 2 605 0.33786805711587337 0 10470 0.33786805711587337 1
gene 1 592 1212 -0.41463230453181649 0 10478 -0.41463230453181649 1
gene 1 1212 857 -0.58152207153920188 0 10479 -0.58152207153920188 1
gene 2 690 238 -0.28414721986472014 0 10586 -0.28414721986472014 0
gene 2 1212 1212 -0.36246456036458935 1 10694 -0.36246456036458935 1
gene 1 560 255 -0.055394620194749167 0 10705 -0.055394620194749167 0
gene 2 857 1165 1.1678122205975521 0 10780 1.1678122205975521 1
gene 2 690 55 0.0076642860694156878 0 10792 0.0076642860694156878 1
gene 3 857 1268 0.87890070275352372 0 10944 0.87890070275352372 1
gene 3 1268 994 0.28864174908429469 0 10945 0.28864174908429469 0
gene 2 381 830 0.43853046532651896 0 10978 0.43853046532651896 1
gene 3 240 51 0.17059298240141615 0 11109 0.17059298240141615 0
gene 2 560 1287 -0.207644251737578 0 11152 -0.207644251737578 1
gene 3 1287 255 -0.90875832895224828 0 11153 -0.90875832895224828 1
gene 1 549 45 -0.079474600068980175 0 11231 -0.079474600068980175 0
gene 1 238 7 -0.78510619294136119 0 11259 -0.78510619294136119 0
gene 2 45 1194 1.0549216238106238 0 11733 1.0549216238106238 1
gene 1 490 560 0.24573371920070319 0 11879 0.24573371920070319 1
gene 3 954 671 1.3786732390889307 0 11932 1.3786732390889307 1
gene 3 565 1052 0.37392109836168635 1 12230 0.37392109836168635 1
gene 2 7 1212 -0.11593342577849208 0 12238 -0.11593342577849208 1
gene 3 240 1421 -3.8548235366376229 0 12284 -3.8548235366376229 1
gene 3 1421 51 -0.75026835931943192 0 12285 -0.75026835931943192 1
gene 3 1194 1194 0.33081899249498686 1 12309 0.33081899249498686 1
gene 1 238 1432 0.91573539675014826 0 12376 0.91573539675014826 1
gene 1 1432 7 -0.086128057719267931 0 12377 -0.086128057719267931 1
gene 2 240 381 -0.40879158368743562 1 12390 -0.40879158368743562 0
gene 1 671 671 -0.17521441782601849 1 12445 -0.17521441782601849 0
gene 3 238 592 0.17882586977389917 0 12540 0.17882586977389917 1
gene 2 240 1453 -0.86992535152003425 1 12604 -0.86992535152003425 1
gene 2 1453 381 0.059694450376413077 0 12605 0.059694450376413077 1
gene 1 1122 768 0.9406038834436814 0 12663 0.9406038834436814 0
gene 1 1122 1122 0.5009229299616641 1 12669 0.5009229299616641 1
gene 3 1101 565 -0.29135811924531968 0 12840 -0.29135811924531968 1
gene 3 4 1500 0.18831948222979883 1 12989 0.18831948222979883 1
gene 3 1500 605 0.25903970573984075 0 12990 0.25903970573984075 1
gene 3 45 45 0.018682653325927747 1 13065 0.018682653325927747 1
gene 1 690 1287 -0.13291651575496261 0 13120 -0.13291651575496261 1
gene 1 1432 1287 -0.36775891336973704 0 13123 -0.36775891336973704 0
gene 1 1453 255 -0.55629382424815266 0 13179 -0.55629382424815266 1
gene 2 110 565 1.1181052956348776 0 13258 1.1181052956348776 1
gene 1 768 1500 -1.5522799594571253 1 13278 -1.5522799594571253 1
gene 3 490 1534 0.74961361649893854 0 13285 0.74961361649893854 0
gene 3 1534 460 0.59188897795597517 0 13286 0.59188897795597517 0
gene 2 77 5 0.83434105074700948 1 13302 0.83434105074700948 0
gene 3 110 1540 0.17009062607311204 0 13310 0.17009062607311204 1
gene 1 1540 55 0.09249692181707217 0 13311 0.09249692181707217 1
gene 3 1287 830 0.0023563839506154805 0 13361 0.0023563839506154805 1
gene 2 77 1552 -0.16608144653312928 1 13385 -0.16608144653312928 1
gene 2 1552 5 0.27714937286318719 0 13386 0.27714937286318719 0
gene 2 1552 1560 -0.081386785759304969 0 13415 -0.081386785759304969 1
gene 2 1560 5 0.50166860711838523 0 13416 0.50166860711838523 1
gene 1 1560 45 -1.0248585906926815 0 13431 -1.0248585906926815 1
gene 3 490 1563 -0.569979292605994 0 13436 -0.569979292605994 0
gene 3 1563 1534 -0.88432072540015016 0 13437 -0.88432072540015016 1
gene 1 77 1194 0.37665789568641117 0 13494 0.37665789568641117 1
gene 3 460 1573 0.48511239536344652 0 13556 0.48511239536344652 1
gene 3 1573 238 0.26257461624339906 0 13557 0.26257461624339906 1
gene 1 671 1576 0.067610092026931273 1 13569 0.067610092026931273 1
gene 1 1576 671 0.11686029872710831 0 13570 0.11686029872710831 1
gene 1 5 5 0.6751502718195086 1 13660 0.6751502718195086 1
gene 3 456 1194 -0.07141034657666942 0 13863 -0.07141034657666942 1
gene 3 560 1611 -0.12305827118598775 0 13876 -0.12305827118598775 1
gene 3 1611 55 0.53519783519916131 0 13877 0.53519783519916131 1
gene 1 1563 238 0.063002319802996851 0 14133 0.063002319802996851 1
gene 1 240 1637 -0.65589364625322344 0 14144 -0.65589364625322344 0
gene 1 1637 1165 0.47045413868988573 0 14145 0.47045413868988573 1
gene 2 77 1657 -1.4170045859259572 1 14261 -1.4170045859259572 1
gene 2 1657 77 -0.2023201029292867 0 14262 -0.2023201029292867 1
gene 2 490 1663 0.61334665823418022 0 14314 0.61334665823418022 1
gene 2 1663 77 -0.065089531738818374 0 14315 -0.065089531738818374 1
gene 2 1268 4 0.70930219032303532 0 14323 0.70930219032303532 1
gene 1 77 1681 0.83518746278024625 0 14447 0.83518746278024625 1
gene 1 1681 1101 -0.41622734345320023 0 14448 -0.41622734345320023 1
gene 3 490 4 0.95539480468975135 0 14886 0.95539480468975135 1
gene 1 7 242 -0.51160778268780926 1 15027 -0.51160778268780926 1
gene 1 7 1751 -0.1980348109258501 1 15074 -0.1980348109258501 1
gene 1 1751 7 0.98057251562391057 0 15075 0.98057251562391057 1
gene 3 460 1287 0.6727406823415033 0 15081 0.6727406823415033 0
gene 2 1101 1101 0.2962946990953268 1 15146 0.2962946990953268 1
gene 2 255 1637 -0.46037191174010372 0 15152 -0.46037191174010372 1
gene 3 238 1762 -0.15399054258781977 0 15173 -0.15399054258781977 0
gene 3 1762 51 -1.0010734878019771 0 15174 -1.0010734878019771 1
gene 1 1432 3 1.2519071191791014 0 15200 1.2519071191791014 0
gene 3 242 77 0.64346380561751504 0 15222 0.64346380561751504 1
gene 3 490 1768 -2.2952091446124063 0 15230 -2.2952091446124063 1
gene 3 1768 4 -0.043624983189452904 0 15231 -0.043624983189452904 1
gene 1 954 954 0.26646270685198842 1 15277 0.26646270685198842 1
gene 2 4 4 0.72986407961224398 1 15285 0.72986407961224398 1
gene 1 605 1194 0.62784480356045291 0 15323 0.62784480356045291 1
gene 3 55 55 0.27643740818669899 1 15606 0.27643740818669899 1
gene 3 1552 1762 -0.32244513757640736 0 15751 -0.32244513757640736 1
gene 3 1268 1268 -0.33914781563875629 1 15778 -0.33914781563875629 1
gene 2 605 1573 -0.7783367360375526 0 15805 -0.7783367360375526 1
gene 2 1560 55 0.30149798225681201 0 15819 0.30149798225681201 0
gene 1 2 1838 -0.22450906235003334 0 15827 -0.22450906235003334 1
gene 2 1838 55 -0.040878111748433699 0 15828 -0.040878111748433699 1
gene 1 1637 1637 -0.40523544042615006 1 15932 -0.40523544042615006 1
gene 3 592 1657 -0.79267180398696668 0 15939 -0.79267180398696668 1
gene 1 1552 1552 -0.41197046982681867 1 16042 -0.41197046982681867 1
gene 3 240 1751 -0.13228586298985689 0 16150 -0.13228586298985689 1
gene 3 1637 45 -0.15875154810899475 0 16253 -0.15875154810899475 1
gene 1 1432 1768 -1.3132404437350296 0 16288 -1.3132404437350296 1
gene 1 2 1909 -0.11855747928775728 0 16368 -0.11855747928775728 1
gene 1 1909 5 -0.7277518516535646 0 16369 -0.7277518516535646 1
gene 1 549 1101 0.26073335751925286 0 16432 0.26073335751925286 1
gene 1 5 240 -0.070344377574671241 0 16487 -0.070344377574671241 0
gene 2 77 51 0.29984905212179247 0 16490 0.29984905212179247 1
gene 2 110 1534 -0.24274708365218106 0 16532 -0.24274708365218106 1
gene 3 1432 1165 -0.39539176337206355 0 16560 -0.39539176337206355 1
gene 2 1611 1268 0.69635682818310185 0 16622 0.69635682818310185 0
gene 1 1573 1212 0.32663228820386914 0 16628 0.32663228820386914 1
gene 3 490 381 -0.10982131404328223 0 16691 -0.10982131404328223 1
gene 2 490 240 0.14269539208276913 0 16726 0.14269539208276913 1
gene 3 1453 1762 0.32232800373915954 0 16731 0.32232800373915954 1
gene 2 2 1768 0.25408371084094217 0 16823 0.25408371084094217 1
gene 3 605 783 -0.51052132784878901 0 16886 -0.51052132784878901 1
gene 3 1052 1637 -0.30679853437784993 0 17062 -0.30679853437784993 1
gene 2 1552 1611 -1.9598625949397044 0 17498 -1.9598625949397044 1
gene 3 560 549 -0.31246630885287485 0 17603 -0.31246630885287485 1
gene 1 1287 1657 0.20859973910665131 0 17633 0.20859973910665131 1
gene 2 1432 994 1.3129429625407525 0 17846 1.3129429625407525 0
gene 1 1552 1751 0.033347441364707131 0 17897 0.033347441364707131 1
gene 2 460 560 0.43815981384281061 0 17955 0.43815981384281061 1
gene 3 460 2110 1.3022512904378825 0 18071 1.3022512904378825 1
gene 3 2110 1287 0.43509792067813585 0 18072 0.43509792067813585 1
gene 2 1540 1268 2.3090284375050238 0 18100 2.3090284375050238 1
gene 3 1534 77 -0.44170620708805797 0 18141 -0.44170620708805797 1
gene 1 605 5 1.069854226228713 0 18152 1.069854226228713 1
gene 1 1534 768 0.49202543636412616 0 18162 0.49202543636412616 1
gene 3 1637 1421 1.0919277854691856 0 18342 1.0919277854691856 1
gene 1 1681 1540 -0.42142931927062077 0 18400 -0.42142931927062077 1
gene 2 381 2150 -1.153294779198847 0 18406 -1.153294779198847 1
gene 2 2150 565 0.47436790073959523 0 18407 0.47436790073959523 1
gene 3 238 2162 0.029501683325274752 0 18512 0.029501683325274752 1
gene 3 2162 3 0.26760979032498311 0 18513 0.26760979032498311 1
gene 2 690 242 0.57165711003898512 0 18532 0.57165711003898512 1
gene 2 1432 2174 0.42330540224132385 0 18599 0.42330540224132385 1
gene 2 2174 994 0.080789318811515909 0 18600 0.080789318811515909 1
gene 1 954 1421 -0.7647390574052646 0 18607 -0.7647390574052646 1
gene 1 1052 2162 -0.35641292708758865 0 18651 -0.35641292708758865 1
gene 2 456 2183 0.74751918332070078 0 18678 0.74751918332070078 1
gene 2 2183 954 -0.083402000173647892 0 18679 -0.083402000173647892 1
gene 3 1751 77 0.41789577362029617 0 18716 0.41789577362029617 1
gene 1 1663 768 -0.46217636645872906 0 18720 -0.46217636645872906 1
gene 3 1663 1762 -0.46056304357972139 0 18750 -0.46056304357972139 1
gene 3 238 2196 -0.8972751623472548 0 18787 -0.8972751623472548 1
gene 3 2196 1762 0.20137952882860766 0 18788 0.20137952882860766 1
gene 2 954 77 0.068862454764946568 0 18810 0.068862454764946568 1
gene 3 1122 1194 0.08313027726632094 0 19068 0.08313027726632094 1
gene 3 1432 671 0.3032464197851934 0 19153 0.3032464197851934 1
gene 1 3 2230 -0.054597362901362134 1 19160 -0.054597362901362134 1
gene 1 2230 45 -1.0704783806905516 0 19161 -1.0704783806905516 1
gene 3 1909 549 0.32007397237237251 0 19359 0.32007397237237251 1
gene 3 1576 460 1.308057848740396 0 19414 1.308057848740396 1
gene 1 381 560 0.634081244763956 0 19450 0.634081244763956 1
gene 2 1576 2230 1.1761531860922245 0 19476 1.1761531860922245 1
gene 2 690 2268 -0.1161124352906423 0 19593 -0.1161124352906423 1
gene 2 2268 238 0.47811497141519332 0 19594 0.47811497141519332 1
gene 1 2183 2183 0.10694657899762811 1 19669 0.10694657899762811 1
gene 3 2230 1540 0.38329108566199016 0 19824 0.38329108566199016 1
gene 1 45 2292 0.17400743680727082 0 19834 0.17400743680727082 1
gene 1 2292 51 -0.17728169247381467 0 19835 -0.17728169247381467 1
gene 3 1838 783 -0.16605866917691131 0 19842 -0.16605866917691131 1
gene 3 690 1576 -1.0739702133340623 0 19889 -1.0739702133340623 1
gene 1 5 2298 -0.038179345213891602 0 19899 -0.038179345213891602 1
gene 1 2298 240 -0.20549567495728641 0 19900 -0.20549567495728641 1
gene 3 1751 1768 -1.681571281366782 0 19927 -1.681571281366782 1
gene 3 565 565 -0.1595916862877047 1 19950 -0.1595916862877047 1
gene 3 1453 2162 0.83433352752324819 0 19961 0.83433352752324819 1
gene 3 1663 1663 -0.47460577798756109 1 19969 -0.47460577798756109 1
gene 1 55 1101 -0.37443732743823771 0 20069 -0.37443732743823771 1
gene 2 456 830 -0.52267151443412119 0 20087 -0.52267151443412119 1
gene 3 55 1194 0.38502950844589134 0 20146 0.38502950844589134 1
gene 2 2230 857 2.0584993714273438 0 20151 2.0584993714273438 1
gene 3 381 671 0.5282056154814575 0 20206 0.5282056154814575 1
gene 3 1611 1212 -0.034053682365479732 0 20353 -0.034053682365479732 1
gene 2 1611 2361 0.47456153411164947 0 20389 0.47456153411164947 1
gene 2 2361 1268 -0.63607422105785183 0 20390 -0.63607422105785183 1
gene 3 1432 1663 -0.75757802406213148 0 20433 -0.75757802406213148 1
gene 2 242 1101 0.06821379091973126 0 20438 0.06821379091973126 0
gene 1 45 2268 -0.22508480643159001 1 20506 -0.22508480643159001 1
gene 1 1453 1681 0.41628909409804682 0 20532 0.41628909409804682 1
gene 2 240 2384 -0.049746806290814127 0 20599 -0.049746806290814127 1
gene 2 2384 4 -0.43900820051273715 0 20600 -0.43900820051273715 1
gene 2 1768 1768 -0.60853230678873715 1 20680 -0.60853230678873715 1
gene 1 51 2196 -0.45791184388003864 0 20742 -0.45791184388003864 0
gene 2 2298 1453 0.046189226930117809 0 20775 0.046189226930117809 1
gene 3 1768 2230 -0.99034909670723092 0 20832 -0.99034909670723092 1
gene 3 994 994 0.82698446248051916 1 20860 0.82698446248051916 1
gene 3 690 857 -1.8529945017551046 0 21061 -1.8529945017551046 1
gene 2 2183 783 1.3458440491677466 0 21075 1.3458440491677466 1
gene 1 255 1663 -0.19804135952053656 0 21167 -0.19804135952053656 1
gene 3 2110 1432 -0.16274451611691365 0 21202 -0.16274451611691365 1
gene 2 671 1268 -0.37405058060495677 0 21240 -0.37405058060495677 1
gene 2 1194 55 0.028389899306180841 0 21263 0.028389899306180841 1
gene 2 2298 238 -0.69500819160370542 0 21282 -0.69500819160370542 1
gene 3 1052 954 -0.14354311751366738 0 21373 -0.14354311751366738 1
gene 2 2150 2150 -0.079870955124437357 1 21472 -0.079870955124437357 1
gene 1 1122 1212 0.95253635265516878 0 21573 0.95253635265516878 1
gene 3 490 1421 -1.2618295651682792 0 21658 -1.2618295651682792 1
gene 3 549 549 0.37202772305907117 1 21831 0.37202772305907117 1
gene 3 2268 560 -0.55646770333706752 0 21972 -0.55646770333706752 1
gene 3 460 2150 -0.39098208602097911 0 22065 -0.39098208602097911 1
gene 3 1576 240 -0.63655261981140476 0 22110 -0.63655261981140476 1
gene 2 1573 2298 0.11247795126981934 0 22198 0.11247795126981934 1
gene 1 5 1657 -0.44917486396114104 0 22204 -0.44917486396114104 1
gene 3 1637 857 -0.70345154833209311 0 22319 -0.70345154833209311 1
gene 2 592 592 -0.32557032994254043 1 22328 -0.32557032994254043 1
gene 2 1165 51 0.26257827797093347 0 22352 0.26257827797093347 1
gene 3 2268 2268 -0.41470680800951404 1 22490 -0.41470680800951404 1
gene 1 1432 2601 -0.54859375792955689 0 22612 -0.54859375792955689 1
gene 1 2601 3 0.19521088325195521 0 22613 0.19521088325195521 1
gene 3 857 857 0.20944866128705844 1 23043 0.20944866128705844 1
gene 1 1751 830 0.84500680810073714 0 23051 0.84500680810073714 1
gene 2 783 242 -0.24277339188511174 0 23069 -0.24277339188511174 1
gene 1 768 51 0.86958711215741336 0 23160 0.86958711215741336 1
gene 2 1052 4 0.3273855109360933 0 23346 0.3273855109360933 1
gene 1 1663 690 -0.14195256058217609 1 23370 -0.14195256058217609 1
gene 1 857 690 -0.016745879089807125 1 23377 -0.016745879089807125 1
gene 3 1 1500 0.64276045497635392 0 23398 0.64276045497635392 1
gene 3 381 2268 0.17561762299184577 0 23450 0.17561762299184577 1
gene 3 1560 783 -0.69894418688441817 0 23482 -0.69894418688441817 1
gene 2 7 2601 0.031560436837170525 0 23496 0.031560436837170525 1
gene 3 5 857 0.013903066988057988 0 23605 0.013903066988057988 1
gene 2 1268 1663 0.37148288072621583 0 23638 0.37148288072621583 1
gene 1 605 954 0.33330822285884443 0 23645 0.33330822285884443 1
gene 3 2 2731 0.46865577854619167 0 23737 0.46865577854619167 1
gene 3 2731 783 0.1301346868882583 0 23738 0.1301346868882583 1
gene 3 1500 2150 0.89371644956698471 0 23771 0.89371644956698471 1
gene 3 1751 5 0.58733449647544622 1 23784 0.58733449647544622 1
gene 2 1560 2753 -0.11384871141698617 0 23958 -0.11384871141698617 1
gene 2 2753 55 -0.50301119033387454 0 23959 -0.50301119033387454 1
gene 1 2292 2292 -0.25630712264976796 1 24047 -0.25630712264976796 1
gene 1 690 2601 -0.44640143515840242 0 24082 -0.44640143515840242 1
gene 1 1287 2174 -0.90034241434202644 0 24132 -0.90034241434202644 1
gene 3 1052 1563 -0.31448752820235093 0 24146 -0.31448752820235093 1
gene 3 5 2773 -0.44529389890157334 0 24194 -0.44529389890157334 1
gene 3 2773 565 -1.66785342137695 0 24195 -1.66785342137695 1
gene 1 2298 2298 0.86514699173399578 1 24226 0.86514699173399578 1
gene 1 2292 1611 0.3480977853052773 0 24314 0.3480977853052773 1
gene 3 2 857 -0.082579596239412023 0 24374 -0.082579596239412023 1
gene 1 768 768 0.23524411592411068 1 24480 0.23524411592411068 1
gene 2 490 1540 -0.21680323044620606 0 24622 -0.21680323044620606 1
gene 1 1212 2162 -0.34334508508599598 0 24715 -0.34334508508599598 1
gene 1 549 2851 -0.18661389182629712 0 24729 -0.18661389182629712 1
gene 1 2851 45 0.23742460703357338 0 24730 0.23742460703357338 1
gene 1 460 1681 -0.45195842834746397 0 24758 -0.45195842834746397 1
gene 1 2773 2384 0.33608409498635872 0 24765 0.33608409498635872 1
gene 1 1657 1194 0.13308629213510376 0 24781 0.13308629213510376 1
gene 1 2361 456 -0.073763156111241845 1 24786 -0.073763156111241845 1
gene 3 2174 1165 -0.065513464187045331 0 24803 -0.065513464187045331 1
gene 3 1101 2753 1.7081389986947826 0 24868 1.7081389986947826 1
gene 3 768 45 0.22833700511992772 0 24892 0.22833700511992772 1
gene 1 2773 2773 -0.47720810769927136 1 24978 -0.47720810769927136 1
gene 2 55 1663 0.13361716230102683 0 25065 0.13361716230102683 1
gene 3 768 549 -0.91615509074933588 0 25100 -0.91615509074933588 1
gene 2 560 857 0.072859824901847114 0 25123 0.072859824901847114 1
gene 2 110 1122 -0.019755002120395659 0 25130 -0.019755002120395659 1
gene 2 2731 2731 -0.20873277248290031 1 25221 -0.20873277248290031 1
gene 1 5 2361 1.1840456815827851 0 25356 1.1840456815827851 1
gene 2 4 1909 0.44496589943066511 1 25426 0.44496589943066511 1
gene 1 1573 1611 -0.9812395789107492 0 25480 -0.9812395789107492 1
gene 1 240 2936 -1.6845816293193874 0 25529 -1.6845816293193874 1
gene 1 2936 1637 -0.12780877394965326 0 25530 -0.12780877394965326 1
gene 2 768 592 0.25194304355044994 0 25572 0.25194304355044994 1
gene 2 1101 2851 -0.46482162851133457 0 25621 -0.46482162851133457 1
gene 1 45 2982 -0.2355221382973354 0 25851 -0.2355221382973354 1
gene 1 2982 51 0.37655455031271773 0 25852 0.37655455031271773 1
gene 2 2268 2773 0.58920975848529933 0 25915 0.58920975848529933 1
gene 1 1563 1681 0.1132971041897764 0 25951 0.1132971041897764 1
gene 3 2298 242 0.045116138432694658 1 26052 0.045116138432694658 1
gene 1 1657 1287 0.52193566110075251 0 26179 0.52193566110075251 1
gene 1 783 2298 0.018805065899530772 0 26342 0.018805065899530772 1
gene 2 1611 240 -0.04350417179218688 1 26361 -0.04350417179218688 1
gene 1 1768 2292 -0.56421784663769314 0 26401 -0.56421784663769314 1
gene 3 1500 1052 -0.61852433142183549 0 26451 -0.61852433142183549 1
gene 1 51 3049 0.025959269854221173 0 26453 0.025959269854221173 1
gene 1 3049 2196 -0.42978269556992815 0 26454 -0.42978269556992815 1
gene 3 490 3061 0.49557381821590185 0 26520 0.49557381821590185 1
gene 3 3061 1563 -0.19351874440606626 0 26521 -0.19351874440606626 1
gene 1 3061 671 -0.14601186134201094 0 26539 -0.14601186134201094 1
gene 1 1576 592 -0.86084004601502784 0 26569 -0.86084004601502784 1
gene 1 1838 1838 0.39481618180629618 1 26647 0.39481618180629618 1
gene 3 1287 1122 -0.2953874782171973 0 26733 -0.2953874782171973 1
gene 1 1576 549 -0.69137994465016761 0 26913 -0.69137994465016761 1
gene 2 560 3114 0.93231811371274209 0 26965 0.93231811371274209 1
gene 2 3114 238 1.1926065837929987 0 26966 1.1926065837929987 1
gene 1 2292 3 0.042970896252883084 0 27030 0.042970896252883084 1
gene 3 5 1909 -0.27657216148291347 1 27058 -0.27657216148291347 1
gene 1 2 549 -0.42948833267646297 0 27078 -0.42948833267646297 1
gene 3 830 2936 -0.23162473562714864 0 27221 -0.23162473562714864 1
genomeend 1
