genomestart 1
trait 1 0 0 0.591106 0.590333 0 0 0.690581 0 
trait 2 0 0 0 0.910561 0.638291 0.706045 1 0 
trait 3 0.818105 0.820645 0.136745 0 1 0.0652092 0.55779 0.647255 
node 1 3 1 3
node 2 2 1 1
node 3 2 0 2
node 4 2 0 2
node 9 1 0 0
node 11 2 0 0
node 221 3 0 0
nodegru 260 0 -0.545465 1.34954 0.78561 3.57799 -2.85157 0.141127 [ -0.550878 0.844676 -0.243378 0.208463 1.08761 ] [ -0.481358 0.0765076 0.380599 0.76159 0.108442 ] [ 1.05149 -0.404013 -0.165846 0.095487 0.884611 ]
node 396 1 0 0
nodegru 499 0 0.16933 -2.73711 0.357636 -2.85932 0.0758093 0.177493 [ -0.382126 -1.50881 0.112775 -1.616 ] [ -1.12918 1.83029 -1.71183 0.140984 ] [ -1.48923 -1.38547 -1.21449 -0.524036 ]
node 571 1 0 0
nodegru 758 0 1.35701 -0.238186 0.421122 0.0477628 -0.00159104 0.782802 [ -0.232601 -0.0628764 -0.718217 2.65283 -0.358417 0.161642 0 ] [ 0.370653 -0.0704178 0.079394 0.140138 -0.0161667 0 0 ] [ -0.00493149 -0.11958 -0.0287701 0.0536712 -0.203942 0 0 ]
node 822 2 0 0
node 865 3 0 0
node 941 2 0 0
node 969 1 0 0
node 982 1 0 0
nodegru 1102 0 -1.42863 -0.906271 0.420199 2.44455 -0.553323 1.32005 [ 0.418916 0.0321798 -0.343237 -0.0321283 ] [ -1.83255 0.916064 -0.457621 1.34443 ] [ 0.918313 -1.01096 0.297167 1.14855 ]
node 1271 1 0 0
node 1297 2 0 0
nodegru 1335 0 2.49259 0.598579 0.494914 -2.60644 -0.342706 -2.76292 [ 0.0379655 1.4425 1.43657 0.0695101 0.907281 -0.727398 0 ] [ -2.23481 0.00128655 0.127329 0.986507 0.974084 0 -0.359298 ] [ 0.170312 -0.128153 0.983876 -0.249936 -0.0951204 -0.858619 0.335843 ]
node 1732 3 0 0
node 1741 1 0 0
node 1773 1 0 0
node 1798 1 0 0
node 1964 1 0 0
node 2118 2 0 0
node 2503 1 0 0
gene 3 1 3 -0.33605 0 1 -0.33605 1
gene 1 2 3 0.653233 0 2 0.653233 1
gene 3 1 4 -1.06199 0 3 -1.06199 1
gene 1 2 4 -1.47214 0 4 -1.47214 1
gene 2 2 9 0.528234 0 20 0.528234 1
gene 2 9 4 0.864773 0 21 0.864773 1
gene 2 2 11 -0.43469 0 28 -0.43469 1
gene 1 11 3 0.0516775 0 29 0.0516775 1
gene 1 2 221 1.05514 0 1094 1.05514 1
gene 2 221 9 -1.05941 0 1095 -1.05941 1
gene 2 11 4 1.25736 0 1174 1.25736 1
gene 1 9 3 1.89212 0 1342 1.89212 0
gene 2 2 260 -0.664954 0 1371 -0.664954 0
gene 2 260 11 0.0775321 0 1372 0.0775321 0
gene 1 2 396 0.329211 0 2146 0.329211 0
gene 1 396 221 -0.107008 0 2147 -0.107008 0
gene 1 3 3 0.0685486 1 2530 0.0685486 1
gene 3 9 499 0.122959 0 2735 0.122959 0
gene 2 499 3 0.771902 0 2736 0.771902 1
gene 1 260 221 1.29404 0 3084 1.29404 1
gene 2 260 4 0.550242 0 3147 0.550242 1
gene 3 9 571 0.366311 0 3201 0.366311 1
gene 2 571 4 -0.631366 0 3202 -0.631366 1
gene 1 499 4 0.90894 0 3413 0.90894 1
gene 1 1 11 1.38234 0 3781 1.38234 1
gene 2 9 758 -0.535674 0 4155 -0.535674 0
gene 2 758 499 0.726497 0 4156 0.726497 1
gene 1 571 3 0.134566 0 4409 0.134566 0
gene 2 396 260 -0.79889 0 4576 -0.79889 1
gene 3 571 822 -1.53362 0 4588 -1.53362 1
gene 3 822 3 0.368155 0 4589 0.368155 1
gene 1 11 9 1.79297 0 4730 1.79297 0
gene 2 11 865 -0.363056 0 4806 -0.363056 1
gene 1 865 9 1.44665 0 4807 1.44665 1
gene 2 260 941 -0.865298 0 5231 -0.865298 1
gene 1 941 4 -0.195867 0 5232 -0.195867 0
gene 2 2 969 -0.0254134 0 5449 -0.0254134 1
gene 3 969 3 3.39878 0 5450 3.39878 1
gene 2 865 3 0.470086 0 5459 0.470086 1
gene 1 2 822 0.287741 0 5491 0.287741 1
gene 2 1 758 -0.52415 0 5540 -0.52415 1
gene 2 969 4 0.773737 0 5548 0.773737 1
gene 2 865 499 -3.01919 0 5569 -3.01919 1
gene 1 941 982 0.73432 0 5578 0.73432 0
gene 1 982 4 0.544084 0 5579 0.544084 0
gene 3 396 865 -1.73085 0 6031 -1.73085 0
gene 2 396 1102 1.669 0 6258 1.669 1
gene 3 1102 865 2.09041 0 6259 2.09041 1
gene 2 822 822 -0.860031 1 6288 -0.860031 0
gene 3 2 941 -1.17854 0 6396 -1.17854 1
gene 1 3 982 0.551608 1 6647 0.551608 1
gene 3 396 396 -1.14204 1 7124 -1.14204 1
gene 3 396 11 -1.07659 0 7308 -1.07659 1
gene 2 822 1271 -3.06572 1 7331 -3.06572 1
gene 2 1271 822 -0.0262359 0 7332 -0.0262359 1
gene 1 2 1297 -0.705566 0 7473 -0.705566 1
gene 1 1297 396 -0.89831 0 7474 -0.89831 1
gene 3 982 982 -0.957649 1 7575 -0.957649 1
gene 2 941 758 1.23638 0 7598 1.23638 1
gene 1 396 1335 0.608146 0 7688 0.608146 1
gene 1 1335 221 1.81257 0 7689 1.81257 0
gene 2 969 260 0.559743 0 8210 0.559743 0
gene 2 2 1102 0.36829 0 8287 0.36829 0
gene 3 1297 3 -0.876764 0 8320 -0.876764 1
gene 2 1102 1335 0.675478 0 9108 0.675478 1
gene 1 11 941 -1.21016 0 9156 -1.21016 1
gene 1 11 1335 0.448546 0 9176 0.448546 0
gene 1 1102 758 1.31351 0 9972 1.31351 1
gene 1 1297 260 -1.69086 0 10010 -1.69086 1
gene 1 982 1732 -1.62684 0 10042 -1.62684 1
gene 1 1732 4 0.181043 0 10043 0.181043 1
gene 1 1335 1741 0.635934 0 10105 0.635934 1
gene 1 1741 221 -1.15791 0 10106 -1.15791 1
gene 1 982 865 -0.232749 0 10278 -0.232749 1
gene 2 2 1773 -0.383739 0 10315 -0.383739 1
gene 2 1773 1102 -0.0460092 0 10316 -0.0460092 1
gene 2 969 969 1.04523 1 10379 1.04523 1
gene 1 260 1741 1.5859 0 10466 1.5859 1
gene 1 11 1798 -0.368645 0 10524 -0.368645 1
gene 1 1798 1335 0.901202 0 10525 0.901202 1
gene 1 396 9 0.834558 0 10690 0.834558 1
gene 3 1271 865 2.6775 0 10884 2.6775 1
gene 3 982 571 -2.16916 0 10905 -2.16916 1
gene 3 571 758 -1.476 0 10926 -1.476 1
gene 1 11 1102 -0.0370618 0 10968 -0.0370618 1
gene 3 941 499 -1.9006 0 10998 -1.9006 1
gene 2 969 1964 -0.296167 0 11475 -0.296167 1
gene 2 1964 260 -0.828201 0 11476 -0.828201 1
gene 1 1798 1798 -2.12792 1 11515 -2.12792 1
gene 2 1741 4 -1.53957 0 11621 -1.53957 1
gene 3 969 1732 -1.49779 0 11781 -1.49779 1
gene 1 969 9 1.07794 0 11867 1.07794 0
gene 2 11 221 0.071035 0 12269 0.071035 1
gene 3 969 2118 -1.15297 0 12370 -1.15297 1
gene 3 2118 9 0.185488 0 12371 0.185488 1
gene 1 2118 865 1.54051 0 12669 1.54051 1
gene 1 865 571 -0.37458 0 12684 -0.37458 1
gene 2 982 3 -0.79049 0 12853 -0.79049 0
gene 1 969 865 -0.709822 0 12887 -0.709822 1
gene 2 1741 865 -0.98926 0 12949 -0.98926 1
gene 1 221 221 -0.421939 1 13136 -0.421939 1
gene 2 1741 1732 0.968784 0 13638 0.968784 1
gene 3 1732 758 -0.00823146 0 13797 -0.00823146 1
gene 3 11 571 0.148862 0 13859 0.148862 1
gene 2 1964 865 -0.312641 0 13921 -0.312641 1
gene 1 2118 571 -0.688271 0 13983 -0.688271 1
gene 2 221 1335 -0.0397892 1 14022 -0.0397892 1
gene 3 1798 1773 -0.571514 0 14061 -0.571514 1
gene 2 982 1964 0.191201 0 14138 0.191201 1
gene 1 1798 865 -0.026429 0 14488 -0.026429 1
gene 2 982 2503 1.60898 0 14670 1.60898 1
gene 2 2503 3 -0.436462 0 14671 -0.436462 1
gene 2 1297 1335 -0.770332 0 14897 -0.770332 1
gene 3 396 2118 0.50027 0 15281 0.50027 1
gene 2 2 1335 -0.385623 0 15328 -0.385623 1
gene 1 2503 1732 -0.512901 0 15393 -0.512901 1
gene 3 2503 758 0.335338 0 15403 0.335338 1
gene 1 2503 221 0.56144 0 15423 0.56144 1
gene 2 2503 396 -0.884755 0 15439 -0.884755 1
genomeend 1
