genomestart 1
trait 1 0 1 0 0.611417 0 0.689716 0 0.834972 
trait 2 0.266509 0 0.905375 0.173759 0 0.847869 0.784173 1 
trait 3 1 0 0 1 0.107161 0 0.161131 0.946632 
node 1 3 1 3
node 2 2 1 1
node 3 2 0 2
node 4 3 0 2
node 12 3 0 0
nodegru 14 0 0.54613018643396449 0.4964079158363901 0.29457816797987474 0.15611962445830907 -1.5121341489777596 0.016788764864573591 [ -1.5299756690068058 -0.7840990609415337 -0.087655465159404769 0.13745838922330103 ] [ -0.11708485293997684 0.011729380354159269 -0.15449468309734701 -0.48483405075261093 ] [ 0.062339626281680355 1.0668838734584321 0.13124805811385068 0.077635195608080923 ]
node 24 1 0 0
node 47 3 0 0
nodegru 161 0 0.061285861563536326 0.11035534139273467 -0.097866175043334336 1.2216099166411951 -0.46460842712065598 -1.3114002516080625 [ -0.9155279188023544 -0.16720336636863806 0.46037445867451576 -0.8389933825652085 ] [ -0.1966311355105746 0.23669817030276097 -0.98177801886656235 -0.23240503493342782 ] [ 0.41648156308405176 -0.51584896166615613 0.74504052509788443 -0.14608431591004334 ]
nodegru 230 0 -0.77675254353170864 -0.94989122424735284 -0.77112315118830788 -0.13137795968511046 -0.30398708665929136 -0.21309512560865623 [ -0.17153519260302894 -0.74804593564385824 0.66863186059921609 0.012658401165464149 0 ] [ -0.25106534932323982 -0.067780977379428675 0.15735553445171357 0.11626502434549156 0 ] [ -1.696546686671929 -0.36082813579627693 -0.042893072144544242 0.28629933217833714 0 ]
node 471 1 0 0
nodegru 522 0 -0.32287693830340958 0.34540652849031916 -0.28170200380575938 0.024062359018280299 -0.042839347870479966 0.049667353299291492 [ -0.11596087278610136 0.063185053441294034 0.44169180837538641 ] [ -0.15974280850949829 -0.60741221490661257 0.10237790416105552 ] [ -0.1165402685834748 -0.41176401842933336 -0.65110099718491599 ]
node 640 1 0 0
node 687 1 0 0
nodegru 901 0 -0.44424211836617539 -0.5743415661036696 0.10836299700120604 -0.034964852749819364 0.42581895828518035 0 [ -0.39076507552096856 ] [ 0.56615003923240592 ] [ 0.88645597425590084 ]
nodegru 911 0 0 0.46076888123562976 -0.46234870281179841 0.11280932212844925 0.23898849321482168 -0.068260941686230217 [ 0.36307031724744959 ] [ 0.070091364937876988 ] [ 0 ]
node 912 1 0 0
nodegru 975 0 0.92385658245713287 0.44566572012643596 0.11727342410817435 0.69940204950953 -0.32753712396488394 -0.34350959437131401 [ -0.20182109423997863 ] [ 0.56172737575216569 ] [ 0.26077094220592223 ]
gene 2 1 3 0.14834879392215461 0 1 0.14834879392215461 1
gene 2 2 3 -3.0536124836903129 0 2 -3.0536124836903129 1
gene 2 1 4 2.2062183442554537 0 3 2.2062183442554537 1
gene 2 2 4 0.28186972312716296 0 4 0.28186972312716296 1
gene 3 2 12 0.44664594551857839 0 30 0.44664594551857839 0
gene 3 12 4 -0.4688965915557447 0 31 -0.4688965915557447 0
gene 3 2 14 0.26062444353505249 0 37 0.26062444353505249 1
gene 3 14 3 -2.6545025103979292 0 38 -2.6545025103979292 1
gene 3 1 12 1.230728172804568 0 65 1.230728172804568 0
gene 3 2 24 -1.7008403771095166 0 81 -1.7008403771095166 0
gene 2 24 12 0.36036386986280039 0 82 0.36036386986280039 0
gene 1 2 47 0.21819169759666163 0 192 0.21819169759666163 1
gene 1 47 24 -0.083461762444796861 0 193 -0.083461762444796861 0
gene 1 1 47 0.23202829213441747 0 246 0.23202829213441747 1
gene 1 47 4 -0.96327487796697531 0 401 -0.96327487796697531 1
gene 3 24 14 0.30768036833390611 0 621 0.30768036833390611 1
gene 1 4 47 0.54841423828546609 1 784 0.54841423828546609 1
gene 3 12 161 -1.4390215410101328 0 828 -1.4390215410101328 0
gene 2 161 4 0.26263474173035228 0 829 0.26263474173035228 0
gene 1 14 161 0.28632398312274554 0 844 0.28632398312274554 1
gene 1 24 230 -1.4513343497884155 0 1180 -1.4513343497884155 0
gene 2 230 12 -0.19096696828071347 0 1181 -0.19096696828071347 1
gene 1 47 12 -0.44378727159639231 0 1185 -0.44378727159639231 1
gene 2 24 3 -0.36759474797528002 0 1619 -0.36759474797528002 1
gene 1 14 12 0.26960862580202921 0 1685 0.26960862580202921 1
gene 3 1 14 -0.52245005267786326 0 2129 -0.52245005267786326 1
gene 3 47 230 -0.2655255916833531 0 2235 -0.2655255916833531 1
gene 2 230 4 -0.47562205534224494 0 2256 -0.47562205534224494 0
gene 1 24 471 1.4878174031562255 0 2404 1.4878174031562255 1
gene 1 471 230 -0.70142981070160393 0 2405 -0.70142981070160393 1
gene 3 230 3 -1.1828001473018903 0 2598 -1.1828001473018903 1
gene 1 471 12 1.3485257194137785 0 2674 1.3485257194137785 1
gene 2 12 522 -0.37072677974157348 0 2688 -0.37072677974157348 0
gene 3 522 161 0.092501369813690615 0 2689 0.092501369813690615 0
gene 3 522 4 -0.45007811624094751 0 3043 -0.45007811624094751 1
gene 3 12 640 0.14919914405289997 0 3265 0.14919914405289997 1
gene 3 640 522 -0.94395257716251191 0 3266 -0.94395257716251191 1
gene 2 230 14 -0.22722290536725098 0 3273 -0.22722290536725098 1
gene 2 47 640 1.0231919176984539 0 3327 1.0231919176984539 1
gene 3 161 687 0.38601574389544113 0 3466 0.38601574389544113 0
gene 3 687 4 0.97372313215105011 0 3467 0.97372313215105011 1
gene 1 14 522 -1.0553699154664622 0 3519 -1.0553699154664622 1
gene 1 2 230 -0.26960581646748161 0 3766 -0.26960581646748161 1
gene 1 12 687 -0.31909619728992517 0 4222 -0.31909619728992517 1
gene 3 471 47 0.089136083651863082 0 4230 0.089136083651863082 1
gene 3 522 3 -1.7326999426505991 0 4239 -1.7326999426505991 1
gene 1 47 687 0.12673195666947029 0 4354 0.12673195666947029 0
gene 3 522 901 -0.063712989475444459 0 4441 -0.063712989475444459 1
gene 3 901 161 -0.49226179578912527 0 4442 -0.49226179578912527 1
gene 2 2 687 -0.70171650066120395 0 4452 -0.70171650066120395 1
gene 2 47 911 -0.86589822609252209 0 4503 -0.86589822609252209 1
gene 1 911 687 -0.028581639765101318 0 4504 -0.028581639765101318 1
gene 3 161 912 0.86928814527079845 0 4506 0.86928814527079845 1
gene 3 912 687 -0.5093668743545966 0 4507 -0.5093668743545966 1
gene 1 912 912 -0.0018540737227789872 1 4631 -0.0018540737227789872 1
gene 1 1 230 0.54150216213497426 0 4778 0.54150216213497426 1
gene 2 230 975 0.52253723890638781 0 4806 0.52253723890638781 1
gene 2 975 4 -0.31366432635749886 0 4807 -0.31366432635749886 1
gene 3 471 912 0.90292457044260788 0 4911 0.90292457044260788 1
genomeend 1
