genomestart 1
trait 1 0.160181 0.0244903 0.448076 0.124314 1 1 0.579581 0.536296 
trait 2 0 0.136544 0 0 0.89668 0 0.0386369 0 
trait 3 1 0 0 0.520025 0 0.172201 1 0.238452 
node 1 1 1 3
node 2 1 1 1
node 3 3 0 2
node 4 2 0 2
node 9 2 0 0
node 11 3 0 0
node 26 2 0 0
node 29 2 0 0
node 70 3 0 0
node 101 1 0 0
node 105 2 0 0
node 177 1 0 0
node 210 2 0 0
node 242 2 0 0
node 266 3 0 0
node 309 3 0 0
node 338 1 0 0
node 390 1 0 0
node 400 3 0 0
node 443 1 0 0
node 459 2 0 0
node 472 1 0 0
node 534 1 0 0
node 567 3 0 0
node 601 1 0 0
node 650 1 0 0
node 685 1 0 0
node 724 1 0 0
node 775 1 0 0
node 845 3 0 0
node 901 1 0 0
node 912 1 0 0
node 936 2 0 0
node 983 1 0 0
node 1055 1 0 0
node 1067 2 0 0
node 1233 1 0 0
node 1247 1 0 0
node 1346 2 0 0
node 1474 1 0 0
node 1484 1 0 0
node 1490 3 0 0
node 1510 1 0 0
node 1519 1 0 0
node 1532 1 0 0
node 1537 1 0 0
node 1613 2 0 0
node 1685 1 0 0
node 1704 1 0 0
node 1708 1 0 0
node 1732 1 0 0
node 1779 1 0 0
node 1820 1 0 0
node 1858 1 0 0
node 1909 1 0 0
gene 2 1 3 -1.2922418246940903 0 1 -1.2922418246940903 1
gene 1 2 3 0.1825687976938527 0 2 0.1825687976938527 1
gene 3 1 4 -6.8066150668573675 0 3 -6.8066150668573675 1
gene 3 2 4 -0.11305582342346004 0 4 -0.11305582342346004 1
gene 2 4 4 -2.159107470726179 1 10 -2.159107470726179 1
gene 3 4 9 0.23332637419613375 1 22 0.23332637419613375 1
gene 2 9 4 1.6571011762866288 0 23 1.6571011762866288 1
gene 1 2 11 -0.60097176027529486 0 32 -0.60097176027529486 1
gene 1 11 3 0.37495557562213183 0 33 0.37495557562213183 1
gene 2 2 9 -0.42519944437090285 0 46 -0.42519944437090285 1
gene 1 9 3 -0.21570339995236296 0 103 -0.21570339995236296 1
gene 1 11 26 -0.25643542281185994 0 108 -0.25643542281185994 1
gene 1 26 3 -0.44202819720005065 0 109 -0.44202819720005065 1
gene 3 3 3 0.09975297870102931 1 127 0.09975297870102931 1
gene 1 2 29 0.01079545054156128 0 138 0.01079545054156128 1
gene 1 29 11 -0.42961769943573408 0 139 -0.42961769943573408 1
gene 1 1 9 -1.6728364134546536 0 169 -1.6728364134546536 1
gene 3 29 9 0.75862375169928353 0 211 0.75862375169928353 1
gene 2 29 26 0.45314121314005051 0 244 0.45314121314005051 1
gene 3 1 29 -1.0284350710122077 0 373 -1.0284350710122077 1
gene 2 26 26 -0.38692757412182521 1 438 -0.38692757412182521 1
gene 3 1 11 0.20585681018692287 0 466 0.20585681018692287 1
gene 1 26 70 -1.1552896768112155 0 486 -1.1552896768112155 1
gene 2 70 3 0.3121973927189583 0 487 0.3121973927189583 0
gene 2 9 70 1.5270945734936252 0 655 1.5270945734936252 1
gene 1 26 101 -0.65286794591362951 0 749 -0.65286794591362951 0
gene 1 101 70 -0.0028000706819817367 0 750 -0.0028000706819817367 0
gene 1 4 105 -0.42538811309514013 1 779 -0.42538811309514013 1
gene 1 105 9 0.99248800403088711 0 780 0.99248800403088711 0
gene 3 9 11 -0.23497956652891799 0 895 -0.23497956652891799 1
gene 2 105 29 -0.63335842878248472 0 984 -0.63335842878248472 1
gene 1 29 3 -0.42790857117060033 0 998 -0.42790857117060033 1
gene 1 11 11 0.53571411526562374 1 1048 0.53571411526562374 1
gene 3 2 70 0.40670540714948689 0 1063 0.40670540714948689 1
gene 3 9 101 -1.5950199114601216 0 1273 -1.5950199114601216 1
gene 2 105 3 -0.29582198536760268 0 1284 -0.29582198536760268 0
gene 2 2 177 0.36518587631414912 0 1314 0.36518587631414912 0
gene 1 177 29 0.61676958697697593 0 1315 0.61676958697697593 1
gene 1 29 29 -1.2220063091823861 1 1345 -1.2220063091823861 1
gene 3 2 101 -0.91087273899972099 0 1454 -0.91087273899972099 0
gene 1 1 26 -0.062519792962130047 0 1460 -0.062519792962130047 1
gene 3 177 105 -0.44048380290180617 0 1505 -0.44048380290180617 1
gene 1 2 210 0.36089422593866205 0 1591 0.36089422593866205 1
gene 1 210 177 1.1270104449368132 0 1592 1.1270104449368132 1
gene 1 210 4 0.064463584713853661 0 1596 0.064463584713853661 0
gene 2 210 105 -0.22551562717441265 0 1786 -0.22551562717441265 1
gene 1 26 242 0.21325099059066316 0 1846 0.21325099059066316 1
gene 1 242 101 1.0900317198084815 0 1847 1.0900317198084815 1
gene 2 177 177 0.90604375112151903 1 1897 0.90604375112151903 0
gene 1 177 11 -0.60314643993188921 0 1946 -0.60314643993188921 0
gene 1 1 101 -0.40798767838067729 0 1991 -0.40798767838067729 1
gene 1 101 266 -0.43120415109731453 0 2043 -0.43120415109731453 0
gene 1 266 70 0.52584827087160591 0 2044 0.52584827087160591 1
gene 1 101 309 -0.011075363499613182 0 2406 -0.011075363499613182 1
gene 2 309 266 -0.095358924984633414 0 2407 -0.095358924984633414 0
gene 2 70 70 0.16350825580931652 1 2417 0.16350825580931652 1
gene 1 177 242 0.24593113513939602 0 2444 0.24593113513939602 1
gene 1 29 266 0.66729507859204673 0 2507 0.66729507859204673 1
gene 2 29 309 -0.96294773019056201 0 2527 -0.96294773019056201 0
gene 1 105 266 -1.0668028905367493 0 2571 -1.0668028905367493 1
gene 2 309 338 -0.79396150787079778 0 2660 -0.79396150787079778 1
gene 1 338 266 1.4457592125729468 0 2661 1.4457592125729468 1
gene 2 11 70 -0.97746068633974559 0 2665 -0.97746068633974559 1
gene 1 1 242 -0.30353442826472898 0 2673 -0.30353442826472898 1
gene 1 105 242 -1.5162737201975069 0 2758 -1.5162737201975069 0
gene 1 177 70 -1.0186770320956955 0 2802 -1.0186770320956955 1
gene 1 11 242 -0.097240142103862059 0 2848 -0.097240142103862059 1
gene 2 26 309 -0.62637832626997425 0 2886 -0.62637832626997425 1
gene 3 29 101 -0.24692225654000521 0 3001 -0.24692225654000521 0
gene 1 4 338 0.88901412831107818 1 3061 0.88901412831107818 1
gene 2 105 390 -2.0721395507325138 0 3082 -2.0721395507325138 0
gene 3 390 3 0.61206767852980071 0 3083 0.61206767852980071 1
gene 1 242 3 -0.69156473138908159 0 3150 -0.69156473138908159 1
gene 2 390 11 -0.41334175198028877 0 3173 -0.41334175198028877 1
gene 2 9 400 0.08884333800004951 0 3191 0.08884333800004951 0
gene 1 400 3 0.61778669041478385 0 3192 0.61778669041478385 1
gene 3 2 309 -0.62269654992162093 0 3404 -0.62269654992162093 1
gene 3 29 242 0.21738390704495081 0 3466 0.21738390704495081 1
gene 3 309 3 -0.85779352037133361 0 3481 -0.85779352037133361 1
gene 1 177 4 0.122145876112462 0 3509 0.122145876112462 1
gene 2 105 443 -0.068336339000769117 0 3534 -0.068336339000769117 1
gene 2 443 390 -0.43182255766905031 0 3535 -0.43182255766905031 0
gene 1 9 459 0.52704736195832835 0 3695 0.52704736195832835 1
gene 1 459 400 0.0047992579661306212 0 3696 0.0047992579661306212 1
gene 1 443 26 -1.4346032763992453 0 3723 -1.4346032763992453 0
gene 3 338 4 1.0141189091438982 0 3803 1.0141189091438982 1
gene 3 2 472 0.2919972519353019 0 3820 0.2919972519353019 0
gene 3 472 9 1.2246122957321872 0 3821 1.2246122957321872 1
gene 3 400 338 -1.0227585916979045 0 3872 -1.0227585916979045 1
gene 2 210 9 -0.74791960662599644 0 4078 -0.74791960662599644 1
gene 2 177 443 0.12654494313827946 0 4208 0.12654494313827946 1
gene 2 443 534 -0.86454180877867248 0 4367 -0.86454180877867248 1
gene 2 534 26 -0.41217524274819312 0 4368 -0.41217524274819312 0
gene 3 443 443 -0.27319796745348629 1 4393 -0.27319796745348629 1
gene 1 400 400 0.14673142491221966 1 4468 0.14673142491221966 1
gene 2 443 567 -0.99629623000337575 0 4640 -0.99629623000337575 1
gene 2 567 390 0.37419520592046673 0 4641 0.37419520592046673 1
gene 3 210 400 -1.4673024054930091 0 4851 -1.4673024054930091 0
gene 1 472 3 0.54189714814624623 0 4897 0.54189714814624623 1
gene 2 177 601 0.091197479558734917 0 4916 0.091197479558734917 1
gene 1 601 11 0.48504938440632511 0 4917 0.48504938440632511 1
gene 1 210 26 -0.47248239045612628 0 5206 -0.47248239045612628 1
gene 3 210 459 0.36411775781964778 0 5213 0.36411775781964778 0
gene 1 534 9 -0.32373237415390665 0 5244 -0.32373237415390665 0
gene 1 3 567 0.19568570735663443 1 5252 0.19568570735663443 1
gene 3 3 650 0.063602921815404223 1 5402 0.063602921815404223 0
gene 3 650 3 -0.11032470018152365 0 5403 -0.11032470018152365 1
gene 3 2 105 0.67933250040716142 0 5405 0.67933250040716142 1
gene 1 459 11 2.2574000774218699 0 5646 2.2574000774218699 0
gene 2 177 685 1.0555600298361665 1 5660 1.0555600298361665 1
gene 1 685 177 -0.099886751547403063 0 5661 -0.099886751547403063 1
gene 2 266 266 2.1455816685434348 1 5754 2.1455816685434348 0
gene 2 443 309 -0.29937759148859305 0 5897 -0.29937759148859305 1
gene 3 105 567 -0.42738258858555117 0 5979 -0.42738258858555117 1
gene 2 70 724 0.088670414448096591 0 6027 0.088670414448096591 1
gene 2 724 3 0.62076539179345835 0 6028 0.62076539179345835 1
gene 1 567 472 -1.4151872330881599 0 6176 -1.4151872330881599 0
gene 3 210 724 -0.098888201452273963 0 6365 -0.098888201452273963 1
gene 1 567 567 -0.046871706632371973 1 6409 -0.046871706632371973 1
gene 1 685 242 -0.24149747204105254 0 6430 -0.24149747204105254 1
gene 1 210 775 0.074013589217333975 0 6431 0.074013589217333975 1
gene 1 775 4 -0.13085107790811501 0 6432 -0.13085107790811501 1
gene 3 390 601 0.11676670825889647 0 6439 0.11676670825889647 1
gene 2 534 70 -2.3591268131784755 0 6457 -2.3591268131784755 1
gene 1 472 338 1.7332390852892954 0 6465 1.7332390852892954 0
gene 1 472 70 0.91753177108128181 0 6652 0.91753177108128181 1
gene 3 567 400 -0.14202036668640577 0 6744 -0.14202036668640577 1
gene 2 210 29 0.59984126249320857 0 6847 0.59984126249320857 1
gene 2 650 26 -0.39968558768727147 0 6866 -0.39968558768727147 1
gene 2 390 242 0.17238909316826106 0 6875 0.17238909316826106 1
gene 2 459 338 -0.094775072575907449 0 6969 -0.094775072575907449 1
gene 2 685 775 -0.43882518282105459 0 7016 -0.43882518282105459 1
gene 2 601 601 -0.74277620913590137 1 7071 -0.74277620913590137 0
gene 1 459 845 -0.39880734770503229 0 7078 -0.39880734770503229 1
gene 1 845 11 -0.47662730304367246 0 7079 -0.47662730304367246 0
gene 2 101 775 -0.3539520811075122 0 7259 -0.3539520811075122 1
gene 3 685 266 -0.16989047600416954 0 7379 -0.16989047600416954 0
gene 3 601 266 0.70517772934640655 0 7473 0.70517772934640655 1
gene 2 459 601 -1.6260016700839628 0 7588 -1.6260016700839628 1
gene 3 2 901 -1.2347746257366494 0 7602 -1.2347746257366494 1
gene 3 901 101 -1.9749777128337782 0 7603 -1.9749777128337782 1
gene 2 177 459 -0.10481782937646741 0 7612 -0.10481782937646741 1
gene 1 26 11 0.18879124368018993 1 7685 0.18879124368018993 0
gene 2 534 912 0.69419536143271043 0 7707 0.69419536143271043 1
gene 2 912 26 0.28713875579980147 0 7708 0.28713875579980147 0
gene 3 242 901 -0.65238001460785977 0 7760 -0.65238001460785977 1
gene 2 210 567 -0.078147520347567112 0 7846 -0.078147520347567112 1
gene 1 845 936 0.016007477192211652 0 7870 0.016007477192211652 0
gene 1 936 11 1.0696854284357677 0 7871 1.0696854284357677 1
gene 2 101 338 -0.33933821941695086 0 8201 -0.33933821941695086 1
gene 3 601 983 -0.26472323283773064 0 8270 -0.26472323283773064 1
gene 3 983 266 -0.29282481260263588 0 8271 -0.29282481260263588 1
gene 1 567 534 0.22696149033818441 0 8322 0.22696149033818441 1
gene 3 2 845 -0.22777096029732891 0 8543 -0.22777096029732891 1
gene 3 685 845 0.47249757473938991 0 8596 0.47249757473938991 1
gene 1 459 912 -1.8469250597278239 0 8609 -1.8469250597278239 1
gene 1 472 1055 -0.8286053332633363 0 8873 -0.8286053332633363 0
gene 1 1055 338 2.3880527798962095 0 8874 2.3880527798962095 1
gene 2 105 1067 0.4356910115739755 0 8986 0.4356910115739755 1
gene 2 1067 3 -0.098194345877596345 0 8987 -0.098194345877596345 1
gene 2 29 775 0.30590962260305399 0 9163 0.30590962260305399 1
gene 1 459 1055 -0.27083131334317445 0 9191 -0.27083131334317445 1
gene 2 1055 1067 -0.57664039268933254 0 9218 -0.57664039268933254 1
gene 1 1067 1067 0.89637979697267522 1 9223 0.89637979697267522 1
gene 1 724 775 -0.38472876156900487 0 9247 -0.38472876156900487 1
gene 3 210 210 -0.29972598901937059 1 9348 -0.29972598901937059 1
gene 3 936 1055 0.25524325424583783 0 9494 0.25524325424583783 0
gene 1 459 26 -0.38819339028009836 0 9723 -0.38819339028009836 1
gene 1 9 845 -0.24879318161345712 0 9779 -0.24879318161345712 1
gene 3 309 724 -0.46612503820384155 0 9832 -0.46612503820384155 1
gene 1 390 390 -0.41246681889168302 1 9868 -0.41246681889168302 1
gene 3 901 775 0.49750336329336436 0 9875 0.49750336329336436 0
gene 2 26 983 0.10944096795722902 0 9953 0.10944096795722902 1
gene 2 1067 101 -0.25455297215588063 0 10057 -0.25455297215588063 1
gene 2 936 936 0.65702109558369082 1 10113 0.65702109558369082 1
gene 2 685 534 0.24169057060111815 0 10293 0.24169057060111815 1
gene 3 11 266 -0.91456244742244608 0 10301 -0.91456244742244608 1
gene 3 567 1233 1.1089842522558682 0 10408 1.1089842522558682 1
gene 3 1233 472 0.79579802360189988 0 10409 0.79579802360189988 1
gene 1 472 601 0.050513946009107843 0 10445 0.050513946009107843 1
gene 1 443 266 -2.3883715953623743 0 10450 -2.3883715953623743 1
gene 3 1 1055 0.30464360737458041 0 10516 0.30464360737458041 1
gene 3 724 400 0.096374166010121859 0 10539 0.096374166010121859 1
gene 1 650 912 -0.0070520781479087094 0 10576 -0.0070520781479087094 1
gene 3 685 1247 -1.6703873184371685 0 10590 -1.6703873184371685 0
gene 3 1247 266 0.36731766460804161 0 10591 0.36731766460804161 1
gene 2 443 650 -0.20398126808180547 0 11135 -0.20398126808180547 1
gene 1 901 70 0.3072404178358803 0 11267 0.3072404178358803 1
gene 1 400 1055 -1.635431475069109 0 11362 -1.635431475069109 1
gene 1 845 1346 0.54039835466090536 0 11500 0.54039835466090536 1
gene 1 1346 936 0.073819709743289136 0 11501 0.073819709743289136 1
gene 3 210 983 0.25811671081842702 0 11612 0.25811671081842702 1
gene 2 29 1055 1.129997936836443 0 11700 1.129997936836443 0
gene 3 650 70 1.1736614863265593 0 11895 1.1736614863265593 1
gene 2 936 1247 2.5644351907840157 0 11963 2.5644351907840157 1
gene 2 242 309 -0.2988314487965924 0 12070 -0.2988314487965924 0
gene 1 534 400 -0.75182558538011524 0 12306 -0.75182558538011524 1
gene 1 459 1346 0.060260900091501368 0 12339 0.060260900091501368 1
gene 3 983 1247 -0.54052922271216719 0 12350 -0.54052922271216719 1
gene 3 1233 936 0.095932829471273739 0 12362 0.095932829471273739 1
gene 3 983 724 -0.50326886121335856 0 12392 -0.50326886121335856 1
gene 2 2 338 0.58648240616846947 0 12475 0.58648240616846947 1
gene 2 983 309 0.55004251191860187 0 12490 0.55004251191860187 1
gene 2 29 70 0.66127736408322924 0 12496 0.66127736408322924 1
gene 3 1055 1055 -0.51841687900871813 1 12526 -0.51841687900871813 1
gene 3 210 1474 0.087054019601575147 0 12582 0.087054019601575147 1
gene 3 1474 400 -0.027680065030083023 0 12583 -0.027680065030083023 1
gene 2 266 1484 2.6071219940703001 1 12645 2.6071219940703001 1
gene 2 1484 266 -1.7867842315634641 0 12646 -1.7867842315634641 1
gene 3 901 1490 0.075805086212141937 0 12708 0.075805086212141937 1
gene 3 1490 775 0.46974511326744461 0 12709 0.46974511326744461 1
gene 1 534 1510 -1.1934747508230967 0 12865 -1.1934747508230967 1
gene 1 1510 9 1.3494687165829675 0 12866 1.3494687165829675 1
gene 2 1510 936 -0.00022453605207822802 0 12871 -0.00022453605207822802 1
gene 3 601 1490 -0.22184915292162874 0 12881 -0.22184915292162874 1
gene 2 1484 912 -0.014699512866651443 0 12932 -0.014699512866651443 1
gene 2 1233 266 -0.36306628601768348 0 12937 -0.36306628601768348 1
gene 3 650 901 -0.26900476905005272 0 12974 -0.26900476905005272 1
gene 2 29 1519 0.16449103931174197 0 12984 0.16449103931174197 1
gene 2 1519 1055 -0.28438348313066342 0 12985 -0.28438348313066342 1
gene 3 845 338 -0.17848656218428471 0 13051 -0.17848656218428471 1
gene 2 242 1532 -0.74546362424523749 0 13102 -0.74546362424523749 1
gene 2 1532 309 -0.22687489806063241 0 13103 -0.22687489806063241 1
gene 2 936 650 -0.4733249342410476 0 13144 -0.4733249342410476 1
gene 1 472 1537 -0.14894014045081108 0 13152 -0.14894014045081108 1
gene 1 1537 1055 -0.049156605288924932 0 13153 -0.049156605288924932 1
gene 2 601 1067 -0.89854647796533349 0 13211 -0.89854647796533349 1
gene 2 101 724 -1.5623942304227474 0 13343 -1.5623942304227474 1
gene 3 601 1484 0.36842275381480472 0 13385 0.36842275381480472 1
gene 3 177 901 -0.68467835787901576 0 13402 -0.68467835787901576 1
gene 2 1055 1484 -0.31997986897825259 0 13439 -0.31997986897825259 1
gene 3 1537 1537 -0.44686857841297456 1 13480 -0.44686857841297456 1
gene 2 1532 1067 0.44338557517313659 0 13556 0.44338557517313659 1
gene 2 242 1519 0.33733749708036775 0 13606 0.33733749708036775 1
gene 3 26 338 1.7774581915128316 0 13618 1.7774581915128316 1
gene 2 1474 338 0.46308553100707267 0 13623 0.46308553100707267 1
gene 3 9 1532 0.092367654010824696 0 13756 0.092367654010824696 1
gene 3 1346 3 -1.0256470653813552 0 13772 -1.0256470653813552 1
gene 1 105 1613 -0.90292338812859896 0 13817 -0.90292338812859896 1
gene 1 1613 9 0.0039719771612305088 0 13818 0.0039719771612305088 1
gene 3 338 3 0.11489935434185874 0 13970 0.11489935434185874 1
gene 1 775 775 -0.062140354915587392 1 14077 -0.062140354915587392 1
gene 3 650 650 -0.42461895659781013 1 14135 -0.42461895659781013 1
gene 2 101 1247 -0.50922547234651883 0 14185 -0.50922547234651883 1
gene 3 29 534 -0.43662716585054395 0 14274 -0.43662716585054395 1
gene 2 1490 338 -0.71025841297128145 0 14332 -0.71025841297128145 1
gene 3 443 936 -0.37189385149250448 0 14376 -0.37189385149250448 1
gene 1 105 105 0.29916973845063227 1 14482 0.29916973845063227 1
gene 3 29 1685 0.58352201016783822 0 14487 0.58352201016783822 1
gene 3 1685 101 -0.91297599180274458 0 14488 -0.91297599180274458 1
gene 1 105 1704 -0.08403904018180397 0 14613 -0.08403904018180397 1
gene 1 1704 242 0.25573368964518128 0 14614 0.25573368964518128 1
gene 1 26 1708 0.11073135147370927 1 14633 0.11073135147370927 1
gene 1 1708 11 0.41113738106150988 0 14634 0.41113738106150988 1
gene 2 11 338 -0.4821694050832509 0 14654 -0.4821694050832509 1
gene 2 845 105 0.092881011121385249 1 14663 0.092881011121385249 1
gene 1 26 1537 0.36194907634609808 0 14674 0.36194907634609808 1
gene 3 242 1704 0.095216284550361463 0 14686 0.095216284550361463 1
gene 3 685 400 0.82195993923673405 0 14713 0.82195993923673405 1
gene 1 242 1474 -0.40085136722812958 0 14726 -0.40085136722812958 1
gene 1 1613 1233 -0.3466895187025375 0 14822 -0.3466895187025375 1
gene 2 912 1732 -0.058464956729889356 0 14833 -0.058464956729889356 0
gene 2 1732 26 0.41695526401370542 0 14834 0.41695526401370542 1
gene 2 1519 1519 0.1664142916753954 1 14854 0.1664142916753954 1
gene 3 29 1490 0.24727382266301373 0 14859 0.24727382266301373 1
gene 2 845 901 1.6015323526698779 0 14992 1.6015323526698779 1
gene 1 105 1708 1.3335174358605952 0 15070 1.3335174358605952 1
gene 3 390 567 -0.0083335822021279315 1 15077 -0.0083335822021279315 1
gene 3 1346 1067 0.26348962344391713 0 15147 0.26348962344391713 1
gene 2 567 1532 0.31722011618186724 0 15155 0.31722011618186724 1
gene 3 210 1779 -0.09555853768045014 0 15274 -0.09555853768045014 1
gene 3 1779 459 -0.38283294410576713 0 15275 -0.38283294410576713 1
gene 3 601 309 -0.11742047575182307 0 15345 -0.11742047575182307 1
gene 1 101 101 -0.14597571135776849 1 15454 -0.14597571135776849 1
gene 2 70 400 -0.089484882815501127 0 15539 -0.089484882815501127 1
gene 2 912 1820 0.56164552576916549 0 15634 0.56164552576916549 1
gene 2 1820 1732 -0.27393701638744072 0 15635 -0.27393701638744072 1
gene 3 845 845 -0.12556260178124654 1 15651 -0.12556260178124654 1
gene 1 1474 1532 0.0074916135088967219 0 15680 0.0074916135088967219 1
gene 3 1510 1704 0.26136224146995801 0 15811 0.26136224146995801 1
gene 2 443 1708 0.035466911287729996 0 15939 0.035466911287729996 1
gene 3 459 70 0.13059627061271864 0 15952 0.13059627061271864 1
gene 3 685 1858 -0.045566560488923713 0 15983 -0.045566560488923713 1
gene 3 1858 1247 0.19271062020804297 0 15984 0.19271062020804297 1
gene 3 1346 1346 -0.056317265870197336 1 16010 -0.056317265870197336 1
gene 1 390 338 -0.79993261853229847 0 16078 -0.79993261853229847 1
gene 3 210 390 0.2615299123625876 0 16081 0.2615299123625876 1
gene 2 472 210 0.26098969660745452 1 16121 0.26098969660745452 1
gene 2 1704 26 0.20614907271515071 1 16159 0.20614907271515071 1
gene 1 1510 1532 -0.022497042558387415 0 16163 -0.022497042558387415 1
gene 2 1055 1474 1.7553695986305222 0 16173 1.7553695986305222 1
gene 1 1233 1233 0.088231999468166455 1 16250 0.088231999468166455 1
gene 1 177 1233 0.21573572615894288 0 16261 0.21573572615894288 1
gene 2 983 1532 0.47308305905809767 0 16271 0.47308305905809767 1
gene 2 1820 1067 -0.021455302146009776 0 16354 -0.021455302146009776 1
gene 2 29 1909 -0.18263558050740303 0 16393 -0.18263558050740303 1
gene 2 1909 309 0.39571908530579836 0 16394 0.39571908530579836 1
gene 1 1247 1247 0.16999997136648742 1 16640 0.16999997136648742 1
gene 3 1055 1532 0.68178295399145361 0 16798 0.68178295399145361 1
gene 1 1055 1247 -0.78122066230569998 0 16803 -0.78122066230569998 1
gene 2 1732 1532 -0.9759962127897871 0 16818 -0.9759962127897871 1
gene 3 390 29 0.25508991570914624 0 17015 0.25508991570914624 1
gene 3 1233 390 0.56595983708554876 0 17298 0.56595983708554876 1
gene 2 443 1474 -0.12536242074582837 0 17311 -0.12536242074582837 1
gene 3 1909 70 -0.93307034342227058 0 17353 -0.93307034342227058 1
gene 2 1704 775 0.40254527349143537 0 17463 0.40254527349143537 1
gene 3 1474 1474 -0.32301589395991337 1 17509 -0.32301589395991337 1
gene 3 472 1484 -0.47261916029854639 0 17582 -0.47261916029854639 1
gene 1 242 1067 -0.31988735791290523 0 17662 -0.31988735791290523 1
genomeend 1
