genomestart 1
trait 1 0.651942 0 0 0.495439 0.89491 0 1 0 
trait 2 0 0.321213 0 0.552055 0 0.359381 0.170319 1 
trait 3 0 0.273555 0.892713 0.283203 0.21937 1 1 1 
node 1 3 1 3
node 2 3 1 1
node 3 2 0 2
node 4 3 0 2
node 21 2 0 0
node 34 1 0 0
node 80 2 0 0
nodegru 85 0 -0.078306937161044587 0.11093989229339171 0.13950350700854486 0.47982630947596688 -0.28839341354947234 0.01385915536147503 [ 0.64644897968808601 0 0 ] [ 1.5683428424263106 -0.08061013304656843 0.14489013754990424 ] [ 0.55886511763504931 -0.48210627538250123 0 ]
node 102 2 0 0
nodegru 203 0 -0.66015491548932848 0.39566428581982122 -0.49287183233204845 0.16660146958502073 0.086053264134588303 0.50075889518519823 [ -1.1031804115526287 ] [ 0.043267417020754616 ] [ 1.6290262761195313 ]
nodegru 221 0 0.025127588550153956 -0.47289099100646143 0.20236219195759025 0.28138504167151873 1.0356550712770107 -0.42164520962240415 [ 0.73355495381800218 -0.70511102359979938 -0.54683532079068731 0.59793426613227196 0.5196132906803923 1.4929866436836248 -0.030347516308700438 ] [ 0.0030044580358101324 0.92082939828784627 -1.0538378944871192 -0.054954707648118356 -0.98064982471086548 0.37325201387202922 0.59625414693553658 ] [ -0.44312469239492186 1.4274964586028349 0.48494906140721816 0.52403496789002557 -0.65996464163063306 -0.62688737624645585 0.62768785358764601 ]
nodegru 353 0 -0.22688466437481558 0.52673802898579181 1.0931557615255731 -0.6007270806472409 -0.35158956043961903 0.36870715318653136 [ 0.088744307676676737 -0.72249799371813328 0.56391157631944466 0.46574809749878393 0 ] [ 0.96299748144252084 -0.62148518214071413 -0.5301755210525243 -0.32213198292168421 0 ] [ -0.69056239360503968 0.40529655264937159 0.135717874223235 -0.73202980925889216 0 ]
node 806 3 0 0
node 826 1 0 0
nodegru 937 0 0.94811304400121454 0.69542346438179881 0.077142680099766089 -0.28463898076891858 -0.80826812205289877 0.32995955824384443 [ -1.003243785585856 0.20430269194967238 0.13438363100140524 ] [ -0.85033664309901025 0.31418264322643291 -0.31522177384012462 ] [ 0.6199582282546714 -0.9342860139134741 0.29467744137843954 ]
node 1094 1 0 0
node 1097 2 0 0
node 1102 1 0 0
node 1121 1 0 0
nodegru 1160 0 0.60978280501895721 -0.56119032137151359 -1.1260330896480162 -0.42759351522084027 -0.47393528161288018 -0.044891523451028176 [ -1.3793052676503106 0.091636704789305468 -0.14710266592311794 ] [ -0.15855798691444001 0 0.76843168389444783 ] [ 0.61537742806383289 0.16795867503059966 0.20870155315320077 ]
node 1244 1 0 0
node 1313 1 0 0
nodegru 1339 0 -0.10277260821441775 -0.42313263049495065 0.010656225732833252 1.4203460295313719 -1.307304025770772 0.33405095377659938 [ 0.12819806678602383 -0.03616674292654113 0 ] [ -0.15489962890506706 -0.13134910754456608 0.62189705954952956 ] [ -0.070898720794775869 -0.67865703146842171 0.15054130700907731 ]
node 1436 1 0 0
nodegru 1620 0 -0.067698452187561639 0 0 0.31894616541403631 -0.67130185368997131 0 [ -0.21260708557097571 ] [ -0.27964301210811504 ] [ 0 ]
node 1736 1 0 0
node 1931 1 0 0
node 1986 1 0 0
nodegru 2034 0 0 0 0 0 0 0 [ 0 ] [ 0 ] [ 0 ]
gene 2 1 3 -0.71703679287668165 0 1 -0.71703679287668165 1
gene 3 2 3 3.2214332251909337 0 2 3.2214332251909337 1
gene 1 1 4 -3.7603336885852432 0 3 -3.7603336885852432 1
gene 2 2 4 -0.51954965271034725 0 4 -0.51954965271034725 1
gene 3 2 21 0.53620756698595717 0 48 0.53620756698595717 1
gene 2 21 4 -0.1839574394672911 0 49 -0.1839574394672911 1
gene 3 21 21 -0.22847363596245351 1 54 -0.22847363596245351 1
gene 2 1 21 -0.33823902059264432 0 67 -0.33823902059264432 0
gene 1 21 34 0.073417454759319101 0 102 0.073417454759319101 0
gene 2 34 4 -1.110413393057144 0 103 -1.110413393057144 0
gene 2 34 80 -2.6022256496838416 0 306 -2.6022256496838416 1
gene 3 80 4 0.98833344410561652 0 307 0.98833344410561652 0
gene 3 2 85 0.43700181317376063 0 319 0.43700181317376063 1
gene 1 85 3 -3.7385486058138988 0 320 -3.7385486058138988 1
gene 3 85 34 0.31645840956664578 0 385 0.31645840956664578 0
gene 3 85 102 0.046909914606674485 0 391 0.046909914606674485 1
gene 3 102 34 0.36131921031573749 0 392 0.36131921031573749 0
gene 3 2 102 -0.25106462708258281 0 494 -0.25106462708258281 0
gene 3 102 80 -0.12884663889596548 0 671 -0.12884663889596548 0
gene 1 2 203 -0.44213647066715012 0 882 -0.44213647066715012 1
gene 1 203 21 -0.15372239875314869 0 883 -0.15372239875314869 1
gene 2 21 221 0.51806251402854109 0 971 0.51806251402854109 0
gene 3 221 34 -0.66854133441510677 0 972 -0.66854133441510677 0
gene 1 221 80 0.35288400289271216 0 985 0.35288400289271216 1
gene 1 203 3 0.0063381434913436369 0 1085 0.0063381434913436369 0
gene 2 102 102 0.87715608434619208 1 1427 0.87715608434619208 1
gene 1 85 21 -0.36064602381579863 0 1468 -0.36064602381579863 1
gene 3 2 80 0.015500984860351619 0 1588 0.015500984860351619 1
gene 3 102 353 0.24056336993377814 0 1596 0.24056336993377814 1
gene 3 353 34 0.11684255610073097 0 1597 0.11684255610073097 0
gene 2 85 80 -0.15672755947184175 0 1749 -0.15672755947184175 1
gene 1 203 221 0.26112662733584946 0 1775 0.26112662733584946 1
gene 2 21 102 1.4378347210296594 0 2048 1.4378347210296594 0
gene 1 353 4 0.62602334079613131 0 2384 0.62602334079613131 0
gene 3 21 80 0.046242782401965388 0 2526 0.046242782401965388 1
gene 2 203 85 1.3214729075885718 0 2532 1.3214729075885718 1
gene 1 203 102 -1.7452235015785429 0 2760 -1.7452235015785429 1
gene 2 1 102 1.3306645012137779 0 3440 1.3306645012137779 1
gene 3 21 353 1.6813823525707154 0 3706 1.6813823525707154 1
gene 2 102 221 0.18703926735885407 0 3714 0.18703926735885407 1
gene 3 3 221 0.94776873544220286 1 3764 0.94776873544220286 1
gene 1 3 353 0.38335843914344836 1 3835 0.38335843914344836 1
gene 2 21 806 0.094428299970192975 0 3846 0.094428299970192975 0
gene 2 806 102 0.63875619584636589 0 3847 0.63875619584636589 0
gene 1 353 80 0.36330325662312252 0 3874 0.36330325662312252 1
gene 2 1 221 -0.33748630566405424 0 3893 -0.33748630566405424 1
gene 3 2 34 -0.14667924290833956 0 3902 -0.14667924290833956 0
gene 2 21 826 0.81125326841662315 0 3927 0.81125326841662315 1
gene 3 826 806 -0.25730715215080752 0 3928 -0.25730715215080752 1
gene 1 1 34 -0.25992416043762301 0 4367 -0.25992416043762301 1
gene 1 203 826 -0.63430972589846224 0 4429 -0.63430972589846224 1
gene 1 806 937 -0.61956916592063815 0 4436 -0.61956916592063815 1
gene 2 937 102 -0.23064644761879299 0 4437 -0.23064644761879299 1
gene 2 1 353 0.63514280069393236 0 4566 0.63514280069393236 1
gene 2 2 806 0.051274549007078035 0 4570 0.051274549007078035 1
gene 1 221 85 0.16083752953486405 1 4627 0.16083752953486405 1
gene 2 203 806 -0.39601728361845823 0 4853 -0.39601728361845823 1
gene 3 2 826 0.32344803252417964 0 4911 0.32344803252417964 0
gene 3 353 1094 1.2697089231897656 0 5242 1.2697089231897656 0
gene 3 1094 34 -0.37621243851082981 0 5243 -0.37621243851082981 1
gene 3 353 1097 -0.46820657046893915 0 5258 -0.46820657046893915 1
gene 3 1097 1094 1.5909748261752423 0 5259 1.5909748261752423 1
gene 3 2 1102 0.60264466917265425 0 5277 0.60264466917265425 1
gene 3 1102 826 -0.17545039727140704 0 5278 -0.17545039727140704 1
gene 3 80 1121 -1.7565400804190618 0 5356 -1.7565400804190618 1
gene 3 1121 4 0.32801686708257394 0 5357 0.32801686708257394 1
gene 2 826 102 0.68881764364839415 0 5520 0.68881764364839415 1
gene 3 85 937 -0.040592592694141394 0 5574 -0.040592592694141394 1
gene 3 2 1160 -0.26179913816126021 0 5590 -0.26179913816126021 0
gene 2 1160 34 0.24574522033601309 0 5591 0.24574522033601309 1
gene 3 353 826 -0.076072634466026273 1 5626 -0.076072634466026273 1
gene 2 85 1097 0.65859326192112322 0 5783 0.65859326192112322 1
gene 2 21 1244 1.1642238233071862 0 5942 1.1642238233071862 1
gene 2 1244 221 0.62314443202835712 0 5943 0.62314443202835712 1
gene 2 806 4 0.25071362627237737 0 5951 0.25071362627237737 1
gene 3 1244 1244 0.21013921113225592 1 6051 0.21013921113225592 1
gene 3 1094 221 0.081562124696356292 0 6133 0.081562124696356292 1
gene 1 1160 1094 -0.0025009233516178897 0 6238 -0.0025009233516178897 0
gene 1 203 1313 -0.20164102837519771 0 6265 -0.20164102837519771 1
gene 1 1313 3 -0.18888281178142999 0 6266 -0.18888281178142999 1
gene 3 102 1339 -0.39021530439621543 0 6422 -0.39021530439621543 0
gene 3 1339 80 -0.10526864351950053 0 6423 -0.10526864351950053 1
gene 1 1313 1339 -0.28385026184089956 0 6482 -0.28385026184089956 1
gene 3 806 1121 0.33456096650779293 0 6503 0.33456096650779293 1
gene 3 1097 1244 0.66966083304475099 0 6825 0.66966083304475099 1
gene 3 102 1436 -0.1873348437656345 0 6893 -0.1873348437656345 1
gene 3 1436 1339 -0.27132505912861093 0 6894 -0.27132505912861093 1
gene 3 21 1436 -0.060649240417708195 0 6968 -0.060649240417708195 1
gene 3 1160 1121 0.19390368493921295 0 7028 0.19390368493921295 1
gene 3 1160 937 0.30105061447296788 0 7210 0.30105061447296788 1
gene 3 2 1620 -0.14367592667400647 0 7891 -0.14367592667400647 1
gene 3 1620 1160 -0.31857077536106609 0 7892 -0.31857077536106609 1
gene 3 1160 21 -0.72715235023161051 0 7923 -0.72715235023161051 1
gene 1 203 4 1.2567350055355277 0 7991 1.2567350055355277 1
gene 2 1094 1094 0.2163616673631415 1 8003 0.2163616673631415 1
gene 1 1102 4 -0.34463393680967108 0 8164 -0.34463393680967108 0
gene 1 1244 3 0.022061004080838151 0 8224 0.022061004080838151 1
gene 1 4 4 0.22835391491109219 1 8310 0.22835391491109219 1
gene 2 203 1160 -0.10924608591443211 0 8341 -0.10924608591443211 1
gene 1 353 1736 1.349658892885623 0 8507 1.349658892885623 1
gene 1 1736 4 -0.33072071072213383 0 8508 -0.33072071072213383 1
gene 2 1313 826 -0.52061297652340166 0 8909 -0.52061297652340166 1
gene 1 85 4 0.65324492317309835 0 9202 0.65324492317309835 1
gene 1 1102 1931 1 0 9455 1 1
gene 1 1931 4 0.57335612972888916 0 9456 0.57335612972888916 1
gene 3 1339 4 -0.7214519640996363 0 9615 -0.7214519640996363 1
gene 3 221 1986 1 0 9710 1 1
gene 3 1986 34 0.18722450788469264 0 9711 0.18722450788469264 1
gene 3 2 2034 1.2962408318632472 0 9969 1.2962408318632472 1
gene 3 2034 102 -0.074716741021124966 0 9970 -0.074716741021124966 1
gene 1 1313 353 -0.57275753029284882 0 10032 -0.57275753029284882 1
gene 3 1986 1436 -0.13644871704115008 0 10038 -0.13644871704115008 1
genomeend 1
