genomestart 1
trait 1 0.411668 0.511783 0.143074 0.531205 0 1 0.0375466 1 
trait 2 0 0.376746 0.98691 1 1 0.362646 0 0 
trait 3 0.557706 0.238578 0 0.463494 0.653487 0.477127 0.642341 0.283194 
node 1 1 1 3
node 2 1 1 1
node 3 1 0 2
node 4 2 0 2
node 7 3 0 0
node 158 3 0 0
nodegru 245 0 1.0272322731452213 0.51034290262513937 1.095800311931316 1.2986139024368553 1.7338915382204074 -0.11301543394244085 [ 1.1305531199930949 -0.017549928635149203 ] [ -0.97163001807482452 0.64705326717675349 ] [ -0.0019303701128486406 -0.16630769167854809 ]
node 536 1 0 0
nodegru 538 0 -0.1913701699540811 0.7867851855870267 0.89203462418729196 0.85875889885181511 -1.0663914511987902 0.95460386374248363 [ 0.47487271191779185 ] [ 1.5674904819193718 ] [ 0.45539263389324425 ]
node 564 1 0 0
nodegru 571 0 1.1142377520977695 -0.34819470455320312 0.15942608595799004 -0.17659241120637981 -0.078398426681942524 0.69776726756140928 [ -0.61267982021098943 ] [ 0.74631742131724854 ] [ -0.5093177969145205 ]
gene 3 2 4 4.4337374578154352 0 4 4.4337374578154352 1
gene 2 7 245 -0.5356509242139994 0 1531 -0.5356509242139994 1
gene 3 158 7 -0.98524718358425767 0 1797 -0.98524718358425767 0
gene 1 4 4 -3.7401782632759657 1 2364 -3.7401782632759657 1
gene 3 2 7 -2.2028344248900344 0 3337 -2.2028344248900344 1
gene 1 158 4 0.2701538781496482 0 3354 0.2701538781496482 1
gene 1 7 536 0.37553843722005298 0 3579 0.37553843722005298 1
gene 3 536 3 -0.33723235215862829 0 3580 -0.33723235215862829 0
gene 1 536 538 0.19134864033728308 0 3587 0.19134864033728308 1
gene 3 538 3 1.1985205549041373 0 3588 1.1985205549041373 1
gene 1 536 536 1.9897357739926016 1 3623 1.9897357739926016 1
gene 1 538 245 -0.10312795865029467 0 3686 -0.10312795865029467 1
gene 3 7 564 -0.26341971208500597 0 3765 -0.26341971208500597 1
gene 2 538 4 -1.7780561230741703 0 3783 -1.7780561230741703 1
gene 1 564 571 -0.21843905966656238 1 3815 -0.21843905966656238 0
gene 2 571 7 1.2228042014049385 0 4106 1.2228042014049385 0
gene 3 245 4 0.34924359146936029 0 4418 0.34924359146936029 1
gene 1 571 3 -0.33190338119487434 0 4439 -0.33190338119487434 1
gene 3 564 158 -0.060944908094101025 0 4496 -0.060944908094101025 1
gene 1 2 536 0.85799851669371063 0 4779 0.85799851669371063 1
genomeend 1
