genomestart 1
trait 1 0.457022 1 0.312648 1 1 1 0.98883 1 
trait 2 0.544072 0.472791 0.384527 1 0.316944 0 0.329377 0.562415 
trait 3 0 0.0795098 0.901849 0.502694 0.414201 0 1 0.882204 
node 1 2 1 3
node 2 1 1 1
node 3 3 0 2
node 4 1 0 2
node 62 3 0 0
nodegru 476 0 0.92010718603623465 2.0572314701542407 0.32074158909765149 1.2483228602205971 2.2388560980273673 0.43924724296165973 [ 1.1804673237169474 ] [ -2.3932866797052723 ] [ -0.70860169919142568 ]
nodegru 498 0 0.37740181357478808 1.0728707590945397 0.23693455149742518 -0.24678419576808075 -0.15668395820850717 -2.0578645675246898 [ -0.54651084660855631 0 ] [ 1.8183385274924053 0 ] [ 0.10563575423119398 0 ]
node 888 3 0 0
nodegru 1284 0 -0.62581999186697412 0.69883929237203646 1.7327194324381274 -0.99180165200578108 -1.1120591679876948 -0.11683726711982739 [ -0.84049940055259476 -1.2390956211551538 ] [ -0.61451848811214727 -1.0395629953311583 ] [ 0.18135755948319915 -0.31085903537965331 ]
nodegru 1992 0 -1.6863014679105492 -2.1112507514707981 0.15670104821058978 0.19774056828941244 -0.081008485672533687 -1.8665818955593658 [ 0.052013947303413292 0.33513510149677062 0.45600778071955206 ] [ 0.6034460572309075 2.1210526681370347 0.46553131552205029 ] [ 1.4087961829075573 -0.74671601888105088 -0.79933453574745639 ]
node 2274 2 0 0
node 2386 1 0 0
node 2483 1 0 0
node 2508 1 0 0
node 2545 1 0 0
gene 2 2 4 6.7416846752128068 0 4 6.7416846752128068 1
gene 1 4 4 -5.279851993443371 1 167 -5.279851993443371 1
gene 2 2 476 1.8026200534322392 0 3062 1.8026200534322392 1
gene 1 2 62 0.15558010975624442 0 6781 0.15558010975624442 1
gene 1 476 4 -3.6590155862080933 0 8025 -3.6590155862080933 1
gene 3 1284 4 0.10670856309901391 0 9924 0.10670856309901391 1
gene 1 62 3 1.1453341291729986 0 11331 1.1453341291729986 1
gene 3 498 888 -1.5723655773663734 0 15564 -1.5723655773663734 1
gene 1 1992 4 -0.69051751573128506 0 15596 -0.69051751573128506 1
gene 1 2 1284 -0.057858175508611553 0 16850 -0.057858175508611553 1
gene 2 1284 62 0.69010482993447442 0 17028 0.69010482993447442 0
gene 2 1284 2386 1.2505421623357307 0 17084 1.2505421623357307 1
gene 2 2386 62 -1.0607113011929723 0 17085 -1.0607113011929723 1
gene 2 476 1284 -3.3355773307083068 0 17273 -3.3355773307083068 1
gene 3 2274 1992 0.77542999329763929 0 17289 0.77542999329763929 1
gene 1 888 1992 -0.29162578100414299 0 17370 -0.29162578100414299 1
gene 3 62 2274 -2.1446885301939624 0 17388 -2.1446885301939624 1
gene 3 1284 498 -2.603717370123471 0 17524 -2.603717370123471 1
gene 3 4 2386 0.84070708246003234 1 17748 0.84070708246003234 1
gene 2 476 2483 0.91802952562832707 0 17791 0.91802952562832707 0
gene 2 2483 1992 -0.38282337173951009 0 17792 -0.38282337173951009 1
gene 2 2508 2483 1.1153679990048371 0 17962 1.1153679990048371 1
gene 2 2274 4 -0.86352093197103641 0 18179 -0.86352093197103641 1
gene 2 2545 2508 0.60756322897857207 0 18199 0.60756322897857207 1
gene 3 1 888 -0.78780796089573202 0 18534 -0.78780796089573202 1
gene 3 2483 498 0.15833544272851918 0 18768 0.15833544272851918 1
gene 3 2508 3 0.29035101052855655 0 18793 0.29035101052855655 1
gene 2 888 3 -0.989105960349136 0 18880 -0.989105960349136 1
gene 1 476 2386 -0.78641889141240107 0 19018 -0.78641889141240107 1
genomeend 1
