genomestart 1
trait 1 0 0.46997 1 1 0.488046 0.91173 0.752152 1 
trait 2 0.916788 0 0.780772 0.999124 0.884601 0.207218 0.00133194 0.022405 
trait 3 1 0 0.334276 1 0 0 0 0.627552 
node 1 2 1 3
node 2 2 1 1
node 3 1 0 2
node 4 3 0 2
node 14 1 0 0
nodegru 18 0 0.55861953183012991 0.96605121133199479 0.050765740708804567 -2.1543368264820133 -1.1753825192225085 1.5454084696459622 [ -0.73154467867293627 -0.95937437632092015 -0.74393767083247075 -0.39888801071741059 ] [ -0.19203236614914254 -0.82795996536871419 -0.56697511000883538 0.068566608274619356 ] [ 0.04998539739753366 0.86702948010853931 0.27075848112383788 0.14777815558378499 ]
node 39 2 0 0
nodegru 49 0 0.48636052454186629 0.074495345388769785 -0.18945964597606074 -0.40719002830199436 1.0475670446397585 -0.56510511998324897 [ 0.60625054668926182 -0.5452281583776829 ] [ 0.71907981937708332 0.26957331726773331 ] [ 0.11867954866899155 0.033539823039220595 ]
node 75 3 0 0
nodegru 216 0 0.49636261421086392 -0.065429076350028204 1.5501297973329804 0.79000155291985796 1.00164128094988 0.44606313013753995 [ -0.17242622336951374 ] [ -0.92909596973522379 ] [ -0.41092239455828539 ]
node 220 1 0 0
node 226 1 0 0
nodegru 308 0 1.8571272081961516 0.91725307396485134 -0.31176140895661031 -0.082169484851029359 0.67754986517948557 -0.31814120980824401 [ -0.5202614136600221 0.38511768490314374 -0.3191870424520164 0.14041001868453343 ] [ 0.064764088748378718 0.11140761925438773 -0.095244362529015331 0.43686074527765656 ] [ 0.091992880959060455 -0.60323285665513615 0.040559642501436004 1.2736448132310272 ]
node 465 1 0 0
nodegru 605 0 -1.3680738810766833 0.50316909793911913 0.076954187162664806 -0.15628964065401335 -0.048219759971005728 -0.38932234975012131 [ 1.9325029889273007 0.022427215949831165 0.47076723490411754 0 ] [ -0.28935255356568501 0.12849360873386897 0.32177291662514812 0 ] [ 0.71635465985925628 1.0833429890141559 -0.20600378499645916 0 ]
node 787 2 0 0
node 901 1 0 0
nodegru 1021 0 -0.68898023976431244 -0.24104652681436692 -0.58715218449344486 -0.41661543139098933 0.9570410025571664 1.3209424851559766 [ -0.74795103224364623 ] [ 0.020908748507922847 ] [ 0.12517099344412377 ]
node 1110 2 0 0
node 1203 1 0 0
node 1408 1 0 0
nodegru 1533 0 -0.55590111764888328 -0.10396518493255841 0.45436532770021137 0.056355936013327883 -0.18884044265786207 0.10446318011007411 [ -0.017982169295652856 ] [ 1.277514690196847 ] [ 0.088687130058504232 ]
node 1535 1 0 0
node 1586 1 0 0
nodegru 1607 0 -1.4432016424570242 -0.36315741197353113 -0.66984389194745764 0.041004587915262472 -0.21946943235558902 0.52965200740362151 [ 0.62597678747306429 ] [ -0.3448833224106968 ] [ 0.74162893124931917 ]
node 1613 1 0 0
node 1835 3 0 0
nodegru 2053 0 0.041325121205917137 0.31812705743039355 0.08893383275202188 0.36892823705865452 0.072250189293292466 0.50206218590124607 [ -0.35692161501241926 ] [ 0.11809375794515656 ] [ -0.29149444182007311 ]
node 2422 1 0 0
node 2463 1 0 0
gene 1 1 3 1.2159181373267987 0 1 1.2159181373267987 1
gene 2 2 3 -0.19036054992599438 0 2 -0.19036054992599438 1
gene 2 1 4 -0.42403376308457635 0 3 -0.42403376308457635 1
gene 3 2 4 0.48536875563923676 0 4 0.48536875563923676 1
gene 3 2 14 0.45727083527355961 0 29 0.45727083527355961 1
gene 1 14 3 -0.66006015504713178 0 30 -0.66006015504713178 1
gene 1 2 18 1.0989279714873659 0 44 1.0989279714873659 1
gene 2 18 4 1.8159288427866669 0 45 1.8159288427866669 1
gene 2 14 4 0.51550318161747566 0 76 0.51550318161747566 0
gene 2 18 14 -0.48073678835329448 0 102 -0.48073678835329448 1
gene 1 2 39 0.3735661876264802 0 114 0.3735661876264802 0
gene 1 39 18 -1.2276359599678011 0 115 -1.2276359599678011 0
gene 1 14 49 0.38316586561648447 0 153 0.38316586561648447 1
gene 2 49 4 -0.67218134327427548 0 154 -0.67218134327427548 0
gene 3 39 75 0.3746857740332773 0 282 0.3746857740332773 0
gene 1 75 18 -0.40556625342255748 0 283 -0.40556625342255748 1
gene 2 4 4 0.21671226281519615 1 295 0.21671226281519615 1
gene 3 75 4 -0.60917101246731875 0 422 -0.60917101246731875 0
gene 2 39 4 -0.35938026912481535 0 657 -0.35938026912481535 1
gene 2 1 75 0.39192714490551839 0 668 0.39192714490551839 1
gene 1 2 216 0.6861271649534475 0 956 0.6861271649534475 1
gene 1 216 39 -0.20223893467441142 0 957 -0.20223893467441142 0
gene 3 49 220 0.24791940615881214 0 966 0.24791940615881214 1
gene 2 220 4 0.16205174693001972 0 967 0.16205174693001972 0
gene 3 75 226 0.587962795089913 0 1023 0.587962795089913 1
gene 3 226 4 1.1049021964915573 0 1024 1.1049021964915573 0
gene 2 216 75 0.16424792034749308 0 1309 0.16424792034749308 0
gene 3 220 308 1.0502545566066421 0 1426 1.0502545566066421 1
gene 3 308 4 0.2091498888140311 0 1427 0.2091498888140311 0
gene 2 49 226 0.068200122829619847 0 2040 0.068200122829619847 0
gene 1 216 465 -0.30791974827084678 0 2167 -0.30791974827084678 1
gene 1 465 39 1.3469968681908195 0 2168 1.3469968681908195 0
gene 1 465 18 -0.81572495951118174 0 2534 -0.81572495951118174 1
gene 2 1 226 -0.046845406781344412 0 2559 -0.046845406781344412 1
gene 1 39 226 0.11587293078930719 0 2803 0.11587293078930719 0
gene 1 39 308 3.423507170948902 0 2861 3.423507170948902 0
gene 2 49 605 2.1155159646251778 0 2870 2.1155159646251778 0
gene 2 605 226 -0.61077079833986714 0 2871 -0.61077079833986714 1
gene 2 465 465 -1.5518107917401061 1 3234 -1.5518107917401061 0
gene 3 14 220 1.7483656568212274 0 3373 1.7483656568212274 0
gene 1 75 75 0.44830648412383467 1 3438 0.44830648412383467 0
gene 2 14 226 1.1470846778932422 0 3604 1.1470846778932422 1
gene 3 226 226 -0.18771600545743294 1 3689 -0.18771600545743294 1
gene 1 75 787 -0.60597108542265887 1 3790 -0.60597108542265887 1
gene 1 787 75 0.15205930948818996 0 3791 0.15205930948818996 1
gene 3 216 220 -1.3163954980282093 0 4011 -1.3163954980282093 1
gene 1 465 787 0.4310126118040703 0 4180 0.4310126118040703 0
gene 1 465 901 -0.28703451891757292 0 4360 -0.28703451891757292 0
gene 1 901 39 -0.68770935465009386 0 4361 -0.68770935465009386 1
gene 1 39 787 0.48507282486421655 0 4383 0.48507282486421655 1
gene 1 465 1021 0.55214746089286526 0 4921 0.55214746089286526 1
gene 1 1021 901 -0.29151704385481636 0 4922 -0.29151704385481636 0
gene 1 18 3 -2.7600386074092409 0 4933 -2.7600386074092409 1
gene 3 49 39 -0.041913501006510805 1 5153 -0.041913501006510805 1
gene 3 220 226 0.99878109805229187 0 5237 0.99878109805229187 1
gene 2 39 1110 0.066753123917967533 0 5301 0.066753123917967533 1
gene 3 1110 75 0.15270244081164819 0 5302 0.15270244081164819 1
gene 2 901 605 -0.64800927026570265 0 5319 -0.64800927026570265 1
gene 3 1021 39 0.030366710401310823 0 5402 0.030366710401310823 1
gene 1 2 226 -0.14745844302114958 0 5664 -0.14745844302114958 1
gene 2 18 1203 0.61233833786674696 0 5793 0.61233833786674696 1
gene 2 1203 4 -0.37533362436822326 0 5794 -0.37533362436822326 1
gene 1 901 787 -0.13254975417281956 0 5853 -0.13254975417281956 1
gene 2 216 1408 -0.14567438892353085 0 6714 -0.14567438892353085 1
gene 2 1408 75 0.10687239496357387 0 6715 0.10687239496357387 1
gene 1 465 1533 0.38029945566332873 0 7343 0.38029945566332873 1
gene 1 1533 787 -0.54294945534456041 0 7344 -0.54294945534456041 1
gene 2 465 1535 0.50416419189617234 1 7352 0.50416419189617234 1
gene 2 1535 465 -1.5771576487818535 0 7353 -1.5771576487818535 1
gene 3 226 1586 0.18953051822703815 0 7569 0.18953051822703815 1
gene 3 1586 4 -1.2346759516441619 0 7570 -1.2346759516441619 0
gene 1 308 1607 -0.64942424029550705 0 7713 -0.64942424029550705 1
gene 1 1607 4 -1.2072155520819199 0 7714 -1.2072155520819199 1
gene 1 39 1613 -0.042086142367723414 0 7749 -0.042086142367723414 1
gene 1 1613 308 0.32135778470959409 0 7750 0.32135778470959409 1
gene 2 1408 14 0.13358114456459003 0 7767 0.13358114456459003 1
gene 2 605 1203 -0.092076328160276777 0 8663 -0.092076328160276777 1
gene 1 1408 1535 -0.13356719987167376 0 8806 -0.13356719987167376 1
gene 2 308 605 0.69705466050517495 0 8880 0.69705466050517495 1
gene 2 1586 1835 -0.59582272944777404 0 8910 -0.59582272944777404 1
gene 3 1835 4 0.082228398221651275 0 8911 0.082228398221651275 1
gene 2 1408 1110 0.094092831059402249 0 9114 0.094092831059402249 1
gene 1 1021 49 0.026749095891951152 0 9271 0.026749095891951152 1
gene 1 226 308 -0.1200531705376009 1 9421 -0.1200531705376009 1
gene 1 1110 226 0.46323309208416991 0 9582 0.46323309208416991 1
gene 2 1203 1203 0.2067621702825474 1 9606 0.2067621702825474 1
gene 2 14 1203 -0.33911672855686242 0 9690 -0.33911672855686242 1
gene 2 14 1613 -0.087201046099514262 0 9882 -0.087201046099514262 1
gene 1 1586 39 0.66059980362681658 1 10015 0.66059980362681658 1
gene 3 14 2053 0.60826798277360761 0 10079 0.60826798277360761 1
gene 3 2053 220 0.30436752611043283 0 10080 0.30436752611043283 0
gene 3 787 787 0.60592210414163861 1 10102 0.60592210414163861 1
gene 3 1586 1586 -1.3408508244160799 1 10135 -1.3408508244160799 1
gene 3 1613 220 0.026241619850621383 0 10631 0.026241619850621383 1
gene 1 1535 1110 -0.47459486684510244 0 10724 -0.47459486684510244 1
gene 3 308 1203 0.30767952269300797 0 11922 0.30767952269300797 1
gene 3 2053 2422 1.2998686948790534 0 11968 1.2998686948790534 1
gene 3 2422 220 0.21597970310411402 0 11969 0.21597970310411402 1
gene 1 1408 1613 0.33506552471549506 0 11974 0.33506552471549506 1
gene 2 49 2463 1 0 12166 0 1
gene 2 2463 605 2.1155159646251778 0 12167 0 1
gene 1 465 75 0.76779792493572363 0 12298 0.76779792493572363 1
genomeend 1
