genomestart 1
trait 1 0.190469 0.350789 0.333956 0.338034 0.224912 0.863205 0.270356 0.00688984
trait 2 0.999584 0.915882 0.20652 0.590846 0.0213766 0.148913 0.0658478 0.037422
trait 3 0.832016 0.244739 0.525512 0.67008 0.732096 0.0338431 0.0425217 0.24143
node 1 3 1 3
node 2 3 1 1
node 3 1 1 1
node 4 3 1 1
node 5 2 1 1
node 6 1 1 1
node 7 2 1 1
node 8 2 1 1
node 9 1 1 1
node 10 3 1 1
node 11 1 1 1
node 12 1 1 1
node 13 3 1 1
node 14 1 1 1
node 15 2 1 1
node 16 1 1 1
node 17 2 0 2
node 18 3 0 2
node 60 3 0 0
node 99 3 0 0
node 183 1 0 0
node 219 1 0 0
node 226 1 0 0
node 336 1 0 0
node 363 1 0 0
gene 1 1 17 1.47009 0 1 1.47009 1
gene 2 2 17 -2.71667 0 2 -2.71667 1
gene 1 3 17 -0.479164 0 3 -0.479164 1
gene 3 4 17 1.08466 0 4 1.08466 1
gene 2 5 17 -1.15455 0 5 -1.15455 1
gene 2 6 17 -2.69366 0 6 -2.69366 1
gene 2 7 17 0.133478 0 7 0.133478 1
gene 1 8 17 -0.020809 0 8 -0.020809 1
gene 1 9 17 0.0333052 0 9 0.0333052 1
gene 3 10 17 0.714655 0 10 0.714655 1
gene 1 11 17 1.13365 0 11 1.13365 1
gene 3 12 17 5.92808 0 12 5.92808 1
gene 1 13 17 2.91518 0 13 2.91518 1
gene 2 14 17 -1.19268 0 14 -1.19268 1
gene 2 15 17 -0.600746 0 15 -0.600746 0
gene 3 16 17 0.774495 0 16 0.774495 1
gene 2 1 18 0.213125 0 17 0.213125 1
gene 1 2 18 -2.10344 0 18 -2.10344 1
gene 3 3 18 1.2642 0 19 1.2642 1
gene 1 4 18 -1.2998 0 20 -1.2998 1
gene 2 5 18 0.118202 0 21 0.118202 1
gene 1 6 18 -2.19893 0 22 -2.19893 1
gene 1 7 18 -1.95447 0 23 -1.95447 1
gene 1 8 18 2.60073 0 24 2.60073 1
gene 1 9 18 7.75954 0 25 7.75954 1
gene 2 10 18 1.93632 0 26 1.93632 1
gene 3 11 18 1.02666 0 27 1.02666 1
gene 2 12 18 0.549058 0 28 0.549058 1
gene 2 13 18 -1.16096 0 29 -1.16096 1
gene 2 14 18 -0.535509 0 30 -0.535509 1
gene 1 15 18 -0.236032 0 31 -0.236032 1
gene 3 16 18 -1.12411 0 32 -1.12411 0
gene 2 17 17 -0.323034 1 55 -0.323034 1
gene 1 11 60 0.976291 0 358 0.976291 1
gene 2 60 17 2.40021 0 359 2.40021 0
gene 3 6 60 0.233961 0 522 0.233961 1
gene 3 15 60 1.64449 0 691 1.64449 1
gene 3 17 18 -2.68461 0 757 -2.68461 1
gene 2 18 18 1.40702 1 772 1.40702 1
gene 3 4 60 -0.296774 0 849 -0.296774 1
gene 1 60 99 0.477873 0 908 0.477873 1
gene 1 99 17 -0.914469 0 909 -0.914469 1
gene 3 60 60 0.137347 1 995 0.137347 1
gene 2 14 60 -0.433825 0 1217 -0.433825 1
gene 1 99 99 0.0615984 1 1259 0.0615984 1
gene 2 18 99 1.86056 1 1610 1.86056 1
gene 1 7 99 1.77704 0 1628 1.77704 1
gene 2 9 60 0.756094 0 2042 0.756094 0
gene 1 10 60 0.563971 0 2070 0.563971 0
gene 3 9 99 -2.12809 0 2107 -2.12809 1
gene 1 13 99 0.716617 0 2207 0.716617 1
gene 2 1 99 -0.351467 0 2215 -0.351467 1
gene 2 17 99 -0.33186 1 2229 -0.33186 1
gene 1 15 99 -0.563014 0 2237 -0.563014 1
gene 3 8 99 -1.45888 0 2411 -1.45888 1
gene 1 7 60 0.744466 0 2467 0.744466 1
gene 2 16 99 1.21529 0 2485 1.21529 1
gene 2 13 60 -0.860071 0 2913 -0.860071 1
gene 3 60 18 -0.978193 0 2929 -0.978193 1
gene 3 12 99 1.81115 0 2949 1.81115 0
gene 2 60 183 -0.407454 0 2989 -0.407454 1
gene 2 183 17 -0.48137 0 2990 -0.48137 1
gene 2 17 183 0.356152 1 3036 0.356152 1
gene 3 183 183 0.141582 1 3085 0.141582 1
gene 1 13 183 -1.63314 0 3247 -1.63314 1
gene 3 11 183 1.57525 0 3276 1.57525 1
gene 3 2 183 0.455735 0 3312 0.455735 1
gene 3 7 183 2.42812 0 3344 2.42812 1
gene 2 17 60 -0.992064 1 3382 -0.992064 1
gene 2 183 219 1.92965 0 3425 1.92965 1
gene 2 219 17 -1.3487 0 3426 -1.3487 1
gene 1 60 226 -1.23097 0 3530 -1.23097 1
gene 1 226 99 -0.228187 0 3531 -0.228187 1
gene 1 1 219 0.902963 0 3572 0.902963 1
gene 3 226 226 1.35245 1 3700 1.35245 1
gene 2 8 219 -0.662212 0 3731 -0.662212 1
gene 3 2 219 0.754597 0 3774 0.754597 1
gene 1 7 226 -0.280366 0 3792 -0.280366 1
gene 1 3 99 0.176477 0 3808 0.176477 1
gene 2 226 183 -0.668357 0 4030 -0.668357 1
gene 2 10 183 0.45363 0 4214 0.45363 1
gene 2 99 219 -0.73055 0 4524 -0.73055 1
gene 2 11 219 0.0115366 0 4535 0.0115366 1
gene 2 16 226 -0.445356 0 4563 -0.445356 1
gene 1 15 183 -0.600847 0 4719 -0.600847 1
gene 3 15 219 -0.692957 0 4735 -0.692957 1
gene 2 13 336 0.446058 0 4752 0.446058 0
gene 2 336 18 0.386804 0 4753 0.386804 1
gene 1 1 60 0.325448 0 4815 0.325448 1
gene 3 336 60 0.328742 0 4843 0.328742 1
gene 3 5 219 0.874427 0 4857 0.874427 1
gene 2 10 219 -0.525936 0 5070 -0.525936 1
gene 2 13 363 -0.696253 0 5088 -0.696253 1
gene 2 363 336 0.150266 0 5089 0.150266 1
gene 1 13 219 -0.0490249 0 5143 -0.0490249 1
gene 3 18 363 -0.275783 1 5378 -0.275783 1
gene 3 8 336 0.993361 0 5395 0.993361 1
gene 1 8 183 -0.658167 0 5511 -0.658167 1
gene 3 363 17 -0.71258 0 5522 -0.71258 1
gene 2 219 219 -0.82218 1 6022 -0.82218 1
gene 1 1 226 0.0528967 0 6255 0.0528967 1
genomeend 1
