genomestart 1
trait 1 0.1 0 0 0 0 0 0 0
trait 2 0.2 0 0 0 0 0 0 0
trait 3 0.3 0 0 0 0 0 0 0
node 1 0 1 3
node 2 0 1 1
node 3 0 1 1
node 4 0 1 1
node 5 0 1 1
node 6 0 1 1
node 7 0 1 1
node 8 0 1 1
node 9 0 1 1
node 10 0 1 1
node 11 0 1 1
node 12 0 1 1
node 13 0 1 1
node 14 0 1 1
node 15 0 1 1
node 16 0 1 1
node 17 0 0 2
node 18 0 0 2
gene 1 1 17 0.0 0 1 0 1
gene 1 2 17 0.0 0 2 0 1
gene 1 3 17 0.0 0 3 0 1
gene 1 4 17 0.0 0 4 0 1
gene 1 5 17 0.0 0 5 0 1
gene 1 6 17 0.0 0 6 0 1
gene 1 7 17 0.0 0 7 0 1
gene 1 8 17 0.0 0 8 0 1
gene 1 9 17 0.0 0 9 0 1
gene 1 10 17 0.0 0 10 0 1
gene 1 11 17 0.0 0 11 0 1
gene 1 12 17 0.0 0 12 0 1
gene 1 13 17 0.0 0 13 0 1
gene 1 14 17 0.0 0 14 0 1
gene 1 15 17 0.0 0 15 0 1
gene 1 16 17 0.0 0 16 0 1
gene 1 1 18 0.0 0 17 0 1
gene 1 2 18 0.0 0 18 0 1
gene 1 3 18 0.0 0 19 0 1
gene 1 4 18 0.0 0 20 0 1
gene 1 5 18 0.0 0 21 0 1
gene 1 6 18 0.0 0 22 0 1
gene 1 7 18 0.0 0 23 0 1
gene 1 8 18 0.0 0 24 0 1
gene 1 9 18 0.0 0 25 0 1
gene 1 10 18 0.0 0 26 0 1
gene 1 11 18 0.0 0 27 0 1
gene 1 12 18 0.0 0 28 0 1
gene 1 13 18 0.0 0 29 0 1
gene 1 14 18 0.0 0 30 0 1
gene 1 15 18 0.0 0 31 0 1
gene 1 16 18 0.0 0 32 0 1
genomeend 1
