genomestart 1
trait 1 0.186496 0.11858 0.279021 0.252352 0.104512 0.0184101 0 0.0749231 
trait 2 0.676902 0.356479 0.00314571 0.161112 0.0187453 0 0 0 
trait 3 0.394249 0.00895403 0.514228 0 0 0.541325 0.797473 0 
node 1 3 1 3
node 2 2 1 1
node 3 3 1 1
node 4 1 1 1
node 5 1 1 1
node 6 1 1 1
node 7 1 1 1
node 8 1 1 1
node 9 1 1 1
node 10 2 1 1
node 11 2 1 1
node 12 1 1 1
node 13 3 1 1
node 14 3 1 1
node 15 3 1 1
node 16 3 1 1
node 17 3 0 2
node 18 1 0 2
node 24 3 0 0
node 32 1 0 0
node 97 1 0 0
node 105 1 0 0
node 210 1 0 0
node 360 1 0 0
node 363 1 0 0
gene 2 1 17 -0.505273 0 1 -0.505273 1
gene 3 2 17 1.35795 0 2 1.35795 1
gene 1 3 17 0.866775 0 3 0.866775 1
gene 3 4 17 -0.447712 0 4 -0.447712 1
gene 3 5 17 -5.56761 0 5 -5.56761 1
gene 1 6 17 -0.393062 0 6 -0.393062 1
gene 3 7 17 -2.19356 0 7 -2.19356 1
gene 2 8 17 1.4222 0 8 1.4222 1
gene 1 9 17 1.56166 0 9 1.56166 1
gene 1 10 17 -0.382837 0 10 -0.382837 1
gene 2 11 17 -0.166145 0 11 -0.166145 1
gene 3 12 17 -0.304412 0 12 -0.304412 1
gene 1 13 17 -1.52864 0 13 -1.52864 1
gene 1 14 17 -2.00107 0 14 -2.00107 1
gene 2 15 17 -6.00102 0 15 -6.00102 1
gene 1 16 17 -2.43231 0 16 -2.43231 1
gene 2 1 18 1.71194 0 17 1.71194 1
gene 3 2 18 -0.642549 0 18 -0.642549 1
gene 2 3 18 -0.203014 0 19 -0.203014 1
gene 3 4 18 0.803288 0 20 0.803288 1
gene 2 5 18 0.113684 0 21 0.113684 1
gene 1 6 18 0.256701 0 22 0.256701 1
gene 3 7 18 -1.36469 0 23 -1.36469 1
gene 1 8 18 -1.56532 0 24 -1.56532 1
gene 1 9 18 1.42222 0 25 1.42222 1
gene 3 10 18 0.205971 0 26 0.205971 1
gene 3 11 18 2.68229 0 27 2.68229 1
gene 3 12 18 1.64881 0 28 1.64881 1
gene 1 13 18 -0.133487 0 29 -0.133487 1
gene 1 14 18 1.49178 0 30 1.49178 1
gene 1 15 18 -0.275164 0 31 -0.275164 1
gene 3 16 18 -0.721007 0 32 -0.721007 1
gene 1 18 18 -1.4986 1 47 -1.4986 1
gene 2 17 17 0.824438 1 53 0.824438 1
gene 2 5 24 -1.22099 0 65 -1.22099 1
gene 2 24 17 -0.496759 0 66 -0.496759 1
gene 2 14 24 -0.0982551 0 120 -0.0982551 1
gene 2 14 32 -0.850295 0 146 -0.850295 1
gene 2 32 24 0.744056 0 147 0.744056 1
gene 2 6 32 -0.988539 0 283 -0.988539 1
gene 2 2 24 -0.628784 0 520 -0.628784 1
gene 3 5 32 0.146027 0 560 0.146027 1
gene 1 12 32 1.6136 0 642 1.6136 1
gene 2 8 24 -0.636785 0 654 -0.636785 1
gene 3 1 24 0.950688 0 672 0.950688 1
gene 2 15 24 -1.87046 0 827 -1.87046 1
gene 2 7 24 0.355013 0 856 0.355013 0
gene 1 15 97 -1.05801 0 933 -1.05801 1
gene 1 97 18 0.531223 0 934 0.531223 0
gene 2 5 105 -1.34584 0 1015 -1.34584 1
gene 1 105 24 -0.830287 0 1016 -0.830287 1
gene 1 105 105 0.409654 1 1239 0.409654 1
gene 2 2 97 0.866616 0 1328 0.866616 1
gene 2 10 105 -0.458127 0 1548 -0.458127 1
gene 3 3 24 -0.356719 0 1588 -0.356719 0
gene 1 8 105 -0.309391 0 1787 -0.309391 1
gene 1 97 97 1.32559 1 2078 1.32559 1
gene 2 32 210 2.19168 0 2110 2.19168 1
gene 2 210 24 0.632222 0 2111 0.632222 1
gene 1 210 17 0.200466 0 2124 0.200466 1
gene 1 16 210 0.724481 0 2163 0.724481 1
gene 2 32 32 0.501058 1 2218 0.501058 1
gene 1 16 32 0.515824 0 2521 0.515824 0
gene 1 210 210 0.877472 1 2547 0.877472 1
gene 1 5 97 0.528431 0 2668 0.528431 1
gene 2 97 32 -0.0793128 0 2681 -0.0793128 1
gene 2 8 210 -0.995163 0 2944 -0.995163 1
gene 1 3 210 -0.226952 0 3320 -0.226952 1
gene 1 8 32 -0.658539 0 3571 -0.658539 1
gene 3 97 17 0.00423595 0 3762 0.00423595 1
gene 2 6 210 0.634819 0 3800 0.634819 1
gene 3 3 360 1 0 3809 0 1
gene 3 360 24 -0.444497 0 3810 -0.444497 1
gene 2 15 360 -1.53357 0 3845 -1.53357 1
gene 2 2 363 1.60356 0 3848 1.60356 1
gene 2 363 24 -1.48357 0 3849 -1.48357 1
gene 3 4 24 -0.941568 0 3882 -0.941568 1
gene 2 10 97 0.74273 0 3910 0.74273 0
gene 1 32 360 0.963907 0 4218 0.963907 1
gene 2 17 210 0.73694 1 4237 0.73694 1
gene 3 363 32 -0.775753 0 4250 -0.775753 1
gene 2 363 105 -0.198913 0 4272 -0.198913 1
gene 2 16 97 -0.548095 0 4519 -0.548095 1
gene 1 4 97 -0.0288252 0 4689 -0.0288252 1
genomeend 1
