genomestart 1
trait 1 0.112891 0.0548266 0.223445 0.440702 0.143137 0.992613 0.231428 0.688802 
trait 2 0 0.734746 0.721485 0.785812 0 0 0.621228 1 
trait 3 0.272888 0.123139 0.79402 0.336316 0.581014 0.514542 0.519524 0.20953 
node 1 1 1 3
node 2 3 1 1
node 3 3 1 1
node 4 2 1 1
node 5 3 1 1
node 6 3 1 1
node 7 3 1 1
node 8 3 1 1
node 9 3 1 1
node 10 1 1 1
node 11 2 1 1
node 12 2 1 1
node 13 2 1 1
node 14 3 1 1
node 15 3 1 1
node 16 3 1 1
node 17 1 0 2
node 18 1 0 2
node 60 1 0 0
node 99 3 0 0
node 183 1 0 0
node 219 1 0 0
node 226 2 0 0
node 336 2 0 0
node 363 2 0 0
node 427 1 0 0
node 437 1 0 0
node 468 1 0 0
node 483 1 0 0
node 567 1 0 0
node 615 1 0 0
gene 1 1 17 2.00318 0 1 2.00318 1
gene 1 2 17 -2.08209 0 2 -2.08209 1
gene 1 3 17 -1.05942 0 3 -1.05942 1
gene 3 4 17 0.955955 0 4 0.955955 1
gene 2 5 17 -1.23631 0 5 -1.23631 1
gene 3 6 17 -0.2528 0 6 -0.2528 1
gene 2 7 17 -2.01752 0 7 -2.01752 1
gene 2 8 17 -4.13608 0 8 -4.13608 1
gene 2 9 17 -2.20669 0 9 -2.20669 1
gene 3 10 17 0.403853 0 10 0.403853 1
gene 1 11 17 -0.244106 0 11 -0.244106 1
gene 1 12 17 6.08538 0 12 6.08538 1
gene 2 13 17 4.63588 0 13 4.63588 1
gene 1 14 17 0.875309 0 14 0.875309 1
gene 2 15 17 -2.19213 0 15 -2.19213 1
gene 1 16 17 2.0422 0 16 2.0422 1
gene 2 1 18 -0.742007 0 17 -0.742007 1
gene 3 2 18 -2.72984 0 18 -2.72984 1
gene 2 3 18 3.40419 0 19 3.40419 1
gene 2 4 18 -2.05651 0 20 -2.05651 1
gene 2 5 18 -3.07084 0 21 -3.07084 1
gene 2 6 18 -1.49122 0 22 -1.49122 1
gene 1 7 18 3.16416 0 23 3.16416 1
gene 1 8 18 -3.37816 0 24 -3.37816 0
gene 1 9 18 7.34323 0 25 7.34323 1
gene 3 10 18 5.82913 0 26 5.82913 1
gene 2 11 18 1.89097 0 27 1.89097 1
gene 1 12 18 -0.24544 0 28 -0.24544 1
gene 1 13 18 -1.19765 0 29 -1.19765 1
gene 1 14 18 -2.06118 0 30 -2.06118 1
gene 3 15 18 -1.01605 0 31 -1.01605 1
gene 2 16 18 0.769539 0 32 0.769539 1
gene 3 17 17 -3.67721 1 55 -3.67721 1
gene 2 11 60 -0.72496 0 358 -0.72496 1
gene 1 60 17 -0.433348 0 359 -0.433348 1
gene 1 6 60 -0.463635 0 522 -0.463635 1
gene 1 15 60 5.1641 0 691 5.1641 1
gene 2 17 18 -2.64695 0 757 -2.64695 1
gene 3 18 18 0.557422 1 772 0.557422 1
gene 3 4 60 -1.14697 0 849 -1.14697 1
gene 2 60 99 0.0143804 0 908 0.0143804 0
gene 2 99 17 0.0984981 0 909 0.0984981 1
gene 1 60 60 2.65214 1 995 2.65214 1
gene 3 14 60 -0.412061 0 1217 -0.412061 1
gene 3 99 99 0.846498 1 1259 0.846498 1
gene 2 18 99 6.89618 1 1610 6.89618 1
gene 2 7 99 3.00274 0 1628 3.00274 1
gene 3 9 60 0.641899 0 2042 0.641899 1
gene 3 10 60 1.12425 0 2070 1.12425 1
gene 3 9 99 -0.273123 0 2107 -0.273123 1
gene 3 13 99 0.593824 0 2207 0.593824 1
gene 1 1 99 -1.02648 0 2215 -1.02648 1
gene 1 17 99 -0.521325 1 2229 -0.521325 1
gene 2 15 99 1.04589 0 2237 1.04589 1
gene 2 8 99 0.220589 0 2411 0.220589 1
gene 3 7 60 1.19319 0 2467 1.19319 1
gene 2 16 99 -0.724774 0 2485 -0.724774 1
gene 2 13 60 0.061012 0 2913 0.061012 1
gene 2 60 18 -2.90053 0 2929 -2.90053 1
gene 1 12 99 -1.59233 0 2949 -1.59233 1
gene 3 60 183 -1.15036 0 2989 -1.15036 1
gene 3 183 17 -0.240781 0 2990 -0.240781 1
gene 2 17 183 0.988628 1 3036 0.988628 1
gene 3 183 183 0.396174 1 3085 0.396174 1
gene 2 13 183 -2.00738 0 3247 -2.00738 1
gene 1 11 183 2.13682 0 3276 2.13682 1
gene 2 2 183 -3.98399 0 3312 -3.98399 1
gene 2 7 183 0.531234 0 3344 0.531234 1
gene 1 17 60 1.6446 1 3382 1.6446 1
gene 3 183 219 0.26934 0 3425 0.26934 1
gene 3 219 17 -1.11471 0 3426 -1.11471 1
gene 2 60 226 2.27782 0 3530 2.27782 1
gene 1 226 99 -3.22495 0 3531 -3.22495 1
gene 1 1 219 1.11378 0 3572 1.11378 1
gene 1 226 226 0.55193 1 3700 0.55193 1
gene 3 8 219 -0.837977 0 3731 -0.837977 1
gene 2 2 219 1.00063 0 3774 1.00063 1
gene 3 7 226 -1.24049 0 3792 -1.24049 1
gene 2 3 99 2.54796 0 3808 2.54796 1
gene 2 226 183 0.189549 0 4030 0.189549 1
gene 3 10 183 2.96231 0 4214 2.96231 1
gene 1 99 219 0.556546 0 4524 0.556546 1
gene 2 11 219 -2.61233 0 4535 -2.61233 1
gene 3 16 226 -1.56972 0 4563 -1.56972 1
gene 2 15 183 2.33598 0 4719 2.33598 1
gene 3 15 219 0.75307 0 4735 0.75307 1
gene 3 13 336 -0.0546137 0 4752 -0.0546137 1
gene 2 336 18 0.0360306 0 4753 0.0360306 1
gene 3 1 60 1.5212 0 4815 1.5212 1
gene 3 336 60 -2.3915 0 4843 -2.3915 1
gene 3 5 219 0.526159 0 4857 0.526159 1
gene 3 10 219 -0.991929 0 5070 -0.991929 1
gene 2 13 363 -0.847281 0 5088 -0.847281 1
gene 3 363 336 4.21842 0 5089 4.21842 1
gene 2 13 219 -0.737143 0 5143 -0.737143 1
gene 2 18 363 1.5442 1 5378 1.5442 1
gene 3 8 336 0.258446 0 5395 0.258446 1
gene 2 8 183 -0.143691 0 5511 -0.143691 1
gene 1 363 17 -0.984821 0 5522 -0.984821 1
gene 2 219 219 -1.33734 1 6022 -1.33734 1
gene 1 1 226 -0.953411 0 6255 -0.953411 1
gene 1 7 336 1.28161 0 6261 1.28161 1
gene 2 6 99 -0.613344 0 6305 -0.613344 1
gene 1 2 60 -0.854599 0 6319 -0.854599 1
gene 3 16 363 -0.923551 0 6414 -0.923551 1
gene 3 16 336 -2.51056 0 6559 -2.51056 1
gene 1 219 226 0.185224 1 6695 0.185224 1
gene 3 2 226 -0.236672 0 6717 -0.236672 1
gene 3 363 183 0.940259 0 6725 0.940259 1
gene 2 11 363 1.36866 0 6798 1.36866 1
gene 2 183 336 0.708159 1 6843 0.708159 1
gene 3 183 427 0.811227 0 6894 0.811227 1
gene 3 427 219 -0.288697 0 6895 -0.288697 1
gene 2 99 183 0.680798 0 7015 0.680798 1
gene 2 226 437 1.09398 0 7055 1.09398 1
gene 2 437 183 0.397407 0 7056 0.397407 1
gene 2 5 336 -0.325001 0 7081 -0.325001 1
gene 3 5 99 0.0340436 0 7103 0.0340436 1
gene 1 10 336 0.897436 0 7307 0.897436 1
gene 2 11 468 0.831379 0 7367 0.831379 1
gene 2 468 363 0.160417 0 7368 0.160417 1
gene 3 226 17 0.56773 0 7383 0.56773 1
gene 2 4 336 -0.303078 0 7575 -0.303078 1
gene 1 10 483 -1.3579 0 7621 -1.3579 1
gene 1 483 336 -0.546198 0 7622 -0.546198 1
gene 2 12 363 -0.593859 0 7685 -0.593859 1
gene 1 9 437 1.04196 0 7822 1.04196 1
gene 3 2 363 -0.360775 0 7889 -0.360775 1
gene 1 16 468 0.0417322 0 8051 0.0417322 1
gene 3 483 468 0.887724 0 8163 0.887724 1
gene 2 3 60 0.3292 0 8237 0.3292 1
gene 3 363 363 0.152956 1 8256 0.152956 1
gene 2 336 219 1.52565 0 8507 1.52565 1
gene 2 60 567 0.382169 0 8536 0.382169 1
gene 2 567 99 0.0336208 0 8537 0.0336208 1
gene 1 336 336 0.122697 1 8553 0.122697 1
gene 3 9 336 0.866197 0 8908 0.866197 1
gene 2 14 226 -0.905286 0 8983 -0.905286 1
gene 1 6 615 1 0 9120 0 1
gene 1 615 60 -0.463635 0 9121 0 1
gene 2 567 567 -0.775619 1 9525 -0.775619 1
gene 3 16 567 -0.0399586 0 9567 -0.0399586 1
gene 3 483 483 0.298591 1 9816 0.298591 1
gene 2 16 60 -0.713016 0 10145 -0.713016 1
genomeend 1
