genomestart 1
trait 1 0.436417 0.541097 0.0728432 0.349392 0.126591 0.0987478 0.00260533 0.369652 
trait 2 0.416606 0.581546 0.299738 0.622184 0.281415 0.236791 0.892401 0.873549 
trait 3 0.0312757 0.234851 0.523397 0.211196 0.406115 0.115362 0.528793 0.814875 
node 1 2 1 3
node 2 3 1 1
node 3 1 1 1
node 4 3 1 1
node 5 1 1 1
node 6 2 1 1
node 7 1 1 1
node 8 1 1 1
node 9 3 1 1
node 10 1 1 1
node 11 3 1 1
node 12 1 1 1
node 13 3 1 1
node 14 1 1 1
node 15 3 1 1
node 16 2 1 1
node 17 3 0 2
node 18 3 0 2
node 44 1 0 0
node 110 1 0 0
node 123 1 0 0
node 126 1 0 0
node 242 1 0 0
node 246 1 0 0
node 304 1 0 0
node 489 1 0 0
gene 3 1 17 0.24795 0 1 0.24795 1
gene 3 2 17 -0.614443 0 2 -0.614443 1
gene 3 3 17 -2.52963 0 3 -2.52963 1
gene 3 4 17 1.99102 0 4 1.99102 1
gene 3 5 17 -6.96426 0 5 -6.96426 1
gene 3 6 17 1.90506 0 6 1.90506 1
gene 3 7 17 -4.96591 0 7 -4.96591 1
gene 2 8 17 0.547621 0 8 0.547621 1
gene 2 9 17 -1.44194 0 9 -1.44194 1
gene 1 10 17 0.616369 0 10 0.616369 1
gene 3 11 17 1.90687 0 11 1.90687 1
gene 3 12 17 2.05583 0 12 2.05583 1
gene 2 13 17 6.39386 0 13 6.39386 1
gene 1 14 17 1.18429 0 14 1.18429 1
gene 3 15 17 1.57221 0 15 1.57221 1
gene 2 16 17 3.17999 0 16 3.17999 1
gene 3 1 18 -0.438579 0 17 -0.438579 1
gene 1 2 18 -2.89305 0 18 -2.89305 1
gene 3 3 18 1.96568 0 19 1.96568 1
gene 1 4 18 -2.2289 0 20 -2.2289 1
gene 1 5 18 -4.49894 0 21 -4.49894 1
gene 3 6 18 0.835988 0 22 0.835988 1
gene 1 7 18 1.49433 0 23 1.49433 1
gene 1 8 18 1.74644 0 24 1.74644 1
gene 2 9 18 7.46455 0 25 7.46455 1
gene 2 10 18 2.66613 0 26 2.66613 1
gene 1 11 18 2.67217 0 27 2.67217 1
gene 3 12 18 0.023206 0 28 0.023206 1
gene 1 13 18 -2.485 0 29 -2.485 1
gene 1 14 18 -0.248638 0 30 -0.248638 1
gene 3 15 18 -1.10584 0 31 -1.10584 1
gene 1 16 18 -0.605187 0 32 -0.605187 1
gene 2 10 44 -5.48984 0 255 -5.48984 1
gene 2 44 18 2.77487 0 256 2.77487 1
gene 1 6 44 2.51332 0 279 2.51332 1
gene 1 14 44 -1.19423 0 549 -1.19423 1
gene 3 3 44 -0.229134 0 645 -0.229134 1
gene 1 16 44 -1.40476 0 794 -1.40476 1
gene 3 5 44 0.217567 0 810 0.217567 1
gene 1 15 44 -2.76347 0 927 -2.76347 1
gene 1 16 110 -0.50858 0 965 -0.50858 1
gene 1 110 44 5.6885 0 966 5.6885 1
gene 2 110 110 -2.13668 1 1045 -2.13668 1
gene 3 2 44 -0.0229543 0 1071 -0.0229543 1
gene 3 5 123 -1.85382 0 1104 -1.85382 1
gene 3 123 44 0.933656 0 1105 0.933656 1
gene 3 18 18 0.118067 1 1124 0.118067 1
gene 2 6 126 -1.15007 0 1152 -1.15007 1
gene 3 126 17 -0.839482 0 1153 -0.839482 1
gene 1 9 123 -0.71442 0 1505 -0.71442 1
gene 1 8 123 -1.22028 0 1569 -1.22028 1
gene 3 7 110 -1.02782 0 1875 -1.02782 1
gene 3 12 110 -0.470882 0 2278 -0.470882 1
gene 3 126 18 -3.2306 0 2297 -3.2306 1
gene 3 15 123 3.83471 0 2526 3.83471 1
gene 3 12 242 1.27659 0 2590 1.27659 1
gene 3 242 110 1.06984 0 2591 1.06984 1
gene 1 10 246 -3.54614 0 2618 -3.54614 1
gene 1 246 17 -0.437824 0 2619 -0.437824 1
gene 2 9 126 -2.21894 0 2689 -2.21894 1
gene 3 242 242 2.98786 1 2735 2.98786 1
gene 3 6 242 -0.714703 0 3026 -0.714703 1
gene 1 17 17 -0.080334 1 3272 -0.080334 1
gene 3 8 126 1.44936 0 3448 1.44936 1
gene 1 15 304 -2.26102 0 3462 -2.26102 1
gene 1 304 44 0.300745 0 3463 0.300745 1
gene 1 44 44 0.594254 1 3885 0.594254 1
gene 1 12 44 -0.857786 0 4286 -0.857786 0
gene 2 4 242 -1.29367 0 4329 -1.29367 1
gene 3 123 110 0.812166 0 4439 0.812166 1
gene 3 8 44 0.286422 0 4592 0.286422 1
gene 1 123 123 0.376144 1 4755 0.376144 1
gene 1 304 123 0.121992 0 5188 0.121992 1
gene 2 1 123 0.0279405 0 5259 0.0279405 1
gene 3 246 246 -1.9411 1 5504 -1.9411 1
gene 3 1 44 -0.53203 0 5598 -0.53203 1
gene 2 10 489 0.843005 0 5730 0.843005 1
gene 2 489 44 -2.17648 0 5731 -2.17648 1
gene 2 126 126 0.34854 1 5756 0.34854 1
gene 3 5 110 -0.101771 0 6106 -0.101771 1
gene 2 489 489 0.589028 1 6220 0.589028 1
gene 1 2 304 -0.048576 0 6636 -0.048576 1
gene 2 18 44 0.0474527 1 6679 0.0474527 1
genomeend 1
