genomestart 1
trait 1 0.622498 0.845877 0.64971 0.167486 0.658233 0.804106 0.634675 0 
trait 2 0.998053 0.618184 0.160866 0.231157 0.0158345 0.552848 0.123253 0.310549 
trait 3 0.786919 0.361121 0.0184551 0.338751 0.243934 0.195776 0.422658 0.64783 
node 1 1 1 3
node 2 1 1 1
node 3 1 1 1
node 4 2 1 1
node 5 1 1 1
node 6 3 1 1
node 7 3 1 1
node 8 3 1 1
node 9 2 1 1
node 10 1 1 1
node 11 2 1 1
node 12 3 1 1
node 13 2 1 1
node 14 2 1 1
node 15 1 1 1
node 16 1 1 1
node 17 1 0 2
node 18 1 0 2
node 60 3 0 0
node 99 3 0 0
node 183 3 0 0
node 219 3 0 0
node 226 2 0 0
node 336 2 0 0
node 363 1 0 0
node 377 1 0 0
node 383 1 0 0
node 432 1 0 0
node 522 1 0 0
node 523 1 0 0
node 572 1 0 0
node 603 1 0 0
node 609 1 0 0
node 742 1 0 0
node 761 1 0 0
node 832 1 0 0
gene 3 1 17 -2.97144 0 1 -2.97144 1
gene 1 2 17 -3.13165 0 2 -3.13165 1
gene 2 3 17 -0.761653 0 3 -0.761653 1
gene 1 4 17 2.24921 0 4 2.24921 1
gene 1 5 17 3.93341 0 5 3.93341 1
gene 1 6 17 0.556631 0 6 0.556631 1
gene 3 7 17 1.9138 0 7 1.9138 1
gene 2 8 17 -2.40707 0 8 -2.40707 1
gene 1 9 17 -0.246718 0 9 -0.246718 1
gene 2 10 17 -2.30919 0 10 -2.30919 1
gene 1 11 17 1.03189 0 11 1.03189 1
gene 2 12 17 7.18557 0 12 7.18557 1
gene 3 13 17 5.27175 0 13 5.27175 1
gene 1 14 17 -1.03342 0 14 -1.03342 1
gene 3 15 17 -0.386988 0 15 -0.386988 1
gene 2 16 17 0.992216 0 16 0.992216 1
gene 1 1 18 -1.17032 0 17 -1.17032 1
gene 2 2 18 -2.02064 0 18 -2.02064 1
gene 3 3 18 0.555011 0 19 0.555011 1
gene 1 4 18 -4.14652 0 20 -4.14652 1
gene 1 5 18 -1.87125 0 21 -1.87125 1
gene 3 6 18 -0.274886 0 22 -0.274886 1
gene 2 7 18 1.14121 0 23 1.14121 1
gene 2 8 18 5.45453 0 24 5.45453 1
gene 1 9 18 6.95388 0 25 6.95388 1
gene 2 10 18 6.36849 0 26 6.36849 1
gene 2 11 18 0.225357 0 27 0.225357 1
gene 2 12 18 1.61583 0 28 1.61583 1
gene 1 13 18 -0.936457 0 29 -0.936457 0
gene 2 14 18 -0.476299 0 30 -0.476299 1
gene 1 15 18 -0.700537 0 31 -0.700537 1
gene 1 16 18 -1.06452 0 32 -1.06452 1
gene 1 17 17 -1.01741 1 55 -1.01741 0
gene 3 11 60 1.46242 0 358 1.46242 1
gene 1 60 17 -0.240273 0 359 -0.240273 1
gene 1 6 60 -0.587405 0 522 -0.587405 1
gene 2 15 60 2.83025 0 691 2.83025 1
gene 3 17 18 -1.21989 0 757 -1.21989 1
gene 2 18 18 2.67912 1 772 2.67912 1
gene 3 4 60 -1.22822 0 849 -1.22822 1
gene 3 60 99 -0.266728 0 908 -0.266728 1
gene 3 99 17 -3.90683 0 909 -3.90683 1
gene 2 60 60 1.21138 1 995 1.21138 1
gene 2 14 60 0.123545 0 1217 0.123545 1
gene 2 99 99 -2.77019 1 1259 -2.77019 1
gene 2 18 99 4.30203 1 1610 4.30203 1
gene 2 7 99 0.6194 0 1628 0.6194 1
gene 1 9 60 -0.520362 0 2042 -0.520362 1
gene 2 10 60 -0.289877 0 2070 -0.289877 1
gene 3 9 99 -0.0601671 0 2107 -0.0601671 1
gene 2 13 99 -0.83304 0 2207 -0.83304 1
gene 2 1 99 0.189606 0 2215 0.189606 1
gene 1 17 99 0.461695 1 2229 0.461695 1
gene 1 15 99 -0.648206 0 2237 -0.648206 1
gene 2 8 99 0.35278 0 2411 0.35278 1
gene 1 7 60 2.20504 0 2467 2.20504 1
gene 1 16 99 -3.49751 0 2485 -3.49751 1
gene 2 13 60 -0.281969 0 2913 -0.281969 1
gene 1 60 18 0.241496 0 2929 0.241496 1
gene 1 12 99 -1.60906 0 2949 -1.60906 1
gene 2 60 183 3.70933 0 2989 3.70933 1
gene 3 183 17 0.36033 0 2990 0.36033 1
gene 1 17 183 -1.67832 1 3036 -1.67832 1
gene 2 183 183 -1.0735 1 3085 -1.0735 1
gene 3 13 183 1.47386 0 3247 1.47386 1
gene 3 11 183 -0.405573 0 3276 -0.405573 1
gene 1 2 183 -1.59535 0 3312 -1.59535 1
gene 1 7 183 -0.824065 0 3344 -0.824065 1
gene 2 17 60 0.295288 1 3382 0.295288 1
gene 2 183 219 -1.40009 0 3425 -1.40009 1
gene 1 219 17 0.438478 0 3426 0.438478 1
gene 3 60 226 -3.87013 0 3530 -3.87013 1
gene 2 226 99 0.072053 0 3531 0.072053 1
gene 2 1 219 -0.524355 0 3572 -0.524355 1
gene 2 226 226 0.155361 1 3700 0.155361 1
gene 3 8 219 1.3392 0 3731 1.3392 1
gene 3 2 219 -0.476042 0 3774 -0.476042 1
gene 1 7 226 -1.05958 0 3792 -1.05958 1
gene 2 3 99 -1.00211 0 3808 -1.00211 1
gene 2 226 183 1.94437 0 4030 1.94437 1
gene 3 10 183 -7.5699 0 4214 -7.5699 1
gene 1 99 219 2.60777 0 4524 2.60777 1
gene 1 11 219 0.150372 0 4535 0.150372 1
gene 2 16 226 1.50338 0 4563 1.50338 1
gene 1 15 183 2.74617 0 4719 2.74617 1
gene 1 15 219 2.61334 0 4735 2.61334 1
gene 2 13 336 -2.15811 0 4752 -2.15811 1
gene 1 336 18 1.26425 0 4753 1.26425 1
gene 2 1 60 -3.45309 0 4815 -3.45309 1
gene 3 336 60 3.4847 0 4843 3.4847 1
gene 3 5 219 0.476114 0 4857 0.476114 1
gene 1 10 219 -1.88188 0 5070 -1.88188 1
gene 1 13 363 -0.263638 0 5088 -0.263638 1
gene 3 363 336 0.805302 0 5089 0.805302 1
gene 3 13 219 -0.379279 0 5143 -0.379279 0
gene 3 18 363 -1.39132 1 5378 -1.39132 1
gene 3 8 336 -0.799513 0 5395 -0.799513 1
gene 3 8 183 -2.53596 0 5511 -2.53596 1
gene 2 363 17 1.46666 0 5522 1.46666 1
gene 3 219 219 0.651605 1 6022 0.651605 1
gene 1 1 226 1.64676 0 6255 1.64676 1
gene 1 336 336 -0.346902 1 6265 -0.346902 1
gene 1 2 336 -4.03474 0 6300 -4.03474 1
gene 2 14 377 0.994946 0 6353 0.994946 1
gene 2 377 18 1.69136 0 6354 1.69136 1
gene 2 226 377 -1.04803 0 6433 -1.04803 1
gene 2 10 383 -0.328182 0 6460 -0.328182 1
gene 3 383 18 1.01574 0 6461 1.01574 1
gene 1 2 383 -2.5562 0 6493 -2.5562 1
gene 2 10 377 0.098845 0 6678 0.098845 1
gene 1 16 60 0.259233 0 6826 0.259233 1
gene 3 12 336 -0.86712 0 6867 -0.86712 1
gene 2 8 432 0.850833 0 7021 0.850833 1
gene 2 432 17 1.00678 0 7022 1.00678 1
gene 2 99 363 0.908494 1 7245 0.908494 1
gene 2 5 99 -0.498797 0 7263 -0.498797 1
gene 3 12 377 1.30273 0 7371 1.30273 1
gene 2 14 336 -1.01439 0 7402 -1.01439 1
gene 3 219 377 -1.31615 0 7527 -1.31615 1
gene 2 4 219 3.47064 0 7575 3.47064 1
gene 2 5 336 1.71757 0 8010 1.71757 1
gene 1 60 219 -0.609342 0 8083 -0.609342 1
gene 2 14 522 1.85702 0 8110 1.85702 1
gene 2 522 336 0.593553 0 8111 0.593553 1
gene 1 336 523 3.45225 0 8131 3.45225 1
gene 1 523 18 0.653604 0 8132 0.653604 1
gene 1 363 383 0.535789 0 8280 0.535789 1
gene 1 377 377 0.131462 1 8571 0.131462 1
gene 2 13 572 -1.07747 0 8726 -1.07747 1
gene 2 572 99 0.907643 0 8727 0.907643 1
gene 2 5 226 -0.329529 0 8918 -0.329529 1
gene 3 6 363 2.87961 0 8963 2.87961 1
gene 2 99 383 -0.261962 0 8988 -0.261962 1
gene 1 60 603 0.125236 1 9053 0.125236 1
gene 2 603 60 0.0605698 0 9054 0.0605698 1
gene 3 8 609 0.357484 0 9117 0.357484 1
gene 3 609 183 -0.116978 0 9118 -0.116978 1
gene 3 572 572 -0.0585572 1 9143 -0.0585572 1
gene 3 12 363 0.454865 0 9465 0.454865 1
gene 3 15 523 -0.401921 0 9541 -0.401921 0
gene 3 8 60 -1.10078 0 9571 -1.10078 1
gene 3 15 377 -0.444982 0 9734 -0.444982 1
gene 2 13 523 0.683509 0 9758 0.683509 1
gene 1 2 609 0.642067 0 10173 0.642067 1
gene 2 16 183 0.713857 0 10208 0.713857 1
gene 3 10 226 0.215158 0 10225 0.215158 1
gene 3 6 183 1.06979 0 10252 1.06979 1
gene 1 12 432 0.986455 0 10259 0.986455 1
gene 2 14 219 -0.377333 0 10407 -0.377333 1
gene 2 432 609 -0.348923 0 10417 -0.348923 1
gene 1 7 603 -1.08195 0 10573 -1.08195 1
gene 3 13 742 0.892996 0 10715 0.892996 1
gene 3 742 183 1.10807 0 10716 1.10807 1
gene 2 60 761 1.57648 1 10918 1.57648 1
gene 2 761 60 -0.147683 0 10919 -0.147683 1
gene 2 17 226 -0.371626 1 11031 -0.371626 1
gene 2 17 336 -0.0717708 1 11046 -0.0717708 1
gene 3 761 761 -0.978147 1 11083 -0.978147 1
gene 2 603 603 -0.199931 1 11126 -0.199931 1
gene 2 7 383 0.881262 0 11177 0.881262 1
gene 2 336 609 -0.907286 0 11220 -0.907286 1
gene 1 609 609 -0.24132 1 11332 -0.24132 1
gene 1 5 742 -0.756941 0 11610 -0.756941 1
gene 1 14 363 1.0663 0 11693 1.0663 1
gene 1 336 363 -0.433215 1 11809 -0.433215 1
gene 3 15 832 1.33275 0 11974 0.832749 1
gene 3 832 523 -0.401921 0 11975 -0.20096 1
gene 2 9 336 -0.019227 0 12023 -0.019227 1
gene 3 761 183 -0.280641 0 12044 -0.280641 1
gene 2 336 832 0.32558 0 12072 0.32558 1
gene 3 183 336 0.166697 1 12138 0.166697 1
gene 1 742 383 0.671455 0 12287 0.671455 1
gene 3 11 363 -0.163844 0 12315 -0.163844 1
gene 3 17 742 -0.762501 1 12388 -0.762501 1
gene 2 11 603 0.728489 0 12523 0.728489 1
genomeend 1
