genomestart 1
trait 1 0.717951 0.736248 0.00380231 0.178637 0.310396 0.248212 0.377712 0.448514 
trait 2 0.719963 0.181435 0.121437 0.0866669 0.443653 0.566305 0.0997599 0.00996632 
trait 3 0.347512 0 0.0150577 0.21493 0.0592457 0.510487 0.0711235 0.0697659 
node 1 2 1 3
node 2 3 1 1
node 3 1 1 1
node 4 3 1 1
node 5 3 1 1
node 6 2 1 1
node 7 3 1 1
node 8 3 1 1
node 9 3 1 1
node 10 1 1 1
node 11 2 1 1
node 12 2 1 1
node 13 3 1 1
node 14 3 1 1
node 15 3 1 1
node 16 1 1 1
node 17 3 0 2
node 18 3 0 2
node 19 2 0 0
node 35 3 0 0
node 67 2 0 0
node 124 1 0 0
node 128 1 0 0
node 134 1 0 0
node 325 1 0 0
node 351 1 0 0
node 451 1 0 0
gene 3 1 17 -2.68482 0 1 -2.68482 1
gene 3 2 17 2.4486 0 2 2.4486 1
gene 3 3 17 5.12921 0 3 5.12921 1
gene 3 4 17 4.71828 0 4 4.71828 1
gene 3 5 17 0.435069 0 5 0.435069 1
gene 2 6 17 -0.0206473 0 6 -0.0206473 1
gene 2 7 17 3.04366 0 7 3.04366 1
gene 2 8 17 -0.0660673 0 8 -0.0660673 1
gene 1 9 17 3.40105 0 9 3.40105 1
gene 2 10 17 -0.915794 0 10 -0.915794 1
gene 2 11 17 4.09921 0 11 4.09921 1
gene 2 12 17 1.05353 0 12 1.05353 1
gene 3 13 17 -5.30653 0 13 -5.30653 1
gene 1 14 17 -3.02951 0 14 -3.02951 1
gene 3 15 17 -1.85324 0 15 -1.85324 1
gene 3 16 17 -7.97513 0 16 -7.97513 1
gene 1 1 18 2.02478 0 17 2.02478 1
gene 1 2 18 3.65868 0 18 3.65868 1
gene 1 3 18 -0.340652 0 19 -0.340652 0
gene 2 4 18 1.73287 0 20 1.73287 1
gene 2 5 18 1.21571 0 21 1.21571 1
gene 1 6 18 -5.51029 0 22 -5.51029 1
gene 1 7 18 -4.67667 0 23 -4.67667 1
gene 1 8 18 -0.636533 0 24 -0.636533 1
gene 2 9 18 -1.98243 0 25 -1.98243 1
gene 2 10 18 -0.693298 0 26 -0.693298 1
gene 3 11 18 -0.296077 0 27 -0.296077 0
gene 2 12 18 0.893015 0 28 0.893015 1
gene 2 13 18 1.14227 0 29 1.14227 1
gene 3 14 18 0.507328 0 30 0.507328 1
gene 2 15 18 3.51431 0 31 3.51431 1
gene 2 16 18 -0.782908 0 32 -0.782908 1
gene 3 16 19 -1.46146 0 35 -1.46146 1
gene 3 19 17 -4.93335 0 36 -4.93335 1
gene 1 19 19 -0.475149 1 73 -0.475149 1
gene 2 18 18 -2.03458 1 107 -2.03458 1
gene 2 12 35 -2.44566 0 202 -2.44566 1
gene 1 35 18 -1.07067 0 203 -1.07067 1
gene 3 11 35 1.11529 0 248 1.11529 1
gene 2 7 19 3.4211 0 293 3.4211 1
gene 1 2 35 -0.912562 0 436 -0.912562 1
gene 1 9 67 1.90333 0 470 1.90333 1
gene 1 67 17 2.50912 0 471 2.50912 1
gene 1 18 35 -1.63275 1 524 -1.63275 1
gene 3 14 19 1.14788 0 542 1.14788 1
gene 3 1 35 1.79121 0 607 1.79121 1
gene 2 13 19 -1.12694 0 694 -1.12694 1
gene 1 8 19 -3.8304 0 821 -3.8304 1
gene 1 10 19 -1.95562 0 835 -1.95562 1
gene 1 10 67 2.58201 0 929 2.58201 1
gene 2 4 35 2.71343 0 1049 2.71343 0
gene 1 8 124 -3.07837 0 1059 -3.07837 1
gene 1 124 19 2.76813 0 1060 2.76813 1
gene 2 18 128 0.822191 1 1097 0.822191 1
gene 2 128 18 -2.11243 0 1098 -2.11243 1
gene 2 35 35 -0.46272 1 1125 -0.46272 1
gene 2 8 134 1.66654 0 1212 1.66654 1
gene 1 134 19 1.50009 0 1213 1.50009 1
gene 3 134 67 0.749955 0 1283 0.749955 1
gene 1 13 35 0.111433 0 1585 0.111433 1
gene 2 17 17 0.955463 1 1683 0.955463 1
gene 1 6 134 -1.01022 0 1734 -1.01022 1
gene 3 7 134 -3.57106 0 1755 -3.57106 1
gene 2 128 128 0.200146 1 1851 0.200146 1
gene 2 2 128 2.77886 0 1929 2.77886 1
gene 2 7 67 -0.287743 0 2144 -0.287743 1
gene 1 35 124 -0.0758251 0 2159 -0.0758251 1
gene 2 19 35 1.461 1 2724 1.461 1
gene 3 5 35 -0.753455 0 2859 -0.753455 1
gene 1 12 124 -0.815831 0 2877 -0.815831 1
gene 1 10 128 -0.19652 0 2897 -0.19652 1
gene 1 134 128 -1.37909 0 2945 -1.37909 1
gene 2 15 35 -0.0679273 0 3023 -0.0679273 1
gene 2 124 124 0.11184 1 3180 0.11184 1
gene 1 134 134 1.24278 1 3317 1.24278 1
gene 1 19 18 0.805664 0 3369 0.805664 1
gene 1 134 124 -0.615107 0 3397 -0.615107 1
gene 2 1 124 0.773599 0 3447 0.773599 1
gene 1 3 325 0.011986 0 3512 0.011986 1
gene 1 325 18 -0.0604068 0 3513 -0.0604068 1
gene 2 3 35 -0.107571 0 3532 -0.107571 0
gene 3 16 325 0.150859 0 3790 0.150859 1
gene 3 11 351 1.99924 0 3816 1.99924 1
gene 3 351 35 1.47403 0 3817 1.14108 1
gene 2 4 67 0.30555 0 3918 0.30555 1
gene 2 7 351 -0.792645 0 3932 -0.792645 1
gene 3 12 351 0.379492 0 3997 0.379492 1
gene 1 2 124 -0.423231 0 4275 -0.423231 1
gene 2 124 351 0.887122 1 4296 0.887122 1
gene 1 128 325 -0.662486 0 4308 -0.662486 1
gene 1 17 124 -0.203256 1 4381 -0.203256 1
gene 3 325 325 -0.0546327 1 4502 -0.0546327 1
gene 1 5 325 -0.414345 0 4562 -0.414345 1
gene 1 351 351 0.464191 1 4574 0.464191 0
gene 3 14 351 -0.0458356 0 4827 -0.0458356 1
gene 1 67 67 -0.264969 1 4850 -0.264969 1
gene 3 3 67 0.600137 0 4860 0.600137 1
gene 1 351 451 1 1 4912 0 1
gene 1 451 351 0.464191 0 4913 0 1
gene 2 451 451 -0.734295 1 5162 -0.734295 1
gene 3 5 451 0.625182 0 5231 0.625182 1
gene 3 16 67 -0.373435 0 5301 -0.373435 1
genomeend 1
