genomestart 1
trait 1 0.124553 0.350789 0.163845 0.55803 0.220692 0.914503 0.53194 0.434739 
trait 2 0.02068 0.997733 0.911671 0.466339 0.740437 0.519612 0 0.0321939 
trait 3 0.675477 0.365826 0.509408 0.831565 0.515916 0.307199 0.00807647 0.16805 
node 1 1 1 3
node 2 1 1 1
node 3 1 1 1
node 4 1 1 1
node 5 1 1 1
node 6 3 1 1
node 7 2 1 1
node 8 1 1 1
node 9 1 1 1
node 10 2 1 1
node 11 2 1 1
node 12 1 1 1
node 13 1 1 1
node 14 1 1 1
node 15 1 1 1
node 16 3 1 1
node 17 3 0 2
node 18 1 0 2
node 60 1 0 0
node 99 1 0 0
node 183 1 0 0
node 219 3 0 0
node 226 1 0 0
node 336 2 0 0
node 363 3 0 0
node 364 1 0 0
node 394 1 0 0
node 503 1 0 0
node 506 1 0 0
node 535 1 0 0
gene 3 1 17 1.58985 0 1 1.58985 1
gene 2 2 17 1.20936 0 2 1.20936 1
gene 3 3 17 -5.2494 0 3 -5.2494 1
gene 1 4 17 0.0270544 0 4 0.0270544 1
gene 3 5 17 -1.62537 0 5 -1.62537 1
gene 3 6 17 -3.57635 0 6 -3.57635 1
gene 3 7 17 -1.47072 0 7 -1.47072 1
gene 1 8 17 -1.62194 0 8 -1.62194 1
gene 3 9 17 -1.57559 0 9 -1.57559 1
gene 2 10 17 -2.51121 0 10 -2.51121 1
gene 3 11 17 -0.33552 0 11 -0.33552 0
gene 3 12 17 6.31332 0 12 6.31332 1
gene 2 13 17 3.94463 0 13 3.94463 1
gene 3 14 17 0.614699 0 14 0.614699 1
gene 1 15 17 -2.94851 0 15 -2.94851 1
gene 3 16 17 1.85012 0 16 1.85012 1
gene 2 1 18 -0.781138 0 17 -0.781138 1
gene 2 2 18 -1.28819 0 18 -1.28819 1
gene 3 3 18 0.561401 0 19 0.561401 1
gene 3 4 18 -1.18401 0 20 -1.18401 1
gene 1 5 18 -0.896269 0 21 -0.896269 1
gene 1 6 18 1.27393 0 22 1.27393 1
gene 3 7 18 1.0899 0 23 1.0899 1
gene 3 8 18 3.94296 0 24 3.94296 1
gene 2 9 18 3.44348 0 25 3.44348 1
gene 1 10 18 2.37058 0 26 2.37058 1
gene 2 11 18 2.48432 0 27 2.48432 1
gene 3 12 18 1.31126 0 28 1.31126 1
gene 3 13 18 -2.47079 0 29 -2.47079 1
gene 1 14 18 -0.60386 0 30 -0.60386 0
gene 3 15 18 0.334956 0 31 0.334956 1
gene 3 16 18 -1.56829 0 32 -1.56829 1
gene 3 17 17 0.188646 1 55 0.188646 0
gene 1 11 60 0.1146 0 358 0.1146 1
gene 2 60 17 1.31162 0 359 1.31162 1
gene 1 6 60 0.587509 0 522 0.587509 1
gene 3 15 60 2.04932 0 691 2.04932 1
gene 3 17 18 -1.91465 0 757 -1.91465 1
gene 3 18 18 0.534088 1 772 0.534088 1
gene 1 4 60 -1.33388 0 849 -1.33388 0
gene 1 60 99 3.05817 0 908 3.05817 1
gene 2 99 17 0.444362 0 909 0.444362 1
gene 1 60 60 -0.865499 1 995 -0.865499 1
gene 2 14 60 1.89022 0 1217 1.89022 1
gene 1 99 99 -0.577661 1 1259 -0.577661 1
gene 3 18 99 -0.970076 1 1610 -0.970076 1
gene 2 7 99 -1.10984 0 1628 -1.10984 1
gene 3 9 60 -1.14201 0 2042 -1.14201 1
gene 3 10 60 1.33022 0 2070 1.33022 1
gene 2 9 99 -0.291642 0 2107 -0.291642 1
gene 2 13 99 0.758225 0 2207 0.758225 1
gene 3 1 99 4.40304 0 2215 4.40304 1
gene 1 17 99 -2.03618 1 2229 -2.03618 1
gene 1 15 99 1.52481 0 2237 1.52481 1
gene 1 8 99 2.11171 0 2411 2.11171 1
gene 3 7 60 2.21628 0 2467 2.21628 1
gene 1 16 99 1.53397 0 2485 1.53397 1
gene 3 13 60 -2.22175 0 2913 -2.22175 0
gene 3 60 18 0.901605 0 2929 0.901605 1
gene 1 12 99 -0.15665 0 2949 -0.15665 1
gene 2 60 183 -0.863402 0 2989 -0.863402 1
gene 2 183 17 -1.28523 0 2990 -1.28523 1
gene 3 17 183 -1.84194 1 3036 -1.84194 1
gene 1 183 183 0.235996 1 3085 0.235996 1
gene 3 13 183 -3.18782 0 3247 -3.18782 1
gene 1 11 183 2.45686 0 3276 2.45686 1
gene 2 2 183 -0.523495 0 3312 -0.523495 1
gene 2 7 183 4.36598 0 3344 4.36598 1
gene 1 17 60 0.734448 1 3382 0.734448 1
gene 3 183 219 0.253404 0 3425 0.253404 1
gene 2 219 17 0.0729635 0 3426 0.0729635 1
gene 3 60 226 -0.116772 0 3530 -0.116772 1
gene 2 226 99 -0.898053 0 3531 -0.898053 1
gene 1 1 219 -0.602874 0 3572 -0.602874 1
gene 2 226 226 -0.510469 1 3700 -0.510469 1
gene 2 8 219 0.888824 0 3731 0.888824 1
gene 2 2 219 5.01113 0 3774 5.01113 1
gene 3 7 226 -2.63595 0 3792 -2.63595 1
gene 2 3 99 -1.59761 0 3808 -1.59761 1
gene 2 226 183 -2.81869 0 4030 -2.81869 1
gene 3 10 183 -1.56264 0 4214 -1.56264 1
gene 1 99 219 1.65122 0 4524 1.65122 1
gene 2 11 219 1.16446 0 4535 1.16446 0
gene 3 16 226 -1.18921 0 4563 -1.18921 1
gene 2 15 183 0.423477 0 4719 0.423477 1
gene 3 15 219 -0.505817 0 4735 -0.505817 1
gene 3 13 336 -0.154533 0 4752 -0.154533 1
gene 1 336 18 -0.286768 0 4753 -0.286768 1
gene 3 1 60 0.218878 0 4815 0.218878 1
gene 1 336 60 -3.01427 0 4843 -3.01427 1
gene 1 5 219 -1.07949 0 4857 -1.07949 1
gene 2 10 219 -0.938925 0 5070 -0.938925 0
gene 1 13 363 0.0472689 0 5088 0.0472689 1
gene 3 363 336 1.47515 0 5089 1.47515 1
gene 2 13 219 0.408688 0 5143 0.408688 1
gene 2 18 363 0.445513 1 5378 0.445513 1
gene 3 8 336 -1.17446 0 5395 -1.17446 1
gene 3 8 183 0.913424 0 5511 0.913424 1
gene 1 363 17 -2.96964 0 5522 -2.96964 1
gene 2 219 219 0.745117 1 6022 0.745117 1
gene 1 1 226 -0.120034 0 6255 -0.120034 1
gene 2 3 364 -0.739738 0 6265 -0.739738 1
gene 2 364 17 0.189132 0 6266 0.189132 1
gene 3 12 226 -0.12599 0 6453 -0.12599 1
gene 2 1 336 -0.861012 0 6652 -0.861012 1
gene 2 60 394 0.357358 0 6665 0.357358 1
gene 2 394 17 0.417112 0 6666 0.417112 1
gene 1 363 364 -0.344491 0 6761 -0.344491 1
gene 2 12 363 -0.771104 0 6837 -0.771104 1
gene 2 364 364 -0.620018 1 6914 -0.620018 1
gene 1 11 394 0.905507 0 6945 0.905507 1
gene 1 16 364 -0.295771 0 7186 -0.295771 1
gene 2 183 99 -0.732811 0 7351 -0.732811 1
gene 3 12 183 0.0660876 0 7399 0.0660876 1
gene 2 9 363 0.636456 0 7494 0.636456 1
gene 1 14 183 3.84862 0 7544 3.84862 1
gene 2 364 219 -2.09108 0 7687 -2.09108 1
gene 1 336 503 0.623361 0 7911 0.623361 1
gene 1 503 60 0.59263 0 7912 0.59263 1
gene 1 12 394 2.00707 0 7951 2.00707 1
gene 2 11 506 0.898046 0 7976 0.898046 1
gene 2 506 219 3.21403 0 7977 3.21403 1
gene 3 9 503 -0.478105 0 8004 -0.478105 1
gene 2 506 506 -0.414516 1 8055 -0.414516 1
gene 2 2 363 0.157067 0 8133 0.157067 1
gene 1 3 219 -0.819145 0 8252 -0.819145 1
gene 1 4 535 -0.579862 0 8300 -0.579862 1
gene 1 535 60 -1.15992 0 8301 -1.15992 1
gene 2 535 99 0.651312 0 8702 0.651312 1
genomeend 1
