genomestart 1
trait 1 0.1 0 0 0 0 0 0.0433551 0 
trait 2 0.587821 0.853595 0.770981 0.542257 0 0 0.853423 0 
trait 3 0 0 0 0 0 0.813513 0.815179 0.780382 
node 1 3 1 3
node 2 2 1 1
node 3 2 1 1
node 4 1 1 1
node 5 1 1 1
node 6 3 1 1
node 7 3 1 1
node 8 3 1 1
node 9 2 1 1
node 10 1 1 1
node 11 1 1 1
node 12 1 1 1
node 13 3 1 1
node 14 2 1 1
node 15 1 1 1
node 16 3 1 1
node 17 2 0 2
node 18 2 0 2
nodegru 19 0 -0.505693 1.28099 -0.683199 0.443008 -0.960459 0.810665 [ 0.192761 -0.0668906 0.150647 0.240745 0.0442581 ] [ 1.33401 -0.936936 1.55086 0 0.13033 ] [ 1.06186 0.483786 0.351755 0 0 ]
node 21 1 0 0
node 24 1 0 0
node 42 1 0 0
node 86 1 0 0
gene 3 1 17 0.165818 0 1 0.165818 1
gene 1 2 17 -0.0324933 0 2 -0.0324933 1
gene 3 3 17 0.272503 0 3 0.272503 1
gene 2 4 17 -1.08076 0 4 -1.08076 0
gene 2 5 17 0.261938 0 5 0.261938 1
gene 1 6 17 1.30422 0 6 1.30422 1
gene 2 7 17 0.47676 0 7 0.47676 1
gene 3 8 17 0.11385 0 8 0.11385 1
gene 1 9 17 0.886464 0 9 0.886464 1
gene 2 10 17 -1.75029 0 10 -1.75029 1
gene 1 11 17 0.00784314 0 11 0.00784314 1
gene 1 12 17 4.3246 0 12 4.3246 1
gene 3 13 17 -0.575419 0 13 -0.575419 1
gene 2 14 17 2.60544 0 14 2.60544 1
gene 2 15 17 1.68634 0 15 1.68634 0
gene 2 16 17 0.00415591 0 16 0.00415591 1
gene 1 1 18 0.546121 0 17 0.546121 1
gene 3 2 18 1.28144 0 18 1.28144 1
gene 3 3 18 -0.61402 0 19 -0.61402 1
gene 1 4 18 -0.34345 0 20 -0.34345 1
gene 3 5 18 -1.49047 0 21 -1.49047 1
gene 1 6 18 -7.35635 0 22 -7.35635 1
gene 1 7 18 -3.04722 0 23 -3.04722 1
gene 3 8 18 -1.59623 0 24 -1.59623 0
gene 2 9 18 -0.55225 0 25 -0.55225 1
gene 1 10 18 0.240938 0 26 0.240938 1
gene 3 11 18 0.945904 0 27 0.945904 1
gene 2 12 18 1.78306 0 28 1.78306 0
gene 1 13 18 -1.4042 0 29 -1.4042 1
gene 2 14 18 0.0405836 0 30 0.0405836 1
gene 3 15 18 -1.75501 0 31 -1.75501 1
gene 2 16 18 -2.07177 0 32 -2.07177 1
gene 2 12 19 0.537449 0 33 0.537449 0
gene 2 19 18 -1.21809 0 34 -1.21809 1
gene 2 4 21 2.09035 0 41 2.09035 1
gene 2 21 17 -0.0866681 0 42 -0.0866681 1
gene 3 15 21 -0.729856 0 52 -0.729856 1
gene 2 12 24 0.0601352 0 55 0.0601352 1
gene 2 24 19 0.564207 0 56 0.564207 1
gene 1 6 21 0.63107 0 123 0.63107 1
gene 2 15 42 0.156783 0 152 0.156783 1
gene 2 42 17 0.437816 0 153 0.437816 1
gene 2 11 24 0.868239 0 312 0.868239 1
gene 3 8 86 -0.808824 0 446 -0.808824 1
gene 3 86 18 0.163355 0 447 0.163355 1
gene 2 14 19 1.04955 0 494 1.04955 1
gene 1 21 19 0.0983707 0 501 0.0983707 1
gene 1 13 19 -0.284275 0 817 -0.284275 1
gene 2 9 19 -1.03001 0 894 -1.03001 1
genomeend 1
