genomestart 1
trait 1 0 0 0 0.599335 0 0.997212 0.095571 0.585176 
trait 2 0.548026 0.985077 0.870534 0.528602 0.00201603 0.228674 0 0.00786609 
trait 3 0.420466 0.0272085 0.122613 0.143633 0.0904307 0.173506 0 0.36119 
node 1 3 1 3
node 2 3 1 1
node 3 1 1 1
node 4 3 1 1
node 5 1 1 1
node 6 3 1 1
node 7 3 1 1
node 8 1 1 1
node 9 2 1 1
node 10 1 1 1
node 11 1 1 1
node 12 2 1 1
node 13 2 1 1
node 14 1 1 1
node 15 3 1 1
node 16 1 1 1
node 17 1 0 2
node 18 3 0 2
node 40 1 0 0
node 74 2 0 0
node 76 1 0 0
node 86 1 0 0
node 109 1 0 0
node 135 1 0 0
node 168 2 0 0
node 170 1 0 0
node 332 1 0 0
gene 2 1 17 1.43665 0 1 1.43665 1
gene 3 2 17 1.0423 0 2 1.0423 1
gene 2 3 17 0.670726 0 3 0.670726 1
gene 1 4 17 0.574721 0 4 0.574721 1
gene 3 5 17 2.19561 0 5 2.19561 1
gene 1 6 17 0.670031 0 6 0.670031 1
gene 3 7 17 -2.22674 0 7 -2.22674 1
gene 3 8 17 -0.898039 0 8 -0.898039 1
gene 1 9 17 0.664285 0 9 0.664285 1
gene 3 10 17 2.93678 0 10 2.93678 1
gene 1 11 17 -2.04822 0 11 -2.04822 1
gene 2 12 17 -4.23278 0 12 -4.23278 0
gene 2 13 17 -0.869741 0 13 -0.869741 1
gene 1 14 17 -0.527226 0 14 -0.527226 1
gene 1 15 17 3.07221 0 15 3.07221 1
gene 3 16 17 4.14905 0 16 4.14905 1
gene 3 1 18 0.0506445 0 17 0.0506445 1
gene 3 2 18 0.331806 0 18 0.331806 1
gene 1 3 18 0.555048 0 19 0.555048 1
gene 3 4 18 0.843089 0 20 0.843089 1
gene 3 5 18 -5.07485 0 21 -5.07485 1
gene 2 6 18 -7.3931 0 22 -7.3931 1
gene 2 7 18 -0.641768 0 23 -0.641768 1
gene 1 8 18 -1.79303 0 24 -1.79303 1
gene 3 9 18 -5.16025 0 25 -5.16025 1
gene 3 10 18 -0.343876 0 26 -0.343876 1
gene 3 11 18 1.47054 0 27 1.47054 1
gene 1 12 18 0.221434 0 28 0.221434 1
gene 1 13 18 -0.925112 0 29 -0.925112 1
gene 3 14 18 0.403318 0 30 0.403318 1
gene 3 15 18 -3.77513 0 31 -3.77513 1
gene 2 16 18 -1.6185 0 32 -1.6185 1
gene 2 17 17 0.0862105 1 38 0.0862105 1
gene 1 18 18 0.391978 1 98 0.391978 1
gene 3 14 40 -0.827125 0 227 -0.827125 1
gene 1 40 18 -0.401073 0 228 -0.401073 1
gene 3 3 40 -1.73233 0 362 -1.73233 1
gene 2 40 17 3.54489 0 390 3.54489 1
gene 1 14 74 -0.847938 0 519 -0.847938 1
gene 1 74 17 2.31265 0 520 2.31265 1
gene 3 14 76 -0.340928 0 552 -0.340928 1
gene 3 76 40 -0.148704 0 553 -0.148704 1
gene 3 76 76 0.837548 1 632 0.837548 1
gene 3 16 86 2.01963 0 661 2.01963 1
gene 2 86 17 1.7363 0 662 1.7363 1
gene 3 3 86 3.1933 0 690 3.1933 1
gene 3 9 76 -1.56407 0 830 -1.56407 1
gene 2 74 74 0.434523 1 896 0.434523 1
gene 1 11 109 0.418206 0 913 0.418206 1
gene 1 109 17 -0.0907759 0 914 -0.0907759 0
gene 3 10 40 -0.76328 0 943 -0.76328 1
gene 2 12 76 1.52987 0 969 1.52987 1
gene 3 109 109 -0.207444 1 1113 -0.207444 1
gene 3 11 40 0.228698 0 1129 0.228698 1
gene 2 15 74 -1.13615 0 1239 -1.13615 1
gene 3 109 135 0.812517 1 1254 0.812517 1
gene 3 135 109 0.163802 0 1255 0.163802 1
gene 3 12 86 0.64958 0 1276 0.64958 1
gene 2 13 135 -2.75411 0 1565 -2.75411 1
gene 1 11 168 -2.7072 0 1650 -2.7072 1
gene 1 168 109 1.28596 0 1651 1.28596 1
gene 3 16 74 0.268818 0 1670 0.268818 1
gene 1 14 170 0.0822595 0 1681 0.0822595 1
gene 1 170 17 -1.36339 0 1682 -1.36339 0
gene 3 13 109 -1.42869 0 1969 -1.42869 1
gene 2 170 170 0.383102 1 2022 0.383102 0
gene 1 86 86 -0.171479 1 2080 -0.171479 1
gene 2 168 168 -0.973375 1 2167 -0.973375 1
gene 2 40 170 -0.78596 0 2181 -0.78596 1
gene 2 40 168 3.09428 0 2194 3.09428 1
gene 3 170 18 -1.3527 0 2279 -1.3527 1
gene 2 135 135 0.965342 1 2537 0.965342 0
gene 2 2 74 -0.185535 0 2706 -0.185535 1
gene 1 10 74 0.794371 0 2783 0.794371 1
gene 1 40 76 0.521271 1 2838 0.521271 1
gene 2 40 86 -1.20504 0 2874 -1.20504 1
gene 1 7 40 -0.755224 0 2898 -0.755224 1
gene 1 11 76 0.416007 0 2927 0.416007 1
gene 1 1 168 -0.0403231 0 2995 -0.0403231 1
gene 2 40 40 0.439145 1 3231 0.439145 1
gene 2 14 168 -1.12545 0 3359 -1.12545 1
gene 3 12 332 0.487897 0 3557 0.487897 1
gene 3 332 86 -0.0788782 0 3558 -0.0788782 1
gene 1 74 135 0.119616 0 3647 0.119616 1
gene 2 170 332 1.54787 0 3680 1.54787 1
gene 2 5 170 0.268731 0 3719 0.268731 1
gene 1 8 109 0.330335 0 4030 0.330335 1
gene 3 135 170 0.194141 0 4053 0.194141 1
gene 2 332 332 0.245585 1 4080 0.245585 1
gene 3 15 332 -0.181742 0 4257 -0.181742 1
gene 2 332 135 -0.97007 1 4494 -0.97007 1
gene 3 15 109 -0.599346 0 4893 -0.599346 1
genomeend 1
