genomestart 1
trait 1 0.0553497 0.319205 0.77529 0.259095 0.0325986 0.809558 0.398717 0.178964 
trait 2 0.74803 1 0.38828 0.967565 0.0880723 0 0.901574 0.0982736 
trait 3 0.757372 0.15256 0.600672 0.756146 0.547414 0.106068 0.0702787 0.425041 
node 1 1 1 3
node 2 2 1 1
node 3 2 1 1
node 4 3 1 1
node 5 3 1 1
node 6 1 1 1
node 7 2 1 1
node 8 3 1 1
node 9 3 1 1
node 10 1 1 1
node 11 1 1 1
node 12 2 1 1
node 13 3 1 1
node 14 3 1 1
node 15 3 1 1
node 16 1 1 1
node 17 2 0 2
node 18 1 0 2
node 60 3 0 0
node 99 3 0 0
node 183 1 0 0
node 219 2 0 0
node 226 3 0 0
node 336 1 0 0
node 363 1 0 0
node 370 2 0 0
node 435 1 0 0
node 456 1 0 0
node 460 1 0 0
node 474 1 0 0
node 478 1 0 0
node 503 1 0 0
node 686 1 0 0
node 712 1 0 0
node 807 1 0 0
gene 3 1 17 -1.72694 0 1 -1.72694 1
gene 2 2 17 -1.3317 0 2 -1.3317 1
gene 1 3 17 0.594208 0 3 0.594208 1
gene 2 4 17 3.39889 0 4 3.39889 1
gene 3 5 17 0.668158 0 5 0.668158 1
gene 2 6 17 -0.865299 0 6 -0.865299 1
gene 3 7 17 -1.19542 0 7 -1.19542 1
gene 2 8 17 -1.52278 0 8 -1.52278 1
gene 3 9 17 -1.44417 0 9 -1.44417 1
gene 2 10 17 0.584068 0 10 0.584068 1
gene 3 11 17 -0.890117 0 11 -0.890117 1
gene 3 12 17 5.45833 0 12 5.45833 1
gene 2 13 17 2.53393 0 13 2.53393 1
gene 2 14 17 -1.83712 0 14 -1.83712 1
gene 2 15 17 0.0388349 0 15 0.0388349 1
gene 3 16 17 -1.04741 0 16 -1.04741 1
gene 1 1 18 -0.187695 0 17 -0.187695 1
gene 2 2 18 -3.99466 0 18 -3.99466 1
gene 3 3 18 0.771976 0 19 0.771976 1
gene 1 4 18 -1.59691 0 20 -1.59691 1
gene 1 5 18 0.887558 0 21 0.887558 1
gene 1 6 18 -1.83682 0 22 -1.83682 1
gene 2 7 18 -1.30354 0 23 -1.30354 1
gene 2 8 18 2.3853 0 24 2.3853 1
gene 2 9 18 6.95669 0 25 6.95669 1
gene 1 10 18 6.93755 0 26 6.93755 1
gene 1 11 18 2.0535 0 27 2.0535 1
gene 3 12 18 2.78881 0 28 2.78881 1
gene 1 13 18 1.96698 0 29 1.96698 1
gene 1 14 18 -0.553687 0 30 -0.553687 1
gene 1 15 18 -2.35923 0 31 -2.35923 1
gene 1 16 18 -2.9161 0 32 -2.9161 1
gene 2 17 17 1.45943 1 55 1.45943 1
gene 2 11 60 1.12552 0 358 1.12552 1
gene 2 60 17 -0.463767 0 359 -0.463767 1
gene 2 6 60 -1.95482 0 522 -1.95482 1
gene 3 15 60 1.43035 0 691 1.43035 1
gene 1 17 18 -0.475585 0 757 -0.475585 1
gene 3 18 18 1.17434 1 772 1.17434 1
gene 2 4 60 -0.405668 0 849 -0.405668 1
gene 1 60 99 -0.0951228 0 908 -0.0951228 1
gene 1 99 17 -0.48047 0 909 -0.48047 1
gene 2 60 60 -2.64667 1 995 -2.64667 1
gene 2 14 60 -1.63633 0 1217 -1.63633 1
gene 1 99 99 -0.39333 1 1259 -0.39333 1
gene 2 18 99 1.2401 1 1610 1.2401 1
gene 3 7 99 -0.258345 0 1628 -0.258345 1
gene 2 9 60 -0.259825 0 2042 -0.259825 0
gene 3 10 60 2.32464 0 2070 2.32464 1
gene 2 9 99 -1.24674 0 2107 -1.24674 1
gene 2 13 99 -0.604601 0 2207 -0.604601 1
gene 2 1 99 -0.129926 0 2215 -0.129926 1
gene 2 17 99 -1.03342 1 2229 -1.03342 1
gene 1 15 99 2.30372 0 2237 2.30372 1
gene 1 8 99 0.871135 0 2411 0.871135 1
gene 3 7 60 -0.335923 0 2467 -0.335923 1
gene 1 16 99 3.1396 0 2485 3.1396 1
gene 2 13 60 -0.637974 0 2913 -0.637974 1
gene 1 60 18 -1.85124 0 2929 -1.85124 1
gene 3 12 99 1.58861 0 2949 1.58861 1
gene 2 60 183 -2.24023 0 2989 -2.24023 1
gene 1 183 17 -0.271351 0 2990 -0.271351 1
gene 3 17 183 0.566105 1 3036 0.566105 1
gene 1 183 183 0.946125 1 3085 0.946125 1
gene 2 13 183 -0.581829 0 3247 -0.581829 1
gene 1 11 183 0.351277 0 3276 0.351277 0
gene 2 2 183 -0.888527 0 3312 -0.888527 1
gene 1 7 183 1.61458 0 3344 1.61458 1
gene 2 17 60 2.45812 1 3382 2.45812 1
gene 2 183 219 1.94121 0 3425 1.94121 1
gene 3 219 17 0.0673239 0 3426 0.0673239 1
gene 2 60 226 -0.0167721 0 3530 -0.0167721 1
gene 2 226 99 -0.959789 0 3531 -0.959789 1
gene 3 1 219 -0.180901 0 3572 -0.180901 1
gene 3 226 226 0.425717 1 3700 0.425717 1
gene 3 8 219 0.925729 0 3731 0.925729 1
gene 3 2 219 -0.541818 0 3774 -0.541818 1
gene 1 7 226 -2.86676 0 3792 -2.86676 1
gene 3 3 99 -1.38917 0 3808 -1.38917 1
gene 3 226 183 -0.287957 0 4030 -0.287957 1
gene 1 10 183 0.634979 0 4214 0.634979 1
gene 2 99 219 -1.46706 0 4524 -1.46706 1
gene 3 11 219 1.45124 0 4535 1.45124 0
gene 1 16 226 0.415996 0 4563 0.415996 1
gene 1 15 183 0.434864 0 4719 0.434864 1
gene 1 15 219 3.70114 0 4735 3.70114 1
gene 2 13 336 2.34713 0 4752 2.34713 1
gene 2 336 18 -0.340267 0 4753 -0.340267 1
gene 1 1 60 -1.50964 0 4815 -1.50964 1
gene 1 336 60 1.78492 0 4843 1.78492 1
gene 3 5 219 1.02434 0 4857 1.02434 1
gene 3 10 219 -0.378038 0 5070 -0.378038 1
gene 1 13 363 -1.06152 0 5088 -1.06152 1
gene 1 363 336 -2.04902 0 5089 -2.04902 1
gene 2 13 219 2.54171 0 5143 2.54171 1
gene 3 18 363 2.37317 1 5378 2.37317 1
gene 1 8 336 -2.51364 0 5395 -2.51364 1
gene 1 8 183 0.177355 0 5511 0.177355 1
gene 2 363 17 -2.08327 0 5522 -2.08327 1
gene 3 219 219 -0.366457 1 6022 -0.366457 1
gene 3 1 226 -0.994375 0 6255 -0.994375 1
gene 1 2 60 1.90589 0 6288 1.90589 1
gene 2 10 370 1.13842 0 6327 1.13842 1
gene 2 370 17 -0.53254 0 6328 -0.53254 1
gene 3 16 336 -0.934409 0 6409 -0.934409 1
gene 2 11 370 1.22144 0 6655 1.22144 1
gene 3 6 226 -1.25493 0 6678 -1.25493 1
gene 1 3 219 -2.67516 0 6817 -2.67516 1
gene 3 11 435 -0.0229526 0 7036 -0.0229526 1
gene 3 435 219 2.18744 0 7037 2.18744 1
gene 2 370 370 -0.426048 1 7052 -0.426048 1
gene 1 4 226 -0.0436706 0 7156 -0.0436706 1
gene 2 10 456 -0.78446 0 7289 -0.78446 1
gene 2 456 370 -0.194495 0 7290 -0.194495 1
gene 2 10 460 1.18241 0 7314 1.18241 1
gene 2 460 456 2.57299 0 7315 2.57299 1
gene 3 99 183 -1.359 0 7332 -1.359 1
gene 2 336 336 -0.0502791 1 7465 -0.0502791 1
gene 3 2 474 -0.359499 0 7500 -0.359499 1
gene 3 474 219 0.405323 0 7501 0.405323 1
gene 3 435 435 -0.420872 1 7525 -0.420872 1
gene 3 10 478 0.326094 0 7579 0.326094 1
gene 3 478 219 -1.09645 0 7580 -1.09645 1
gene 3 336 460 -0.074744 0 7727 -0.074744 1
gene 3 456 456 0.313665 1 7802 0.313665 1
gene 1 474 474 -0.293041 1 7819 -0.293041 1
gene 2 12 183 1.20707 0 7899 1.20707 1
gene 3 99 435 -0.693084 0 7974 -0.693084 1
gene 3 12 503 0.0795186 0 8000 0.0795186 1
gene 3 503 18 0.326372 0 8001 0.326372 1
gene 3 503 336 0.386009 0 8024 0.386009 1
gene 3 363 363 -0.678454 1 8135 -0.678454 1
gene 1 474 460 0.207881 0 8310 0.207881 1
gene 2 219 226 1.21434 1 8539 1.21434 1
gene 1 15 370 -0.378586 0 8580 -0.378586 1
gene 3 7 336 0.178039 0 9245 0.178039 1
gene 1 5 183 0.363277 0 9284 0.363277 1
gene 1 2 226 -0.887133 0 9409 -0.887133 1
gene 2 5 474 -0.457576 0 9429 -0.457576 1
gene 2 7 474 0.393465 0 9494 0.393465 1
gene 1 478 478 -0.00454156 1 9522 -0.00454156 0
gene 1 460 370 0.857419 0 9584 0.857419 1
gene 3 7 460 0.498973 0 9753 0.498973 1
gene 3 226 370 -0.136403 0 9776 -0.136403 1
gene 3 435 474 0.564388 0 9820 0.564388 1
gene 2 16 478 0.700254 0 10215 0.700254 1
gene 1 478 686 0.911549 1 10239 0.911549 1
gene 1 686 478 -0.487748 0 10240 -0.482911 1
gene 1 478 370 -1.11744 0 10627 -1.11744 1
gene 2 13 712 -0.077891 0 10638 -0.241953 1
gene 2 712 183 -0.533637 0 10639 -0.533637 1
gene 2 226 456 -0.959249 0 10855 -0.959249 1
gene 2 99 456 -0.0875798 0 10865 -0.0875798 1
gene 2 18 183 -0.310474 1 11165 -0.310474 1
gene 2 6 478 -0.358066 0 11239 -0.358066 1
gene 1 11 807 1 0 11685 0 1
gene 1 807 183 0.351277 0 11686 0 1
genomeend 1
