genomestart 1
trait 1 0.812003 0.238325 0 0 0 0.268934 0.624134 0.323314 
trait 2 0 1 0 1 0.637731 0.906613 0.838097 0.619848 
trait 3 0 0.17046 0 0.791655 0.251732 0 0 0.576697 
node 1 3 1 3
node 2 1 1 1
node 3 2 1 1
node 4 1 1 1
node 5 1 1 1
node 6 3 1 1
node 7 1 1 1
node 8 2 1 1
node 9 1 1 1
node 10 3 1 1
node 11 3 1 1
node 12 2 1 1
node 13 2 1 1
node 14 1 1 1
node 15 1 1 1
node 16 3 1 1
node 17 2 0 2
node 18 3 0 2
nodegru 28 0 1.04305 -0.652214 0.226263 -0.261733 -0.24893 -1.20091 [ 0.84923 -0.582425 1.15894 0.342493 0.0436209 ] [ -0.046066 0.341942 -0.202568 -0.235033 -0.940964 ] [ 0.377124 0.628815 0.207217 -0.520399 -0.576643 ]
node 41 1 0 0
nodegru 42 0 0.805271 1.49482 0.623777 -0.519999 0.882441 1.09307 [ -0.195732 -0.302564 0.512665 -0.55616 0.776745 ] [ -1.16546 0.876444 0.945455 -1.09909 -0.251331 ] [ -0.711646 -0.0569172 -0.258693 -0.481687 0 ]
nodegru 66 0 0.453965 0.638085 -1.36977 1.77689 -0.361145 0.185692 [ 0.987152 -0.137946 0.275418 0 ] [ -0.13397 -0.666729 -1.2944 0.319984 ] [ 0.859638 1.84262 -0.0926501 0.452683 ]
node 70 2 0 0
nodegru 94 0 -0.0671004 0 0.917586 -0.414463 0.950591 -0.156062 [ -1.02709 ] [ -0.0473744 ] [ -0.253268 ]
nodegru 108 0 -1.03774 -0.515581 0.0841167 0.704863 0.470385 -0.369816 [ 1.14746 0 ] [ 0.533377 0 ] [ -1.00982 0.22859 ]
node 162 1 0 0
nodegru 208 0 -0.653741 1.11802 0 -0.883265 -0.155392 -0.156934 [ -0.546289 ] [ 0.438052 ] [ 0.146242 ]
node 232 1 0 0
node 237 1 0 0
node 259 1 0 0
node 269 1 0 0
gene 2 1 17 0.244151 0 1 0.244151 1
gene 1 2 17 1.09944 0 2 1.09944 1
gene 2 3 17 0.987214 0 3 0.987214 1
gene 3 4 17 0.501305 0 4 0.501305 1
gene 2 5 17 -1.52389 0 5 -1.52389 1
gene 2 6 17 -6.14482 0 6 -6.14482 1
gene 1 7 17 1.07731 0 7 1.07731 1
gene 3 8 17 2.02847 0 8 2.02847 1
gene 1 9 17 0.570739 0 9 0.570739 1
gene 3 10 17 -0.595266 0 10 -0.595266 1
gene 3 11 17 -0.878758 0 11 -0.878758 1
gene 1 12 17 -5.70263 0 12 -5.70263 1
gene 3 13 17 0.587728 0 13 0.587728 0
gene 1 14 17 -2.55239 0 14 -2.55239 1
gene 1 15 17 -7.59436 0 15 -7.59436 1
gene 1 16 17 -2.07103 0 16 -2.07103 1
gene 1 1 18 0.721948 0 17 0.721948 1
gene 1 2 18 1.80007 0 18 1.80007 1
gene 3 3 18 1.53632 0 19 1.53632 0
gene 2 4 18 5.17374 0 20 5.17374 0
gene 2 5 18 -0.244787 0 21 -0.244787 1
gene 2 6 18 0.259819 0 22 0.259819 0
gene 3 7 18 -0.305189 0 23 -0.305189 1
gene 1 8 18 -3.34248 0 24 -3.34248 1
gene 1 9 18 2.36407 0 25 2.36407 1
gene 3 10 18 1.45446 0 26 1.45446 0
gene 1 11 18 0.0433892 0 27 0.0433892 1
gene 2 12 18 0.881187 0 28 0.881187 1
gene 1 13 18 -2.11388 0 29 -2.11388 1
gene 1 14 18 1.53838 0 30 1.53838 0
gene 2 15 18 1.81619 0 31 1.81619 1
gene 1 16 18 0.718029 0 32 0.718029 1
gene 3 13 28 1.25124 0 87 1.25124 1
gene 3 28 17 -1.36833 0 88 -1.36833 1
gene 2 4 41 -1.05262 0 158 -1.05262 1
gene 2 41 18 -1.88571 0 159 -1.88571 0
gene 2 41 42 -4.78046 0 167 -4.78046 1
gene 2 42 18 3.79135 0 168 3.79135 1
gene 2 3 28 5.7217 0 311 5.7217 1
gene 3 10 66 1.96388 0 335 1.96388 0
gene 3 66 18 -0.465403 0 336 -0.465403 0
gene 2 6 70 -0.354415 0 347 -0.354415 1
gene 2 70 18 3.28785 0 348 3.28785 1
gene 1 16 66 1.08118 0 446 1.08118 0
gene 3 66 94 -0.0630204 0 506 -0.0630204 1
gene 3 94 18 -1.72138 0 507 -1.72138 0
gene 3 10 108 -1.25855 0 616 -1.25855 1
gene 3 108 66 0.819357 0 617 0.819357 1
gene 2 2 70 -1.30619 0 667 -1.30619 1
gene 3 6 42 -0.476449 0 764 -0.476449 1
gene 2 15 42 -0.169755 0 908 -0.169755 0
gene 3 66 41 -0.112643 0 1013 -0.112643 0
gene 2 6 66 -5.09957 0 1043 -5.09957 1
gene 1 14 162 2.50524 0 1076 2.50524 1
gene 1 162 18 0.916938 0 1077 0.916938 1
gene 2 94 28 0.936426 0 1163 0.936426 1
gene 2 94 42 1.37813 0 1215 1.37813 1
gene 3 9 28 -0.608482 0 1216 -0.608482 1
gene 1 9 162 0.497266 0 1402 0.497266 1
gene 3 14 66 2.71497 0 1411 2.71497 1
gene 3 94 208 2.79233 0 1426 2.79233 1
gene 3 208 18 0.154143 0 1427 0.154143 1
gene 2 66 28 -0.250663 0 1586 -0.250663 1
gene 2 4 162 1.48898 0 1617 1.48898 1
gene 3 66 232 1.11959 0 1628 1.11959 1
gene 3 232 41 1.32582 0 1629 1.32582 1
gene 2 18 18 0.044485 1 1679 0.044485 1
gene 3 70 232 1.16944 0 1697 1.16944 1
gene 2 15 237 -0.47198 0 1713 -0.47198 1
gene 2 237 42 0.0249005 0 1714 0.0249005 1
gene 2 10 41 0.331104 0 1727 0.331104 1
gene 1 66 162 -0.0873075 0 1746 -0.0873075 1
gene 3 66 42 -0.705309 0 1748 -0.705309 1
gene 3 237 108 0.470264 0 1759 0.470264 1
gene 1 16 259 -0.0710436 0 1848 -0.0710436 1
gene 1 259 66 -0.46423 0 1849 -0.46423 1
gene 3 28 162 0.113462 0 1880 0.113462 1
gene 3 11 41 -0.218085 0 1902 -0.218085 1
gene 1 162 17 0.141792 0 1905 0.141792 1
gene 3 3 269 1.03809 0 1916 1.03809 1
gene 3 269 18 0.95075 0 1917 0.95075 1
gene 3 12 237 0.455615 0 2021 0.455615 1
gene 3 13 237 0.617875 0 2038 0.617875 1
genomeend 1
