genomestart 1
trait 1 1 0.516109 0 0.0178875 1 0.651977 0 0.589111 
trait 2 0.117073 0.0698266 0 0.702473 0.0707991 0 1 0.605119 
trait 3 0.3 0.72598 0.140936 0 0 0.443284 0 0 
node 1 3 1 3
node 2 2 1 1
node 3 3 1 1
node 4 1 1 1
node 5 3 1 1
node 6 3 1 1
node 7 2 1 1
node 8 1 1 1
node 9 2 1 1
node 10 3 1 1
node 11 3 1 1
node 12 3 1 1
node 13 3 1 1
node 14 3 1 1
node 15 3 1 1
node 16 3 1 1
node 17 2 0 2
node 18 1 0 2
node 21 1 0 0
node 58 1 0 0
nodegru 69 0 0.863594 -0.445221 -1.60571 1.37372 -0.778506 -0.366902 [ -1.68636 ] [ 0.94913 ] [ 0.0736646 ]
node 73 1 0 0
node 103 1 0 0
node 153 1 0 0
node 168 1 0 0
gene 2 1 17 1.02771 0 1 1.02771 1
gene 1 2 17 -0.253491 0 2 -0.253491 1
gene 2 3 17 0.83712 0 3 0.83712 1
gene 2 4 17 -0.784396 0 4 -0.784396 1
gene 3 5 17 -1.70065 0 5 -1.70065 1
gene 2 6 17 -2.67352 0 6 -2.67352 1
gene 3 7 17 3.02048 0 7 3.02048 0
gene 3 8 17 -1.73085 0 8 -1.73085 1
gene 3 9 17 1.68271 0 9 1.68271 1
gene 3 10 17 0.627749 0 10 0.627749 1
gene 1 11 17 0.514286 0 11 0.514286 1
gene 2 12 17 -2.5731 0 12 -2.5731 1
gene 3 13 17 -4.26745 0 13 -4.26745 1
gene 2 14 17 -4.23615 0 14 -4.23615 1
gene 2 15 17 -4.83944 0 15 -4.83944 1
gene 3 16 17 -3.08038 0 16 -3.08038 1
gene 3 1 18 -0.140299 0 17 -0.140299 1
gene 1 2 18 -1.9887 0 18 -1.9887 0
gene 2 3 18 0.0503626 0 19 0.0503626 1
gene 2 4 18 -0.155334 0 20 -0.155334 0
gene 1 5 18 1.14759 0 21 1.14759 1
gene 2 6 18 4.91379 0 22 4.91379 1
gene 1 7 18 -1.49764 0 23 -1.49764 0
gene 1 8 18 1.24795 0 24 1.24795 1
gene 1 9 18 -0.0758575 0 25 -0.0758575 1
gene 2 10 18 0.428413 0 26 0.428413 1
gene 1 11 18 -0.209395 0 27 -0.209395 1
gene 3 12 18 0.215997 0 28 0.215997 1
gene 1 13 18 0.545296 0 29 0.545296 0
gene 2 14 18 1.9987 0 30 1.9987 0
gene 3 15 18 -0.0324997 0 31 -0.0324997 1
gene 3 16 18 -1.57362 0 32 -1.57362 1
gene 3 2 21 0.722606 0 47 0.722606 1
gene 3 21 18 0.409308 0 48 0.409308 1
gene 1 3 21 0.140501 0 58 0.140501 1
gene 3 10 21 -0.671799 0 142 -0.671799 0
gene 3 14 21 1.20983 0 206 1.20983 1
gene 3 7 58 0.684131 0 260 0.684131 1
gene 3 58 17 -0.310837 0 261 -0.310837 1
gene 2 14 69 1.59695 0 319 1.59695 1
gene 2 69 18 -0.338645 0 320 -0.338645 1
gene 3 10 73 -0.889738 0 336 -0.889738 0
gene 3 73 21 -0.60005 0 337 -0.60005 1
gene 3 1 73 -2.59845 0 516 -2.59845 1
gene 3 10 103 0.0336965 0 555 0.0336965 1
gene 3 103 73 0.245648 0 556 0.245648 1
gene 2 3 58 -0.504376 0 640 -0.504376 1
gene 1 17 73 -0.546785 1 777 -0.546785 1
gene 2 3 73 0.616813 0 885 0.616813 1
gene 3 73 17 -0.430378 0 905 -0.430378 1
gene 1 13 153 1.17139 0 937 1.17139 1
gene 1 153 18 1.75809 0 938 1.75809 1
gene 3 153 73 -0.0739188 0 971 -0.0739188 1
gene 2 8 103 -0.00570627 0 1008 -0.00570627 1
gene 3 69 21 -0.222241 0 1038 -0.222241 1
gene 2 4 168 1.38113 0 1058 1.38113 1
gene 2 168 18 0.135442 0 1059 0.135442 1
gene 1 15 21 0.853839 0 1082 0.853839 1
gene 1 5 103 -1.19225 0 1090 -1.19225 1
gene 1 11 168 0.292987 0 1127 0.292987 1
gene 1 4 153 0.644233 0 1228 0.644233 1
gene 1 5 153 1.43555 0 1372 1.43555 1
gene 3 16 58 0.768404 0 1395 0.768404 1
genomeend 1
