genomestart 1
trait 1 0.136481 0.994783 1 0.211139 0.972684 0.871557 0 0.631022 
trait 2 0.162921 1 1 0.911338 0.770316 0 0.75149 0.372067 
trait 3 0 0.712966 0.857153 0.548769 0 0 0.577564 0 
node 1 1 1 3
node 2 1 1 1
node 3 3 1 1
node 4 1 1 1
node 5 3 1 1
node 6 2 1 1
node 7 2 1 1
node 8 1 1 1
node 9 1 1 1
node 10 3 1 1
node 11 2 1 1
node 12 3 1 1
node 13 1 1 1
node 14 3 1 1
node 15 3 1 1
node 16 2 1 1
node 17 1 0 2
node 18 3 0 2
nodegru 19 0 0.141651 -2.12804 1.49865 1.14086 0.283166 -1.89204 [ -0.0329089 4.35492 0.420017 1.43236 -0.24254 1.02118 1.19762 -0.19651 0.875119 0.317073 -1.50068 0 0.658301 0 ] [ 1.01763 -0.259549 2.62968 0.6157 -0.725513 0.31984 0.245243 0.579042 0.332552 -1.37107 -0.291205 0 0 0 ] [ -2.72646 -0.499096 -0.438151 -0.332709 0.477585 -2.10508 -1.5835 0.308813 -0.405932 0.601394 -0.634857 0 -0.616858 0.257953 ]
nodegru 55 0 -2.6819 1.30489 -0.637845 0.179635 -0.410766 0.916203 [ 0.55827 -0.489123 -0.172866 -1.4676 -0.236109 ] [ 0.294745 -0.201631 -0.581804 -0.0840116 0.41123 ] [ 0.852458 -0.901016 -0.839438 -1.13858 -0.234598 ]
nodegru 71 0 -1.55266 0.250963 -0.742174 -1.29248 0.739499 0.395381 [ -0.0933394 -0.110951 1.59664 -0.157452 -0.074576 -1.52528 0.13978 1.20247 0.693243 ] [ -0.669122 -0.352595 -0.872977 1.55533 -0.0163557 0.0418415 -0.336939 0.458407 -0.286787 ] [ 0.0405503 1.19853 -0.265429 0.679019 -1.06596 0.449242 0.328435 -0.111885 -0.493117 ]
nodegru 83 0 1.10423 -1.92228 -0.0814741 -0.57437 -0.96248 1.45399 [ -1.00114 1.01251 0.0911394 1.24594 -0.447895 0.358755 ] [ 1.24197 -0.0511884 0.590237 -1.49659 -1.12049 1.20902 ] [ -0.147749 -0.718823 -0.655263 0.654105 -0.991005 0.265307 ]
node 160 3 0 0
node 162 1 0 0
node 165 3 0 0
node 167 1 0 0
node 182 3 0 0
node 185 3 0 0
node 230 1 0 0
node 289 1 0 0
node 305 1 0 0
node 339 1 0 0
node 369 1 0 0
nodegru 418 0 -0.80638 0.112593 -0.538498 0.553049 -0.629734 0.666739 [ -0.706103 -0.0454266 ] [ -0.732901 0.0659685 ] [ 0.279484 -0.46285 ]
nodegru 439 0 0 0 0 0.51619 -0.266912 0.534039 [ -0.120261 ] [ -0.0932194 ] [ 0 ]
node 465 1 0 0
node 484 1 0 0
node 487 1 0 0
gene 3 1 17 5.65777 0 1 5.65777 1
gene 3 2 17 -3.83194 0 2 -3.83194 0
gene 2 3 17 2.1751 0 3 2.1751 1
gene 3 4 17 -1.11999 0 4 -1.11999 1
gene 1 5 17 2.09823 0 5 2.09823 1
gene 2 6 17 3.19363 0 6 3.19363 1
gene 1 7 17 7.30448 0 7 7.30448 1
gene 3 8 17 5.26188 0 8 5.26188 1
gene 2 9 17 5.96475 0 9 5.96475 1
gene 1 10 17 -0.0849398 0 10 -0.0849398 1
gene 1 11 17 1.78059 0 11 1.78059 0
gene 3 12 17 1.08465 0 12 1.08465 1
gene 3 13 17 1.38632 0 13 1.38632 1
gene 3 14 17 -0.794181 0 14 -0.794181 1
gene 2 15 17 -3.22566 0 15 -3.22566 1
gene 2 16 17 -2.5505 0 16 -2.5505 1
gene 2 1 18 5.15581 0 17 5.15581 1
gene 3 2 18 1.61276 0 18 1.61276 0
gene 2 3 18 1.11492 0 19 1.11492 1
gene 3 4 18 0.886051 0 20 0.886051 1
gene 1 5 18 -5.74458 0 21 -5.74458 1
gene 2 6 18 -6.91005 0 22 -6.91005 1
gene 2 7 18 -7.62044 0 23 -7.62044 1
gene 1 8 18 -0.728885 0 24 -0.728885 0
gene 1 9 18 -0.203907 0 25 -0.203907 0
gene 3 10 18 -1.66251 0 26 -1.66251 1
gene 3 11 18 3.54493 0 27 3.54493 1
gene 3 12 18 -2.10856 0 28 -2.10856 0
gene 1 13 18 2.75904 0 29 2.75904 1
gene 3 14 18 -4.16288 0 30 -4.16288 1
gene 2 15 18 -1.35054 0 31 -1.35054 1
gene 1 16 18 -2.07582 0 32 -2.07582 1
gene 3 8 19 1.73529 0 36 1.73529 0
gene 1 19 18 -2.89458 0 37 -2.89458 0
gene 2 3 19 0.665858 0 53 0.665858 1
gene 1 4 19 2.66885 0 91 2.66885 1
gene 1 5 19 -3.09801 0 141 -3.09801 0
gene 2 16 19 -4.425 0 158 -4.425 1
gene 2 1 19 3.95021 0 179 3.95021 1
gene 1 6 55 2.60105 0 244 2.60105 0
gene 2 55 18 1.53228 0 245 1.53228 1
gene 1 10 19 1.16354 0 258 1.16354 0
gene 1 6 71 -1.58567 0 345 -1.58567 1
gene 1 71 55 0.00133787 0 346 0.00133787 1
gene 1 12 19 0.283195 0 403 0.283195 1
gene 3 14 83 -0.254222 0 467 -0.254222 0
gene 3 83 17 -6.52907 0 468 -6.52907 1
gene 2 19 71 2.71623 0 529 2.71623 1
gene 3 17 17 -1.22137 1 593 -1.22137 1
gene 3 9 19 0.194883 0 605 0.194883 1
gene 3 14 71 1.38049 0 643 1.38049 1
gene 2 5 83 -3.88676 0 656 -3.88676 0
gene 1 83 71 -1.20585 0 744 -1.20585 0
gene 3 12 71 -0.303274 0 762 -0.303274 1
gene 3 13 83 0.429237 0 803 0.429237 0
gene 3 9 71 2.91643 0 869 2.91643 1
gene 3 1 55 0.613434 0 896 0.613434 1
gene 2 5 160 -0.0284112 0 938 -0.0284112 1
gene 2 160 83 3.80963 0 939 3.80963 1
gene 3 9 162 -0.508361 0 949 -0.508361 1
gene 3 162 19 5.50513 0 950 5.50513 1
gene 3 8 165 -5.60764 0 961 -5.60764 1
gene 1 165 19 -0.480387 0 962 -0.480387 1
gene 1 19 167 -1.53044 0 970 -1.53044 0
gene 1 167 18 2.52083 0 971 2.52083 1
gene 1 19 182 0.297927 0 1041 0.297927 1
gene 1 182 167 2.86385 0 1042 2.86385 1
gene 3 13 185 -0.834142 0 1049 -0.834142 1
gene 1 185 83 0.432757 0 1050 0.432757 1
gene 3 2 55 0.233086 0 1183 0.233086 1
gene 1 9 230 0.880402 0 1313 0.880402 1
gene 1 230 18 -1.1779 0 1314 -1.1779 1
gene 1 167 167 -2.07589 1 1423 -2.07589 1
gene 2 185 185 -0.939554 1 1439 -0.939554 1
gene 1 18 18 0.389439 1 1487 0.389439 1
gene 3 14 289 1.41271 0 1721 1.41271 1
gene 3 289 83 -2.27554 0 1722 -2.27554 1
gene 3 2 305 2.07156 0 1823 2.07156 1
gene 3 305 17 -0.731082 0 1824 -0.731082 1
gene 3 7 71 -2.73616 0 1859 -2.73616 1
gene 3 55 182 0.881668 0 1943 0.881668 1
gene 1 11 55 0.223191 0 2016 0.223191 1
gene 2 305 305 -2.16194 1 2020 -2.16194 1
gene 2 7 162 -2.41403 0 2034 -2.41403 1
gene 3 2 339 -0.103295 0 2065 -0.103295 1
gene 3 339 18 -3.04084 0 2066 -3.04084 1
gene 3 165 339 -1.29253 0 2161 -1.29253 1
gene 2 11 289 0.755809 0 2184 0.755809 1
gene 3 15 167 -0.880215 0 2201 -0.880215 0
gene 1 83 369 -0.328079 0 2310 -0.328079 1
gene 1 369 71 -1.98573 0 2311 -1.98573 1
gene 3 339 167 -1.33425 0 2381 -1.33425 1
gene 2 8 339 -0.55981 0 2395 -0.55981 0
gene 3 305 289 1.8014 0 2523 1.8014 1
gene 1 5 71 0.997167 0 2560 0.997167 1
gene 1 10 418 0.491308 0 2577 0.491308 1
gene 1 418 19 -0.566661 0 2578 -0.566661 1
gene 2 418 182 0.288501 0 2636 0.288501 1
gene 1 1 182 -0.498546 0 2678 -0.498546 1
gene 1 369 167 -2.48284 0 2733 -2.48284 1
gene 3 165 165 -0.153674 1 2741 -0.153674 1
gene 1 5 439 0.198672 0 2750 0.198672 1
gene 1 439 19 0.193451 0 2751 0.193451 1
gene 3 7 369 0.591214 0 2785 0.591214 1
gene 1 83 230 0.297543 0 2793 0.297543 1
gene 3 305 418 -0.0183826 0 2881 -0.0183826 1
gene 3 15 465 0.466817 0 2935 0.466817 1
gene 3 465 167 -0.507898 0 2936 -0.507898 1
gene 2 369 19 -0.564458 0 2953 -0.564458 1
gene 2 8 484 -2.56553 0 3121 -2.56553 1
gene 2 484 339 -0.221341 0 3122 -0.221341 1
gene 1 11 487 -0.107384 0 3130 -0.107384 1
gene 1 487 17 -0.203304 0 3131 -0.203304 1
gene 2 487 185 0.572046 0 3185 0.572046 1
gene 2 484 487 -0.313191 0 3191 -0.313191 1
gene 3 14 182 0.336188 0 3347 0.336188 1
gene 1 11 465 -0.171452 0 3544 -0.171452 1
gene 2 19 484 -0.0605065 1 3609 -0.0605065 1
genomeend 1
