genomestart 1
trait 1 0 0 0 1 0.160985 0.797012 0 1 
trait 2 0.143976 0.459631 0.305269 0.381994 1 1 0.43241 0 
trait 3 1 0 0.320067 0.0631349 0 0.84629 0 1 
node 1 3 1 3
node 2 1 1 1
node 3 3 1 1
node 4 3 1 1
node 5 1 1 1
node 6 3 1 1
node 7 2 1 1
node 8 1 1 1
node 9 2 1 1
node 10 2 1 1
node 11 3 1 1
node 12 3 1 1
node 13 1 1 1
node 14 1 1 1
node 15 2 1 1
node 16 1 1 1
node 17 1 0 2
node 18 1 0 2
nodegru 20 0 0.458775 -1.10728 0.796847 -0.67977 0.0539408 0.129709 [ 1.7362 -0.731517 0.232248 -1.32338 -0.164674 1.13029 0.560981 -1.07766 0.624729 -1.31964 0.528969 ] [ -0.746972 -1.14472 0.653849 0.683948 0.533307 0.522396 0.643184 -1.78543 0.0328346 1.40468 -0.553313 ] [ -0.172611 -0.742437 -0.982042 -0.582179 -0.444085 -0.946887 -0.700435 -0.904519 0.73123 0.570234 0.0757492 ]
node 57 1 0 0
node 73 1 0 0
node 82 1 0 0
nodegru 114 0 0.297924 -0.43814 0.228482 0.455639 -0.0517581 -0.920937 [ -1.03913 -0.0132109 1.10508 ] [ -0.0382726 0.160784 -1.20864 ] [ 0.827379 1.74762 -0.702445 ]
nodegru 154 0 -0.316509 0.820952 1.45429 -1.34685 -1.69392 0.221392 [ 0.203159 0.343349 -0.343689 0.754869 ] [ -1.52032 -0.524787 -0.287813 -0.595408 ] [ -0.286109 0.185802 -0.815277 0 ]
nodegru 169 0 -0.626878 1.03598 0.203354 0.00519133 0.160132 -0.923216 [ -1.06886 ] [ -0.0584243 ] [ 0.225888 ]
nodegru 210 0 -0.257501 0.218787 -0.622276 -0.966385 1.11986 0.071714 [ -0.0649573 -0.679546 0 0 ] [ 0 -0.190818 0 0 ] [ -0.529359 -0.557993 0 0 ]
node 217 1 0 0
node 230 2 0 0
node 254 1 0 0
node 256 1 0 0
node 263 2 0 0
node 269 1 0 0
nodegru 297 0 0.499574 -0.841687 -0.23701 0.635067 0.657776 -1.218 [ -0.822922 0 ] [ -0.520897 0 ] [ 0.0235666 0 ]
nodegru 315 0 0.419625 1.3736 -0.724379 0.102686 1.09918 -0.498174 [ 0.00481795 -0.468118 ] [ 0.69997 0.111223 ] [ -0.607856 -0.718969 ]
node 346 1 0 0
node 350 1 0 0
node 356 1 0 0
nodegru 369 0 0.202742 0.0821958 -0.262169 0 0 0.288086 [ -0.368451 ] [ 0 ] [ 0.643038 ]
node 391 1 0 0
nodegru 404 0 0 0 0.734658 -0.393483 0 -0.424391 [ -0.10249 ] [ 0.610663 ] [ 0.299999 ]
nodegru 452 0 -0.711584 0.745619 0.0359096 0 0.00544644 0.626049 [ 0 ] [ 0.136812 ] [ 0.69929 ]
node 522 1 0 0
node 558 1 0 0
gene 1 1 17 0.664587 0 1 0.664587 1
gene 1 2 17 -0.858818 0 2 -0.858818 1
gene 2 3 17 2.51298 0 3 2.51298 1
gene 3 4 17 -0.431458 0 4 -0.431458 0
gene 3 5 17 -1.18531 0 5 -1.18531 1
gene 1 6 17 -0.965191 0 6 -0.965191 0
gene 1 7 17 7.48388 0 7 7.48388 1
gene 3 8 17 -0.82586 0 8 -0.82586 0
gene 3 9 17 -0.0568053 0 9 -0.0568053 1
gene 2 10 17 -0.895999 0 10 -0.895999 0
gene 2 11 17 0.0592816 0 11 0.0592816 0
gene 3 12 17 -0.312067 0 12 -0.312067 0
gene 3 13 17 2.52013 0 13 2.52013 1
gene 2 14 17 -1.95698 0 14 -1.95698 1
gene 1 15 17 -5.84471 0 15 -5.84471 1
gene 3 16 17 2.44302 0 16 2.44302 0
gene 1 1 18 -0.10665 0 17 -0.10665 1
gene 3 2 18 2.2786 0 18 2.2786 1
gene 3 3 18 0.515042 0 19 0.515042 1
gene 3 4 18 0.0766286 0 20 0.0766286 1
gene 1 5 18 -2.16296 0 21 -2.16296 1
gene 2 6 18 -6.15055 0 22 -6.15055 1
gene 3 7 18 -8 0 23 -8 1
gene 3 8 18 -0.00514714 0 24 -0.00514714 1
gene 2 9 18 -0.427507 0 25 -0.427507 1
gene 1 10 18 -4.6813 0 26 -4.6813 1
gene 2 11 18 1.00586 0 27 1.00586 1
gene 1 12 18 -1.66627 0 28 -1.66627 0
gene 1 13 18 -1.58319 0 29 -1.58319 1
gene 2 14 18 0.951246 0 30 0.951246 0
gene 2 15 18 2.15617 0 31 2.15617 0
gene 2 16 18 -2.44309 0 32 -2.44309 0
gene 1 6 20 0.350041 0 35 0.350041 1
gene 1 20 17 2.85287 0 36 2.85287 1
gene 3 5 20 -0.358323 0 45 -0.358323 1
gene 2 10 20 1.87437 0 51 1.87437 0
gene 3 3 20 -1.34754 0 136 -1.34754 1
gene 2 16 20 -3.72213 0 149 -3.72213 1
gene 2 12 57 1.34346 0 250 1.34346 0
gene 2 57 17 -0.251358 0 251 -0.251358 1
gene 3 2 20 -3.43487 0 257 -3.43487 1
gene 3 1 20 -1.35896 0 321 -1.35896 1
gene 3 10 57 3.08217 0 337 3.08217 0
gene 2 13 57 -4.91903 0 355 -4.91903 1
gene 2 57 18 1.71603 0 366 1.71603 1
gene 3 18 18 1.63933 1 367 1.63933 1
gene 3 5 73 -1.13484 0 386 -1.13484 0
gene 3 73 17 -0.529921 0 387 -0.529921 0
gene 2 11 82 -0.504109 0 425 -0.504109 0
gene 2 82 17 1.73554 0 426 1.73554 1
gene 3 9 20 0.263019 0 446 0.263019 1
gene 3 3 82 -0.271248 0 453 -0.271248 1
gene 2 14 73 -4.61885 0 501 -4.61885 1
gene 2 10 114 -0.340994 0 596 -0.340994 1
gene 3 114 20 0.830616 0 597 0.830616 0
gene 1 1 114 0.559943 0 643 0.559943 1
gene 3 11 114 -0.249812 0 679 -0.249812 1
gene 2 73 73 0.377872 1 794 0.377872 1
gene 2 14 154 0.476218 0 887 0.476218 1
gene 2 154 18 -0.0331521 0 888 -0.0331521 0
gene 3 82 73 0.0595379 0 898 0.0595379 0
gene 3 5 169 0.758026 0 990 0.758026 1
gene 3 169 73 -2.15218 0 991 -2.15218 1
gene 3 18 17 -5.75177 1 1013 -5.75177 1
gene 3 17 17 6.11128 1 1024 6.11128 0
gene 1 4 154 0.0481403 0 1214 0.0481403 1
gene 2 10 210 -2.43191 0 1309 -2.43191 1
gene 2 210 17 0.00134487 0 1310 0.00134487 1
gene 2 16 217 3.58323 0 1345 3.58323 0
gene 2 217 18 -0.0985215 0 1346 -0.0985215 1
gene 2 154 230 -0.163815 0 1426 -0.163815 1
gene 2 230 18 1.96534 0 1427 1.96534 1
gene 1 12 254 -0.692565 0 1560 -0.692565 1
gene 2 254 57 -3.62023 0 1561 -3.62023 1
gene 3 15 256 0.328908 0 1581 0.328908 1
gene 2 256 18 1.7868 0 1582 1.7868 1
gene 3 82 263 -0.688321 0 1618 -0.688321 1
gene 3 263 73 -0.260136 0 1619 -0.260136 1
gene 3 11 269 2.47298 0 1633 2.47298 1
gene 3 269 82 0.485787 0 1634 0.485787 1
gene 2 73 256 -3.95071 0 1680 -3.95071 0
gene 2 256 256 -0.879615 1 1683 -0.879615 1
gene 1 5 263 2.08568 0 1783 2.08568 0
gene 3 5 297 -1.15988 0 1881 -1.15988 1
gene 1 297 263 4.11118 0 1882 4.11118 1
gene 2 82 217 0.379273 0 1984 0.379273 1
gene 2 169 154 2.08115 0 2002 2.08115 1
gene 1 7 57 -2.9921 0 2026 -2.9921 1
gene 1 12 315 -4.47897 0 2033 -4.47897 1
gene 1 315 18 -1.07542 0 2034 -1.07542 1
gene 1 15 20 0.0770904 0 2112 0.0770904 1
gene 2 263 210 0.786015 0 2180 0.786015 1
gene 3 17 346 -0.00864571 1 2248 -0.00864571 1
gene 3 346 17 -0.0978561 0 2249 -0.0978561 1
gene 2 73 350 0.657274 0 2263 0.657274 1
gene 2 350 256 -0.8414 0 2264 -0.8414 1
gene 3 16 356 2.74934 0 2315 2.74934 1
gene 3 356 17 1.71717 0 2316 1.71717 1
gene 2 16 369 -1.14592 0 2394 -1.14592 1
gene 2 369 217 0.0737695 0 2395 0.0737695 1
gene 1 7 350 0.128298 0 2406 0.128298 1
gene 1 230 82 0.460767 0 2544 0.460767 1
gene 3 114 391 -0.216639 0 2571 -0.216639 1
gene 3 391 20 -1.35466 0 2572 -1.35466 1
gene 2 369 18 1.80386 0 2599 1.80386 1
gene 3 10 404 -0.171898 0 2632 -0.171898 1
gene 3 404 57 0.339023 0 2633 0.339023 1
gene 2 16 154 -1.96396 0 2719 -1.96396 1
gene 3 5 254 -0.794708 0 2722 -0.794708 1
gene 2 391 391 -0.243519 1 2844 -0.243519 1
gene 3 4 452 -0.237177 0 2946 -0.237177 1
gene 3 452 17 -0.283103 0 2947 -0.283103 1
gene 1 15 263 0.10001 0 3174 0.10001 1
gene 3 210 315 -0.748223 0 3236 -0.748223 1
gene 3 8 522 -1.01568 0 3379 -1.01568 1
gene 3 522 17 0.782761 0 3380 0.782761 1
gene 2 82 254 0.574632 0 3522 0.574632 1
gene 2 154 210 -0.800434 0 3536 -0.800434 1
gene 1 11 210 0.486527 0 3581 0.486527 1
gene 2 391 18 -0.187683 0 3587 -0.187683 1
gene 3 230 230 1.15649 1 3617 1.15649 1
gene 3 73 558 1.43806 0 3622 1.43806 1
gene 3 558 17 -1.26859 0 3623 -1.26859 1
gene 2 369 350 -0.0393773 0 3646 -0.0393773 1
gene 3 13 297 0.89851 0 3739 0.89851 1
genomeend 1
