genomestart 1
trait 1 1 0.596029 0.977582 0 0.506051 0.749938 0.188657 0.181282 
trait 2 0.553622 0.541417 0.177966 0 0.409806 0.653385 0.587565 1 
trait 3 0 0 0 0.786181 0 0.59602 0 0.423033 
node 1 3 1 3
node 2 3 1 1
node 3 3 1 1
node 4 2 1 1
node 5 1 1 1
node 6 1 1 1
node 7 2 1 1
node 8 1 1 1
node 9 2 1 1
node 10 3 1 1
node 11 2 1 1
node 12 2 1 1
node 13 1 1 1
node 14 2 1 1
node 15 2 1 1
node 16 1 1 1
node 17 3 0 2
node 18 2 0 2
node 19 1 0 0
node 23 1 0 0
node 51 1 0 0
node 62 1 0 0
nodegru 78 0 0.313788 1.21206 -0.372066 -0.919537 0.410137 -1.08557 [ 0.732522 ] [ 1.89278 ] [ 0.944543 ]
node 194 1 0 0
nodegru 196 0 0.612836 -1.23204 0.283179 0.0469907 0.117423 -0.450074 [ 0.0478729 ] [ -0.122038 ] [ 0.513621 ]
node 201 1 0 0
gene 3 1 17 -0.71167 0 1 -0.71167 1
gene 2 2 17 1.74334 0 2 1.74334 1
gene 1 3 17 1.20524 0 3 1.20524 1
gene 1 4 17 -0.640241 0 4 -0.640241 0
gene 3 5 17 -2.50028 0 5 -2.50028 1
gene 2 6 17 -2.48856 0 6 -2.48856 1
gene 2 7 17 1.26439 0 7 1.26439 0
gene 3 8 17 -1.17223 0 8 -1.17223 1
gene 1 9 17 1.01646 0 9 1.01646 0
gene 2 10 17 -0.262986 0 10 -0.262986 1
gene 3 11 17 0.750375 0 11 0.750375 0
gene 2 12 17 -0.394708 0 12 -0.394708 1
gene 3 13 17 -0.727761 0 13 -0.727761 1
gene 3 14 17 -0.88159 0 14 -0.88159 1
gene 3 15 17 -2.69968 0 15 -2.69968 1
gene 2 16 17 -1.97206 0 16 -1.97206 1
gene 3 1 18 1.75197 0 17 1.75197 1
gene 2 2 18 -0.769035 0 18 -0.769035 1
gene 3 3 18 -0.266356 0 19 -0.266356 0
gene 2 4 18 0.678917 0 20 0.678917 1
gene 2 5 18 -0.374339 0 21 -0.374339 1
gene 3 6 18 0.555718 0 22 0.555718 1
gene 2 7 18 -1.51839 0 23 -1.51839 1
gene 3 8 18 -0.00532736 0 24 -0.00532736 1
gene 2 9 18 0.434819 0 25 0.434819 1
gene 1 10 18 0.311864 0 26 0.311864 1
gene 2 11 18 -1.2186 0 27 -1.2186 1
gene 3 12 18 2.83552 0 28 2.83552 1
gene 2 13 18 -0.155311 0 29 -0.155311 0
gene 2 14 18 0.482076 0 30 0.482076 0
gene 1 15 18 -0.117352 0 31 -0.117352 1
gene 1 16 18 -0.390477 0 32 -0.390477 1
gene 2 7 19 0.0984115 0 33 0.0984115 1
gene 2 19 17 -0.00863535 0 34 -0.00863535 1
gene 3 3 23 1.34971 0 57 1.34971 1
gene 1 23 18 0.0919068 0 58 0.0919068 1
gene 3 23 19 -0.593005 0 124 -0.593005 0
gene 2 15 19 -1.86631 0 156 -1.86631 1
gene 1 2 19 3.09026 0 184 3.09026 1
gene 1 18 18 -0.901727 1 199 -0.901727 1
gene 1 4 51 -0.836277 0 262 -0.836277 1
gene 1 51 17 -0.301363 0 263 -0.301363 1
gene 2 13 62 -0.92601 0 351 -0.92601 1
gene 2 62 18 -1.24948 0 352 -1.24948 1
gene 3 14 19 0.707303 0 365 0.707303 1
gene 2 9 51 0.389096 0 379 0.389096 1
gene 2 14 78 -0.862048 0 458 -0.862048 1
gene 2 78 18 -0.270766 0 459 -0.270766 1
gene 2 13 19 -0.0443482 0 509 -0.0443482 1
gene 2 23 17 -0.402754 0 534 -0.402754 1
gene 3 2 51 0.411249 0 557 0.411249 1
gene 1 9 23 -0.0354431 0 570 -0.0354431 1
gene 2 17 17 0.616307 1 606 0.616307 1
gene 1 2 62 -0.21641 0 691 -0.21641 1
gene 1 10 62 -0.0768361 0 760 -0.0768361 1
gene 1 19 19 0.863466 1 794 0.863466 1
gene 3 78 19 0.488706 0 852 0.488706 1
gene 1 13 51 -0.123534 0 874 -0.123534 1
gene 1 8 19 0.172666 0 917 0.172666 1
gene 1 18 19 0.0566219 1 1097 0.0566219 0
gene 3 62 17 0.620059 0 1103 0.620059 1
gene 1 18 194 1 1 1339 0 1
gene 1 194 19 0.0566219 0 1340 0 1
gene 3 23 196 1 0 1354 0 1
gene 3 196 19 -0.593005 0 1355 0 1
gene 3 11 201 1 0 1383 0 1
gene 3 201 17 0.750375 0 1384 0 1
gene 1 10 51 0.00444389 0 1413 0.00444389 1
gene 2 5 51 -0.921378 0 1454 -0.921378 1
genomeend 1
