genomestart 1
trait 1 0.649173 0.410931 0 0 1 1 0.794938 0 
trait 2 0.525052 0 0.586442 0 0.359531 0.102939 0.104729 0.594619 
trait 3 1 0 1 0 1 0 0 0 
node 1 1 1 3
node 2 2 1 1
node 3 2 1 1
node 4 2 1 1
node 5 3 1 1
node 6 1 1 1
node 7 2 1 1
node 8 1 1 1
node 9 1 1 1
node 10 2 1 1
node 11 2 1 1
node 12 3 1 1
node 13 3 1 1
node 14 3 1 1
node 15 2 1 1
node 16 1 1 1
node 17 2 0 2
node 18 2 0 2
node 21 3 0 0
node 26 3 0 0
nodegru 40 0 1.14016 -0.502098 -1.01381 -2.35179 0.0673202 0.496155 [ 3.25374 -0.842478 1.20746 1.43988 ] [ 3.95683 -0.0075315 0.82784 0.228986 ] [ 1.79495 0.37941 0.608005 -0.782623 ]
nodegru 59 0 -0.583556 0.244338 -1.33788 -0.405352 0.210784 -1.04141 [ -0.162234 0.550723 0.0828157 0.793975 -1.48694 1.09528 0.384663 -0.518901 0 ] [ 1.58179 0.917675 0.43714 -0.115264 -0.357204 -1.57518 -1.29283 -0.79437 0.706756 ] [ -0.165214 0.236197 -1.35656 0.585506 -0.575684 -0.0652275 -0.0365292 -0.00417913 0 ]
nodegru 80 0 0.618763 -0.085124 -1.27452 0.478869 0.316928 -1.32977 [ -0.285862 -0.411784 -0.583715 0.0958271 0.365453 1.53812 0.615403 0 ] [ 3.60056 0.590735 0.0190037 1.2454 -0.711421 -0.396657 -0.714434 0 ] [ 1.1122 -0.137488 0.44663 -0.16662 -1.18685 -1.58024 0.0886844 -0.623495 ]
node 94 3 0 0
node 157 1 0 0
node 185 1 0 0
node 229 1 0 0
node 230 1 0 0
node 240 1 0 0
node 274 1 0 0
node 293 3 0 0
nodegru 325 0 -0.559421 -0.313533 -0.138444 0.670554 0.597318 -0.414168 [ -0.792308 -0.481492 1.40998 ] [ 0.330601 -0.173409 0.837875 ] [ -1.1596 0.340683 0.794899 ]
nodegru 339 0 1.10669 -0.613983 -1.7692 -0.100401 -0.352925 0.415566 [ -0.00575837 -1.5309 0.304345 0.8067 -0.26057 ] [ 1.08073 1.56781 -0.148515 -1.38579 0.223826 ] [ -0.968381 -0.0207486 -0.0652595 0.0520685 -0.662101 ]
node 365 1 0 0
node 386 1 0 0
nodegru 420 0 0.878395 -0.882952 -1.07582 -0.752545 -0.180174 1.34426 [ -0.89179 0.996078 1.01942 -0.659344 -1.4679 -1.55783 -0.201947 -0.182614 0 ] [ 0.0189188 -1.15924 -0.0575582 -1.55503 -0.188751 0.813143 0 -0.267634 0 ] [ 0.0508787 0.104328 0.206584 0.489306 0.571702 1.26699 -0.683859 -0.644766 0 ]
node 463 3 0 0
node 476 1 0 0
node 506 1 0 0
node 512 3 0 0
node 544 1 0 0
node 576 1 0 0
nodegru 626 0 0.562288 -0.720188 0.297006 0.325518 0.185436 -0.360026 [ -0.0431883 ] [ 0 ] [ -0.694987 ]
nodegru 659 0 0 0 0 0 0 0 [ 0 ] [ 0 ] [ 0 ]
node 665 1 0 0
node 673 1 0 0
nodegru 676 0 0.0457177 0.602118 0 -0.329783 0.142121 0 [ 0.640837 0 ] [ 0 0 ] [ 0 0.0632437 ]
nodegru 718 0 0 -0.401572 -0.171908 0 0 -0.0742292 [ 0 -0.0285337 ] [ -0.255115 0.252225 ] [ 0 0 ]
node 748 2 0 0
nodegru 751 0 0 0 0.404957 0 0.508043 0 [ -0.148498 ] [ 0 ] [ 0 ]
nodegru 776 0 0.182462 -0.243175 0 0 -0.00503191 0 [ 0 ] [ 0 ] [ -0.238205 ]
node 808 1 0 0
nodegru 829 0 0.224417 0 0.229543 0 -0.465661 0.560424 [ 0 ] [ 0 ] [ 0 ]
gene 1 1 17 2.71955 0 1 2.71955 1
gene 2 2 17 -2.48793 0 2 -2.48793 1
gene 1 3 17 4.8841 0 3 4.8841 1
gene 2 4 17 1.06114 0 4 1.06114 1
gene 1 5 17 -1.92583 0 5 -1.92583 0
gene 2 6 17 0.0713891 0 6 0.0713891 0
gene 1 7 17 -1.66513 0 7 -1.66513 0
gene 2 8 17 3.10831 0 8 3.10831 1
gene 1 9 17 -0.418425 0 9 -0.418425 1
gene 1 10 17 -1.53345 0 10 -1.53345 0
gene 2 11 17 1.18234 0 11 1.18234 1
gene 3 12 17 4.6947 0 12 4.6947 0
gene 2 13 17 1.32038 0 13 1.32038 0
gene 3 14 17 -3.40846 0 14 -3.40846 1
gene 1 15 17 -8 0 15 -8 1
gene 1 16 17 0.172615 0 16 0.172615 1
gene 1 1 18 2.33382 0 17 2.33382 1
gene 1 2 18 -0.136847 0 18 -0.136847 1
gene 1 3 18 -0.489316 0 19 -0.489316 1
gene 2 4 18 1.7016 0 20 1.7016 1
gene 3 5 18 -4.68594 0 21 -4.68594 1
gene 1 6 18 -6.4149 0 22 -6.4149 1
gene 1 7 18 -5.57172 0 23 -5.57172 1
gene 2 8 18 0.0917385 0 24 0.0917385 1
gene 1 9 18 0.906078 0 25 0.906078 1
gene 3 10 18 -1.79752 0 26 -1.79752 0
gene 2 11 18 -1.85244 0 27 -1.85244 0
gene 2 12 18 5.58141 0 28 5.58141 0
gene 2 13 18 -0.484017 0 29 -0.484017 1
gene 3 14 18 -2.71008 0 30 -2.71008 1
gene 2 15 18 1.40801 0 31 1.40801 1
gene 2 16 18 -0.878068 0 32 -0.878068 1
gene 3 3 21 0.0562535 0 38 0.0562535 0
gene 3 21 17 0.897258 0 39 0.897258 1
gene 2 12 21 1.2165 0 68 1.2165 0
gene 2 13 26 4.18119 0 75 4.18119 0
gene 2 26 17 -2.36662 0 76 -2.36662 1
gene 2 13 40 -3.30721 0 188 -3.30721 0
gene 2 40 26 6.744 0 189 6.744 1
gene 2 9 21 1.60895 0 208 1.60895 0
gene 1 14 21 0.169145 0 215 0.169145 1
gene 3 12 59 1.9027 0 316 1.9027 0
gene 2 59 18 -0.540756 0 317 -0.540756 1
gene 2 26 59 -1.07134 0 346 -1.07134 1
gene 3 8 59 -0.171714 0 357 -0.171714 0
gene 1 40 21 1.99168 0 368 1.99168 0
gene 3 18 18 2.09651 1 380 2.09651 1
gene 2 9 80 1.27076 0 438 1.27076 0
gene 2 80 21 3.25039 0 439 3.25039 0
gene 3 8 40 -3.97385 0 464 -3.97385 1
gene 1 5 94 -0.254177 0 520 -0.254177 0
gene 1 94 17 -1.16365 0 521 -1.16365 1
gene 2 16 21 -3.82452 0 689 -3.82452 1
gene 1 9 40 0.405522 0 884 0.405522 1
gene 2 13 157 -1.67882 0 957 -1.67882 1
gene 3 157 40 -0.0839132 0 958 -0.0839132 1
gene 3 26 80 -4.89136 0 1069 -4.89136 1
gene 2 12 94 8 0 1112 8 1
gene 1 40 185 -0.328284 0 1119 -0.328284 1
gene 1 185 21 -7.49748 0 1120 -7.49748 1
gene 1 5 185 1.2025 0 1136 1.2025 1
gene 2 26 94 -2.45855 0 1207 -2.45855 1
gene 3 80 59 6.55548 0 1217 6.55548 1
gene 3 40 80 -1.80271 0 1246 -1.80271 1
gene 1 7 157 4.20751 0 1439 4.20751 1
gene 1 17 17 -2.75446 1 1456 -2.75446 1
gene 2 12 229 1.94155 0 1463 1.94155 1
gene 3 229 59 1.26188 0 1464 1.26188 1
gene 2 12 230 2.67277 0 1468 2.67277 0
gene 1 230 21 0.248685 0 1469 0.248685 0
gene 1 10 240 3.36808 0 1523 3.36808 1
gene 1 240 18 3.30238 0 1524 3.30238 0
gene 1 40 94 3.9856 0 1550 3.9856 1
gene 2 80 274 1.76037 0 1768 1.76037 1
gene 2 274 21 -3.4626 0 1769 -3.4626 1
gene 3 40 59 1.24065 0 1875 1.24065 1
gene 2 4 240 -1.41375 0 1882 -1.41375 1
gene 2 240 80 1.57669 0 1924 1.57669 1
gene 1 16 26 7.30842 0 1936 7.30842 1
gene 3 3 293 2.95938 0 1954 2.95938 1
gene 3 293 21 6.39409 0 1955 6.39409 1
gene 2 2 26 -1.85601 0 2039 -1.85601 1
gene 2 8 26 4.62593 0 2115 4.62593 0
gene 3 9 26 1.30716 0 2152 1.30716 1
gene 2 8 325 -2.03285 0 2224 -2.03285 0
gene 2 325 59 1.24735 0 2225 1.24735 1
gene 2 9 339 -3.07371 0 2313 -3.07371 0
gene 2 339 80 -3.46772 0 2314 -3.46772 0
gene 3 339 274 -4.42922 0 2344 -4.42922 1
gene 1 240 21 -3.66653 0 2404 -3.66653 1
gene 1 229 325 0.516791 0 2429 0.516791 1
gene 2 11 365 4.8903 0 2510 4.8903 1
gene 2 365 18 5.04135 0 2511 5.04135 0
gene 3 339 230 1.65857 0 2528 1.65857 1
gene 1 3 59 -1.73803 0 2553 -1.73803 1
gene 1 11 157 -0.108901 0 2637 -0.108901 1
gene 2 26 26 -0.648989 1 2667 -0.648989 0
gene 2 230 386 -1.34039 0 2673 -1.34039 1
gene 2 386 21 2.50222 0 2674 2.50222 0
gene 3 230 230 5.25788 1 2776 5.25788 1
gene 3 230 229 1.28436 0 2791 1.28436 1
gene 3 11 240 -6.01983 0 2797 -6.01983 1
gene 1 240 339 -6.73139 0 2845 -6.73139 1
gene 1 13 365 -1.93186 0 2859 -1.93186 1
gene 1 230 17 0.699571 0 2872 0.699571 1
gene 2 386 420 -1.23581 0 2947 -1.23581 0
gene 2 420 21 -2.5044 0 2948 -2.5044 1
gene 1 365 80 6.13233 0 3012 6.13233 0
gene 2 59 21 3.97004 0 3019 3.97004 1
gene 2 14 420 -0.0675527 0 3048 -0.0675527 1
gene 3 6 420 1.70078 0 3072 1.70078 1
gene 2 59 386 2.07931 0 3199 2.07931 1
gene 1 10 463 -4.24731 0 3228 -4.24731 1
gene 1 463 17 -1.1055 0 3229 -1.1055 1
gene 2 26 476 0.664649 1 3291 0.664649 1
gene 2 476 26 0.656943 0 3292 0.656943 1
gene 1 80 17 2.80792 0 3376 2.80792 1
gene 3 8 420 2.07612 0 3463 2.07612 1
gene 2 6 506 4.66354 0 3503 4.66354 1
gene 2 506 17 3.04388 0 3504 3.04388 1
gene 1 7 512 -4.68707 0 3527 -4.68707 1
gene 1 512 17 -5.75117 0 3528 -5.75117 1
gene 2 386 544 4.69866 0 3716 4.69866 1
gene 2 544 420 -2.20113 0 3717 -2.20113 0
gene 1 26 420 -6.91565 0 3721 -6.91565 1
gene 3 11 229 2.58664 0 3732 2.58664 1
gene 1 17 26 0.0814624 1 3775 0.0814624 1
gene 2 9 157 -1.53164 0 3846 -1.53164 1
gene 3 6 476 0.56257 0 3919 0.56257 0
gene 2 15 512 0.979438 0 3944 0.979438 1
gene 2 8 576 2.77172 0 3996 2.77172 1
gene 3 576 325 0.870223 0 3997 0.870223 1
gene 3 293 476 0.269286 0 4143 0.269286 1
gene 1 80 339 -0.760776 1 4183 -0.760776 1
gene 2 240 240 -2.27209 1 4366 -2.27209 1
gene 1 12 476 -2.24292 0 4394 -2.24292 1
gene 3 12 293 1.21287 0 4466 1.21287 1
gene 1 365 626 -0.157923 0 4490 -0.157923 1
gene 1 626 80 -3.79245 0 4491 -3.79245 1
gene 1 2 544 -0.750998 0 4521 -0.750998 1
gene 3 13 544 -0.197264 0 4554 -0.197264 1
gene 1 6 576 1.13606 0 4623 1.13606 1
gene 1 10 420 -1.0028 0 4638 -1.0028 1
gene 1 185 339 1.14622 0 4648 1.14622 1
gene 2 2 659 -0.95553 0 4690 -0.95553 1
gene 2 659 17 0.0474284 0 4691 0.0474284 1
gene 2 9 665 0.0274354 0 4710 0.0274354 1
gene 2 665 339 1.27738 0 4711 1.27738 1
gene 1 576 229 0.178475 0 4741 0.178475 1
gene 2 18 274 0.785449 1 4746 0.785449 1
gene 2 12 673 0.698899 0 4767 0.698899 1
gene 2 673 230 -0.0765926 0 4768 -0.0765926 1
gene 2 8 676 0.385172 0 4778 0.385172 0
gene 2 676 26 -0.489614 0 4779 -0.489614 1
gene 1 365 463 -1.28403 0 4897 -1.28403 1
gene 2 673 673 0.487836 1 4980 0.487836 1
gene 2 365 718 -0.704173 0 5058 -0.704173 1
gene 2 718 18 -0.712848 0 5059 -0.712848 1
gene 2 185 420 1.03153 0 5178 1.03153 1
gene 2 339 748 -0.153313 0 5247 -0.153313 1
gene 2 748 80 -1.5666 0 5248 -1.5666 1
gene 3 676 718 0.852432 0 5265 0.852432 1
gene 1 4 230 -0.479787 0 5280 -0.479787 1
gene 1 240 751 -0.122391 0 5309 -0.122391 1
gene 1 751 18 1.09674 0 5310 1.09674 1
gene 1 1 59 0.590764 0 5389 0.590764 1
gene 3 718 240 -0.404349 0 5432 -0.404349 1
gene 3 6 776 0.22472 0 5459 0.22472 1
gene 3 776 476 3.76811 0 5460 3.76811 1
gene 1 14 748 0.228515 0 5512 0.228515 1
gene 2 776 676 -0.991822 0 5530 -0.991822 1
gene 2 4 386 0.391936 0 5540 0.391936 1
gene 2 718 230 0.513712 0 5567 0.513712 1
gene 2 544 808 -0.523588 0 5675 -0.523588 1
gene 2 808 420 0.1236 0 5676 0.1236 1
gene 3 2 274 1.31446 0 5735 1.31446 1
gene 2 808 808 -0.587489 1 5785 -0.587489 1
gene 1 5 829 0.0799388 0 5830 0.0799388 1
gene 1 829 94 -0.22788 0 5831 -0.22788 1
gene 3 7 26 -0.365588 0 6005 -0.365588 1
gene 3 274 808 0.28113 0 6047 0.28113 1
genomeend 1
