genomestart 1
trait 1 0 0 0.456844 0.089111 1 0 0.3793 0.288782 
trait 2 1 0.456062 0.262807 0 0.657308 0.359234 0.149035 0.89628 
trait 3 0.879891 1 0 1 0.703524 0.0919951 0 1 
node 1 1 1 3
node 2 2 1 1
node 3 3 1 1
node 4 3 1 1
node 5 2 1 1
node 6 2 1 1
node 7 3 1 1
node 8 1 1 1
node 9 1 1 1
node 10 3 1 1
node 11 2 1 1
node 12 3 1 1
node 13 1 1 1
node 14 3 1 1
node 15 1 1 1
node 16 3 1 1
node 17 2 0 2
node 18 1 0 2
node 20 1 0 0
node 21 1 0 0
nodegru 23 0 0.449753 -0.769051 0.577197 0.192626 0.838764 0.779437 [ -0.262388 -0.482255 ] [ 0.353331 -0.35059 ] [ -0.0836355 0 ]
nodegru 47 0 -0.380693 -0.314008 -0.746279 0.435255 -1.3138 1.53861 [ -0.757556 0.199002 0.17864 ] [ 1.27635 0.803633 -0.0504159 ] [ -0.841425 -0.160126 -0.622645 ]
nodegru 50 0 -0.724578 -1.79357 0.366101 -1.20103 0.197011 1.01539 [ 0.195658 0.515045 1.34502 -1.79763 ] [ -0.285577 -0.377643 -0.141661 -0.289599 ] [ -1.76065 0.756738 -2.55663 -0.700013 ]
node 53 1 0 0
node 69 1 0 0
nodegru 75 0 0.449929 -1.22101 0.186972 -1.79159 0.50314 1.32675 [ -0.0276265 -0.678503 -0.972627 0.478845 0 ] [ -0.682676 0.795853 -0.110962 -1.33877 0.639855 ] [ 0.135293 -1.0471 0.707062 -0.297744 -0.658015 ]
nodegru 103 0 0.632456 -1.08213 -0.928308 0.578462 -0.0619326 0.452035 [ -0.2715 0.520437 -0.546846 -0.653991 0 0 ] [ 0.342423 -0.303859 0.0235685 -0.0295466 0 0 ] [ -0.484461 -0.598913 0.0477414 1.46053 0 0 ]
nodegru 123 0 0.520328 -0.172177 1.06657 -0.0974741 -0.13 0.215288 [ -0.235919 0.241327 -0.530569 ] [ 0.689278 0 0 ] [ -0.536478 0 -0.729425 ]
node 146 1 0 0
nodegru 150 0 0.627138 0.00904065 0.676369 0.658139 -1.39122 -0.671371 [ -2.72936 -0.58134 -0.400846 -2.37482 -1.13363 0.213368 0 ] [ -1.27534 -0.293997 -0.572562 1.08186 -1.08646 0 0 ] [ 0.118754 0.284991 0.1342 0.208614 -0.349885 0 0 ]
node 156 1 0 0
node 194 1 0 0
node 243 2 0 0
nodegru 279 0 0.133054 0.160083 -1.17511 0.984574 -0.754572 -0.787627 [ 0.257279 -0.34944 ] [ 0.243391 0.137119 ] [ 0.829715 -0.337928 ]
node 315 1 0 0
node 373 1 0 0
nodegru 375 0 0.0361659 -1.21149 0.572542 -0.396941 0.681318 -0.235641 [ 1.20349 -1.43068 0 ] [ 0.390785 -1.20493 0 ] [ -0.41395 -0.0872791 0.517604 ]
nodegru 384 0 0.861604 -0.930429 0.043303 -1.41464 0.140894 0.282661 [ 0.554609 0.294885 ] [ 0.573134 -0.770464 ] [ 0.270512 0.875914 ]
nodegru 412 0 -0.32126 -0.0322589 0.27496 -0.392987 0.856899 -0.160653 [ 0.727756 -0.591472 0.175347 ] [ 0.392521 0.057399 0.245135 ] [ 0.568677 -0.721636 -0.590414 ]
node 427 1 0 0
node 436 2 0 0
nodegru 458 0 0 0 0.438323 0 0 -0.426291 [ 0.3333 0 0 ] [ 0 0 0 ] [ 0 0 0 ]
nodegru 570 0 0.222306 0 0 0 0 0.697221 [ 0.0445387 ] [ 0.539437 ] [ -0.111294 ]
nodegru 609 0 -0.24107 0.41364 0.347817 0.696075 -0.532673 0.257674 [ 0.970405 ] [ -0.383918 ] [ 0.203345 ]
nodegru 735 0 0 0 0 0 0 0 [ 0 ] [ 0 ] [ 0 ]
nodegru 746 0 0 0 0 0 0 0 [ 0.073865 ] [ 0 ] [ 0 ]
gene 1 1 17 1.21475 0 1 1.21475 1
gene 2 2 17 -3.286 0 2 -3.286 1
gene 1 3 17 -3.65576 0 3 -3.65576 1
gene 2 4 17 0.00238195 0 4 0.00238195 1
gene 1 5 17 -0.302246 0 5 -0.302246 1
gene 1 6 17 -6.51832 0 6 -6.51832 1
gene 2 7 17 -5.99413 0 7 -5.99413 1
gene 2 8 17 0.660604 0 8 0.660604 1
gene 3 9 17 0.74227 0 9 0.74227 1
gene 1 10 17 3.90828 0 10 3.90828 1
gene 1 11 17 8 0 11 8 1
gene 1 12 17 6.70523 0 12 6.70523 1
gene 1 13 17 7.50142 0 13 7.50142 1
gene 1 14 17 0.778342 0 14 0.778342 1
gene 3 15 17 0.127666 0 15 0.127666 1
gene 2 16 17 0.427174 0 16 0.427174 1
gene 2 1 18 -1.7374 0 17 -1.7374 1
gene 1 2 18 -5.46078 0 18 -5.46078 0
gene 2 3 18 0.786199 0 19 0.786199 1
gene 3 4 18 0.520784 0 20 0.520784 1
gene 2 5 18 0.709158 0 21 0.709158 1
gene 2 6 18 0.49043 0 22 0.49043 0
gene 1 7 18 2.42396 0 23 2.42396 1
gene 3 8 18 0.515564 0 24 0.515564 1
gene 3 9 18 6.75415 0 25 6.75415 1
gene 1 10 18 0.206242 0 26 0.206242 0
gene 3 11 18 0.967647 0 27 0.967647 0
gene 3 12 18 4.80908 0 28 4.80908 0
gene 1 13 18 -0.936599 0 29 -0.936599 1
gene 1 14 18 0.27263 0 30 0.27263 0
gene 1 15 18 -0.760815 0 31 -0.760815 1
gene 3 16 18 -0.0312764 0 32 -0.0312764 0
gene 3 14 20 7.26192 0 38 7.26192 1
gene 3 20 18 5.63574 0 39 5.63574 0
gene 1 6 21 0.969317 0 45 0.969317 0
gene 2 21 17 -0.16562 0 46 -0.16562 1
gene 2 6 23 0.420242 0 53 0.420242 1
gene 2 23 18 1.86431 0 54 1.86431 0
gene 3 21 21 0.105166 1 171 0.105166 0
gene 3 10 47 -5.20718 0 200 -5.20718 1
gene 3 47 18 0.71733 0 201 0.71733 1
gene 3 12 50 -0.200952 0 214 -0.200952 1
gene 3 50 18 -1.49345 0 215 -1.49345 1
gene 2 23 53 -0.146913 0 223 -0.146913 1
gene 2 53 18 -0.163697 0 224 -0.163697 0
gene 1 2 69 -0.649845 0 334 -0.649845 1
gene 1 69 18 2.79494 0 335 2.79494 1
gene 2 4 75 -0.212476 0 350 -0.212476 0
gene 2 75 17 0.452077 0 351 0.452077 0
gene 1 7 21 -1.18517 0 411 -1.18517 0
gene 1 8 20 0.384454 0 481 0.384454 1
gene 1 10 53 -0.0575339 0 492 -0.0575339 1
gene 1 53 103 -0.372823 0 519 -0.372823 1
gene 2 103 18 0.566644 0 520 0.566644 0
gene 1 18 21 -0.578099 1 552 -0.578099 0
gene 2 75 123 0.10119 0 665 0.10119 1
gene 1 123 17 -6.97821 0 666 -6.97821 0
gene 2 103 69 -3.70659 0 711 -3.70659 0
gene 3 20 146 -0.0451974 0 832 -0.0451974 1
gene 2 146 18 0.146673 0 833 0.146673 1
gene 3 69 17 -3.03013 0 847 -3.03013 0
gene 2 123 150 -0.944338 0 853 -0.944338 0
gene 2 150 17 -0.25179 0 854 -0.25179 1
gene 3 9 156 1.01887 0 878 1.01887 1
gene 3 156 17 0.74581 0 879 0.74581 1
gene 1 8 23 -0.169507 0 898 -0.169507 1
gene 3 156 75 1.6747 0 906 1.6747 1
gene 1 18 194 1.47577 1 1115 1.47577 1
gene 1 194 21 0.0832727 0 1116 0.0832727 1
gene 3 156 50 -2.1533 0 1159 -2.1533 1
gene 3 123 69 -2.21359 0 1314 -2.21359 1
gene 1 12 156 0.645853 0 1332 0.645853 1
gene 3 146 103 -7.03644 0 1345 -7.03644 1
gene 1 2 150 0.0443923 0 1352 0.0443923 1
gene 1 50 103 2.64554 0 1398 2.64554 1
gene 3 1 20 0.457741 0 1471 0.457741 1
gene 2 103 243 -0.397317 0 1483 -0.397317 1
gene 2 243 18 0.573559 0 1484 0.573559 1
gene 3 194 47 1.65176 0 1518 1.65176 1
gene 2 9 194 2.04091 0 1550 2.04091 1
gene 1 20 75 -3.46502 0 1574 -3.46502 1
gene 1 11 21 -2.11546 0 1602 -2.11546 1
gene 3 75 53 0.152951 0 1611 0.152951 1
gene 1 243 17 -0.26264 0 1677 -0.26264 1
gene 3 243 47 -0.507349 0 1699 -0.507349 1
gene 2 103 279 -0.283902 0 1726 -0.283902 1
gene 2 279 69 -0.273833 0 1727 -0.273833 0
gene 1 16 150 0.205317 0 1778 0.205317 1
gene 3 194 123 -3.51242 0 1811 -3.51242 1
gene 1 194 194 -0.414172 1 1826 -0.414172 1
gene 3 2 103 -2.68002 0 1875 -2.68002 1
gene 2 103 50 1.5796 1 1879 1.5796 1
gene 3 16 315 0.690599 0 1975 0.690599 0
gene 3 315 18 -0.857626 0 1976 -0.857626 1
gene 1 7 53 2.10488 0 2052 2.10488 1
gene 3 146 279 -2.18682 0 2101 -2.18682 1
gene 3 23 69 -1.1803 0 2111 -1.1803 1
gene 2 156 156 -4.04688 1 2174 -4.04688 1
gene 1 47 150 -2.25348 0 2304 -2.25348 1
gene 1 279 194 1.46867 0 2368 1.46867 1
gene 1 156 21 -0.40952 0 2384 -0.40952 1
gene 1 6 373 -1.2877 0 2406 -1.2877 1
gene 1 373 21 -1.9524 0 2407 -1.9524 1
gene 2 123 375 -0.0545291 0 2423 -0.0545291 1
gene 2 375 150 0.0684594 0 2424 0.0684594 1
gene 3 9 20 0.988608 0 2461 0.988608 0
gene 3 21 384 -1.77788 1 2490 -1.77788 1
gene 3 384 21 2.00045 0 2491 2.00045 1
gene 3 13 384 0.4345 0 2562 0.4345 1
gene 1 6 315 -0.128563 0 2602 -0.128563 1
gene 3 69 412 -0.0511618 0 2696 -0.0511618 1
gene 3 412 17 0.345858 0 2697 0.345858 1
gene 2 7 50 0.0100747 0 2726 0.0100747 1
gene 2 279 427 -3.66168 0 2773 -3.66168 1
gene 2 427 69 -1.40621 0 2774 -1.40621 1
gene 2 20 53 -1.5496 0 2822 -1.5496 1
gene 3 156 373 2.48866 0 2832 2.48866 1
gene 3 16 436 -0.638082 0 2843 -0.638082 1
gene 3 436 315 -0.691307 0 2844 -0.691307 1
gene 1 5 146 -0.147255 0 2900 -0.147255 1
gene 1 7 458 0.208649 0 2962 0.208649 1
gene 1 458 21 -0.454831 0 2963 -0.454831 1
gene 1 123 373 -0.393052 0 3065 -0.393052 1
gene 2 53 53 1.16748 1 3082 1.16748 1
gene 3 21 194 -0.0570897 1 3263 -0.0570897 1
gene 3 47 375 0.148651 0 3311 0.148651 1
gene 2 12 373 0.388225 0 3562 0.388225 1
gene 1 7 75 -0.570163 0 3569 -0.570163 1
gene 2 50 21 -0.715415 0 3729 -0.715415 1
gene 2 4 570 -0.477239 0 3748 -0.477239 1
gene 2 570 75 -0.176091 0 3749 -0.176091 1
gene 1 103 458 -0.132134 0 3810 -0.132134 1
gene 1 20 123 2.01086 0 3852 2.01086 1
gene 3 9 609 0.23958 0 3967 0.23958 1
gene 3 609 20 -0.042709 0 3968 -0.042709 0
gene 2 13 146 0.775966 0 4074 0.775966 0
gene 2 1 375 0.00597118 0 4104 0.00597118 1
gene 3 12 150 -0.274092 0 4108 -0.274092 1
gene 3 18 18 0.242177 1 4121 0.242177 1
gene 1 13 103 -0.335477 0 4313 -0.335477 1
gene 3 10 412 -0.56955 0 4359 -0.56955 1
gene 3 16 103 0.464255 0 4370 0.464255 1
gene 1 75 458 2.13184 0 4476 2.13184 1
gene 3 15 69 -0.532725 0 4543 -0.532725 1
gene 3 7 427 -0.586357 0 4565 -0.586357 1
gene 2 13 735 -0.460637 0 4756 -0.460637 1
gene 2 735 146 1.61214 0 4757 1.61214 1
gene 3 279 412 -0.215191 0 4790 -0.215191 1
gene 3 609 746 -0.278783 0 4867 -0.278783 1
gene 3 746 20 -0.835566 0 4868 -0.835566 1
gene 3 436 18 -0.491306 0 4997 -0.491306 1
gene 2 384 436 -0.0664112 0 5043 -0.0664112 1
gene 2 458 150 -0.403967 0 5146 -0.403967 1
genomeend 1
