genomestart 1
trait 1 0 0 0.618074 0 0 0 0.825943 0.982619 
trait 2 0.526105 0.169705 0.681351 0.516088 1 1 0 0.21985 
trait 3 1 0.865627 0.25747 0.610599 0 1 0.158026 1 
node 1 2 1 3
node 2 3 1 1
node 3 1 1 1
node 4 3 1 1
node 5 1 1 1
node 6 1 1 1
node 7 2 1 1
node 8 1 1 1
node 9 1 1 1
node 10 3 1 1
node 11 2 1 1
node 12 3 1 1
node 13 1 1 1
node 14 1 1 1
node 15 2 1 1
node 16 2 1 1
node 17 3 0 2
node 18 1 0 2
node 20 3 0 0
nodegru 21 0 -1.59874 -1.00391 1.0315 0.40605 0.471812 0.700789 [ -1.33856 -0.341057 1.3734 0.407087 -1.36861 -1.57441 0.937646 -0.0197146 0 0 0 0 ] [ -1.27922 -0.551301 0.529905 3.11013 1.52722 0.0212775 0.303035 -0.0463393 -0.468632 0 0.682156 0 ] [ -0.98493 -2.21719 -2.02095 1.23947 1.49569 0.125005 1.01835 0.374577 -0.24783 0 0.717097 0 ]
nodegru 24 0 -1.21197 1.36707 0.0542563 -0.446963 -0.574408 1.74798 [ 2.16042 0.947002 2.47677 -0.0434939 1.3761 0.415979 ] [ -0.346984 3.2321 1.2024 1.15911 -0.67399 0 ] [ -3.28389 -0.472719 1.82279 -0.7036 0.264865 0.283388 ]
nodegru 123 0 -0.566507 -0.31613 -0.727279 -0.521953 -0.763436 0.314795 [ -1.24748 -0.951907 -0.154771 0 0 0 ] [ -0.0305045 1.49931 0.0360878 0 0 0 ] [ -1.68279 -0.295261 0.141959 -0.39042 0 0 ]
node 151 1 0 0
nodegru 159 0 0.917451 1.69123 0.530602 -0.425859 -1.35812 0.489706 [ 0.164318 0 ] [ 0.535718 0 ] [ -0.0539917 0 ]
nodegru 184 0 0.814768 0.331043 0.767162 -1.44649 -0.575268 -0.122447 [ -2.11522 0.631469 -0.641246 0.548712 0 ] [ -0.626097 1.10162 0.455504 0.322516 0 ] [ 0.52014 0.756203 0.233463 -0.168147 0 ]
nodegru 200 0 1.17892 0.0531851 0.947849 0.218153 0.303602 -0.838194 [ 0.855858 0.938717 0.832237 0.947562 1.35476 -1.77964 ] [ -0.784982 2.03176 -0.383489 -0.287705 0.759214 -1.1653 ] [ -0.367048 0.134263 -1.124 -0.659797 0.218695 0.0325287 ]
nodegru 226 0 0.981083 1.11596 2.38146 0.0576222 -1.84392 1.16601 [ -0.172224 -0.271281 -1.74827 0.521051 0.37756 0.478609 0 0 0 ] [ 0.700355 -0.81401 -0.794478 0.0563285 -0.193222 -0.149834 0.29409 0 0 ] [ 0.432804 0.252654 0.326372 -0.657978 0.83677 -0.415142 0 0 0 ]
nodegru 235 0 -0.872097 -0.196808 -0.552299 0.118457 0.345924 -0.22655 [ -0.572764 -0.0894436 0.684953 -0.098158 0 ] [ 1.09275 -0.0492159 2.09263 1.25241 0 ] [ 1.35681 0.469054 0.235158 -0.160715 0 ]
node 284 1 0 0
nodegru 302 0 -0.167371 -1.04103 2.85998 -0.287717 -1.03933 -0.923312 [ 0.618586 -0.265178 -0.469903 0.801997 -0.487396 0.505612 ] [ 0.878357 -0.36823 -0.689361 0.281651 0.504138 -0.634976 ] [ -0.453097 -1.64863 0.609339 -0.913016 0.305477 0 ]
nodegru 330 0 -0.218099 0.900863 -1.32201 0.120513 -0.0636279 1.19018 [ 0.276532 0.769144 0 0 ] [ 1.35176 -0.02123 0 0 ] [ 1.11901 0.920186 0 0 ]
node 341 1 0 0
nodegru 381 0 -0.481696 -0.977735 0.723777 -1.58582 1.05081 0.101743 [ -0.474477 0.512401 -0.157949 -0.33533 0 ] [ -0.931068 -0.384351 0.786353 -0.399825 0 ] [ -0.791811 0.492744 -0.764425 -0.0883365 -0.745313 ]
nodegru 386 0 -0.462788 -2.10503 0.40769 -0.807117 -0.257232 -0.315041 [ -0.665302 ] [ -1.33881 ] [ 0.787216 ]
node 420 1 0 0
node 433 1 0 0
node 442 1 0 0
node 528 3 0 0
nodegru 550 0 -0.124045 -0.997883 1.21476 -0.366223 -0.336758 0.135459 [ -0.163723 0.751741 0.970136 0 ] [ 0.387996 -1.82778 0.186298 -0.184396 ] [ -0.300219 -1.37177 0.209965 0.502262 ]
node 554 2 0 0
nodegru 570 0 -0.417169 1.78851 1.31835 -0.105095 0.325483 0.102138 [ -0.354347 ] [ 0.973372 ] [ 0.200845 ]
node 573 1 0 0
node 595 1 0 0
node 600 1 0 0
nodegru 660 0 0.722937 0 0 0 0 0.536855 [ 0 ] [ -0.0983571 ] [ 0 ]
nodegru 674 0 0.384579 0.105888 0 0 -0.237685 0 [ -0.525964 0 ] [ -0.54621 0 ] [ -0.606778 0.12964 ]
node 680 1 0 0
node 732 1 0 0
node 740 1 0 0
nodegru 751 0 -0.034126 -0.110411 0.213293 -0.168731 0.280856 0.100277 [ 1.06399 ] [ -0.759274 ] [ -0.700424 ]
node 806 3 0 0
node 820 1 0 0
nodegru 861 0 0.293866 -0.10016 -0.568409 -0.276281 0.807234 -0.865093 [ 0.401987 ] [ 0.355636 ] [ 0 ]
node 876 1 0 0
node 941 1 0 0
node 950 1 0 0
node 962 2 0 0
node 992 1 0 0
node 1046 1 0 0
nodegru 1051 0 -0.691473 0.856838 0.63232 0.323774 -0.216622 0 [ 0.719443 ] [ 0.175754 ] [ 0.197402 ]
nodegru 1062 0 -0.0362278 -0.324905 0 0 0.12765 0 [ -0.493655 -0.464984 ] [ 0 0 ] [ -0.541585 0 ]
node 1108 1 0 0
node 1116 1 0 0
nodegru 1128 0 0.300482 -0.434194 0 0 0 0 [ 0.731963 ] [ 0.245345 ] [ 0 ]
node 1167 1 0 0
node 1231 2 0 0
gene 1 1 17 2.99157 0 1 2.99157 1
gene 3 2 17 -1.81825 0 2 -1.81825 0
gene 2 3 17 1.60542 0 3 1.60542 1
gene 1 4 17 -2.03265 0 4 -2.03265 1
gene 2 5 17 -3.60093 0 5 -3.60093 1
gene 3 6 17 -6.05041 0 6 -6.05041 1
gene 1 7 17 -2.70394 0 7 -2.70394 1
gene 1 8 17 1.85269 0 8 1.85269 1
gene 3 9 17 0.774297 0 9 0.774297 1
gene 1 10 17 -0.358766 0 10 -0.358766 0
gene 2 11 17 1.39136 0 11 1.39136 0
gene 2 12 17 -2.73155 0 12 -2.73155 1
gene 1 13 17 -5.08988 0 13 -5.08988 1
gene 1 14 17 0.796652 0 14 0.796652 0
gene 1 15 17 -6.53487 0 15 -6.53487 1
gene 1 16 17 -7.45934 0 16 -7.45934 1
gene 2 1 18 0.92039 0 17 0.92039 1
gene 2 2 18 -1.95968 0 18 -1.95968 0
gene 1 3 18 -4.42045 0 19 -4.42045 1
gene 2 4 18 -0.974711 0 20 -0.974711 1
gene 3 5 18 0.744463 0 21 0.744463 0
gene 1 6 18 2.15729 0 22 2.15729 0
gene 2 7 18 7.87059 0 23 7.87059 0
gene 2 8 18 1.777 0 24 1.777 1
gene 1 9 18 2.62146 0 25 2.62146 1
gene 3 10 18 0.809008 0 26 0.809008 0
gene 3 11 18 -0.535919 0 27 -0.535919 1
gene 1 12 18 2.3443 0 28 2.3443 1
gene 2 13 18 -3.39069 0 29 -3.39069 0
gene 2 14 18 3.02005 0 30 3.02005 1
gene 2 15 18 -0.763501 0 31 -0.763501 1
gene 3 16 18 -1.14809 0 32 -1.14809 0
gene 1 13 20 -4.38483 0 35 -4.38483 1
gene 1 20 18 -1.36957 0 36 -1.36957 0
gene 2 16 21 -0.677102 0 48 -0.677102 0
gene 3 21 18 -3.68362 0 49 -3.68362 1
gene 3 5 24 -1.1117 0 60 -1.1117 0
gene 3 24 18 0.868245 0 61 0.868245 1
gene 1 10 21 -7.0873 0 86 -7.0873 0
gene 3 13 24 2.66107 0 104 2.66107 0
gene 1 5 20 3.13313 0 206 3.13313 1
gene 3 20 20 5.43741 1 267 5.43741 0
gene 1 2 21 0.303307 0 283 0.303307 0
gene 3 12 20 0.275712 0 311 0.275712 1
gene 3 8 24 1.48441 0 376 1.48441 1
gene 2 6 20 -0.750612 0 386 -0.750612 1
gene 3 14 21 -1.08491 0 608 -1.08491 1
gene 1 6 123 -3.7853 0 645 -3.7853 1
gene 2 123 18 -3.31395 0 646 -3.31395 1
gene 2 11 151 0.398603 0 802 0.398603 1
gene 2 151 17 -0.435135 0 803 -0.435135 1
gene 3 10 159 -4.27643 0 876 -4.27643 1
gene 1 159 17 -5.90079 0 877 -5.90079 1
gene 3 24 151 2.70803 0 1031 2.70803 0
gene 2 7 184 2.0817 0 1059 2.0817 1
gene 2 184 18 -0.298541 0 1060 -0.298541 1
gene 1 184 20 -2.36919 0 1123 -2.36919 1
gene 3 5 200 2.18032 0 1137 2.18032 1
gene 3 200 18 -0.948623 0 1138 -0.948623 0
gene 2 7 123 -6.20172 0 1338 -6.20172 0
gene 2 13 226 1.96277 0 1364 1.96277 0
gene 2 226 24 -3.74789 0 1365 -3.74789 1
gene 2 13 235 1.68478 0 1397 1.68478 0
gene 2 235 226 0.683288 0 1398 0.683288 0
gene 1 14 226 2.69354 0 1457 2.69354 0
gene 3 9 235 0.913025 0 1545 0.913025 0
gene 1 2 151 0.88971 0 1555 0.88971 0
gene 3 10 226 2.1678 0 1565 2.1678 1
gene 2 226 184 2.56211 0 1568 2.56211 1
gene 3 8 20 -4.45012 0 1705 -4.45012 1
gene 1 1 184 2.56033 0 1752 2.56033 1
gene 2 4 21 -2.51153 0 1765 -2.51153 1
gene 2 11 200 1.14627 0 1799 1.14627 1
gene 1 13 151 -1.62715 0 1809 -1.62715 1
gene 3 2 284 0.146244 0 1841 0.146244 0
gene 2 284 17 -0.611752 0 1842 -0.611752 1
gene 3 3 284 1.77405 0 1902 1.77405 1
gene 3 2 302 -0.626136 0 1940 -0.626136 0
gene 3 302 284 -3.53734 0 1941 -3.53734 1
gene 2 184 302 -0.809264 0 1957 -0.809264 0
gene 2 4 284 -6.96921 0 1992 -6.96921 1
gene 1 12 200 -1.35448 0 2009 -1.35448 1
gene 2 235 330 1.34356 0 2104 1.34356 1
gene 2 330 226 -4.92494 0 2105 -4.92494 1
gene 3 2 20 -0.671083 0 2134 -0.671083 1
gene 1 2 341 -2.34413 0 2177 -2.34413 1
gene 3 341 302 3.15408 0 2178 3.15408 1
gene 3 302 200 2.20633 0 2223 2.20633 1
gene 2 151 18 2.02349 0 2256 2.02349 0
gene 1 123 151 -2.11771 0 2331 -2.11771 0
gene 3 200 151 1.60051 0 2431 1.60051 0
gene 1 6 341 -0.800376 0 2472 -0.800376 1
gene 2 341 341 -0.6846 1 2477 -0.6846 0
gene 2 9 381 5.24497 0 2504 5.24497 1
gene 3 381 235 3.11326 0 2505 3.11326 1
gene 2 200 386 -0.148934 0 2533 -0.148934 1
gene 3 386 151 0.317173 0 2534 0.317173 1
gene 3 1 302 -2.94187 0 2647 -2.94187 1
gene 1 184 21 -5.60557 0 2667 -5.60557 0
gene 3 5 420 -1.69755 0 2765 -1.69755 1
gene 3 420 24 -3.69719 0 2766 -3.69719 0
gene 2 235 18 -1.37623 0 2795 -1.37623 0
gene 1 10 151 -0.422367 0 2809 -0.422367 1
gene 2 13 433 -1.67106 0 2853 -1.67106 1
gene 2 433 235 2.21494 0 2854 2.21494 1
gene 1 420 381 -2.18237 0 2891 -2.18237 1
gene 2 2 442 1.06026 0 2907 1.06026 1
gene 1 442 151 1.97973 0 2908 1.97973 1
gene 2 159 20 5.25649 0 3048 5.25649 1
gene 2 433 433 -3.65331 1 3075 -3.65331 1
gene 3 9 151 1.60042 0 3090 1.60042 1
gene 1 5 284 -2.5835 0 3292 -2.5835 1
gene 3 18 18 -0.680732 1 3311 -0.680732 1
gene 1 11 528 0.840559 0 3560 0.840559 1
gene 1 528 18 -4.25197 0 3561 -4.25197 0
gene 1 151 550 1.4523 0 3681 1.4523 1
gene 2 550 18 -4.02565 0 3682 -4.02565 1
gene 1 184 554 1.00257 0 3707 1.00257 1
gene 1 554 21 0.746937 0 3708 0.746937 0
gene 3 341 442 -1.81827 0 3720 -1.81827 1
gene 2 7 381 -3.72102 0 3794 -3.72102 1
gene 2 16 570 -2.84086 0 3804 -2.84086 1
gene 2 570 21 -1.34471 0 3805 -1.34471 1
gene 2 381 17 -0.325314 0 3810 -0.325314 1
gene 2 7 573 -0.460187 0 3817 -0.460187 0
gene 2 573 123 5.25847 0 3818 5.25847 1
gene 2 442 433 -1.70971 0 3904 -1.70971 0
gene 1 330 200 0.756627 0 3908 0.756627 1
gene 1 123 433 -0.0953888 0 3927 -0.0953888 1
gene 1 528 595 -0.224746 0 3958 -0.224746 0
gene 1 595 18 7.86476 0 3959 7.86476 1
gene 2 573 151 -4.36856 0 3994 -4.36856 1
gene 3 123 600 7.60081 0 4015 7.60081 1
gene 1 600 151 0.618864 0 4016 0.618864 1
gene 1 3 554 4.84772 0 4026 4.84772 0
gene 3 4 226 2.00319 0 4177 2.00319 1
gene 1 16 381 0.787163 0 4191 0.787163 1
gene 3 10 184 2.30695 0 4257 2.30695 0
gene 1 3 660 4.2186 0 4381 4.2186 1
gene 1 660 554 2.12703 0 4382 2.12703 1
gene 1 554 554 0.658078 1 4482 0.658078 1
gene 2 442 674 1.46245 0 4530 1.46245 0
gene 2 674 433 4.06236 0 4531 4.06236 1
gene 1 20 680 -3.61049 0 4587 -3.61049 1
gene 1 680 18 3.85191 0 4588 3.85191 0
gene 3 595 330 -3.10647 0 4733 -3.10647 1
gene 2 442 284 -4.78068 0 4805 -4.78068 1
gene 2 386 284 0.421914 0 4826 0.421914 1
gene 2 24 200 2.90485 0 4910 2.90485 1
gene 1 674 550 -3.47297 0 4922 -3.47297 1
gene 2 7 732 4.80488 0 4940 4.80488 1
gene 2 732 573 0.0176943 0 4941 0.0176943 1
gene 3 200 740 -1.78145 0 5016 -1.78145 1
gene 3 740 18 -0.115342 0 5017 -0.115342 1
gene 1 528 751 0.668601 0 5113 0.668601 1
gene 1 751 595 1.05696 0 5114 1.05696 1
gene 2 12 554 -0.889223 0 5167 -0.889223 1
gene 2 420 732 -0.532273 0 5278 -0.532273 1
gene 1 528 20 0.0741521 0 5318 0.0741521 1
gene 2 284 18 -0.905079 0 5437 -0.905079 1
gene 2 10 442 -1.86075 0 5482 -1.86075 1
gene 2 442 442 -2.56552 1 5492 -2.56552 1
gene 2 184 806 -1.11864 0 5498 -1.11864 1
gene 2 806 302 -1.39797 0 5499 -1.39797 1
gene 1 806 151 -0.303542 0 5544 -0.303542 1
gene 1 24 595 -0.173686 1 5589 -0.173686 1
gene 3 235 820 -2.96758 0 5601 -2.96758 1
gene 3 820 18 3.1054 0 5602 3.1054 1
gene 1 2 680 -0.455736 0 5666 -0.455736 0
gene 3 2 861 -0.955983 0 5799 -0.955983 1
gene 3 861 680 1.43488 0 5800 1.43488 1
gene 3 806 550 -0.328036 0 5921 -0.328036 1
gene 2 442 876 -1.05812 0 5938 -1.05812 1
gene 2 876 674 1.44509 0 5939 1.44509 1
gene 2 8 341 -0.903568 0 6169 -0.903568 1
gene 1 600 17 2.51371 0 6193 2.51371 1
gene 1 14 941 0.759676 0 6312 0.759676 1
gene 1 941 226 -0.89387 0 6313 -0.89387 1
gene 3 24 950 -1.00433 0 6371 -1.00433 1
gene 3 950 151 -0.256561 0 6372 -0.256561 1
gene 2 226 820 0.119194 0 6420 0.119194 1
gene 3 341 420 0.269219 0 6462 0.269219 1
gene 1 674 806 0.870442 0 6478 0.870442 1
gene 3 442 740 1.97749 0 6510 1.97749 1
gene 2 341 962 0.0290579 1 6532 0.0290579 1
gene 2 962 341 -0.119215 0 6533 -0.119215 1
gene 1 151 528 -0.0373485 1 6596 -0.0373485 1
gene 2 962 876 -0.401358 0 6612 -0.401358 1
gene 3 573 820 0.835527 0 6687 0.835527 1
gene 1 14 950 -1.56603 0 6776 -1.56603 1
gene 1 680 992 0.207467 0 6802 0.207467 1
gene 1 992 18 -1.66712 0 6803 -1.66712 1
gene 1 7 600 0.50015 0 6826 0.50015 1
gene 1 24 330 0.302069 1 6940 0.302069 1
gene 3 600 600 0.428893 1 7008 0.428893 1
gene 2 381 680 0.101312 0 7018 0.101312 1
gene 2 10 302 -1.31452 0 7071 -1.31452 1
gene 3 420 1046 0.374472 0 7131 0.374472 1
gene 3 1046 24 -0.580598 0 7132 -0.580598 1
gene 2 2 1051 -0.716017 0 7163 -0.716017 1
gene 2 1051 18 -0.202623 0 7164 -0.202623 0
gene 3 11 159 -0.201051 0 7219 -0.201051 1
gene 2 962 226 0.583685 0 7245 0.583685 1
gene 1 2 1062 -1.59112 0 7251 -1.59112 1
gene 1 1062 21 -0.198159 0 7252 -0.198159 1
gene 2 442 226 -0.773746 0 7382 -0.773746 1
gene 1 10 123 -0.744011 0 7458 -0.744011 1
gene 3 151 151 -1.07931 1 7574 -1.07931 1
gene 2 1051 1108 0.436507 0 7580 0.436507 1
gene 2 1108 18 -0.758143 0 7581 -0.758143 1
gene 1 16 941 -0.29519 0 7621 -0.29519 1
gene 1 554 1116 -0.629868 0 7627 -0.629868 1
gene 1 1116 21 -0.560866 0 7628 -0.560866 1
gene 2 12 330 1.3991 0 7683 1.3991 1
gene 1 14 1128 -0.769859 0 7701 -0.769859 1
gene 1 1128 17 0.814237 0 7702 0.814237 1
gene 1 226 680 1.0161 0 7736 1.0161 1
gene 2 876 21 0.59695 0 7763 0.59695 1
gene 1 680 680 0.718371 1 7813 0.718371 1
gene 2 341 381 -0.790601 0 7914 -0.790601 1
gene 3 600 123 0.706671 1 7949 0.706671 1
gene 2 861 1062 0.791179 0 7960 0.791179 1
gene 3 1 235 0.585014 0 7969 0.585014 1
gene 3 674 123 -0.540177 0 7980 -0.540177 1
gene 3 10 1167 0.228231 0 7985 0.228231 1
gene 3 1167 184 -0.00514413 0 7986 -0.00514413 1
gene 3 151 1116 -0.509424 0 8008 -0.509424 1
gene 1 751 941 -0.273075 0 8155 -0.273075 1
gene 1 235 1046 -0.646015 0 8170 -0.646015 1
gene 1 1108 1108 -0.471561 1 8212 -0.471561 1
gene 3 962 550 -0.702121 0 8399 -0.702121 1
gene 1 10 1231 1 0 8447 0 1
gene 1 1231 21 -7.0873 0 8448 0 1
genomeend 1
