genomestart 1
trait 1 0.980299 0.691617 0 0.877344 0.146231 0 0 0 
trait 2 0.2 0 0 0 0 0 0 0 
trait 3 0.890452 0.456298 0.627331 1 0 0 0 0.971944 
node 1 3 1 3
node 2 3 1 1
node 3 3 1 1
node 4 1 1 1
node 5 2 1 1
node 6 1 1 1
node 7 1 1 1
node 8 1 1 1
node 9 3 1 1
node 10 1 1 1
node 11 2 1 1
node 12 1 1 1
node 13 3 1 1
node 14 2 1 1
node 15 2 1 1
node 16 1 1 1
node 17 1 0 2
node 18 3 0 2
nodegru 19 0 1.19483 2.50049 -0.866285 -0.993613 -0.46864 -0.367673 [ 1.2795 -0.427583 0.592587 0.2653 ] [ -0.724272 -0.617617 2.81324 0.482142 ] [ -0.19859 2.59214 0.669545 -0.91965 ]
nodegru 32 0 0.222016 -0.69631 0.895646 1.16564 -0.228836 0.337942 [ 0.245533 0.31537 -0.449136 -0.797192 0 0.511374 ] [ -0.866133 0.390248 -0.372114 -0.647385 0.579384 0 ] [ 0.0745901 -0.374305 -1.10796 -0.917541 -0.485216 0 ]
nodegru 34 0 -0.261209 0.901435 -0.0200528 0.943256 -0.0205598 0.671013 [ 0.586471 -0.650571 -0.0079074 0 ] [ -0.406429 -0.555253 -0.097197 -0.464364 ] [ -0.391832 -1.06785 1.33262 -0.527885 ]
gene 1 1 17 2.1856 0 1 2.1856 1
gene 2 2 17 0.608089 0 2 0.608089 1
gene 2 3 17 -0.237117 0 3 -0.237117 0
gene 3 4 17 -3.4731 0 4 -3.4731 1
gene 1 5 17 -0.730607 0 5 -0.730607 1
gene 2 6 17 -5.99432 0 6 -5.99432 1
gene 2 7 17 0.47476 0 7 0.47476 0
gene 1 8 17 -0.847755 0 8 -0.847755 1
gene 1 9 17 -3.18349 0 9 -3.18349 1
gene 2 10 17 2.18933 0 10 2.18933 1
gene 1 11 17 -0.457298 0 11 -0.457298 1
gene 2 12 17 -4.92822 0 12 -4.92822 1
gene 2 13 17 -1.3426 0 13 -1.3426 1
gene 2 14 17 -6.493 0 14 -6.493 1
gene 3 15 17 -2.17048 0 15 -2.17048 1
gene 3 16 17 -5.02191 0 16 -5.02191 1
gene 3 1 18 0.54265 0 17 0.54265 1
gene 2 2 18 6.64647 0 18 6.64647 1
gene 3 3 18 2.64666 0 19 2.64666 1
gene 2 4 18 -0.634239 0 20 -0.634239 1
gene 3 5 18 0.290037 0 21 0.290037 1
gene 3 6 18 4.39071 0 22 4.39071 1
gene 1 7 18 1.32501 0 23 1.32501 1
gene 1 8 18 1.23692 0 24 1.23692 1
gene 1 9 18 -2.46343 0 25 -2.46343 0
gene 1 10 18 -0.188412 0 26 -0.188412 1
gene 3 11 18 -0.214151 0 27 -0.214151 1
gene 3 12 18 -0.712586 0 28 -0.712586 1
gene 1 13 18 -0.426926 0 29 -0.426926 1
gene 2 14 18 0.484929 0 30 0.484929 1
gene 2 15 18 0.216066 0 31 0.216066 1
gene 2 16 18 -0.218483 0 32 -0.218483 1
gene 2 3 19 -0.66141 0 36 -0.66141 1
gene 3 19 17 -0.281963 0 37 -0.281963 1
gene 1 16 19 2.3717 1 39 2.3717 1
gene 3 1 19 0.215735 0 43 0.215735 1
gene 2 15 19 0.763658 0 46 0.763658 1
gene 3 17 17 0.394608 1 55 0.394608 1
gene 2 18 18 -0.288516 1 114 -0.288516 1
gene 2 7 32 -0.617459 0 122 -0.617459 1
gene 2 32 17 0.102025 0 123 0.102025 1
gene 1 19 32 0.912282 0 149 0.912282 1
gene 1 9 34 -1.6442 0 151 -1.6442 1
gene 1 34 18 -0.635992 0 152 -0.635992 1
gene 3 4 34 0.372956 0 193 0.372956 1
gene 1 2 34 -1.29502 0 243 -1.29502 1
gene 1 11 32 -0.364458 0 314 -0.364458 1
gene 2 13 32 1.37377 0 362 1.37377 1
gene 3 16 34 -0.0953561 0 386 -0.0953561 1
gene 3 2 32 1.61911 0 428 1.61911 1
gene 2 34 32 0.51552 0 441 0.51552 1
genomeend 1
