genomestart 1
trait 1 0.665844 0.753650 0.000000 0.000000 0.000000 0.190440 0.000000 0.000000 
trait 2 0.590804 0.000000 0.811838 0.000000 0.874335 0.894676 0.820287 0.000000 
trait 3 0.000000 0.000000 0.413850 0.000000 0.000000 0.702692 0.000000 0.615432 
node 1 3 1 3
node 2 3 1 1
node 3 3 1 1
node 4 1 1 1
node 5 2 1 1
node 6 2 1 1
node 7 3 1 1
node 8 2 1 1
node 9 1 1 1
node 10 2 1 1
node 11 1 1 1
node 12 1 1 1
node 13 2 1 1
node 14 2 1 1
node 15 2 1 1
node 16 1 1 1
node 17 2 0 2
node 18 1 0 2
nodegru 21 0 -0.224122 -0.285793 -0.590436 -0.997889 2.06438 0.721626 [ -0.113909 2.58531 0.499151 1.04746 -0.730536 -0.137474 -0.405375 1.78167 2.02299 1.11506 0.560169 -0.258685 0.738784 -0.610558 ] [ -0.534125 -2.21989 -0.247471 -0.172447 2.45278 0.343814 2.97775 -0.726298 0.174362 0.0487943 -0.196962 0.793043 -0.649769 0.0889401 ] [ 1.02733 0.491923 -1.9922 -0.351164 -1.44251 -1.68311 1.3042 -3.78625 -0.200027 0.813737 0.891499 -0.621075 0.938549 -0.208284 ]
node 148 1 0 0
node 160 1 0 0
node 197 1 0 0
gene 1 1 17 1.05934 0 1 1.05934 1
gene 3 2 17 -1.93142 0 2 -1.93142 0
gene 1 3 17 -0.610337 0 3 -0.610337 1
gene 1 4 17 -0.60799 0 4 -0.60799 1
gene 3 5 17 -3.12602 0 5 -3.12602 1
gene 1 6 17 -1.57706 0 6 -1.57706 1
gene 3 7 17 1.31002 0 7 1.31002 0
gene 3 8 17 0.84979 0 8 0.84979 1
gene 3 9 17 -0.459512 0 9 -0.459512 1
gene 2 10 17 -1.59367 0 10 -1.59367 1
gene 2 11 17 -3.12224 0 11 -3.12224 0
gene 3 12 17 0.889569 0 12 0.889569 1
gene 1 13 17 -0.593697 0 13 -0.593697 1
gene 1 14 17 -1.10015 0 14 -1.10015 1
gene 1 15 17 -2.7321 0 15 -2.7321 1
gene 1 16 17 -0.47184 0 16 -0.47184 1
gene 2 1 18 1.60399 0 17 1.60399 1
gene 1 2 18 -0.149442 0 18 -0.149442 1
gene 2 3 18 -1.08594 0 19 -1.08594 1
gene 2 4 18 -0.468318 0 20 -0.468318 1
gene 2 5 18 1.11431 0 21 1.11431 1
gene 1 6 18 1.20069 0 22 1.20069 1
gene 3 7 18 1.28471 0 23 1.28471 1
gene 2 8 18 -1.10391 0 24 -1.10391 0
gene 1 9 18 -0.647382 0 25 -0.647382 1
gene 1 10 18 0.357703 0 26 0.357703 1
gene 1 11 18 1.29886 0 27 1.29886 1
gene 2 12 18 -0.328943 0 28 -0.328943 0
gene 2 13 18 2.84532 0 29 2.84532 1
gene 1 14 18 1.32606 0 30 1.32606 1
gene 3 15 18 0.627293 0 31 0.627293 1
gene 2 16 18 0.00762945 0 32 0.00762945 1
gene 2 11 21 -0.0279382 0 41 -0.0279382 1
gene 2 21 17 -0.366014 0 42 -0.366014 1
gene 3 7 21 3.95184 0 118 3.95184 1
gene 1 6 21 1.82623 0 150 1.82623 0
gene 2 10 21 1.42613 0 315 1.42613 1
gene 2 9 21 0.400587 0 371 0.400587 1
gene 3 3 21 -2.44726 0 513 -2.44726 1
gene 3 4 21 -0.0137872 0 587 -0.0137872 1
gene 2 8 21 1.9583 0 656 1.9583 1
gene 2 1 21 0.940286 0 731 0.940286 1
gene 3 14 21 0.500689 0 787 0.500689 1
gene 3 16 21 -3.15283 0 789 -3.15283 1
gene 1 12 21 0.767286 0 857 0.767286 1
gene 1 21 18 -0.818967 0 873 -0.818967 1
gene 2 6 148 0.175705 0 882 0.175705 1
gene 2 148 21 0.0379328 0 883 0.0379328 1
gene 3 7 160 -1.54761 0 944 -1.54761 1
gene 3 160 17 1.03545 0 945 1.03545 1
gene 2 148 160 -0.284344 0 1058 -0.284344 1
gene 1 16 160 -0.556006 0 1092 -0.556006 1
gene 2 4 160 -0.424822 0 1117 -0.424822 1
gene 3 13 21 -0.150708 0 1128 -0.150708 1
gene 1 9 148 0.958712 0 1134 0.958712 1
gene 2 148 148 0.247307 1 1146 0.247307 1
gene 3 8 160 -0.563299 0 1150 -0.563299 1
gene 2 12 197 -0.644183 0 1228 -0.644183 1
gene 2 197 18 0.211109 0 1229 0.211109 1
gene 3 160 160 0.827963 1 1309 0.827963 1
gene 2 12 148 1.42836 0 1346 1.42836 1
gene 1 17 17 0.391326 1 1472 0.391326 1
genomeend 1


