genomestart 1
trait 1 0 0.84865 0 0.852529 0 0 0.679641 0.7586 
trait 2 0 0 0 0 0 0 0.939897 0.922846 
trait 3 0.3 0 0 0 0 0 0 0 
node 1 3 1 3
node 2 1 1 1
node 3 1 1 1
node 4 3 1 1
node 5 2 1 1
node 6 2 1 1
node 7 1 1 1
node 8 2 1 1
node 9 2 1 1
node 10 1 1 1
node 11 2 1 1
node 12 3 1 1
node 13 2 1 1
node 14 3 1 1
node 15 2 1 1
node 16 2 1 1
node 17 2 0 2
node 18 2 0 2
nodegru 20 0 0.186598 1.7094 1.15799 -0.571417 2.65034 -0.229472 [ -3.53478 -1.16527 0 0 ] [ 0.859566 1.0538 0 0 ] [ 0.762125 0.395889 0 0 ]
node 22 1 0 0
node 48 1 0 0
node 95 1 0 0
node 98 1 0 0
nodegru 130 0 0.658475 0.523102 0.440381 0.622104 -0.343091 0.949133 [ -0.156574 1.30868 ] [ 0.645175 1.40841 ] [ 3.07626 0.258546 ]
node 134 1 0 0
node 210 1 0 0
nodegru 258 0 0 0 -0.638033 0 0 0.0273821 [ 0 ] [ 0 ] [ 0 ]
nodegru 285 0 -0.138009 0 -0.624042 -0.578022 0.484666 0.707998 [ 0.318521 ] [ 0.620828 ] [ 0.458495 ]
gene 3 1 17 1.05398 0 1 1.05398 1
gene 2 2 17 -3.10477 0 2 -3.10477 0
gene 1 3 17 2.74115 0 3 2.74115 1
gene 1 4 17 0.0114252 0 4 0.0114252 1
gene 1 5 17 -0.185566 0 5 -0.185566 1
gene 3 6 17 -0.607407 0 6 -0.607407 1
gene 3 7 17 6.99974 0 7 6.99974 1
gene 1 8 17 4.06439 0 8 4.06439 1
gene 2 9 17 0.890504 0 9 0.890504 1
gene 3 10 17 2.30161 0 10 2.30161 1
gene 1 11 17 2.49245 0 11 2.49245 0
gene 2 12 17 1.8586 0 12 1.8586 1
gene 1 13 17 -0.163147 0 13 -0.163147 1
gene 2 14 17 -0.667462 0 14 -0.667462 0
gene 1 15 17 -7.62069 0 15 -7.62069 1
gene 2 16 17 0.617458 0 16 0.617458 1
gene 1 1 18 1.6252 0 17 1.6252 1
gene 2 2 18 1.19057 0 18 1.19057 1
gene 3 3 18 -1.12078 0 19 -1.12078 0
gene 1 4 18 -1.78069 0 20 -1.78069 1
gene 3 5 18 -0.587821 0 21 -0.587821 1
gene 2 6 18 -5.16821 0 22 -5.16821 1
gene 1 7 18 -3.70476 0 23 -3.70476 1
gene 2 8 18 1.02106 0 24 1.02106 1
gene 2 9 18 -0.251705 0 25 -0.251705 1
gene 1 10 18 4.13913 0 26 4.13913 1
gene 2 11 18 0.00915155 0 27 0.00915155 0
gene 1 12 18 4.88249 0 28 4.88249 0
gene 2 13 18 -2.24433 0 29 -2.24433 1
gene 1 14 18 1.25805 0 30 1.25805 1
gene 2 15 18 -0.337218 0 31 -0.337218 0
gene 1 16 18 -3.60292 0 32 -3.60292 1
gene 2 14 20 0.459759 0 53 0.459759 1
gene 2 20 17 -1.70941 0 54 -1.70941 0
gene 1 12 22 -3.69377 0 61 -3.69377 1
gene 1 22 18 0.0512481 0 62 0.0512481 1
gene 2 20 48 0.356362 0 207 0.356362 1
gene 2 48 17 2.04911 0 208 2.04911 1
gene 2 17 17 -3.67028 1 292 -3.67028 1
gene 3 6 20 2.10544 0 330 2.10544 1
gene 2 11 95 -4.50559 0 514 -4.50559 1
gene 2 95 18 -1.4905 0 515 -1.4905 0
gene 3 11 98 0.668071 0 535 0.668071 1
gene 2 98 17 -0.232999 0 536 -0.232999 1
gene 1 48 22 0.277714 0 670 0.277714 1
gene 1 5 48 0.120856 0 691 0.120856 1
gene 2 2 130 0.466134 0 769 0.466134 1
gene 2 130 17 -0.282946 0 770 -0.282946 1
gene 2 95 134 -0.429991 0 807 -0.429991 1
gene 2 134 18 -0.552703 0 808 -0.552703 1
gene 1 95 98 0.916126 0 1014 0.916126 1
gene 2 98 130 -0.620437 0 1119 -0.620437 1
gene 2 15 210 -0.299453 0 1350 -0.299453 1
gene 2 210 18 1.36281 0 1351 1.36281 1
gene 1 17 98 -0.382421 1 1426 -0.382421 0
gene 2 7 48 0.612649 0 1482 0.612649 1
gene 1 17 258 -0.947118 1 1651 -0.947118 1
gene 1 258 98 -0.296132 0 1652 -0.296132 1
gene 2 11 20 0.790482 0 1725 0.790482 1
gene 3 3 285 1.37036 0 1832 1.37036 1
gene 3 285 18 0.740117 0 1833 0.740117 1
gene 1 11 48 -0.151712 0 1953 -0.151712 1
gene 1 13 210 0.160902 0 2265 0.160902 1
gene 1 12 20 -0.831842 0 2292 -0.831842 1
genomeend 1
