genomestart 1
trait 1 0 0 0 1 0.160985 0.797012 0 1 
trait 2 0.143976 0.459631 0.305269 0.381994 1 1 0.43241 0 
trait 3 1 0 0.320067 0.0631349 0 0.84629 0 1 
node 1 3 1 3
node 2 3 1 1
node 3 3 1 1
node 4 2 1 1
node 5 1 1 1
node 6 1 1 1
node 7 2 1 1
node 8 2 1 1
node 9 3 1 1
node 10 2 1 1
node 11 3 1 1
node 12 2 1 1
node 13 2 1 1
node 14 1 1 1
node 15 2 1 1
node 16 3 1 1
node 17 1 0 2
node 18 2 0 2
nodegru 20 0 0.45877499999999999 -1.10728 0.79684699999999997 -0.67976999999999999 0.053940799999999997 0.12970899999999999 [ 1.7362 -0.73151699999999997 0.23224800000000001 -1.32338 -0.16467399999999999 1.13029 0.56098099999999995 -1.0776600000000001 0.62472899999999998 -1.3196399999999999 0.52896900000000002 ] [ -0.74697199999999997 -1.14472 0.65384900000000001 0.683948 0.53330699999999998 0.52239599999999997 0.64318399999999998 -1.7854300000000001 0.032834599999999999 1.4046799999999999 -0.55331300000000005 ] [ -0.17261099999999999 -0.74243700000000001 -0.98204199999999997 -0.582179 -0.44408500000000001 -0.94688700000000003 -0.70043500000000003 -0.90451899999999996 0.73123000000000005 0.57023400000000002 0.075749200000000003 ]
node 57 3 0 0
node 73 3 0 0
node 82 2 0 0
nodegru 114 0 0.29792400000000002 -0.43813999999999997 0.22848199999999999 0.45563900000000002 -0.051758100000000001 -0.92093700000000001 [ -1.0391300000000001 -0.013210899999999999 1.1050800000000001 ] [ -0.038272599999999997 0.16078400000000001 -1.2086399999999999 ] [ 0.82737899999999998 1.74762 -0.70244499999999999 ]
nodegru 154 0 -0.31650899999999998 0.82095200000000002 1.4542900000000001 -1.3468500000000001 -1.6939200000000001 0.22139200000000001 [ 0.20315900000000001 0.34334900000000002 -0.34368900000000002 0.75486900000000001 ] [ -1.5203199999999999 -0.524787 -0.28781299999999999 -0.59540800000000005 ] [ -0.286109 0.18580199999999999 -0.81527700000000003 0 ]
nodegru 169 0 -0.62687800000000005 1.0359799999999999 0.20335400000000001 0.0051913300000000001 0.160132 -0.92321600000000004 [ -1.0688599999999999 ] [ -0.058424299999999998 ] [ 0.22588800000000001 ]
nodegru 210 0 -0.25750099999999998 0.21878700000000001 -0.62227600000000005 -0.96638500000000005 1.1198600000000001 0.071714 [ -0.064957299999999996 -0.67954599999999998 0 0 ] [ 0 -0.19081799999999999 0 0 ] [ -0.52935900000000002 -0.55799299999999996 0 0 ]
node 217 2 0 0
node 230 1 0 0
node 254 1 0 0
node 256 2 0 0
node 263 2 0 0
node 269 3 0 0
nodegru 297 0 0.49957400000000002 -0.84168699999999996 -0.23701 0.63506700000000005 0.65777600000000003 -1.218 [ -0.82292200000000004 0 ] [ -0.52089700000000005 0 ] [ 0.0235666 0 ]
nodegru 315 0 0.41962500000000003 1.3735999999999999 -0.724379 0.102686 1.09918 -0.49817400000000001 [ 0.0048179499999999997 -0.46811799999999998 ] [ 0.69996999999999998 0.111223 ] [ -0.60785599999999995 -0.71896899999999997 ]
node 346 3 0 0
node 350 2 0 0
node 356 2 0 0
nodegru 369 0 0.20274200000000001 0.082195799999999999 -0.26216899999999999 0 0 0.28808600000000001 [ -0.36845099999999997 ] [ 0 ] [ 0.643038 ]
node 391 2 0 0
nodegru 404 0 0 0 0.73465800000000003 -0.39348300000000003 0 -0.42439100000000002 [ -0.10249 ] [ 0.61066299999999996 ] [ 0.29999900000000002 ]
nodegru 452 0 -0.71158399999999999 0.74561900000000003 0.0359096 0 0.0054464400000000003 0.62604899999999997 [ 0 ] [ 0.13681199999999999 ] [ 0.69928999999999997 ]
node 522 1 0 0
node 558 1 0 0
nodegru 559 0 0 0 0 0 0 0 [ 0 ] [ 0 ] [ 0 ]
gene 1 1 17 0.081992404926932161 0 1 0.081992404926932161 1
gene 3 2 17 -0.36659451556198319 0 2 -0.36659451556198319 1
gene 1 3 17 3.1403271655451448 0 3 3.1403271655451448 1
gene 2 4 17 -0.079843132499218483 0 4 -0.079843132499218483 0
gene 3 5 17 -1.8022953506688892 0 5 -1.8022953506688892 1
gene 2 6 17 -1.3724070011423826 0 6 -1.3724070011423826 0
gene 2 7 17 6.7592149240055939 0 7 6.7592149240055939 1
gene 3 8 17 -0.85649939012616849 0 8 -0.85649939012616849 0
gene 2 9 17 -0.69081758312124131 0 9 -0.69081758312124131 1
gene 1 10 17 -0.67928203831316669 0 10 -0.67928203831316669 0
gene 1 11 17 0.17735046590461659 0 11 0.17735046590461659 0
gene 1 12 17 -0.39227871627576072 0 12 -0.39227871627576072 0
gene 1 13 17 2.0218145340149869 0 13 2.0218145340149869 1
gene 3 14 17 -1.6647694817142697 0 14 -1.6647694817142697 1
gene 2 15 17 -6.4279264184345006 0 15 -6.4279264184345006 1
gene 1 16 17 1.9373835143546221 0 16 1.9373835143546221 0
gene 3 1 18 0.40803639227779875 0 17 0.40803639227779875 1
gene 1 2 18 2.1416435253088566 0 18 2.1416435253088566 1
gene 2 3 18 -0.19565123095059644 0 19 -0.19565123095059644 1
gene 1 4 18 -0.21709743133959974 0 20 -0.21709743133959974 1
gene 3 5 18 -1.8713718729496431 0 21 -1.8713718729496431 1
gene 3 6 18 -6.6827224612881304 0 22 -6.6827224612881304 1
gene 3 7 18 -7.955045872696231 0 23 -7.955045872696231 1
gene 1 8 18 -0.22259709388083626 0 24 -0.22259709388083626 1
gene 2 9 18 -0.28560307098721716 0 25 -0.28560307098721716 1
gene 1 10 18 -4.6195772233515404 0 26 -4.6195772233515404 1
gene 2 11 18 0.90894830172432972 0 27 0.90894830172432972 1
gene 1 12 18 -1.5657446655921798 0 28 -1.5657446655921798 0
gene 1 13 18 -1.1723396887612854 0 29 -1.1723396887612854 1
gene 1 14 18 1.5675620693209229 0 30 1.5675620693209229 0
gene 2 15 18 1.4302261207868421 0 31 1.4302261207868421 0
gene 3 16 18 -1.6990991788210019 0 32 -1.6990991788210019 0
gene 3 6 20 0.24181689311347151 0 35 0.24181689311347151 1
gene 2 20 17 2.6747929413997023 0 36 2.6747929413997023 1
gene 1 5 20 -1.0655587161469924 0 45 -1.0655587161469924 1
gene 3 10 20 2.1814768139081386 0 51 2.1814768139081386 0
gene 1 3 20 -1.1189820958754801 0 136 -1.1189820958754801 1
gene 3 16 20 -3.4697570358299963 0 149 -3.4697570358299963 1
gene 3 12 57 1.3505078883604742 0 250 1.3505078883604742 0
gene 2 57 17 -0.62146316883810293 0 251 -0.62146316883810293 1
gene 1 2 20 -4.1711807333594519 0 257 -4.1711807333594519 1
gene 3 1 20 -1.358630489923875 0 321 -1.358630489923875 1
gene 3 10 57 2.7358471036468806 0 337 2.7358471036468806 0
gene 2 13 57 -5.6223387484088301 0 355 -5.6223387484088301 1
gene 1 57 18 2.107017406201189 0 366 2.107017406201189 1
gene 2 18 18 1.6375717180427545 1 367 1.6375717180427545 1
gene 1 5 73 -1.1339502264025763 0 386 -1.1339502264025763 0
gene 1 73 17 -0.92054974351657393 0 387 -0.92054974351657393 0
gene 3 11 82 0.19435795181842275 0 425 0.19435795181842275 0
gene 2 82 17 1.6473005718373139 0 426 1.6473005718373139 1
gene 2 9 20 0.84872585160146408 0 446 0.84872585160146408 1
gene 2 3 82 -0.65813675228953028 0 453 -0.65813675228953028 1
gene 2 14 73 -4.3771043967330154 0 501 -4.3771043967330154 1
gene 2 10 114 -0.87150167317437921 0 596 -0.87150167317437921 1
gene 1 114 20 1.4169176307523017 0 597 1.4169176307523017 0
gene 1 1 114 0.96887627463834236 0 643 0.96887627463834236 1
gene 3 11 114 -0.49912898513651127 0 679 -0.49912898513651127 1
gene 3 73 73 -0.24802893555669348 1 794 -0.24802893555669348 1
gene 2 14 154 0.34197166073090285 0 887 0.34197166073090285 1
gene 3 154 18 -0.60264174347573451 0 888 -0.60264174347573451 0
gene 1 82 73 -0.40959061683754877 0 898 -0.40959061683754877 0
gene 3 5 169 0.24486447986945814 0 990 0.24486447986945814 1
gene 3 169 73 -2.0829758767427111 0 991 -2.0829758767427111 1
gene 3 18 17 -5.316627366641451 1 1013 -5.316627366641451 1
gene 2 17 17 6.1867404941818211 1 1024 6.1867404941818211 0
gene 3 4 154 -0.55615238742645756 0 1214 -0.55615238742645756 1
gene 2 10 210 -3.0861555428998195 0 1309 -3.0861555428998195 1
gene 3 210 17 -0.13375337168174448 0 1310 -0.13375337168174448 1
gene 1 16 217 3.55429685383295 0 1345 3.55429685383295 0
gene 1 217 18 -0.745280252594124 0 1346 -0.745280252594124 1
gene 2 154 230 -0.48213761060752097 0 1426 -0.48213761060752097 1
gene 2 230 18 1.5671252824189632 0 1427 1.5671252824189632 1
gene 2 12 254 -0.52119279024458853 0 1560 -0.52119279024458853 1
gene 3 254 57 -3.1161543364845983 0 1561 -3.1161543364845983 0
gene 3 15 256 0.33050646036769377 0 1581 0.33050646036769377 1
gene 3 256 18 1.8693634093873963 0 1582 1.8693634093873963 1
gene 1 82 263 -0.68158461075195653 0 1618 -0.68158461075195653 1
gene 3 263 73 -0.0304530069820792 0 1619 -0.0304530069820792 1
gene 3 11 269 2.4860803803168894 0 1633 2.4860803803168894 1
gene 2 269 82 0.39259081045993599 0 1634 0.39259081045993599 1
gene 3 73 256 -3.2513733967397096 0 1680 -3.2513733967397096 0
gene 2 256 256 -0.23158219113828959 1 1683 -0.23158219113828959 1
gene 1 5 263 2.163995261438636 0 1783 2.163995261438636 0
gene 2 5 297 -0.99906331055398256 0 1881 -0.99906331055398256 1
gene 3 297 263 3.9891421601002115 0 1882 3.9891421601002115 1
gene 2 82 217 0.1581575130842573 0 1984 0.1581575130842573 1
gene 2 169 154 2.3352145300196785 0 2002 2.3352145300196785 1
gene 3 7 57 -2.5515070072096808 0 2026 -2.5515070072096808 1
gene 2 12 315 -5.069518225953499 0 2033 -5.069518225953499 1
gene 3 315 18 -0.61892036396342354 0 2034 -0.61892036396342354 1
gene 1 15 20 -0.3717747999034291 0 2112 -0.3717747999034291 1
gene 3 263 210 1.2378067064725382 0 2180 1.2378067064725382 1
gene 3 17 346 -0.40268095291423861 1 2248 -0.40268095291423861 1
gene 3 346 17 -0.059066673190455596 0 2249 -0.059066673190455596 1
gene 3 73 350 0.38079990107988848 0 2263 0.38079990107988848 1
gene 1 350 256 -0.86681883698451279 0 2264 -0.86681883698451279 1
gene 1 16 356 3.4033462119737297 0 2315 3.4033462119737297 1
gene 2 356 17 1.0617561147924262 0 2316 1.0617561147924262 1
gene 1 16 369 -1.5632206750258155 0 2394 -1.5632206750258155 1
gene 1 369 217 -0.23531360811923963 0 2395 -0.23531360811923963 1
gene 1 7 350 -0.21118113038520106 0 2406 -0.21118113038520106 1
gene 3 230 82 0.9045161222954119 0 2544 0.9045161222954119 1
gene 2 114 391 0.50358422121552338 0 2571 0.50358422121552338 1
gene 3 391 20 -2.0419503129259544 0 2572 -2.0419503129259544 1
gene 3 369 18 2.0981470003377494 0 2599 2.0981470003377494 1
gene 2 10 404 -0.171898 0 2632 -0.171898 1
gene 2 404 57 0.33902300000000002 0 2633 0.33902300000000002 1
gene 3 16 154 -2.2182785201959305 0 2719 -2.2182785201959305 1
gene 2 5 254 -0.32642850569286586 0 2722 -0.32642850569286586 1
gene 1 391 391 0.46595643611259918 1 2844 0.46595643611259918 1
gene 2 4 452 0.061777566148554203 0 2946 0.061777566148554203 1
gene 2 452 17 -0.9603261233432997 0 2947 -0.9603261233432997 1
gene 3 15 263 0.69835563771651388 0 3174 0.69835563771651388 1
gene 3 210 315 -0.40958282847869343 0 3236 -0.40958282847869343 1
gene 3 8 522 -0.29291618411795983 0 3379 -0.29291618411795983 1
gene 1 522 17 0.59280998543937558 0 3380 0.59280998543937558 1
gene 1 82 254 0.55698793909973088 0 3522 0.55698793909973088 1
gene 2 154 210 -0.80043399999999998 0 3536 -0.80043399999999998 1
gene 3 11 210 0.43184104236113374 0 3581 0.43184104236113374 1
gene 3 391 18 -0.61548017102078578 0 3587 -0.61548017102078578 1
gene 1 230 230 1.15649 1 3617 1.15649 1
gene 1 73 558 1.2895346196342048 0 3622 1.2895346196342048 1
gene 3 558 17 -1.4792497032214795 0 3623 -1.4792497032214795 1
gene 3 369 350 -0.039377299999999997 0 3646 -0.039377299999999997 1
gene 1 13 297 0.89851000000000003 0 3739 0.89851000000000003 1
gene 3 254 559 0.56448568534780563 0 3744 0.56448568534780563 1
gene 3 559 57 -4.0597217011677715 0 3745 -4.0597217011677715 1
genomeend 1
