genomestart 1
trait 1 0.1 0.987205 0.864426 0.911226 0 0 0.117814 0.609865 
trait 2 0.669254 0 1 0 0 0.407956 0.768468 0.912664 
trait 3 0.822444 0 0 0.25257 0 0 0.940625 0 
node 1 3 1 3
node 2 3 1 1
node 3 3 1 1
node 4 3 1 1
node 5 1 1 1
node 6 1 1 1
node 7 3 1 1
node 8 1 1 1
node 9 1 1 1
node 10 2 1 1
node 11 1 1 1
node 12 2 1 1
node 13 3 1 1
node 14 1 1 1
node 15 3 1 1
node 16 1 1 1
node 17 1 0 2
node 18 2 0 2
nodegru 19 0 0.263606 0.243827 -0.990101 -0.943577 1.14476 0.0284802 [ -0.640636 0.216949 -0.329842 ] [ 0.200318 -0.0244678 -0.266963 ] [ -0.314127 -0.600093 -0.362961 ]
node 23 1 0 0
nodegru 33 0 0 -0.3231 0 0 0 0 [ 0.553089 ] [ 0 ] [ 0 ]
node 34 1 0 0
nodegru 46 0 0 0 0 0 0 0 [ 0 ] [ 0.606274 ] [ 0 ]
gene 3 1 17 0.540231 0 1 0.540231 1
gene 1 2 17 0.428866 0 2 0.428866 1
gene 1 3 17 0.913526 0 3 0.913526 0
gene 2 4 17 0.800608 0 4 0.800608 1
gene 1 5 17 -0.234606 0 5 -0.234606 1
gene 2 6 17 -0.607762 0 6 -0.607762 1
gene 2 7 17 -0.373971 0 7 -0.373971 1
gene 3 8 17 0.808864 0 8 0.808864 1
gene 3 9 17 -2.23256 0 9 -2.23256 0
gene 3 10 17 0.701998 0 10 0.701998 1
gene 1 11 17 0.302164 0 11 0.302164 1
gene 3 12 17 0.694044 0 12 0.694044 0
gene 3 13 17 1.56743 0 13 1.56743 1
gene 2 14 17 -2.48103 0 14 -2.48103 1
gene 3 15 17 -2.55777 0 15 -2.55777 1
gene 2 16 17 -5.43296 0 16 -5.43296 1
gene 2 1 18 0.197748 0 17 0.197748 1
gene 3 2 18 -0.468329 0 18 -0.468329 0
gene 2 3 18 0.0954516 0 19 0.0954516 1
gene 1 4 18 1.10764 0 20 1.10764 1
gene 2 5 18 -1.17053 0 21 -1.17053 1
gene 1 6 18 -4.80035 0 22 -4.80035 1
gene 1 7 18 0.653096 0 23 0.653096 1
gene 3 8 18 -1.36713 0 24 -1.36713 1
gene 3 9 18 -0.786676 0 25 -0.786676 1
gene 3 10 18 -1.84138 0 26 -1.84138 1
gene 2 11 18 -0.496529 0 27 -0.496529 1
gene 3 12 18 -1.57206 0 28 -1.57206 1
gene 2 13 18 -0.472838 0 29 -0.472838 1
gene 1 14 18 2.76919 0 30 2.76919 1
gene 2 15 18 1.50514 0 31 1.50514 1
gene 1 16 18 0.459325 0 32 0.459325 1
gene 3 9 19 0.303651 0 33 0.303651 0
gene 3 19 17 -0.260457 0 34 -0.260457 1
gene 2 16 19 0.367797 0 49 0.367797 1
gene 1 3 23 0.818348 0 51 0.818348 1
gene 1 23 17 1.15354 0 52 1.15354 1
gene 3 7 19 -2.15537 0 129 -2.15537 1
gene 3 9 33 -0.653761 0 136 -0.653761 1
gene 3 33 19 -0.669085 0 137 -0.669085 1
gene 3 2 34 -0.586409 0 141 -0.586409 1
gene 3 34 18 -0.357414 0 142 -0.357414 1
gene 3 12 46 0.809415 0 202 0.809415 1
gene 3 46 17 0.314127 0 203 0.314127 1
genomeend 1
