genomestart 1
trait 1 0.437 0 1 0 0.224093 0.269046 0 0 
trait 2 0.563939 0.226502 0.671035 0.110997 1 0 0.349133 0 
trait 3 0 0.153627 0 0.563528 0 0.488173 0 0 
node 1 2 1 3
node 2 1 1 1
node 3 3 1 1
node 4 1 1 1
node 5 3 1 1
node 6 1 1 1
node 7 2 1 1
node 8 1 1 1
node 9 1 1 1
node 10 1 1 1
node 11 1 1 1
node 12 3 1 1
node 13 2 1 1
node 14 2 1 1
node 15 3 1 1
node 16 3 1 1
node 17 3 0 2
node 18 1 0 2
node 20 2 0 0
node 21 1 0 0
node 22 1 0 0
node 44 1 0 0
node 102 2 0 0
nodegru 163 0 -0.04092558766292672 -1.5000708902953526 -0.44104153462268536 0.35053939214001362 2.1070667498777933 0.01412717044080003 [ 3.5214221710438944 0.54414538517321709 0.14102011529776259 0.23677967627848484 0 ] [ -1.3102407515096668 -2.0235107771696108 -1.1939833671525044 -0.32587663879426043 0 ] [ -0.41029662332045747 -1.6338329238974643 1.1382038680083137 0.54030874047442745 -0.037260661268262503 ]
node 184 1 0 0
node 231 2 0 0
node 402 1 0 0
gene 2 1 17 -1.090247205034945 0 1 -1.090247205034945 1
gene 2 2 17 2.0421124506006549 0 2 2.0421124506006549 1
gene 1 3 17 3.7121497577578522 0 3 3.7121497577578522 1
gene 1 4 17 1.6186709624569255 0 4 1.6186709624569255 1
gene 2 5 17 1.932323548562044 0 5 1.932323548562044 0
gene 3 6 17 -1.7643756982937342 0 6 -1.7643756982937342 1
gene 3 7 17 0.88378019404307873 0 7 0.88378019404307873 1
gene 2 8 17 1.3004239464879146 0 8 1.3004239464879146 1
gene 2 9 17 0.97398117090294944 0 9 0.97398117090294944 1
gene 3 10 17 4.119526685504022 0 10 4.119526685504022 1
gene 1 11 17 4.4782806015472287 0 11 4.4782806015472287 0
gene 3 12 17 -0.015050165362213853 0 12 -0.015050165362213853 1
gene 1 13 17 0.25552049593791359 0 13 0.25552049593791359 1
gene 2 14 17 3.1598295156889726 0 14 3.1598295156889726 1
gene 3 15 17 -2.2744439877683518 0 15 -2.2744439877683518 1
gene 1 16 17 2.3997215142705137 0 16 2.3997215142705137 1
gene 3 1 18 2.0678249800427926 0 17 2.0678249800427926 1
gene 1 2 18 -0.56414857637796001 0 18 -0.56414857637796001 1
gene 3 3 18 -0.44929837596104405 0 19 -0.44929837596104405 1
gene 2 4 18 -2.1550492353993693 0 20 -2.1550492353993693 0
gene 2 5 18 -4.4132728795117115 0 21 -4.4132728795117115 1
gene 3 6 18 -3.4327005853097425 0 22 -3.4327005853097425 1
gene 1 7 18 -3.3756796757810172 0 23 -3.3756796757810172 1
gene 2 8 18 1.1015579390113983 0 24 1.1015579390113983 0
gene 1 9 18 -0.6125239440531115 0 25 -0.6125239440531115 1
gene 3 10 18 -4.7229411017489351 0 26 -4.7229411017489351 1
gene 3 11 18 2.9718344604931004 0 27 2.9718344604931004 0
gene 2 12 18 -2.9305540556928857 0 28 -2.9305540556928857 0
gene 2 13 18 -0.63543801970567493 0 29 -0.63543801970567493 1
gene 2 14 18 0.0016830739340208956 0 30 0.0016830739340208956 1
gene 1 15 18 -5.2846394278037554 0 31 -5.2846394278037554 1
gene 2 16 18 -2.9065867415194324 0 32 -2.9065867415194324 1
gene 1 11 20 1.5345457761010823 0 36 1.5345457761010823 1
gene 1 20 17 1.2829033695314562 0 37 1.2829033695314562 1
gene 2 9 21 -2.185086002659558 0 45 -2.185086002659558 1
gene 2 21 17 -1.2301846162789429 0 46 -1.2301846162789429 1
gene 3 11 22 2.8494193633549938 0 52 2.8494193633549938 1
gene 3 22 18 1.1986604286118692 0 53 1.1986604286118692 1
gene 2 17 17 0.34738147903577504 1 67 0.34738147903577504 1
gene 1 6 20 -2.5755100716257053 0 76 -2.5755100716257053 1
gene 3 15 21 2.023305422288042 0 82 2.023305422288042 1
gene 3 1 22 -0.75265617482487879 0 125 -0.75265617482487879 1
gene 2 4 44 -1.5527604427434323 0 266 -1.5527604427434323 0
gene 2 44 18 -1.2349181214742915 0 267 -1.2349181214742915 1
gene 1 22 21 -0.71489171297982868 0 339 -0.71489171297982868 1
gene 1 10 20 -6.581965922299756 0 351 -6.581965922299756 1
gene 3 7 21 0.12393170158561828 0 362 0.12393170158561828 1
gene 2 44 21 3.5769985375585938 0 449 3.5769985375585938 1
gene 3 12 22 -5.2222308204380017 0 453 -5.2222308204380017 0
gene 1 4 20 0.55522880682499554 0 745 0.55522880682499554 1
gene 3 44 44 -1.4498431115410491 1 775 -1.4498431115410491 1
gene 3 12 102 -0.2907640906240625 0 810 -0.2907640906240625 1
gene 1 102 22 -0.016156716279758926 0 811 -0.016156716279758926 1
gene 1 15 20 4.7494091490513677 0 971 4.7494091490513677 1
gene 1 11 102 1.9286955580714602 0 1000 1.9286955580714602 1
gene 2 20 20 -0.11080150055270732 1 1008 -0.11080150055270732 1
gene 1 21 22 -1.7963379486679747 1 1050 -1.7963379486679747 1
gene 2 16 102 0.75964479824045883 0 1067 0.75964479824045883 1
gene 1 22 22 -0.04511247682157582 1 1237 -0.04511247682157582 1
gene 2 8 163 0.061984639876515091 0 1271 0.061984639876515091 1
gene 2 163 18 -1.3802658797382685 0 1272 -1.3802658797382685 1
gene 3 22 163 -2.6395242632783598 0 1348 -2.6395242632783598 1
gene 2 5 184 -2.9908395444465987 0 1396 -2.9908395444465987 1
gene 2 184 17 0.44362531774380487 0 1397 0.44362531774380487 1
gene 2 2 184 -2.1636915496381421 0 1449 -2.1636915496381421 1
gene 3 12 44 0.59603180496302999 0 1456 0.59603180496302999 1
gene 2 184 184 -0.18679038502126488 1 1489 -0.18679038502126488 1
gene 3 21 18 0.25674431422108057 0 1501 0.25674431422108057 1
gene 2 4 231 0.34001796347555602 0 1759 0.34001796347555602 1
gene 2 231 44 0.66706418474999463 0 1760 0.66706418474999463 1
gene 3 9 102 -0.12101718148729626 0 1832 -0.12101718148729626 1
gene 1 184 20 -1.6674243588547335 0 1884 -1.6674243588547335 1
gene 3 8 184 1.5104158557999954 0 1949 1.5104158557999954 1
gene 1 15 44 0.46864476158220536 0 1964 0.46864476158220536 1
gene 3 6 184 0.44367629298645833 0 2070 0.44367629298645833 1
gene 1 13 20 1.0710310916514281 0 2097 1.0710310916514281 1
gene 2 13 163 1.6410733554005033 0 2260 1.6410733554005033 1
gene 2 16 231 0.10873010980837516 0 2288 0.10873010980837516 1
gene 3 44 102 0.73074919845943764 0 2407 0.73074919845943764 1
gene 3 231 184 -0.18387304266629417 0 2490 -0.18387304266629417 1
gene 2 231 20 0.62392818479515988 0 2531 0.62392818479515988 1
gene 2 18 18 -0.35387705445935824 1 2559 -0.35387705445935824 1
gene 3 44 20 -0.98914196725894787 0 2664 -0.98914196725894787 1
gene 2 16 21 -1.3099491702439028 0 2682 -1.3099491702439028 1
gene 2 17 163 0.76560576342307296 1 2714 0.76560576342307296 0
gene 2 163 44 0.65411290242528208 1 2732 0.65411290242528208 1
gene 1 184 18 -0.9204889642635774 0 2913 -0.9204889642635774 1
gene 2 4 102 -0.88835930784156514 0 2935 -0.88835930784156514 1
gene 2 17 402 0.8936389788955631 1 3035 0.8936389788955631 1
gene 2 402 163 -0.66519388668946644 0 3036 -0.66519388668946644 1
genomeend 1
