genomestart 1
trait 1 0.0197021 0.824184 0.625004 0.379839 0.419239 0.101856 0 0.913556 
trait 2 1 1 0.196641 0.855236 0.704023 1 1 1 
trait 3 0.53485 0.604708 0.08357 0.592386 0 0.172659 0 0 
node 1 2 1 3
node 2 3 1 1
node 3 3 1 1
node 4 1 1 1
node 5 3 1 1
node 6 3 1 1
node 7 1 1 1
node 8 2 1 1
node 9 1 1 1
node 10 2 1 1
node 11 3 1 1
node 12 2 1 1
node 13 2 1 1
node 14 2 1 1
node 15 1 1 1
node 16 2 1 1
node 17 3 0 2
node 18 3 0 2
node 22 3 0 0
node 118 1 0 0
node 180 1 0 0
node 222 3 0 0
node 245 1 0 0
node 261 1 0 0
nodegru 309 0 0.76663454587880264 -1.1600307640200622 1.6383483833113444 0.26639779855795104 0.16337089737102892 -0.23630927199791615 [ -0.46948385435132456 -0.61500706680352202 -0.83148170766955309 -0.8258919662683698 -0.33405794905687586 0.15653942381336333 0.42101860054350398 0.32688073386758598 ] [ -1.0241742276233503 -1.210350309247314 1.2135550143260301 -1.0054774758198661 1.4266050376121913 0.0029783874065514599 1.1777906006564343 0.20324314907344204 ] [ -0.4677249130176962 0.71124964438436988 -0.17353648805224231 1.7267540602370886 0.30491262129736718 2.2080951025514373 0.04141042662850139 -0.19053033818049836 ]
node 333 1 0 0
node 354 1 0 0
nodegru 412 0 -0.67415602641373673 -0.3098734402143738 2.225738660886762 0.44475917969586293 0.37182393920227153 -0.53959986546058203 [ -1.4329309053406729 1.353981897981829 1.4044603867942747 ] [ 1.0403724982358387 0.35628800378473846 -0.94989914130414776 ] [ -1.1066082214734556 -0.8382282599751969 -0.75450644188304727 ]
node 434 1 0 0
node 484 1 0 0
node 502 1 0 0
nodegru 504 0 -0.56763462806941678 0.31000423806719674 -0.13620046579102074 -1.4616142732378161 0.12250761553761902 -0.74220601503839989 [ 0.75378847005953475 -0.20288352351769967 0.57508854594784253 0 ] [ -1.0032803614173458 -0.74767750245410824 -0.39578630910058799 0 ] [ 0.76506387640957896 -0.18423956687759588 -0.11503773851554736 0 ]
node 537 1 0 0
node 541 2 0 0
node 572 1 0 0
node 594 1 0 0
nodegru 631 0 0.4599576733121451 -0.75271906494289598 -0.49199861927982358 -0.7396675420411245 -0.055512690244015617 0.82417985707250419 [ 0.51849587402236452 ] [ -0.28570568225612197 ] [ 0.11630846716757326 ]
node 695 1 0 0
node 699 1 0 0
node 760 1 0 0
node 763 1 0 0
node 776 1 0 0
nodegru 807 0 -0.15104006447412077 0.56460686566522666 0.46376072823245112 0.68759741293620191 0.028206608038491843 -0.027081742313262887 [ -0.63196781470066299 ] [ -1.3746448940945069 ] [ 0 ]
nodegru 884 0 0 0 0 0 0 0 [ 0 ] [ 0 ] [ 0 ]
nodegru 894 0 0 0 0 0 0 0 [ 0.15690489295260276 -0.23158768132868579 0 ] [ 0 0 0 ] [ 0 0.093643189451491082 0 ]
gene 1 1 17 2.4084591076981563 0 1 2.4084591076981563 1
gene 3 2 17 0.72094351692169134 0 2 0.72094351692169134 1
gene 3 3 17 -0.31076418716030391 0 3 -0.31076418716030391 1
gene 3 4 17 -1.5500549879158168 0 4 -1.5500549879158168 1
gene 3 5 17 -6.3432403110634716 0 5 -6.3432403110634716 1
gene 1 6 17 0.1258873812043515 0 6 0.1258873812043515 1
gene 2 7 17 1.2506710622695607 0 7 1.2506710622695607 1
gene 2 8 17 -1.1422965016180167 0 8 -1.1422965016180167 1
gene 2 9 17 -0.29659269810495559 0 9 -0.29659269810495559 1
gene 3 10 17 0.24448064202185749 0 10 0.24448064202185749 1
gene 3 11 17 1.1611444028844797 0 11 1.1611444028844797 1
gene 1 12 17 1.2508345481477838 0 12 1.2508345481477838 1
gene 1 13 17 -3.4289259846224112 0 13 -3.4289259846224112 1
gene 2 14 17 -6.7088539410423733 0 14 -6.7088539410423733 0
gene 1 15 17 -4.9164766808582803 0 15 -4.9164766808582803 1
gene 1 16 17 -4.4741049120082081 0 16 -4.4741049120082081 1
gene 1 1 18 0.74873857386351506 0 17 0.74873857386351506 1
gene 1 2 18 0.92306614873142279 0 18 0.92306614873142279 0
gene 3 3 18 1.6938166351494461 0 19 1.6938166351494461 1
gene 2 4 18 1.4587634178850619 0 20 1.4587634178850619 1
gene 1 5 18 -0.26132298750398819 0 21 -0.26132298750398819 1
gene 2 6 18 -7.3935988266689687 0 22 -7.3935988266689687 1
gene 3 7 18 -0.13225850143109374 0 23 -0.13225850143109374 1
gene 2 8 18 -1.1317699107489407 0 24 -1.1317699107489407 1
gene 1 9 18 0.41780474696671821 0 25 0.41780474696671821 0
gene 1 10 18 0.13159072009454981 0 26 0.13159072009454981 1
gene 3 11 18 -1.0132173280060373 0 27 -1.0132173280060373 1
gene 1 12 18 -1.0074018801131293 0 28 -1.0074018801131293 1
gene 1 13 18 1.5707939499154657 0 29 1.5707939499154657 1
gene 1 14 18 -1.6564073498157819 0 30 -1.6564073498157819 0
gene 3 15 18 -0.67688512239925802 0 31 -0.67688512239925802 1
gene 2 16 18 -0.682812865792221 0 32 -0.682812865792221 0
gene 3 4 22 -3.7190772760515456 0 44 -3.7190772760515456 1
gene 3 22 17 -1.2650947729195909 0 45 -1.2650947729195909 0
gene 2 22 22 -0.68442678623107578 1 94 -0.68442678623107578 1
gene 3 8 22 -0.0083970387971015192 0 155 -0.0083970387971015192 0
gene 2 11 22 -0.96158270408007429 0 360 -0.96158270408007429 1
gene 1 5 22 -0.33872878835011683 0 471 -0.33872878835011683 0
gene 2 7 22 -0.59460853964304949 0 609 -0.59460853964304949 1
gene 3 18 18 -3.3932299945239128 1 699 -3.3932299945239128 1
gene 1 9 118 0.39264223137527798 0 728 0.39264223137527798 0
gene 1 118 18 0.19235616745071304 0 729 0.19235616745071304 1
gene 1 16 118 -0.85779017331441398 0 832 -0.85779017331441398 0
gene 3 14 118 -1.7463122418831625 0 882 -1.7463122418831625 1
gene 1 118 22 -0.1453858987173931 0 914 -0.1453858987173931 1
gene 1 14 180 -0.32695214942887069 0 1149 -0.32695214942887069 0
gene 1 180 18 1.6846805140071923 0 1150 1.6846805140071923 1
gene 3 4 180 0.54985846697811902 0 1171 0.54985846697811902 1
gene 1 12 22 0.20714269995556339 0 1258 0.20714269995556339 1
gene 1 10 22 -1.4078242139228732 0 1278 -1.4078242139228732 1
gene 2 11 180 1.8982697842401781 0 1307 1.8982697842401781 0
gene 2 180 118 0.26569541462962304 0 1345 0.26569541462962304 0
gene 1 5 222 0.79078915786966175 0 1364 0.79078915786966175 0
gene 1 222 22 0.84621651964085942 0 1365 0.84621651964085942 1
gene 1 1 222 -4.4036709795024578 0 1459 -4.4036709795024578 1
gene 2 11 222 1.4438028997712786 0 1504 1.4438028997712786 1
gene 1 180 245 -0.38116082264164497 0 1541 -0.38116082264164497 1
gene 1 245 118 0.48700194677198405 0 1542 0.48700194677198405 1
gene 2 11 118 -1.0473365455620627 0 1560 -1.0473365455620627 1
gene 3 4 261 -1.1899408901529114 0 1613 -1.1899408901529114 1
gene 3 261 17 1.0473781365656194 0 1614 1.0473781365656194 1
gene 2 222 18 0.88149703521351175 0 1728 0.88149703521351175 0
gene 1 12 261 -0.31409802209311077 0 1762 -0.31409802209311077 1
gene 2 7 118 0.52900241398206094 0 1851 0.52900241398206094 1
gene 2 10 261 6.872429812849699 0 1903 6.872429812849699 1
gene 1 8 309 -5.1943463753882577 0 1983 -5.1943463753882577 1
gene 1 309 22 -2.6218238564309768 0 1984 -2.6218238564309768 0
gene 1 16 22 0.23210408339840549 0 1997 0.23210408339840549 0
gene 2 16 180 -2.0501930418192371 0 2030 -2.0501930418192371 1
gene 2 261 309 0.18475215308589499 0 2062 0.18475215308589499 1
gene 3 222 17 -0.94562165913899499 0 2091 -0.94562165913899499 1
gene 2 9 309 -1.0217701088505657 0 2125 -1.0217701088505657 1
gene 1 2 333 -0.49994652217717217 0 2173 -0.49994652217717217 1
gene 2 333 18 3.5260467827441384 0 2174 3.5260467827441384 0
gene 1 17 17 0.01727054478473521 1 2269 0.01727054478473521 1
gene 2 1 180 0.10786230517917419 0 2284 0.10786230517917419 1
gene 1 16 354 -0.20030004703453741 0 2348 -0.20030004703453741 1
gene 1 354 22 0.79596894492673176 0 2349 0.79596894492673176 1
gene 1 9 333 -0.21414785842138709 0 2373 -0.21414785842138709 0
gene 3 6 118 -0.3056039627667535 0 2386 -0.3056039627667535 1
gene 3 8 180 0.58532349932255356 0 2416 0.58532349932255356 1
gene 1 4 222 -0.46373362569777921 0 2484 -0.46373362569777921 1
gene 1 222 222 3.9116557507830008 1 2502 3.9116557507830008 0
gene 3 245 222 -1.7797949691441817 0 2665 -1.7797949691441817 1
gene 1 11 245 3.060564469225036 0 2688 3.060564469225036 0
gene 2 6 309 1.4113499102701201 0 2712 1.4113499102701201 1
gene 2 222 412 -0.8206572361852309 0 2782 -0.8206572361852309 1
gene 2 412 18 -0.2204157300155683 0 2783 -0.2204157300155683 1
gene 2 2 180 -0.24336299940168998 0 2886 -0.24336299940168998 1
gene 3 333 309 2.3862995095021553 0 2896 2.3862995095021553 1
gene 3 180 180 1.1686580760491352 1 2936 1.1686580760491352 1
gene 1 309 434 -5.5170971506820514 0 2960 -5.5170971506820514 1
gene 1 434 22 -0.4723027935122619 0 2961 -0.4723027935122619 1
gene 3 434 412 0.088925398578366913 0 3092 0.088925398578366913 1
gene 1 6 245 0.2104297621224214 0 3107 0.2104297621224214 1
gene 1 354 354 0.328338940547937 1 3152 0.328338940547937 1
gene 1 14 484 2.0521918522669895 0 3378 2.0521918522669895 1
gene 1 484 180 -2.2208445975421203 0 3379 -2.2208445975421203 1
gene 1 261 412 -0.54645997998139828 0 3503 -0.54645997998139828 1
gene 1 2 309 0.46441566255614875 0 3516 0.46441566255614875 1
gene 1 16 502 1.2012022662447777 0 3522 1.2012022662447777 1
gene 1 502 18 2.0904387823959993 0 3523 2.0904387823959993 1
gene 2 14 504 2.2181310168086226 0 3529 2.2181310168086226 0
gene 2 504 17 -0.17657760038346873 0 3530 -0.17657760038346873 1
gene 1 434 434 1.1065586501995841 1 3724 1.1065586501995841 1
gene 2 333 537 0.3130613514515857 0 3753 0.3130613514515857 0
gene 2 537 18 -0.22886286954342538 0 3754 -0.22886286954342538 1
gene 1 16 541 0.098996703326234892 0 3775 0.098996703326234892 1
gene 1 541 118 0.56490976005555582 0 3776 0.56490976005555582 1
gene 1 10 434 -0.94243230621443685 0 3937 -0.94243230621443685 1
gene 2 354 333 2.219032906796333 0 3963 2.219032906796333 1
gene 1 5 572 -0.4157390779190413 0 3972 -0.4157390779190413 1
gene 1 572 222 -0.93326934377349424 0 3973 -0.93326934377349424 1
gene 1 537 309 -0.81786963696026704 0 4145 -0.81786963696026704 1
gene 2 180 594 -0.24771026789569778 0 4171 -0.24771026789569778 1
gene 2 594 118 0.13843468862512834 0 4172 0.13843468862512834 1
gene 3 6 333 0.86223375755931886 0 4360 0.86223375755931886 1
gene 2 541 541 -1.3029280812726021 1 4400 -1.3029280812726021 1
gene 2 14 631 -1.6741377289519355 0 4411 -1.6741377289519355 1
gene 2 631 504 0.24486393492895367 0 4412 0.24486393492895367 1
gene 2 261 261 -1.0366360357900317 1 4450 -1.0366360357900317 1
gene 3 10 502 -0.45249061121255651 0 4779 -0.45249061121255651 1
gene 3 13 309 0.81812359849834992 0 4820 0.81812359849834992 1
gene 2 502 333 0.39254094131409234 0 4924 0.39254094131409234 1
gene 3 22 695 -0.22840268839076294 0 4955 -0.22840268839076294 1
gene 3 695 17 -0.42045896810966488 0 4956 -0.42045896810966488 1
gene 2 4 537 -0.92349504966917217 0 4979 -0.92349504966917217 1
gene 1 222 699 0.43724113886116123 1 4997 0.43724113886116123 0
gene 1 699 222 0.29582688377510147 0 4998 0.29582688377510147 1
gene 2 333 695 -0.007968458117902491 0 5146 -0.007968458117902491 0
gene 3 2 541 0.85175452199846258 0 5236 0.85175452199846258 1
gene 2 15 434 -0.48171477601011969 0 5393 -0.48171477601011969 1
gene 2 9 760 0.038291218708404906 0 5406 0.038291218708404906 1
gene 2 760 17 -0.12923104426787746 0 5407 -0.12923104426787746 1
gene 1 9 763 0.34347810146560809 0 5428 0.34347810146560809 1
gene 1 763 118 0.28471222102395832 0 5429 0.28471222102395832 1
gene 1 222 776 0.36989266838407731 1 5501 0.36989266838407731 1
gene 1 776 699 1.0209813567441801 0 5502 1.0209813567441801 1
gene 1 537 537 -1.411430974682528 1 5567 -1.411430974682528 1
gene 2 333 807 -0.55500021137064337 0 5759 -0.55500021137064337 1
gene 2 807 537 0.27724140103777928 0 5760 0.27724140103777928 1
gene 2 354 17 -0.72279513172004139 0 5816 -0.72279513172004139 1
gene 1 14 222 0.56818456438751186 0 5826 0.56818456438751186 1
gene 2 8 504 1.3503251495306965 0 5855 1.3503251495306965 1
gene 2 180 17 0.2162970967899529 0 5876 0.2162970967899529 1
gene 2 2 434 -1.773621018521311 0 5904 -1.773621018521311 1
gene 1 354 572 -0.52446879459287432 0 6006 -0.52446879459287432 1
gene 1 333 541 0.68232588455189291 0 6042 0.68232588455189291 1
gene 3 6 572 0.37888939079311185 0 6207 0.37888939079311185 1
gene 1 11 884 1 0 6376 0 1
gene 1 884 245 3.060564469225036 0 6377 0 1
gene 3 760 504 0.093042229345553659 0 6428 0.093042229345553659 1
gene 3 537 434 0.017812029932538061 0 6450 0.017812029932538061 1
gene 1 807 763 0.052832073556646736 0 6458 0.052832073556646736 1
gene 2 333 894 1 0 6480 0 1
gene 2 894 695 -0.007968458117902491 0 6481 0 1
gene 3 222 894 -0.0012280545203145847 0 6491 -0.0012280545203145847 1
gene 1 11 894 -0.87802567979228952 0 6504 -0.87802567979228952 1
gene 1 5 354 -0.35366370126309976 0 6599 -0.35366370126309976 1
genomeend 1
