genomestart 1
trait 1 0.61843 0 1 0.718965 0 0 0.816192 0 
trait 2 0 0 0.535253 0 0 0 0.628519 0 
trait 3 0.363758 0 0 0.8392 0 0 0.628861 0 
node 1 2 1 3
node 2 1 1 1
node 3 2 1 1
node 4 3 1 1
node 5 3 1 1
node 6 2 1 1
node 7 3 1 1
node 8 1 1 1
node 9 3 1 1
node 10 1 1 1
node 11 1 1 1
node 12 3 1 1
node 13 2 1 1
node 14 3 1 1
node 15 2 1 1
node 16 2 1 1
node 17 1 0 2
node 18 1 0 2
node 19 1 0 0
nodegru 88 0 3.2182028649692427 1.0277814048006113 -1.0853638579535132 0.38747684198314175 0.049595639714783091 -0.044650565155153477 [ -0.02211036254750115 0.20232435837496276 ] [ -1.7171930733449725 0.36943944386180472 ] [ -1.2431056032623655 0.68208879927736188 ]
node 94 1 0 0
node 130 1 0 0
nodegru 278 0 0.58384237582042919 -0.84204064081052343 -0.20889718840313015 -0.48959179350155957 -0.64398431749734297 0.68902673837217798 [ 1.1501548086060933 -0.080799107477441012 0.062593951151982852 ] [ 0.49976841895830287 0.66937197275430527 0.88578553678737282 ] [ 0.01355073159260245 -0.47844538568912331 -0.78199661024007794 ]
node 340 1 0 0
nodegru 357 0 -0.87453178473493631 0.27564405755868371 -1.3947275129122323 -0.045190093943472065 0.13011878036433772 0.06420638031056447 [ 0.0070144512024775119 ] [ 0.54531328324010286 ] [ -0.55795999409535901 ]
nodegru 415 0 -0.10804693231268175 -0.35931952896496261 -0.23985129734028643 0.13119488227236775 0.47079685817975403 0.52738442412921438 [ -0.84732789015273002 0.013704496907864017 ] [ 0.56914454340894916 -0.081641809354369377 ] [ -0.59481468451899233 0.10630647552027672 ]
node 453 1 0 0
node 465 3 0 0
nodegru 510 0 0 0.096761987356823842 0 -0.69377939481929851 -0.057324889142683189 0 [ 0.25379587011588545 ] [ 0.70511132139019261 ] [ -0.64464566188149419 ]
nodegru 513 0 -0.39485057892503705 0 0 0 0.47620175801040687 0.30623832720156685 [ 0.34892916392950768 ] [ -0.96558009377474896 ] [ 0.30723274536767636 ]
node 551 1 0 0
node 581 2 0 0
node 604 1 0 0
gene 1 1 17 1.59490045222682 0 1 1.59490045222682 1
gene 1 2 17 0.6689443346899675 0 2 0.6689443346899675 1
gene 3 3 17 1.2598746444610291 0 3 1.2598746444610291 1
gene 3 4 17 -0.34070199522688144 0 4 -0.34070199522688144 0
gene 1 5 17 -0.867181589415847 0 5 -0.867181589415847 0
gene 3 6 17 0.58744709535383022 0 6 0.58744709535383022 1
gene 1 7 17 2.7650984689896458 0 7 2.7650984689896458 1
gene 1 8 17 -0.25911452889401215 0 8 -0.25911452889401215 1
gene 2 9 17 0.078561615351849245 0 9 0.078561615351849245 1
gene 3 10 17 -1.4103334899574209 0 10 -1.4103334899574209 0
gene 2 11 17 2.0764410533366919 0 11 2.0764410533366919 1
gene 2 12 17 -2.3492484943006415 0 12 -2.3492484943006415 0
gene 2 13 17 -0.59999514876398963 0 13 -0.59999514876398963 1
gene 1 14 17 -0.18426597615902582 0 14 -0.18426597615902582 0
gene 3 15 17 -5.3987212675384804 0 15 -5.3987212675384804 1
gene 1 16 17 -5.3067479603023955 0 16 -5.3067479603023955 1
gene 2 1 18 0.76829477388798018 0 17 0.76829477388798018 1
gene 2 2 18 -0.92963631925156176 0 18 -0.92963631925156176 1
gene 3 3 18 -0.70498639785451134 0 19 -0.70498639785451134 1
gene 3 4 18 0.80937310776644045 0 20 0.80937310776644045 1
gene 2 5 18 -2.4559481966802612 0 21 -2.4559481966802612 1
gene 3 6 18 -2.703408274079397 0 22 -2.703408274079397 1
gene 3 7 18 1.9727370194032494 0 23 1.9727370194032494 0
gene 2 8 18 0.36644345550632268 0 24 0.36644345550632268 0
gene 2 9 18 -0.056563253890053872 0 25 -0.056563253890053872 1
gene 2 10 18 -0.074497037369057717 0 26 -0.074497037369057717 0
gene 2 11 18 -2.6271586423400599 0 27 -2.6271586423400599 1
gene 2 12 18 -0.21168195419557478 0 28 -0.21168195419557478 1
gene 3 13 18 -1.4506898493043567 0 29 -1.4506898493043567 0
gene 3 14 18 3.8372080587256732 0 30 3.8372080587256732 1
gene 2 15 18 8 0 31 8 1
gene 1 16 18 1.3337632227147758 0 32 1.3337632227147758 1
gene 2 10 19 4.4039157900977495 0 35 4.4039157900977495 1
gene 3 19 18 1.7573261234244919 0 36 1.7573261234244919 1
gene 1 6 19 -2.6890030173533614 0 65 -2.6890030173533614 1
gene 3 19 19 1.2877666761808872 1 112 1.2877666761808872 1
gene 3 3 19 0.92356470328456042 0 438 0.92356470328456042 1
gene 3 7 88 -5.1243369017608176 0 530 -5.1243369017608176 1
gene 3 88 18 -1.6649808074184607 0 531 -1.6649808074184607 1
gene 3 13 94 -0.55313698309619774 0 568 -0.55313698309619774 0
gene 3 94 18 1.4137565638701228 0 569 1.4137565638701228 1
gene 1 5 130 -0.36466408153747421 0 813 -0.36466408153747421 1
gene 2 130 17 2.2124151885334471 0 814 2.2124151885334471 1
gene 2 18 18 -0.6876099889341788 1 951 -0.6876099889341788 1
gene 1 6 130 1.3176599068416561 0 1113 1.3176599068416561 0
gene 3 16 130 -0.51817776892249356 0 1365 -0.51817776892249356 0
gene 1 13 19 -4.041613798025816 0 1524 -4.041613798025816 0
gene 2 6 88 -1.304504858355273 0 1542 -1.304504858355273 1
gene 2 14 94 -4.1867910483557687 0 1547 -4.1867910483557687 1
gene 1 13 278 -1.4559612233219483 0 1700 -1.4559612233219483 0
gene 1 278 19 -0.11936047248046877 0 1701 -0.11936047248046877 1
gene 2 17 17 -0.78916104826571465 1 1842 -0.78916104826571465 0
gene 1 10 130 0.97801791817323203 0 1995 0.97801791817323203 1
gene 1 94 94 0.23906309285157504 1 2005 0.23906309285157504 1
gene 1 13 340 -1.3911659423686404 0 2159 -1.3911659423686404 1
gene 1 340 278 -0.54883195939419416 0 2160 -0.54883195939419416 1
gene 1 10 357 -1.5058919505709278 0 2277 -1.5058919505709278 1
gene 3 357 17 0.57392632103242303 0 2278 0.57392632103242303 1
gene 1 12 130 -0.11327354801505513 0 2585 -0.11327354801505513 1
gene 2 17 415 3.1411137208999662 1 2605 3.1411137208999662 1
gene 2 415 17 -0.28710805149148594 0 2606 -0.28710805149148594 1
gene 3 340 94 -0.44799741867370768 0 2672 -0.44799741867370768 1
gene 1 357 415 0.12803671910801753 0 2678 0.12803671910801753 1
gene 3 13 453 -0.93615060692473806 0 2860 -0.93615060692473806 1
gene 3 453 94 -0.10355451719535269 0 2861 -0.10355451719535269 1
gene 2 8 465 0.79010265555237535 0 2929 0.79010265555237535 1
gene 2 465 18 -0.96116884411832737 0 2930 -0.96116884411832737 1
gene 3 453 465 -0.9604647460907999 0 3102 -0.9604647460907999 1
gene 3 3 465 -0.80976300945494473 0 3140 -0.80976300945494473 1
gene 1 453 278 1.9456311748109902 0 3180 1.9456311748109902 1
gene 2 12 510 -1.2398802249179595 0 3260 -1.2398802249179595 1
gene 2 510 17 -0.12129372177705815 0 3261 -0.12129372177705815 1
gene 3 16 513 0.76600679581333275 0 3283 0.76600679581333275 1
gene 3 513 130 0.98528752114404339 0 3284 0.98528752114404339 1
gene 3 4 551 0.60024918119900361 0 3488 0.60024918119900361 1
gene 3 551 17 -0.68766460052582645 0 3489 -0.68766460052582645 1
gene 1 14 581 -0.049580251239044706 0 3714 -0.049580251239044706 1
gene 1 581 17 -0.81531553730150486 0 3715 -0.81531553730150486 1
gene 1 6 604 0.23129452601135458 0 3855 0.23129452601135458 1
gene 1 604 130 -0.31728145774327288 0 3856 -0.31728145774327288 1
genomeend 1
