genomestart 1
trait 1 0 1 0 1 0.00737898 0 0.239027 0 
trait 2 0.530432 0.160443 0.181636 0.145451 0.84284 0 0.57674 0.768793 
trait 3 0 0 0.670457 0 0.0595652 0 1 0 
node 1 2 1 3
node 2 1 1 1
node 3 3 1 1
node 4 3 1 1
node 5 3 1 1
node 6 1 1 1
node 7 1 1 1
node 8 3 1 1
node 9 1 1 1
node 10 1 1 1
node 11 3 1 1
node 12 2 1 1
node 13 1 1 1
node 14 2 1 1
node 15 2 1 1
node 16 1 1 1
node 17 1 0 2
node 18 2 0 2
node 26 2 0 0
node 40 1 0 0
node 45 1 0 0
nodegru 95 0 1.0889792668581844 0.57763338150812005 -1.5600527662597843 0.83452640675684742 0.75811827800149012 -2.0929736536196306 [ -0.46796790369226016 -2.3238562028034853 -0.9009236035174335 -0.67170801545572845 -0.60793729049988898 0.28905905261126297 0.55442804030814574 -0.43686164540092531 -1.1302452638653318 0 ] [ 1.7006873751295206 -1.3203889211036213 0.42703060685984373 0.19862991825147991 0.78897695757401021 0.45835646717266942 -0.20276005319448182 -0.30880378014818011 0.57635951977053634 0 ] [ 0.9473210369224293 0.62992277421519272 -0.17470307155731285 0.06151826100494634 -1.4948546311328443 -0.54659299065665934 -1.5971840367872194 -0.64989625227167092 -0.84394488208645246 0 ]
node 175 1 0 0
nodegru 199 0 -0.96749684713664297 1.0420471249576879 -0.87622310227072964 0.26320025476776082 0.064193735161886423 -1.9931569913137506 [ 0.81229605516991399 -0.049350100243161471 ] [ -0.43610540285525162 2.1098236828622521 ] [ -0.69025005129643258 0.20924809712881598 ]
node 204 1 0 0
nodegru 206 0 0.15134307760807825 0.85491862723367218 0.19952409549128447 -0.48984581615768641 -0.91812982103700269 0.43820253651971108 [ 0.24600561789516617 -0.2543280846459457 -0.019740576050123582 0.67360016304235915 -0.30572898898074824 ] [ -0.7950970981247244 0.23379222593912502 0.18100437157834157 -0.93556880051529445 0 ] [ 0.35407764597520131 1.2558658882071572 0.28422473617094796 -0.9757692697345135 -0.21518647575992461 ]
nodegru 232 0 0.6323531437117389 -1.1022020400744874 -0.35476819186227782 -0.61688596120424855 1.0794586957569505 0.58447512848511107 [ -0.4369193212766756 -0.1704017931690448 ] [ -0.26412538672523822 0 ] [ 0.19660400003036668 0 ]
node 255 1 0 0
nodegru 269 0 -0.6936319794941842 0.52974349156941436 -1.5870095441755883 -0.41309531983597914 -1.5189552647149915 -0.54076667038759529 [ -0.094860285099065078 ] [ 0.18053156727949704 ] [ -1.836454841930631 ]
node 293 1 0 0
node 341 1 0 0
nodegru 361 0 -0.16920470337812077 0.45495586339615091 -0.20644078925551884 -1.4193406034816713 -0.02456285712521656 -1.2195105063587008 [ -0.57044803098330654 0 ] [ -0.39252943575500016 0.2751701049391041 ] [ -0.82803643673101279 0 ]
nodegru 403 0 -0.0082199428035970509 0.47932535315832375 -0.6341371884961321 0.84816083828832989 0 0.40219288477776244 [ -1.4093971472044462 ] [ -0.22404625638110853 ] [ -0.39805539890567554 ]
nodegru 430 0 0.25634782924612415 -0.75837106153293099 -0.35613187512202732 -0.023033104265589688 -0.78004253435881921 -0.69426034039084827 [ -0.40412013507639999 ] [ 0.0022787646168279385 ] [ 0.9867812569657255 ]
nodegru 444 0 -0.0063993071701374405 0.50653649773753084 1.0502112900373577 -0.22177784760565394 -0.73998545365873047 -0.26731311356058024 [ 0.080581268449584575 0 ] [ 0.40088916705031374 0 ] [ 1.0765567715636253 0 ]
nodegru 479 0 -0.081529392665964262 0.11758559854588732 -0.40484318074530146 -0.70234170134754004 0 1.2275591167749647 [ -0.57564200545923871 ] [ 0.1892898695959197 ] [ -0.1602485018830041 ]
node 499 1 0 0
node 523 1 0 0
node 562 1 0 0
nodegru 589 0 0.23891439195206127 0 0 0 0.44813309793739259 0 [ 0 ] [ 0.57943938757732483 ] [ 0.49652053520387063 ]
node 606 1 0 0
nodegru 618 0 -0.52189594589727739 -0.19989688307973402 0.18197069639897473 0 -0.72537899586622556 0 [ 0.64314016380493533 ] [ -0.19009932395541079 ] [ -0.22973407932079121 ]
nodegru 638 0 0 0 0 0 0 0 [ 0 ] [ 0 ] [ 0 ]
node 690 1 0 0
node 722 1 0 0
node 742 1 0 0
node 744 1 0 0
nodegru 773 0 0 0 0 0 0 0 [ 0 ] [ 0 ] [ 0 ]
node 774 1 0 0
nodegru 786 0 0 0 0 0 0 0 [ 0 ] [ 0 ] [ 0 ]
gene 1 1 17 -0.20549302266700803 0 1 -0.20549302266700803 1
gene 3 2 17 4.4850444900733608 0 2 4.4850444900733608 1
gene 2 3 17 1.9891438879953436 0 3 1.9891438879953436 1
gene 3 4 17 0.24509841028838231 0 4 0.24509841028838231 1
gene 2 5 17 -7.2725914830912783 0 5 -7.2725914830912783 1
gene 3 6 17 -5.0431626145928945 0 6 -5.0431626145928945 1
gene 2 7 17 -0.19087405977345745 0 7 -0.19087405977345745 1
gene 3 8 17 0.25733881257816166 0 8 0.25733881257816166 0
gene 3 9 17 3.303090533615598 0 9 3.303090533615598 0
gene 1 10 17 1.6106361140779386 0 10 1.6106361140779386 1
gene 3 11 17 -1.627567716700755 0 11 -1.627567716700755 1
gene 2 12 17 -0.47321155351736188 0 12 -0.47321155351736188 1
gene 2 13 17 1.3962017712864101 0 13 1.3962017712864101 0
gene 1 14 17 -0.40510698403469603 0 14 -0.40510698403469603 0
gene 1 15 17 -8 0 15 -8 1
gene 1 16 17 -6.6153407663178356 0 16 -6.6153407663178356 1
gene 3 1 18 3.8799469461105542 0 17 3.8799469461105542 1
gene 3 2 18 0.079005672516769543 0 18 0.079005672516769543 1
gene 3 3 18 -1.5893129477460464 0 19 -1.5893129477460464 1
gene 3 4 18 -1.287255119898941 0 20 -1.287255119898941 1
gene 3 5 18 -0.012890791526478762 0 21 -0.012890791526478762 1
gene 2 6 18 -0.19166723123829219 0 22 -0.19166723123829219 1
gene 3 7 18 -0.49542571161660631 0 23 -0.49542571161660631 0
gene 1 8 18 1.4192005593419079 0 24 1.4192005593419079 0
gene 1 9 18 1.5120195328546782 0 25 1.5120195328546782 0
gene 1 10 18 -1.3114626758319616 0 26 -1.3114626758319616 1
gene 1 11 18 0.21974966871540508 0 27 0.21974966871540508 1
gene 3 12 18 0.18737860218965308 0 28 0.18737860218965308 0
gene 3 13 18 -0.37458742893048907 0 29 -0.37458742893048907 1
gene 1 14 18 0.44363520699256809 0 30 0.44363520699256809 0
gene 3 15 18 0.27133500460597454 0 31 0.27133500460597454 0
gene 3 16 18 -1.7519802674660365 0 32 -1.7519802674660365 0
gene 1 15 26 0.37923092855104756 0 73 0.37923092855104756 1
gene 1 26 18 1.2950121060921864 0 74 1.2950121060921864 0
gene 2 1 26 -0.27670145210656405 0 118 -0.27670145210656405 0
gene 1 8 26 -2.0029154111411964 0 138 -2.0029154111411964 1
gene 3 3 26 -0.039059157152222024 0 170 -0.039059157152222024 0
gene 2 10 40 2.8930490071154433 0 185 2.8930490071154433 1
gene 1 40 17 3.9140325819207504 0 186 3.9140325819207504 0
gene 3 7 45 0.3063761679485329 0 201 0.3063761679485329 1
gene 3 45 18 -1.398569746244964 0 202 -1.398569746244964 1
gene 2 11 26 3.4745882660963527 0 213 3.4745882660963527 1
gene 2 40 45 -3.5831047718334501 0 336 -3.5831047718334501 1
gene 2 40 95 1.0864607375517772 0 554 1.0864607375517772 1
gene 2 95 17 1.0960568271558988 0 555 1.0960568271558988 1
gene 2 1 45 -0.79991838140409355 0 601 -0.79991838140409355 1
gene 3 16 26 0.6624429247632827 0 651 0.6624429247632827 0
gene 3 16 95 -3.7009961732900694 0 732 -3.7009961732900694 1
gene 3 5 95 -0.71534102175633474 0 745 -0.71534102175633474 0
gene 3 14 26 -0.64444967831692157 0 777 -0.64444967831692157 1
gene 2 8 40 0.36839371412917676 0 808 0.36839371412917676 0
gene 1 4 45 0.51011547958949377 0 848 0.51011547958949377 0
gene 3 11 40 0.41158772977608615 0 854 0.41158772977608615 1
gene 2 26 95 1.4114177079924461 0 936 1.4114177079924461 1
gene 2 8 95 1.7219590416513193 0 949 1.7219590416513193 1
gene 3 9 40 1.6290463165515325 0 1076 1.6290463165515325 1
gene 3 9 175 4.4825875541347022 0 1111 4.4825875541347022 1
gene 3 175 17 -2.6618133583859604 0 1112 -2.6618133583859604 1
gene 1 9 199 -1.6088641011663081 0 1249 -1.6088641011663081 1
gene 1 199 18 0.75590540492250846 0 1250 0.75590540492250846 1
gene 1 26 204 0.32438295151776775 0 1282 0.32438295151776775 0
gene 1 204 18 1.0117023723487288 0 1283 1.0117023723487288 1
gene 1 14 206 2.5920608899751958 0 1304 2.5920608899751958 1
gene 1 206 18 0.44971270775409083 0 1305 0.44971270775409083 1
gene 2 8 206 -0.88545961137184082 0 1402 -0.88545961137184082 1
gene 1 175 45 0.20723745073528843 0 1411 0.20723745073528843 1
gene 3 45 204 -5.2284810100581876 0 1416 -5.2284810100581876 0
gene 3 17 206 -2.0300954176485986 1 1450 -2.0300954176485986 1
gene 3 10 26 0.20103160103365386 0 1457 0.20103160103365386 1
gene 2 18 18 -1.3805715268852987 1 1488 -1.3805715268852987 1
gene 2 45 95 0.40881440597996788 0 1518 0.40881440597996788 1
gene 3 5 232 0.083902781984723535 0 1524 0.083902781984723535 1
gene 3 232 95 -0.06904250863894934 0 1525 -0.06904250863894934 0
gene 3 16 255 -0.74499001528368802 0 1675 -0.74499001528368802 1
gene 1 255 18 -6.0010789301018592 0 1676 -6.0010789301018592 1
gene 3 255 17 -0.51224427763942826 0 1682 -0.51224427763942826 0
gene 1 26 269 -0.41093705730090713 0 1768 -0.41093705730090713 1
gene 1 269 204 -0.40938172706374054 0 1769 -0.40938172706374054 0
gene 1 269 293 -3.7879354463834018 0 1974 -3.7879354463834018 1
gene 1 293 204 -0.18708773617962737 0 1975 -0.18708773617962737 0
gene 3 13 40 -0.27327896353010039 0 2008 -0.27327896353010039 1
gene 1 3 45 1.1981930652159236 0 2013 1.1981930652159236 0
gene 2 255 293 -0.79780482270186992 0 2131 -0.79780482270186992 1
gene 3 11 175 -1.5441833917490131 0 2199 -1.5441833917490131 1
gene 3 2 199 0.66600870546698976 0 2206 0.66600870546698976 1
gene 3 199 26 0.23582247341322815 0 2221 0.23582247341322815 1
gene 3 255 26 0.048620534152081486 0 2225 0.048620534152081486 1
gene 1 4 341 0.17658611220614351 0 2306 0.17658611220614351 0
gene 1 341 45 -0.31434096387323962 0 2307 -0.31434096387323962 1
gene 1 8 361 -2.5808073785532297 0 2417 -2.5808073785532297 0
gene 1 361 18 0.67041497103423575 0 2418 0.67041497103423575 1
gene 3 232 403 -0.17841612509378058 0 2683 -0.17841612509378058 1
gene 3 403 95 0.63055263756800095 0 2684 0.63055263756800095 1
gene 1 175 206 2.8312639777228537 0 2720 2.8312639777228537 0
gene 1 199 255 1.6329713344494672 0 2724 1.6329713344494672 0
gene 2 206 341 2.6256755061334349 0 2805 2.6256755061334349 1
gene 2 14 430 0.10123630280198359 0 2829 0.10123630280198359 1
gene 2 430 17 -0.664034687291847 0 2830 -0.664034687291847 0
gene 3 45 444 -1.1341289820308467 0 2920 -1.1341289820308467 1
gene 3 444 204 0.27833390877504549 0 2921 0.27833390877504549 1
gene 2 175 341 0.034931940857754994 0 3008 0.034931940857754994 0
gene 1 2 95 -0.00067124306255528232 0 3081 -0.00067124306255528232 1
gene 2 8 479 -0.44676947893890057 0 3232 -0.44676947893890057 1
gene 2 479 40 -0.3034148977852496 0 3233 -0.3034148977852496 1
gene 3 4 255 -0.3590617976659265 0 3345 -0.3590617976659265 0
gene 3 4 499 0.31171082358886987 0 3353 0.31171082358886987 1
gene 3 499 255 0.85145990997620846 0 3354 0.85145990997620846 1
gene 1 199 523 1.113733425905804 0 3547 1.113733425905804 1
gene 1 523 255 -2.7411283982177865 0 3548 -2.7411283982177865 1
gene 2 206 232 -1.1120936899036606 0 3752 -1.1120936899036606 1
gene 2 12 499 -0.35475514612847708 0 3765 -0.35475514612847708 1
gene 3 12 562 -0.21484086823875126 0 3794 -0.21484086823875126 1
gene 3 562 18 -1.2327404862655049 0 3795 -1.2327404862655049 1
gene 1 523 523 1.6038748187031013 1 3875 1.6038748187031013 1
gene 2 175 589 -0.43456851420205478 0 3951 -0.43456851420205478 1
gene 2 589 341 -0.6734788349938946 0 3952 -0.6734788349938946 1
gene 1 8 606 0.17718240778296368 0 4029 0.17718240778296368 1
gene 1 606 361 -0.82153546056781679 0 4030 -0.82153546056781679 1
gene 1 175 618 0.35447596588846109 0 4102 0.35447596588846109 1
gene 1 618 206 0.38829208334828358 0 4103 0.38829208334828358 1
gene 2 5 638 0.62147253315033046 0 4229 0.62147253315033046 1
gene 2 638 17 -7.4013744912349493 0 4230 -7.4013744912349493 1
gene 1 4 690 -0.14531413425938883 0 4518 -0.14531413425938883 1
gene 1 690 341 -0.53399963236134473 0 4519 -0.53399963236134473 1
gene 3 8 722 -0.001872261870592945 0 4715 -0.001872261870592945 0
gene 3 722 17 0.58650540669285944 0 4716 0.58650540669285944 1
gene 1 293 742 0.54099328957544324 0 4852 0.54099328957544324 1
gene 1 742 204 -1.3310605244855678 0 4853 -1.3310605244855678 1
gene 2 430 744 1 0 4872 1 1
gene 2 744 17 -0.69959487868454073 0 4873 -0.69959487868454073 1
gene 3 638 40 0.2156190478548497 0 4929 0.2156190478548497 1
gene 3 742 95 -1.1623600914200583 0 4945 -1.1623600914200583 1
gene 3 17 444 0.043730513678738155 1 4980 0.043730513678738155 1
gene 1 690 690 0.46020226295115529 1 4992 0.46020226295115529 1
gene 3 8 773 1 0 5046 0 1
gene 3 773 722 -0.001872261870592945 0 5047 0 1
gene 3 3 774 1 0 5055 0 1
gene 3 774 26 -0.039059157152222024 0 5056 0 1
gene 1 3 786 1 0 5131 0 1
gene 1 786 45 1.1981930652159236 0 5132 0 1
gene 1 11 744 -0.85958941553700219 0 5158 -0.85958941553700219 1
genomeend 1
