genomestart 1
trait 1 0 0.369485 0.680231 0.739934 1 0 0.438387 0.56936 
trait 2 0 0 0.868402 0.758213 0.0842113 0 0 0 
trait 3 0.3 0 0.632414 0 0 0 0 0 
node 1 1 1 3
node 2 3 1 1
node 3 3 1 1
node 4 3 1 1
node 5 2 1 1
node 6 2 1 1
node 7 3 1 1
node 8 3 1 1
node 9 3 1 1
node 10 3 1 1
node 11 1 1 1
node 12 3 1 1
node 13 1 1 1
node 14 1 1 1
node 15 2 1 1
node 16 3 1 1
node 17 3 0 2
node 18 2 0 2
nodegru 20 0 0.61338327318121821 -0.75165324448684845 0.65831469251230124 -1.8985791264095244 0.81483234782462588 1.5463330949639587 [ 1.1634227414212295 0.39999828180298136 ] [ 0.032987472034519294 -0.0072586851926794843 ] [ -1.9739799327095877 0.064567343129109278 ]
node 26 1 0 0
nodegru 59 0 -0.66157483689560315 0 0 0 -0.51639785082843059 -0.32284261615613596 [ 0 ] [ 0 ] [ 0.32159460176322358 ]
node 107 1 0 0
node 111 1 0 0
node 124 1 0 0
nodegru 136 0 -0.2416929820280955 -0.57589681356954237 -0.21231562048770283 -0.075259787414809598 0.10780345409074958 0 [ 0.096880266488008321 ] [ 0.31226720838447442 ] [ -0.71812969840510266 ]
gene 1 1 17 0.047237186248990259 0 1 0.047237186248990259 1
gene 3 2 17 1.1280785219874598 0 2 1.1280785219874598 1
gene 3 3 17 0.00039317505452407531 0 3 0.00039317505452407531 1
gene 1 4 17 -0.17075203867664202 0 4 -0.17075203867664202 1
gene 3 5 17 -1.2846255010387981 0 5 -1.2846255010387981 1
gene 1 6 17 -4.539856048086591 0 6 -4.539856048086591 1
gene 3 7 17 -3.613298147620307 0 7 -3.613298147620307 1
gene 3 8 17 0.11404900956621801 0 8 0.11404900956621801 1
gene 2 9 17 0.18640765405092746 0 9 0.18640765405092746 1
gene 2 10 17 0.74645486322532173 0 10 0.74645486322532173 1
gene 2 11 17 0.40709312034635475 0 11 0.40709312034635475 1
gene 3 12 17 0.21958063052482035 0 12 0.21958063052482035 0
gene 3 13 17 -0.5507519670299964 0 13 -0.5507519670299964 0
gene 3 14 17 -0.060572325862279286 0 14 -0.060572325862279286 1
gene 2 15 17 -2.3045965683667906 0 15 -2.3045965683667906 1
gene 1 16 17 -2.3954100534996998 0 16 -2.3954100534996998 1
gene 2 1 18 -0.49279284267350698 0 17 -0.49279284267350698 1
gene 1 2 18 -2.7456298581071339 0 18 -2.7456298581071339 0
gene 2 3 18 0.20166803510005971 0 19 0.20166803510005971 1
gene 2 4 18 0.72115906838847288 0 20 0.72115906838847288 1
gene 1 5 18 1.6430406645606461 0 21 1.6430406645606461 1
gene 3 6 18 -0.50020226696515546 0 22 -0.50020226696515546 1
gene 2 7 18 1.9515579705832333 0 23 1.9515579705832333 1
gene 1 8 18 1.9769403947177069 0 24 1.9769403947177069 1
gene 1 9 18 -0.68734062739524082 0 25 -0.68734062739524082 1
gene 2 10 18 -0.41894990632727269 0 26 -0.41894990632727269 1
gene 1 11 18 -0.62021779670390198 0 27 -0.62021779670390198 1
gene 2 12 18 2.1873315372212465 0 28 2.1873315372212465 1
gene 2 13 18 -1.2035627561637958 0 29 -1.2035627561637958 0
gene 3 14 18 1.2306794101515224 0 30 1.2306794101515224 1
gene 2 15 18 1.1698225200734207 0 31 1.1698225200734207 1
gene 1 16 18 1.8920511936964708 0 32 1.8920511936964708 1
gene 1 13 20 0.13588313077850417 0 37 0.13588313077850417 1
gene 3 20 18 -1.2731495817532528 0 38 -1.2731495817532528 1
gene 1 2 26 1.2726221270964584 0 70 1.2726221270964584 0
gene 1 26 18 -0.11671972908858197 0 71 -0.11671972908858197 1
gene 1 18 18 0.78019741237172735 1 88 0.78019741237172735 1
gene 2 26 26 0.16615140969685804 1 102 0.16615140969685804 1
gene 2 11 20 -0.75444956368508242 0 113 -0.75444956368508242 1
gene 1 2 59 0.58196592870259944 0 283 0.58196592870259944 1
gene 1 59 26 -0.66665483110894208 0 284 -0.66665483110894208 1
gene 3 12 107 0.50908325030891377 0 570 0.50908325030891377 1
gene 3 107 17 -0.068407064335609946 0 571 -0.068407064335609946 1
gene 3 13 111 0.97280079322997526 0 596 0.97280079322997526 0
gene 3 111 17 0.20745130800989053 0 597 0.20745130800989053 1
gene 3 13 124 1.0515684205114697 0 674 1.0515684205114697 1
gene 3 124 111 1.1896183923536998 0 675 1.1896183923536998 0
gene 3 124 136 -0.83612040725355996 0 740 -0.83612040725355996 1
gene 3 136 111 -0.095798144278022523 0 741 -0.095798144278022523 1
genomeend 1
