genomestart 1
trait 1 0.781606 0.500487 0 0.976152 0.756584 0.885148 0.372219 0.691264 
trait 2 0.2 0 0 0 0 0 0 0.813037 
trait 3 0.79896 0 0 0.731007 1 0 0 0 
node 1 2 1 3
node 2 3 1 1
node 3 3 1 1
node 4 3 1 1
node 5 2 1 1
node 6 1 1 1
node 7 3 1 1
node 8 2 1 1
node 9 2 1 1
node 10 3 1 1
node 11 2 1 1
node 12 3 1 1
node 13 3 1 1
node 14 2 1 1
node 15 3 1 1
node 16 3 1 1
node 17 2 0 2
node 18 3 0 2
nodegru 26 0 1.1203297388834552 -1.0987305006006407 -0.66029886466464904 0.57186506645375168 0.6734201711013077 -0.81482896852066222 [ -0.19550893232017238 1.6096858433958543 1.4767067881658238 2.2245790724291368 -0.62933132687086768 -0.77288550453860583 -0.26348639478138014 2.0946773665932366 1.1770400899355487 0 ] [ 1.3300958114350661 4.8451868914278169 0.414294322447057 0.15325158492347765 -0.74873974558372991 0 1.3608288368493453 0 0.30522677642536666 0 ] [ 1.6834194849633703 1.5345796721682787 -0.31858283133180015 -0.91275437102315682 -1.298192513081335 -0.77490252082930067 -0.52898537601762707 0 0.78059766431366906 0 ]
node 47 1 0 0
nodegru 121 0 0 0.68035826211811889 0 0 0 0.2402479272523188 [ -0.27723890183364924 1.138403682801129 ] [ 0 -1.2172667599363565 ] [ -1.4696368952140384 0.74202847445478126 ]
node 154 1 0 0
node 167 1 0 0
gene 3 1 17 1.0674105412640658 0 1 1.0674105412640658 1
gene 2 2 17 0.62560419557877078 0 2 0.62560419557877078 1
gene 1 3 17 0.86996608454266844 0 3 0.86996608454266844 1
gene 1 4 17 1.0420637396360113 0 4 1.0420637396360113 1
gene 1 5 17 -2.275879043050054 0 5 -2.275879043050054 1
gene 2 6 17 -0.15328818590067705 0 6 -0.15328818590067705 1
gene 2 7 17 -0.87821272685109286 0 7 -0.87821272685109286 1
gene 2 8 17 0.40510544525697151 0 8 0.40510544525697151 1
gene 1 9 17 -0.11104170354597342 0 9 -0.11104170354597342 1
gene 2 10 17 -1.3348860788787185 0 10 -1.3348860788787185 1
gene 3 11 17 -1.0783371660291858 0 11 -1.0783371660291858 1
gene 2 12 17 1.6533148005387348 0 12 1.6533148005387348 1
gene 3 13 17 0.21197057199290531 0 13 0.21197057199290531 1
gene 3 14 17 -0.16236021028010172 0 14 -0.16236021028010172 1
gene 2 15 17 -3.5299647625209598 0 15 -3.5299647625209598 1
gene 2 16 17 -2.6366480466149045 0 16 -2.6366480466149045 1
gene 2 1 18 0.17913408189971658 0 17 0.17913408189971658 1
gene 3 2 18 -0.068051499113464503 0 18 -0.068051499113464503 1
gene 3 3 18 -0.47014051115612521 0 19 -0.47014051115612521 1
gene 2 4 18 1.4594674501379332 0 20 1.4594674501379332 1
gene 3 5 18 -0.51084646885788376 0 21 -0.51084646885788376 1
gene 2 6 18 0.12141571758380892 0 22 0.12141571758380892 1
gene 3 7 18 -1.2013836946344858 0 23 -1.2013836946344858 1
gene 2 8 18 -0.70543638067573111 0 24 -0.70543638067573111 1
gene 1 9 18 0.61408851673551301 0 25 0.61408851673551301 1
gene 1 10 18 1.028338844668278 0 26 1.028338844668278 0
gene 3 11 18 0.13591610343936653 0 27 0.13591610343936653 1
gene 2 12 18 -1.6036505350394408 0 28 -1.6036505350394408 1
gene 1 13 18 -0.75990199868562724 0 29 -0.75990199868562724 1
gene 1 14 18 3.2246777164864708 0 30 3.2246777164864708 1
gene 2 15 18 6.2689090446889901 0 31 6.2689090446889901 1
gene 1 16 18 2.9299177822796243 0 32 2.9299177822796243 1
gene 2 6 26 0.71627947185946605 0 89 0.71627947185946605 0
gene 2 26 18 -0.37261647329321901 0 90 -0.37261647329321901 1
gene 1 16 26 1.7336167431127358 0 107 1.7336167431127358 0
gene 1 3 26 -0.86483707715051128 0 182 -0.86483707715051128 1
gene 1 1 26 -0.84973461010946638 0 188 -0.84973461010946638 1
gene 3 14 47 -0.27912280512001497 0 264 -0.27912280512001497 1
gene 3 47 17 -0.39782084706137921 0 265 -0.39782084706137921 0
gene 2 10 26 -3.1353769940954521 0 300 -3.1353769940954521 1
gene 2 3 47 1.4948931012744517 0 487 1.4948931012744517 0
gene 2 4 26 -1.1449720382899848 0 491 -1.1449720382899848 1
gene 3 26 17 -1.4998552249743862 0 516 -1.4998552249743862 1
gene 2 7 26 3.9148716635139995 0 523 3.9148716635139995 1
gene 3 47 18 0.28200594302360243 0 536 0.28200594302360243 1
gene 3 15 26 -0.83587915163295312 0 665 -0.83587915163295312 1
gene 2 47 47 0.54494212034388545 1 735 0.54494212034388545 1
gene 2 13 26 0.71014974904719264 0 745 0.71014974904719264 1
gene 3 47 121 -0.40268001584460944 0 788 -0.40268001584460944 1
gene 3 121 17 0.58636832800059036 0 789 0.58636832800059036 1
gene 2 5 47 -0.61560015735011553 0 891 -0.61560015735011553 1
gene 1 121 18 -1.0408032571621255 0 894 -1.0408032571621255 1
gene 3 1 47 -5.9467485157990589 0 945 -5.9467485157990589 1
gene 3 6 47 1.2304185520533562 0 996 1.2304185520533562 1
gene 1 2 121 -2.1230403644140066 0 1049 -2.1230403644140066 1
gene 2 3 154 -0.39817736432802742 0 1053 -0.39817736432802742 1
gene 2 154 47 0.24620294046877089 0 1054 0.24620294046877089 1
gene 2 6 167 -0.41349409376899438 0 1126 -0.41349409376899438 1
gene 2 167 26 2.0419137855255576 0 1127 2.0419137855255576 1
gene 2 9 154 -0.74664589098964163 0 1189 -0.74664589098964163 1
gene 2 14 167 0.39513602079597115 0 1198 0.39513602079597115 1
genomeend 1
