genomestart 1
trait 1 0.808774 0.487225 0.859735 0 0 0 1 0 
trait 2 0.922731 0.345214 0 0 0.166325 0.492521 0 0.884766 
trait 3 0 1 0.92919 0 1 1 0 0.00202416 
node 1 3 1 3
node 2 3 1 1
node 3 3 1 1
node 4 1 1 1
node 5 2 1 1
node 6 1 1 1
node 7 3 1 1
node 8 2 1 1
node 9 2 1 1
node 10 2 1 1
node 11 2 1 1
node 12 1 1 1
node 13 3 1 1
node 14 1 1 1
node 15 2 1 1
node 16 3 1 1
node 17 2 0 2
node 18 3 0 2
gene 3 1 17 -6.4861713560466505 0 1 -6.4861713560466505 1
gene 2 2 17 2.1576173890650372 0 2 2.1576173890650372 1
gene 2 3 17 7.2099223717627687 0 3 7.2099223717627687 1
gene 3 4 17 5.5874398353451094 0 4 5.5874398353451094 1
gene 1 5 17 -7.6519825940029618 0 5 -7.6519825940029618 1
gene 2 6 17 -7.0000929281814459 0 6 -7.0000929281814459 1
gene 1 7 17 -0.16956332764568241 0 7 -0.16956332764568241 1
gene 2 8 17 -1.5976844671404389 0 8 -1.5976844671404389 1
gene 2 9 17 5.576858335676075 0 9 5.576858335676075 1
gene 1 10 17 -8 0 10 -8 1
gene 1 11 17 -3.0737244675744906 0 11 -3.0737244675744906 1
gene 1 12 17 -2.2491700099777301 0 12 -2.2491700099777301 1
gene 3 13 17 -7.0234630855375286 0 13 -7.0234630855375286 1
gene 2 14 17 -5.7617822527009013 0 14 -5.7617822527009013 1
gene 1 15 17 -8 0 15 -8 1
gene 1 16 17 -5.0885593682008636 0 16 -5.0885593682008636 1
gene 1 1 18 4.1335113049175156 0 17 4.1335113049175156 1
gene 2 2 18 8 0 18 8 1
gene 2 3 18 7.5332521854589016 0 19 7.5332521854589016 1
gene 1 4 18 -0.77804477514142345 0 20 -0.77804477514142345 1
gene 1 5 18 7.7523219842707372 0 21 7.7523219842707372 1
gene 2 6 18 -0.88677543955239213 0 22 -0.88677543955239213 1
gene 2 7 18 5.6516267570674552 0 23 5.6516267570674552 1
gene 3 8 18 -3.6231120046568632 0 24 -3.6231120046568632 1
gene 2 9 18 6.8399648588802506 0 25 6.8399648588802506 1
gene 1 10 18 7.869108412353838 0 26 7.869108412353838 1
gene 1 11 18 -0.55629027707329504 0 27 -0.55629027707329504 1
gene 2 12 18 0.66324895686155605 0 28 0.66324895686155605 1
gene 1 13 18 -0.33923657661733991 0 29 -0.33923657661733991 1
gene 1 14 18 -0.057331805959032756 0 30 -0.057331805959032756 1
gene 3 15 18 -1.0893887025720388 0 31 -1.0893887025720388 1
gene 2 16 18 0.54481007009502969 0 32 0.54481007009502969 1
genomeend 1
