genomestart 1
trait 1 0 0.45363 0.895573 0 0.638651 1 0.630849 0.517274 
trait 2 0.968271 0 0.18642 0.745456 0.977851 0.101444 0 1 
trait 3 0.3 0.974907 1 1 0 0 0 0 
node 1 3 1 3
node 2 2 1 1
node 3 2 1 1
node 4 3 1 1
node 5 2 1 1
node 6 3 1 1
node 7 1 1 1
node 8 3 1 1
node 9 3 1 1
node 10 3 1 1
node 11 2 1 1
node 12 1 1 1
node 13 3 1 1
node 14 2 1 1
node 15 3 1 1
node 16 3 1 1
node 17 1 0 2
node 18 3 0 2
nodegru 20 0 0.0038274043490305332 0.39709085873192679 0.88479235355499797 -1.5041601432041078 0.87864483735926679 1.2516185208231299 [ 0.78956327065339482 -0.50845991820490921 ] [ 1.9055409371645848 0.14551242843526974 ] [ 1.4089469223557725 1.0863984397549173 ]
node 22 1 0 0
node 25 2 0 0
nodegru 62 0 -1.0692478546729536 0.46992447458669756 1.3029334582634891 0.77912773344625141 -1.4315864609934326 0.12558454653508233 [ 1.502112449846283 0 0 ] [ -1.5130319563965462 -0.72463748172141496 0 ] [ 0.82700146691734067 -0.39333514060980418 0 ]
nodegru 108 0 -0.45395513994337772 0.18753786777962822 0.43857647242889586 0.11673139599931037 0.066744455516684953 -0.92685429643693118 [ -0.81933286055891441 0 ] [ 0.3533183981679931 0 ] [ 0.012680691789221377 0 ]
nodegru 122 0 -0.20111082503623834 -0.4339705342119422 0.47389169047767843 -0.57676602600923077 0.2087335502536658 -0.30949467632896011 [ 0.26270051557230789 -0.27131888830164391 0 ] [ 1.0351233722339959 0.81683065396120336 -0.34374229381500848 ] [ -0.12577832600836564 0.15094640962823591 0 ]
nodegru 138 0 0.52402998438292636 -0.62929083773833283 -1.1852938722284949 -0.68409383084349984 -0.18382376161582004 -0.16283868668267454 [ 1.2348287354618446 -0.0063686245150718027 -0.29576965807740097 ] [ -0.85384145733147931 0.080971775381347061 0 ] [ -0.70304475128792443 0.55348251064004494 0 ]
nodegru 172 0 0.32177535785444794 0.16914983718616416 0.29256987387434102 -0.30930415357430657 -0.96353919010774192 0.73244370111843748 [ 0.25842627021876458 ] [ 0.49802338704374777 ] [ 1.1991691284110626 ]
node 193 1 0 0
nodegru 262 0 0 0 0 0 0 0 [ 0 ] [ 0 ] [ 0 ]
gene 2 1 17 -2.6203176074755929 0 1 -2.6203176074755929 1
gene 2 2 17 -0.48364497708792109 0 2 -0.48364497708792109 1
gene 2 3 17 1.3382823397816543 0 3 1.3382823397816543 0
gene 1 4 17 -1.3091986403144888 0 4 -1.3091986403144888 0
gene 2 5 17 0.56894957021295545 0 5 0.56894957021295545 0
gene 2 6 17 0.20458101048347588 0 6 0.20458101048347588 1
gene 3 7 17 3.4443651796059527 0 7 3.4443651796059527 1
gene 2 8 17 -0.48705991845906788 0 8 -0.48705991845906788 1
gene 2 9 17 -1.9495850045697694 0 9 -1.9495850045697694 0
gene 2 10 17 0.88677881501465028 0 10 0.88677881501465028 1
gene 1 11 17 -0.73044542082606145 0 11 -0.73044542082606145 1
gene 2 12 17 1.3473517091932483 0 12 1.3473517091932483 1
gene 1 13 17 1.6647797734079788 0 13 1.6647797734079788 0
gene 1 14 17 -2.4192543204032133 0 14 -2.4192543204032133 0
gene 1 15 17 -0.28356743361035708 0 15 -0.28356743361035708 1
gene 1 16 17 -0.57934078845630432 0 16 -0.57934078845630432 0
gene 3 1 18 -0.4075357791304291 0 17 -0.4075357791304291 1
gene 1 2 18 1.1765999146395363 0 18 1.1765999146395363 1
gene 3 3 18 0.68583524037889931 0 19 0.68583524037889931 1
gene 3 4 18 1.2224517916200925 0 20 1.2224517916200925 1
gene 1 5 18 -2.3495223727540697 0 21 -2.3495223727540697 1
gene 1 6 18 -6.4312776155682663 0 22 -6.4312776155682663 1
gene 1 7 18 -1.5202261424950447 0 23 -1.5202261424950447 1
gene 3 8 18 -0.28596230539770895 0 24 -0.28596230539770895 1
gene 2 9 18 0.41538542412006552 0 25 0.41538542412006552 1
gene 1 10 18 1.5711280972795225 0 26 1.5711280972795225 1
gene 1 11 18 2.1508870623777092 0 27 2.1508870623777092 1
gene 3 12 18 -1.0502162716818118 0 28 -1.0502162716818118 1
gene 3 13 18 -1.6885174353087868 0 29 -1.6885174353087868 1
gene 3 14 18 1.9118522378438385 0 30 1.9118522378438385 1
gene 2 15 18 1.2029122705352084 0 31 1.2029122705352084 1
gene 2 16 18 -3.5727143327578497 0 32 -3.5727143327578497 1
gene 1 16 20 0.17880014827419183 0 37 0.17880014827419183 1
gene 1 20 17 1.7745803748371909 0 38 1.7745803748371909 1
gene 2 3 22 -0.42972582144649979 0 50 -0.42972582144649979 1
gene 1 22 17 -0.51079166133924925 0 51 -0.51079166133924925 1
gene 3 9 25 0.79218721147262816 0 64 0.79218721147262816 0
gene 3 25 17 0.24976896005671889 0 65 0.24976896005671889 1
gene 1 13 22 2.7744231640940642 0 154 2.7744231640940642 1
gene 3 11 25 0.68941000299035116 0 291 0.68941000299035116 1
gene 2 5 62 -1.5830017371722507 0 345 -1.5830017371722507 1
gene 2 62 17 -3.8696606731366647 0 346 -3.8696606731366647 1
gene 2 20 18 -2.2365516652290482 0 561 -2.2365516652290482 0
gene 1 22 22 -1.3480961433835774 1 577 -1.3480961433835774 1
gene 2 8 25 -0.16375046277593377 0 592 -0.16375046277593377 1
gene 1 4 20 -0.6802843187145351 0 597 -0.6802843187145351 1
gene 2 20 108 1.1493137045294577 0 640 1.1493137045294577 1
gene 2 108 18 0.6235438060823566 0 641 0.6235438060823566 0
gene 3 13 122 -0.17779002731097385 0 761 -0.17779002731097385 0
gene 3 122 17 1.6529898149440949 0 762 1.6529898149440949 1
gene 3 7 25 -0.25189525715629352 0 781 -0.25189525715629352 1
gene 2 108 138 -0.67451719354117157 0 880 -0.67451719354117157 1
gene 2 138 18 1.1186272685269953 0 881 1.1186272685269953 1
gene 2 8 62 0.76909843460614713 0 997 0.76909843460614713 1
gene 3 1 25 -1.8704586480140959 0 1058 -1.8704586480140959 1
gene 1 14 172 0.53568301188558498 0 1092 0.53568301188558498 0
gene 1 172 17 0.2103349125060881 0 1093 0.2103349125060881 0
gene 3 13 193 0.066499615933978629 0 1223 0.066499615933978629 1
gene 3 193 122 1.006674310661235 0 1224 1.006674310661235 1
gene 2 138 22 0.025679407304003588 0 1293 0.025679407304003588 1
gene 1 4 193 -0.73197620675525443 0 1544 -0.73197620675525443 1
gene 1 8 193 -0.74862973135832223 0 1552 -0.74862973135832223 1
gene 1 10 22 -0.49765551136697439 0 1631 -0.49765551136697439 1
gene 1 14 138 1.0807378971161032 0 1643 1.0807378971161032 1
gene 2 4 122 -0.91571517005363245 0 1650 -0.91571517005363245 1
gene 1 172 262 0.72731918654279737 0 1682 0.72731918654279737 1
gene 1 262 17 -0.063927121839452122 0 1683 -0.063927121839452122 1
gene 3 15 138 -0.010361508005467035 0 1726 -0.010361508005467035 1
gene 2 262 108 -0.35961053478979066 0 1852 -0.35961053478979066 1
gene 2 14 62 0.52312977706227914 0 1861 0.52312977706227914 1
genomeend 1
