genomestart 1
trait 1 0 0 0 0 0 0 0 0.40993 
trait 2 0 0 0 0 0 0.197068 0.735034 0 
trait 3 0.3 0.366459 0 0 0.00838804 0.0910911 0 0.535296 
node 1 3 1 3
node 2 3 1 1
node 3 1 1 1
node 4 2 1 1
node 5 1 1 1
node 6 1 1 1
node 7 3 1 1
node 8 1 1 1
node 9 1 1 1
node 10 2 1 1
node 11 2 1 1
node 12 2 1 1
node 13 3 1 1
node 14 1 1 1
node 15 2 1 1
node 16 2 1 1
node 17 3 0 2
node 18 3 0 2
nodegru 19 0 -0.24533597961782289 -0.45720522604286901 -0.35680725465379981 -0.43428105229245562 -0.9497870836405955 0.98205522109384413 [ 1.4547051001362064 -0.59567523216627316 ] [ -0.41272568174764784 0.96777107856132616 ] [ 0.84856282598272115 -2.0253638085095975 ]
node 23 1 0 0
nodegru 48 0 0.81151726635243615 1.0119085552924818 -0.93065172570322252 -2.2284100010192072 0.65522363416628138 1.5800819720980157 [ -2.5076068092638657 -1.0540933265835482 -0.29852997141356113 ] [ -0.25230637588645627 0.4338465969468685 -0.57885394970833048 ] [ -1.6140516379913554 -1.0599629512568765 -0.59480297395251824 ]
node 105 1 0 0
node 120 1 0 0
node 127 1 0 0
node 150 1 0 0
nodegru 163 0 -0.6939022993640519 0.72945672575359066 -0.45620145891150526 -0.50967049727201008 -0.0021433074735772717 0.38781196514042648 [ -0.22307963260592872 ] [ 0.62407725694313509 ] [ 0.61626428208139927 ]
nodegru 173 0 1.1910849472931981 -1.1167204770570249 0.55919887919872946 -0.74820375116458315 0.067909508975180666 -1.0680074863219668 [ -0.24284516367728137 ] [ 0 ] [ -0.36471580276950999 ]
node 207 1 0 0
node 209 1 0 0
nodegru 234 0 0.1312311161920573 -0.3989267242834561 0.16846640578865374 -0.55241399330665075 -1.0388333946647277 0.4310245309868011 [ -0.63928249938845749 ] [ -1.1516368785647848 ] [ 0.36166077438353594 ]
nodegru 266 0 -0.92596124516611988 -0.21232312683124241 -0.14416327275995316 -0.32403864528706233 0.10398718998953105 0.11147825297037058 [ -0.12539866770403399 ] [ 0.050997211970853273 ] [ 0.011882848461103934 ]
nodegru 309 0 0 0 0 0 0 0 [ 0 ] [ 0 ] [ 0 ]
gene 1 1 17 7.9180872675115648 0 1 7.9180872675115648 1
gene 2 2 17 4.7666795447080776 0 2 4.7666795447080776 0
gene 2 3 17 -0.37294074293362867 0 3 -0.37294074293362867 0
gene 2 4 17 0.48828471532942924 0 4 0.48828471532942924 0
gene 2 5 17 -0.50296980375562328 0 5 -0.50296980375562328 1
gene 2 6 17 1.5058708330643693 0 6 1.5058708330643693 1
gene 1 7 17 0.82193313332830276 0 7 0.82193313332830276 1
gene 2 8 17 -0.14367149742025415 0 8 -0.14367149742025415 0
gene 1 9 17 -3.0729691763748281 0 9 -3.0729691763748281 1
gene 3 10 17 -2.1653500792641891 0 10 -2.1653500792641891 1
gene 3 11 17 -0.72837658097426239 0 11 -0.72837658097426239 1
gene 3 12 17 -1.0692375753164467 0 12 -1.0692375753164467 0
gene 2 13 17 -1.3108002480868253 0 13 -1.3108002480868253 0
gene 3 14 17 2.3209998628920872 0 14 2.3209998628920872 0
gene 1 15 17 -2.4722159186947232 0 15 -2.4722159186947232 0
gene 2 16 17 -1.261520234873295 0 16 -1.261520234873295 1
gene 2 1 18 0.10884815599250031 0 17 0.10884815599250031 1
gene 1 2 18 -0.005517323853223316 0 18 -0.005517323853223316 0
gene 2 3 18 -0.84873702113923477 0 19 -0.84873702113923477 0
gene 1 4 18 -5.6510091599314496 0 20 -5.6510091599314496 1
gene 3 5 18 -1.9426980637678399 0 21 -1.9426980637678399 1
gene 3 6 18 -0.30073269191232177 0 22 -0.30073269191232177 1
gene 3 7 18 -0.82442109453232104 0 23 -0.82442109453232104 1
gene 2 8 18 -0.66766678805820034 0 24 -0.66766678805820034 0
gene 3 9 18 0.91016756552745026 0 25 0.91016756552745026 0
gene 2 10 18 1.6783939532136518 0 26 1.6783939532136518 1
gene 3 11 18 1.9446321659230779 0 27 1.9446321659230779 1
gene 3 12 18 2.1398222841740688 0 28 2.1398222841740688 0
gene 3 13 18 4.0180723501919164 0 29 4.0180723501919164 1
gene 2 14 18 -2.9921286916323604 0 30 -2.9921286916323604 1
gene 3 15 18 -2.2003622230609698 0 31 -2.2003622230609698 1
gene 2 16 18 -1.5422490964607565 0 32 -1.5422490964607565 1
gene 2 9 19 0.52615709138389544 0 33 0.52615709138389544 1
gene 1 19 18 -1.8500257763546077 0 34 -1.8500257763546077 1
gene 1 12 23 -0.26109011937449211 0 43 -0.26109011937449211 0
gene 3 23 17 -1.5055081973576485 0 44 -1.5055081973576485 1
gene 2 16 19 3.2646469422684268 0 175 3.2646469422684268 1
gene 3 12 48 0.036859649017853394 0 186 0.036859649017853394 0
gene 3 48 23 1.9423019427071802 0 187 1.9423019427071802 1
gene 2 16 23 -3.6259431621879066 0 511 -3.6259431621879066 1
gene 1 8 105 0.528783862841681 0 569 0.528783862841681 1
gene 1 105 17 -1.7869577353293815 0 570 -1.7869577353293815 0
gene 1 15 105 -1.1120748508777818 0 591 -1.1120748508777818 1
gene 3 12 105 2.2942098212867088 0 666 2.2942098212867088 1
gene 2 2 120 1.5005756495523155 0 686 1.5005756495523155 1
gene 1 120 18 -1.4995312413664217 0 687 -1.4995312413664217 1
gene 3 12 127 0.50206606905072271 0 731 0.50206606905072271 1
gene 2 127 18 -0.089097723871980783 0 732 -0.089097723871980783 1
gene 3 15 150 -1.7080269631501412 0 879 -1.7080269631501412 1
gene 3 150 17 1.8304519771274426 0 880 1.8304519771274426 1
gene 2 3 163 0.66106881022503072 0 971 0.66106881022503072 1
gene 2 163 18 -3.3308106038397223 0 972 -3.3308106038397223 1
gene 3 127 48 -0.17508841733219493 0 1031 -0.17508841733219493 0
gene 3 163 23 1.3198315856604983 0 1040 1.3198315856604983 1
gene 3 14 173 -0.70306987255023345 0 1060 -0.70306987255023345 1
gene 3 173 17 -0.71298918754932905 0 1061 -0.71298918754932905 1
gene 3 127 207 0.42989020139439504 0 1290 0.42989020139439504 1
gene 3 207 48 -0.14949842991749682 0 1291 -0.14949842991749682 1
gene 1 105 209 0.033705783325110455 0 1298 0.033705783325110455 1
gene 1 209 17 -0.60164420404548014 0 1299 -0.60164420404548014 1
gene 2 3 234 0.83865792261839756 0 1416 0.83865792261839756 1
gene 2 234 17 2.2046292236562026 0 1417 2.2046292236562026 1
gene 3 207 150 0.27844946867714149 0 1447 0.27844946867714149 1
gene 1 19 209 1.3182398409434779 0 1475 1.3182398409434779 1
gene 2 209 120 0.0019472977155572391 0 1537 0.0019472977155572391 1
gene 2 4 266 -0.10815680369648933 0 1625 -0.10815680369648933 1
gene 2 266 17 0.26088215562556039 0 1626 0.26088215562556039 1
gene 2 8 309 -0.72098852634475963 0 1883 -0.72098852634475963 1
gene 2 309 18 0.20615807848803608 0 1884 0.20615807848803608 1
genomeend 1
