genomestart 1
trait 1 0 0 0 0 0 0.765181 0 0.880277 
trait 2 0.484825 0 0 0.556566 0 0.442438 0.206018 0 
trait 3 0 0 0 0.921261 1 0 0 0.731912 
node 1 3 1 3
node 2 3 1 1
node 3 1 1 1
node 4 2 1 1
node 5 1 1 1
node 6 2 1 1
node 7 3 1 1
node 8 3 1 1
node 9 1 1 1
node 10 3 1 1
node 11 1 1 1
node 12 2 1 1
node 13 3 1 1
node 14 1 1 1
node 15 2 1 1
node 16 2 1 1
node 17 3 0 2
node 18 3 0 2
nodegru 19 0 -0.23457370150581638 -0.32736681300558462 -1.1302682425036412 -0.38063063024572596 -0.99267159157557017 0.40239904641751151 [ 0.76197367092220791 1.52695421410117 ] [ -1.129151541450597 0.56319864935390584 ] [ 0.60226196358085715 -1.5972976314822667 ]
node 23 1 0 0
nodegru 48 0 -0.63181331212716796 -1.1106827547124976 0.017254397048267714 -1.0976935704693633 0.20385413568180721 -1.0267586334500269 [ -2.5041757648597356 1.1661914768238513 ] [ 0.53655968980703506 0.37366342713295636 ] [ -1.8469560262034443 -1.4537491053127447 ]
node 105 2 0 0
node 120 1 0 0
node 127 1 0 0
node 150 1 0 0
nodegru 163 0 -0.018055246336411333 0.33871473085075371 -0.23317891859131815 -0.73375712578825514 0.56698442463156973 0.49843875470032856 [ 0.15064963577345458 ] [ 0.27395338787415685 ] [ -0.63775172812759484 ]
nodegru 173 0 1.1287052477145127 -0.95792129494153022 -0.17128818536702925 -0.93591472550105059 0.36543921095572374 0 [ 0.78650779453409281 ] [ -0.88584830362156419 ] [ 0.59352292916435889 ]
nodegru 227 0 0.17916018279695892 0.58781474972507675 -0.62882230751161572 -0.10289872652054706 0.020920976773333211 0 [ -0.61798145674075067 ] [ 0.038774194795998862 ] [ 0 ]
nodegru 271 0 0.60546931454700847 0 0.23481762955655228 0.45837395077495557 -0.2997611043042322 -0.1258859692029124 [ -0.076738326846034419 ] [ -0.69052744060313676 ] [ 0.13297021267142617 ]
node 310 1 0 0
nodegru 316 0 0 0 0 0 0 0 [ 0 0 ] [ 0 0 ] [ 0 0 ]
node 328 1 0 0
node 347 2 0 0
gene 1 1 17 3.218611382282623 0 1 3.218611382282623 1
gene 2 2 17 0.49576680094272224 0 2 0.49576680094272224 1
gene 2 3 17 -0.33259247037702827 0 3 -0.33259247037702827 1
gene 2 4 17 2.4747157675329206 0 4 2.4747157675329206 1
gene 2 5 17 -0.31526604239608441 0 5 -0.31526604239608441 1
gene 2 6 17 -0.34319432864114363 0 6 -0.34319432864114363 1
gene 1 7 17 1.4189966402105039 0 7 1.4189966402105039 1
gene 2 8 17 1.6130829274715308 0 8 1.6130829274715308 1
gene 1 9 17 -0.4387101945181891 0 9 -0.4387101945181891 1
gene 1 10 17 1.0960399348270331 0 10 1.0960399348270331 1
gene 3 11 17 0.54156739429643719 0 11 0.54156739429643719 1
gene 3 12 17 -1.3188340462831942 0 12 -1.3188340462831942 0
gene 2 13 17 0.10713063592888916 0 13 0.10713063592888916 0
gene 3 14 17 -0.44579635429931636 0 14 -0.44579635429931636 0
gene 1 15 17 -0.22345091738898815 0 15 -0.22345091738898815 0
gene 1 16 17 1.0863595491211675 0 16 1.0863595491211675 1
gene 2 1 18 -0.77139618143969946 0 17 -0.77139618143969946 1
gene 1 2 18 1.9720412955954867 0 18 1.9720412955954867 0
gene 2 3 18 -0.24118501145447863 0 19 -0.24118501145447863 0
gene 1 4 18 -5.6044941759223565 0 20 -5.6044941759223565 1
gene 3 5 18 -1.6204439630361482 0 21 -1.6204439630361482 1
gene 3 6 18 -1.9778831601039895 0 22 -1.9778831601039895 1
gene 3 7 18 -1.4038199741178286 0 23 -1.4038199741178286 1
gene 2 8 18 -0.51814945625055087 0 24 -0.51814945625055087 1
gene 3 9 18 0.41373205634939114 0 25 0.41373205634939114 0
gene 2 10 18 -0.58323846633231224 0 26 -0.58323846633231224 0
gene 3 11 18 0.26779574668863593 0 27 0.26779574668863593 0
gene 3 12 18 -1.3567731807039927 0 28 -1.3567731807039927 0
gene 3 13 18 5.8259407887588921 0 29 5.8259407887588921 1
gene 2 14 18 -1.2933503630540102 0 30 -1.2933503630540102 1
gene 3 15 18 -1.3697202291198634 0 31 -1.3697202291198634 1
gene 2 16 18 -2.2862389931856835 0 32 -2.2862389931856835 1
gene 2 9 19 0.32027822491725821 0 33 0.32027822491725821 1
gene 2 19 18 1.097279692696072 0 34 1.097279692696072 1
gene 3 12 23 -2.7495834457220436 0 43 -2.7495834457220436 0
gene 3 23 17 -0.21978299062223317 0 44 -0.21978299062223317 1
gene 2 16 19 -2.4490340443789189 0 175 -2.4490340443789189 1
gene 3 12 48 3.2834436842396122 0 186 3.2834436842396122 1
gene 3 48 23 -1.616903764599424 0 187 -1.616903764599424 0
gene 2 16 23 -1.3036070039046965 0 511 -1.3036070039046965 1
gene 1 8 105 -0.64073357516468188 0 569 -0.64073357516468188 1
gene 1 105 17 -1.3684396021386789 0 570 -1.3684396021386789 0
gene 1 15 105 -1.0614198150864893 0 591 -1.0614198150864893 1
gene 3 12 105 -1.7832105538263967 0 666 -1.7832105538263967 1
gene 1 2 120 -0.75199406873527652 0 686 -0.75199406873527652 1
gene 1 120 18 0.79818880851296203 0 687 0.79818880851296203 1
gene 3 12 127 -1.5706346043481649 0 731 -1.5706346043481649 1
gene 2 127 18 0.90200962890033121 0 732 0.90200962890033121 1
gene 3 15 150 1.9095583204923008 0 879 1.9095583204923008 1
gene 3 150 17 -0.89707460109939519 0 880 -0.89707460109939519 1
gene 1 3 163 -0.93861143101873401 0 971 -0.93861143101873401 1
gene 2 163 18 2.0723679596895197 0 972 2.0723679596895197 1
gene 3 127 48 -1.6280591326663547 0 1031 -1.6280591326663547 1
gene 3 163 23 1.8129692364311634 0 1040 1.8129692364311634 1
gene 2 14 173 0.79996354065368114 0 1060 0.79996354065368114 1
gene 3 173 17 1.7710925695817419 0 1061 1.7710925695817419 1
gene 3 48 227 -1.3715858221387427 0 1375 -1.3715858221387427 1
gene 3 227 23 0.5814170497848733 0 1376 0.5814170497848733 1
gene 3 11 271 -0.28476349487191233 0 1659 -0.28476349487191233 1
gene 3 271 18 0.70935546837717078 0 1660 0.70935546837717078 0
gene 2 10 310 0.14138558129378853 0 1886 0.14138558129378853 1
gene 2 310 18 1.7272156596776167 0 1887 1.7272156596776167 1
gene 3 271 316 -0.31578783891898943 0 1937 -0.31578783891898943 0
gene 3 316 18 -0.33087674229446651 0 1938 -0.33087674229446651 1
gene 1 105 328 -0.49297006718952679 0 1995 -0.49297006718952679 1
gene 1 328 17 0.1501864416758466 0 1996 0.1501864416758466 1
gene 3 271 347 0.12584885658037331 0 2114 0.12584885658037331 1
gene 3 347 316 -0.33442716281135904 0 2115 -0.33442716281135904 1
gene 1 163 105 -0.32354698205531901 0 2123 -0.32354698205531901 1
gene 2 48 150 -0.025795307371670059 0 2333 -0.025795307371670059 1
genomeend 1
