genomestart 1
trait 1 1 0.137618 1 0 1 0 0.789648 0 
trait 2 1 0.25342 1 0 1 0.877157 1 0 
trait 3 0 0.295789 0.0298169 0.375533 1 1 0 1 
node 1 2 1 3
node 2 1 1 1
node 3 1 1 1
node 4 2 1 1
node 5 2 1 1
node 6 2 1 1
node 7 2 1 1
node 8 1 1 1
node 9 2 1 1
node 10 1 1 1
node 11 1 1 1
node 12 3 1 1
node 13 1 1 1
node 14 3 1 1
node 15 3 1 1
node 16 3 1 1
node 17 1 0 2
node 18 3 0 2
node 29 3 0 0
node 53 1 0 0
nodegru 136 0 -0.60349493699776691 1.006189395909286 -0.9774076667276248 2.061533381725444 0.44084909834938546 -0.72399170322995254 [ -1.2421261680974278 -0.4955149904105417 0 ] [ 1.3669282985464335 0 0.018966589364673284 ] [ -1.1295983953772104 0.24128345271632237 0 ]
nodegru 183 0 -0.25975667208421804 -0.32346885538355852 -0.48231344122081676 0.5339864071151178 -0.121262454135 0.73923395981045159 [ 0.62052138679219493 -0.015618590761729778 -0.67256141648281442 0.43383246924906615 0 ] [ 1.7463343194668806 0.57644496908245835 0.94189586371271661 -0.054287620612554072 -0.3742881569193155 ] [ -0.98055284283149646 0.75636631634848484 0.071829224620866244 0.49848836474050229 0 ]
node 209 2 0 0
node 258 2 0 0
nodegru 297 0 -0.96089722994291105 -0.87392861564826618 -1.5634292525068991 0.47325679623673522 0.12419887859104146 -0.94441942530424305 [ 0.21278623780831055 -0.64599953552056077 ] [ -1.2315500670725248 0.24822490173309339 ] [ -1.3703331718548821 -0.65571591451564615 ]
node 302 1 0 0
nodegru 325 0 -0.01800367947109216 0.27324511076940455 -1.1185371648140889 -0.51335385023306768 1.7931891564713742 0.62462409964046628 [ -0.38658935978849857 0.38588080049300605 0 ] [ 0.37221571913557866 0 0 ] [ 1.5413749184419283 -0.77123623307386246 0.16940479896469265 ]
node 329 2 0 0
nodegru 354 0 0.29269163952800059 1.1987945977359984 0.52806903842281039 -0.097686949930008038 -0.46276638934517578 0.33340306327836733 [ -0.93680647652913185 ] [ 0.23953783686251273 ] [ 1.5732395727295612 ]
nodegru 371 0 0.50875948253495595 -1.2412521343171838 1.0160679395851067 0.28547355068636759 0.49029926978531252 -0.79307760812485473 [ 1.1489074413659555 0.69496080381561109 ] [ -0.10398435935097944 0.82882896698025477 ] [ 0.86647860513370412 0.59270822074856055 ]
node 410 1 0 0
nodegru 451 0 0.99395257094593381 -0.10986223810345971 0.11056819481801625 -1.3070466009932786 0.30662159286747759 -0.66157534330225332 [ 0.97431303664311442 -0.33891029566941328 -0.18600263385381671 0 ] [ 0.96619815191542635 0.82732886056291344 0 0 ] [ 0.10914504195523683 0 -0.12911116454243249 0 ]
node 482 3 0 0
nodegru 521 0 -0.62611924257414375 0.73235700290294226 -0.05713163842779205 -1.20432391399719 -0.41165085319040851 0.89068385813882756 [ -0.1662910598871723 0 ] [ -0.7186713467671868 -0.55453247812321993 ] [ -0.29389982381551516 0.43965006954486019 ]
node 568 2 0 0
nodegru 618 0 0.37196464167068 0.49390115099675069 0.49485035333542637 -0.35779184119673069 -0.0094187477414582887 1.0931341710235616 [ 0.37592853518478975 ] [ 0.22566891390628596 ] [ 0.43644712361807336 ]
node 631 1 0 0
node 643 1 0 0
nodegru 665 0 0 -1.4290535790748211 0.072672004030399029 -0.16764805857913945 0.072550402173097439 0.34871668268401024 [ 0.061910360847558063 ] [ 0 ] [ 0.18375440346251912 ]
node 666 1 0 0
nodegru 699 0 0 0 0 0 0 0 [ 0 ] [ 0 ] [ 0 ]
node 704 2 0 0
node 713 1 0 0
node 764 1 0 0
nodegru 798 0 -0.2259341120840675 0.27724833636416513 0 0.73413981240435489 0 -0.43031498472220964 [ -0.12336934782721538 ] [ 0 ] [ 0 ]
nodegru 810 0 0.14699313773167932 -0.057997755500486914 -0.49255254328835407 -0.36525011347385594 -0.041680743704401307 0.07284727276901122 [ 0.25407075567826198 0 ] [ -0.29663677015185208 -0.12689694756497488 ] [ -0.17825310930062696 0 ]
nodegru 849 0 0 0 0 0 0 0 [ 0 ] [ 0 ] [ 0 ]
node 852 1 0 0
nodegru 863 0 0 0 0 0 0 0 [ 0 ] [ 0 ] [ 0 ]
nodegru 868 0 0 0 0 0 0 0 [ 0 ] [ 0 ] [ 0 ]
nodegru 889 0 0 0 0 0 0 0 [ 0 ] [ 0 ] [ 0 ]
gene 2 1 17 -0.064522752801200012 0 1 -0.064522752801200012 1
gene 1 2 17 0.51521768794172318 0 2 0.51521768794172318 1
gene 1 3 17 0.63622026989991809 0 3 0.63622026989991809 0
gene 2 4 17 0.23530997905661835 0 4 0.23530997905661835 1
gene 1 5 17 -7.0255536460436669 0 5 -7.0255536460436669 1
gene 3 6 17 0.1272833285048991 0 6 0.1272833285048991 1
gene 1 7 17 6.7992477864256342 0 7 6.7992477864256342 1
gene 3 8 17 0.18100647089584099 0 8 0.18100647089584099 1
gene 2 9 17 2.3155349151070865 0 9 2.3155349151070865 1
gene 3 10 17 -4.9257550540732939 0 10 -4.9257550540732939 1
gene 2 11 17 0.55055897126465991 0 11 0.55055897126465991 0
gene 1 12 17 1.6782261373839464 0 12 1.6782261373839464 1
gene 1 13 17 1.9530471699326519 0 13 1.9530471699326519 1
gene 1 14 17 0.41191065307329927 0 14 0.41191065307329927 0
gene 3 15 17 -3.9875890806958001 0 15 -3.9875890806958001 1
gene 3 16 17 -2.8040704585397926 0 16 -2.8040704585397926 0
gene 2 1 18 2.9558736840057533 0 17 2.9558736840057533 1
gene 1 2 18 2.3718604065346809 0 18 2.3718604065346809 0
gene 2 3 18 -2.3568772887144585 0 19 -2.3568772887144585 1
gene 3 4 18 -1.347779497433351 0 20 -1.347779497433351 1
gene 1 5 18 -1.6513563800376643 0 21 -1.6513563800376643 0
gene 1 6 18 -2.5800226078508528 0 22 -2.5800226078508528 1
gene 2 7 18 -3.4726051710185639 0 23 -3.4726051710185639 1
gene 1 8 18 0.11930487287198438 0 24 0.11930487287198438 1
gene 2 9 18 0.85332614106746685 0 25 0.85332614106746685 1
gene 1 10 18 -1.7564879641898385 0 26 -1.7564879641898385 0
gene 1 11 18 2.4712038520822315 0 27 2.4712038520822315 0
gene 2 12 18 -1.3240945273191178 0 28 -1.3240945273191178 0
gene 3 13 18 0.35645816829356269 0 29 0.35645816829356269 0
gene 1 14 18 6.5761473067459395 0 30 6.5761473067459395 1
gene 2 15 18 4.9495854882754298 0 31 4.9495854882754298 1
gene 3 16 18 -2.2985902845620139 0 32 -2.2985902845620139 0
gene 1 13 29 -1.0674443083430845 0 72 -1.0674443083430845 1
gene 3 29 18 -1.003382841708782 0 73 -1.003382841708782 0
gene 2 12 29 -0.94980545048592868 0 130 -0.94980545048592868 0
gene 1 6 29 -3.9237141627463119 0 154 -3.9237141627463119 1
gene 2 29 29 3.8434085722981992 1 171 3.8434085722981992 0
gene 1 2 53 -2.403743770976432 0 212 -2.403743770976432 1
gene 1 53 18 -1.8292157923938777 0 213 -1.8292157923938777 1
gene 1 15 53 -3.2592622197741923 0 536 -3.2592622197741923 1
gene 1 11 136 -0.14262941905419779 0 737 -0.14262941905419779 0
gene 1 136 18 1.570412148637889 0 738 1.570412148637889 1
gene 3 17 29 2.1031015330707197 1 826 2.1031015330707197 0
gene 3 17 183 3.5602341643815092 1 1080 3.5602341643815092 0
gene 3 183 29 0.23734148416544487 0 1081 0.23734148416544487 1
gene 1 5 209 4.7289782820637241 0 1209 4.7289782820637241 0
gene 1 209 18 1.1138295366493192 0 1210 1.1138295366493192 0
gene 1 7 209 -0.91990506307683173 0 1369 -0.91990506307683173 1
gene 3 183 18 -0.74964553141018653 0 1520 -0.74964553141018653 1
gene 2 12 258 7.0400254294695443 0 1552 7.0400254294695443 1
gene 2 258 18 -0.21134493672817245 0 1553 -0.21134493672817245 1
gene 1 12 53 0.42390329678258998 0 1668 0.42390329678258998 0
gene 1 5 297 0.82155806411595966 0 1836 0.82155806411595966 1
gene 1 297 209 1.9643523397223799 0 1837 1.9643523397223799 0
gene 2 4 258 2.7273156490304111 0 1851 2.7273156490304111 1
gene 2 29 302 -1.1414249925368583 1 1857 -1.1414249925368583 1
gene 2 302 29 -2.0861987334611807 0 1858 -2.0861987334611807 1
gene 1 2 325 5.1958655883538851 0 2022 5.1958655883538851 1
gene 1 325 17 -1.9170192540236837 0 2023 -1.9170192540236837 1
gene 1 10 329 -0.60370866120965661 0 2036 -0.60370866120965661 1
gene 1 329 18 -1.1331875385405434 0 2037 -1.1331875385405434 1
gene 3 4 302 -2.2574660059797886 0 2086 -2.2574660059797886 1
gene 3 10 354 -1.8446046449684557 0 2235 -1.8446046449684557 1
gene 3 354 17 -0.26739675552463016 0 2236 -0.26739675552463016 1
gene 3 29 17 -0.43235728048363581 0 2272 -0.43235728048363581 1
gene 3 258 258 1.3706494657651753 1 2303 1.3706494657651753 1
gene 3 325 258 -2.6810439773514139 0 2318 -2.6810439773514139 1
gene 3 29 371 1.4673446025547312 0 2336 1.4673446025547312 1
gene 3 371 18 2.2435360355272591 0 2337 2.2435360355272591 1
gene 2 354 183 -1.8636990751203606 0 2602 -1.8636990751203606 0
gene 3 7 297 -0.48327090706828635 0 2608 -0.48327090706828635 1
gene 3 17 410 -1.2955226174302032 1 2673 -1.2955226174302032 1
gene 3 410 183 0.51040203555505814 0 2674 0.51040203555505814 1
gene 1 53 53 -0.14280200872700763 1 2782 -0.14280200872700763 1
gene 1 8 209 1.2809397595845811 0 2881 1.2809397595845811 1
gene 3 183 371 -0.018106877113742054 0 2885 -0.018106877113742054 1
gene 3 8 451 -0.35504347312033313 0 2956 -0.35504347312033313 0
gene 3 451 17 0.50022421637560455 0 2957 0.50022421637560455 1
gene 3 209 209 -0.2260283540124205 1 3093 -0.2260283540124205 1
gene 1 12 482 -2.7809437511167228 0 3154 -2.7809437511167228 0
gene 1 482 53 -2.1487248390441418 0 3155 -2.1487248390441418 1
gene 2 7 329 -1.4012474475434269 0 3228 -1.4012474475434269 1
gene 2 136 325 -1.1264243974007782 0 3273 -1.1264243974007782 1
gene 1 209 17 0.11998366418759498 0 3336 0.11998366418759498 1
gene 2 329 325 0.29020384875601346 0 3389 0.29020384875601346 1
gene 1 12 521 1.2950751285744246 0 3400 1.2950751285744246 0
gene 1 521 482 -1.3943784062957292 0 3401 -1.3943784062957292 0
gene 3 451 258 0.091939462857292709 0 3426 0.091939462857292709 1
gene 1 7 183 0.21685535249619514 0 3580 0.21685535249619514 1
gene 1 11 568 -1.5885521098219562 0 3716 -1.5885521098219562 1
gene 1 568 136 1.0262775314162846 0 3717 1.0262775314162846 1
gene 3 568 410 -0.081928145993467427 0 3905 -0.081928145993467427 1
gene 1 209 618 0.23638885816856706 0 4011 0.23638885816856706 1
gene 1 618 18 -0.88311944966349731 0 4012 -0.88311944966349731 1
gene 2 12 631 0.098156873648127585 0 4113 0.098156873648127585 0
gene 2 631 29 -3.0522645850676406 0 4114 -3.0522645850676406 1
gene 3 16 643 -0.45100284924311695 0 4181 -0.45100284924311695 0
gene 3 643 18 -1.0446949318492298 0 4182 -1.0446949318492298 1
gene 2 9 568 0.025611411908460391 0 4233 0.025611411908460391 1
gene 1 14 665 0.53985832493745622 0 4279 0.53985832493745622 1
gene 1 665 17 -0.092021100498745789 0 4280 -0.092021100498745789 1
gene 2 11 666 -1.5843165521902576 0 4293 -1.5843165521902576 1
gene 2 666 17 -1.0560658576693693 0 4294 -1.0560658576693693 0
gene 3 258 53 -1.8231436563996337 0 4325 -1.8231436563996337 1
gene 3 8 699 -0.4073646297479811 0 4472 -0.4073646297479811 1
gene 3 699 451 -0.17634673587807792 0 4473 -0.17634673587807792 1
gene 3 16 704 -1.7629171517970588 0 4497 -1.7629171517970588 1
gene 3 704 643 0.37332630698724023 0 4498 0.37332630698724023 1
gene 1 297 713 2.3432129848949672 0 4548 2.3432129848949672 1
gene 1 713 209 1.2420489278119287 0 4549 1.2420489278119287 1
gene 2 3 209 -0.064429067920161925 0 4695 -0.064429067920161925 1
gene 3 618 258 0.68773097437235109 0 4716 0.68773097437235109 1
gene 1 4 29 -1.4714189482486897 0 4725 -1.4714189482486897 0
gene 1 329 631 -0.37767502066105374 0 4804 -0.37767502066105374 1
gene 2 12 764 0.018876703581249668 0 4849 0.018876703581249668 1
gene 2 764 631 -0.22923874132299732 0 4850 -0.22923874132299732 1
gene 3 451 643 -0.45176203313831331 0 4938 -0.45176203313831331 1
gene 2 29 451 -0.31810505831060226 0 4957 -0.31810505831060226 0
gene 1 12 798 -0.1156233012981821 0 5070 -0.1156233012981821 1
gene 1 798 521 -0.11948523431526774 0 5071 -0.11948523431526774 1
gene 1 764 17 -0.77100497496826803 0 5112 -0.77100497496826803 1
gene 2 12 704 -0.59144542906034991 0 5142 -0.59144542906034991 1
gene 1 4 810 -1.2049981064419253 0 5145 -1.2049981064419253 1
gene 1 810 29 0.64032642736114864 0 5146 0.64032642736114864 1
gene 3 29 136 1.3156279456175994 0 5218 1.3156279456175994 1
gene 2 666 849 1.1779897623592941 0 5373 1.1779897623592941 1
gene 2 849 17 -0.60115119656601501 0 5374 -0.60115119656601501 1
gene 1 521 852 1.7878397830239683 0 5390 1.7878397830239683 1
gene 1 852 482 -0.21146947260083146 0 5391 -0.21146947260083146 1
gene 2 410 810 -0.53821838846812886 0 5424 -0.53821838846812886 1
gene 3 11 53 0.82152851057310061 0 5438 0.82152851057310061 1
gene 1 3 863 0.027524439630808417 0 5474 0.027524439630808417 1
gene 1 863 17 -1.0768098802430601 0 5475 -1.0768098802430601 1
gene 2 354 868 -0.49738813203172205 0 5511 -0.49738813203172205 1
gene 2 868 183 -0.48583515825953116 0 5512 -0.48583515825953116 1
gene 3 521 258 -0.23544951387934829 0 5520 -0.23544951387934829 1
gene 2 29 889 1 0 5627 0 1
gene 2 889 451 -0.31810505831060226 0 5628 0 1
gene 1 3 410 0.29688726146560501 0 5728 0.29688726146560501 1
genomeend 1
