genomestart 1
trait 1 0 0 0.512813 0.832262 1 0.500785 0.398403 1 
trait 2 0 0.996658 0 0 0.427572 0 0 0.0878775 
trait 3 1 0.80188 0.938885 0.854942 1 0.553547 0 1 
node 1 2 1 3
node 2 1 1 1
node 3 1 1 1
node 4 2 1 1
node 5 1 1 1
node 6 3 1 1
node 7 3 1 1
node 8 2 1 1
node 9 2 1 1
node 10 2 1 1
node 11 1 1 1
node 12 1 1 1
node 13 1 1 1
node 14 3 1 1
node 15 1 1 1
node 16 3 1 1
node 17 2 0 2
node 18 3 0 2
node 29 3 0 0
node 53 1 0 0
node 108 1 0 0
nodegru 140 0 0.95033477745034489 0.94956183361334812 0.35805075469336045 -0.50295128044809734 0.84131579093696385 -3.6284993905008305 [ -0.52659073822507207 -0.15905881820202747 0.11222763248357344 -0.26991852024566315 ] [ 0.60536607010539911 -0.58896240794051558 -0.29324972200824401 0.71276842917444583 ] [ -1.0049881623149794 -1.0043753117808958 0.097557573159019265 0.73867196018745751 ]
node 160 1 0 0
nodegru 171 0 0.50284722435886364 3.0884923510432678 0.89956845547983821 -1.1233372726120692 -1.0851758707245698 -1.3179718788331241 [ -0.30241204986926717 ] [ 1.1251883460791725 ] [ 0.28666527221755367 ]
node 262 2 0 0
node 286 1 0 0
node 289 1 0 0
node 309 1 0 0
node 310 3 0 0
node 347 1 0 0
node 361 1 0 0
node 369 1 0 0
node 421 1 0 0
node 430 1 0 0
gene 2 1 17 -2.6642463716744658 0 1 -2.6642463716744658 1
gene 1 2 17 2.1482396567697819 0 2 2.1482396567697819 1
gene 1 3 17 -0.31078390488903224 0 3 -0.31078390488903224 0
gene 2 4 17 -1.3817089473045008 0 4 -1.3817089473045008 1
gene 2 5 17 0.17411113142693005 0 5 0.17411113142693005 1
gene 3 6 17 1.7840796101531387 0 6 1.7840796101531387 0
gene 1 7 17 3.8341763907038509 0 7 3.8341763907038509 1
gene 3 8 17 0.79163384206669141 0 8 0.79163384206669141 1
gene 2 9 17 -1.8162577032652951 0 9 -1.8162577032652951 0
gene 3 10 17 -0.49141710414151513 0 10 -0.49141710414151513 1
gene 1 11 17 -0.23494311258427003 0 11 -0.23494311258427003 1
gene 2 12 17 0.10342012804626488 0 12 0.10342012804626488 0
gene 1 13 17 0.37910427764482058 0 13 0.37910427764482058 1
gene 1 14 17 1.1297114068314951 0 14 1.1297114068314951 1
gene 1 15 17 -5.8841898485013235 0 15 -5.8841898485013235 1
gene 3 16 17 -5.7966623442697642 0 16 -5.7966623442697642 1
gene 2 1 18 -0.51563154976611569 0 17 -0.51563154976611569 1
gene 1 2 18 0.78009366012648385 0 18 0.78009366012648385 0
gene 2 3 18 -3.4850408056448403 0 19 -3.4850408056448403 1
gene 3 4 18 1.4291008264660374 0 20 1.4291008264660374 1
gene 1 5 18 -2.7092031976018114 0 21 -2.7092031976018114 1
gene 1 6 18 -2.2129055658415426 0 22 -2.2129055658415426 1
gene 1 7 18 -2.3837389802251656 0 23 -2.3837389802251656 1
gene 1 8 18 1.6140184480995023 0 24 1.6140184480995023 1
gene 2 9 18 0.76345720037978948 0 25 0.76345720037978948 0
gene 1 10 18 1.1472225614810467 0 26 1.1472225614810467 1
gene 1 11 18 -0.25703184213816732 0 27 -0.25703184213816732 1
gene 2 12 18 -0.15104241978891297 0 28 -0.15104241978891297 0
gene 3 13 18 -0.046580502552250519 0 29 -0.046580502552250519 0
gene 1 14 18 6.3011699541477348 0 30 6.3011699541477348 1
gene 2 15 18 6.5369577376576888 0 31 6.5369577376576888 1
gene 3 16 18 2.9169130894201403 0 32 2.9169130894201403 1
gene 3 13 29 -0.11054327053043213 0 72 -0.11054327053043213 1
gene 3 29 18 0.87227690470045305 0 73 0.87227690470045305 1
gene 2 12 29 -1.90666466050626 0 130 -1.90666466050626 0
gene 1 6 29 1.6030530443429263 0 154 1.6030530443429263 1
gene 2 29 29 0.39974294633126961 1 171 0.39974294633126961 0
gene 2 2 53 0.97564009203372515 0 212 0.97564009203372515 0
gene 1 53 18 -3.4126998822496741 0 213 -3.4126998822496741 0
gene 1 10 29 0.36988999909716191 0 533 0.36988999909716191 1
gene 1 53 53 -0.58706806569223668 1 535 -0.58706806569223668 1
gene 2 29 108 1.1889794456954017 1 545 1.1889794456954017 1
gene 2 108 29 -2.3787124094686996 0 546 -2.3787124094686996 1
gene 1 1 108 -0.89335289115242367 0 574 -0.89335289115242367 1
gene 2 8 53 0.3598031923686168 0 600 0.3598031923686168 0
gene 1 5 29 -0.051776911971055217 0 610 -0.051776911971055217 1
gene 1 7 29 0.91696752592314379 0 650 0.91696752592314379 0
gene 3 6 140 -1.8903080843809565 0 769 -1.8903080843809565 1
gene 3 140 17 6.1312023725505922 0 770 6.1312023725505922 1
gene 2 12 160 -0.49064759758331239 0 943 -0.49064759758331239 1
gene 2 160 18 1.4969321902594213 0 944 1.4969321902594213 1
gene 1 13 108 -1.0376561832556761 0 976 -1.0376561832556761 1
gene 2 12 171 1.5738159197260702 0 1012 1.5738159197260702 1
gene 2 171 29 5.339080906980243 0 1013 5.339080906980243 1
gene 1 29 53 -0.32277989821637976 0 1053 -0.32277989821637976 1
gene 2 108 108 0.78351587128523559 1 1060 0.78351587128523559 1
gene 1 108 17 1.1787807821197345 0 1267 1.1787807821197345 1
gene 3 3 108 0.73437123186158559 0 1284 0.73437123186158559 0
gene 2 9 262 0.64946500859198397 0 1577 0.64946500859198397 1
gene 2 262 17 0.96570968603049856 0 1578 0.96570968603049856 1
gene 1 171 140 0.82645783798138495 0 1650 0.82645783798138495 1
gene 2 2 29 0.0059246288174409356 0 1655 0.0059246288174409356 0
gene 2 12 286 0.61186579946049757 0 1778 0.61186579946049757 1
gene 2 286 17 0.86025240312342188 0 1779 0.86025240312342188 1
gene 2 8 289 -0.26238370582572357 0 1793 -0.26238370582572357 1
gene 2 289 53 -1.4409585575065382 0 1794 -1.4409585575065382 1
gene 2 2 309 -0.047316401869671981 0 1915 -0.047316401869671981 0
gene 2 309 29 -2.7222297200803789 0 1916 -2.7222297200803789 1
gene 3 2 310 0.04046749046094128 0 1926 0.04046749046094128 1
gene 2 310 309 -0.87130026559871632 0 1927 -0.87130026559871632 1
gene 1 160 160 -0.45535354453853949 1 1934 -0.45535354453853949 1
gene 3 11 309 1.0687604780861923 0 2048 1.0687604780861923 0
gene 3 7 108 2.0077772128897609 0 2055 2.0077772128897609 1
gene 2 2 347 0.7035429600875559 0 2186 0.7035429600875559 1
gene 2 347 53 1.761394361155757 0 2187 1.761394361155757 1
gene 1 7 361 -0.34977392530989554 0 2257 -0.34977392530989554 1
gene 1 361 29 0.58945119792569955 0 2258 0.58945119792569955 1
gene 1 15 310 -0.022138848794688866 0 2310 -0.022138848794688866 1
gene 3 3 369 -0.35977627004486334 0 2325 -0.35977627004486334 1
gene 3 369 108 -0.64964165475668456 0 2326 -0.64964165475668456 1
gene 3 262 369 -0.56607977280676358 0 2424 -0.56607977280676358 1
gene 1 3 309 0.14638865024148889 0 2545 0.14638865024148889 1
gene 1 16 140 1.6602720305837095 0 2551 1.6602720305837095 1
gene 2 17 140 0.4156898482077242 1 2664 0.4156898482077242 1
gene 3 11 421 -1.7861312566260485 0 2761 -1.7861312566260485 1
gene 3 421 309 0.46207732286400971 0 2762 0.46207732286400971 1
gene 2 9 430 0.66228123366007641 0 2826 0.66228123366007641 1
gene 2 430 18 0.36580175096904932 0 2827 0.36580175096904932 1
gene 3 6 309 0.32418867716295119 0 2839 0.32418867716295119 1
gene 3 369 430 -0.003232777469434206 0 2876 -0.003232777469434206 1
genomeend 1
