genomestart 1
trait 1 0.724287 0 0 0 0 0.11951 0 0.548049 
trait 2 1 0.566105 0.749373 0.999829 1 1 0 1 
trait 3 0.3 0 0.611141 0 0 0 0 0 
node 1 1 1 3
node 2 1 1 1
node 3 1 1 1
node 4 3 1 1
node 5 2 1 1
node 6 3 1 1
node 7 1 1 1
node 8 1 1 1
node 9 1 1 1
node 10 3 1 1
node 11 3 1 1
node 12 1 1 1
node 13 1 1 1
node 14 3 1 1
node 15 2 1 1
node 16 1 1 1
node 17 2 0 2
node 18 3 0 2
nodegru 34 0 1.5942802972133643 0.1834980244438621 1.9909854602259518 -0.091571164476485611 1.0057039335396627 0.16416680343177484 [ 1.2866588892818702 0.42973523537150377 0.48471701971009229 -0.8611524759843725 -0.44305981448528342 0.98626526700624506 -1.349240856757034 -0.7609037101552375 ] [ -0.82857570288636528 0.60121574839633718 0.20702627776517826 -0.12623308721288717 -0.72203435421550433 -0.2075707075221328 -0.9476290589420262 0.46362141192128015 ] [ -0.69677975468653242 0.99678124917986843 -0.14291132550822161 -0.83513882667065553 0.0065393191792719628 0.41582185654706405 0.75544679048724772 -0.32924087873159019 ]
nodegru 70 0 0.02903309652071126 -2.0132378593614506 0.22100033772690231 -0.70363648850640126 -0.21082196359560923 0.93429967280677495 [ -0.53702904180950906 0.08957333401291323 ] [ 1.0289893624274942 1.2677399974864629 ] [ 0.72510500507201303 -0.91376751121774669 ]
nodegru 75 0 0.78319697840288138 -0.92533970399542698 0.99793764168766208 0.087066296645005342 0.74460991902491547 -0.50585933425736596 [ 0.011115571838391736 0 ] [ -0.12237788078951539 -0.010949597931909187 ] [ 0.33218304828376644 -0.74488379317097542 ]
node 77 1 0 0
node 108 1 0 0
node 175 1 0 0
node 236 1 0 0
nodegru 262 0 0.44238598071615493 -0.35725224325771082 -0.22745278441694228 0 0.98595828713660971 0.44566913551914938 [ 0.69655003431092477 0 ] [ 1.6118332548587737 0 ] [ -0.3735794436063522 0 ]
node 271 1 0 0
node 313 1 0 0
nodegru 346 0 0 0.61905785480935949 0 -0.47451658720360912 0 0.19959743749331565 [ 0 ] [ 0 ] [ 0 ]
node 367 1 0 0
gene 3 1 17 -1.1358666734936957 0 1 -1.1358666734936957 1
gene 1 2 17 1.8805983040391459 0 2 1.8805983040391459 1
gene 2 3 17 2.2290500075225972 0 3 2.2290500075225972 1
gene 3 4 17 0.25854913401815605 0 4 0.25854913401815605 1
gene 3 5 17 -7.877039921761976 0 5 -7.877039921761976 1
gene 2 6 17 -0.24998577754012563 0 6 -0.24998577754012563 1
gene 2 7 17 -0.42887465873680763 0 7 -0.42887465873680763 0
gene 3 8 17 3.2408022308912128 0 8 3.2408022308912128 1
gene 3 9 17 -0.5928100765882105 0 9 -0.5928100765882105 1
gene 3 10 17 0.40939128383034434 0 10 0.40939128383034434 1
gene 3 11 17 0.2758077170121519 0 11 0.2758077170121519 1
gene 1 12 17 -2.035349375468376 0 12 -2.035349375468376 1
gene 2 13 17 0.27206614684409752 0 13 0.27206614684409752 1
gene 1 14 17 0.37599954177904865 0 14 0.37599954177904865 0
gene 1 15 17 -5.3712684657058078 0 15 -5.3712684657058078 1
gene 1 16 17 -5.8539785057557632 0 16 -5.8539785057557632 1
gene 1 1 18 2.9326049317291956 0 17 2.9326049317291956 1
gene 2 2 18 -0.5712645924981985 0 18 -0.5712645924981985 1
gene 3 3 18 -1.2264638513915536 0 19 -1.2264638513915536 0
gene 1 4 18 0.93286455966665582 0 20 0.93286455966665582 1
gene 2 5 18 0.29016678991735312 0 21 0.29016678991735312 0
gene 2 6 18 -5.9462224221537934 0 22 -5.9462224221537934 1
gene 2 7 18 -6.4145775801337237 0 23 -6.4145775801337237 1
gene 3 8 18 -0.1612973018369161 0 24 -0.1612973018369161 0
gene 2 9 18 -1.9471235102727651 0 25 -1.9471235102727651 1
gene 3 10 18 0.33657684053134951 0 26 0.33657684053134951 1
gene 2 11 18 3.9195542818259228 0 27 3.9195542818259228 1
gene 3 12 18 0.0586635314666962 0 28 0.0586635314666962 1
gene 3 13 18 -1.0004457379693377 0 29 -1.0004457379693377 0
gene 1 14 18 3.2227601033974249 0 30 3.2227601033974249 1
gene 1 15 18 -0.97439767151344459 0 31 -0.97439767151344459 0
gene 2 16 18 0.8993462250332096 0 32 0.8993462250332096 1
gene 1 13 34 0.53639458971395837 0 132 0.53639458971395837 1
gene 1 34 18 -2.7124419883882824 0 133 -2.7124419883882824 1
gene 1 18 34 0.49109482729858478 1 148 0.49109482729858478 1
gene 3 1 34 0.72986956032918271 0 162 0.72986956032918271 1
gene 2 9 34 0.24538182897743799 0 170 0.24538182897743799 1
gene 3 5 34 -0.81971079463591379 0 245 -0.81971079463591379 1
gene 1 14 34 -0.33302448693803788 0 274 -0.33302448693803788 0
gene 3 9 70 -1.0048286103433131 0 401 -1.0048286103433131 1
gene 3 70 17 -1.6469968826961687 0 402 -1.6469968826961687 1
gene 2 7 75 0.36075307014899005 0 433 0.36075307014899005 1
gene 2 75 17 -0.46727256440430537 0 434 -0.46727256440430537 1
gene 2 8 77 -0.0046930010452368998 0 447 -0.0046930010452368998 1
gene 2 77 18 -1.1242133690389866 0 448 -1.1242133690389866 1
gene 1 14 108 3.7229028912134949 0 637 3.7229028912134949 0
gene 1 108 34 2.2218811714425133 0 638 2.2218811714425133 1
gene 1 108 108 2.82653062095704 1 793 2.82653062095704 1
gene 2 34 17 -0.13085943885653253 0 804 -0.13085943885653253 1
gene 2 15 108 -0.54520796078499778 0 876 -0.54520796078499778 1
gene 1 6 77 1.5975225661404069 0 931 1.5975225661404069 1
gene 3 3 175 0.54827440846631048 0 1028 0.54827440846631048 1
gene 3 175 18 1.6850768027059162 0 1029 1.6850768027059162 1
gene 2 77 77 -0.76966040244775846 1 1059 -0.76966040244775846 1
gene 3 18 18 0.31378114773602273 1 1113 0.31378114773602273 1
gene 1 175 175 -1.3548605955926982 1 1121 -1.3548605955926982 1
gene 3 6 34 2.4012688649358553 0 1145 2.4012688649358553 1
gene 2 34 75 -0.50967154570839912 0 1419 -0.50967154570839912 1
gene 2 14 236 1.1072397542219794 0 1439 1.1072397542219794 1
gene 2 236 17 -0.34636386220639753 0 1440 -0.34636386220639753 0
gene 3 75 70 0.15765531112330766 0 1462 0.15765531112330766 1
gene 2 236 262 -0.62148080806782502 0 1579 -0.62148080806782502 1
gene 2 262 17 1.3001870026579998 0 1580 1.3001870026579998 1
gene 1 15 271 -0.73219118615714418 0 1632 -0.73219118615714418 1
gene 1 271 18 -1.3165181470413312 0 1633 -1.3165181470413312 1
gene 2 236 236 -0.2090684844688831 1 1807 -0.2090684844688831 0
gene 1 15 175 1.2312248949805391 0 1861 1.2312248949805391 1
gene 1 14 313 0.2899929688032683 0 1920 0.2899929688032683 1
gene 1 313 108 0.26453169633845419 0 1921 0.26453169633845419 1
gene 2 16 77 0.49826904770371921 0 2018 0.49826904770371921 1
gene 1 12 77 0.2013775518636115 0 2081 0.2013775518636115 1
gene 3 5 346 1.5699113048938624 0 2166 1.5699113048938624 1
gene 3 346 17 -6.5179164878874634 0 2167 -6.5179164878874634 1
gene 3 77 236 0.23667211725221582 0 2225 0.23667211725221582 1
gene 2 5 367 0.99483524763250508 0 2314 0.99483524763250508 1
gene 2 367 18 0.28570581112788329 0 2315 0.28570581112788329 1
gene 1 7 262 -0.10286687458998844 0 2392 -0.10286687458998844 1
genomeend 1
