genomestart 1
trait 1 0 1 1 1 1 0 0.80415 0 
trait 2 0.851491 0 0.426458 0.77824 0.18606 0 1 0 
trait 3 1 0.305658 0 0.80711 0.345915 0 0 0.740943 
node 1 3 1 3
node 2 3 1 1
node 3 2 1 1
node 4 3 1 1
node 5 1 1 1
node 6 2 1 1
node 7 1 1 1
node 8 2 1 1
node 9 1 1 1
node 10 3 1 1
node 11 3 1 1
node 12 3 1 1
node 13 3 1 1
node 14 1 1 1
node 15 1 1 1
node 16 2 1 1
node 17 1 0 2
node 18 2 0 2
node 20 1 0 0
node 42 1 0 0
node 101 2 0 0
nodegru 114 0 -0.61973390035318854 -0.25424331985611626 0.19614656744345396 -1.167308589637889 0.82710002308110697 0.10284283005299183 [ -1.0369374926839663 -0.8308226396706061 ] [ -0.65367957339793425 -0.42453389355192617 ] [ 1.3575014423613907 0.16327352305561005 ]
node 168 1 0 0
nodegru 195 0 0.51887287246942193 -0.26844323054814861 -0.26239250961802552 -0.72276243810670571 -0.12432877364304326 -0.73875789984071527 [ -0.28145650228553287 ] [ 1.0752856643289725 ] [ -0.63343581947658023 ]
nodegru 281 0 0.12525857012963787 0 0.040948326718503764 0 -0.72778928232276319 0 [ 0 ] [ 0 ] [ 0 ]
gene 2 1 17 2.5944683705896461 0 1 2.5944683705896461 1
gene 3 2 17 -0.68493215422375686 0 2 -0.68493215422375686 1
gene 2 3 17 1.1814516409912386 0 3 1.1814516409912386 0
gene 2 4 17 -0.54903405161995167 0 4 -0.54903405161995167 1
gene 3 5 17 -7.5011888160375833 0 5 -7.5011888160375833 1
gene 1 6 17 1.3699032210837596 0 6 1.3699032210837596 1
gene 2 7 17 4.5298219020617303 0 7 4.5298219020617303 1
gene 2 8 17 1.3604848309701703 0 8 1.3604848309701703 1
gene 2 9 17 1.7406549500257962 0 9 1.7406549500257962 1
gene 3 10 17 1.8399149809684212 0 10 1.8399149809684212 1
gene 3 11 17 3.5695859780859114 0 11 3.5695859780859114 1
gene 3 12 17 -1.7803804541613815 0 12 -1.7803804541613815 1
gene 3 13 17 0.9500393415568581 0 13 0.9500393415568581 1
gene 3 14 17 0.44235506336780106 0 14 0.44235506336780106 0
gene 3 15 17 -4.1207515424446912 0 15 -4.1207515424446912 1
gene 2 16 17 -2.451571181859622 0 16 -2.451571181859622 1
gene 2 1 18 3.5043240985853243 0 17 3.5043240985853243 1
gene 1 2 18 -1.6143837220102477 0 18 -1.6143837220102477 1
gene 2 3 18 -1.8645965209531579 0 19 -1.8645965209531579 1
gene 2 4 18 -1.6648344422759651 0 20 -1.6648344422759651 0
gene 2 5 18 1.7224983989598686 0 21 1.7224983989598686 1
gene 3 6 18 -3.3642173770881345 0 22 -3.3642173770881345 1
gene 1 7 18 -2.8395655013572272 0 23 -2.8395655013572272 1
gene 2 8 18 2.6745818073044454 0 24 2.6745818073044454 1
gene 2 9 18 -1.9074440950795284 0 25 -1.9074440950795284 1
gene 1 10 18 1.6273718728345692 0 26 1.6273718728345692 0
gene 3 11 18 2.0135167008328794 0 27 2.0135167008328794 0
gene 2 12 18 4.3437213441793432 0 28 4.3437213441793432 0
gene 3 13 18 1.1329367610779295 0 29 1.1329367610779295 1
gene 3 14 18 2.1221191626377967 0 30 2.1221191626377967 1
gene 2 15 18 7.4156371388424347 0 31 7.4156371388424347 1
gene 2 16 18 4.4850632777600845 0 32 4.4850632777600845 1
gene 1 12 20 -0.29069340009740263 0 36 -0.29069340009740263 1
gene 2 20 18 -2.1770074395122974 0 37 -2.1770074395122974 1
gene 3 4 20 -3.0991991144135591 0 42 -3.0991991144135591 1
gene 1 16 20 0.46898209511720623 0 49 0.46898209511720623 0
gene 2 10 20 -0.58624870462168399 0 101 -0.58624870462168399 1
gene 3 16 42 2.3289376215911179 0 136 2.3289376215911179 1
gene 3 42 20 -1.2418239910583124 0 137 -1.2418239910583124 1
gene 1 5 42 3.2690358077031725 0 339 3.2690358077031725 1
gene 3 14 101 -1.1110906953043727 0 482 -1.1110906953043727 1
gene 3 101 17 0.25819533272096651 0 483 0.25819533272096651 1
gene 3 7 101 -0.40559650010224263 0 496 -0.40559650010224263 1
gene 1 15 42 -4.2948352241864596 0 502 -4.2948352241864596 1
gene 2 4 114 -3.5865222127579726 0 603 -3.5865222127579726 1
gene 1 114 18 3.6945434203113159 0 604 3.6945434203113159 1
gene 1 16 101 -1.2341326739332326 0 664 -1.2341326739332326 1
gene 3 2 42 -1.4728344878986637 0 770 -1.4728344878986637 1
gene 1 1 101 0.098144791833192413 0 853 0.098144791833192413 1
gene 2 9 114 -0.65573791805921955 0 931 -0.65573791805921955 1
gene 1 42 42 0.8764435666969248 1 1000 0.8764435666969248 1
gene 2 3 168 0.10504806023326141 0 1026 0.10504806023326141 1
gene 2 168 17 -0.93139763161605116 0 1027 -0.93139763161605116 1
gene 3 17 20 -0.89304764633674538 1 1096 -0.89304764633674538 1
gene 3 5 168 1.4082987707379733 0 1150 1.4082987707379733 1
gene 3 11 195 -0.59669238449851636 0 1195 -0.59669238449851636 1
gene 3 195 18 0.82463454912632439 0 1196 0.82463454912632439 1
gene 3 7 168 -1.2541957695522326 0 1206 -1.2541957695522326 1
gene 3 168 18 -0.44114803857689161 0 1500 -0.44114803857689161 1
gene 2 6 101 -0.021816832954909993 0 1518 -0.021816832954909993 1
gene 1 3 101 -1.1662792412872796 0 1631 -1.1662792412872796 1
gene 2 101 20 0.19765026236309216 0 1685 0.19765026236309216 1
gene 1 10 281 0.48260995174414006 0 1768 0.48260995174414006 1
gene 1 281 18 0.019131486895089731 0 1769 0.019131486895089731 1
gene 3 12 168 0.19800968605466637 0 1914 0.19800968605466637 1
gene 3 168 101 -0.58215086724709297 0 2025 -0.58215086724709297 1
genomeend 1
