genomestart 1
trait 1 0.673364 0.712852 0.0856906 0 0.876502 0 0 0.25434 
trait 2 0 0.197495 0.921362 0.3684 1 0.567017 0 0 
trait 3 0.383435 0 0.953588 0 0.267072 0 0.0020278 0 
node 1 3 1 3
node 2 2 1 1
node 3 2 1 1
node 4 2 1 1
node 5 2 1 1
node 6 3 1 1
node 7 3 1 1
node 8 1 1 1
node 9 1 1 1
node 10 2 1 1
node 11 1 1 1
node 12 2 1 1
node 13 3 1 1
node 14 3 1 1
node 15 2 1 1
node 16 2 1 1
node 17 2 0 2
node 18 3 0 2
node 35 1 0 0
nodegru 41 0 -0.019945948743236228 -2.7228479647184014 0.92602312736028025 1.9730337220118541 -0.59687247248220832 0.56493700927353319 [ -0.22394881780443204 -1.2481522916341912 0.00060884817531744399 0 0 ] [ 0.37230225390396188 -0.64041842538417248 0.65425085458171128 0.0028732636724008546 0 ] [ -0.77762490500585402 -0.028401778558456214 0.61325766826665851 1.0429443416851312 0 ]
node 56 3 0 0
nodegru 89 0 -0.081894034790757131 0.47774554042971951 -0.52323269635589442 1.0227770754242209 1.1889147283224923 -1.8367659118197701 [ 0.96482570921761246 0 0 0.067823100284590904 ] [ 1.0317317081064599 1.6085534695808561 0 -0.56318803681674789 ] [ -0.38249247445840961 -0.092732431759467548 -0.0030748334261937226 0 ]
node 159 1 0 0
node 162 1 0 0
node 170 1 0 0
node 171 1 0 0
node 197 1 0 0
nodegru 206 0 -1.0176863792667568 0.70953714682699054 0.61507148487263885 1.218111533540353 0.71248727918718346 1.5111001543752385 [ 0.66067079101254733 0.49920728267133574 0 ] [ 1.5017266891671937 0 0 ] [ 0.73939399828174801 -0.45397335766068347 -0.01391285076453949 ]
node 234 1 0 0
node 248 3 0 0
nodegru 269 0 -0.42636326836718397 0.11614705127018832 1.0607084502981552 1.7077341312345744 -0.60213000064349276 -0.44437868215347581 [ 0.91402700935212289 -0.37473699072130817 0 ] [ -0.3042935877127077 0.23345700778693751 -0.71897418143645586 ] [ 1.6651695643855116 -0.0047809212723658456 0.21117916433661205 ]
nodegru 276 0 -0.12350164778693659 0.057572720366331154 -0.30472545514568938 0.26522571373042925 0.61911891313228695 0.4048958732303678 [ 0.077059468290330585 0.25856619072545595 0.62182895809962835 ] [ -0.72948530594794336 -1.3506728616080586 0.43410959173185271 ] [ 0.21238630612491921 0.46357430422845025 -1.3737004558200483 ]
node 326 3 0 0
nodegru 336 0 0.026257264789313665 0.20001492542215393 0.27602679446620249 1.4778151132528741 0.38213682960818374 -0.62557604181374238 [ -0.47694416797111944 ] [ -0.8235168806619555 ] [ -0.91355790950523597 ]
node 384 1 0 0
node 405 1 0 0
node 425 1 0 0
node 458 1 0 0
nodegru 484 0 -0.14366603626109009 -0.68239199087600788 -0.15628378938710485 0.22363598946185595 -0.41151205201703683 -0.60920272807553544 [ 0.95641543609388902 ] [ 0.21809832796831541 ] [ -0.42295421493377261 ]
nodegru 495 0 0 0 0.23722060839050479 0 0 0 [ 0 ] [ -0.74960797000658141 ] [ -0.095564951000532583 ]
node 516 1 0 0
nodegru 527 0 0.1030632377849255 1.4237266012577929 0 0 1.122461451390973 0.71068748201275589 [ 0.095873778381326116 ] [ 0 ] [ 0.42511863327823518 ]
node 553 1 0 0
nodegru 565 0 0.59648817200050142 0 0 0 0 0 [ 0 ] [ -0.55402283116896767 ] [ 0 ]
nodegru 585 0 0 0 0 0 0 0 [ 0 0 ] [ 0 0 ] [ 0 0 ]
node 589 1 0 0
gene 3 1 17 0.096260219740802289 0 1 0.096260219740802289 1
gene 2 2 17 -1.9819899919591795 0 2 -1.9819899919591795 1
gene 3 3 17 5.0305885848498848 0 3 5.0305885848498848 1
gene 1 4 17 2.7457813121125958 0 4 2.7457813121125958 1
gene 3 5 17 4.3258874478404827 0 5 4.3258874478404827 1
gene 3 6 17 4.6620246383417516 0 6 4.6620246383417516 1
gene 3 7 17 6.7435334918524772 0 7 6.7435334918524772 1
gene 2 8 17 -2.6651721190033344 0 8 -2.6651721190033344 0
gene 2 9 17 5.2973801029368213 0 9 5.2973801029368213 0
gene 1 10 17 7.6002116275952254 0 10 7.6002116275952254 1
gene 1 11 17 3.3848369860252543 0 11 3.3848369860252543 0
gene 1 12 17 -1.2765909575515384 0 12 -1.2765909575515384 1
gene 2 13 17 0.06425090323400276 0 13 0.06425090323400276 1
gene 3 14 17 -0.51786837925569573 0 14 -0.51786837925569573 1
gene 3 15 17 -7.1931050116862654 0 15 -7.1931050116862654 1
gene 1 16 17 -5.6536409825336342 0 16 -5.6536409825336342 1
gene 2 1 18 0.43262632700271242 0 17 0.43262632700271242 1
gene 3 2 18 1.1488378809992401 0 18 1.1488378809992401 1
gene 1 3 18 -1.0114117630344881 0 19 -1.0114117630344881 0
gene 2 4 18 1.7575663913775099 0 20 1.7575663913775099 1
gene 1 5 18 -7.8131026053163701 0 21 -7.8131026053163701 1
gene 1 6 18 -4.8958516816589297 0 22 -4.8958516816589297 1
gene 3 7 18 -7.2283750785181189 0 23 -7.2283750785181189 1
gene 1 8 18 0.37616303114973054 0 24 0.37616303114973054 0
gene 3 9 18 -0.59394191570763544 0 25 -0.59394191570763544 1
gene 1 10 18 3.534362947700715 0 26 3.534362947700715 0
gene 1 11 18 1.8597807061671197 0 27 1.8597807061671197 1
gene 1 12 18 -7.9269451829264614 0 28 -7.9269451829264614 0
gene 1 13 18 0.88468334585646358 0 29 0.88468334585646358 0
gene 1 14 18 4.1352185159387149 0 30 4.1352185159387149 0
gene 2 15 18 2.5340833830573049 0 31 2.5340833830573049 1
gene 1 16 18 2.4377477017407063 0 32 2.4377477017407063 1
gene 1 14 35 -3.5348471824707683 0 84 -3.5348471824707683 1
gene 1 35 18 6.1290048229875964 0 85 6.1290048229875964 0
gene 1 7 35 -0.86774952726799437 0 123 -0.86774952726799437 0
gene 1 7 41 4.7504923088711184 0 130 4.7504923088711184 1
gene 1 41 35 -1.7485218666254183 0 131 -1.7485218666254183 1
gene 3 1 35 -3.4761161623644252 0 184 -3.4761161623644252 1
gene 3 16 35 0.34794596144833811 0 192 0.34794596144833811 1
gene 1 13 56 0.59213235571148293 0 234 0.59213235571148293 1
gene 1 56 18 -2.1688568304147844 0 235 -2.1688568304147844 0
gene 2 10 89 1.2980294997329029 0 427 1.2980294997329029 1
gene 1 89 18 2.300922811055055 0 428 2.300922811055055 1
gene 1 16 56 0.45422944086800798 0 530 0.45422944086800798 1
gene 1 2 35 -6.4187334293586833 0 564 -6.4187334293586833 0
gene 1 56 41 3.3329816389982505 0 656 3.3329816389982505 1
gene 1 17 17 0.8824302539613238 1 671 0.8824302539613238 0
gene 2 10 35 0.97044193324187866 0 681 0.97044193324187866 0
gene 3 89 56 -1.7203603986279854 0 685 -1.7203603986279854 1
gene 2 6 35 1.2235733196016285 0 694 1.2235733196016285 1
gene 2 56 35 2.1520518270097915 0 714 2.1520518270097915 1
gene 1 4 56 -3.0589561458020276 0 724 -3.0589561458020276 0
gene 1 56 159 1.8430246632048037 0 893 1.8430246632048037 1
gene 1 159 18 3.8233809111748762 0 894 3.8233809111748762 0
gene 1 11 162 4.7162191374070099 0 939 4.7162191374070099 1
gene 1 162 17 1.3409486567093754 0 940 1.3409486567093754 0
gene 3 9 56 0.48260779864276304 0 946 0.48260779864276304 1
gene 2 162 35 -4.1254033618026433 0 978 -4.1254033618026433 1
gene 1 89 162 -1.9335276225737892 0 1013 -1.9335276225737892 1
gene 1 4 170 4.4159647842943492 0 1023 4.4159647842943492 1
gene 1 170 56 -5.2726241400337868 0 1024 -5.2726241400337868 1
gene 1 35 171 1.9381221212391377 0 1028 1.9381221212391377 0
gene 3 171 18 0.4936299894441063 0 1029 0.4936299894441063 1
gene 1 162 197 -5.6518692036168048 0 1186 -5.6518692036168048 1
gene 1 197 17 2.2335807915002013 0 1187 2.2335807915002013 1
gene 1 17 206 -0.016444603221697676 1 1230 -0.016444603221697676 1
gene 1 206 17 -5.9004476816162672 0 1231 -5.9004476816162672 1
gene 1 170 170 2.1095118383455618 1 1369 2.1095118383455618 1
gene 1 3 234 -4.0517617912505575 0 1392 -4.0517617912505575 0
gene 1 234 18 -4.1292199975015684 0 1393 -4.1292199975015684 0
gene 1 170 35 -4.3274478816089443 0 1404 -4.3274478816089443 1
gene 2 8 35 -2.7603571319535174 0 1447 -2.7603571319535174 1
gene 2 9 248 4.3782952034977711 0 1491 4.3782952034977711 1
gene 2 248 17 -4.1350520513416491 0 1492 -4.1350520513416491 1
gene 1 12 269 -4.2574589108151661 0 1654 -4.2574589108151661 0
gene 1 269 18 0.096676329195814023 0 1655 0.096676329195814023 1
gene 1 2 276 -1.9112881818606007 0 1686 -1.9112881818606007 1
gene 1 276 35 1.4707384836956574 0 1687 1.4707384836956574 1
gene 2 162 89 -1.4587386029114655 1 1800 -1.4587386029114655 0
gene 1 3 162 3.6177610538982603 0 1951 3.6177610538982603 1
gene 3 170 206 4.3960732861403713 0 1958 4.3960732861403713 1
gene 1 12 326 -0.33366911745801098 0 1994 -0.33366911745801098 1
gene 1 326 269 -2.8001831434900804 0 1995 -2.8001831434900804 1
gene 3 248 326 0.96465884019372017 0 2019 0.96465884019372017 1
gene 1 8 336 0.036028672026483827 0 2049 0.036028672026483827 1
gene 1 336 18 -4.7356315214352831 0 2050 -4.7356315214352831 0
gene 3 159 17 0.63066287670781074 0 2062 0.63066287670781074 1
gene 2 3 170 -0.56048283693868839 0 2090 -0.56048283693868839 0
gene 2 15 197 0.15791363753746918 0 2136 0.15791363753746918 0
gene 3 2 41 1.3854745662005037 0 2272 1.3854745662005037 1
gene 2 248 41 0.40643022286539449 0 2319 0.40643022286539449 1
gene 1 234 384 -0.39872146544452847 0 2385 -0.39872146544452847 0
gene 1 384 18 -0.64685483260399446 0 2386 -0.64685483260399446 1
gene 3 6 171 -1.0815937872191861 0 2494 -1.0815937872191861 1
gene 1 159 405 -3.5310396645362672 0 2549 -3.5310396645362672 0
gene 1 405 18 -1.4529616897706694 0 2550 -1.4529616897706694 1
gene 1 35 425 1.3480200856449174 0 2680 1.3480200856449174 1
gene 1 425 171 -0.89192012110348806 0 2681 -0.89192012110348806 1
gene 3 89 276 -0.0041459830264309883 0 2824 -0.0041459830264309883 0
gene 2 10 458 1.3726384218887604 0 2886 1.3726384218887604 1
gene 2 458 35 -0.46172664394216922 0 2887 -0.46172664394216922 1
gene 1 458 458 -0.087579293217313947 1 2906 -0.087579293217313947 1
gene 2 162 56 -2.2981913070186 0 2965 -2.2981913070186 1
gene 1 384 269 -0.52310762264444843 0 2968 -0.52310762264444843 1
gene 2 197 41 -1.159391725277245 0 2984 -1.159391725277245 1
gene 1 425 18 0.5005308375696329 0 3000 0.5005308375696329 1
gene 3 89 484 -0.42720472797621262 0 3064 -0.42720472797621262 1
gene 3 484 276 -1.5446721024553627 0 3065 -1.5446721024553627 1
gene 1 248 248 0.71653062196752548 1 3114 0.71653062196752548 1
gene 2 162 495 -0.72248762937844146 1 3136 -0.72248762937844146 1
gene 2 495 89 0.73607126063949957 0 3137 0.73607126063949957 0
gene 3 16 162 0.17324982940836336 0 3260 0.17324982940836336 1
gene 2 495 516 -0.42464124268136977 0 3289 -0.42464124268136977 1
gene 2 516 89 0.832367101722568 0 3290 0.832367101722568 1
gene 2 5 159 0.53570085975141302 0 3299 0.53570085975141302 1
gene 2 12 206 0.14354705130380907 0 3314 0.14354705130380907 1
gene 1 336 527 0.14297604846906664 0 3368 0.14297604846906664 1
gene 1 527 18 2.0807463442118586 0 3369 2.0807463442118586 1
gene 1 326 17 0.4750558624393566 0 3427 0.4750558624393566 1
gene 1 234 553 0.7834109781698374 0 3520 0.7834109781698374 1
gene 1 553 384 -1.9522373296563686 0 3521 -1.9522373296563686 1
gene 2 15 565 0.30044123881982698 0 3590 0.30044123881982698 1
gene 2 565 197 0.58215980794381339 0 3591 0.58215980794381339 1
gene 2 3 585 0.46225183758058208 0 3705 0.46225183758058208 1
gene 2 585 170 -0.11291419452191989 0 3706 -0.11291419452191989 1
gene 1 159 589 0.56175437584135413 0 3734 0.56175437584135413 1
gene 1 589 405 -2.3001333457884066 0 3735 -2.3001333457884066 1
gene 2 484 585 0.13151294197026314 0 3757 0.13151294197026314 1
genomeend 1
