genomestart 1
trait 1 0.1 0 0 0.799006 0 0.173627 0 0.632297 
trait 2 0.2 0.401942 0 0 0 0 0 0.136444 
trait 3 1 0 0.890962 0 0.866675 0 1 0 
node 1 2 1 3
node 2 3 1 1
node 3 1 1 1
node 4 1 1 1
node 5 2 1 1
node 6 2 1 1
node 7 2 1 1
node 8 2 1 1
node 9 3 1 1
node 10 2 1 1
node 11 3 1 1
node 12 1 1 1
node 13 1 1 1
node 14 2 1 1
node 15 2 1 1
node 16 2 1 1
node 17 1 0 2
node 18 2 0 2
nodegru 23 0 -0.1926754128386618 0.065719557956661789 -0.45569545878362627 1.5539854208724506 -0.22847915754117032 -0.7182330322536794 [ -0.011743079177915561 0 0 0 ] [ -0.82881358618792778 0 0.079827588321560811 0 ] [ -1.9582567207786519 0 0.26131121442248634 0 ]
nodegru 30 0 0.16145069799919187 0.34202496478894023 0.88271720667030529 -0.59183763402599721 0.085302433737228844 0.70549037829297145 [ 0.83001237750519641 0.89645977872258964 -0.056625823400274777 0.65703148390493893 0.71279639050494703 0.16359121325127371 ] [ 0.51681935159341397 0.36367731639820955 0.042583552209000827 -0.56460029320539928 0 -0.16155810929441738 ] [ 0.027889920527995528 -0.45438502575475026 0.65183626751035284 0.64369910577950029 -0.52693925950533682 0 ]
nodegru 81 0 -0.16723245762625358 0.73574844106833848 -0.29530193984755404 -0.35832849149980045 -0.18319762471746542 -0.66465420318518498 [ 0.61742432735274755 0 0 0 0 ] [ -0.74118271527866963 0 0 0 0 ] [ 0.44046401101651778 0 0 0 0 ]
nodegru 99 0 0.60789471113024973 -0.53954783968606401 -0.35772338759048072 0.86661565029836052 0.83167277210469959 0.58729226902932496 [ 0.35135599521517569 -0.77724142001347674 0.68459453256083402 ] [ -0.68571586810784213 -0.22321977208984073 -0.46124031718878089 ] [ 0.32766336718465361 0.52623819502826696 0 ]
node 100 1 0 0
node 108 1 0 0
nodegru 148 0 0.34774742384801965 0.51173335873136916 -0.66197385984099189 0 0 0.11058643872876953 [ 0.71317091663981369 -1.0599290230590519 ] [ -0.83939298165002507 -0.64309661038829791 ] [ 0.45630031368057261 0.049425323283963526 ]
nodegru 200 0 -0.18839416545275328 0 0.68561917377431836 0.35151346917334642 -0.15190985910683397 0.59391202095146856 [ 0 0 ] [ 0 0 ] [ 0.071735725538682071 0 ]
node 216 1 0 0
nodegru 220 0 0 0.23472228261396394 -0.73116186784168791 -0.11692988400670229 0.54276676012331926 0 [ 0.3775896034797605 ] [ 0.82193662718494265 ] [ 0 ]
node 231 1 0 0
node 244 1 0 0
nodegru 269 0 -0.061800796450954307 0 -0.76218669140347595 -0.40552663309756976 0.45369482457344179 -0.36726230737625726 [ 0.41351707869373122 -0.69746030340784249 0 0 ] [ -0.19209090151921421 -0.81445365204217546 -0.28539346544323196 0 ] [ 0.80623838249884472 -1.0533206705252272 0.42087858993135319 0 ]
nodegru 282 0 0 -0.014716214623635735 0 0.030984982280519317 -0.72259676245627769 0.57982380645341425 [ -0.20547135020860999 0.1881222750237781 ] [ -0.65268052283333633 0 ] [ 0.6084344400365066 0.27097219113305782 ]
node 297 1 0 0
node 313 1 0 0
nodegru 410 0 0 -0.33425797619123848 0 0 0 -0.39267109585584659 [ 0.14269100508777938 0 ] [ 0.36508578137265785 0 ] [ 0 0 ]
node 418 1 0 0
node 457 1 0 0
node 498 1 0 0
nodegru 513 0 0 0 0 0 0 0 [ 0 0 ] [ 0 0 ] [ 0 0 ]
nodegru 551 0 0 0 0 0 0 0 [ 0 ] [ 0 ] [ 0 ]
node 578 1 0 0
nodegru 663 0 0 0 0 0 0 0 [ 0 ] [ 0 ] [ 0 ]
nodegru 672 0 0 0 0 0 0 0 [ 0 ] [ 0 ] [ 0 ]
node 677 1 0 0
gene 1 1 17 2.6415146009025707 0 1 2.6415146009025707 1
gene 1 2 17 -0.18779741969788316 0 2 -0.18779741969788316 1
gene 1 3 17 0.60758973663094884 0 3 0.60758973663094884 1
gene 1 4 17 0.93788649592915863 0 4 0.93788649592915863 0
gene 2 5 17 -0.15963494796754557 0 5 -0.15963494796754557 0
gene 3 6 17 2.1641279673968103 0 6 2.1641279673968103 1
gene 2 7 17 2.353322167114039 0 7 2.353322167114039 1
gene 3 8 17 4.5817607463485377 0 8 4.5817607463485377 1
gene 3 9 17 4.7431172548062719 0 9 4.7431172548062719 0
gene 3 10 17 -1.8855102714782161 0 10 -1.8855102714782161 1
gene 1 11 17 -0.19311127669322814 0 11 -0.19311127669322814 0
gene 2 12 17 1.192273896626324 0 12 1.192273896626324 1
gene 3 13 17 0.27512345929868681 0 13 0.27512345929868681 0
gene 1 14 17 0.21467615441171251 0 14 0.21467615441171251 1
gene 1 15 17 -4.7751430325560005 0 15 -4.7751430325560005 1
gene 1 16 17 0.57343492951404074 0 16 0.57343492951404074 1
gene 2 1 18 2.5053971593759017 0 17 2.5053971593759017 1
gene 3 2 18 5.3581049367124702 0 18 5.3581049367124702 0
gene 3 3 18 0.42683160476239013 0 19 0.42683160476239013 1
gene 1 4 18 -0.44311944753542515 0 20 -0.44311944753542515 0
gene 2 5 18 -0.39874446946137798 0 21 -0.39874446946137798 1
gene 2 6 18 -6.5723908160917404 0 22 -6.5723908160917404 1
gene 2 7 18 1.3799078208999278 0 23 1.3799078208999278 0
gene 3 8 18 -0.69488190321479082 0 24 -0.69488190321479082 1
gene 3 9 18 1.1677504514426693 0 25 1.1677504514426693 1
gene 2 10 18 -0.097115515427251831 0 26 -0.097115515427251831 0
gene 2 11 18 0.88876793621516192 0 27 0.88876793621516192 1
gene 1 12 18 2.4869958120337667 0 28 2.4869958120337667 0
gene 1 13 18 -0.89857871569626924 0 29 -0.89857871569626924 0
gene 2 14 18 0.21281294255182726 0 30 0.21281294255182726 1
gene 2 15 18 -1.0151525519393163 0 31 -1.0151525519393163 0
gene 1 16 18 -2.7981950241598277 0 32 -2.7981950241598277 1
gene 2 10 23 0.82567728663593409 0 47 0.82567728663593409 1
gene 2 23 18 0.24647908191963996 0 48 0.24647908191963996 0
gene 1 11 30 0.67836745988035929 0 79 0.67836745988035929 1
gene 1 30 17 0.026388061245152916 0 80 0.026388061245152916 1
gene 3 5 30 1.2605523887372354 0 121 1.2605523887372354 0
gene 1 4 81 3.5915360461648249 0 350 3.5915360461648249 1
gene 1 81 18 2.5501457065344528 0 351 2.5501457065344528 1
gene 3 17 17 -3.0585990891831925 1 376 -3.0585990891831925 1
gene 1 12 99 0.73144559014190225 0 490 0.73144559014190225 1
gene 1 99 18 -1.5279656639452865 0 491 -1.5279656639452865 0
gene 1 4 100 3.2156113996010331 0 502 3.2156113996010331 1
gene 1 100 17 -0.62569991167434469 0 503 -0.62569991167434469 1
gene 1 99 108 0.18630736015565103 0 546 0.18630736015565103 1
gene 1 108 18 -1.0363892016636158 0 547 -1.0363892016636158 1
gene 2 18 100 -1.9506627601574464 1 615 -1.9506627601574464 1
gene 3 108 108 4.1210789605374814 1 628 4.1210789605374814 1
gene 2 9 108 -0.13108357898010053 0 686 -0.13108357898010053 0
gene 1 108 30 2.4804373795541181 0 699 2.4804373795541181 1
gene 1 30 100 2.119620526032346 0 705 2.119620526032346 1
gene 3 5 148 2.5957945229466048 0 749 2.5957945229466048 1
gene 3 148 30 -2.8761657492146675 0 750 -2.8761657492146675 0
gene 2 1 23 -0.038187319430609823 0 862 -0.038187319430609823 1
gene 1 11 108 -0.5769289635712882 0 869 -0.5769289635712882 1
gene 2 8 99 -0.28335112812153573 0 965 -0.28335112812153573 0
gene 3 3 81 -0.37787130946660019 0 972 -0.37787130946660019 0
gene 1 13 200 -0.54820046855518623 0 1093 -0.54820046855518623 1
gene 1 200 18 3.0484271948451309 0 1094 3.0484271948451309 1
gene 2 81 23 0.89299208549456299 0 1153 0.89299208549456299 1
gene 2 12 81 -0.67672697486203504 0 1165 -0.67672697486203504 0
gene 3 13 216 -0.59559383201207683 0 1194 -0.59559383201207683 0
gene 3 216 17 1.2304882102089416 0 1195 1.2304882102089416 1
gene 1 100 100 1.8636169960320077 1 1201 1.8636169960320077 1
gene 1 15 220 1.5423688813077141 0 1213 1.5423688813077141 1
gene 2 220 18 0.12932825688241456 0 1214 0.12932825688241456 0
gene 3 2 231 -0.81473920101520592 0 1309 -0.81473920101520592 1
gene 3 231 18 2.8148388665005744 0 1310 2.8148388665005744 0
gene 3 148 244 -0.70566634482502288 0 1386 -0.70566634482502288 1
gene 3 244 30 -1.3406528443287371 0 1387 -1.3406528443287371 1
gene 2 244 17 -2.4698627119510723 0 1426 -2.4698627119510723 1
gene 2 6 216 0.45001887632534782 0 1487 0.45001887632534782 1
gene 2 9 269 0.30794234646388419 0 1540 0.30794234646388419 1
gene 2 269 108 2.0684588485483353 0 1541 2.0684588485483353 1
gene 2 220 282 2.7145536587175694 0 1600 2.7145536587175694 1
gene 2 282 18 -0.43292988740509808 0 1601 -0.43292988740509808 1
gene 2 12 297 2.4129213242153273 0 1677 2.4129213242153273 1
gene 2 297 81 -0.71978853501835294 0 1678 -0.71978853501835294 1
gene 3 13 313 1.4398812555893701 0 1780 1.4398812555893701 1
gene 3 313 216 0.83778641737894444 0 1781 0.83778641737894444 1
gene 1 4 269 0.12589592550690087 0 1833 0.12589592550690087 0
gene 3 16 30 -0.14712650708254729 0 1835 -0.14712650708254729 1
gene 3 244 23 1.1985441513585595 0 1895 1.1985441513585595 1
gene 2 8 148 0.11360557196364066 0 2045 0.11360557196364066 1
gene 2 269 216 0.20950682273111626 0 2212 0.20950682273111626 1
gene 1 220 269 0.86256914055560219 0 2222 0.86256914055560219 1
gene 2 7 410 0.060940498630954298 0 2443 0.060940498630954298 1
gene 2 410 18 -1.1706223935683362 0 2444 -1.1706223935683362 1
gene 3 3 418 0.77611652634857065 0 2488 0.77611652634857065 1
gene 3 418 81 -0.54519712298419198 0 2489 -0.54519712298419198 1
gene 2 410 282 0.29507247442150142 0 2510 0.29507247442150142 1
gene 1 100 231 0.15264721093822606 0 2514 0.15264721093822606 1
gene 2 23 457 -0.64836414619272764 0 2745 -0.64836414619272764 1
gene 2 457 18 -0.49335771205060075 0 2746 -0.49335771205060075 0
gene 2 8 498 0.49278819036799865 0 2995 0.49278819036799865 1
gene 2 498 99 1.9147412528585368 0 2996 1.9147412528585368 1
gene 3 9 513 0.97862506761617274 0 3089 0.97862506761617274 1
gene 3 513 17 -0.52221751097692992 0 3090 -0.52221751097692992 1
gene 3 231 551 -0.52437217243685019 0 3308 -0.52437217243685019 1
gene 3 551 18 -0.12896525691215194 0 3309 -0.12896525691215194 1
gene 1 220 513 -1.233683034420797 0 3409 -1.233683034420797 1
gene 2 5 578 1.2123972776869301 0 3513 1.2123972776869301 1
gene 2 578 17 0.13064214674785832 0 3514 0.13064214674785832 0
gene 3 6 108 -0.25878932769819596 0 3707 -0.25878932769819596 1
gene 3 220 410 -0.99852475558804565 0 3895 -0.99852475558804565 1
gene 1 11 200 0.78028051777755869 0 3899 0.78028051777755869 1
gene 2 457 663 0.7437087960977613 0 4034 0.7437087960977613 1
gene 2 663 18 -0.61853169026716226 0 4035 -0.61853169026716226 1
gene 1 4 672 0.87726062344259614 0 4107 0.87726062344259614 1
gene 1 672 269 0.28522021953725263 0 4108 0.28522021953725263 1
gene 2 578 677 1 0 4144 1 1
gene 2 677 17 0.36238061572070263 0 4145 0.36238061572070263 1
genomeend 1
