genomestart 1
trait 1 0.390304 0.340397 0 1 0.348724 0 0 0.054986 
trait 2 0.460693 0 0.89394 0.697985 0.777997 0.392204 0 1 
trait 3 0.691137 0.419228 0.64766 0.758873 0 0 0.965408 0 
node 1 2 1 3
node 2 1 1 1
node 3 3 1 1
node 4 2 1 1
node 5 2 1 1
node 6 1 1 1
node 7 1 1 1
node 8 2 1 1
node 9 1 1 1
node 10 3 1 1
node 11 3 1 1
node 12 1 1 1
node 13 2 1 1
node 14 1 1 1
node 15 3 1 1
node 16 1 1 1
node 17 2 0 2
node 18 1 0 2
node 22 2 0 0
node 24 1 0 0
nodegru 67 0 -1.6014676726662871 0.51014545327524896 -0.89735830162994468 0.3838990402332968 -0.37283582665158255 0.72088000584434697 [ 0.6120068050744043 0.7140768917575836 0.27540314769158286 ] [ -0.096919507415462069 -0.10743438667032605 0 ] [ 0.25688007241435351 -1.5523871784342393 0 ]
nodegru 73 0 -0.15094429319768421 -0.033459525454537731 1.7479278753734788 -0.8777657737386253 0.90782959952849407 -0.23386826446925674 [ 0.38343963894687588 0.65013424453797497 -0.7543425484347821 -0.24057946330429034 0 ] [ 1.4801942550019334 -0.28823025561321075 -1.3682645495833199 0.015011971823410963 -0.57168228368818863 ] [ -0.27874340735317366 -0.50351168087381482 0.42949656521878044 0.39625811630220065 -0.2049974758201267 ]
node 78 1 0 0
node 88 1 0 0
nodegru 96 0 0.40704840428989775 -0.4768003104146572 -0.33469033920424546 -0.10430097666303667 0.72065683278285753 -1.8254297876616148 [ -0.54243928615117409 1.074491240817351 -0.78001671565231701 0 0 ] [ -0.75482508971114881 0 -0.32143299762226318 0 0 ] [ -0.68017298783183699 0.34884839556126312 -1.1953707471002688 0 0 ]
node 126 3 0 0
nodegru 127 0 -0.4752559653600939 0.21402586016991448 1.2847591274346966 -0.68809372812420766 1.2742961105072386 0.29812693912448696 [ 0.86211204638803007 -0.17955181779319046 0.66801414425392358 ] [ -0.53517515761087431 0.2089288374217827 -0.55029899082160505 ] [ 1.095417627061446 0.27517757391332537 0.30783401071458777 ]
nodegru 158 0 -0.55469137875116026 0.276482064522096 -0.22305406361029206 -0.035592437971193602 -0.49443431861905113 0.066168892926615097 [ 0.26808924112379962 ] [ -0.89633819223211053 ] [ 0.71793455687255348 ]
nodegru 238 0 0.079707098114167985 0.22510877890750242 -0.31222006017911252 -0.1457990731093097 1.2326868696756135 0.040861153877741196 [ 0.41222246301463916 ] [ 0.39878094238172335 ] [ 0.15814362788020803 ]
nodegru 240 0 0.016138352577638976 -0.65747098969643514 -0.59114427042246998 1.9414717990166843 0.14967113798468895 -0.059352804002981999 [ 0.11337594972614939 0 ] [ 1.3237846895697456 0 ] [ -1.4374651845719038 0 ]
node 259 1 0 0
nodegru 263 0 0.61731255642013272 0.01772396174153501 0.32044579033760623 -0.22822588925632925 -0.62018293078065967 1.0101368923253085 [ -0.080708804345088467 0.15765996063484811 -0.12093250575518817 0.44488981899101743 -0.83455428496680883 ] [ 0.37496583518803395 0.38143911509841638 -0.56424699039861892 0.49280554125681775 -0.41755699187869066 ] [ 0.44378864681058966 -0.0035219908475512263 -1.5730778784831416 0.21150708604208518 -1.2246560687081218 ]
nodegru 270 0 -0.18785700385358975 0.24908614403059992 0.36063437227189277 -0.068800558717362847 -1.2373544344386807 0.75485649146365763 [ -0.8475644365407361 ] [ -0.18387074742180798 ] [ -1.0541096300837163 ]
node 308 3 0 0
nodegru 314 0 -0.011995655606498781 -0.18048334339656091 0.3943380608197013 -0.36725280788599168 0.34317679544593055 0 [ 0 0 ] [ 0.18506800520004146 0.59364799100144205 ] [ 0.39363400609867372 0.139801654796955 ]
nodegru 317 0 1.3395017170531218 -0.48167694883033496 0.24998772388789231 -0.010886110603290661 0.14905885113359379 -0.91432081147298261 [ -0.65818542470605368 1.2765660329147084 0.85291111078248871 ] [ 0.19490225191456373 -0.6408343231961291 0.5840235597379615 ] [ -0.21028028659535586 -0.6996008682528515 -0.56298983728652341 ]
node 321 2 0 0
node 323 1 0 0
node 345 1 0 0
nodegru 397 0 0.67409610523567354 0 0.13627984835127363 0 -0.45996286380568652 0.15459694848609951 [ 0.70922591907867505 0.092615843677248733 -1.3476923424041329 0.54380437722141117 ] [ 0.71525823509565467 0.49882115877644218 0 -0.73382942459258693 ] [ -0.120535480147477 -0.24743647128224211 0.11455200443256275 0.16971578503479984 ]
nodegru 399 0 0.018347207931032061 0 -0.3457952426261246 -0.58140024651372824 -2.0230345967100165 0.14464452950965823 [ 0.24329577129953339 -0.33409407296408622 0.051599145425296922 0.015074234695674028 ] [ -0.42233486074131671 -0.42624229899432609 0.66615227035533287 0 ] [ 0.014770705376179305 0 0.67113688514620851 0.73764647938667172 ]
nodegru 400 0 0.64302279096703174 1.289639884857293 1.2585223654790418 0.27064920427307915 -0.56304529859360553 0.27387792525062238 [ -0.72955386537572087 0.3378266046465499 0.73327318159084454 0 0 ] [ 0 1.0740903923632998 -0.058508793501420311 0 0 ] [ 0.082423731606650966 0 -0.17373093633154912 0 0 ]
nodegru 403 0 1.5410880292957128 0 -0.20483824655173266 0 0 0 [ 0.35550755604892392 0 ] [ 0.87307210283962644 0 ] [ 0.76277312706819411 -0.067188618153887159 ]
node 424 1 0 0
node 430 1 0 0
node 486 3 0 0
node 525 1 0 0
node 552 1 0 0
node 577 1 0 0
node 610 1 0 0
node 616 3 0 0
nodegru 652 0 0 0 0 0 0 0.31161110792849728 [ 0 0 ] [ 0.35769287885990592 0 ] [ -0.41240650131944867 0 ]
nodegru 691 0 0 0 0 0 0 0 [ 0 ] [ 0 ] [ 0 ]
nodegru 694 0 0 0 0 0 0 0 [ 0 ] [ 0 ] [ 0 ]
nodegru 794 0 -0.59070429314892015 0.039541629976379514 0.0091770747719225818 0.60671492053974185 -0.032422598117227919 -0.32961055733245359 [ 0 ] [ 0.66602703249828288 ] [ 0.31791121038510989 ]
nodegru 847 0 0 0 0 0 0 0 [ 0 0 ] [ 0 0 ] [ 0 0 ]
node 879 1 0 0
gene 1 1 17 3.470123500083631 0 1 3.470123500083631 1
gene 3 2 17 2.6081407480445415 0 2 2.6081407480445415 1
gene 3 3 17 -0.96690870715161259 0 3 -0.96690870715161259 1
gene 2 4 17 -2.1548385887429298 0 4 -2.1548385887429298 1
gene 2 5 17 -7.0937398716778226 0 5 -7.0937398716778226 1
gene 3 6 17 1.9083435930816193 0 6 1.9083435930816193 1
gene 2 7 17 1.0089052222943424 0 7 1.0089052222943424 1
gene 1 8 17 -1.3069809975833544 0 8 -1.3069809975833544 1
gene 3 9 17 0.051819025097330829 0 9 0.051819025097330829 0
gene 2 10 17 -0.16319400254320071 0 10 -0.16319400254320071 0
gene 2 11 17 -1.1803482860235257 0 11 -1.1803482860235257 0
gene 3 12 17 -0.34369810546920526 0 12 -0.34369810546920526 0
gene 2 13 17 2.8776016327913858 0 13 2.8776016327913858 0
gene 3 14 17 0.5768236351790017 0 14 0.5768236351790017 0
gene 2 15 17 -5.9873816230042767 0 15 -5.9873816230042767 1
gene 1 16 17 -7.3221232380355348 0 16 -7.3221232380355348 1
gene 1 1 18 -3.0438780439057753 0 17 -3.0438780439057753 1
gene 3 2 18 -1.7114530297515227 0 18 -1.7114530297515227 0
gene 3 3 18 0.47967487363129613 0 19 0.47967487363129613 0
gene 1 4 18 3.0442062174175923 0 20 3.0442062174175923 1
gene 1 5 18 2.1124438710335847 0 21 2.1124438710335847 0
gene 1 6 18 -3.0044539260000245 0 22 -3.0044539260000245 1
gene 3 7 18 -2.2108218896718794 0 23 -2.2108218896718794 0
gene 1 8 18 0.46516163028551327 0 24 0.46516163028551327 0
gene 3 9 18 1.0117392904412652 0 25 1.0117392904412652 0
gene 1 10 18 2.216680121243316 0 26 2.216680121243316 1
gene 3 11 18 -0.092903097087006614 0 27 -0.092903097087006614 1
gene 2 12 18 0.208004461931067 0 28 0.208004461931067 1
gene 1 13 18 -0.76805555856230456 0 29 -0.76805555856230456 1
gene 2 14 18 6.0382061778978473 0 30 6.0382061778978473 1
gene 1 15 18 7.6319973861714816 0 31 7.6319973861714816 1
gene 3 16 18 7.3607398401297353 0 32 7.3607398401297353 1
gene 2 7 22 1.6860884383488857 0 42 1.6860884383488857 0
gene 2 22 17 1.51885098510834 0 43 1.51885098510834 0
gene 1 2 24 0.60545187040951653 0 48 0.60545187040951653 0
gene 3 24 18 -0.39841865277775518 0 49 -0.39841865277775518 1
gene 1 24 24 1.3440176825244059 1 170 1.3440176825244059 0
gene 1 4 22 1.7376701543050217 0 197 1.7376701543050217 0
gene 3 22 24 0.88767888228766589 0 232 0.88767888228766589 0
gene 3 15 22 2.1147459582959982 0 242 2.1147459582959982 1
gene 3 4 67 -0.7274671692761906 0 335 -0.7274671692761906 0
gene 3 67 22 1.3191599821761066 0 336 1.3191599821761066 0
gene 2 13 73 1.4895729508668061 0 363 1.4895729508668061 1
gene 2 73 17 1.779303827685911 0 364 1.779303827685911 1
gene 2 3 78 0.69741214902485349 0 383 0.69741214902485349 0
gene 2 78 18 1.9401290918188769 0 384 1.9401290918188769 1
gene 2 7 88 0.64996384917756722 0 451 0.64996384917756722 1
gene 2 88 22 -4.2106360912838188 0 452 -4.2106360912838188 1
gene 3 22 96 -0.021599039212613858 0 517 -0.021599039212613858 0
gene 3 96 24 0.68447233000047158 0 518 0.68447233000047158 1
gene 3 12 126 1.2025669899082589 0 690 1.2025669899082589 1
gene 3 126 17 -0.58168749852650214 0 691 -0.58168749852650214 0
gene 3 67 127 -1.7654424596184131 0 702 -1.7654424596184131 0
gene 3 127 22 -3.9020986929079982 0 703 -3.9020986929079982 0
gene 3 9 158 1.6627306149633281 0 902 1.6627306149633281 1
gene 3 158 17 -1.7155997493376951 0 903 -1.7155997493376951 1
gene 3 12 22 0.23727387992538221 0 1068 0.23727387992538221 0
gene 3 67 96 -0.22404109138252282 0 1076 -0.22404109138252282 0
gene 2 5 96 -1.480543870819055 0 1266 -1.480543870819055 1
gene 1 5 127 1.1556039234416593 0 1271 1.1556039234416593 1
gene 1 3 73 0.77115407086496901 0 1296 0.77115407086496901 1
gene 2 8 67 -1.8940563289886601 0 1302 -1.8940563289886601 1
gene 3 126 238 -3.1405430687081743 0 1457 -3.1405430687081743 1
gene 1 238 17 -2.5126758870960568 0 1458 -2.5126758870960568 1
gene 3 14 240 -2.9741489697360195 0 1467 -2.9741489697360195 1
gene 3 240 17 2.1955107893773875 0 1468 2.1955107893773875 0
gene 1 5 73 0.10364401356952446 0 1596 0.10364401356952446 1
gene 2 10 259 -0.19658329672952346 0 1615 -0.19658329672952346 0
gene 2 259 17 -4.4132915030528261 0 1616 -4.4132915030528261 0
gene 3 9 263 -0.17661777868709425 0 1647 -0.17661777868709425 1
gene 3 263 18 -2.2295828632682477 0 1648 -2.2295828632682477 1
gene 2 7 24 0.07401023529191042 0 1655 0.07401023529191042 1
gene 2 127 270 -2.6443683799097166 0 1708 -2.6443683799097166 1
gene 3 270 22 2.4610304508642433 0 1709 2.4610304508642433 1
gene 3 24 263 0.71695500401172541 0 1834 0.71695500401172541 0
gene 3 259 22 1.6943019344212031 0 1848 1.6943019344212031 1
gene 1 8 308 -0.86496553575385615 0 1950 -0.86496553575385615 1
gene 1 308 18 1.6307403892887478 0 1951 1.6307403892887478 1
gene 2 22 314 0.17144078280378178 0 1979 0.17144078280378178 1
gene 2 314 17 -1.0550250589405303 0 1980 -1.0550250589405303 1
gene 1 2 317 -0.48128183429654786 0 1992 -0.48128183429654786 0
gene 1 317 24 0.2117679727784208 0 1993 0.2117679727784208 1
gene 1 2 321 -1.2283060795060852 0 2002 -1.2283060795060852 1
gene 1 321 317 4.3324488156160568 0 2003 4.3324488156160568 0
gene 3 67 323 -1.3272547189040365 0 2013 -1.3272547189040365 0
gene 3 323 127 -3.6318846096433171 0 2014 -3.6318846096433171 1
gene 3 18 321 0.90018411849168323 1 2018 0.90018411849168323 1
gene 2 126 73 2.1694997828078919 0 2126 2.1694997828078919 0
gene 2 259 345 -0.25751801033388744 0 2143 -0.25751801033388744 1
gene 2 345 17 -0.43708363836029729 0 2144 -0.43708363836029729 1
gene 1 321 397 -3.1176233460975906 0 2429 -3.1176233460975906 1
gene 1 397 317 -0.062847534456684812 0 2430 -0.062847534456684812 1
gene 1 5 399 -0.92343860872715644 0 2443 -0.92343860872715644 0
gene 1 399 18 -0.67665587106098246 0 2444 -0.67665587106098246 1
gene 2 10 400 -1.3688302795024729 0 2449 -1.3688302795024729 1
gene 2 400 259 -1.5000252780737471 0 2450 -1.5000252780737471 0
gene 3 240 403 3.1736267932800701 0 2459 3.1736267932800701 1
gene 3 403 17 -1.1107022590519402 0 2460 -1.1107022590519402 1
gene 3 238 400 0.20980656168414591 0 2469 0.20980656168414591 0
gene 3 323 88 1.5975670904608288 0 2489 1.5975670904608288 1
gene 3 7 424 0.15293827497071533 0 2623 0.15293827497071533 1
gene 3 424 18 -0.61282975429800801 0 2624 -0.61282975429800801 1
gene 2 126 430 1.2887805368699041 0 2641 1.2887805368699041 1
gene 2 430 73 -1.7047397288050219 0 2642 -1.7047397288050219 1
gene 3 8 397 1.143813449723559 0 2774 1.143813449723559 1
gene 3 9 323 0.0076069668902117304 0 2954 0.0076069668902117304 1
gene 1 240 18 -1.3015583742184369 0 2962 -1.3015583742184369 1
gene 1 270 314 2.2979875282840752 0 2996 2.2979875282840752 1
gene 1 5 486 1.8648502893582219 0 3008 1.8648502893582219 1
gene 1 486 399 0.0018300816890929328 0 3009 0.0018300816890929328 1
gene 2 240 399 1.9924772692576407 0 3017 1.9924772692576407 1
gene 2 3 525 -1.5487137499957873 0 3327 -1.5487137499957873 0
gene 2 525 78 2.0132877309868529 0 3328 2.0132877309868529 1
gene 3 126 397 -0.25364526477812099 0 3363 -0.25364526477812099 1
gene 3 238 552 -0.11982902016948394 0 3501 -0.11982902016948394 1
gene 1 552 400 -0.25358053972180039 0 3502 -0.25358053972180039 1
gene 3 11 424 0.29525719131122213 0 3548 0.29525719131122213 1
gene 3 12 263 -0.92241980935093937 0 3608 -0.92241980935093937 1
gene 3 67 577 -0.14079439169298591 0 3658 -0.14079439169298591 1
gene 3 577 96 -0.19573281190625053 0 3659 -0.19573281190625053 1
gene 3 577 88 -1.9005934000716516 0 3827 -1.9005934000716516 1
gene 1 263 17 -0.071394290459060233 0 3830 -0.071394290459060233 1
gene 3 4 610 -0.93960268536564095 0 3870 -0.93960268536564095 1
gene 3 610 67 0.016682210968193695 0 3871 0.016682210968193695 1
gene 3 67 616 0.81130091930334503 0 3938 0.81130091930334503 1
gene 3 616 323 -0.53281908495482944 0 3939 -0.53281908495482944 1
gene 2 238 18 0.54403496791796524 0 4094 0.54403496791796524 1
gene 2 345 616 0.31374609461694308 0 4155 0.31374609461694308 1
gene 3 12 652 1.348211637278186 0 4170 1.348211637278186 1
gene 3 652 22 1.3364057172259343 0 4171 1.3364057172259343 1
gene 1 3 263 0.16388716009160831 0 4371 0.16388716009160831 1
gene 2 3 691 -0.015697514063537827 0 4380 -0.015697514063537827 1
gene 2 691 525 -0.30178082236171738 0 4381 -0.30178082236171738 0
gene 2 24 694 -0.040082773328797318 0 4397 -0.040082773328797318 1
gene 3 694 263 0.29834205333531927 0 4398 0.29834205333531927 1
gene 1 158 397 -0.21183895911641376 0 4439 -0.21183895911641376 1
gene 1 321 24 -1.427381749114665 0 4510 -1.427381749114665 1
gene 3 323 403 -0.5399057720973649 0 4532 -0.5399057720973649 1
gene 2 67 486 0.30592260011747596 0 4959 0.30592260011747596 1
gene 1 73 400 0.70388327234139825 0 4962 0.70388327234139825 1
gene 2 158 399 -0.58891224783794593 0 4981 -0.58891224783794593 1
gene 2 691 794 1.4218857222804266 0 4994 1.4218857222804266 1
gene 2 794 525 0.59693145768108358 0 4995 0.59693145768108358 1
gene 2 430 652 0.73363960487006219 0 5195 0.73363960487006219 1
gene 3 22 847 2.3760298925340315 0 5298 2.3760298925340315 1
gene 3 847 96 0.37449520459607955 0 5299 0.37449520459607955 1
gene 3 3 424 0.26915498614271871 0 5392 0.26915498614271871 1
gene 2 240 400 0.56489070798963803 0 5398 0.56489070798963803 1
gene 3 10 240 -0.90002516885289241 0 5459 -0.90002516885289241 1
gene 1 14 847 0.67828737649986859 0 5490 0.67828737649986859 1
gene 2 400 879 1.7130417560520776 0 5540 1.7130417560520776 1
gene 2 879 259 -0.79922803598420122 0 5541 -0.79922803598420122 1
genomeend 1
