genomestart 1
trait 1 1 0.410893 0.937202 0.380545 0.533792 1 0 0 
trait 2 0.171106 0 0.678762 0.297507 0 0.301349 0 0.826543 
trait 3 1 0.200562 0 1 0 0 1 1 
node 1 3 1 3
node 2 1 1 1
node 3 1 1 1
node 4 2 1 1
node 5 1 1 1
node 6 3 1 1
node 7 3 1 1
node 8 2 1 1
node 9 2 1 1
node 10 3 1 1
node 11 3 1 1
node 12 2 1 1
node 13 2 1 1
node 14 1 1 1
node 15 1 1 1
node 16 3 1 1
node 17 3 0 2
node 18 2 0 2
nodegru 23 0 1.6543726889204109 -1.2858122150813287 1.2897466496982362 1.1842774721720617 -1.0355311804616503 -0.79844123092407404 [ 1.7279374539982237 -1.5260567776980143 0.92163817068638187 0.37307565769789536 0.70886339722613956 -0.00081887142770871121 1.1332183189844798 1.0166664850044373 ] [ -1.4939353165654166 0.13222357753302136 -1.0968828245982913 1.5527042986604873 -0.7056885893483128 0.50724763935769346 -0.65780449270168551 -1.7413653746439914 ] [ -1.6461295949509971 -0.794217107256044 -0.23721633257214741 1.0432507938441127 -1.5338021172367977 5.167144902128328 -1.1712747990019969 -1.9165075870307664 ]
node 49 2 0 0
node 71 1 0 0
nodegru 79 0 1.2532778118053809 -0.32251438816195088 0.76383722259841735 -0.9967237224321458 2.0953699276295343 -0.99619331490071195 [ 0.66666456040305311 -2.3725370230956639 -0.35986978204914821 ] [ -0.46224575371586057 -0.46375066575768897 -0.014270735678389081 ] [ -0.37341692339322385 2.3118391674067076 0.6505773727086267 ]
nodegru 92 0 -2.0752423901926922 -2.7681817883943123 -0.5295203621636706 2.50247770478133 0.31975234780449074 -1.4510994355432221 [ -1.2911051075398481 -3.0780439291047137 -0.7100016547879211 -0.47827249182307729 1.0177475842729899 0.56025808773015529 -0.33228366744345228 ] [ 0.10639599948487988 1.4938889227313403 -1.8655346906117793 1.1295281770310963 0.35472423855900964 -1.5321216134038389 -0.40801089508832006 ] [ 2.2222324042684547 0.66382853158927912 0.27958000580760645 -0.0051246962999574363 -0.78204674449844602 -0.28716126470228714 -1.4999988467898215 ]
node 149 1 0 0
node 173 1 0 0
node 223 1 0 0
nodegru 271 0 0 -0.6653081016453487 -1.0694309098503698 -0.58713912641962018 0.29581960444143951 -0.71754570920837368 [ -0.64049505728319989 ] [ 0 ] [ 0.5137972054135973 ]
node 290 1 0 0
node 348 3 0 0
node 387 2 0 0
node 400 1 0 0
nodegru 442 0 1.2805846497791746 2.0975214769586552 -0.37659873295417001 0 1.4431668282221848 0.80264149899717485 [ -0.37449138419446132 -0.50883338996620531 ] [ 0.65777487384983102 0.38144786231287187 ] [ -1.3989509569476128 0.78025947617378999 ]
node 477 1 0 0
node 532 1 0 0
gene 1 1 17 3.0513246087596397 0 1 3.0513246087596397 1
gene 2 2 17 0.75538869935804431 0 2 0.75538869935804431 1
gene 3 3 17 -1.1031025662567013 0 3 -1.1031025662567013 1
gene 3 4 17 0.51338672056486212 0 4 0.51338672056486212 1
gene 2 5 17 -5.0572923845878304 0 5 -5.0572923845878304 1
gene 1 6 17 0.38480154768787411 0 6 0.38480154768787411 1
gene 2 7 17 1.4025440818642001 0 7 1.4025440818642001 1
gene 1 8 17 0.078124849394953344 0 8 0.078124849394953344 1
gene 3 9 17 1.1442674974185731 0 9 1.1442674974185731 0
gene 3 10 17 2.050198355247359 0 10 2.050198355247359 1
gene 2 11 17 1.3127286393720323 0 11 1.3127286393720323 1
gene 3 12 17 0.39354088245590257 0 12 0.39354088245590257 0
gene 2 13 17 -2.7636345248965708 0 13 -2.7636345248965708 0
gene 2 14 17 -0.22175489446229996 0 14 -0.22175489446229996 1
gene 3 15 17 -8 0 15 -8 1
gene 2 16 17 -0.76173358073538822 0 16 -0.76173358073538822 1
gene 1 1 18 -1.2341111918138858 0 17 -1.2341111918138858 1
gene 3 2 18 1.295202551314236 0 18 1.295202551314236 0
gene 2 3 18 0.25598054367861733 0 19 0.25598054367861733 0
gene 3 4 18 2.1612400294566712 0 20 2.1612400294566712 1
gene 2 5 18 0.21058256840826131 0 21 0.21058256840826131 1
gene 2 6 18 -3.6239641302376819 0 22 -3.6239641302376819 1
gene 2 7 18 -0.35655343386184118 0 23 -0.35655343386184118 1
gene 3 8 18 -1.2031521979734079 0 24 -1.2031521979734079 0
gene 3 9 18 -0.028259446857617887 0 25 -0.028259446857617887 0
gene 3 10 18 0.72488727081794624 0 26 0.72488727081794624 1
gene 3 11 18 -0.85054641978374979 0 27 -0.85054641978374979 0
gene 2 12 18 2.8319689740110041 0 28 2.8319689740110041 1
gene 3 13 18 -1.0754638070126361 0 29 -1.0754638070126361 0
gene 2 14 18 6.4342824164471972 0 30 6.4342824164471972 1
gene 3 15 18 0.10975669911585606 0 31 0.10975669911585606 1
gene 2 16 18 0.66670863454542517 0 32 0.66670863454542517 1
gene 3 12 23 0.47059683174388328 0 44 0.47059683174388328 1
gene 3 23 17 1.3906366188966841 0 45 1.3906366188966841 1
gene 2 23 18 0.48806442599187805 0 107 0.48806442599187805 1
gene 3 7 23 1.062367141974329 0 116 1.062367141974329 1
gene 3 18 23 -0.88966560358631686 1 185 -0.88966560358631686 1
gene 3 13 49 -2.5118438340778666 0 199 -2.5118438340778666 1
gene 3 49 18 -1.2424255654879033 0 200 -1.2424255654879033 0
gene 3 9 71 -2.4127124880499728 0 339 -2.4127124880499728 1
gene 3 71 17 2.6099270035558972 0 340 2.6099270035558972 1
gene 3 6 71 -0.44379689425406832 0 375 -0.44379689425406832 1
gene 2 6 49 -0.18016727509916164 0 388 -0.18016727509916164 0
gene 3 3 79 -2.2816661648832568 0 412 -2.2816661648832568 1
gene 2 79 18 2.1060911717852999 0 413 2.1060911717852999 1
gene 1 6 23 -4.0559063898659797 0 450 -4.0559063898659797 1
gene 2 6 92 -0.9797412594685988 0 513 -0.9797412594685988 0
gene 2 92 49 -0.49197608278690658 0 514 -0.49197608278690658 1
gene 2 79 71 -0.43969723416478246 0 525 -0.43969723416478246 1
gene 1 10 23 0.40462791915267093 0 543 0.40462791915267093 1
gene 3 16 71 -1.8131828600602145 0 612 -1.8131828600602145 1
gene 1 49 49 -0.69101780568762583 1 641 -0.69101780568762583 1
gene 2 2 92 -2.6604526926113534 0 650 -2.6604526926113534 1
gene 1 1 23 -0.5444987463040738 0 698 -0.5444987463040738 1
gene 2 71 71 -2.5692670164021045 1 719 -2.5692670164021045 0
gene 3 4 79 -0.0039861020650650003 0 796 -0.0039861020650650003 1
gene 3 18 71 -0.45869826057865215 1 807 -0.45869826057865215 1
gene 3 2 149 -2.1158772197625959 0 891 -2.1158772197625959 0
gene 3 149 18 -2.9810130007010942 0 892 -2.9810130007010942 1
gene 3 79 92 -2.0231037093434034 0 1026 -2.0231037093434034 0
gene 2 71 173 -1.6644737057688057 1 1059 -1.6644737057688057 1
gene 2 173 71 -0.97823107590816494 0 1060 -0.97823107590816494 1
gene 3 11 49 0.10621453477359138 0 1204 0.10621453477359138 1
gene 3 9 149 -1.6560760935098291 0 1289 -1.6560760935098291 0
gene 2 11 149 -1.8095022287729672 0 1304 -1.8095022287729672 1
gene 3 11 223 -0.93620411629611811 0 1380 -0.93620411629611811 1
gene 3 223 18 0.79830753956842593 0 1381 0.79830753956842593 1
gene 1 16 223 2.9723870821634248 0 1405 2.9723870821634248 1
gene 2 149 149 -0.23545409191188105 1 1496 -0.23545409191188105 1
gene 1 14 23 -0.91677061371354873 0 1536 -0.91677061371354873 1
gene 2 6 223 1.8414499819471732 0 1592 1.8414499819471732 1
gene 3 49 17 -2.5659681933773539 0 1662 -2.5659681933773539 0
gene 3 15 79 -2.112823592551436 0 1668 -2.112823592551436 1
gene 3 15 173 -2.3503843968968763 0 1712 -2.3503843968968763 1
gene 1 15 92 0.79550272635906139 0 1756 0.79550272635906139 1
gene 2 13 271 4.7137861073546983 0 1769 4.7137861073546983 1
gene 2 271 17 -1.0939648529020907 0 1770 -1.0939648529020907 1
gene 1 92 23 2.8484532669412217 0 1876 2.8484532669412217 1
gene 1 4 223 2.129552572793119 0 1895 2.129552572793119 1
gene 2 6 290 -0.82442945373450838 0 1913 -0.82442945373450838 1
gene 2 290 92 -0.92772427617000619 0 1914 -0.92772427617000619 1
gene 3 79 348 1.7182377941060059 0 2266 1.7182377941060059 1
gene 3 348 92 -1.2705787493710308 0 2267 -1.2705787493710308 1
gene 3 10 149 2.0926230312756369 0 2287 2.0926230312756369 1
gene 2 71 92 -0.39517619735336684 0 2290 -0.39517619735336684 1
gene 3 49 71 -0.60527086495667271 1 2305 -0.60527086495667271 1
gene 1 348 173 1.1322259854675392 0 2363 1.1322259854675392 1
gene 2 71 18 -0.75658175081786783 0 2491 -0.75658175081786783 1
gene 3 2 387 0.070011012055916311 0 2512 0.070011012055916311 1
gene 3 387 149 2.3529710920308582 0 2513 2.3529710920308582 0
gene 3 49 400 -1.4379960028165932 0 2601 -1.4379960028165932 1
gene 3 400 18 -0.4830553713175727 0 2602 -0.4830553713175727 1
gene 1 8 71 1.3385063793223846 0 2698 1.3385063793223846 1
gene 3 9 442 -0.53252281156951697 0 2809 -0.53252281156951697 1
gene 3 442 18 0.44282745031771598 0 2810 0.44282745031771598 1
gene 3 71 442 -0.67540292217182107 0 2828 -0.67540292217182107 1
gene 2 149 71 1.8209949006889923 0 2983 1.8209949006889923 1
gene 3 387 477 0.10930578345866213 0 3035 0.10930578345866213 1
gene 3 477 149 -0.62790039141098997 0 3036 -0.62790039141098997 1
gene 1 13 71 -0.054017466983766055 0 3046 -0.054017466983766055 1
gene 2 290 348 2.0039414004441078 0 3141 2.0039414004441078 1
gene 3 49 532 2.2324575696757329 0 3338 2.2324575696757329 1
gene 3 532 17 -0.090197847965265546 0 3339 -0.090197847965265546 1
gene 2 16 290 -0.53549159715673489 0 3426 -0.53549159715673489 1
gene 1 92 18 1.1102710052441205 0 3432 1.1102710052441205 1
gene 2 387 387 -1.3388038076641056 1 3501 -1.3388038076641056 1
gene 2 71 149 -1.1421936476333969 1 3520 -1.1421936476333969 1
genomeend 1
