genomestart 1
trait 1 0.1 0 1 0.775744 0.0406607 0 0.229571 0.159112 
trait 2 0.248492 0 0 0.36278 0 0 0 1 
trait 3 0 0.47819 0.985659 0 0 0 0 0 
node 1 1 1 3
node 2 2 1 1
node 3 1 1 1
node 4 1 1 1
node 5 2 1 1
node 6 2 1 1
node 7 1 1 1
node 8 2 1 1
node 9 3 1 1
node 10 2 1 1
node 11 3 1 1
node 12 3 1 1
node 13 3 1 1
node 14 1 1 1
node 15 3 1 1
node 16 3 1 1
node 17 3 0 2
node 18 1 0 2
node 31 1 0 0
node 100 2 0 0
nodegru 140 0 2.372199294563476 3.5948323954804016 -0.50480641145482963 -2.5256145130962202 2.5513782350120033 -1.9928724197637626 [ -1.6009407460693925 ] [ 1.7422653696230916 ] [ 0.37913669640158149 ]
node 170 2 0 0
node 219 2 0 0
node 256 1 0 0
nodegru 315 0 -0.88845793338886359 0 -0.81540225437628211 -0.33729181617372284 0.34275375345850068 -0.75849614746798588 [ -0.85644631430341223 -1.0433024410360039 -0.28766814423150766 ] [ -1.2481721284557934 1.2861131254053269 0.62869473739000725 ] [ 1.3607224718950328 -0.444470839083414 0.14638924395963049 ]
nodegru 325 0 0 -1.4748878481215275 -0.41138797784754444 -0.84423229859407645 -0.23497226100180868 -0.31934766393124481 [ -0.37410569161833529 0.22531389595256845 0 ] [ 0.99409156944327592 -0.97322170342003078 0 ] [ 1.374536377086554 0.73485003236441404 0.66138864618790738 ]
nodegru 370 0 0.051752320514876549 1.2687947304308389 0.10850053192512155 -0.13075768325047454 -0.55656896278102364 0.53972224823186288 [ -2.13638443715702 ] [ -0.10439675632137654 ] [ 0.94127044730878928 ]
node 377 3 0 0
node 389 1 0 0
node 395 3 0 0
node 420 1 0 0
node 562 1 0 0
gene 3 1 17 -0.53095474537972132 0 1 -0.53095474537972132 1
gene 3 2 17 1.3678436879384535 0 2 1.3678436879384535 0
gene 3 3 17 5.3681192243788951 0 3 5.3681192243788951 1
gene 1 4 17 3.5511671523801831 0 4 3.5511671523801831 1
gene 2 5 17 -0.76915559674108192 0 5 -0.76915559674108192 1
gene 1 6 17 0.53336705362115377 0 6 0.53336705362115377 1
gene 2 7 17 0.45707894603585775 0 7 0.45707894603585775 1
gene 1 8 17 0.69439208330325419 0 8 0.69439208330325419 0
gene 1 9 17 0.40880327481255091 0 9 0.40880327481255091 0
gene 3 10 17 0.89850979247061047 0 10 0.89850979247061047 1
gene 2 11 17 0.90136505705367997 0 11 0.90136505705367997 0
gene 1 12 17 0.92891676115287303 0 12 0.92891676115287303 1
gene 3 13 17 -0.31185963624709268 0 13 -0.31185963624709268 1
gene 3 14 17 1.6904213315297016 0 14 1.6904213315297016 1
gene 3 15 17 -7.3797127236052011 0 15 -7.3797127236052011 1
gene 1 16 17 -6.1091830207077722 0 16 -6.1091830207077722 1
gene 3 1 18 -0.55688884205040001 0 17 -0.55688884205040001 1
gene 1 2 18 -1.4551831637300472 0 18 -1.4551831637300472 1
gene 2 3 18 -0.36033304075725969 0 19 -0.36033304075725969 1
gene 3 4 18 2.9409586032577604 0 20 2.9409586032577604 1
gene 2 5 18 0.11806399566962589 0 21 0.11806399566962589 0
gene 2 6 18 -1.3927461106296377 0 22 -1.3927461106296377 1
gene 2 7 18 -1.9981126585035178 0 23 -1.9981126585035178 1
gene 2 8 18 0.36505723854762379 0 24 0.36505723854762379 1
gene 3 9 18 -1.3279859788380497 0 25 -1.3279859788380497 1
gene 2 10 18 0.79185457704209483 0 26 0.79185457704209483 0
gene 1 11 18 -0.37458116974429279 0 27 -0.37458116974429279 1
gene 1 12 18 -0.030774571714352151 0 28 -0.030774571714352151 1
gene 2 13 18 -1.697151237724885 0 29 -1.697151237724885 1
gene 3 14 18 5.0115245487594624 0 30 5.0115245487594624 1
gene 2 15 18 7.1478841894529221 0 31 7.1478841894529221 1
gene 1 16 18 -0.64603544010130476 0 32 -0.64603544010130476 0
gene 1 8 31 1.448970937146326 0 94 1.448970937146326 1
gene 1 31 17 -0.98280061920303874 0 95 -0.98280061920303874 1
gene 3 7 31 2.1756407286392716 0 156 2.1756407286392716 0
gene 2 31 31 0.21208707113381806 1 173 0.21208707113381806 1
gene 2 12 31 -0.92653298281437391 0 188 -0.92653298281437391 0
gene 3 9 31 -0.216019957892606 0 206 -0.216019957892606 0
gene 2 6 31 -0.75547674426598321 0 214 -0.75547674426598321 0
gene 3 17 17 -1.3969950552084458 1 328 -1.3969950552084458 1
gene 1 16 31 3.1421872010185323 0 343 3.1421872010185323 1
gene 3 4 31 4.2917681649754602 0 347 4.2917681649754602 1
gene 1 16 100 -0.63196875347381865 0 506 -0.63196875347381865 1
gene 1 100 18 2.1158030147737836 0 507 2.1158030147737836 1
gene 2 15 100 1.6591764183990547 0 592 1.6591764183990547 1
gene 1 9 100 1.301809195336797 0 715 1.301809195336797 1
gene 2 15 31 1.4397878860774393 0 731 1.4397878860774393 1
gene 3 7 140 0.32988610716065681 0 741 0.32988610716065681 1
gene 3 140 31 -1.0548347970726131 0 742 -1.0548347970726131 1
gene 2 100 31 0.90494065401374391 0 756 0.90494065401374391 0
gene 3 2 31 1.001151263015881 0 873 1.001151263015881 0
gene 2 140 100 -2.4941805761746041 0 941 -2.4941805761746041 1
gene 1 2 170 0.15432433372099164 0 946 0.15432433372099164 1
gene 1 170 17 0.39784012823265047 0 947 0.39784012823265047 1
gene 3 9 219 -0.016682567548324645 0 1244 -0.016682567548324645 1
gene 3 219 31 -1.4606222086402691 0 1245 -1.4606222086402691 0
gene 3 170 18 0.69590688249836996 0 1395 0.69590688249836996 1
gene 3 219 219 0.32474436835606785 1 1402 0.32474436835606785 1
gene 2 1 170 -2.1719860861413114 0 1407 -2.1719860861413114 1
gene 2 100 100 -0.4833416552205298 1 1414 -0.4833416552205298 1
gene 2 11 256 1.0388774317870277 0 1487 1.0388774317870277 1
gene 2 256 17 -0.83477697257640637 0 1488 -0.83477697257640637 0
gene 1 12 219 1.6159901340100866 0 1538 1.6159901340100866 0
gene 1 256 31 0.78542727780781096 0 1614 0.78542727780781096 1
gene 3 10 170 -3.1423692573524868 0 1689 -3.1423692573524868 1
gene 1 9 256 -1.3069523388086597 0 1717 -1.3069523388086597 1
gene 2 6 315 -1.159815455628473 0 1872 -1.159815455628473 0
gene 2 315 31 1.4228283245688436 0 1873 1.4228283245688436 1
gene 3 315 256 3.9086306534747735 0 1928 3.9086306534747735 1
gene 1 12 325 -0.66223438999719653 0 1937 -0.66223438999719653 1
gene 1 325 219 -0.26290346554615701 0 1938 -0.26290346554615701 1
gene 1 170 325 -1.3141871072883657 0 2008 -1.3141871072883657 1
gene 2 14 315 0.50162159907707071 0 2014 0.50162159907707071 1
gene 3 17 31 1.4779720825506244 1 2099 1.4779720825506244 1
gene 2 6 370 -0.26371195808225856 0 2152 -0.26371195808225856 1
gene 2 370 315 -0.92475664518995049 0 2153 -0.92475664518995049 1
gene 2 12 377 0.57944269458737352 0 2204 0.57944269458737352 1
gene 2 377 31 1.1462696302431961 0 2205 1.1462696302431961 1
gene 2 100 389 0.78323718220146243 0 2301 0.78323718220146243 1
gene 2 389 31 -0.38190052210441816 0 2302 -0.38190052210441816 1
gene 1 12 100 -0.83034526618679305 0 2358 -0.83034526618679305 1
gene 2 10 395 0.23918300715237065 0 2363 0.23918300715237065 1
gene 2 395 18 -1.1902198231267835 0 2364 -1.1902198231267835 1
gene 1 5 31 -0.09140659244330912 0 2398 -0.09140659244330912 1
gene 3 2 420 -0.89183890954211298 0 2516 -0.89183890954211298 1
gene 3 420 31 0.32453558213288691 0 2517 0.32453558213288691 1
gene 3 8 420 -1.0476497388666728 0 2551 -1.0476497388666728 1
gene 3 6 100 -0.71473086076543235 0 2617 -0.71473086076543235 1
gene 1 11 100 4.6489824176062751 0 2860 4.6489824176062751 1
gene 3 395 100 -1.255660663245088 0 2961 -1.255660663245088 1
gene 3 325 395 2.554473654392396 0 2976 2.554473654392396 1
gene 3 100 17 0.0081930456255530221 0 3042 0.0081930456255530221 1
gene 1 5 420 -1.3056390782844456 0 3138 -1.3056390782844456 1
gene 2 16 256 -0.35954810067058918 0 3305 -0.35954810067058918 1
gene 3 2 256 -3.1175169626332431 0 3316 -3.1175169626332431 1
gene 2 140 256 -0.090744678438988036 0 3353 -0.090744678438988036 1
gene 1 256 377 -0.30294229732963363 0 3430 -0.30294229732963363 1
gene 3 219 562 1 0 3519 1 1
gene 3 562 31 -1.4606222086402691 0 3520 -1.4606222086402691 1
gene 3 377 325 0.39829376754271506 0 3529 0.39829376754271506 1
gene 3 14 170 0.36723624000662763 0 3544 0.36723624000662763 1
gene 1 140 420 0.074437707231583869 0 3598 0.074437707231583869 1
gene 2 16 420 1.334490582269845 0 3651 1.334490582269845 1
genomeend 1
