genomestart 1
trait 1 0 1 0 0.795476 0.813315 0.905234 0 0.680612 
trait 2 0 0.804805 0.355965 0.0011135 0.0631955 0.0575854 1 0.591101 
trait 3 1 0 0.76514 1 0.364172 0.277587 0.61866 0.532587 
node 1 3 1 3
node 2 3 1 1
node 3 3 1 1
node 4 2 1 1
node 5 2 1 1
node 6 2 1 1
node 7 3 1 1
node 8 3 1 1
node 9 1 1 1
node 10 1 1 1
node 11 1 1 1
node 12 3 1 1
node 13 1 1 1
node 14 3 1 1
node 15 3 1 1
node 16 2 1 1
node 17 1 0 2
node 18 3 0 2
node 21 3 0 0
node 33 1 0 0
node 40 1 0 0
node 43 1 0 0
node 75 1 0 0
node 88 1 0 0
node 181 3 0 0
node 224 1 0 0
node 228 1 0 0
node 256 1 0 0
node 284 2 0 0
node 292 1 0 0
node 349 3 0 0
node 353 1 0 0
node 374 1 0 0
node 402 1 0 0
node 462 1 0 0
gene 1 1 17 4.2948541044233615 0 1 4.2948541044233615 1
gene 1 2 17 0.35047737897861642 0 2 0.35047737897861642 1
gene 2 3 17 -1.0506668957186243 0 3 -1.0506668957186243 1
gene 2 4 17 -0.86667976452348749 0 4 -0.86667976452348749 1
gene 3 5 17 -0.3211709737410634 0 5 -0.3211709737410634 1
gene 3 6 17 0.11869540373733983 0 6 0.11869540373733983 1
gene 3 7 17 0.76295297232594006 0 7 0.76295297232594006 1
gene 3 8 17 -2.4409901732304089 0 8 -2.4409901732304089 1
gene 1 9 17 0.53044278781416021 0 9 0.53044278781416021 1
gene 2 10 17 -0.020145692639120694 0 10 -0.020145692639120694 1
gene 3 11 17 -1.359066771510554 0 11 -1.359066771510554 1
gene 2 12 17 0.24368630128152963 0 12 0.24368630128152963 0
gene 3 13 17 2.3947013497327925 0 13 2.3947013497327925 1
gene 1 14 17 -1.3737876321532705 0 14 -1.3737876321532705 1
gene 1 15 17 -6.2367088139228084 0 15 -6.2367088139228084 1
gene 1 16 17 -7.3685097533131527 0 16 -7.3685097533131527 1
gene 3 1 18 2.1561953482014102 0 17 2.1561953482014102 1
gene 3 2 18 -0.51327872742585778 0 18 -0.51327872742585778 1
gene 2 3 18 -2.1902248070995434 0 19 -2.1902248070995434 1
gene 2 4 18 2.4203690869828542 0 20 2.4203690869828542 1
gene 2 5 18 -1.8988356776064426 0 21 -1.8988356776064426 1
gene 2 6 18 -6.6991847153749244 0 22 -6.6991847153749244 1
gene 2 7 18 -0.03500192870153207 0 23 -0.03500192870153207 1
gene 3 8 18 -0.52386883042001575 0 24 -0.52386883042001575 1
gene 2 9 18 -2.0050484738336167 0 25 -2.0050484738336167 1
gene 3 10 18 1.8977652282443667 0 26 1.8977652282443667 1
gene 3 11 18 0.25292054901501188 0 27 0.25292054901501188 1
gene 2 12 18 -1.1251980970265336 0 28 -1.1251980970265336 1
gene 3 13 18 0.84040028035659353 0 29 0.84040028035659353 0
gene 1 14 18 6.9918434417302917 0 30 6.9918434417302917 1
gene 2 15 18 6.7714404555835941 0 31 6.7714404555835941 1
gene 3 16 18 2.8463584009308169 0 32 2.8463584009308169 1
gene 3 6 21 -1.0556882138157673 0 44 -1.0556882138157673 1
gene 3 21 17 -1.2020870627379447 0 45 -1.2020870627379447 0
gene 3 21 33 0.35685300797077502 0 117 0.35685300797077502 1
gene 3 33 17 -0.2795941013747798 0 118 -0.2795941013747798 0
gene 3 13 40 -1.4731489308053387 0 189 -1.4731489308053387 1
gene 3 40 18 -2.6333099136284135 0 190 -2.6333099136284135 1
gene 2 10 43 1.4800381448492586 0 208 1.4800381448492586 1
gene 2 43 17 3.6143295285824362 0 209 3.6143295285824362 1
gene 2 17 17 2.7356074837667901 1 251 2.7356074837667901 1
gene 2 4 43 -0.017008759089283999 0 271 -0.017008759089283999 1
gene 2 1 43 -2.1175878146279548 0 322 -2.1175878146279548 1
gene 3 12 33 2.264404309338147 0 338 2.264404309338147 1
gene 1 18 18 -0.95331329128393594 1 377 -0.95331329128393594 1
gene 2 16 21 0.69536275588691354 0 419 0.69536275588691354 0
gene 3 5 40 -0.12414067011519367 0 423 -0.12414067011519367 1
gene 2 21 21 2.8448709483933037 1 464 2.8448709483933037 1
gene 2 15 33 1.8785649360523393 0 501 1.8785649360523393 1
gene 3 4 75 0.13028687105061806 0 510 0.13028687105061806 0
gene 3 75 17 1.6467546704908622 0 511 1.6467546704908622 1
gene 2 1 40 2.1489811202739277 0 574 2.1489811202739277 1
gene 3 5 33 3.073665792855278 0 592 3.073665792855278 1
gene 3 4 88 -0.44397728189079877 0 644 -0.44397728189079877 1
gene 3 88 75 -1.1320651122983847 0 645 -1.1320651122983847 1
gene 2 1 21 -1.1712642629497052 0 739 -1.1712642629497052 1
gene 2 75 21 0.32770097573646384 0 787 0.32770097573646384 1
gene 1 11 43 -2.0504070583499994 0 811 -2.0504070583499994 1
gene 2 12 88 -0.27208076662946534 0 914 -0.27208076662946534 1
gene 1 7 21 0.86493928398235664 0 943 0.86493928398235664 1
gene 3 88 88 0.29830747833396659 1 954 0.29830747833396659 1
gene 2 33 21 0.57668832925925417 1 1143 0.57668832925925417 1
gene 3 40 33 6.7798100804350385 0 1197 6.7798100804350385 1
gene 3 43 43 1.2122890312281851 1 1330 1.2122890312281851 1
gene 2 13 43 0.97634680102409188 0 1362 0.97634680102409188 0
gene 3 33 181 0.8461866412992527 0 1525 0.8461866412992527 1
gene 3 181 17 0.88017405866653387 0 1526 0.88017405866653387 1
gene 3 10 21 0.27385232936304638 0 1594 0.27385232936304638 0
gene 2 9 181 -0.35182713919869957 0 1608 -0.35182713919869957 0
gene 2 21 181 0.41766792811344744 0 1627 0.41766792811344744 1
gene 3 8 21 -1.5898576865856802 0 1685 -1.5898576865856802 1
gene 2 5 88 -2.2083315843289402 0 1793 -2.2083315843289402 1
gene 1 8 40 -0.64953170374479674 0 1833 -0.64953170374479674 1
gene 2 9 224 0.49044529301600792 0 2004 0.49044529301600792 1
gene 2 224 181 1.4007393212061092 0 2005 1.4007393212061092 1
gene 1 2 228 5.2594989485850085 0 2031 5.2594989485850085 1
gene 1 228 17 -3.9953758844618568 0 2032 -3.9953758844618568 1
gene 2 224 224 1.7665141882684614 1 2188 1.7665141882684614 1
gene 2 13 256 -1.9849973639869118 0 2291 -1.9849973639869118 0
gene 2 256 43 -1.3128965198122415 0 2292 -1.3128965198122415 0
gene 3 181 181 0.30915795467289064 1 2338 0.30915795467289064 1
gene 2 4 256 0.079036884977965127 0 2472 0.079036884977965127 1
gene 2 16 284 -1.3609753581047874 0 2518 -1.3609753581047874 1
gene 2 284 21 -1.2429804195384404 0 2519 -1.2429804195384404 1
gene 3 11 256 -2.029266396783882 0 2545 -2.029266396783882 0
gene 2 228 33 0.095443518876770272 0 2555 0.095443518876770272 1
gene 3 10 292 -3.971915544463283 0 2593 -3.971915544463283 1
gene 3 292 21 -1.7569040240519231 0 2594 -1.7569040240519231 1
gene 1 14 181 -1.3144585608106381 0 2714 -1.3144585608106381 1
gene 2 4 292 0.045083845288066138 0 2741 0.045083845288066138 1
gene 1 15 43 -1.2212736533122479 0 2836 -1.2212736533122479 1
gene 3 4 181 1.7488058510929374 0 2929 1.7488058510929374 1
gene 2 13 349 -0.035277228120378035 0 3115 -0.035277228120378035 1
gene 2 349 256 -1.7151868071943461 0 3116 -1.7151868071943461 1
gene 2 256 353 1.0791292845174343 0 3153 1.0791292845174343 1
gene 2 353 43 -3.0827642740135843 0 3154 -3.0827642740135843 0
gene 2 256 256 0.19658784041953636 1 3237 0.19658784041953636 0
gene 2 21 224 5.1413351000013456 0 3253 5.1413351000013456 1
gene 1 11 228 0.71450027460907595 0 3277 0.71450027460907595 1
gene 2 3 40 -0.081581298998362056 0 3314 -0.081581298998362056 1
gene 2 3 292 0.95288853903901238 0 3326 0.95288853903901238 1
gene 3 11 374 -0.61996108066288791 0 3338 -0.61996108066288791 1
gene 3 374 256 -0.76330716082048944 0 3339 -0.76330716082048944 1
gene 2 284 292 -1.8922553646342157 0 3415 -1.8922553646342157 1
gene 1 33 349 -0.64647434449124797 0 3436 -0.64647434449124797 1
gene 1 224 228 1.8118807118441353 0 3443 1.8118807118441353 1
gene 3 3 256 -0.78339729331591978 0 3542 -0.78339729331591978 1
gene 2 353 402 -2.0156644273156603 0 3570 -2.0156644273156603 1
gene 2 402 43 1.74435043928416 0 3571 1.74435043928416 1
gene 2 88 374 0.9976862757455961 0 3603 0.9976862757455961 1
gene 1 43 18 -0.66662724486860769 0 3787 -0.66662724486860769 1
gene 3 374 21 -1.0431435383125875 0 3799 -1.0431435383125875 1
gene 2 284 33 2.5183430255941781 0 3982 2.5183430255941781 1
gene 1 6 40 0.88395046507192343 0 4095 0.88395046507192343 1
gene 2 8 75 0.93554816042797073 0 4108 0.93554816042797073 1
gene 2 12 40 -0.57006424948110457 0 4112 -0.57006424948110457 1
gene 1 40 40 -1.7959584765117422 1 4146 -1.7959584765117422 1
gene 2 256 462 1.686260068643028 1 4214 1.686260068643028 1
gene 2 462 256 0.68564177033754159 0 4215 0.68564177033754159 1
genomeend 1
