genomestart 1
trait 1 1 0.605627 0 1 0 0 0.902561 0 
trait 2 1 1 0.0497901 1 0.427181 1 1 1 
trait 3 0.196285 0.711839 1 0 0 1 1 0 
node 1 1 1 3
node 2 2 1 1
node 3 3 1 1
node 4 2 1 1
node 5 2 1 1
node 6 3 1 1
node 7 2 1 1
node 8 3 1 1
node 9 3 1 1
node 10 1 1 1
node 11 3 1 1
node 12 1 1 1
node 13 3 1 1
node 14 2 1 1
node 15 1 1 1
node 16 1 1 1
node 17 1 0 2
node 18 3 0 2
node 33 2 0 0
node 41 1 0 0
nodegru 68 0 -0.92638520427345528 -0.59586978871182961 -0.95168340646274541 3.5061147601837828 1.2680481452346073 1.9409460441400044 [ -1.1230544141135432 -1.0366177810526536 1.3620870240787448 0.42292711763779034 -0.53913993087557133 -1.3611635101778263 1.0163373318576894 0 0 0 ] [ 0.28762933392432966 0.11978921346356586 -1.8694786037641944 0.56283436834944145 2.602641310823449 -2.2366019150878311 1.7778180934385481 0 0 0 ] [ -2.7112992234580684 -1.4927495587583395 -0.16161385139525586 -0.13720710931215763 1.0365004399961328 -0.21514561293420645 -1.4853045211570826 0 0.55819692046297575 0 ]
nodegru 128 0 1.3527149408369858 0.9698091812756886 1.2349999794899484 0.16823425221640353 3.8748910575522526 0.21751600188087483 [ -0.64753382194206766 -1.2373943930665932 3.0720755355768259 -1.4316764033547027 1.1269335351544123 1.3978474451684615 ] [ -1.9430177202182901 2.6241866276246428 -1.202904324840244 1.2548192808194178 2.2544024189721803 -0.25210333371167226 ] [ -0.70021218629563786 0.14828014823062352 -0.012170083360825704 -0.056720406541936164 1.7523543919680429 0.68877291129379203 ]
node 147 2 0 0
node 155 3 0 0
node 236 3 0 0
node 259 1 0 0
node 292 2 0 0
node 409 3 0 0
nodegru 470 0 0 0 1.2282718942632302 -0.38650195365143103 0 1.1123542008513372 [ 0.29316117209063897 ] [ 0 ] [ -1.2047221933979178 ]
nodegru 478 0 0 0 0 0.5962214305047977 -2.6666601617665311 0 [ 1.0832093658778861 ] [ 0.53766012542772113 ] [ 0 ]
node 495 1 0 0
node 516 1 0 0
node 522 1 0 0
gene 1 1 17 -2.1182086209851358 0 1 -2.1182086209851358 1
gene 2 2 17 2.142125674822426 0 2 2.142125674822426 1
gene 3 3 17 0.17956695481183338 0 3 0.17956695481183338 1
gene 3 4 17 0.17226399954979482 0 4 0.17226399954979482 1
gene 2 5 17 -7.7182859823658525 0 5 -7.7182859823658525 1
gene 1 6 17 -0.027727871447674746 0 6 -0.027727871447674746 1
gene 2 7 17 -1.3363976091315957 0 7 -1.3363976091315957 1
gene 1 8 17 -0.25081199116577002 0 8 -0.25081199116577002 1
gene 1 9 17 1.0994701979679382 0 9 1.0994701979679382 1
gene 1 10 17 -1.1388381866919057 0 10 -1.1388381866919057 1
gene 1 11 17 -0.13498416712274053 0 11 -0.13498416712274053 0
gene 1 12 17 0.5104493014563104 0 12 0.5104493014563104 0
gene 2 13 17 -0.59088359078899189 0 13 -0.59088359078899189 1
gene 1 14 17 2.000094661489173 0 14 2.000094661489173 1
gene 2 15 17 -6.8911484796046958 0 15 -6.8911484796046958 1
gene 3 16 17 -6.4191116173374985 0 16 -6.4191116173374985 1
gene 1 1 18 0.39607992437485595 0 17 0.39607992437485595 1
gene 2 2 18 1.8187873420858696 0 18 1.8187873420858696 0
gene 1 3 18 -3.0329348738458637 0 19 -3.0329348738458637 0
gene 3 4 18 0.30433316496402663 0 20 0.30433316496402663 1
gene 1 5 18 -0.14148656332003262 0 21 -0.14148656332003262 1
gene 1 6 18 -1.2480631148200776 0 22 -1.2480631148200776 0
gene 1 7 18 -0.78627109797032135 0 23 -0.78627109797032135 1
gene 3 8 18 0.73799283115099779 0 24 0.73799283115099779 1
gene 2 9 18 -0.12554500979629601 0 25 -0.12554500979629601 1
gene 1 10 18 1.3695484573811052 0 26 1.3695484573811052 1
gene 3 11 18 2.1097878418442741 0 27 2.1097878418442741 1
gene 3 12 18 0.055310006046346394 0 28 0.055310006046346394 0
gene 2 13 18 -1.1359794743526632 0 29 -1.1359794743526632 0
gene 3 14 18 4.0915175348480783 0 30 4.0915175348480783 1
gene 2 15 18 1.77763570671791 0 31 1.77763570671791 1
gene 2 16 18 3.4261796557932067 0 32 3.4261796557932067 1
gene 1 2 33 -0.4652722088924014 0 102 -0.4652722088924014 0
gene 2 33 18 -0.83020751729151587 0 103 -0.83020751729151587 1
gene 1 4 33 -0.4855901566266968 0 133 -0.4855901566266968 1
gene 1 6 41 -1.9322396844775602 0 153 -1.9322396844775602 1
gene 3 41 18 1.469511552932445 0 154 1.469511552932445 1
gene 1 3 68 -1.9671525638397562 0 337 -1.9671525638397562 1
gene 1 68 18 -0.39785363078017427 0 338 -0.39785363078017427 0
gene 3 16 68 -0.31950785327679843 0 490 -0.31950785327679843 1
gene 3 8 41 -0.41388667976199034 0 531 -0.41388667976199034 0
gene 2 3 41 -2.0961659709439457 0 556 -2.0961659709439457 1
gene 2 5 68 0.75669324340144783 0 728 0.75669324340144783 0
gene 3 12 128 -0.11652884661058376 0 748 -0.11652884661058376 1
gene 3 128 18 0.46810977648389973 0 749 0.46810977648389973 1
gene 3 15 128 -0.95942863424281999 0 773 -0.95942863424281999 1
gene 2 12 68 -1.0230454430091407 0 845 -1.0230454430091407 0
gene 3 5 147 3.2641555318907627 0 863 3.2641555318907627 1
gene 2 147 17 0.46337491970666456 0 864 0.46337491970666456 0
gene 2 147 155 0.5360543567389503 0 918 0.5360543567389503 1
gene 2 155 17 1.4742710476155723 0 919 1.4742710476155723 1
gene 1 2 147 2.1319641902260313 0 954 2.1319641902260313 1
gene 1 12 155 2.8203018362728427 0 959 2.8203018362728427 1
gene 1 3 33 1.9339783126180892 0 988 1.9339783126180892 1
gene 3 9 68 -0.210873249317926 0 1002 -0.210873249317926 1
gene 1 41 147 0.21070716889142393 0 1184 0.21070716889142393 1
gene 1 41 128 0.61818068689581973 0 1314 0.61818068689581973 1
gene 1 9 155 -1.5031084085363469 0 1390 -1.5031084085363469 1
gene 1 128 33 1.5083465832324452 0 1398 1.5083465832324452 1
gene 1 9 236 -2.7267187324942643 0 1512 -2.7267187324942643 1
gene 1 236 17 0.79325259886367838 0 1513 0.79325259886367838 1
gene 2 12 259 0.58587397801963326 0 1664 0.58587397801963326 1
gene 2 259 68 -3.6446254915299949 0 1665 -3.6446254915299949 1
gene 1 68 292 1.8820629857397 0 1893 1.8820629857397 1
gene 1 292 18 0.087709045078469883 0 1894 0.087709045078469883 1
gene 1 12 41 -0.36832239426128677 0 1969 -0.36832239426128677 1
gene 1 14 41 -1.98790210484895 0 2124 -1.98790210484895 1
gene 3 236 236 0.75160022231359047 1 2272 0.75160022231359047 1
gene 1 236 259 1.8359404277689477 0 2448 1.8359404277689477 1
gene 2 292 17 -0.48400671523250943 0 2459 -0.48400671523250943 1
gene 1 147 236 0.95514550267492682 0 2493 0.95514550267492682 1
gene 3 9 128 0.059611065806639982 0 2593 0.059611065806639982 1
gene 1 6 292 0.013536953140765872 0 2597 0.013536953140765872 1
gene 1 10 409 2.3222267643186392 0 2654 2.3222267643186392 1
gene 1 409 17 2.1750382555998105 0 2655 2.1750382555998105 1
gene 2 68 41 -1.4356702195646569 1 2674 -1.4356702195646569 1
gene 1 41 409 -1.1803918265180624 0 2694 -1.1803918265180624 1
gene 2 1 128 -0.96517451268861754 0 2708 -0.96517451268861754 1
gene 2 6 236 -1.6037665405793891 0 2756 -1.6037665405793891 1
gene 2 8 33 -0.17235512620413448 0 2816 -0.17235512620413448 1
gene 1 7 68 -0.25499074638587921 0 2820 -0.25499074638587921 0
gene 3 8 128 -0.64343003236848406 0 3035 -0.64343003236848406 1
gene 1 7 470 -0.82327973531711829 0 3064 -0.82327973531711829 1
gene 1 470 68 0.62942147144555183 0 3065 0.62942147144555183 1
gene 1 11 478 -1.0003865966575158 0 3111 -1.0003865966575158 1
gene 1 478 17 -1.4703330136697428 0 3112 -1.4703330136697428 1
gene 2 2 41 -1.6134619892637534 0 3118 -1.6134619892637534 1
gene 2 409 292 -2.4194664663725844 0 3131 -2.4194664663725844 1
gene 2 5 259 3.2614081675472706 0 3171 3.2614081675472706 1
gene 2 5 495 0.75432639091942755 0 3263 0.75432639091942755 1
gene 2 495 68 0.18304134378351339 0 3264 0.18304134378351339 1
gene 2 5 155 1.3238258789404416 0 3278 1.3238258789404416 1
gene 1 41 68 3.2843072657865973 0 3279 3.2843072657865973 1
gene 3 8 516 -0.70983717809889357 0 3421 -0.70983717809889357 1
gene 3 516 41 -1.1598664092178765 0 3422 -1.1598664092178765 1
gene 1 12 522 0.68240494685359532 0 3474 0.68240494685359532 1
gene 1 522 17 -0.68672321675658377 0 3475 -0.68672321675658377 1
genomeend 1
