genomestart 1
trait 1 0.113905 0.570319 1 0 0 0.409086 1 0 
trait 2 0.846445 0 1 0.903883 0 0.323207 1 1 
trait 3 0.739669 0 0.566606 0.00415049 0 0 1 0.806662 
node 1 1 1 3
node 2 2 1 1
node 3 1 1 1
node 4 1 1 1
node 5 1 1 1
node 6 2 1 1
node 7 2 1 1
node 8 2 1 1
node 9 3 1 1
node 10 2 1 1
node 11 2 1 1
node 12 3 1 1
node 13 2 1 1
node 14 2 1 1
node 15 2 1 1
node 16 2 1 1
node 17 2 0 2
node 18 2 0 2
node 27 3 0 0
nodegru 35 0 0.31042204904855325 -1.6071559105101769 -2.2983658147502535 -0.40467258282223373 1.2209071657717732 -0.033227552442451729 [ 1.540668033082349 -0.39590526227648615 0.0022825165662367052 -1.216486828735325 0.17782089820961511 -1.2758228011782391 0 ] [ -1.4575495314586673 -1.0285421316644838 -2.5502676230623704 -0.023583772603228526 0.986603487975245 1.0477852958942695 0 ] [ -1.0346782673311787 1.0841858073064059 -1.2025262828462413 0.92661607192206008 -0.50300040049618122 1.4635790968144216 0 ]
nodegru 128 0 0.10963737434225029 -1.219167038667559 0.95268686206670783 3.5825342471164339 0.72179925824599322 1.2729541066908063 [ -0.98766911564751947 -0.64051450050459924 1.8945395226564909 0 0 ] [ -0.52077485621942898 -0.31569117322363494 0.45461331282491479 0 0 ] [ 1.3721927634310875 1.5640820218548561 0.072779345127185424 0 0 ]
node 212 3 0 0
node 227 3 0 0
node 235 1 0 0
node 237 1 0 0
node 249 2 0 0
nodegru 266 0 0.71563903648203198 2.5661398980608863 0.9268015040675186 -0.61220126906978045 -1.9983409249681701 -0.95030851869392596 [ -1.3358360146339217 -0.82975569219782752 1.0070650777812418 -0.28158694216124108 ] [ -3.6412261157022909 -0.44008321591656802 -1.0858530328077511 0 ] [ -0.89579752036174631 1.8052407818870808 -1.6667044836407083 -0.7646138632039603 ]
nodegru 335 0 1.3136255637806027 1.1915785638576275 1.4014363525907678 0.73811200435185431 -1.2453055008059859 0.8090657667764769 [ -0.7069420093702814 -0.60853942162754915 ] [ -0.69666947852665073 -0.19982386343172931 ] [ -2.0253253230011676 1.4014740655671218 ]
node 348 2 0 0
nodegru 390 0 1.4011766023008043 -1.0916137625889917 0.89420597576266447 0.12783583981349869 0 -1.3650732545019468 [ 1.4009437062316312 -0.71481076125745235 ] [ 1.3544011939570313 -0.30716252737080796 ] [ 0.59649930386641037 0 ]
nodegru 398 0 0 0 -1.0518241774066466 0 0 -1.164632878342938 [ 0 0 0 ] [ 0 0 0 ] [ 0 0 0 ]
node 421 2 0 0
node 461 1 0 0
node 516 1 0 0
nodegru 518 0 0 0 -0.81510900092083449 -0.14950237919087633 0.44332140285676414 -1.2869118697880357 [ 0.062287774897314505 ] [ 0.93343049494243724 ] [ 0.16198013148362755 ]
node 652 1 0 0
nodegru 680 0 0 0 0 0 0 0.4527618209611447 [ 1.2665855771706371 ] [ 1.0407140674259112 ] [ 0.5627335955215309 ]
node 693 1 0 0
node 722 1 0 0
gene 2 1 17 0.30778881339719 0 1 0.30778881339719 1
gene 3 2 17 1.8736811824486039 0 2 1.8736811824486039 1
gene 2 3 17 -0.54156509975044287 0 3 -0.54156509975044287 0
gene 2 4 17 0.32885186342934697 0 4 0.32885186342934697 1
gene 3 5 17 0.77377297485888608 0 5 0.77377297485888608 1
gene 3 6 17 0.2164672951756359 0 6 0.2164672951756359 1
gene 1 7 17 0.58184533220801748 0 7 0.58184533220801748 1
gene 1 8 17 0.73795183246859908 0 8 0.73795183246859908 1
gene 2 9 17 -0.16632963654879929 0 9 -0.16632963654879929 1
gene 1 10 17 0.015770455829692286 0 10 0.015770455829692286 0
gene 3 11 17 -1.0421165651837907 0 11 -1.0421165651837907 1
gene 3 12 17 -1.1905524310146238 0 12 -1.1905524310146238 0
gene 2 13 17 -0.53939449416445318 0 13 -0.53939449416445318 0
gene 3 14 17 -2.5432566290457066 0 14 -2.5432566290457066 0
gene 3 15 17 -3.5954561382976635 0 15 -3.5954561382976635 1
gene 2 16 17 -3.581432663873505 0 16 -3.581432663873505 1
gene 2 1 18 2.1054436509057153 0 17 2.1054436509057153 1
gene 1 2 18 -1.4790499065905109 0 18 -1.4790499065905109 1
gene 2 3 18 -1.4399132430273636 0 19 -1.4399132430273636 1
gene 3 4 18 2.00387263670744 0 20 2.00387263670744 1
gene 3 5 18 0.11129160929065739 0 21 0.11129160929065739 1
gene 2 6 18 -7.9585069173288101 0 22 -7.9585069173288101 1
gene 1 7 18 0.61913476261269984 0 23 0.61913476261269984 1
gene 2 8 18 -0.51512020151834947 0 24 -0.51512020151834947 0
gene 1 9 18 0.88567060762349059 0 25 0.88567060762349059 0
gene 3 10 18 -0.12898805673652719 0 26 -0.12898805673652719 1
gene 3 11 18 1.331942295810181 0 27 1.331942295810181 1
gene 3 12 18 -5.1240993603710541 0 28 -5.1240993603710541 0
gene 1 13 18 -0.78227261164331474 0 29 -0.78227261164331474 1
gene 1 14 18 4.9066118248303487 0 30 4.9066118248303487 1
gene 1 15 18 4.4253202022171205 0 31 4.4253202022171205 1
gene 3 16 18 1.8922785426919715 0 32 1.8922785426919715 1
gene 3 11 27 -0.9883430884165425 0 56 -0.9883430884165425 1
gene 3 27 17 1.5706321013023294 0 57 1.5706321013023294 0
gene 3 27 35 -0.15877616086917751 0 84 -0.15877616086917751 1
gene 3 35 17 0.91231592274844475 0 85 0.91231592274844475 1
gene 1 1 27 0.99277947609907924 0 125 0.99277947609907924 1
gene 3 1 35 -1.5559837287552578 0 130 -1.5559837287552578 1
gene 1 15 27 1.2147612141979678 0 216 1.2147612141979678 1
gene 1 4 27 -0.076571109274668203 0 222 -0.076571109274668203 1
gene 2 9 27 2.040353706590996 0 242 2.040353706590996 1
gene 2 3 35 0.38754033804290944 0 251 0.38754033804290944 1
gene 3 18 18 -1.3553085175134749 1 270 -1.3553085175134749 1
gene 2 16 27 -1.1513141012523855 0 474 -1.1513141012523855 0
gene 3 14 128 -0.93467961504807684 0 678 -0.93467961504807684 1
gene 3 128 17 -0.034108900480954399 0 679 -0.034108900480954399 1
gene 2 9 128 -0.87321788020116176 0 853 -0.87321788020116176 1
gene 3 14 35 -0.89458957006902873 0 904 -0.89458957006902873 0
gene 3 6 128 -3.9221705067540378 0 1032 -3.9221705067540378 0
gene 3 8 35 1.0600965856854323 0 1100 1.0600965856854323 0
gene 1 10 27 2.0964617256989992 0 1178 2.0964617256989992 1
gene 3 14 212 -2.1662686628598111 0 1257 -2.1662686628598111 1
gene 3 212 35 2.0579460389250634 0 1258 2.0579460389250634 1
gene 1 9 227 -0.27102685895330592 0 1359 -0.27102685895330592 1
gene 1 227 18 1.3191764707766362 0 1360 1.3191764707766362 1
gene 1 13 235 0.34740080211656199 0 1409 0.34740080211656199 0
gene 2 235 17 0.19046828625279849 0 1410 0.19046828625279849 1
gene 2 16 237 0.095870773818283683 0 1426 0.095870773818283683 1
gene 2 237 27 -0.96302774942621028 0 1427 -0.96302774942621028 1
gene 3 235 235 -0.85162081702222148 1 1464 -0.85162081702222148 1
gene 3 12 249 -2.1724882284982541 0 1523 -2.1724882284982541 1
gene 3 249 17 0.86953124258179737 0 1524 0.86953124258179737 1
gene 1 15 235 -1.9479455912708983 0 1560 -1.9479455912708983 1
gene 3 11 237 0.51801269292738916 0 1586 0.51801269292738916 0
gene 2 8 266 0.22948214026609534 0 1624 0.22948214026609534 0
gene 2 266 18 -1.2362994070799553 0 1625 -1.2362994070799553 1
gene 2 16 212 -1.9710224298625358 0 1671 -1.9710224298625358 1
gene 1 235 237 -0.45277579848318167 0 1746 -0.45277579848318167 1
gene 2 14 266 -0.40191911226227839 0 1752 -0.40191911226227839 1
gene 1 227 249 -0.95746279715442228 0 1864 -0.95746279715442228 0
gene 2 237 237 -2.4017323953573282 1 1875 -2.4017323953573282 1
gene 2 13 335 1.3645295616539799 0 2042 1.3645295616539799 1
gene 2 335 235 1.4736980635084669 0 2043 1.4736980635084669 0
gene 1 10 348 0.35563782479410877 0 2100 0.35563782479410877 1
gene 1 348 17 -1.7477855932655677 0 2101 -1.7477855932655677 1
gene 2 13 212 0.24154530546699898 0 2331 0.24154530546699898 1
gene 1 11 390 0.58266765488435857 0 2348 0.58266765488435857 1
gene 2 390 237 -0.53092094675215007 0 2349 -0.53092094675215007 0
gene 2 3 398 1.9393010397624695 0 2419 1.9393010397624695 1
gene 2 398 17 -0.39610590128978063 0 2420 -0.39610590128978063 1
gene 3 12 421 -0.11436897265462623 0 2540 -0.11436897265462623 1
gene 3 421 18 -0.4799044777079971 0 2541 -0.4799044777079971 1
gene 3 7 421 -0.95223145580488788 0 2591 -0.95223145580488788 1
gene 2 8 461 3.1950316842156612 0 2793 3.1950316842156612 1
gene 2 461 266 -1.8636476657649728 0 2794 -1.8636476657649728 1
gene 2 1 266 0.075301399023878224 0 2910 0.075301399023878224 1
gene 1 14 227 0.61529965424691291 0 3051 0.61529965424691291 0
gene 2 12 461 -2.0872013369049882 0 3087 -2.0872013369049882 1
gene 3 266 390 1.2557363497352863 0 3101 1.2557363497352863 1
gene 1 227 516 -0.1297245424379242 0 3116 -0.1297245424379242 1
gene 1 516 249 -1.3809939755038334 0 3117 -1.3809939755038334 1
gene 1 14 518 -0.2506274258487986 0 3128 -0.2506274258487986 1
gene 1 518 227 -3.2507562193790247 0 3129 -3.2507562193790247 1
gene 3 516 421 -4.4488434267457775 0 3138 -4.4488434267457775 1
gene 1 348 212 1.3594682891198753 0 3593 1.3594682891198753 1
gene 3 516 335 1.583661025894648 0 3598 1.583661025894648 1
gene 2 461 212 1.2171457909127443 0 3621 1.2171457909127443 1
gene 3 421 128 2.1303517607182041 0 3627 2.1303517607182041 1
gene 2 7 235 0.83380666320855101 0 3718 0.83380666320855101 1
gene 2 212 227 -2.8256902891796503 0 3800 -2.8256902891796503 1
gene 3 237 398 0.2580770225068913 0 3804 0.2580770225068913 0
gene 2 10 237 0.036431713745199046 0 3817 0.036431713745199046 1
gene 2 461 27 -0.43744508104279878 0 3852 -0.43744508104279878 1
gene 2 10 249 -0.10809868881856038 0 3993 -0.10809868881856038 1
gene 2 335 652 0.44373897111217442 0 4038 0.44373897111217442 1
gene 2 652 235 -3.3947565447980339 0 4039 -3.3947565447980339 1
gene 3 11 249 3.9779567292323135 0 4086 3.9779567292323135 1
gene 2 390 680 -0.20732404697096163 0 4246 -0.20732404697096163 1
gene 2 680 237 0.14697299531985664 0 4247 0.14697299531985664 1
gene 2 421 421 -1.1291724776984995 1 4290 -1.1291724776984995 1
gene 3 237 693 -1.4914454540663611 0 4336 -1.4914454540663611 1
gene 3 693 398 0.97421631751312698 0 4337 0.97421631751312698 1
gene 3 6 722 -0.65817793722179618 0 4549 -0.65817793722179618 1
gene 3 722 128 -1.5843586600778432 0 4550 -1.5843586600778432 1
gene 1 518 35 1.004814886257432 0 4635 1.004814886257432 1
gene 1 249 249 -0.96047877844445351 1 4662 -0.96047877844445351 1
genomeend 1
