genomestart 1
trait 1 0.0695596 1 0.998411 0.0683345 0.858717 0.822744 0.872984 0.0651204 
trait 2 0.487035 0.0066625 0.321706 1 0.929945 0 0.773472 0.808927 
trait 3 0.555984 0.00644151 1 0.241072 0.432993 0 0 0 
node 1 2 1 3
node 2 3 1 1
node 3 2 1 1
node 4 1 1 1
node 5 3 1 1
node 6 1 1 1
node 7 3 1 1
node 8 2 1 1
node 9 1 1 1
node 10 2 1 1
node 11 2 1 1
node 12 2 1 1
node 13 1 1 1
node 14 2 1 1
node 15 3 1 1
node 16 3 1 1
node 17 2 0 2
node 18 1 0 2
nodegru 22 0 -2.7583335383135514 1.8683648318370638 1.2745398049124237 0.95882852629703863 -2.3785077600639815 -1.3086813570971978 [ 0.031520570875853554 -1.369329670150452 1.4145867316585903 1.697043201977873 -1.0095031582794631 -1.066138141353679 ] [ 0.32792719073031434 0.11147381230791742 -0.30129596069515496 0.58250922923093162 -0.38304403721496655 -1.7316633377837314 ] [ 0.15316044569628334 1.4794349607450119 -0.34740064286040173 -0.56761112695914273 -1.0459958643401022 1.0244778962919852 ]
nodegru 25 0 0.34625503786199507 0.29443702068852118 -0.87235660891624012 0.11227115970676338 1.0509511176734003 -0.39380587143535067 [ -0.9386736694437795 0 2.1930493904245312 1.681802752046754 -1.1334141013833761 0 0.54100476882467263 0 -1.6133589316687356 0 0 ] [ 1.7050400300440565 -0.38042443892006972 0.88350947777904087 -0.46668826298168314 0.48634601360482449 0 -0.67768454047743443 0.10140514262086026 -0.85912712773267519 -0.36229198093632792 0 ] [ 1.1215881000373458 -0.46868558738785115 -0.52115706611478574 -0.11031920793946795 0.8104087963283102 1.0371034417939853 -1.2645556115380283 -0.4210562705626042 0 0 0 ]
nodegru 58 0 3.1681856322885422 -2.8980415497897387 -3.158202529260052 -0.79453398021614796 0.60065307053767758 1.1602466381901162 [ -0.25420547521403314 -1.2500528668752187 0.016854616588379542 1.3177877975710612 ] [ -0.42370794709944537 0.43578201366392055 0.53022733099303565 -0.3943466292202224 ] [ -0.55883093600106926 0.69290092107509305 0.37475356593483766 -0.81734658559660722 ]
nodegru 97 0 0 -0.49127019173059155 0 2.4639316692314726 -0.4006710811055596 2.4364421337081317 [ -0.084916904608214688 -0.99819643259895807 0.14263847081113537 0 -0.28053267965118062 ] [ -1.9829804720277806 -0.92479368412159091 -0.63413097366417337 0 0 ] [ -0.027074767522082932 0.5827896856157061 -1.0514760413446818 0.41596670631131466 -0.87100047984672735 ]
node 123 1 0 0
nodegru 127 0 0 0 0.77497717983786818 -0.18200308162812287 1.2187135846906871 0 [ -1.1216530653748908 0 0 0 0 ] [ -0.40030430019847318 0 0 0 0 ] [ 0 0 0 0 0 ]
node 150 2 0 0
nodegru 186 0 1.8629588521378855 -0.53750162014621383 -0.6220601075897273 -3.2050709005934515 0.10347903501404404 -0.64118144644479336 [ 0.78968666065004034 1.0981004853258378 -0.55802571729664963 -0.018972703963039773 0 ] [ 0.62938362366025502 1.3866067779653739 -0.50976414233900802 -0.38097424217545156 -0.41205011047984008 ] [ 1.1392187069352802 0.94671330877892357 -0.55794616954305498 0 0 ]
node 206 3 0 0
nodegru 231 0 -0.48249360429239163 -2.8587164910783605 0.75850227533769898 1.2538305899378985 -1.0985247192897485 0 [ 0.13724972849583705 -0.51836124389356053 -1.0494512648086305 ] [ -1.122595685125606 -1.2699903299892275 -0.10966605372245705 ] [ -1.4237016944325072 0.18577907033533747 0 ]
node 232 1 0 0
nodegru 237 0 -0.75964905100858271 0.15411518428200635 0.68962811198533891 -2.0130038736448643 -0.95094238615173032 -0.20478125275335335 [ -0.0062066421407305835 0.039613718185393887 0 0 ] [ -0.14976845921472109 -0.19061737376759635 0 0 ] [ -0.72599680499452945 0.59843487390244143 0 0 ]
node 262 1 0 0
node 294 1 0 0
node 308 3 0 0
node 326 2 0 0
node 374 1 0 0
nodegru 421 0 0 1.2400688676815801 0 1.4969026779275865 0 -0.71587772724026699 [ 0 0 ] [ 0 0 ] [ 0 0 ]
node 471 1 0 0
node 487 3 0 0
nodegru 519 0 0 0 0 0 0 0 [ 0 ] [ 0 ] [ 0 ]
nodegru 522 0 1.0535568997978964 1.8547964011574147 -0.62196946010085263 -0.40090163443279525 -0.10087059303227375 -0.26535396592940852 [ 1.2592400125038066 0 ] [ -0.22952911245149055 0 ] [ -1.8903812101997346 0 ]
nodegru 662 0 0 0 0 0 0 0 [ 0 ] [ 0 ] [ 0 ]
node 678 1 0 0
node 680 1 0 0
node 685 1 0 0
gene 2 1 17 3.7859908958366102 0 1 3.7859908958366102 1
gene 3 2 17 1.0686200508236046 0 2 1.0686200508236046 1
gene 3 3 17 -0.81214651782631242 0 3 -0.81214651782631242 1
gene 3 4 17 -0.70329024535757045 0 4 -0.70329024535757045 1
gene 1 5 17 -6.4743371819957805 0 5 -6.4743371819957805 1
gene 1 6 17 3.0897015163627 0 6 3.0897015163627 1
gene 3 7 17 2.119158619604613 0 7 2.119158619604613 1
gene 3 8 17 -1.1810841626399589 0 8 -1.1810841626399589 1
gene 1 9 17 1.0952366774879567 0 9 1.0952366774879567 1
gene 3 10 17 -2.1970923434463758 0 10 -2.1970923434463758 1
gene 2 11 17 -1.046370029703886 0 11 -1.046370029703886 0
gene 1 12 17 0.089807147900484163 0 12 0.089807147900484163 1
gene 2 13 17 0.97223244815703125 0 13 0.97223244815703125 1
gene 3 14 17 -0.74385461455390534 0 14 -0.74385461455390534 0
gene 1 15 17 -6.3318018025401059 0 15 -6.3318018025401059 1
gene 1 16 17 -2.4063290925260303 0 16 -2.4063290925260303 1
gene 2 1 18 -1.334027060928767 0 17 -1.334027060928767 1
gene 3 2 18 -0.92646810758228804 0 18 -0.92646810758228804 0
gene 3 3 18 -0.45742598825945802 0 19 -0.45742598825945802 0
gene 2 4 18 2.5294569067328503 0 20 2.5294569067328503 1
gene 1 5 18 0.023359274502545491 0 21 0.023359274502545491 1
gene 1 6 18 -2.3035369719395122 0 22 -2.3035369719395122 1
gene 3 7 18 -6.6873512532037456 0 23 -6.6873512532037456 1
gene 2 8 18 0.23945083061207589 0 24 0.23945083061207589 1
gene 1 9 18 1.3241339711584774 0 25 1.3241339711584774 1
gene 1 10 18 1.9130348674548023 0 26 1.9130348674548023 1
gene 2 11 18 2.2480369991380895 0 27 2.2480369991380895 0
gene 3 12 18 3.4392950941991502 0 28 3.4392950941991502 0
gene 3 13 18 -1.3354198859703819 0 29 -1.3354198859703819 0
gene 3 14 18 2.7633336983916044 0 30 2.7633336983916044 1
gene 2 15 18 4.2841425232049746 0 31 4.2841425232049746 1
gene 1 16 18 0.5086736721027052 0 32 0.5086736721027052 1
gene 2 3 22 -0.78264014063525966 0 41 -0.78264014063525966 1
gene 2 22 18 5.8585455479838631 0 42 5.8585455479838631 1
gene 3 12 25 1.090335956118226 0 64 1.090335956118226 1
gene 3 25 18 -3.2318115780278163 0 65 -3.2318115780278163 0
gene 2 11 25 -0.87733134039553407 0 76 -0.87733134039553407 1
gene 2 14 25 1.215619358334513 0 80 1.215619358334513 1
gene 2 18 17 -2.2089849948924893 1 114 -2.2089849948924893 1
gene 3 16 25 1.3600108518078975 0 119 1.3600108518078975 1
gene 3 15 22 1.9486403553507479 0 205 1.9486403553507479 1
gene 3 15 25 0.88295468100484209 0 211 0.88295468100484209 1
gene 1 16 22 -0.95820785405030839 0 218 -0.95820785405030839 0
gene 3 9 25 0.62895803112953796 0 229 0.62895803112953796 0
gene 1 13 25 0.30345441252154037 0 237 0.30345441252154037 1
gene 1 25 17 -3.4517818514498799 0 253 -3.4517818514498799 0
gene 2 2 25 2.8402572122124292 0 263 2.8402572122124292 1
gene 2 13 58 2.5695223564140139 0 268 2.5695223564140139 1
gene 3 58 18 -0.93035128616278584 0 269 -0.93035128616278584 1
gene 2 10 25 -3.8053164646519893 0 284 -3.8053164646519893 1
gene 1 25 97 1.7851747466647878 0 462 1.7851747466647878 1
gene 1 97 17 2.2671691604271387 0 463 2.2671691604271387 1
gene 3 9 22 -1.4381994700237173 0 479 -1.4381994700237173 1
gene 1 97 58 -2.0894732203285553 0 492 -2.0894732203285553 1
gene 3 9 97 -1.3236523127759119 0 515 -1.3236523127759119 1
gene 1 8 22 -1.8748693570377628 0 555 -1.8748693570377628 1
gene 3 14 97 1.3121854801719011 0 616 1.3121854801719011 0
gene 1 16 123 -0.10713302092958846 0 676 -0.10713302092958846 1
gene 1 123 22 -3.9125797207991502 0 677 -3.9125797207991502 1
gene 3 11 127 -2.4011976166633877 0 698 -2.4011976166633877 1
gene 2 127 18 5.3311255920357654 0 699 5.3311255920357654 1
gene 3 5 123 2.177877300501744 0 794 2.177877300501744 0
gene 2 15 58 -0.79396416935788661 0 838 -0.79396416935788661 1
gene 2 3 150 1.3035253969968883 0 848 1.3035253969968883 1
gene 3 150 17 -1.2786803023324718 0 849 -1.2786803023324718 1
gene 1 123 150 -0.99740339559381974 0 875 -0.99740339559381974 1
gene 3 6 127 -1.9435283876692542 0 943 -1.9435283876692542 0
gene 3 2 186 -2.6388363901706589 0 1064 -2.6388363901706589 1
gene 3 186 18 2.7369236388415676 0 1065 2.7369236388415676 0
gene 1 12 123 0.61122224671357361 0 1131 0.61122224671357361 1
gene 3 9 206 -0.92469261583159335 0 1173 -0.92469261583159335 0
gene 3 206 25 0.25855399121463052 0 1174 0.25855399121463052 1
gene 1 1 58 -2.1163454545272264 0 1201 -2.1163454545272264 1
gene 2 14 186 0.3748832060372842 0 1208 0.3748832060372842 0
gene 3 14 231 0.43735001908491833 0 1317 0.43735001908491833 0
gene 3 231 17 -1.5624980391294221 0 1318 -1.5624980391294221 1
gene 3 14 232 -0.97678088162875765 0 1323 -0.97678088162875765 0
gene 3 232 97 1.1780915871160529 0 1324 1.1780915871160529 1
gene 3 25 237 -2.9546024375383753 0 1360 -2.9546024375383753 0
gene 3 237 18 -0.67541467499705721 0 1361 -0.67541467499705721 0
gene 3 25 262 0.92909328054128837 0 1520 0.92909328054128837 1
gene 3 262 237 0.33870868819705624 0 1521 0.33870868819705624 1
gene 3 11 150 2.3134050836383389 0 1591 2.3134050836383389 1
gene 2 4 232 -2.1591625223677431 0 1710 -2.1591625223677431 1
gene 2 15 150 5.2686960595979802 0 1719 5.2686960595979802 0
gene 3 5 294 0.80727333240549681 0 1733 0.80727333240549681 1
gene 3 294 123 -0.66142324738270752 0 1734 -0.66142324738270752 1
gene 3 15 123 -0.68911985083907834 0 1764 -0.68911985083907834 1
gene 2 14 308 0.88155594043506147 0 1827 0.88155594043506147 1
gene 2 308 186 -1.6233440470524803 0 1828 -1.6233440470524803 1
gene 2 11 326 -0.49777178955160617 0 1925 -0.49777178955160617 1
gene 2 326 17 1.5670945868208515 0 1926 1.5670945868208515 1
gene 2 25 308 -2.3015740140348555 0 2053 -2.3015740140348555 1
gene 3 14 374 -2.6671338049541853 0 2196 -2.6671338049541853 1
gene 3 374 232 -0.64044164011275495 0 2197 -0.64044164011275495 1
gene 3 25 150 0.96204031094072395 0 2205 0.96204031094072395 1
gene 3 7 186 0.11022079810976089 0 2228 0.11022079810976089 1
gene 2 15 186 -1.2793688617084962 0 2262 -1.2793688617084962 1
gene 2 8 231 -2.18648729691584 0 2424 -2.18648729691584 1
gene 2 9 421 -1.0861405320866688 0 2534 -1.0861405320866688 0
gene 3 421 206 -1.7688336655352419 0 2535 -1.7688336655352419 1
gene 3 232 262 0.16946041079678609 0 2560 0.16946041079678609 1
gene 1 326 25 -0.16168508919034391 0 2616 -0.16168508919034391 1
gene 1 123 97 2.1997926915994808 0 2679 2.1997926915994808 1
gene 1 6 471 -1.1980047238515712 0 2827 -1.1980047238515712 1
gene 3 471 127 -4.8016917527661152 0 2828 -4.8016917527661152 1
gene 2 374 262 1.2709482529996654 0 2856 1.2709482529996654 1
gene 3 9 487 -1.0820966214323866 0 2914 -1.0820966214323866 1
gene 3 487 421 -0.34196818193512418 0 2915 -0.34196818193512418 1
gene 3 232 123 -0.28518989555779373 0 2979 -0.28518989555779373 1
gene 1 97 262 0.38826034841512347 0 2988 0.38826034841512347 1
gene 2 262 127 0.58851225748123237 0 3121 0.58851225748123237 1
gene 2 16 127 0.56900606912980156 0 3170 0.56900606912980156 1
gene 2 6 262 -0.20887454608868553 0 3178 -0.20887454608868553 1
gene 3 14 519 2.4359143161847792 0 3185 2.4359143161847792 1
gene 3 519 231 -1.2538569628977478 0 3186 -1.2538569628977478 1
gene 3 237 522 0.39432970825318703 0 3200 0.39432970825318703 1
gene 3 522 18 -0.42718469208440957 0 3201 -0.42718469208440957 0
gene 1 374 374 2.1350541941984806 1 3404 2.1350541941984806 1
gene 3 232 232 0.87569334328905346 1 3524 0.87569334328905346 1
gene 3 6 374 0.83004123639782945 0 3530 0.83004123639782945 1
gene 2 9 471 -0.39385283942979432 0 3655 -0.39385283942979432 1
gene 2 232 308 0.48750585386879086 0 3810 0.48750585386879086 1
gene 3 2 374 2.5150220741122133 0 3816 2.5150220741122133 1
gene 3 231 374 -1.3333652188691147 0 3828 -1.3333652188691147 1
gene 3 3 471 -1.0996685130985773 0 3845 -1.0996685130985773 1
gene 1 22 237 2.3311852830607376 0 3854 2.3311852830607376 0
gene 1 1 232 -0.56911624365910707 0 4034 -0.56911624365910707 1
gene 1 22 662 0.68897437778719439 0 4053 0.68897437778719439 1
gene 1 662 237 2.2225813135609878 0 4054 2.2225813135609878 1
gene 2 2 522 -0.93419857413237861 0 4062 -0.93419857413237861 1
gene 1 123 326 1.4358618179968847 0 4191 1.4358618179968847 1
gene 2 15 678 1.8167739765796691 0 4209 1.8167739765796691 1
gene 2 678 150 3.3721597091630846 0 4210 3.3721597091630846 1
gene 3 186 680 -0.23459336754614182 0 4216 -0.23459336754614182 1
gene 3 680 18 2.4304047955341663 0 4217 2.4304047955341663 1
gene 3 522 685 -0.23727177141107236 0 4262 -0.23727177141107236 1
gene 3 685 18 1.0905318614517021 0 4263 1.0905318614517021 1
genomeend 1
