genomestart 1
trait 1 0.460208 0 0.877043 0.976209 1 0.589633 0.0875339 0 
trait 2 0 0 0.967033 1 0 0 0.423201 0.037424 
trait 3 0 1 0.544696 0.867469 0 0 0.543974 1 
node 1 1 1 3
node 2 2 1 1
node 3 2 1 1
node 4 1 1 1
node 5 3 1 1
node 6 3 1 1
node 7 3 1 1
node 8 1 1 1
node 9 2 1 1
node 10 2 1 1
node 11 2 1 1
node 12 2 1 1
node 13 3 1 1
node 14 2 1 1
node 15 3 1 1
node 16 3 1 1
node 17 3 0 2
node 18 1 0 2
nodegru 19 0 -1.1376445561822712 1.4045870680849011 0.05052061905177338 -0.05300366461882533 -0.53259666801085537 0.21901664474001931 [ 1.4152096869261981 -2.0787549555901226 -1.280893834438591 1.7943263201947912 -1.2281178687597243 -0.56143159538574128 -1.0011822785023516 ] [ -0.30181005704300945 0.43050384646305062 0.29141358055240174 0.66649145349696837 0.97763634984271419 -0.32221868893700584 0.64666310495075918 ] [ 0.11818049713884504 -1.759494013273853 0.75650351727684173 0.04020603515217358 0.37327934877168356 -1.610154560119917 0.11699048830987424 ]
node 22 1 0 0
nodegru 72 0 -0.60678072860780197 -0.9071395073119275 -1.9957733328900171 2.4370437717004885 -1.673530437715133 2.5660541599225506 [ 1.455601800678112 3.1060532051399599 0.15031389025985897 ] [ -0.33439677771385623 0.17669250684636295 -0.93689041395526851 ] [ 0.96017383328181394 2.0393270928362974 -0.62362957495433724 ]
node 82 1 0 0
node 132 1 0 0
node 153 1 0 0
node 172 1 0 0
node 199 1 0 0
nodegru 271 0 0 0 0 0 0 0.74749241955461565 [ 0 ] [ 0.25038315763249208 ] [ 0 ]
nodegru 285 0 0 0 0 0 0 0 [ 0 ] [ 0 ] [ 0 ]
gene 1 1 17 0.49364102910907975 0 1 0.49364102910907975 1
gene 3 2 17 1.3542769273530118 0 2 1.3542769273530118 1
gene 3 3 17 -0.26447799907274444 0 3 -0.26447799907274444 1
gene 2 4 17 -0.69576560656808595 0 4 -0.69576560656808595 1
gene 2 5 17 -0.87762100360245499 0 5 -0.87762100360245499 1
gene 2 6 17 -6.7064724257013175 0 6 -6.7064724257013175 1
gene 3 7 17 1.717274321227928 0 7 1.717274321227928 1
gene 2 8 17 0.54201474554930573 0 8 0.54201474554930573 1
gene 3 9 17 -0.97886320726427423 0 9 -0.97886320726427423 0
gene 3 10 17 0.28373535456309817 0 10 0.28373535456309817 1
gene 3 11 17 -0.35539875300852536 0 11 -0.35539875300852536 1
gene 1 12 17 1.4342838014402819 0 12 1.4342838014402819 1
gene 1 13 17 0.71011627032892599 0 13 0.71011627032892599 1
gene 2 14 17 1.3491370175495452 0 14 1.3491370175495452 1
gene 2 15 17 -5.6200754352007412 0 15 -5.6200754352007412 1
gene 1 16 17 -1.4957692207516029 0 16 -1.4957692207516029 1
gene 2 1 18 1.8341518106563712 0 17 1.8341518106563712 1
gene 3 2 18 -0.13533827808468507 0 18 -0.13533827808468507 0
gene 3 3 18 -0.12358409078958638 0 19 -0.12358409078958638 1
gene 3 4 18 -0.1118595216478494 0 20 -0.1118595216478494 1
gene 3 5 18 0.33152466620389598 0 21 0.33152466620389598 1
gene 1 6 18 2.2285356862603387 0 22 2.2285356862603387 1
gene 3 7 18 -2.5672478487562609 0 23 -2.5672478487562609 1
gene 1 8 18 -0.93356297057287851 0 24 -0.93356297057287851 0
gene 3 9 18 0.88859614922599695 0 25 0.88859614922599695 1
gene 2 10 18 0.65065341019102063 0 26 0.65065341019102063 1
gene 2 11 18 -0.6060245056199024 0 27 -0.6060245056199024 1
gene 3 12 18 0.03106599337470986 0 28 0.03106599337470986 0
gene 2 13 18 1.4530853724354345 0 29 1.4530853724354345 1
gene 1 14 18 1.3100449418695859 0 30 1.3100449418695859 1
gene 1 15 18 1.4560181493666107 0 31 1.4560181493666107 1
gene 2 16 18 -0.15815154493700301 0 32 -0.15815154493700301 1
gene 3 9 19 -0.48830218880358267 0 33 -0.48830218880358267 0
gene 2 19 18 0.75903219811573264 0 34 0.75903219811573264 1
gene 3 7 22 -1.0939474897896626 0 50 -1.0939474897896626 0
gene 1 22 18 -0.12155764730254082 0 51 -0.12155764730254082 1
gene 3 5 22 1.3204518223975099 0 70 1.3204518223975099 1
gene 3 19 22 0.91528306094244294 0 84 0.91528306094244294 1
gene 2 4 22 -3.2706795974032392 0 132 -3.2706795974032392 1
gene 2 14 19 -0.01032982883524608 0 189 -0.01032982883524608 1
gene 3 22 22 1.4776567832928413 1 381 1.4776567832928413 0
gene 3 12 72 -0.90920636519287079 0 395 -0.90920636519287079 1
gene 3 72 18 1.2304457198970236 0 396 1.2304457198970236 1
gene 3 9 82 0.68475716977136081 0 455 0.68475716977136081 1
gene 3 82 19 7.8148735037841242 0 456 7.8148735037841242 1
gene 1 10 22 -0.72103043062194749 0 591 -0.72103043062194749 1
gene 1 10 19 -1.0744191938193604 0 642 -1.0744191938193604 1
gene 1 5 72 1.1149338031490026 0 665 1.1149338031490026 1
gene 1 8 72 -1.1732136456636775 0 833 -1.1732136456636775 1
gene 3 9 132 -1.06537204867479 0 850 -1.06537204867479 1
gene 3 132 17 -0.19829335235911116 0 851 -0.19829335235911116 1
gene 1 82 132 -1.4296718128862194 0 909 -1.4296718128862194 1
gene 3 2 19 0.70013707431505301 0 920 0.70013707431505301 1
gene 1 3 82 -1.4325778393226574 0 952 -1.4325778393226574 1
gene 1 17 17 -0.42883111335282742 1 1008 -0.42883111335282742 1
gene 2 8 153 -0.063053574558838088 0 1055 -0.063053574558838088 1
gene 2 153 17 0.5724153422389251 0 1056 0.5724153422389251 1
gene 1 132 82 2.9681367028821901 1 1097 2.9681367028821901 1
gene 3 82 172 -0.83554397364405186 0 1190 -0.83554397364405186 1
gene 3 172 19 -1.0317595786330103 0 1191 -1.0317595786330103 1
gene 1 132 22 -1.2292654780807279 0 1245 -1.2292654780807279 1
gene 3 7 199 -0.458649193266709 0 1378 -0.458649193266709 1
gene 3 199 22 0.64790135582345609 0 1379 0.64790135582345609 1
gene 1 172 199 -0.30797389315346896 0 1509 -0.30797389315346896 1
gene 1 1 19 -0.0035165639144911776 0 1576 -0.0035165639144911776 1
gene 2 153 22 -0.68302094793553514 0 1602 -0.68302094793553514 1
gene 2 132 18 -0.34595515676585731 0 1791 -0.34595515676585731 1
gene 2 82 82 0.0089367621154229915 1 1809 0.0089367621154229915 1
gene 3 82 199 -0.087276949937118667 0 1833 -0.087276949937118667 1
gene 1 13 153 -0.70369860923555616 0 1878 -0.70369860923555616 1
gene 1 8 22 -0.075440950377583943 0 1986 -0.075440950377583943 1
gene 2 19 132 -0.28244333797248233 0 2010 -0.28244333797248233 1
gene 1 8 271 0.8323379024315336 0 2028 0.8323379024315336 1
gene 1 271 18 -1.9806663975960879 0 2029 -1.9806663975960879 1
gene 3 22 285 1 1 2155 0 1
gene 3 285 22 1.4776567832928413 0 2156 0 1
genomeend 1
