genomestart 1
trait 1 0.643578 0 0.576504 1 0 0 0.750017 0.639189 
trait 2 0.284003 0 0 0.254959 0.679102 0.637506 0.278745 1 
trait 3 0 0.528557 0 0 0.746137 0.205908 0.55023 0.518508 
node 1 3 1 3
node 2 1 1 1
node 3 1 1 1
node 4 2 1 1
node 5 1 1 1
node 6 1 1 1
node 7 2 1 1
node 8 3 1 1
node 9 2 1 1
node 10 3 1 1
node 11 2 1 1
node 12 1 1 1
node 13 2 1 1
node 14 3 1 1
node 15 2 1 1
node 16 1 1 1
node 17 2 0 2
node 18 1 0 2
node 19 1 0 0
node 64 1 0 0
nodegru 127 0 0.77544612915974387 -1.1238575310557417 -1.2358307616020698 1.1622040305110646 -0.51401568984799817 -1.3926132833085085 [ -0.84243741391340177 -2.4287058550066809 2.1081754786931794 0.41134713283337054 -1.5206386348095904 -0.36679545213319154 ] [ -1.2252335755504826 -0.1592993225945622 0.05620091713788028 -0.15445788083805606 -1.2723317524755056 -0.63583966618675725 ] [ -0.47628502523353566 -0.50001660152339222 -1.064616775985163 0.097997029357588444 -0.79423656793974162 0.48256440832399039 ]
node 150 2 0 0
node 203 1 0 0
node 238 1 0 0
node 243 3 0 0
nodegru 251 0 -0.69027165390563727 -0.58612735526921567 0.32827531736263793 0.63319717027861488 1.6717532035763158 0.46534633425313343 [ -0.24991884490005614 0.46931708905348418 ] [ -0.23986841283732485 -1.2777985599952744 ] [ 0.77769348923009518 -0.54316747132370602 ]
node 260 1 0 0
nodegru 285 0 0.57600540461763994 -1.0309024274027454 0.3255797140652219 -0.8507517620924635 0 -0.33644172809386708 [ 0.11404167086074207 ] [ -0.18479245572108427 ] [ 0.091841099477299071 ]
node 304 1 0 0
node 335 1 0 0
node 349 1 0 0
nodegru 351 0 -0.73350233723572567 -0.24184088210661003 -0.2285865161002551 0.01996720105873756 -0.36711675632610763 -0.33128950911634114 [ 0.34071063068262791 ] [ 0 ] [ 0.13301439088909628 ]
node 415 1 0 0
node 447 1 0 0
gene 2 1 17 -0.28972516175812335 0 1 -0.28972516175812335 1
gene 3 2 17 1.209463743124839 0 2 1.209463743124839 1
gene 2 3 17 0.92634633180049597 0 3 0.92634633180049597 1
gene 3 4 17 0.7811844314128088 0 4 0.7811844314128088 1
gene 1 5 17 -2.7388752853678926 0 5 -2.7388752853678926 1
gene 2 6 17 0.094031131870127738 0 6 0.094031131870127738 1
gene 1 7 17 0.65748481529647707 0 7 0.65748481529647707 0
gene 3 8 17 -2.1374570190149624 0 8 -2.1374570190149624 1
gene 3 9 17 0.3621193231605549 0 9 0.3621193231605549 1
gene 3 10 17 -0.43546533139211352 0 10 -0.43546533139211352 0
gene 1 11 17 -0.35751868056017799 0 11 -0.35751868056017799 1
gene 2 12 17 -2.1115547651944473 0 12 -2.1115547651944473 0
gene 1 13 17 0.6352775579482679 0 13 0.6352775579482679 1
gene 3 14 17 1.6222136611455185 0 14 1.6222136611455185 1
gene 2 15 17 -6.1590862677707738 0 15 -6.1590862677707738 1
gene 1 16 17 -1.8578638595565522 0 16 -1.8578638595565522 1
gene 1 1 18 2.198580590867707 0 17 2.198580590867707 1
gene 1 2 18 -1.2845298785411425 0 18 -1.2845298785411425 1
gene 1 3 18 -1.8241534598982683 0 19 -1.8241534598982683 1
gene 2 4 18 -0.55027346478322214 0 20 -0.55027346478322214 0
gene 1 5 18 0.94480854014158644 0 21 0.94480854014158644 0
gene 3 6 18 1.0413571228465801 0 22 1.0413571228465801 0
gene 3 7 18 0.34538367721037189 0 23 0.34538367721037189 1
gene 1 8 18 -1.1833447965017259 0 24 -1.1833447965017259 0
gene 3 9 18 1.1591181099224452 0 25 1.1591181099224452 1
gene 1 10 18 0.20274499335919738 0 26 0.20274499335919738 1
gene 3 11 18 -0.04233937305041563 0 27 -0.04233937305041563 1
gene 2 12 18 -0.34329041633442531 0 28 -0.34329041633442531 1
gene 3 13 18 -1.922147090743364 0 29 -1.922147090743364 0
gene 3 14 18 4.5402842306253905 0 30 4.5402842306253905 1
gene 3 15 18 7.2636707581177671 0 31 7.2636707581177671 1
gene 1 16 18 2.4997556115266661 0 32 2.4997556115266661 1
gene 3 10 19 0.59091872807634904 0 34 0.59091872807634904 1
gene 3 19 17 -0.59230966788824146 0 35 -0.59230966788824146 0
gene 1 19 19 -0.16651486857631936 1 100 -0.16651486857631936 1
gene 1 13 19 4.4428514301277948 0 111 4.4428514301277948 1
gene 1 9 19 0.35319911844711704 0 226 0.35319911844711704 1
gene 1 8 64 -2.8586707262362685 0 317 -2.8586707262362685 1
gene 1 64 18 2.4612325151503236 0 318 2.4612325151503236 1
gene 2 13 64 -0.21140882813437301 0 627 -0.21140882813437301 1
gene 1 4 64 1.6741260306090702 0 652 1.6741260306090702 0
gene 1 6 64 -2.7115950292030333 0 693 -2.7115950292030333 1
gene 1 11 19 0.96384753343362717 0 727 0.96384753343362717 1
gene 1 10 64 -0.19270601900886131 0 792 -0.19270601900886131 1
gene 2 5 127 -0.53459275853102706 0 802 -0.53459275853102706 1
gene 2 127 18 -0.24058012722087097 0 803 -0.24058012722087097 1
gene 3 19 150 1.9069289740440105 0 946 1.9069289740440105 1
gene 3 150 17 0.21533432973797154 0 947 0.21533432973797154 1
gene 3 13 150 2.6765305442626262 0 1057 2.6765305442626262 1
gene 1 7 127 -0.58528225127853561 0 1232 -0.58528225127853561 0
gene 2 64 64 -1.2687086130113849 1 1311 -1.2687086130113849 1
gene 3 18 18 -1.5406957775311061 1 1329 -1.5406957775311061 1
gene 2 4 203 -0.57455527459949052 0 1350 -0.57455527459949052 1
gene 2 203 18 -0.4373964391124418 0 1351 -0.4373964391124418 1
gene 1 203 127 -1.9057631281464191 0 1580 -1.9057631281464191 1
gene 2 16 64 1.39843885584196 0 1592 1.39843885584196 1
gene 1 7 238 -0.21708871061778101 0 1658 -0.21708871061778101 1
gene 1 238 17 -0.55951407053950908 0 1659 -0.55951407053950908 1
gene 1 4 243 2.0276565069927166 0 1727 2.0276565069927166 1
gene 1 243 64 -1.9327710566263512 0 1728 -1.9327710566263512 0
gene 2 5 238 0.71360640354156835 0 1737 0.71360640354156835 1
gene 1 6 251 -1.1538292488101076 0 1756 -1.1538292488101076 1
gene 3 251 18 -0.2324793736834449 0 1757 -0.2324793736834449 1
gene 1 243 150 -0.35019764588223623 0 1800 -0.35019764588223623 1
gene 1 243 260 -1.21904743403152 0 1836 -1.21904743403152 1
gene 1 260 64 0.46144930911783583 0 1837 0.46144930911783583 1
gene 3 2 64 -0.42422240666310423 0 1897 -0.42422240666310423 1
gene 1 18 203 -2.7372789794985568 1 1919 -2.7372789794985568 1
gene 1 150 150 -0.31537058847740762 1 1927 -0.31537058847740762 0
gene 3 243 243 0.85402021154482821 1 1931 0.85402021154482821 0
gene 3 8 127 0.076599027298669853 0 1942 0.076599027298669853 1
gene 3 3 127 1.5246219054211967 0 1973 1.5246219054211967 1
gene 2 10 243 1.1116110749363952 0 1979 1.1116110749363952 1
gene 2 9 251 1.6379858296774263 0 1987 1.6379858296774263 1
gene 3 5 260 0.89519397129546552 0 2048 0.89519397129546552 0
gene 3 243 285 -2.3512793533044305 1 2055 -2.3512793533044305 1
gene 3 285 243 0.28705274105866102 0 2056 0.28705274105866102 1
gene 1 64 260 -2.9722148515154676 1 2096 -2.9722148515154676 1
gene 3 251 150 -2.297600606711395 0 2103 -2.297600606711395 1
gene 1 7 64 1.7479881423050485 0 2114 1.7479881423050485 1
gene 1 150 304 0.49607989785544593 1 2199 0.49607989785544593 1
gene 1 304 150 -3.235456048038535 0 2200 -3.235456048038535 1
gene 1 285 150 -0.45092502886006847 0 2322 -0.45092502886006847 1
gene 2 14 238 0.87973298930084942 0 2330 0.87973298930084942 1
gene 2 12 335 -0.25864397338994033 0 2348 -0.25864397338994033 1
gene 2 335 17 0.33054526037561954 0 2349 0.33054526037561954 0
gene 1 335 349 -0.22074885234271585 0 2448 -0.22074885234271585 1
gene 2 349 17 -0.15943063837915222 0 2449 -0.15943063837915222 1
gene 1 7 351 1.8126589575841368 0 2466 1.8126589575841368 1
gene 1 351 127 0.99699596699652993 0 2467 0.99699596699652993 1
gene 3 335 335 -0.69134443099207443 1 2576 -0.69134443099207443 0
gene 2 7 304 0.57568728519868451 0 2652 0.57568728519868451 1
gene 3 17 349 0.68734268375548657 1 2797 0.68734268375548657 1
gene 3 238 238 0.39278052893596721 1 2809 0.39278052893596721 1
gene 3 5 415 0.45236480967251808 0 2879 0.45236480967251808 1
gene 3 415 260 -0.37970246648402067 0 2880 -0.37970246648402067 1
gene 3 260 260 -0.64221235592486903 1 3080 -0.64221235592486903 1
gene 3 335 447 0.13085992884862233 1 3111 0.13085992884862233 1
gene 3 447 335 0.21526624283998563 0 3112 0.21526624283998563 1
gene 2 2 19 0.63749028609017389 0 3138 0.63749028609017389 1
gene 3 238 415 -0.51164524211159212 0 3144 -0.51164524211159212 1
genomeend 1
