genomestart 1
trait 1 0.643578 0 0.576504 1 0 0 0.750017 0.639189 
trait 2 0.284003 0 0 0.254959 0.679102 0.637506 0.278745 1 
trait 3 0 0.528557 0 0.287401 0.996063 0.473597 0.55023 0.518508 
node 1 3 1 3
node 2 1 1 1
node 3 1 1 1
node 4 2 1 1
node 5 1 1 1
node 6 1 1 1
node 7 2 1 1
node 8 3 1 1
node 9 2 1 1
node 10 1 1 1
node 11 3 1 1
node 12 1 1 1
node 13 2 1 1
node 14 3 1 1
node 15 2 1 1
node 16 1 1 1
node 17 2 0 2
node 18 1 0 2
node 19 1 0 0
node 64 1 0 0
nodegru 127 0 0.90553407110531536 -1.1238575310557417 -1.2358307616020698 1.1622040305110646 -0.51401568984799817 -0.65826714162634092 [ -0.84243741391340177 -2.4287058550066809 2.3165667280864746 0.41134713283337054 -1.6359847753243451 -0.36679545213319154 0 ] [ -1.2252335755504826 0.32482117103637254 -0.058492846581383096 0.014927733696497858 -0.52799327335226964 -0.56925561794510837 0 ] [ -0.47628502523353566 -0.069480475652720974 -0.89942053479581163 -0.20758427363242218 -1.4328816249886906 0.098873015422780541 0 ]
node 150 2 0 0
node 203 1 0 0
node 238 1 0 0
node 243 3 0 0
nodegru 251 0 -0.54837778317666497 -0.2919205086268114 0.61293446906513283 0.63319717027861488 1.6717532035763158 0.38775493292499097 [ -0.24991884490005614 0.46931708905348418 ] [ -0.62966920138786975 -1.2777985599952744 ] [ 0.77769348923009518 0.1326754019282177 ]
node 260 1 0 0
nodegru 285 0 0.17531219144599147 0.062206617119818258 0.39363461099268615 -0.73403895505892058 0 0.3758208822113559 [ 0.11404167086074207 ] [ -0.74321506067328857 ] [ 0 ]
node 304 1 0 0
node 335 1 0 0
node 349 1 0 0
nodegru 351 0 -0.73350233723572567 -0.24184088210661003 -0.2285865161002551 0.01996720105873756 -0.36711675632610763 -0.33128950911634114 [ 0.34071063068262791 ] [ 0 ] [ 0.13301439088909628 ]
node 415 1 0 0
gene 2 1 17 0.58478810560646854 0 1 0.58478810560646854 1
gene 3 2 17 2.0749024966847629 0 2 2.0749024966847629 1
gene 2 3 17 -1.0301740194112865 0 3 -1.0301740194112865 1
gene 3 4 17 0.93942555409829387 0 4 0.93942555409829387 1
gene 1 5 17 -4.091316377553774 0 5 -4.091316377553774 1
gene 2 6 17 -0.20324843910208373 0 6 -0.20324843910208373 1
gene 1 7 17 -0.60182585665109845 0 7 -0.60182585665109845 0
gene 3 8 17 -0.89596691408472462 0 8 -0.89596691408472462 1
gene 3 9 17 -2.2449623476690439 0 9 -2.2449623476690439 1
gene 3 10 17 0.31542042517821345 0 10 0.31542042517821345 0
gene 1 11 17 -2.3993615506446737 0 11 -2.3993615506446737 1
gene 2 12 17 -0.73543669224504249 0 12 -0.73543669224504249 0
gene 1 13 17 1.133251131341444 0 13 1.133251131341444 1
gene 3 14 17 1.17269335823259 0 14 1.17269335823259 1
gene 2 15 17 -7.0062356628506617 0 15 -7.0062356628506617 1
gene 1 16 17 -0.076646782144274062 0 16 -0.076646782144274062 1
gene 1 1 18 1.3258088800710661 0 17 1.3258088800710661 1
gene 1 2 18 -1.7917035360781957 0 18 -1.7917035360781957 1
gene 1 3 18 -2.3640579771548786 0 19 -2.3640579771548786 1
gene 2 4 18 -4.1005176788198385 0 20 -4.1005176788198385 0
gene 1 5 18 0.62465014850005995 0 21 0.62465014850005995 0
gene 3 6 18 0.85296921727851482 0 22 0.85296921727851482 0
gene 3 7 18 -1.3413206773536841 0 23 -1.3413206773536841 1
gene 1 8 18 -0.20082654545587769 0 24 -0.20082654545587769 0
gene 3 9 18 1.4246198921113367 0 25 1.4246198921113367 1
gene 1 10 18 0.25121789984461751 0 26 0.25121789984461751 1
gene 3 11 18 -0.39296113380368852 0 27 -0.39296113380368852 1
gene 2 12 18 0.84410984352888074 0 28 0.84410984352888074 1
gene 3 13 18 -1.9121492327713165 0 29 -1.9121492327713165 0
gene 3 14 18 3.3368402208838805 0 30 3.3368402208838805 1
gene 3 15 18 7.1155042960846346 0 31 7.1155042960846346 1
gene 1 16 18 1.6554864776113476 0 32 1.6554864776113476 1
gene 3 10 19 0.11109319951436125 0 34 0.11109319951436125 1
gene 3 19 17 0.401309155929512 0 35 0.401309155929512 0
gene 1 19 19 -3.0204596560310852 1 100 -3.0204596560310852 1
gene 1 13 19 5.0258440374284268 0 111 5.0258440374284268 1
gene 1 9 19 0.37673400010761521 0 226 0.37673400010761521 1
gene 1 8 64 -2.5461146289231795 0 317 -2.5461146289231795 1
gene 1 64 18 1.8101198094944095 0 318 1.8101198094944095 1
gene 2 13 64 -0.3474469231895389 0 627 -0.3474469231895389 1
gene 1 4 64 1.2346695543893935 0 652 1.2346695543893935 0
gene 1 6 64 -3.4939215144812699 0 693 -3.4939215144812699 1
gene 1 11 19 0.38051293191058244 0 727 0.38051293191058244 1
gene 1 10 64 0.3983905234599438 0 792 0.3983905234599438 1
gene 2 5 127 -0.3040823263833683 0 802 -0.3040823263833683 1
gene 2 127 18 -0.20670869094632038 0 803 -0.20670869094632038 1
gene 3 19 150 2.8064452287771013 0 946 2.8064452287771013 1
gene 3 150 17 0.4372110712282411 0 947 0.4372110712282411 1
gene 3 13 150 1.2481991045634255 0 1057 1.2481991045634255 1
gene 1 7 127 0.25381417409694512 0 1232 0.25381417409694512 0
gene 2 64 64 -1.760946762287499 1 1311 -1.760946762287499 1
gene 3 18 18 -0.21532037840938212 1 1329 -0.21532037840938212 1
gene 2 4 203 -0.069506762348817197 0 1350 -0.069506762348817197 1
gene 2 203 18 1.039014974976431 0 1351 1.039014974976431 1
gene 1 203 127 -1.0473487772035175 0 1580 -1.0473487772035175 1
gene 2 16 64 0.20340184678947637 0 1592 0.20340184678947637 1
gene 1 7 238 -0.012331813928825541 0 1658 -0.012331813928825541 1
gene 1 238 17 -0.9282542914982207 0 1659 -0.9282542914982207 1
gene 1 4 243 0.086211153928288847 0 1727 0.086211153928288847 1
gene 1 243 64 -0.69873544548113609 0 1728 -0.69873544548113609 0
gene 2 5 238 1.421831345265653 0 1737 1.421831345265653 1
gene 1 6 251 0.82081673507151032 0 1756 0.82081673507151032 1
gene 3 251 18 -0.78478887888360249 0 1757 -0.78478887888360249 1
gene 1 243 150 0.52419408528329559 0 1800 0.52419408528329559 1
gene 1 243 260 -0.69714162228495891 0 1836 -0.69714162228495891 1
gene 1 260 64 0.69872700315840874 0 1837 0.69872700315840874 1
gene 3 2 64 1.0110163610712699 0 1897 1.0110163610712699 1
gene 1 18 203 -1.5269838563525038 1 1919 -1.5269838563525038 1
gene 1 150 150 -1.0671902455236715 1 1927 -1.0671902455236715 0
gene 3 243 243 1.2053498376418601 1 1931 1.2053498376418601 0
gene 3 8 127 1.1265086456558242 0 1942 1.1265086456558242 1
gene 3 3 127 1.0729176955404309 0 1973 1.0729176955404309 1
gene 2 10 243 2.8183692100310553 0 1979 2.8183692100310553 1
gene 2 9 251 0.37249611021135753 0 1987 0.37249611021135753 1
gene 3 5 260 0.46995979383120301 0 2048 0.46995979383120301 0
gene 3 243 285 -0.32717287148217339 1 2055 -0.32717287148217339 1
gene 3 285 243 0.69145808540818199 0 2056 0.69145808540818199 1
gene 1 64 260 -1.7175794658100139 1 2096 -1.7175794658100139 1
gene 3 251 150 -0.42886517321638074 0 2103 -0.42886517321638074 1
gene 1 7 64 0.72112763310835115 0 2114 0.72112763310835115 1
gene 1 150 304 -0.53717626574783406 1 2199 -0.53717626574783406 1
gene 1 304 150 -1.6353148716200678 0 2200 -1.6353148716200678 1
gene 1 285 150 0.047465365751397509 0 2322 0.047465365751397509 1
gene 2 14 238 0.41422311783033572 0 2330 0.41422311783033572 1
gene 2 12 335 -0.63060871180175271 0 2348 -0.63060871180175271 1
gene 2 335 17 -0.30074259967112105 0 2349 -0.30074259967112105 0
gene 1 335 349 0.10808738652062014 0 2448 0.10808738652062014 1
gene 2 349 17 0.49531380587504886 0 2449 0.49531380587504886 1
gene 1 7 351 -0.70713920342137082 0 2466 -0.70713920342137082 1
gene 1 351 127 1.3817411362574161 0 2467 1.3817411362574161 1
gene 3 335 335 0.1291611950747488 1 2576 0.1291611950747488 1
gene 3 7 304 0.56678704757559439 0 2652 0.56678704757559439 1
gene 3 17 349 0.1402627310670273 1 2797 0.1402627310670273 1
gene 3 238 238 -0.92452223094856478 1 2809 -0.92452223094856478 1
gene 3 5 415 -0.37508508207978919 0 2879 -0.37508508207978919 1
gene 3 415 260 0.67315603393276968 0 2880 0.67315603393276968 1
gene 2 1 238 -0.57251430329518127 0 3073 -0.57251430329518127 1
gene 1 64 127 -0.28571009788928092 0 3114 -0.28571009788928092 1
genomeend 1
