genomestart 1
trait 1 0.763719 0 0 0.152938 0.918302 0.363117 0.82713 0.888927 
trait 2 0.2 0 0.323642 0 0 0 0 0 
trait 3 0.916947 0 0 0.63951 0 0 0.665279 1 
node 1 2 1 3
node 2 2 1 1
node 3 3 1 1
node 4 2 1 1
node 5 3 1 1
node 6 3 1 1
node 7 1 1 1
node 8 1 1 1
node 9 1 1 1
node 10 1 1 1
node 11 2 1 1
node 12 2 1 1
node 13 1 1 1
node 14 3 1 1
node 15 1 1 1
node 16 2 1 1
node 17 1 0 2
node 18 3 0 2
node 26 1 0 0
node 28 1 0 0
node 112 1 0 0
node 118 1 0 0
node 235 1 0 0
node 329 1 0 0
node 361 1 0 0
node 419 1 0 0
gene 2 1 17 4.0395253804929201 0 1 4.0395253804929201 1
gene 2 2 17 -2.2437267814500848 0 2 -2.2437267814500848 0
gene 2 3 17 -1.9103002711945685 0 3 -1.9103002711945685 0
gene 3 4 17 1.0244675076214911 0 4 1.0244675076214911 1
gene 3 5 17 -2.7563034606894039 0 5 -2.7563034606894039 1
gene 1 6 17 2.8437811825861141 0 6 2.8437811825861141 0
gene 2 7 17 -5.4650030720350351 0 7 -5.4650030720350351 1
gene 1 8 17 -5.2710543632372548 0 8 -5.2710543632372548 1
gene 1 9 17 -4.6145783752969374 0 9 -4.6145783752969374 1
gene 2 10 17 -1.5647638271631505 0 10 -1.5647638271631505 1
gene 3 11 17 -4.4338504158350878 0 11 -4.4338504158350878 1
gene 2 12 17 -2.6878263074615152 0 12 -2.6878263074615152 1
gene 2 13 17 -4.9990989208450074 0 13 -4.9990989208450074 1
gene 2 14 17 1.3885264412446536 0 14 1.3885264412446536 1
gene 2 15 17 0.28118773702587352 0 15 0.28118773702587352 1
gene 1 16 17 0.30740640513012485 0 16 0.30740640513012485 1
gene 1 1 18 -0.48372218000410228 0 17 -0.48372218000410228 1
gene 3 2 18 -1.1687509010866057 0 18 -1.1687509010866057 1
gene 3 3 18 0.79472585944213225 0 19 0.79472585944213225 1
gene 2 4 18 -0.54305013620436626 0 20 -0.54305013620436626 0
gene 3 5 18 -1.0605919383515565 0 21 -1.0605919383515565 1
gene 1 6 18 0.33919211411345385 0 22 0.33919211411345385 1
gene 2 7 18 -0.52637436009308991 0 23 -0.52637436009308991 1
gene 2 8 18 1.1036758189339539 0 24 1.1036758189339539 1
gene 2 9 18 3.8174787084886233 0 25 3.8174787084886233 1
gene 1 10 18 1.9236522783402603 0 26 1.9236522783402603 1
gene 1 11 18 5.545271077680062 0 27 5.545271077680062 1
gene 3 12 18 0.20960380414482399 0 28 0.20960380414482399 1
gene 2 13 18 2.2930395546336846 0 29 2.2930395546336846 1
gene 3 14 18 0.12349807849316712 0 30 0.12349807849316712 1
gene 3 15 18 0.68679237304571628 0 31 0.68679237304571628 1
gene 1 16 18 -3.5859692854974266 0 32 -3.5859692854974266 1
gene 1 6 26 -1.037452165986156 0 64 -1.037452165986156 1
gene 1 26 17 0.13090897380882366 0 65 0.13090897380882366 1
gene 3 2 28 0.45187629140069513 0 77 0.45187629140069513 0
gene 3 28 17 -1.1299659690726391 0 78 -1.1299659690726391 0
gene 3 3 26 -3.1205904207288242 0 150 -3.1205904207288242 1
gene 2 26 26 -0.10084090782368604 1 157 -0.10084090782368604 1
gene 3 12 28 -2.1467695030834384 0 405 -2.1467695030834384 1
gene 1 11 28 1.0806686178923908 0 430 1.0806686178923908 1
gene 2 28 28 -0.040139855835651717 1 448 -0.040139855835651717 1
gene 1 4 28 1.1851657750947238 0 498 1.1851657750947238 0
gene 3 12 26 -3.4992164957799097 0 619 -3.4992164957799097 1
gene 1 2 112 -0.11309905320550284 0 665 -0.11309905320550284 1
gene 3 112 28 -2.3263941407559412 0 666 -2.3263941407559412 1
gene 3 28 118 -0.29941534241634182 0 731 -0.29941534241634182 1
gene 2 118 17 -3.4640567707661787 0 732 -3.4640567707661787 1
gene 2 14 28 -3.6920262607475864 0 761 -3.6920262607475864 1
gene 3 4 118 1.5660561482962485 0 787 1.5660561482962485 1
gene 3 15 28 0.065091096127914028 0 807 0.065091096127914028 1
gene 2 13 26 -0.56901376825711425 0 853 -0.56901376825711425 1
gene 1 11 118 1.1150270120077894 0 884 1.1150270120077894 1
gene 3 10 26 0.15450478701596376 0 958 0.15450478701596376 1
gene 2 4 26 -1.3395095625144944 0 972 -1.3395095625144944 1
gene 1 9 28 -0.42484479510450956 0 995 -0.42484479510450956 1
gene 2 8 28 0.31356967092192245 0 1094 0.31356967092192245 1
gene 1 16 118 -2.8305451994904063 0 1129 -2.8305451994904063 1
gene 3 16 112 1.8362886567303387 0 1149 1.8362886567303387 1
gene 3 3 118 -1.2723803598305119 0 1160 -1.2723803598305119 1
gene 2 118 118 2.0533280538177712 1 1313 2.0533280538177712 1
gene 3 1 112 0.49277247010859293 0 1325 0.49277247010859293 1
gene 3 118 18 0.19647853760816092 0 1530 0.19647853760816092 1
gene 3 10 112 1.1493969417174332 0 1608 1.1493969417174332 1
gene 1 8 118 0.74093185120305594 0 1645 0.74093185120305594 1
gene 2 4 235 1.2570683913105487 0 1653 1.2570683913105487 1
gene 2 235 18 1.4024296144034851 0 1654 1.4024296144034851 0
gene 3 12 112 0.7563367872528437 0 1664 0.7563367872528437 1
gene 2 112 26 0.071817613589492457 0 1826 0.071817613589492457 1
gene 2 4 112 0.62743674503985647 0 2083 0.62743674503985647 1
gene 3 7 26 1.1641362093687693 0 2087 1.1641362093687693 1
gene 1 235 112 -0.2095747783126192 0 2202 -0.2095747783126192 1
gene 1 9 235 -0.63000449567567773 0 2223 -0.63000449567567773 1
gene 1 112 112 -0.25288105907518466 1 2248 -0.25288105907518466 1
gene 1 235 235 -4.3190444909590502 1 2262 -4.3190444909590502 1
gene 3 17 17 0.49531794036520554 1 2359 0.49531794036520554 1
gene 2 235 329 0.67594523305350229 0 2380 0.67594523305350229 1
gene 2 329 18 -0.88818301744208827 0 2381 -0.88818301744208827 1
gene 1 1 118 -0.61749792348942623 0 2417 -0.61749792348942623 1
gene 1 4 361 0.46258271879636809 0 2584 0.46258271879636809 1
gene 1 361 28 -0.14869121771710514 0 2585 -0.14869121771710514 1
gene 3 361 361 0.73753481264577003 1 2678 0.73753481264577003 1
gene 2 7 361 0.5530248884125728 0 2687 0.5530248884125728 1
gene 3 9 26 -1.3677630138666195 0 2914 -1.3677630138666195 1
gene 3 8 361 0.25237991765717971 0 3004 0.25237991765717971 1
gene 1 12 118 -0.69720144229810754 0 3025 -0.69720144229810754 1
gene 1 11 329 0.37966619030556931 0 3047 0.37966619030556931 1
gene 3 13 118 0.93745754982226415 0 3125 0.93745754982226415 1
gene 2 3 419 1 0 3135 0 1
gene 2 419 17 -1.9103002711945685 0 3136 0 1
genomeend 1
