genomestart 1
trait 1 1 0.217923 0.495497 1 0 0.302338 0.513045 0.281624 
trait 2 0 0.229261 0.776944 0.672183 0 1 1 0 
trait 3 1 0 0.640929 0 0 0.232966 0.768126 0.330052 
node 1 2 1 3
node 2 1 1 1
node 3 1 1 1
node 4 1 1 1
node 5 1 1 1
node 6 3 1 1
node 7 1 1 1
node 8 1 1 1
node 9 1 1 1
node 10 1 1 1
node 11 3 1 1
node 12 2 1 1
node 13 2 1 1
node 14 3 1 1
node 15 1 1 1
node 16 2 1 1
node 17 3 0 2
node 18 2 0 2
node 21 1 0 0
nodegru 24 0 0.56002974757460411 2.1474215784796611 1.5106509681840667 0.18361373068001763 -0.39401469712332593 -0.88449999836017379 [ -0.61482087923904005 0.67032728689737953 0 ] [ 0.68772708342304778 0.7499910893384325 0 ] [ 1.4975600199529715 1.2667466962089513 0 ]
nodegru 77 0 0.034118344790357427 -0.7686976301570877 -0.45329064570986233 0.050030411826460813 -0.92387425500148634 0.21246991805381604 [ 1.4618039930759947 0.15664069815848056 0 0 0 ] [ 0.50821093516806659 0 0.35310758666745745 0 0 ] [ -0.020622349470212242 0.53564994143585209 0.0661069639334953 0 0 ]
nodegru 86 0 0.73107059450404277 -0.48798438545222594 1.9736282891703905 0.53051455331990238 1.7385146607358541 0.56468490013605199 [ 0.87320150021612719 0.23967807134132732 0.73855722869679197 1.6589579643490528 -0.026190554968170146 0.74188312247483201 -0.64037251211254509 ] [ -0.41486491841024947 -0.84195500569974757 0.70395516113096623 0.69404813889136907 0.92844538701625789 1.0646053444662156 0 ] [ -2.0051537418063514 -1.1425892863853786 -0.16992284668140245 -0.13940563851008447 -0.71781126780799176 -0.62464261072438332 -0.41204561568426229 ]
node 102 1 0 0
node 138 1 0 0
nodegru 151 0 -0.53462329205806514 -0.99716296105047819 0.57177190823562996 0.67642505125907493 -0.34787092141242271 0.81523088741359806 [ 0.55314441505034662 -1.432378192866397 -0.58701477215486331 -0.42489742926549978 0.54606986315737938 ] [ 0.16255114339876509 1.2173838188021371 -0.0002115044045315484 -0.50199902989063361 1.0521507279724585 ] [ 0.78123581387625807 0.68261372469487303 -0.25382596184677719 -0.58657429650732051 0.030639710733964876 ]
node 154 1 0 0
node 163 1 0 0
nodegru 190 0 0.64684384183345534 -0.17693627948264423 -0.89534039371429963 -0.69304595593970542 -0.18966143098178379 0.34173204521263573 [ -0.88547311950729846 -0.1039493924956533 0 ] [ 0.23842401883491499 -0.41287394224799884 -0.0022708444168189623 ] [ -0.59442079409231474 -0.069272863943722535 -0.046796286616845206 ]
node 206 1 0 0
node 207 1 0 0
nodegru 219 0 0.62341404723628147 0.3597046075666811 -0.28196902423257425 0.55159530837628779 0.48648984636482306 -0.34305921166346376 [ -0.5364233040187617 0.61026907554374499 0 0 ] [ -0.31998563048894785 -0.027146311955128899 0.3945891201238097 -0.65430087463664865 ] [ -0.45766624887830865 0.36949146893783075 -0.23911501524928724 -0.68007811411753205 ]
node 226 1 0 0
node 233 1 0 0
nodegru 241 0 0 0.053724435299506657 -0.56146971383666133 -0.58733669206841699 -0.49871071672472667 0 [ 0.57020179441673768 ] [ 0.44448325233277086 ] [ -0.10051839523972868 ]
node 336 1 0 0
nodegru 353 0 0.75356610899491527 0.81736442298505652 -0.79478563708010386 0.30785268315014092 -0.66043201538754259 -0.55279734418857718 [ 0 0 ] [ -0.51953074988887216 1.2927530679352364 ] [ 0.92378637214367576 0.51751425502240389 ]
node 408 1 0 0
node 411 1 0 0
nodegru 436 0 0.46053075939907262 0 0.58773666635981603 0.53934043053972558 -0.33357847974802296 -0.66838736455812464 [ 0 ] [ -0.52275134216656505 ] [ 0 ]
nodegru 443 0 0.012162291334086233 0 0 0 0.66577391543694486 0 [ 0 ] [ -0.028750982963829757 ] [ 0 ]
gene 3 1 17 0.38738165953540399 0 1 0.38738165953540399 1
gene 3 2 17 1.7481345902188377 0 2 1.7481345902188377 1
gene 2 3 17 2.8807673029977674 0 3 2.8807673029977674 0
gene 2 4 17 3.9282123914119844 0 4 3.9282123914119844 0
gene 1 5 17 -1.4595624266469678 0 5 -1.4595624266469678 1
gene 2 6 17 -2.4627832217201511 0 6 -2.4627832217201511 1
gene 1 7 17 -1.5754435777549842 0 7 -1.5754435777549842 0
gene 2 8 17 0.72489484910615465 0 8 0.72489484910615465 1
gene 3 9 17 -0.7195699905136459 0 9 -0.7195699905136459 1
gene 2 10 17 -2.9876929622784694 0 10 -2.9876929622784694 1
gene 1 11 17 0.76168681879606415 0 11 0.76168681879606415 1
gene 1 12 17 0.92433602522329261 0 12 0.92433602522329261 1
gene 1 13 17 -0.023525531996752003 0 13 -0.023525531996752003 0
gene 3 14 17 -3.859043305906952 0 14 -3.859043305906952 1
gene 2 15 17 -6.4279096693163309 0 15 -6.4279096693163309 1
gene 2 16 17 -3.1203726117361188 0 16 -3.1203726117361188 1
gene 1 1 18 1.604962161092534 0 17 1.604962161092534 1
gene 2 2 18 -0.72693248837112101 0 18 -0.72693248837112101 1
gene 2 3 18 -0.35670999314482732 0 19 -0.35670999314482732 1
gene 2 4 18 2.271702835462849 0 20 2.271702835462849 1
gene 3 5 18 -3.5695515969160727 0 21 -3.5695515969160727 1
gene 3 6 18 -3.9849920270428969 0 22 -3.9849920270428969 1
gene 3 7 18 -1.4126876930998116 0 23 -1.4126876930998116 0
gene 3 8 18 0.75942617096445808 0 24 0.75942617096445808 1
gene 1 9 18 -0.59516791503185773 0 25 -0.59516791503185773 0
gene 2 10 18 -1.1909718897384463 0 26 -1.1909718897384463 0
gene 1 11 18 -1.1124215155664938 0 27 -1.1124215155664938 0
gene 1 12 18 3.4463001789740764 0 28 3.4463001789740764 1
gene 3 13 18 -1.7036447127832306 0 29 -1.7036447127832306 1
gene 3 14 18 -2.6598666145745034 0 30 -2.6598666145745034 0
gene 3 15 18 7.1410777948988029 0 31 7.1410777948988029 1
gene 2 16 18 6.1322135251863923 0 32 6.1322135251863923 1
gene 3 11 21 -0.46189868250484523 0 42 -0.46189868250484523 1
gene 2 21 18 1.7032985709157298 0 43 1.7032985709157298 1
gene 3 14 24 -0.5907104112397461 0 52 -0.5907104112397461 1
gene 3 24 17 -0.27155043139194623 0 53 -0.27155043139194623 1
gene 3 13 21 -1.2183314135616325 0 326 -1.2183314135616325 0
gene 3 14 77 1.364179059450598 0 390 1.364179059450598 1
gene 1 77 18 6.9694311335773369 0 391 6.9694311335773369 1
gene 1 21 21 -3.7173268364124588 1 424 -3.7173268364124588 0
gene 1 17 17 1.0370910411174834 1 429 1.0370910411174834 1
gene 2 21 86 -0.19062474076199565 1 444 -0.19062474076199565 0
gene 2 86 21 0.023097760869701167 0 445 0.023097760869701167 1
gene 3 8 86 3.0388745911367585 0 527 3.0388745911367585 1
gene 3 13 102 0.89396484342588334 0 546 0.89396484342588334 1
gene 3 102 21 -0.093658036595982486 0 547 -0.093658036595982486 1
gene 2 10 138 -0.28843718664182216 0 754 -0.28843718664182216 1
gene 2 138 18 3.9222968321630254 0 755 3.9222968321630254 1
gene 1 5 86 0.53582767200927595 0 852 0.53582767200927595 1
gene 3 7 151 0.6940254651447878 0 862 0.6940254651447878 0
gene 3 151 18 1.2353657615535734 0 863 1.2353657615535734 1
gene 3 21 154 0.40882971133516621 1 874 0.40882971133516621 1
gene 2 154 86 1.4887972975796075 0 875 1.4887972975796075 1
gene 3 102 138 -1.3743847425209279 0 925 -1.3743847425209279 1
gene 1 8 151 -0.3854149587617326 0 943 -0.3854149587617326 1
gene 2 4 163 -1.8088854485232781 0 956 -1.8088854485232781 1
gene 2 163 17 0.62557818408849553 0 957 0.62557818408849553 0
gene 3 102 151 0.8793012755360925 0 1114 0.8793012755360925 1
gene 1 7 190 -3.3080721405838021 0 1147 -3.3080721405838021 0
gene 3 190 17 1.7983680208206028 0 1148 1.7983680208206028 1
gene 1 2 21 1.8067613747235205 0 1164 1.8067613747235205 0
gene 2 24 86 -1.8422968999213993 0 1224 -1.8422968999213993 1
gene 1 5 24 -1.5938185713457962 0 1235 -1.5938185713457962 1
gene 2 15 86 -0.81998807881958213 0 1249 -0.81998807881958213 0
gene 3 7 206 -0.75714435638261224 0 1260 -0.75714435638261224 1
gene 3 206 151 0.22672074706140943 0 1261 0.22672074706140943 1
gene 1 2 207 1.149232810083419 0 1265 1.149232810083419 1
gene 1 207 21 0.39676078986225682 0 1266 0.39676078986225682 1
gene 1 9 219 2.2212398500280641 0 1354 2.2212398500280641 0
gene 1 219 18 -3.6718723332378431 0 1355 -3.6718723332378431 1
gene 2 77 138 0.75882218010203084 0 1363 0.75882218010203084 1
gene 1 7 226 -0.10021592623098563 0 1382 -0.10021592623098563 1
gene 1 226 190 -1.9531993255732578 0 1383 -1.9531993255732578 1
gene 2 7 77 -1.7106532931610263 0 1430 -1.7106532931610263 0
gene 1 3 138 0.19616206278845805 0 1442 0.19616206278845805 0
gene 2 7 233 -1.1978093804548537 0 1457 -1.1978093804548537 1
gene 2 233 77 1.6813370342977978 0 1458 1.6813370342977978 1
gene 1 102 102 0.62990227696946921 1 1501 0.62990227696946921 1
gene 1 9 241 0.15049481573537654 0 1517 0.15049481573537654 1
gene 1 241 219 1.3759244558754955 0 1518 1.3759244558754955 0
gene 2 16 138 0.51400830329582448 0 1531 0.51400830329582448 1
gene 1 6 190 0.30219463342902941 0 1655 0.30219463342902941 1
gene 2 154 163 0.13449534710240307 0 1688 0.13449534710240307 1
gene 2 163 206 1.2783754256220421 0 1758 1.2783754256220421 1
gene 1 21 151 2.2268568626497207 0 1774 2.2268568626497207 1
gene 2 219 138 -1.0042154454878602 0 1902 -1.0042154454878602 1
gene 3 6 206 0.67815028127662402 0 1910 0.67815028127662402 1
gene 3 2 163 -0.55841839758605605 0 2057 -0.55841839758605605 1
gene 2 138 206 2.1941318587372693 0 2082 2.1941318587372693 1
gene 2 206 206 -0.75915700709873679 1 2185 -0.75915700709873679 1
gene 2 15 336 1.0859751431671789 0 2211 1.0859751431671789 1
gene 2 336 86 0.8207200910294058 0 2212 0.8207200910294058 1
gene 1 154 21 -0.053630966601721508 0 2223 -0.053630966601721508 1
gene 3 11 24 -0.78443666467649709 0 2296 -0.78443666467649709 1
gene 1 3 353 0.29941432122113848 0 2313 0.29941432122113848 1
gene 1 353 138 0.39705488046028414 0 2314 0.39705488046028414 1
gene 3 207 138 -0.29647374842151708 0 2331 -0.29647374842151708 1
gene 2 7 219 -0.76893570624242347 0 2336 -0.76893570624242347 1
gene 1 336 353 1.0291631433782928 0 2369 1.0291631433782928 1
gene 2 336 21 -0.21952823175561068 0 2519 -0.21952823175561068 1
gene 3 163 138 1.678228538799206 0 2544 1.678228538799206 1
gene 2 77 207 0.44110222274488869 0 2715 0.44110222274488869 1
gene 1 241 408 0.58334760918903517 0 2739 0.58334760918903517 1
gene 1 408 219 2.2316765893398212 0 2740 2.2316765893398212 1
gene 2 3 411 -0.29021368037919226 0 2749 -0.29021368037919226 1
gene 2 411 17 1.296845158467463 0 2750 1.296845158467463 1
gene 3 2 233 0.17010361220226783 0 2813 0.17010361220226783 1
gene 1 13 436 1.1714875921241414 0 2870 1.1714875921241414 1
gene 1 436 17 0.33826039921876999 0 2871 0.33826039921876999 1
gene 1 226 77 -0.066437376461195463 0 2924 -0.066437376461195463 1
gene 2 163 443 -0.10691321634543743 0 2945 -0.10691321634543743 1
gene 2 443 17 -0.5335119250386543 0 2946 -0.5335119250386543 1
gene 2 9 77 -0.65492861655304613 0 3122 -0.65492861655304613 1
gene 1 11 207 0.30042887062319967 0 3146 0.30042887062319967 1
genomeend 1
