genomestart 1
trait 1 0.129253 0 0 0 0 0.415657 0 0.376041 
trait 2 0.737969 0 0 0 1 0 0 0 
trait 3 1 1 0.901276 1 0.457368 1 0.634919 0 
node 1 2 1 3
node 2 3 1 1
node 3 2 1 1
node 4 3 1 1
node 5 1 1 1
node 6 1 1 1
node 7 3 1 1
node 8 2 1 1
node 9 2 1 1
node 10 3 1 1
node 11 2 1 1
node 12 2 1 1
node 13 1 1 1
node 14 3 1 1
node 15 3 1 1
node 16 2 1 1
node 17 2 0 2
node 18 2 0 2
node 19 1 0 0
node 32 1 0 0
node 44 1 0 0
node 58 1 0 0
node 122 1 0 0
nodegru 140 0 0 -0.53010583705273728 -1.7395716571433337 1.2682410075879846 -0.25711732288222633 1.5486951903666812 [ 2.705995214500462 0.18450725413137453 ] [ 0.48226619417884664 -0.013858254539714312 ] [ -0.92012832344981299 -0.092945985190079544 ]
nodegru 245 0 0.74690540903103775 0.70479305982812912 -0.33393836898446949 -0.87450207996857454 -1.9007669508693588 3.3355723207749297 [ -0.63213992101705618 1.4472411826472922 -1.2476077483722978 -0.25437919574527962 ] [ -0.20337669234880085 0.18579270489783622 0.71315336214059644 0.32043382097987172 ] [ 0.27911052493337107 0.97742825722202131 0.75147303985500391 -0.20393013369940693 ]
node 249 1 0 0
node 324 3 0 0
nodegru 352 0 0.1334710030972357 0.71895373273592145 0.77022745216741573 1.0357134665994501 0.21848818146087612 -1.0000998852774967 [ 0.98514204273705475 -0.03787246860464677 -0.29147147924707806 0.16658894818582989 ] [ 1.1492405333087037 0.64662549674819481 0.23367664508227093 0 ] [ -0.12642282870431565 -0.20811410455876689 -0.55076967065724058 -0.65688852181513258 ]
node 382 1 0 0
nodegru 390 0 0 -0.25403420883418726 -0.42021192967435894 -0.62493252154669376 0 0 [ -0.59246795873272606 0 ] [ -1.031214465750947 0 ] [ -0.73816284932576259 0 ]
nodegru 440 0 -0.038579788076961274 -0.41999219459015513 -0.89339316270472169 -0.12659074162439946 0.56489325643744936 -0.66759131390954896 [ 1.0658761069951004 ] [ 0.037841484899558853 ] [ -0.58859720841916152 ]
nodegru 451 0 0 -0.69373439796908487 -0.59459111471408566 0.10008616598792662 -0.78456677067306213 0.42980526372781269 [ 0.38824065094266114 ] [ 0.24680273828413465 ] [ -0.33841907213834072 ]
nodegru 492 0 1.0125233853526987 -0.1512293823301929 -0.10556838084271569 -1.2465612796352064 0.98652887332091521 -0.51145427628022355 [ 0.12932467501579076 0 ] [ 0.44347067512267768 0 ] [ -0.45904409336347329 0 ]
node 545 3 0 0
node 574 1 0 0
node 683 1 0 0
nodegru 693 0 0 0 0 0 0 0 [ 0 ] [ 0 ] [ 0 ]
gene 2 1 17 0.15738829896198042 0 1 0.15738829896198042 1
gene 3 2 17 0.67993431430306894 0 2 0.67993431430306894 1
gene 3 3 17 -1.171056381273575 0 3 -1.171056381273575 0
gene 1 4 17 0.08072046881109482 0 4 0.08072046881109482 1
gene 2 5 17 -5.1589635073481883 0 5 -5.1589635073481883 1
gene 1 6 17 -3.1768128262724789 0 6 -3.1768128262724789 1
gene 1 7 17 0.39745853161320949 0 7 0.39745853161320949 1
gene 2 8 17 -2.1061449874453926 0 8 -2.1061449874453926 1
gene 3 9 17 1.1691468673148866 0 9 1.1691468673148866 0
gene 1 10 17 0.25414026330883627 0 10 0.25414026330883627 0
gene 1 11 17 -1.7645715491448397 0 11 -1.7645715491448397 1
gene 2 12 17 0.3576259217726187 0 12 0.3576259217726187 0
gene 3 13 17 -0.90359618545211673 0 13 -0.90359618545211673 1
gene 3 14 17 -0.77043865971287662 0 14 -0.77043865971287662 1
gene 3 15 17 -4.7843845123585247 0 15 -4.7843845123585247 1
gene 1 16 17 -5.283731125078039 0 16 -5.283731125078039 1
gene 1 1 18 1.8428644616356418 0 17 1.8428644616356418 1
gene 3 2 18 -0.65026600770664689 0 18 -0.65026600770664689 0
gene 1 3 18 -0.6810866701095768 0 19 -0.6810866701095768 1
gene 3 4 18 2.293264191734262 0 20 2.293264191734262 0
gene 1 5 18 0.63353095966555673 0 21 0.63353095966555673 0
gene 3 6 18 1.709792078104704 0 22 1.709792078104704 0
gene 2 7 18 0.026196713920774294 0 23 0.026196713920774294 1
gene 3 8 18 1.4685860811586424 0 24 1.4685860811586424 1
gene 1 9 18 -3.0782931541690104 0 25 -3.0782931541690104 1
gene 3 10 18 -0.63825188641820652 0 26 -0.63825188641820652 1
gene 3 11 18 -0.03014590313199228 0 27 -0.03014590313199228 1
gene 1 12 18 2.3701170702092895 0 28 2.3701170702092895 1
gene 1 13 18 3.8827990297613666 0 29 3.8827990297613666 1
gene 1 14 18 0.51094656799032623 0 30 0.51094656799032623 0
gene 3 15 18 -1.7927981899319207 0 31 -1.7927981899319207 1
gene 1 16 18 -3.3353787379271251 0 32 -3.3353787379271251 0
gene 2 2 19 1.2366331395398051 0 33 1.2366331395398051 0
gene 3 19 18 -0.49786212725930956 0 34 -0.49786212725930956 1
gene 1 5 32 -0.40544251615900667 0 130 -0.40544251615900667 1
gene 1 32 18 -2.2514825107070999 0 131 -2.2514825107070999 0
gene 2 13 32 -0.17416937517662068 0 173 -0.17416937517662068 1
gene 3 3 44 -0.26602485939675236 0 216 -0.26602485939675236 0
gene 3 44 17 0.41889271695115238 0 217 0.41889271695115238 1
gene 2 15 32 1.1805544473140286 0 310 1.1805544473140286 0
gene 3 4 58 -1.272838041429798 0 322 -1.272838041429798 1
gene 3 58 18 0.67701779779839188 0 323 0.67701779779839188 1
gene 1 11 32 1.516240287114047 0 477 1.516240287114047 1
gene 2 5 44 -1.2162102723802488 0 487 -1.2162102723802488 1
gene 1 6 44 0.80793299307484767 0 634 0.80793299307484767 0
gene 2 9 44 -0.088942304178579956 0 650 -0.088942304178579956 1
gene 1 12 122 -0.93562972891872265 0 699 -0.93562972891872265 1
gene 1 122 17 0.34681613957361129 0 700 0.34681613957361129 1
gene 3 16 58 -0.73764996905236047 0 854 -0.73764996905236047 1
gene 3 9 140 -0.97487252169515604 0 878 -0.97487252169515604 1
gene 3 140 17 3.4983424171797655 0 879 3.4983424171797655 1
gene 3 19 44 1.714632908680771 0 901 1.714632908680771 1
gene 2 4 122 -1.6955061903900965 0 1043 -1.6955061903900965 1
gene 1 3 19 1.0361493788827907 0 1249 1.0361493788827907 1
gene 1 1 19 0.83266247405328908 0 1443 0.83266247405328908 1
gene 1 58 122 -1.2173163039690427 0 1458 -1.2173163039690427 1
gene 1 7 32 -0.14852228290332603 0 1634 -0.14852228290332603 1
gene 3 15 122 3.0271517940690518 0 1660 3.0271517940690518 1
gene 3 44 44 -0.56220108215333953 1 1666 -0.56220108215333953 1
gene 1 32 245 0.27185011528052849 0 1689 0.27185011528052849 1
gene 1 245 18 0.23414771048545269 0 1690 0.23414771048545269 1
gene 1 16 249 2.1141384922033821 0 1704 2.1141384922033821 1
gene 1 249 18 1.5007473682056869 0 1705 1.5007473682056869 1
gene 1 18 18 -2.050710391276847 1 1850 -2.050710391276847 1
gene 2 32 32 2.337270433007399 1 2066 2.337270433007399 1
gene 3 249 245 -1.2345653736193503 0 2237 -1.2345653736193503 1
gene 2 15 324 2.0912459301023025 0 2265 2.0912459301023025 1
gene 2 324 32 2.9294053106365681e-05 0 2266 2.9294053106365681e-05 1
gene 1 11 122 0.59336506602976691 0 2440 0.59336506602976691 0
gene 2 324 324 0.60246251667964401 1 2448 0.60246251667964401 1
gene 1 10 352 -1.1335866233024683 0 2502 -1.1335866233024683 1
gene 1 352 17 -0.78291333899037596 0 2503 -0.78291333899037596 1
gene 1 8 249 -3.2949530016840218 0 2583 -3.2949530016840218 1
gene 2 140 245 -0.588989757741331 0 2643 -0.588989757741331 1
gene 1 9 324 0.4630370640489444 0 2647 0.4630370640489444 1
gene 1 249 249 0.44860409593610284 1 2662 0.44860409593610284 1
gene 3 6 382 1.5559230173499898 0 2766 1.5559230173499898 1
gene 1 382 44 0.28622585129282713 0 2767 0.28622585129282713 0
gene 1 14 352 1.3822355169720182 0 2814 1.3822355169720182 1
gene 3 3 390 -1.0180121342502593 0 2841 -1.0180121342502593 1
gene 3 390 17 -1.2375926732726359 0 2842 -1.2375926732726359 1
gene 1 7 44 -0.46645858160520837 0 2995 -0.46645858160520837 1
gene 1 11 440 1.0860057752979946 0 3180 1.0860057752979946 1
gene 1 440 122 -1.248019128804104 0 3181 -1.248019128804104 0
gene 2 19 19 -0.12740785157187262 1 3211 -0.12740785157187262 1
gene 1 382 451 0.48421997157121999 0 3270 0.48421997157121999 1
gene 1 451 44 0.14842777135708723 0 3271 0.14842777135708723 1
gene 2 8 44 1.399668386741387 0 3370 1.399668386741387 1
gene 2 2 324 0.95987456150347106 0 3505 0.95987456150347106 1
gene 1 15 352 0.53112055386003132 0 3548 0.53112055386003132 1
gene 2 5 19 0.4691690995680024 0 3603 0.4691690995680024 1
gene 2 2 492 0.038446923386513621 0 3611 0.038446923386513621 0
gene 2 492 19 0.1988762459712457 0 3612 0.1988762459712457 1
gene 1 58 32 -2.9734021721982411 0 3756 -2.9734021721982411 1
gene 1 6 58 -0.2234729932264764 0 3767 -0.2234729932264764 1
gene 3 492 32 -0.03927255516837936 0 3775 -0.03927255516837936 1
gene 2 8 352 -1.7862519673240611 0 3859 -1.7862519673240611 1
gene 3 249 122 -0.42015355076647998 0 3892 -0.42015355076647998 0
gene 2 7 245 1.2364346054319453 0 3903 1.2364346054319453 1
gene 1 440 545 -0.31223798103734757 0 3944 -0.31223798103734757 1
gene 1 545 122 -0.14080186485815879 0 3945 -0.14080186485815879 1
gene 2 32 44 -0.29885134091547283 0 4039 -0.29885134091547283 1
gene 3 11 382 0.41621603300618759 0 4092 0.41621603300618759 1
gene 3 140 32 0.54127691071074302 0 4116 0.54127691071074302 1
gene 3 249 574 -0.16658387853139248 0 4139 -0.16658387853139248 1
gene 3 574 122 -0.21904887839641837 0 4140 -0.21904887839641837 1
gene 1 58 574 0.31590425854823767 0 4316 0.31590425854823767 1
gene 2 2 140 0.014726849512535473 0 4339 0.014726849512535473 1
gene 2 14 574 -1.9848205672971999 0 4460 -1.9848205672971999 1
gene 3 58 17 1.3112923391448765 0 4525 1.3112923391448765 1
gene 3 13 44 -0.51936266688600308 0 4623 -0.51936266688600308 1
gene 1 19 122 -0.082032469255864784 0 4734 -0.082032469255864784 1
gene 2 122 574 -0.49544317915357799 1 4755 -0.49544317915357799 1
gene 1 140 390 -0.1033890954467418 0 4917 -0.1033890954467418 1
gene 3 3 683 1 0 4975 0 1
gene 3 683 44 -0.26602485939675236 0 4976 0 1
gene 3 13 122 0.65697715974272097 0 5025 0.65697715974272097 1
gene 2 2 693 1 0 5036 0 1
gene 2 693 492 0.038446923386513621 0 5037 0 1
gene 3 382 382 0.43719374036285735 1 5048 0.43719374036285735 1
genomeend 1
