genomestart 1
trait 1 0 0.915104 0.46212 0.645282 0 0 0.903556 0.610506 
trait 2 0.687848 0.90169 0 0.363218 0.285835 0.189106 0 0.678696 
trait 3 0 1 0 1 0 0.103568 1 0.523126 
node 1 3 1 3
node 2 3 1 1
node 3 2 1 1
node 4 3 1 1
node 5 1 1 1
node 6 2 1 1
node 7 1 1 1
node 8 1 1 1
node 9 2 1 1
node 10 2 1 1
node 11 2 1 1
node 12 3 1 1
node 13 2 1 1
node 14 1 1 1
node 15 1 1 1
node 16 2 1 1
node 17 1 0 2
node 18 2 0 2
nodegru 26 0 0 0.24118606128785108 -0.69623615299176245 -0.60847827215142469 -0.32128447867989751 -0.84210536691458215 [ -0.4107854160996085 0.412160609109402 -0.5907396574461552 0.054545497547157804 -0.8322304239646674 2.0598278139065149 -0.071580371852768776 -0.93791548229656907 0 0.72858377254036433 0.74967572407316219 -1.4417187811069745 0 0 ] [ -0.12098425143444178 0.63216646440893698 -0.53530392564614482 -0.34640168275050898 -0.023015742200899636 1.4349042973177992 -1.1029096029712397 0.19479466355163358 0.5783086698866956 -0.74039889138210513 0 0 0 0 ] [ 0.6433526031409168 0.66970207200837417 0.24592607433252317 -0.77454375302165002 1.1635276734193449 0.94390732908803376 0 1.3611484178626669 -0.98591528133764639 0 -0.85858831175537231 1.2980229450846197 0 0 ]
nodegru 62 0 -1.0132947170703182 1.9571345690438218 -0.97177352498833725 -1.3657648816545329 -0.76116672030704402 -1.1875735494250308 [ 0.89348695864597671 2.6050494986609785 -0.5145987067439588 -1.1891208724999431 -0.38375284028414303 1.2896261053577187 0.026670843608058492 0 ] [ 1.3536250478837757 -1.3528541537713512 -0.25621068070466196 0.63158467022310227 1.1964500791842352 0 0.71587772025534779 0.17702468655864925 ] [ -1.2723758419847002 -0.66738264573150441 0.29006553408227198 0.80345479017284449 -0.50090085878078872 0.34437438745255322 -1.0047201048604772 0 ]
nodegru 72 0 3.0132542594863354 0.72344515320074054 -1.6055769541326805 -0.105738535572653 -0.50350023573427483 -1.2578728996486743 [ -1.1476490086166415 2.1174016183323232 0.68484727837371051 1.8557726358323232 1.8366119013338407 0.96130405783713979 -0.92577160635300526 0 0 0.27236445633338974 -0.33026954081387705 0 ] [ -1.1194514530335793 0.47361319441050909 2.3672413939457577 0.82602386145201678 1.0182562854691672 -2.1457328380298488 -0.1716078606767617 0.41057592230410123 0 0 0 0 ] [ 3.5881786828805593 0.91156774219664172 -2.3892504409371176 0.30194140984767182 0.92577420893394113 0.97340519096395239 -0.47463270624849602 -0.19464748082433248 0 0 0 0 ]
nodegru 141 0 -1.16666328262848 -0.073891695623235609 -1.2744217038966816 -0.11248049075365085 -1.9309077749172725 -0.37464087823156333 [ 0.53627025500697556 -3.3219086985671469 1.1226255149220234 0.59368296065073589 ] [ -0.67967110321841706 -1.2180983481081662 0.6123394503315629 -1.1461684620688521 ] [ 1.2060447298949795 -0.5784528965961433 -0.11082003713157951 0 ]
node 147 1 0 0
node 162 1 0 0
node 174 1 0 0
node 179 1 0 0
nodegru 287 0 -0.38490224018921249 -1.5484967879245506 -1.4949319493001942 2.7509491095556644 -0.97418486581844499 -1.4382137716460106 [ 1.0798087711817626 1.0139880136186201 1.7858467832141773 -1.0421851913175477 -0.1109516050717568 ] [ -0.24010628496301667 -2.0577597511269898 -1.5918140535204734 -0.40827010195156099 0.18229987993012176 ] [ 0.50976290391281387 0.10439950139466647 -2.5032113944195262 0.79247832335181456 0.38544208993457352 ]
node 303 1 0 0
nodegru 321 0 -0.73888727870717985 2.3069872426832965 -0.15417633375813056 0.50214976375091347 -0.1540256543802217 1.4044458085691769 [ -0.75355891033707134 0 ] [ -2.3384220401469724 0.85599237347766399 ] [ 0.2906903302253645 0 ]
node 373 1 0 0
nodegru 378 0 -1.1877868555894993 -0.55714945637488245 0.14443955321071644 -1.4493032223308941 0.78626190022857023 0.1189085625200107 [ 2.6506141816035913 -1.1761033612657821 ] [ 2.9316207726633272 1.1940616775276429 ] [ 0.27283879521900734 0.079978729402636617 ]
node 417 1 0 0
node 446 2 0 0
nodegru 462 0 -1.755965453458934 1.2235131700167028 0.74916894023733616 1.7078948895018058 0.33124435755016485 1.0425063544150937 [ 0.61049739858624408 1.2199618938471946 0 ] [ -1.4316369734851815 0.99567341618038419 -0.3311762140743324 ] [ 0.51763081411720768 0 0 ]
nodegru 473 0 -0.71478580064828778 0.13012335758196336 -0.28940119910491668 -1.0321214718428076 -3.4663564241334592 -0.33640766648408382 [ -0.51708744187703681 ] [ 0.89090036269784922 ] [ 0.62788544787461187 ]
nodegru 481 0 0.88765839272535341 -0.60707054059350418 0.65172221774781225 0.72536685956891933 -0.63752163790050964 1.1158463741260798 [ 0 1.2402316700854485 ] [ 1.1451248194301151 0 ] [ 0.46885951956215288 0 ]
node 525 1 0 0
node 531 1 0 0
node 537 1 0 0
nodegru 564 0 0 0 0 0 0 0 [ 0.41148279742872473 -0.086509557713991755 ] [ -0.41038677627704423 0.068264296077314907 ] [ 0 0 ]
nodegru 590 0 0 0 0 0 1.2795871795525715 0 [ 0 0 ] [ 0 0 ] [ 0 0 ]
node 635 3 0 0
node 648 1 0 0
nodegru 680 0 0 0 0 0 0 0 [ 0 0 ] [ 0 1.1650088108913084 ] [ 0 -1.214837217803503 ]
node 766 1 0 0
node 770 1 0 0
node 796 1 0 0
node 812 1 0 0
node 819 1 0 0
node 864 1 0 0
gene 3 1 17 0.44407206445190683 0 1 0.44407206445190683 1
gene 3 2 17 1.0910491352393523 0 2 1.0910491352393523 1
gene 2 3 17 -2.4704713495310728 0 3 -2.4704713495310728 1
gene 3 4 17 -0.57909209564285913 0 4 -0.57909209564285913 1
gene 3 5 17 -4.6269029724071267 0 5 -4.6269029724071267 1
gene 3 6 17 -0.79754850235653496 0 6 -0.79754850235653496 1
gene 2 7 17 -1.822009637636137 0 7 -1.822009637636137 1
gene 1 8 17 -0.44069947718675229 0 8 -0.44069947718675229 1
gene 1 9 17 0.28578186258011584 0 9 0.28578186258011584 1
gene 1 10 17 1.4214502838074463 0 10 1.4214502838074463 1
gene 2 11 17 -2.3217830403343696 0 11 -2.3217830403343696 0
gene 2 12 17 3.6494861285432645 0 12 3.6494861285432645 1
gene 1 13 17 1.2880747030899276 0 13 1.2880747030899276 1
gene 3 14 17 -1.0019517920454741 0 14 -1.0019517920454741 0
gene 2 15 17 -8 0 15 -8 1
gene 3 16 17 -1.444895423224613 0 16 -1.444895423224613 1
gene 1 1 18 -1.0422070478285694 0 17 -1.0422070478285694 1
gene 2 2 18 -0.84770844147899571 0 18 -0.84770844147899571 1
gene 3 3 18 0.069556509642655306 0 19 0.069556509642655306 1
gene 2 4 18 2.6441434333772134 0 20 2.6441434333772134 1
gene 3 5 18 0.50390744465585224 0 21 0.50390744465585224 1
gene 1 6 18 -1.8129020006455958 0 22 -1.8129020006455958 1
gene 3 7 18 -0.6226850587980286 0 23 -0.6226850587980286 1
gene 2 8 18 1.0733070490291843 0 24 1.0733070490291843 0
gene 1 9 18 -1.7238034197240153 0 25 -1.7238034197240153 0
gene 1 10 18 0.54990794954351518 0 26 0.54990794954351518 1
gene 3 11 18 0.50241687055789719 0 27 0.50241687055789719 1
gene 1 12 18 0.58295617116752863 0 28 0.58295617116752863 1
gene 3 13 18 -1.6477915615065917 0 29 -1.6477915615065917 1
gene 1 14 18 7.7863835854392436 0 30 7.7863835854392436 1
gene 3 15 18 7.8164746683633304 0 31 7.8164746683633304 1
gene 3 16 18 -1.0173910153179386 0 32 -1.0173910153179386 0
gene 3 16 26 0.36162967857049294 0 57 0.36162967857049294 1
gene 3 26 17 0.44713678930287099 0 58 0.44713678930287099 1
gene 2 12 26 -0.66604266719242688 0 127 -0.66604266719242688 0
gene 1 7 26 0.87502967467300108 0 141 0.87502967467300108 0
gene 1 5 26 -1.4594343462770034 0 148 -1.4594343462770034 0
gene 1 1 26 0.46719630619846109 0 203 0.46719630619846109 1
gene 2 11 62 -0.43713875042141359 0 248 -0.43713875042141359 0
gene 2 62 17 0.73540358372749925 0 249 0.73540358372749925 1
gene 2 26 62 -1.0405789057447481 0 287 -1.0405789057447481 1
gene 1 9 72 -0.78345935572099834 0 299 -0.78345935572099834 0
gene 1 72 17 2.3034856446569254 0 300 2.3034856446569254 1
gene 2 4 62 0.073767589672360384 0 405 0.073767589672360384 1
gene 2 4 72 -3.6796905841583816 0 413 -3.6796905841583816 0
gene 3 7 72 0.29653314119043461 0 684 0.29653314119043461 0
gene 3 16 141 -0.039242455055584408 0 758 -0.039242455055584408 1
gene 3 141 18 -0.18969169104923084 0 759 -0.18969169104923084 1
gene 3 3 147 -0.58791580055277604 0 806 -0.58791580055277604 1
gene 3 147 17 0.98460229951171319 0 807 0.98460229951171319 1
gene 1 1 141 0.34337371184647725 0 864 0.34337371184647725 1
gene 1 6 26 2.6892966975873787 0 898 2.6892966975873787 0
gene 2 72 26 1.9990725484672338 0 913 1.9990725484672338 1
gene 1 6 162 0.10461076167626807 0 923 0.10461076167626807 0
gene 1 162 26 -0.63601826323942201 0 924 -0.63601826323942201 1
gene 1 8 174 -0.19586937650845823 0 959 -0.19586937650845823 1
gene 1 174 17 -0.6267851051533524 0 960 -0.6267851051533524 1
gene 1 9 179 -0.81734934044878427 0 993 -0.81734934044878427 1
gene 1 179 72 0.16679552577752413 0 994 0.16679552577752413 0
gene 3 2 72 3.099151075630985 0 1119 3.099151075630985 0
gene 2 2 147 0.64766180731712897 0 1126 0.64766180731712897 1
gene 2 174 174 -1.262688637600601 1 1250 -1.262688637600601 1
gene 1 6 174 0.59729682239577953 0 1254 0.59729682239577953 0
gene 2 72 147 1.1984689841971121 0 1338 1.1984689841971121 1
gene 2 147 62 3.5622355812519024 0 1543 3.5622355812519024 1
gene 1 12 62 -0.95285317229705502 0 1579 -0.95285317229705502 0
gene 1 62 174 -0.40270761046684711 0 1634 -0.40270761046684711 1
gene 2 12 287 -1.0415439526743926 0 1694 -1.0415439526743926 1
gene 1 287 62 0.78214503348904896 0 1695 0.78214503348904896 1
gene 1 1 287 0.74359840212557393 0 1725 0.74359840212557393 1
gene 1 14 26 -0.68653539297475252 0 1734 -0.68653539297475252 1
gene 3 16 147 -1.2093046657784399 0 1741 -1.2093046657784399 1
gene 1 179 303 0.30460004476113245 0 1814 0.30460004476113245 0
gene 1 303 72 -1.4993949593042 0 1815 -1.4993949593042 0
gene 2 147 147 1.3157148502374603 1 1846 1.3157148502374603 1
gene 3 14 321 2.8396722797023468 0 1938 2.8396722797023468 1
gene 3 321 17 1.19892663191954 0 1939 1.19892663191954 1
gene 3 10 147 -1.5682814789788244 0 1956 -1.5682814789788244 1
gene 1 10 303 0.4135449984639627 0 1983 0.4135449984639627 0
gene 3 9 62 1.7133789717747729 0 1987 1.7133789717747729 1
gene 1 13 72 0.75990701455618581 0 2021 0.75990701455618581 0
gene 3 11 162 1.1002830651590054 0 2074 1.1002830651590054 1
gene 3 6 303 1.6192266236148898 0 2092 1.6192266236148898 0
gene 3 10 141 2.0543912290848754 0 2198 2.0543912290848754 1
gene 1 9 373 2.5058415140983845 0 2216 2.5058415140983845 0
gene 1 373 18 -0.9649306251504135 0 2217 -0.9649306251504135 1
gene 1 5 378 -1.0993506014809713 0 2266 -1.0993506014809713 1
gene 1 378 26 1.1115108843015093 0 2267 1.1115108843015093 1
gene 1 6 287 -2.4570278413393662 0 2289 -2.4570278413393662 0
gene 1 14 174 -1.7898036058944666 0 2323 -1.7898036058944666 1
gene 1 303 18 0.46324588240275433 0 2453 0.46324588240275433 1
gene 2 141 147 -0.74075144889799471 0 2513 -0.74075144889799471 1
gene 1 179 417 -1.9692121608970741 0 2527 -1.9692121608970741 1
gene 1 417 303 1.5617617531967172 0 2528 1.5617617531967172 0
gene 3 1 378 -1.9237578683177743 0 2670 -1.9237578683177743 1
gene 3 13 26 -2.9599977582506827 0 2677 -2.9599977582506827 1
gene 3 6 446 0.96270897866352878 0 2721 0.96270897866352878 0
gene 3 446 303 -0.77573471948305839 0 2722 -0.77573471948305839 0
gene 3 287 174 -0.52618570370887663 0 2760 -0.52618570370887663 1
gene 1 5 162 1.3523226761502785 0 2765 1.3523226761502785 1
gene 1 6 462 1.4779369616778273 0 2830 1.4779369616778273 1
gene 1 462 162 -0.85559577185455504 0 2831 -0.85559577185455504 1
gene 3 7 473 0.75564821355773526 0 2911 0.75564821355773526 1
gene 3 473 72 -1.4358899832870298 0 2912 -1.4358899832870298 1
gene 1 7 481 0.56926793445333279 0 2970 0.56926793445333279 1
gene 1 481 26 0.7773507420333805 0 2971 0.7773507420333805 1
gene 3 10 373 -0.88814884162887431 0 2982 -0.88814884162887431 1
gene 2 141 303 0.1305876486611495 0 3127 0.1305876486611495 1
gene 2 14 373 0.437186096299992 0 3136 0.437186096299992 1
gene 2 72 287 -2.4175534639123613 0 3175 -2.4175534639123613 1
gene 1 4 162 -0.36295639693874704 0 3204 -0.36295639693874704 1
gene 2 6 525 -0.79736286555294078 0 3219 -0.79736286555294078 1
gene 1 525 174 2.4392034874480233 0 3220 2.4392034874480233 1
gene 3 6 531 -0.067875458192022231 0 3243 -0.067875458192022231 1
gene 3 531 446 -1.1210481154830418 0 3244 -1.1210481154830418 1
gene 2 12 537 1.23141766094203 0 3280 1.23141766094203 1
gene 2 537 26 -0.55901169523550742 0 3281 -0.55901169523550742 1
gene 2 537 525 -0.73189030132810129 0 3374 -0.73189030132810129 1
gene 3 2 564 0.67691787573365392 0 3439 0.67691787573365392 1
gene 3 564 72 -0.10180055331522625 0 3440 -0.10180055331522625 1
gene 2 162 564 -0.55717011008279882 0 3486 -0.55717011008279882 1
gene 3 481 174 0.46617356802624355 0 3508 0.46617356802624355 1
gene 1 15 537 -0.0041766115483719002 0 3588 -0.0041766115483719002 0
gene 2 303 462 -3.8494103610745687 0 3605 -3.8494103610745687 0
gene 2 525 525 1.4355453906746327 1 3618 1.4355453906746327 1
gene 3 14 72 2.0042568848022526 0 3669 2.0042568848022526 1
gene 1 321 537 0.42673665211849687 0 3674 0.42673665211849687 1
gene 1 1 321 0.11539671622002345 0 3683 0.11539671622002345 1
gene 2 303 590 0.064232962468747434 0 3695 0.064232962468747434 1
gene 1 590 462 1.1036253539396568 0 3696 1.1036253539396568 1
gene 1 4 590 1.1860457065915901 0 3703 1.1860457065915901 1
gene 1 147 525 0.72119216118994733 0 3931 0.72119216118994733 1
gene 1 10 635 -0.33106102367446827 0 3943 -0.33106102367446827 1
gene 1 635 303 -0.8303681145563574 0 3944 -0.8303681145563574 1
gene 1 417 648 1.0313651936740453 0 4008 1.0313651936740453 1
gene 1 648 303 -1.6542494840241266 0 4009 -1.6542494840241266 1
gene 3 648 648 -1.0193346270915749 1 4157 -1.0193346270915749 1
gene 2 8 680 0.55165986789002075 0 4193 0.55165986789002075 1
gene 2 680 18 0.62502942472930512 0 4194 0.62502942472930512 1
gene 1 417 537 0.18101793070371164 0 4216 0.18101793070371164 1
gene 1 4 141 -0.084851497125277064 0 4284 -0.084851497125277064 1
gene 3 525 680 2.4567184967252977 0 4337 2.4567184967252977 1
gene 1 635 26 1.1479763016793765 0 4349 1.1479763016793765 1
gene 3 321 179 -1.4708155535491256 0 4440 -1.4708155535491256 1
gene 1 4 481 -0.58184393173169524 0 4448 -0.58184393173169524 1
gene 3 531 531 1.2031995927464219 1 4685 1.2031995927464219 0
gene 1 303 766 1.8067209128321711 0 4738 1.8067209128321711 1
gene 1 766 72 1.2062973045773326 0 4739 1.2062973045773326 1
gene 2 11 770 2.6651070726407262 0 4761 2.6651070726407262 1
gene 2 770 62 0.64511950274236463 0 4762 0.64511950274236463 1
gene 3 16 303 0.030210095238969708 0 4893 0.030210095238969708 1
gene 1 6 796 -0.16040227313544708 0 4902 -0.16040227313544708 1
gene 1 796 287 -2.4422908602013678 0 4903 -2.4422908602013678 1
gene 3 446 812 2.7265596926335989 0 5000 2.7265596926335989 1
gene 3 812 303 0.92962376700231042 0 5001 0.92962376700231042 1
gene 2 141 162 -0.44877776547743831 0 5041 -0.44877776547743831 1
gene 3 531 819 0.90877640219813993 1 5049 0.90877640219813993 1
gene 3 819 531 1.2261665473813963 0 5050 1.2261665473813963 1
gene 1 11 766 -4.2242766454463254 0 5216 -4.2242766454463254 1
gene 1 141 531 -1.2418330114995282 0 5221 -1.2418330114995282 1
gene 2 4 864 -0.39570340299778778 0 5343 -0.39570340299778778 1
gene 2 864 72 0.0028790377559508372 0 5344 0.0028790377559508372 1
genomeend 1
