genomestart 1
trait 1 1 0.915104 0 0 0 0.141049 0.903556 0.610506 
trait 2 0 1 0 0.158852 0 0 0 1 
trait 3 0 1 0.082988 0.0166104 0 0 0.888417 0.167603 
node 1 3 1 3
node 2 3 1 1
node 3 2 1 1
node 4 3 1 1
node 5 1 1 1
node 6 2 1 1
node 7 1 1 1
node 8 1 1 1
node 9 2 1 1
node 10 2 1 1
node 11 2 1 1
node 12 3 1 1
node 13 2 1 1
node 14 1 1 1
node 15 1 1 1
node 16 2 1 1
node 17 1 0 2
node 18 2 0 2
nodegru 26 0 -0.65168983775735367 -0.16532845104361349 -1.6681228294820165 -0.8581828267118814 -0.32128447867989751 -4.3437698561902023 [ -0.59465270703409456 -0.027020541497981387 -0.21670082966643428 0.054545497547157804 -0.00054205697986398071 1.2845879144894834 1.0779720307690892 0.23426964447566745 0.27017890511554615 0.71641231664289362 1.6364285702055454 -1.2782615242890367 -0.62491431395752084 1.2976661016222397 1.8888600128185284 -0.59855613908663219 ] [ 0.22498029620618573 -0.56743999014955016 0.85982874471686255 0.41748624407569235 -1.2262081244151144 1.6840709641967297 -0.59796092128286182 0.95852773681214432 1.4983504400580889 -1.3559592696167337 -1.2933945678143737 -0.58238261150307147 -0.54944221607849109 -0.45272469751198063 -0.89078619558866423 1.3141644475116228 ] [ 0.6433526031409168 -0.53989257968025872 0.17575391320313971 -0.77454375302165002 0.078014264152391988 1.8064985737700474 0.65826972534799466 -0.01560884924401007 -0.32429849720760173 -0.66453811487394288 -1.1506240834252091 0.51599643030948772 -0.086124645353352944 -0.48602519835626018 0.77194477979650011 0.038536095311183523 ]
nodegru 62 0 -0.31570121893459058 1.9571345690438218 1.2935605106379653 -1.927488652722672 -1.0968022996544848 -1.1875735494250308 [ -0.26316083677260227 4.0847100869681263 -1.8064956282295732 -0.45576958658908007 1.3841621176731596 2.4807976614594449 -0.1952602426499408 0 ] [ 2.3290671398067229 -1.3528541537713512 -0.82489588848543161 0.55803386869748772 -0.20763403070514741 1.345247395031735 1.085643383248543 -0.95833448854197489 ] [ -2.2749832748784602 -1.0832085996322374 0.3816386260472418 -0.14725859959016507 0.048915077023634235 0.34437438745255322 0.8272247849159059 0 ]
nodegru 72 0 -1.4142758657290955 1.4942007742329504 -2.0369172841482412 0.33289005203772803 -0.38009533816021657 -1.2578728996486743 [ -1.4626784340770347 2.3087891185697114 0.68484727837371051 0.50318675744495689 1.1814166496886949 0.93916381799576976 -2.687620570504861 0.27400890960079105 -2.3074752447695821 0.27236445633338974 -0.11696416284747616 ] [ 0.25829900114717852 1.5056874530882052 2.3318812115266363 0.82602386145201678 0.46621082558585836 0.90970880510737595 0.76336677012190535 0.41057592230410123 0 0 0 ] [ 3.5881786828805593 0.91156774219664172 -2.3892504409371176 0.30194140984767182 0.77645350260494905 -1.267511053833883 -1.2985417974640345 -0.56592156997226251 0 0 0 ]
nodegru 141 0 -0.58151618464920496 1.2125298237486415 -1.3340591419646792 0.46253600225901981 -1.2141993200472552 0.72746583620433958 [ -0.14489516762313209 -2.0603108811473061 -1.0383290164351133 0 ] [ 0.54525380420743197 -0.013078724971543405 0 0 ] [ 1.4600047187227778 0.52146350570091216 -0.71516044168507698 0 ]
node 147 1 0 0
node 162 3 0 0
node 174 1 0 0
node 179 1 0 0
nodegru 287 0 -0.52268008097199725 -1.2826571724296811 -0.31546010580633765 0.70179149750703573 0.16323639157378894 -1.1189717958303969 [ 0.53422870488568619 0 0.8141953427410662 -1.2243057711628758 0 ] [ 0.53839982209652648 -2.0577597511269898 -3.0649215895984887 0 0 ] [ -0.44048124944813605 0.2785296806965627 -1.7438664674963178 0 0 ]
node 303 3 0 0
nodegru 321 0 -0.73888727870717985 2.3069872426832965 -0.15417633375813056 0.50214976375091347 -0.1540256543802217 2.0377875834413746 [ -0.75355891033707134 0 ] [ -2.3384220401469724 0.85599237347766399 ] [ 0.2906903302253645 0 ]
node 373 1 0 0
nodegru 378 0 0.12278649752158041 -0.10739694820130102 0.14443955321071644 -2.5310278933174111 0.78626190022857023 1.3676129886264041 [ 2.6506141816035913 -2.628499206913868 ] [ 2.9316207726633272 2.5255222409151137 ] [ 0.27283879521900734 0.079978729402636617 ]
node 417 1 0 0
node 446 2 0 0
nodegru 462 0 -1.755965453458934 1.4084513084536656 0.74916894023733616 1.7078948895018058 0.33124435755016485 0.64707522077815383 [ -1.7485627500566481 1.2199618938471946 0.75324399804381836 ] [ -1.4316369734851815 0.99567341618038419 -0.3311762140743324 ] [ 0.51763081411720768 0 1.1113374103379146 ]
nodegru 473 0 -0.85300905506732372 -0.057767905554626187 -1.3159182056858754 -1.5379408747134455 -2.815671353747915 -1.3776649601653519 [ -0.6810562609141021 ] [ -0.27747224214369071 ] [ 0.66835133040712746 ]
nodegru 481 0 0.88765839272535341 -2.6083469924555844 -0.49397885962109028 0.069494802071477402 -0.64838559024426423 0.3091979894364244 [ -0.098008940740492628 -0.70167680094096663 ] [ -0.956125713165908 -0.31531841043164888 ] [ 2.1754793015660159 -1.3637338284699869 ]
node 525 1 0 0
node 531 1 0 0
node 537 1 0 0
nodegru 564 0 0 0 0 0 0 0 [ 0.41148279742872473 -0.086509557713991755 ] [ -1.0179069934030562 0.068264296077314907 ] [ 0 0 ]
nodegru 590 0 1.0300273224851244 -0.88441651495379237 0.18360878535714409 0.91768155615668823 2.110003233007157 0.85008621767632953 [ 1.2994776872449916 -0.80160288689732684 ] [ 0 0.7738893582829689 ] [ 1.4810239551500528 -0.26547019498677471 ]
node 635 2 0 0
node 648 1 0 0
nodegru 680 0 -0.51627140213561762 -1.2660811633179343 0.84614606520447233 -0.7232802036326752 -0.8591793246377164 -0.16011745955800519 [ 0.65926902632194995 0 ] [ 1.4187028468207936 1.4147803606068625 ] [ -0.37592445983361661 0.90958503163866 ]
node 766 3 0 0
node 769 1 0 0
node 809 1 0 0
nodegru 828 0 0 0 0.41977381073859232 0 0 0 [ 0 ] [ 1.1626192672004081 ] [ 0 ]
nodegru 854 0 0 1.0529532637693702 0 1.3012337218044483 -0.59583443803518743 0 [ 0.76044737978859223 ] [ -1.1856236016310862 ] [ 0 ]
nodegru 855 0 0 0 0 0 0 0 [ 0 ] [ 0 ] [ -0.12761095195431774 ]
nodegru 875 0 0 0 0 0 0 -1.1538146346126752 [ 0.80240669814050514 ] [ 0 ] [ 0 ]
node 908 1 0 0
node 943 1 0 0
node 949 1 0 0
node 955 1 0 0
gene 3 1 17 1.1477165087814054 0 1 1.1477165087814054 1
gene 3 2 17 2.2634425963104903 0 2 2.2634425963104903 1
gene 2 3 17 1.4972554889960472 0 3 1.4972554889960472 1
gene 3 4 17 0.086013946256606855 0 4 0.086013946256606855 1
gene 3 5 17 -8 0 5 -8 1
gene 3 6 17 -0.78460497119678418 0 6 -0.78460497119678418 1
gene 2 7 17 -0.59107846025893385 0 7 -0.59107846025893385 1
gene 1 8 17 -3.3400931655615995 0 8 -3.3400931655615995 0
gene 1 9 17 -1.5629621667614959 0 9 -1.5629621667614959 1
gene 1 10 17 -1.0771517847092598 0 10 -1.0771517847092598 1
gene 2 11 17 -0.99781102919849152 0 11 -0.99781102919849152 0
gene 2 12 17 -0.23723754786757639 0 12 -0.23723754786757639 1
gene 1 13 17 -0.58632407644126738 0 13 -0.58632407644126738 1
gene 3 14 17 0.774032547731899 0 14 0.774032547731899 0
gene 2 15 17 -5.5636882467957633 0 15 -5.5636882467957633 1
gene 3 16 17 -1.3158968458026168 0 16 -1.3158968458026168 1
gene 1 1 18 -0.21947150059019693 0 17 -0.21947150059019693 1
gene 2 2 18 -0.20123870144655887 0 18 -0.20123870144655887 1
gene 3 3 18 1.6736435518477317 0 19 1.6736435518477317 1
gene 2 4 18 3.2944339096054587 0 20 3.2944339096054587 1
gene 3 5 18 0.42112577400222689 0 21 0.42112577400222689 1
gene 1 6 18 -1.834333701447739 0 22 -1.834333701447739 1
gene 3 7 18 -6.6099180623935148 0 23 -6.6099180623935148 1
gene 2 8 18 0.19185221599966862 0 24 0.19185221599966862 0
gene 1 9 18 -1.0811181026888632 0 25 -1.0811181026888632 0
gene 1 10 18 0.52049343870975717 0 26 0.52049343870975717 1
gene 3 11 18 -0.34485146233106567 0 27 -0.34485146233106567 1
gene 1 12 18 3.0111221177555261 0 28 3.0111221177555261 1
gene 3 13 18 1.491615235801607 0 29 1.491615235801607 1
gene 1 14 18 2.4421498374744086 0 30 2.4421498374744086 1
gene 3 15 18 7.2506311821055744 0 31 7.2506311821055744 1
gene 3 16 18 -1.7487689567491267 0 32 -1.7487689567491267 0
gene 3 16 26 1.2668992992336392 0 57 1.2668992992336392 0
gene 3 26 17 -2.0051068698545484 0 58 -2.0051068698545484 0
gene 2 12 26 -1.2696665817730439 0 127 -1.2696665817730439 0
gene 1 7 26 -0.85426846116514343 0 141 -0.85426846116514343 0
gene 1 5 26 -0.75079856521952837 0 148 -0.75079856521952837 0
gene 1 1 26 -0.49758443445786105 0 203 -0.49758443445786105 1
gene 2 11 62 0.8004971245771727 0 248 0.8004971245771727 1
gene 2 62 17 -1.0366163610185573 0 249 -1.0366163610185573 1
gene 2 26 62 -1.0084199872838426 0 287 -1.0084199872838426 0
gene 1 9 72 -0.32769528512269952 0 299 -0.32769528512269952 0
gene 1 72 17 0.43019100135666827 0 300 0.43019100135666827 1
gene 2 4 62 -0.20999114760662946 0 405 -0.20999114760662946 1
gene 2 4 72 1.9659631431409916 0 413 1.9659631431409916 1
gene 3 7 72 -0.18188929659402431 0 684 -0.18188929659402431 0
gene 3 16 141 1.4263196827035023 0 758 1.4263196827035023 1
gene 3 141 18 1.0050696050771837 0 759 1.0050696050771837 0
gene 3 3 147 -1.5085746205917441 0 806 -1.5085746205917441 1
gene 3 147 17 -0.97741904620892317 0 807 -0.97741904620892317 1
gene 1 1 141 2.4705247660030261 0 864 2.4705247660030261 1
gene 1 6 26 -0.60190119179985557 0 898 -0.60190119179985557 0
gene 2 72 26 2.8261012625070752 0 913 2.8261012625070752 1
gene 1 6 162 0.29879683409761487 0 923 0.29879683409761487 0
gene 1 162 26 2.9151420613821326 0 924 2.9151420613821326 1
gene 1 8 174 0.51534404862455285 0 959 0.51534404862455285 1
gene 1 174 17 -1.4576686383027901 0 960 -1.4576686383027901 1
gene 1 9 179 0.10463443915575499 0 993 0.10463443915575499 1
gene 1 179 72 -3.0999008026439236 0 994 -3.0999008026439236 0
gene 3 2 72 1.6393313978981836 0 1119 1.6393313978981836 0
gene 2 2 147 1.0601692043990685 0 1126 1.0601692043990685 1
gene 2 174 174 -1.1417850123912956 1 1250 -1.1417850123912956 1
gene 1 6 174 1.0207015625297564 0 1254 1.0207015625297564 0
gene 2 72 147 0.26258013223418031 0 1338 0.26258013223418031 0
gene 2 147 62 2.0415003251011949 0 1543 2.0415003251011949 1
gene 1 12 62 1.3744037795692701 0 1579 1.3744037795692701 0
gene 1 62 174 0.40620784852942826 0 1634 0.40620784852942826 1
gene 2 12 287 -4.1368119482122419 0 1694 -4.1368119482122419 1
gene 1 287 62 -1.1073092744254085 0 1695 -1.1073092744254085 1
gene 1 1 287 -2.6495918702099432 0 1725 -2.6495918702099432 1
gene 1 14 26 2.7394863226169193 0 1734 2.7394863226169193 1
gene 3 16 147 -1.0349501113104402 0 1741 -1.0349501113104402 1
gene 1 179 303 3.1109347944664463 0 1814 3.1109347944664463 0
gene 1 303 72 1.834190982782371 0 1815 1.834190982782371 0
gene 2 147 147 -1.3518759151230919 1 1846 -1.3518759151230919 1
gene 3 14 321 1.8472116665668836 0 1938 1.8472116665668836 1
gene 1 321 17 2.3280421056915275 0 1939 2.3280421056915275 1
gene 3 10 147 1.9193674407058245 0 1956 1.9193674407058245 1
gene 1 10 303 -5.0369648996447047 0 1983 -5.0369648996447047 0
gene 3 9 62 2.5142491336512607 0 1987 2.5142491336512607 1
gene 1 13 72 1.9284173585141158 0 2021 1.9284173585141158 0
gene 3 11 162 0.48208564239651225 0 2074 0.48208564239651225 1
gene 3 6 303 -1.9714943980665387 0 2092 -1.9714943980665387 0
gene 3 10 141 1.259970701420666 0 2198 1.259970701420666 1
gene 1 9 373 1.2895941032513947 0 2216 1.2895941032513947 0
gene 2 373 18 4.7459759236061831 0 2217 4.7459759236061831 1
gene 1 5 378 -0.64945611364648492 0 2266 -0.64945611364648492 1
gene 1 378 26 -2.7705048894372322 0 2267 -2.7705048894372322 1
gene 1 6 287 -0.91196320807187026 0 2289 -0.91196320807187026 0
gene 1 14 174 -0.92077048375307147 0 2323 -0.92077048375307147 1
gene 1 303 18 -2.327153309633561 0 2453 -2.327153309633561 1
gene 2 141 147 -1.663643793977631 0 2513 -1.663643793977631 1
gene 1 179 417 -1.0567741990353792 0 2527 -1.0567741990353792 1
gene 1 417 303 -2.1176154232200308 0 2528 -2.1176154232200308 0
gene 3 1 378 0.83384074472535441 0 2670 0.83384074472535441 1
gene 3 13 26 -2.2989838362201045 0 2677 -2.2989838362201045 1
gene 3 6 446 0.69269635094920934 0 2721 0.69269635094920934 0
gene 3 446 303 0.34377930445772553 0 2722 0.34377930445772553 1
gene 3 287 174 5.1393659897797583 0 2760 5.1393659897797583 1
gene 1 5 162 -1.2402511992213554 0 2765 -1.2402511992213554 1
gene 1 6 462 -1.3790506340465745 0 2830 -1.3790506340465745 1
gene 1 462 162 0.18992926072791638 0 2831 0.18992926072791638 1
gene 3 7 473 1.4807233528609962 0 2911 1.4807233528609962 1
gene 3 473 72 -2.4546477726915144 0 2912 -2.4546477726915144 1
gene 1 7 481 2.1229382411683622 0 2970 2.1229382411683622 1
gene 1 481 26 1.8121607267820095 0 2971 1.8121607267820095 1
gene 3 10 373 -0.87371650844519766 0 2982 -0.87371650844519766 1
gene 2 141 303 0.77333501762400125 0 3127 0.77333501762400125 1
gene 2 14 373 -1.8291464181752626 0 3136 -1.8291464181752626 1
gene 2 72 287 1.8066000213411637 0 3175 1.8066000213411637 1
gene 1 4 162 -2.252800409566984 0 3204 -2.252800409566984 0
gene 2 6 525 2.392577323081241 0 3219 2.392577323081241 1
gene 1 525 174 -0.6737346154049666 0 3220 -0.6737346154049666 1
gene 3 6 531 -1.7522506575343435 0 3243 -1.7522506575343435 0
gene 3 531 446 1.7197413985709389 0 3244 1.7197413985709389 1
gene 2 12 537 -0.16643375445456909 0 3280 -0.16643375445456909 1
gene 2 537 26 -1.1272103230595636 0 3281 -1.1272103230595636 1
gene 2 537 525 -2.4911107704933317 0 3374 -2.4911107704933317 1
gene 3 2 564 2.8772526452677569 0 3439 2.8772526452677569 1
gene 3 564 72 -1.9081021991596101 0 3440 -1.9081021991596101 1
gene 2 162 564 0.69901976697101253 0 3486 0.69901976697101253 1
gene 3 481 174 1.4562110078782826 0 3508 1.4562110078782826 1
gene 1 15 537 -0.39264875808388411 0 3588 -0.39264875808388411 0
gene 2 303 462 1.0757187509796202 0 3605 1.0757187509796202 0
gene 2 525 525 2.5980695735654189 1 3618 2.5980695735654189 1
gene 3 14 72 1.5368827858645855 0 3669 1.5368827858645855 1
gene 1 321 537 -0.43600576228276167 0 3674 -0.43600576228276167 1
gene 1 1 321 0.25184714503206646 0 3683 0.25184714503206646 1
gene 2 303 590 0.13588737237075699 0 3695 0.13588737237075699 1
gene 1 590 462 -1.1607203791666403 0 3696 -1.1607203791666403 1
gene 1 4 590 -1.0721105952151639 0 3703 -1.0721105952151639 1
gene 1 147 525 0.2133132834980791 0 3931 0.2133132834980791 1
gene 1 10 635 -0.90969171789926084 0 3943 -0.90969171789926084 0
gene 1 635 303 -1.1326371995418507 0 3944 -1.1326371995418507 1
gene 1 417 648 0.83416230736028518 0 4008 0.83416230736028518 1
gene 1 648 303 -3.5791231980915756 0 4009 -3.5791231980915756 1
gene 3 648 648 -0.64860622498607534 1 4157 -0.64860622498607534 0
gene 2 8 680 1.1272200307004248 0 4193 1.1272200307004248 1
gene 2 680 18 0.0732710645875293 0 4194 0.0732710645875293 1
gene 1 417 537 -0.18973636379918846 0 4216 -0.18973636379918846 1
gene 1 4 141 1.1876681720314866 0 4284 1.1876681720314866 1
gene 3 525 680 -1.0095126905988496 0 4337 -1.0095126905988496 1
gene 1 635 26 -2.4961968478729002 0 4349 -2.4961968478729002 1
gene 3 321 179 5.0530354345929975 0 4440 5.0530354345929975 1
gene 1 4 481 -0.81282651019879926 0 4448 -0.81282651019879926 1
gene 3 531 531 7.429797229557205 1 4685 7.429797229557205 1
gene 1 303 766 2.331267210576343 0 4738 2.331267210576343 1
gene 1 766 72 -1.5467323861302493 0 4739 -1.5467323861302493 1
gene 1 10 769 -0.24240638257116376 0 4756 -0.24240638257116376 1
gene 1 769 635 -0.9089853826020774 0 4757 -0.9089853826020774 1
gene 3 1 303 2.3697918932278603 0 4772 2.3697918932278603 1
gene 1 5 648 -0.4240792961437625 0 4847 -0.4240792961437625 1
gene 3 179 26 1.3259436505967492 0 4862 1.3259436505967492 1
gene 3 16 809 -1.6608516695726903 0 4982 -1.6608516695726903 1
gene 3 809 26 1.2464118491608704 0 4983 1.2464118491608704 1
gene 2 26 828 0.61214759275882857 0 5096 0.61214759275882857 1
gene 2 828 62 2.1825221370358587 0 5097 2.1825221370358587 1
gene 3 141 854 0.50377418776218508 0 5264 0.50377418776218508 1
gene 3 854 18 1.678288261256315 0 5265 1.678288261256315 1
gene 2 72 855 -1.6012856488122071 0 5277 -1.6012856488122071 1
gene 2 855 147 0.91187236710073072 0 5278 0.91187236710073072 1
gene 1 4 875 -0.77690463409614985 0 5418 -0.77690463409614985 1
gene 1 875 162 1.2425669619080457 0 5419 1.2425669619080457 1
gene 1 809 303 0.83098833627579194 0 5679 0.83098833627579194 1
gene 3 6 908 0.074364664766175981 0 5686 0.074364664766175981 1
gene 3 908 531 2.1781355518280225 0 5687 2.1781355518280225 1
gene 2 6 635 0.33461213639686449 0 5838 0.33461213639686449 1
gene 3 8 908 0.062849340756819277 0 5847 0.062849340756819277 1
gene 3 648 943 -1.5512914653175005 1 5932 -1.5512914653175005 1
gene 3 943 648 -0.035377979993530526 0 5933 -0.035377979993530526 1
gene 1 875 635 0.49089177185245414 0 5967 0.49089177185245414 1
gene 1 648 18 -1.2302700072667887 0 5982 -1.2302700072667887 1
gene 1 6 949 -0.51098793303174339 0 5991 -0.51098793303174339 1
gene 1 949 287 -0.1885593050106239 0 5992 -0.1885593050106239 1
gene 3 26 955 -0.12723506760189085 0 6026 -0.12723506760189085 1
gene 3 955 17 -0.21073596771375089 0 6027 -0.21073596771375089 1
genomeend 1
