genomestart 1
trait 1 0.48868 1 0 0 0.575879 0 0 0 
trait 2 0 0 0.748944 0.345475 1 0.608331 1 0.835055 
trait 3 0.0567586 0.768412 0.738183 0.343818 0 0.928164 0 0 
node 1 1 1 3
node 2 1 1 1
node 3 2 1 1
node 4 2 1 1
node 5 3 1 1
node 6 1 1 1
node 7 1 1 1
node 8 2 1 1
node 9 2 1 1
node 10 3 1 1
node 11 1 1 1
node 12 1 1 1
node 13 3 1 1
node 14 1 1 1
node 15 2 1 1
node 16 3 1 1
node 17 1 0 2
node 18 3 0 2
node 30 1 0 0
nodegru 31 0 1.6559031231589163 1.10891385707488 -0.89521551523134857 -0.77472717420883808 0.84774302521149769 -0.55079645502883778 [ 2.6328242773342989 -2.2843220791706451 2.4585472142596485 0 0 -1.340633026715663 0 ] [ -0.19750529071199957 1.7048187911067245 0.96656924461320459 0.1345740070727533 0 0 0 ] [ 0.22823163016151238 -3.8178305413191351 -0.93108942589307642 0.05936888398573216 0 0 0 ]
nodegru 59 0 0.075566130259803549 1.0511761340550969 -1.037109556392352 -0.97464327419858576 0.13418569165942523 2.0566949050671863 [ -0.93366592933128878 0.35109973249542509 0 0 0 0 ] [ 0.021768227229718162 0.0037720575946253998 1.0941662267288967 0 0 0 ] [ 0.28809415865135102 -1.7526251127722789 -0.65888472653873476 0 0 0 ]
node 99 1 0 0
node 138 1 0 0
node 156 1 0 0
nodegru 166 0 0.79597153388707509 0.015296262230396374 -0.76412845811067542 0.38879580883718834 -0.017439391937777118 0.33902228732547829 [ 0.36449160606809494 0 ] [ 0.42839770504664521 0 ] [ 2.2181514693508628 0 ]
node 209 1 0 0
node 224 1 0 0
nodegru 242 0 0.086582687025229768 -0.64662518312531758 1.4723390035668102 0 1.5383882301572656 0.17226646662329603 [ -1.5922743024268535 -2.2059247452793294 ] [ 0.74196872196251928 -0.61192491911906977 ] [ -0.39265425521538327 0.27539133689151674 ]
node 256 2 0 0
node 293 1 0 0
node 297 1 0 0
nodegru 299 0 0.17694451644874387 0.96161228486411843 0.045448063428256691 1.4918931412938485 -1.1979404241768368 1.4600548865087586 [ 1.0306269959689245 -1.0952034669905917 0 ] [ -0.16657456693545658 0 0 ] [ 0.78105080885861566 0 0 ]
node 305 1 0 0
node 312 1 0 0
nodegru 324 0 1.0154880648550986 0.36343995102841403 -0.3053712650692888 0.95545172083911112 -0.077015324298765189 0.10413400670706015 [ 1.6514613577870008 0.71129422807660614 ] [ -1.4562718535104169 0 ] [ -0.52570800577556154 0 ]
nodegru 325 0 -0.69582446184746194 0.78279167496729252 0.2762592669000194 -0.62902202696028264 -0.91556938011924249 0.17565416785686006 [ -1.2036610297875763 ] [ -0.56747692919684423 ] [ 0.86107175301810335 ]
node 348 1 0 0
node 356 1 0 0
nodegru 397 0 -0.98867894778432275 -0.12908924237316904 1.0424391818430456 0.91153648607970061 0.71731464458504446 -0.20589840049198754 [ -0.87800146587099948 ] [ 0.65330632201084238 ] [ 0.34061534904903512 ]
node 429 1 0 0
node 472 1 0 0
node 476 1 0 0
nodegru 484 0 0 0 0 0 0 0 [ 0 0 ] [ 0 0 ] [ 0 0 ]
nodegru 490 0 0 0 0 0 0 0 [ 0 ] [ 1.0571130130240287 ] [ 0 ]
nodegru 523 0 0 0 0 0 0 0 [ 0 0 ] [ 0 0 ] [ 0 0 ]
nodegru 561 0 0 0 0 0 -1.0987087635317392 0 [ 0 ] [ 0 ] [ 0 ]
gene 1 1 17 1.9604791041745238 0 1 1.9604791041745238 1
gene 1 2 17 -0.94160221071988448 0 2 -0.94160221071988448 1
gene 2 3 17 0.38976530935138715 0 3 0.38976530935138715 1
gene 1 4 17 1.216955347786171 0 4 1.216955347786171 0
gene 2 5 17 0.10139541192976542 0 5 0.10139541192976542 1
gene 3 6 17 1.2617001667440404 0 6 1.2617001667440404 1
gene 1 7 17 6.6837367593235042 0 7 6.6837367593235042 1
gene 2 8 17 -0.037890241033346594 0 8 -0.037890241033346594 0
gene 1 9 17 -0.6566704889557653 0 9 -0.6566704889557653 1
gene 2 10 17 0.027000081970822102 0 10 0.027000081970822102 0
gene 2 11 17 -1.0465467411775826 0 11 -1.0465467411775826 1
gene 2 12 17 -1.2315063812916662 0 12 -1.2315063812916662 0
gene 2 13 17 0.73329215856887942 0 13 0.73329215856887942 1
gene 2 14 17 -2.694809175652829 0 14 -2.694809175652829 0
gene 2 15 17 2.2136046284407396 0 15 2.2136046284407396 0
gene 3 16 17 0.60739482385450727 0 16 0.60739482385450727 1
gene 3 1 18 -1.9413821510697633 0 17 -1.9413821510697633 1
gene 3 2 18 0.10863683354511711 0 18 0.10863683354511711 1
gene 2 3 18 1.8895861224222865 0 19 1.8895861224222865 0
gene 3 4 18 0.89476064401434752 0 20 0.89476064401434752 1
gene 2 5 18 -0.048370565543123779 0 21 -0.048370565543123779 1
gene 1 6 18 -7.3315348982957822 0 22 -7.3315348982957822 1
gene 2 7 18 -0.070898942682379396 0 23 -0.070898942682379396 1
gene 2 8 18 1.2482868334037656 0 24 1.2482868334037656 0
gene 1 9 18 1.1204461767899088 0 25 1.1204461767899088 1
gene 2 10 18 -2.1407433076020066 0 26 -2.1407433076020066 0
gene 2 11 18 1.3344527498513705 0 27 1.3344527498513705 1
gene 3 12 18 -0.03677020153811672 0 28 -0.03677020153811672 0
gene 2 13 18 -0.41375697469979389 0 29 -0.41375697469979389 1
gene 3 14 18 0.038387966825807453 0 30 0.038387966825807453 1
gene 3 15 18 0.70931205046796797 0 31 0.70931205046796797 1
gene 3 16 18 -1.3713267891999923 0 32 -1.3713267891999923 1
gene 1 3 30 1.1058498893891693 0 74 1.1058498893891693 1
gene 1 30 18 -1.0000848844647803 0 75 -1.0000848844647803 1
gene 3 2 31 -1.3843469386381781 0 79 -1.3843469386381781 1
gene 1 31 18 1.3367781566161563 0 80 1.3367781566161563 1
gene 1 8 31 2.2707311668296954 0 164 2.2707311668296954 1
gene 3 12 59 -0.40419203923279051 0 226 -0.40419203923279051 0
gene 3 59 18 -1.2828604265967667 0 227 -1.2828604265967667 1
gene 1 59 30 -2.6491141359550476 0 494 -2.6491141359550476 0
gene 2 2 59 -1.0506695457970117 0 512 -1.0506695457970117 0
gene 2 8 99 -4.1869292395128541 0 523 -4.1869292395128541 0
gene 2 99 17 1.0133963399629091 0 524 1.0133963399629091 1
gene 1 4 30 -0.91125094327668232 0 664 -0.91125094327668232 0
gene 3 99 99 -1.2293869248728206 1 677 -1.2293869248728206 1
gene 2 14 138 -0.45980290251774836 0 797 -0.45980290251774836 1
gene 2 138 17 -1.9563062134926708 0 798 -1.9563062134926708 0
gene 3 15 156 0.68867982397260152 0 879 0.68867982397260152 1
gene 2 156 17 -2.1378814771947829 0 880 -2.1378814771947829 1
gene 2 138 138 -3.2887092059425589 1 889 -3.2887092059425589 1
gene 3 12 166 -1.9967412555109436 0 937 -1.9967412555109436 1
gene 3 166 59 -0.15554508597382583 0 938 -0.15554508597382583 1
gene 3 59 99 -0.10094476938291685 0 1100 -0.10094476938291685 1
gene 3 14 31 2.9093485318167822 0 1115 2.9093485318167822 0
gene 1 59 209 0.83122080975734658 0 1234 0.83122080975734658 1
gene 1 209 30 -0.14048617339715652 0 1235 -0.14048617339715652 0
gene 1 4 224 2.963840934198275 0 1350 2.963840934198275 0
gene 1 224 17 -1.4980045636175221 0 1351 -1.4980045636175221 1
gene 3 9 209 0.95503709044076357 0 1362 0.95503709044076357 0
gene 2 12 242 -0.45145261797655911 0 1466 -0.45145261797655911 0
gene 2 242 17 0.27575485863525195 0 1467 0.27575485863525195 0
gene 1 4 256 -1.2929047161214542 0 1551 -1.2929047161214542 1
gene 1 256 30 1.8058131666881094 0 1552 1.8058131666881094 1
gene 3 209 18 1.8287342723127147 0 1736 1.8287342723127147 1
gene 2 10 293 2.0227444078879171 0 1773 2.0227444078879171 1
gene 2 293 18 -0.49419965920699749 0 1774 -0.49419965920699749 1
gene 2 8 297 0.10112228971026946 0 1787 0.10112228971026946 1
gene 2 297 99 -0.4364113716578164 0 1788 -0.4364113716578164 1
gene 2 12 299 0.097763159590663007 0 1796 0.097763159590663007 0
gene 2 299 242 3.5648331092972469 0 1797 3.5648331092972469 1
gene 2 8 305 0.89698260133014185 0 1819 0.89698260133014185 1
gene 2 305 18 0.39719063690732725 0 1820 0.39719063690732725 1
gene 3 14 312 -0.95299895105557464 0 1851 -0.95299895105557464 1
gene 3 312 31 0.74798100662789357 0 1852 0.74798100662789357 0
gene 1 209 324 -0.13041769230292077 0 1914 -0.13041769230292077 1
gene 1 324 30 -1.9424081477068402 0 1915 -1.9424081477068402 1
gene 2 10 325 -0.27004865243567555 0 1924 -0.27004865243567555 1
gene 2 325 17 -0.095056423728846151 0 1925 -0.095056423728846151 1
gene 2 2 348 -0.67995110209097698 0 2052 -0.67995110209097698 1
gene 2 348 59 -1.0473474553075375 0 2053 -1.0473474553075375 1
gene 2 242 356 -0.16384605768315774 0 2125 -0.16384605768315774 1
gene 2 356 17 -1.1118927219006665 0 2126 -1.1118927219006665 1
gene 2 348 31 -2.1642260747795117 0 2247 -2.1642260747795117 1
gene 3 312 397 -0.90455616004977191 0 2390 -0.90455616004977191 1
gene 3 397 31 -0.08210286781289744 0 2391 -0.08210286781289744 0
gene 1 30 30 -0.761285890015441 1 2416 -0.761285890015441 1
gene 1 224 59 1.091922775419393 0 2528 1.091922775419393 0
gene 2 12 429 0.71884585973752935 0 2598 0.71884585973752935 1
gene 2 429 299 2.2135500126581409 0 2599 2.2135500126581409 1
gene 1 4 472 -0.064411325177369305 0 2833 -0.064411325177369305 1
gene 1 472 224 -1.2229908831524621 0 2834 -1.2229908831524621 1
gene 3 397 476 -0.200922989612875 0 2848 -0.200922989612875 1
gene 3 476 31 0.61766464664492038 0 2849 0.61766464664492038 1
gene 2 138 484 -1.5002103021835025 0 2897 -1.5002103021835025 0
gene 2 484 17 -1.6914977690631052 0 2898 -1.6914977690631052 1
gene 2 138 490 1.7758960503972583 0 2932 1.7758960503972583 1
gene 2 490 484 1.8454634981907265 0 2933 1.8454634981907265 1
gene 1 224 523 0.26119400433320272 0 3138 0.26119400433320272 1
gene 1 523 59 -1.1439196191001308 0 3139 -1.1439196191001308 1
gene 2 4 209 -0.038554755988789102 0 3211 -0.038554755988789102 1
gene 3 9 561 0.28475261562725185 0 3350 0.28475261562725185 1
gene 3 561 209 0.95503709044076357 0 3351 0.95503709044076357 1
gene 1 12 324 -1.1534780457864877 0 3608 -1.1534780457864877 1
gene 2 99 166 0.21455736817538612 1 3616 0.21455736817538612 1
gene 3 429 429 -0.31700312756793719 1 3664 -0.31700312756793719 1
gene 3 523 312 -0.85634399198756739 0 3674 -0.85634399198756739 1
gene 1 7 523 -0.78915836396122274 0 3722 -0.78915836396122274 1
gene 2 11 256 0.10648074983920937 0 4015 0.10648074983920937 1
gene 3 256 299 0.66514508620144097 0 4040 0.66514508620144097 1
gene 1 30 476 -0.26540608483618411 0 4232 -0.26540608483618411 1
genomeend 1
