genomestart 1
trait 1 0.432418 1 0 0.146954 0.996002 0 0.621085 0 
trait 2 0.454066 0.178242 1 0.823979 1 0 0.00264787 0.506992 
trait 3 1 0.796473 0.920281 0 0 0.985186 0 0.825216 
node 1 1 1 3
node 2 1 1 1
node 3 2 1 1
node 4 2 1 1
node 5 3 1 1
node 6 1 1 1
node 7 1 1 1
node 8 2 1 1
node 9 2 1 1
node 10 1 1 1
node 11 1 1 1
node 12 3 1 1
node 13 3 1 1
node 14 1 1 1
node 15 2 1 1
node 16 3 1 1
node 17 1 0 2
node 18 3 0 2
node 30 2 0 0
nodegru 31 0 1.6559031231589163 1.9971055504852466 -1.096094448629811 1.2495148548621287 1.9851005144813567 -0.16376690318052051 [ 2.6328242773342989 -2.6556091253439007 0.38380144833764152 0 0.31085920371620879 -1.2783996894855052 -0.2844937289061461 0.31863387851912245 ] [ 1.0769631073702886 1.554450712890574 0.019233666136503902 0.56332165308451354 0 -0.14707944060074141 -0.61148752067773016 -0.83436857132910225 ] [ 0.40629145382265153 1.3186611730226601 0.1977616568085559 0.05936888398573216 0 0 0.3650248641451006 0 ]
nodegru 59 0 0.87040336284339581 0.85423496149211908 -1.2917447019329971 0.18086462080518939 0.955126267604123 -2.0667540368469215 [ 0.36931648099297476 -0.015289168346342252 -0.49989035469474752 -0.90306886397445052 0 0 ] [ -1.1054649958878127 -0.29701929367008573 1.3987194466864317 0.6055883986901438 0 0 ] [ 0.49126257188211309 -3.2867585512747794 -0.65888472653873476 -1.2744865106765584 0 0 ]
node 99 1 0 0
node 138 1 0 0
node 156 1 0 0
nodegru 166 0 0.79597153388707509 0.015296262230396374 -1.124705815280185 -0.49878489552009153 -1.3035634480433369 -0.73782760498012789 [ 0.36449160606809494 0 -0.2976797736704721 ] [ 0.42839770504664521 -1.0158719085230827 0.35454536664976988 ] [ 2.2509136361772724 -0.68548264758916699 0 ]
node 209 1 0 0
node 224 1 0 0
nodegru 242 0 0 0.45709709006226484 0 -1.0701138945622899 -0.60653577936186265 -2.2583927678681874 [ -0.19571705637300249 -0.67915610162501971 ] [ 0.68910854784264619 0 ] [ 0 -0.26930627495483789 ]
node 256 2 0 0
node 293 1 0 0
node 297 1 0 0
nodegru 299 0 0.66430649425103627 1.2098715499555093 1.3150807983777861 -0.2602876775247453 -0.81453935071571726 2.4139597864886557 [ 1.4194151199978848 -0.92459452241873108 0 -1.287462166877213 ] [ 1.9780543960994366 -0.40072545660693448 0 0 ] [ -0.39374951780482642 -0.37581492721839571 0 0 ]
node 305 1 0 0
node 312 1 0 0
nodegru 324 0 -1.2750224907766199 -0.91246231059192773 -4.0200169426482253 1.0698518252791149 -1.249250583233894 -2.394288469056733 [ 1.3053306926997987 1.0796434723677315 -0.16681855435800672 0 ] [ -1.133816393620249 -0.34927494118422031 -1.1734893222681662 0 ] [ -1.8721110249739659 -0.754478947843648 1.2778890101601785 0 ]
nodegru 325 0 -0.9121432387792241 -0.67180696417196062 -2.6735013363293847 1.1906338165004895 0.0925965258351511 -0.70260023661078896 [ 0.13878958119954421 2.0137513054133165 ] [ -1.2877585614508755 0.97125103346596053 ] [ 0.85769835829627616 1.584912185596727 ]
node 348 1 0 0
node 356 1 0 0
nodegru 397 0 -0.32678053240607519 1.4369524684441055 0.47724910475185561 0.96308716384837734 0.62049098597862329 -0.37830093474048221 [ -1.4376486113470275 0 ] [ 0 0 ] [ 0 0 ]
node 403 2 0 0
node 409 1 0 0
node 425 1 0 0
nodegru 452 0 0.82283628095073458 1.1828740447214219 0.72559462591334922 1.13416613062572 -1.0330352166355752 -0.31808128967791854 [ -0.34847609971113319 ] [ -1.6873957243223654 ] [ 0.09657202269722337 ]
node 460 1 0 0
node 465 1 0 0
node 482 1 0 0
nodegru 524 0 0.33307459290748209 -0.7612116326397339 1.4462427219591303 1.1764541879186659 -0.059023353997163172 -1.3357481108213531 [ -0.22089651633095764 0 ] [ 0 0 ] [ -0.46045107509030547 0 ]
node 526 1 0 0
node 574 1 0 0
node 575 1 0 0
nodegru 619 0 0 0 0 0 0 0 [ 0 ] [ 0 ] [ 0 ]
node 656 1 0 0
nodegru 734 0 0 -0.36862187896325338 0 0 0 0 [ 0 ] [ 0 ] [ 0 ]
node 836 1 0 0
nodegru 885 0 0.23686548775847327 -1.1150675116177031 0 1.1497383509528536 0 0 [ 0 ] [ 0 ] [ 0 ]
node 915 1 0 0
gene 1 1 17 -0.3010890184906726 0 1 -0.3010890184906726 1
gene 1 2 17 -1.0047502650435782 0 2 -1.0047502650435782 1
gene 2 3 17 1.3921647557952277 0 3 1.3921647557952277 1
gene 1 4 17 0.14406894177387886 0 4 0.14406894177387886 1
gene 2 5 17 0.013800420106295508 0 5 0.013800420106295508 1
gene 3 6 17 -1.2111997281718998 0 6 -1.2111997281718998 1
gene 2 7 17 6.4883605474551951 0 7 6.4883605474551951 1
gene 2 8 17 1.504200061319489 0 8 1.504200061319489 1
gene 1 9 17 -1.1212454059260177 0 9 -1.1212454059260177 1
gene 2 10 17 1.3320040683411081 0 10 1.3320040683411081 1
gene 2 11 17 -0.29856335688315488 0 11 -0.29856335688315488 0
gene 2 12 17 2.1110708897984916 0 12 2.1110708897984916 0
gene 2 13 17 3.8889942801971893 0 13 3.8889942801971893 1
gene 2 14 17 -0.96648084976080839 0 14 -0.96648084976080839 0
gene 2 15 17 0.044702896170645434 0 15 0.044702896170645434 0
gene 3 16 17 3.5778664357857153 0 16 3.5778664357857153 1
gene 3 1 18 -2.4387198439513895 0 17 -2.4387198439513895 1
gene 3 2 18 1.9993534840174731 0 18 1.9993534840174731 1
gene 2 3 18 -2.81706125280683 0 19 -2.81706125280683 0
gene 3 4 18 1.28301777308016 0 20 1.28301777308016 1
gene 2 5 18 -2.9879481887854396 0 21 -2.9879481887854396 1
gene 1 6 18 -7.8147408989326754 0 22 -7.8147408989326754 1
gene 2 7 18 -2.0556881896013803 0 23 -2.0556881896013803 1
gene 2 8 18 -3.3629397239363472 0 24 -3.3629397239363472 0
gene 1 9 18 -0.57189707065555129 0 25 -0.57189707065555129 1
gene 2 10 18 1.4423562814213131 0 26 1.4423562814213131 0
gene 2 11 18 1.2237314312829317 0 27 1.2237314312829317 1
gene 3 12 18 -0.7362685647030679 0 28 -0.7362685647030679 0
gene 2 13 18 -2.7134206845487565 0 29 -2.7134206845487565 1
gene 3 14 18 0.55174932445015257 0 30 0.55174932445015257 0
gene 3 15 18 0.24496360553659668 0 31 0.24496360553659668 1
gene 3 16 18 -3.682354102228933 0 32 -3.682354102228933 1
gene 1 3 30 -0.73276056988758997 0 74 -0.73276056988758997 1
gene 1 30 18 0.63760600315295446 0 75 0.63760600315295446 1
gene 3 2 31 0.91571255001039842 0 79 0.91571255001039842 1
gene 1 31 18 2.7003698531539975 0 80 2.7003698531539975 0
gene 1 8 31 1.2931571071004295 0 164 1.2931571071004295 1
gene 3 12 59 1.1281342902817457 0 226 1.1281342902817457 0
gene 3 59 18 0.95767507164630816 0 227 0.95767507164630816 1
gene 3 59 30 -0.15385470197249887 0 494 -0.15385470197249887 0
gene 2 2 59 -2.5948681349842198 0 512 -2.5948681349842198 0
gene 2 8 99 -0.49714774568432385 0 523 -0.49714774568432385 0
gene 2 99 17 0.67282882643529618 0 524 0.67282882643529618 1
gene 1 4 30 1.2900098617142111 0 664 1.2900098617142111 0
gene 3 99 99 -0.46961335650161529 1 677 -0.46961335650161529 1
gene 2 14 138 1.1816824880343315 0 797 1.1816824880343315 1
gene 2 138 17 4.1432433860112177 0 798 4.1432433860112177 1
gene 2 15 156 1.8318451807516838 0 879 1.8318451807516838 1
gene 2 156 17 -0.66388944427663887 0 880 -0.66388944427663887 1
gene 2 138 138 -2.0200009865313771 1 889 -2.0200009865313771 1
gene 3 12 166 0.51934468560821601 0 937 0.51934468560821601 0
gene 3 166 59 -1.2564378221316439 0 938 -1.2564378221316439 1
gene 2 59 99 0.16195122509354332 0 1100 0.16195122509354332 0
gene 3 14 31 1.1972311286708486 0 1115 1.1972311286708486 0
gene 1 59 209 2.1600470199063642 0 1234 2.1600470199063642 1
gene 1 209 30 2.739937477856845 0 1235 2.739937477856845 0
gene 1 4 224 -0.022438537805545396 0 1350 -0.022438537805545396 0
gene 1 224 17 0.64062485524482327 0 1351 0.64062485524482327 1
gene 3 9 209 -0.18492486080384068 0 1362 -0.18492486080384068 1
gene 2 12 242 0.035603172395193561 0 1466 0.035603172395193561 0
gene 2 242 17 -2.0955916415413802 0 1467 -2.0955916415413802 0
gene 1 4 256 0.84931439317265256 0 1551 0.84931439317265256 1
gene 1 256 30 1.0678661628942314 0 1552 1.0678661628942314 1
gene 3 209 18 1.7639899962879668 0 1736 1.7639899962879668 1
gene 2 10 293 0.84095115719407376 0 1773 0.84095115719407376 1
gene 2 293 18 0.58400222220644471 0 1774 0.58400222220644471 1
gene 2 8 297 0.024739398166881595 0 1787 0.024739398166881595 1
gene 2 297 99 2.3994020649229189 0 1788 2.3994020649229189 1
gene 2 12 299 -3.0647177398506171 0 1796 -3.0647177398506171 0
gene 1 299 242 1.7312805257883297 0 1797 1.7312805257883297 1
gene 2 8 305 1.0935886779770203 0 1819 1.0935886779770203 1
gene 2 305 18 0.57026349709847168 0 1820 0.57026349709847168 1
gene 3 14 312 0.92246342074240717 0 1851 0.92246342074240717 1
gene 3 312 31 -0.8197779954968849 0 1852 -0.8197779954968849 0
gene 1 209 324 -0.28250292631914042 0 1914 -0.28250292631914042 1
gene 1 324 30 -0.30424850983743024 0 1915 -0.30424850983743024 1
gene 2 10 325 0.28096837796315943 0 1924 0.28096837796315943 1
gene 2 325 17 0.63689560682368263 0 1925 0.63689560682368263 0
gene 2 2 348 2.9485068297705181 0 2052 2.9485068297705181 1
gene 2 348 59 1.7496265616499009 0 2053 1.7496265616499009 1
gene 2 242 356 3.5263612459070801 0 2125 3.5263612459070801 1
gene 2 356 17 -2.5198199525567797 0 2126 -2.5198199525567797 0
gene 2 348 31 0.070450840783515489 0 2247 0.070450840783515489 0
gene 3 312 397 1.4039776555281027 0 2390 1.4039776555281027 0
gene 3 397 31 1.0589120816713722 0 2391 1.0589120816713722 0
gene 2 356 403 -0.47394240553208733 0 2430 -0.47394240553208733 1
gene 2 403 17 -1.003068486462845 0 2431 -1.003068486462845 1
gene 2 325 409 -2.1924616618512487 0 2484 -2.1924616618512487 0
gene 2 409 17 1.7212738877727065 0 2485 1.7212738877727065 1
gene 2 138 30 -1.1584650430169259 0 2525 -1.1584650430169259 1
gene 1 7 138 0.27254176222371951 0 2535 0.27254176222371951 1
gene 2 12 425 1.3938141732447846 0 2578 1.3938141732447846 1
gene 2 425 299 -1.0546596567401005 0 2579 -1.0546596567401005 1
gene 3 14 452 0.3270726151890459 0 2752 0.3270726151890459 1
gene 1 452 18 -0.58788164848828761 0 2753 -0.58788164848828761 1
gene 2 5 156 -0.90550667438912513 0 2765 -0.90550667438912513 0
gene 3 397 460 -0.13072771305717887 0 2782 -0.13072771305717887 0
gene 2 460 31 0.25226023246173779 0 2783 0.25226023246173779 1
gene 3 11 465 -1.1911081029992123 0 2811 -1.1911081029992123 1
gene 2 465 17 0.11095575201835287 0 2812 0.11095575201835287 1
gene 2 5 482 0.38881059940383333 0 2886 0.38881059940383333 1
gene 2 482 156 0.87595577858200113 0 2887 0.87595577858200113 0
gene 1 30 30 -0.44923643788752909 1 2924 -0.44923643788752909 0
gene 3 13 30 0.97562037500348908 0 2986 0.97562037500348908 1
gene 3 356 356 1.0266231249676194 1 3092 1.0266231249676194 0
gene 1 482 325 -1.6321345491484434 0 3110 -1.6321345491484434 1
gene 3 356 524 -1.2873272831958378 1 3144 -1.2873272831958378 1
gene 3 524 356 -0.29094935548070322 0 3145 -0.29094935548070322 1
gene 2 348 526 -0.92242411729992557 0 3153 -0.92242411729992557 1
gene 2 526 31 1.4394349069052543 0 3154 1.4394349069052543 1
gene 1 293 293 3.9809647791464657 1 3190 3.9809647791464657 1
gene 3 425 425 1.8657316478741039 1 3226 1.8657316478741039 1
gene 1 166 403 0.099895378155585093 0 3232 0.099895378155585093 1
gene 1 156 156 -0.17774492254375718 1 3378 -0.17774492254375718 1
gene 3 10 224 0.99914130289067582 0 3481 0.99914130289067582 1
gene 2 325 574 -1.1781730166069109 0 3488 -1.1781730166069109 1
gene 2 574 409 3.2052528423747297 0 3489 3.2052528423747297 1
gene 3 397 575 0.057142718954543918 0 3503 0.057142718954543918 1
gene 3 575 460 -0.59980854839077569 0 3504 -0.59980854839077569 1
gene 2 293 99 -1.3144896353196769 0 3653 -1.3144896353196769 1
gene 1 5 224 -0.76783019572861044 0 3728 -0.76783019572861044 1
gene 1 5 299 -1.4762391492148113 0 3822 -1.4762391492148113 1
gene 3 312 619 -0.16119668547119792 0 3836 -0.16119668547119792 1
gene 3 619 397 -0.61498112795640769 0 3837 -0.61498112795640769 1
gene 3 482 656 -1.250369035755456 0 4036 -1.250369035755456 1
gene 2 656 156 3.8458998495926613 0 4037 3.8458998495926613 1
gene 2 356 324 2.6472266200684134 0 4298 2.6472266200684134 1
gene 3 452 324 -0.91305272207271893 0 4319 -0.91305272207271893 1
gene 2 299 425 -1.1421939067739033 1 4384 -1.1421939067739033 1
gene 2 224 293 2.590437853518146 0 4403 2.590437853518146 1
gene 3 12 734 -0.016414828606142962 0 4628 -0.016414828606142962 1
gene 1 734 166 0.17249371328972918 0 4629 0.17249371328972918 1
gene 2 460 526 0.33030482233981828 0 4858 0.33030482233981828 1
gene 2 465 524 5.341131779524094 0 5079 5.341131779524094 1
gene 2 425 656 1.3930899237250398 0 5175 1.3930899237250398 1
gene 1 4 836 0.31813534596848103 0 5339 0.31813534596848103 1
gene 1 836 224 -0.54667905184751331 0 5340 -0.54667905184751331 1
gene 2 8 59 -1.4389594613755865 0 5349 -1.4389594613755865 1
gene 3 1 482 -0.63773828704736091 0 5432 -0.63773828704736091 1
gene 1 397 224 0.86814327974251637 0 5444 0.86814327974251637 1
gene 1 14 166 -2.4913075775798914 0 5471 -2.4913075775798914 1
gene 2 482 482 2.0534036439160834 1 5600 2.0534036439160834 1
gene 1 348 348 -0.30299301459593375 1 5639 -0.30299301459593375 1
gene 1 31 885 -1.3746507383764959 0 5668 -1.3746507383764959 1
gene 1 885 18 -0.25532116310453096 0 5669 -0.25532116310453096 1
gene 1 524 99 -2.1481115669701767 0 5719 -2.1481115669701767 1
gene 3 356 299 -0.78980969022484948 1 5785 -0.78980969022484948 1
gene 1 30 915 0.20181158543648736 1 5856 0.20181158543648736 1
gene 1 915 30 -1.74163050122635 0 5857 -1.74163050122635 1
gene 3 915 59 0.61433492000882284 0 5922 0.61433492000882284 1
gene 3 574 324 0.85171165799336113 0 5989 0.85171165799336113 1
genomeend 1
