genomestart 1
trait 1 0 0.665983 1 0 0 0.360867 0 0 
trait 2 0 0.52393 0 0.441628 0.5333 0.544519 0 0 
trait 3 0 1 0 0.213816 1 0.343386 0.624561 0.484292 
node 1 2 1 3
node 2 1 1 1
node 3 1 1 1
node 4 1 1 1
node 5 3 1 1
node 6 2 1 1
node 7 3 1 1
node 8 1 1 1
node 9 3 1 1
node 10 1 1 1
node 11 3 1 1
node 12 3 1 1
node 13 2 1 1
node 14 3 1 1
node 15 1 1 1
node 16 2 1 1
node 17 2 0 2
node 18 1 0 2
node 28 2 0 0
node 64 1 0 0
node 133 1 0 0
node 156 1 0 0
node 164 1 0 0
nodegru 165 0 -0.27849216399644139 -3.998792144236524 0.043418225619671041 -0.24859801691425876 -1.4913734814577613 2.0072762453962474 [ -0.41429372872891534 -3.1392774379995076 -0.06688002127543094 ] [ 1.2678116666003185 0.54849508895934329 -0.10815639193549585 ] [ -3.7642738135830847 0.80424876734812223 -1.5995676988268122 ]
nodegru 207 0 -0.26959370787702208 0.66619417079081489 0.68264031069476172 0.50178697053426269 -0.14010798821230791 -1.9890460355621977 [ 2.0164710318280719 0 -0.50544554065235214 ] [ 0.77435416484920028 0 0 ] [ 0 -0.11798491450864119 -0.69454647516577805 ]
nodegru 242 0 0.83574402976582929 -0.77849689884041284 0.67461471873084766 2.0612167748907657 1.0277694906237393 0.089504589834019821 [ -0.87039006146154829 0.13312965777382704 ] [ 1.4822058419148465 0 ] [ -0.59703875058192701 -0.0033959364534336778 ]
node 271 1 0 0
node 303 1 0 0
nodegru 342 0 0.62323225178906327 -2.0696031588919475 -0.075680499233156673 0.34142796478300724 -0.14428991039483338 -1.4793164601918849 [ 2.2621360608665904 0.39667269605988298 0 ] [ 1.6034137406867992 1.0967900900155259 0.0037520555796809753 ] [ 0.19662627773202318 0 0.15606363800171 ]
node 424 1 0 0
node 438 1 0 0
node 442 1 0 0
node 471 1 0 0
node 479 1 0 0
node 498 2 0 0
node 515 2 0 0
node 542 1 0 0
node 556 1 0 0
node 559 1 0 0
node 596 1 0 0
node 601 1 0 0
node 646 1 0 0
node 690 1 0 0
gene 2 1 17 -0.18710877824905736 0 1 -0.18710877824905736 1
gene 2 2 17 -0.9111411815561079 0 2 -0.9111411815561079 0
gene 3 3 17 1.33414366856876 0 3 1.33414366856876 1
gene 3 4 17 2.2806943195316447 0 4 2.2806943195316447 0
gene 3 5 17 -0.49047233233715981 0 5 -0.49047233233715981 1
gene 1 6 17 -0.20892618839113319 0 6 -0.20892618839113319 1
gene 1 7 17 7.4776521320350708 0 7 7.4776521320350708 1
gene 3 8 17 1.4370617391248524 0 8 1.4370617391248524 1
gene 1 9 17 -3.4631094180341386 0 9 -3.4631094180341386 0
gene 3 10 17 0.54019937898972958 0 10 0.54019937898972958 1
gene 1 11 17 -0.87182558880738226 0 11 -0.87182558880738226 0
gene 2 12 17 -1.2323554932290481 0 12 -1.2323554932290481 1
gene 2 13 17 -1.0854002759258263 0 13 -1.0854002759258263 1
gene 3 14 17 -3.903473062395804 0 14 -3.903473062395804 1
gene 2 15 17 -0.58720460445024258 0 15 -0.58720460445024258 0
gene 2 16 17 0.60077759278974396 0 16 0.60077759278974396 0
gene 3 1 18 4.8043336050139427 0 17 4.8043336050139427 1
gene 2 2 18 0.86099490563431513 0 18 0.86099490563431513 1
gene 3 3 18 -2.9178575255991226 0 19 -2.9178575255991226 0
gene 2 4 18 -0.39167685615442549 0 20 -0.39167685615442549 1
gene 3 5 18 -1.225679370912574 0 21 -1.225679370912574 0
gene 3 6 18 -8 0 22 -8 1
gene 2 7 18 0.64519595058876833 0 23 0.64519595058876833 0
gene 2 8 18 1.3038059651403715 0 24 1.3038059651403715 1
gene 3 9 18 -1.4787873783981369 0 25 -1.4787873783981369 1
gene 3 10 18 0.6727815008129836 0 26 0.6727815008129836 1
gene 1 11 18 0.46545733998783745 0 27 0.46545733998783745 1
gene 2 12 18 2.8155993566920978 0 28 2.8155993566920978 1
gene 3 13 18 0.10390789229604791 0 29 0.10390789229604791 0
gene 2 14 18 0.71280539511367924 0 30 0.71280539511367924 1
gene 3 15 18 -1.4740385804204452 0 31 -1.4740385804204452 1
gene 2 16 18 -1.0494040104324949 0 32 -1.0494040104324949 1
gene 3 3 28 -0.029963943888416486 0 61 -0.029963943888416486 1
gene 3 28 18 0.98641823534221285 0 62 0.98641823534221285 0
gene 2 1 28 0.79314976758004629 0 92 0.79314976758004629 1
gene 3 10 28 0.64109437663159075 0 99 0.64109437663159075 0
gene 1 8 28 1.0734084833289537 0 165 1.0734084833289537 0
gene 3 9 28 -1.2282428376973806 0 232 -1.2282428376973806 1
gene 1 17 17 -1.1869240811499413 1 237 -1.1869240811499413 1
gene 3 28 64 1.7073604111593963 0 271 1.7073604111593963 1
gene 3 64 18 -0.75083848612887705 0 272 -0.75083848612887705 0
gene 2 5 28 -1.4569241234366428 0 291 -1.4569241234366428 0
gene 2 4 28 -1.0737142649356808 0 308 -1.0737142649356808 1
gene 3 14 28 0.68431282308153474 0 448 0.68431282308153474 0
gene 3 10 64 0.46572026632061247 0 474 0.46572026632061247 1
gene 2 13 28 -1.3101815417456355 0 683 -1.3101815417456355 1
gene 1 16 64 0.58602456449811557 0 705 0.58602456449811557 1
gene 1 7 28 0.83381333310800287 0 757 0.83381333310800287 1
gene 1 11 133 0.056640974738002274 0 851 0.056640974738002274 1
gene 2 133 17 0.13085598830639222 0 852 0.13085598830639222 1
gene 1 28 133 1.4013006167492366 0 952 1.4013006167492366 1
gene 1 2 64 0.98480021789893524 0 966 0.98480021789893524 1
gene 1 15 64 -0.3152540437016888 0 986 -0.3152540437016888 1
gene 3 5 156 1.1069784302296948 0 995 1.1069784302296948 1
gene 1 156 18 1.1883325433304222 0 996 1.1883325433304222 0
gene 2 15 164 -1.3087882794480716 0 1035 -1.3087882794480716 0
gene 3 164 17 0.41317696935179504 0 1036 0.41317696935179504 1
gene 3 3 165 0.88609915617206103 0 1044 0.88609915617206103 1
gene 3 165 18 -0.1272502793591701 0 1045 -0.1272502793591701 1
gene 1 13 156 -0.70099228932568447 0 1159 -0.70099228932568447 1
gene 3 8 164 0.61898010252927438 0 1235 0.61898010252927438 1
gene 2 64 165 -0.74031414475306578 0 1316 -0.74031414475306578 1
gene 2 133 18 -2.7248078918665679 0 1318 -2.7248078918665679 1
gene 3 4 207 0.55234031847321441 0 1329 0.55234031847321441 1
gene 3 207 17 -0.87972305988880006 0 1330 -0.87972305988880006 1
gene 2 133 164 -1.0165713462124446 0 1338 -1.0165713462124446 1
gene 1 9 242 2.2870359738762662 0 1556 2.2870359738762662 1
gene 1 242 17 -1.6264438920777498 0 1557 -1.6264438920777498 1
gene 3 156 17 -0.85353307977948945 0 1725 -0.85353307977948945 0
gene 1 2 271 -0.67817853143353868 0 1732 -0.67817853143353868 1
gene 1 271 17 1.3332181458050467 0 1733 1.3332181458050467 1
gene 2 5 303 2.5960304933115985 0 1950 2.5960304933115985 1
gene 2 303 28 1.5320152533389697 0 1951 1.5320152533389697 1
gene 2 11 28 -3.9051254561194799 0 2024 -3.9051254561194799 1
gene 2 11 207 -1.4876416574640385 0 2124 -1.4876416574640385 1
gene 2 13 342 -0.17416063634406798 0 2234 -0.17416063634406798 0
gene 3 342 18 -2.085160369325969 0 2235 -2.085160369325969 1
gene 3 271 271 -0.52870846727337162 1 2252 -0.52870846727337162 1
gene 3 7 303 0.29175177113700268 0 2398 0.29175177113700268 1
gene 1 303 165 -3.7272518147841343 0 2441 -3.7272518147841343 1
gene 2 165 156 1.0797344076352819 0 2665 1.0797344076352819 1
gene 1 8 424 -1.1019158543096463 0 2863 -1.1019158543096463 1
gene 1 424 28 -0.045317346251251944 0 2864 -0.045317346251251944 1
gene 2 64 64 1.7639898684639437 1 2902 1.7639898684639437 1
gene 3 10 438 -1.9604277328869459 0 2961 -1.9604277328869459 1
gene 3 438 28 -0.042059541466673622 0 2962 -0.042059541466673622 0
gene 2 7 442 -3.8348673029499447 0 2974 -3.8348673029499447 1
gene 2 442 18 -0.62948118831472533 0 2975 -0.62948118831472533 1
gene 3 10 207 -1.3332574799811736 0 3091 -1.3332574799811736 1
gene 1 207 442 -0.065140441090399598 0 3102 -0.065140441090399598 1
gene 2 16 471 -4.8926757715608353 0 3115 -4.8926757715608353 1
gene 2 471 17 -1.840383760556757 0 3116 -1.840383760556757 1
gene 3 156 479 0.57359189566857727 0 3152 0.57359189566857727 1
gene 3 479 17 5.5910036166156658 0 3153 5.5910036166156658 1
gene 3 18 18 -1.4168364931442012 1 3158 -1.4168364931442012 0
gene 2 471 28 1.0239134826808765 0 3214 1.0239134826808765 0
gene 3 14 498 0.026474063064192421 0 3296 0.026474063064192421 1
gene 3 498 28 -0.26778183936503813 0 3297 -0.26778183936503813 1
gene 1 271 442 1.9787745070544882 0 3301 1.9787745070544882 1
gene 2 471 515 0.84819783007176497 0 3364 0.84819783007176497 1
gene 2 515 28 0.18956636832541157 0 3365 0.18956636832541157 1
gene 3 156 542 0.4048642986011059 0 3550 0.4048642986011059 0
gene 3 542 18 0.45973676301526684 0 3551 0.45973676301526684 1
gene 1 271 471 0.065011170490184567 0 3604 0.065011170490184567 1
gene 2 471 303 -0.19259736020704676 0 3611 -0.19259736020704676 1
gene 3 438 556 -1.3122914525737479 0 3657 -1.3122914525737479 1
gene 3 556 28 -0.26007315528582464 0 3658 -0.26007315528582464 1
gene 3 18 559 -0.40577083286166693 1 3673 -0.40577083286166693 1
gene 3 559 18 0.7190151972319071 0 3674 0.7190151972319071 1
gene 2 9 164 -0.80600980171282299 0 3680 -0.80600980171282299 1
gene 3 156 596 -0.28449732474260842 0 3905 -0.28449732474260842 1
gene 3 596 542 4.4396312960608082 0 3906 4.4396312960608082 1
gene 2 242 342 -0.44210040054381849 0 3918 -0.44210040054381849 1
gene 3 64 601 -0.72148656156914615 0 3927 -0.72148656156914615 1
gene 3 601 18 1.2326235793217191 0 3928 1.2326235793217191 1
gene 1 156 242 -1.0840313553735759 0 4054 -1.0840313553735759 1
gene 1 64 156 -0.14643310296648804 0 4065 -0.14643310296648804 1
gene 3 542 542 -0.98171179042277479 1 4174 -0.98171179042277479 1
gene 2 15 646 0.5154942865555614 0 4200 0.5154942865555614 1
gene 2 646 164 1.8533284854392185 0 4201 1.8533284854392185 1
gene 1 471 559 -0.41653781915853627 0 4470 -0.41653781915853627 1
gene 2 13 690 -1.0721906849984968 0 4523 -1.0721906849984968 1
gene 2 690 342 -1.3320734816752715 0 4524 -1.3320734816752715 1
gene 1 646 438 1.9287406254693589 0 4576 1.9287406254693589 1
gene 3 542 601 -0.4288515094336362 0 4644 -0.4288515094336362 1
gene 1 17 156 0.71856421382099589 1 4662 0.71856421382099589 1
gene 2 542 164 -1.2430636811736337 0 4671 -1.2430636811736337 1
gene 1 10 156 1.069971062042737 0 4815 1.069971062042737 1
gene 1 4 646 -0.70986711360042309 0 4978 -0.70986711360042309 1
genomeend 1
