genomestart 1
trait 1 0.267871 0.740765 0.769477 0 0 0 0.00351028 0.221875 
trait 2 0 0 0 1 0.467311 0.171046 1 0.555464 
trait 3 0.624312 0.260133 0 0 0.457884 0 0 0 
node 1 1 1 3
node 2 3 1 1
node 3 2 1 1
node 4 1 1 1
node 5 1 1 1
node 6 3 1 1
node 7 2 1 1
node 8 1 1 1
node 9 2 1 1
node 10 2 1 1
node 11 1 1 1
node 12 3 1 1
node 13 3 1 1
node 14 3 1 1
node 15 2 1 1
node 16 3 1 1
node 17 1 0 2
node 18 3 0 2
node 38 3 0 0
node 42 3 0 0
node 60 1 0 0
nodegru 89 0 -1.8865968039662562 1.3235405387000836 -1.1780781586086742 -1.4122923505084088 1.5521373125035955 -0.43953200869240427 [ -1.5508230964424197 1.1943646134782422 0.1968181185409511 0.5251644651988352 2.7487101048457951 -0.38727717631835368 0.77845690947885471 ] [ 0.35464662213560505 0.39345802385055362 -0.89654412022630869 -1.2114397921652718 -0.80611743303300698 -2.1562829335016587 1.3333413437164117 ] [ 2.9518746239840401 -0.79103168719030537 1.2445362746922934 -3.6755319378224813 0.58409731699344558 0.39854759299128673 1.1141875486887001 ]
node 97 1 0 0
nodegru 140 0 2.0037350854853795 -1.2949036589334271 0.20914158793591997 1.0297492458623598 -1.7473506046213911 2.2584699358597726 [ -2.4598800185880996 -0.55255479531015972 -0.15400414152722997 -0.17219926471458713 ] [ -1.8115860662942689 -0.27952901799209834 -0.0011817561468024929 0 ] [ -0.67979482988817375 1.4567851186528733 0.30826193620835529 0 ]
node 252 2 0 0
node 259 1 0 0
nodegru 279 0 0.16466672982306535 -0.39147531119709622 -1.1599215956683837 0.26248710777726358 -0.69840069636628066 1.2474272692331241 [ -1.4636390909848918 -1.4228092201160309 0 ] [ 2.1567277471333406 0.12379537202594593 0 ] [ -0.55471811562530604 -1.0327893048677543 0 ]
node 298 1 0 0
nodegru 324 0 -0.28404553247804082 -1.0387376893957787 -1.2935093041944827 0.24822588346350283 1.6760061728656319 -1.1694224158625219 [ -0.14696913545344439 ] [ 0 ] [ 1.749810770735988 ]
node 346 1 0 0
node 359 1 0 0
nodegru 387 0 0.058005709926600438 0.66367829715073001 2.3745691072543007 -1.0993485646784997 0.63907994965048509 0.37772996229013889 [ -2.0646773260387952 1.6003027994187096 2.1848718555108047 ] [ 1.1268489875955736 -0.94890015500080782 1.2844639384581076 ] [ 1.6189949408262012 0.0085337085223448073 0.011827210435563331 ]
node 400 1 0 0
nodegru 457 0 -0.48351423232048485 1.3212782092491528 0.69364969045559399 -0.8418585310419362 -0.51278514229356542 -0.22207722823232284 [ -0.20477752210794825 0 ] [ -1.247278344466946 0 ] [ -1.3815210512287548 0 ]
node 513 1 0 0
gene 1 1 17 2.3915726639756807 0 1 2.3915726639756807 1
gene 3 2 17 0.66551955191675549 0 2 0.66551955191675549 1
gene 3 3 17 -0.05045239839258242 0 3 -0.05045239839258242 1
gene 1 4 17 -0.46758496177735964 0 4 -0.46758496177735964 1
gene 1 5 17 -2.1164986540640234 0 5 -2.1164986540640234 1
gene 2 6 17 -0.042880177285000765 0 6 -0.042880177285000765 1
gene 3 7 17 0.92067334308320337 0 7 0.92067334308320337 1
gene 2 8 17 -0.67120436680093609 0 8 -0.67120436680093609 1
gene 3 9 17 0.90190776712349985 0 9 0.90190776712349985 1
gene 1 10 17 -2.9999110414646153 0 10 -2.9999110414646153 1
gene 3 11 17 0.47126317348855662 0 11 0.47126317348855662 1
gene 2 12 17 -0.34657097973235462 0 12 -0.34657097973235462 1
gene 3 13 17 2.0178663595662765 0 13 2.0178663595662765 0
gene 3 14 17 -2.0016679035041798 0 14 -2.0016679035041798 0
gene 1 15 17 -4.8155556238794492 0 15 -4.8155556238794492 1
gene 1 16 17 -1.4970069061950813 0 16 -1.4970069061950813 1
gene 3 1 18 0.81238474129344551 0 17 0.81238474129344551 1
gene 1 2 18 -2.9992007820397619 0 18 -2.9992007820397619 1
gene 2 3 18 0.45012275429913906 0 19 0.45012275429913906 1
gene 2 4 18 3.2820135579826384 0 20 3.2820135579826384 1
gene 1 5 18 -0.36695539386335529 0 21 -0.36695539386335529 1
gene 2 6 18 -0.70984452413853472 0 22 -0.70984452413853472 1
gene 1 7 18 0.0090729156551290838 0 23 0.0090729156551290838 1
gene 2 8 18 -1.470744329723876 0 24 -1.470744329723876 0
gene 2 9 18 -1.4402323825937846 0 25 -1.4402323825937846 1
gene 1 10 18 4.7893818152553322 0 26 4.7893818152553322 1
gene 2 11 18 -0.23030932863722975 0 27 -0.23030932863722975 1
gene 1 12 18 -0.41369447922971769 0 28 -0.41369447922971769 1
gene 2 13 18 -0.93670182043532924 0 29 -0.93670182043532924 1
gene 3 14 18 5.9659795139292155 0 30 5.9659795139292155 1
gene 1 15 18 6.9036825617792479 0 31 6.9036825617792479 1
gene 3 16 18 -1.0383304050370725 0 32 -1.0383304050370725 1
gene 2 8 38 1.2653616621463382 0 100 1.2653616621463382 1
gene 2 38 18 -0.018624473604664432 0 101 -0.018624473604664432 1
gene 1 4 38 1.0496873823225905 0 110 1.0496873823225905 1
gene 1 14 38 -0.55236389956081466 0 136 -0.55236389956081466 1
gene 3 14 42 1.1261214174451872 0 146 1.1261214174451872 0
gene 3 42 17 1.2779941604370224 0 147 1.2779941604370224 1
gene 3 1 38 1.0580956661412937 0 184 1.0580956661412937 1
gene 1 42 18 0.14235899860149193 0 196 0.14235899860149193 1
gene 2 18 18 -1.9305597028837349 1 227 -1.9305597028837349 1
gene 2 11 42 -0.1979886122038535 0 237 -0.1979886122038535 0
gene 3 3 60 -1.5546384256121883 0 247 -1.5546384256121883 1
gene 3 60 17 3.969921695054472 0 248 3.969921695054472 0
gene 3 11 89 -1.0291818950926801 0 452 -1.0291818950926801 1
gene 3 89 42 -2.700596253946701 0 453 -2.700596253946701 0
gene 2 60 60 1.9352115099016634 1 463 1.9352115099016634 1
gene 1 38 42 -2.3972952442231099 0 483 -2.3972952442231099 1
gene 3 2 42 0.14295864973355021 0 488 0.14295864973355021 1
gene 1 38 38 1.4319715343564616 1 499 1.4319715343564616 1
gene 3 14 60 -1.2726212627126934 0 504 -1.2726212627126934 0
gene 3 10 89 3.2999184940941255 0 522 3.2999184940941255 1
gene 3 14 97 -1.5918791571594211 0 533 -1.5918791571594211 1
gene 3 97 42 -0.32060278827352573 0 534 -0.32060278827352573 1
gene 2 7 89 0.8801681096107552 0 607 0.8801681096107552 1
gene 1 2 60 -0.26670833410076256 0 621 -0.26670833410076256 1
gene 2 2 89 2.9990335016041216 0 653 2.9990335016041216 1
gene 3 4 60 0.99345167958804037 0 663 0.99345167958804037 1
gene 3 15 42 -0.32356865486296293 0 673 -0.32356865486296293 1
gene 3 8 42 -0.97587724401423603 0 775 -0.97587724401423603 1
gene 2 7 42 -1.4025872800976908 0 783 -1.4025872800976908 0
gene 2 97 89 0.75657280732717958 0 829 0.75657280732717958 0
gene 3 13 140 -0.36800202954001837 0 890 -0.36800202954001837 1
gene 3 140 17 -1.597739250910347 0 891 -1.597739250910347 1
gene 1 5 97 -1.112323696311714 0 1102 -1.112323696311714 1
gene 1 6 60 0.1490117479809614 0 1125 0.1490117479809614 1
gene 3 11 140 0.25768133171726082 0 1161 0.25768133171726082 1
gene 2 42 42 0.35886263910628036 1 1201 0.35886263910628036 1
gene 2 6 89 1.3979819851918061 0 1333 1.3979819851918061 1
gene 2 60 97 -2.2437644671852537 0 1340 -2.2437644671852537 1
gene 2 89 140 0.019476985800767815 0 1487 0.019476985800767815 1
gene 2 12 60 0.44823342512745101 0 1491 0.44823342512745101 1
gene 2 6 42 -1.4977590918996182 0 1688 -1.4977590918996182 1
gene 1 11 60 1.3529407912180487 0 1695 1.3529407912180487 1
gene 1 97 17 1.2385143089287514 0 1704 1.2385143089287514 0
gene 1 5 42 2.5290410623555259 0 1706 2.5290410623555259 1
gene 3 14 252 0.50880462187752351 0 1749 0.50880462187752351 1
gene 3 252 60 -0.97074122306459631 0 1750 -0.97074122306459631 1
gene 2 16 60 -1.8711017341684093 0 1774 -1.8711017341684093 0
gene 1 97 259 -4.2982025769530807 0 1792 -4.2982025769530807 1
gene 1 259 17 -0.31815154748882707 0 1793 -0.31815154748882707 0
gene 1 11 252 0.6985525995020534 0 1837 0.6985525995020534 1
gene 3 42 38 -0.13262675406067959 1 1866 -0.13262675406067959 1
gene 2 7 279 0.82013469856238674 0 1902 0.82013469856238674 1
gene 2 279 42 0.93236585843021313 0 1903 0.93236585843021313 1
gene 3 10 279 0.44908721975474025 0 2048 0.44908721975474025 1
gene 3 13 97 2.4125182206800759 0 2050 2.4125182206800759 1
gene 2 97 298 1.3378996797082479 0 2058 1.3378996797082479 1
gene 2 298 89 0.86854085715885343 0 2059 0.86854085715885343 0
gene 1 97 324 1.099589975364315 0 2214 1.099589975364315 1
gene 1 324 259 1.2509235377660597 0 2215 1.2509235377660597 1
gene 3 89 346 -0.72704933734007615 0 2380 -0.72704933734007615 1
gene 3 346 42 1.0962874733825623 0 2381 1.0962874733825623 1
gene 1 259 359 -0.39399428544286375 0 2452 -0.39399428544286375 1
gene 1 359 17 -1.0683699781393492 0 2453 -1.0683699781393492 0
gene 3 298 17 1.3192568637054678 0 2489 1.3192568637054678 1
gene 2 298 298 -1.4737732296221764 1 2500 -1.4737732296221764 1
gene 1 12 42 0.88947980473259447 0 2514 0.88947980473259447 1
gene 2 16 387 -3.1896018174894163 0 2616 -3.1896018174894163 1
gene 2 387 60 0.7657541680455926 0 2617 0.7657541680455926 1
gene 2 10 387 1.762971043942017 0 2625 1.762971043942017 0
gene 1 5 259 0.5590212701629016 0 2638 0.5590212701629016 1
gene 1 14 140 0.14270660939752433 0 2642 0.14270660939752433 1
gene 2 10 400 0.98384274960674478 0 2708 0.98384274960674478 1
gene 2 400 387 2.6980146005274794 0 2709 2.6980146005274794 1
gene 2 38 359 3.5662138643982884 0 2853 3.5662138643982884 0
gene 2 324 346 -0.33755342445222347 0 2986 -0.33755342445222347 1
gene 1 13 42 0.99611729453137043 0 2999 0.99611729453137043 1
gene 1 359 457 1.4558824631180067 0 3073 1.4558824631180067 1
gene 1 457 17 -0.028432578560166344 0 3074 -0.028432578560166344 1
gene 3 16 346 -1.1577719923377838 0 3122 -1.1577719923377838 1
gene 3 324 298 1.9081856815182536 0 3169 1.9081856815182536 1
gene 1 346 97 -1.6890710069281383 1 3263 -1.6890710069281383 1
gene 2 346 346 -0.86029268305762319 1 3278 -0.86029268305762319 1
gene 2 9 457 0.31612734301766721 0 3331 0.31612734301766721 1
gene 1 346 252 -1.9012869840493831 1 3337 -1.9012869840493831 1
gene 2 38 513 4.0018333925408474 0 3427 4.0018333925408474 1
gene 2 513 359 0.29108101562181532 0 3428 0.29108101562181532 1
gene 3 10 259 1.5657470680613756 0 3560 1.5657470680613756 1
gene 3 11 279 -0.56709260519924232 0 3651 -0.56709260519924232 1
gene 1 6 359 -0.49748703790711568 0 3661 -0.49748703790711568 1
gene 1 279 17 0.44676499042975015 0 3680 0.44676499042975015 1
gene 1 7 259 1.1911251170985051 0 3775 1.1911251170985051 1
genomeend 1
