genomestart 1
trait 1 1 1 1 0 0 0 0.00351028 0 
trait 2 0 0 0 0 0.829422 0 1 0.555464 
trait 3 1 0.110535 0 0 0.895283 0.149255 0.98402 0 
node 1 1 1 3
node 2 3 1 1
node 3 2 1 1
node 4 1 1 1
node 5 1 1 1
node 6 3 1 1
node 7 2 1 1
node 8 1 1 1
node 9 2 1 1
node 10 2 1 1
node 11 1 1 1
node 12 3 1 1
node 13 3 1 1
node 14 1 1 1
node 15 2 1 1
node 16 3 1 1
node 17 3 0 2
node 18 3 0 2
node 38 3 0 0
node 42 2 0 0
node 60 1 0 0
nodegru 89 0 -1.8865968039662562 1.3235405387000836 -1.8406753837320373 -1.4122923505084088 3.0212835765077193 0.29436996686010153 [ -1.9553896928929677 0.54232649297561797 0.28048747115791189 1.6174463569733528 1.407767199169736 0.6710864725388056 0.77845690947885471 0 ] [ 1.4168277983166409 0.39345802385055362 -0.26291540696421412 -2.7868499540662626 -0.0022280146378222919 0.39277048427274941 1.3333413437164117 1.4613204952149281 ] [ 1.5762781785224931 -0.61415537638317586 -0.17232889783211466 -3.6755319378224813 0.58409731699344558 0.39854759299128673 1.1141875486887001 -1.052829625109597 ]
node 97 1 0 0
nodegru 140 0 2.0539057953534208 -1.3688125444430916 0.20914158793591997 -0.18183911064725317 -2.9224032510176317 1.8270730524449952 [ -2.4598800185880996 -1.9796506485341354 -0.15400414152722997 1.1530580078964392 0.23717850015367314 ] [ -1.8220003791255879 1.0126733924321241 -0.0011817561468024929 1.6989139289124466 -1.0439763886593174 ] [ -0.67979482988817375 0.37259740725746249 0.30826193620835529 0 -0.50907678227363007 ]
node 252 2 0 0
node 259 1 0 0
nodegru 279 0 0.16466672982306535 -0.39147531119709622 -1.9756484832501267 0.26248710777726358 -0.69840069636628066 1.2474272692331241 [ -1.4636390909848918 -1.4228092201160309 0 0 ] [ 1.8490677391407395 0.12379537202594593 -0.71703966437701117 0 ] [ 1.2267124523533102 0.1547569062815779 0 0 ]
node 298 1 0 0
nodegru 324 0 0.49565573688394188 -1.0387376893957787 0.067097533758309291 0.53849853507173184 -1.3880429269690266 0.47226314571325834 [ -1.5733733699067369 ] [ -0.91467394279999381 ] [ 0.6936408831708325 ]
node 346 1 0 0
node 359 1 0 0
nodegru 387 0 -0.90491901263823693 0.63075356470921684 2.3745691072543007 -1.0993485646784997 -0.53949417734495086 0.37772996229013889 [ -2.0646773260387952 1.6003027994187096 2.1848718555108047 1.4459282560022213 ] [ 1.0079609956629392 -0.94890015500080782 -0.029951323536201994 0 ] [ -0.73751685011084978 0.0085337085223448073 -1.3284968125300933 0 ]
node 400 1 0 0
nodegru 457 0 0.52550833906303551 1.5105211227249917 0.52473266517032524 -1.0572448226424143 1.576752330212273 -0.20768024991624071 [ -0.61623925441700933 0 ] [ -0.053924867908435224 0 ] [ 0.40886980267654638 1.31169761359305 ]
node 513 1 0 0
node 534 1 0 0
node 567 1 0 0
node 576 1 0 0
nodegru 591 0 0 -1.0467357824308499 -1.1713051310141129 0.079028702144990068 0 0 [ 0 ] [ 0 ] [ 0 ]
nodegru 597 0 0 0 -1.477180431353478 0 0 0 [ 0 ] [ 0 ] [ 0 ]
node 633 1 0 0
node 656 1 0 0
gene 1 1 17 2.3915726639756807 0 1 2.3915726639756807 1
gene 3 2 17 0.34559395296759621 0 2 0.34559395296759621 1
gene 3 3 17 -0.27731468681120997 0 3 -0.27731468681120997 1
gene 1 4 17 -1.2016907523859715 0 4 -1.2016907523859715 1
gene 1 5 17 -0.77123458183893678 0 5 -0.77123458183893678 0
gene 2 6 17 -1.6444071969689835 0 6 -1.6444071969689835 1
gene 3 7 17 0.20780602596132369 0 7 0.20780602596132369 1
gene 2 8 17 0.58453703792045686 0 8 0.58453703792045686 1
gene 3 9 17 1.4812832618976399 0 9 1.4812832618976399 1
gene 1 10 17 1.2175673517480341 0 10 1.2175673517480341 1
gene 3 11 17 0.71992102042768158 0 11 0.71992102042768158 1
gene 2 12 17 0.74243714811393868 0 12 0.74243714811393868 1
gene 3 13 17 0.53408818437442562 0 13 0.53408818437442562 0
gene 3 14 17 0.9906483353072072 0 14 0.9906483353072072 0
gene 1 15 17 -6.702687752061844 0 15 -6.702687752061844 1
gene 1 16 17 -3.1816618927669067 0 16 -3.1816618927669067 1
gene 3 1 18 -0.63162351685186091 0 17 -0.63162351685186091 1
gene 1 2 18 -2.0987107775168079 0 18 -2.0987107775168079 1
gene 2 3 18 3.2779999961042776 0 19 3.2779999961042776 0
gene 2 4 18 3.7224395846586873 0 20 3.7224395846586873 1
gene 1 5 18 -1.29949447549856 0 21 -1.29949447549856 1
gene 2 6 18 -1.7818580073219996 0 22 -1.7818580073219996 1
gene 1 7 18 -0.18786167292290445 0 23 -0.18786167292290445 1
gene 2 8 18 1.3106790412267109 0 24 1.3106790412267109 0
gene 2 9 18 -1.8051600208530014 0 25 -1.8051600208530014 1
gene 1 10 18 0.44503081727075899 0 26 0.44503081727075899 1
gene 2 11 18 -0.95664287240088108 0 27 -0.95664287240088108 1
gene 1 12 18 -0.28204399616552706 0 28 -0.28204399616552706 1
gene 2 13 18 -1.1237741835060409 0 29 -1.1237741835060409 1
gene 3 14 18 8 0 30 8 1
gene 3 15 18 5.375961761165394 0 31 5.375961761165394 1
gene 3 16 18 0.65598173190652487 0 32 0.65598173190652487 1
gene 2 8 38 2.7411797848721875 0 100 2.7411797848721875 1
gene 2 38 18 0.26432862377927102 0 101 0.26432862377927102 1
gene 1 4 38 1.0376647177793386 0 110 1.0376647177793386 1
gene 1 14 38 2.0278669353704282 0 136 2.0278669353704282 1
gene 3 14 42 0.99340119259124704 0 146 0.99340119259124704 0
gene 3 42 17 0.18429149276776774 0 147 0.18429149276776774 1
gene 3 1 38 -0.12704536627374841 0 184 -0.12704536627374841 1
gene 1 42 18 2.4915845121683482 0 196 2.4915845121683482 1
gene 2 18 18 -1.2834309853070558 1 227 -1.2834309853070558 1
gene 2 11 42 -1.5060448022587432 0 237 -1.5060448022587432 0
gene 3 3 60 -0.92494710298485472 0 247 -0.92494710298485472 1
gene 3 60 17 1.1834881651138367 0 248 1.1834881651138367 0
gene 3 11 89 0.44056991741087753 0 452 0.44056991741087753 1
gene 3 89 42 -1.1378783134919956 0 453 -1.1378783134919956 0
gene 2 60 60 -1.1277321754618228 1 463 -1.1277321754618228 1
gene 1 38 42 -2.5655039637654573 0 483 -2.5655039637654573 1
gene 3 2 42 2.1515111083404679 0 488 2.1515111083404679 1
gene 1 38 38 -0.82693489469910741 1 499 -0.82693489469910741 1
gene 3 14 60 -0.35067089546968733 0 504 -0.35067089546968733 0
gene 3 10 89 4.6377019195992979 0 522 4.6377019195992979 1
gene 3 14 97 0.27303483675841012 0 533 0.27303483675841012 1
gene 3 97 42 0.16714358011593267 0 534 0.16714358011593267 1
gene 3 7 89 1.1292121527386889 0 607 1.1292121527386889 1
gene 1 2 60 0.53440067499615285 0 621 0.53440067499615285 1
gene 2 2 89 0.87799968960601826 0 653 0.87799968960601826 1
gene 3 4 60 0.29070483021936599 0 663 0.29070483021936599 0
gene 3 15 42 0.064904424857769413 0 673 0.064904424857769413 1
gene 3 8 42 -1.3723274731879718 0 775 -1.3723274731879718 1
gene 2 7 42 1.2098262450703541 0 783 1.2098262450703541 0
gene 2 97 89 0.84241656951718802 0 829 0.84241656951718802 0
gene 3 13 140 -2.5577214176569703 0 890 -2.5577214176569703 1
gene 3 140 17 -0.51920342120304852 0 891 -0.51920342120304852 1
gene 1 5 97 0.20122159258519368 0 1102 0.20122159258519368 1
gene 1 6 60 0.8174324491142444 0 1125 0.8174324491142444 1
gene 3 11 140 -1.9558046578689499 0 1161 -1.9558046578689499 1
gene 2 42 42 1.0098531963349568 1 1201 1.0098531963349568 1
gene 2 6 89 2.5471288943882699 0 1333 2.5471288943882699 0
gene 2 60 97 0.70405676132256934 0 1340 0.70405676132256934 1
gene 2 89 140 -0.62666509236519452 0 1487 -0.62666509236519452 0
gene 2 12 60 1.2132913468933157 0 1491 1.2132913468933157 1
gene 2 6 42 -0.63115740620119409 0 1688 -0.63115740620119409 1
gene 1 11 60 -1.6374405760492388 0 1695 -1.6374405760492388 1
gene 1 97 17 0.57746483505585444 0 1704 0.57746483505585444 0
gene 1 5 42 1.8940894172499367 0 1706 1.8940894172499367 1
gene 3 14 252 0.15597567342034346 0 1749 0.15597567342034346 1
gene 3 252 60 -0.49604987143354951 0 1750 -0.49604987143354951 1
gene 2 16 60 -1.4615245610296375 0 1774 -1.4615245610296375 0
gene 1 97 259 -0.36406655696410062 0 1792 -0.36406655696410062 1
gene 1 259 17 1.4665941735574017 0 1793 1.4665941735574017 0
gene 1 11 252 5.6126615533664186 0 1837 5.6126615533664186 1
gene 3 42 38 1.030912604430184 1 1866 1.030912604430184 1
gene 2 7 279 0.46791035703751749 0 1902 0.46791035703751749 1
gene 2 279 42 -0.45052931152774456 0 1903 -0.45052931152774456 1
gene 3 10 279 1.0694228059469828 0 2048 1.0694228059469828 1
gene 3 13 97 2.4110906575392423 0 2050 2.4110906575392423 1
gene 2 97 298 -0.30235504140255731 0 2058 -0.30235504140255731 1
gene 2 298 89 -1.6423171708091706 0 2059 -1.6423171708091706 0
gene 1 97 324 2.5646240699871554 0 2214 2.5646240699871554 1
gene 1 324 259 2.254799660413898 0 2215 2.254799660413898 1
gene 3 89 346 -0.26262566343072136 0 2380 -0.26262566343072136 1
gene 3 346 42 -0.20851272447431102 0 2381 -0.20851272447431102 1
gene 1 259 359 0.33902665778949248 0 2452 0.33902665778949248 0
gene 1 359 17 0.071899095117998815 0 2453 0.071899095117998815 0
gene 3 298 17 -0.87088058091275433 0 2489 -0.87088058091275433 1
gene 2 298 298 -1.9937807491485871 1 2500 -1.9937807491485871 1
gene 1 12 42 1.2937817027763379 0 2514 1.2937817027763379 1
gene 2 16 387 -0.80745496056389809 0 2616 -0.80745496056389809 1
gene 2 387 60 -1.2028835216550546 0 2617 -1.2028835216550546 1
gene 2 10 387 -0.42493125373727236 0 2625 -0.42493125373727236 0
gene 1 5 259 -0.64956997691167984 0 2638 -0.64956997691167984 1
gene 1 14 140 -0.49370308173527144 0 2642 -0.49370308173527144 1
gene 2 10 400 -0.2991568661756614 0 2708 -0.2991568661756614 1
gene 2 400 387 0.72148892805980935 0 2709 0.72148892805980935 1
gene 2 38 359 -0.4476972222084632 0 2853 -0.4476972222084632 0
gene 2 324 346 -4.8121136183906881 0 2986 -4.8121136183906881 1
gene 1 13 42 -1.2798920545167718 0 2999 -1.2798920545167718 1
gene 1 359 457 -1.1154588005111827 0 3073 -1.1154588005111827 1
gene 1 457 17 -2.0055559540658985 0 3074 -2.0055559540658985 1
gene 3 16 346 3.6694767594660989 0 3122 3.6694767594660989 1
gene 3 324 298 1.0733181732116817 0 3169 1.0733181732116817 1
gene 1 346 97 1.1260582737745988 1 3263 1.1260582737745988 1
gene 2 346 346 -3.297398202492575 1 3278 -3.297398202492575 1
gene 2 9 457 2.0396015795597813 0 3331 2.0396015795597813 1
gene 1 346 252 0.45872404750377127 1 3337 0.45872404750377127 1
gene 2 38 513 -1.4936120000172464 0 3427 -1.4936120000172464 1
gene 2 513 359 -0.99605601513574626 0 3428 -0.99605601513574626 1
gene 3 10 259 0.92026781543170455 0 3560 0.92026781543170455 1
gene 2 3 534 -1.9327045846417101 0 3576 -1.9327045846417101 1
gene 2 534 18 -0.58643936323301804 0 3577 -0.58643936323301804 1
gene 3 11 279 1.0129995357771409 0 3588 1.0129995357771409 0
gene 3 140 387 1.4137348453112577 0 3760 1.4137348453112577 1
gene 2 457 298 2.0590986232548483 0 3772 2.0590986232548483 1
gene 2 89 567 -0.74706978781477984 0 3785 -0.74706978781477984 1
gene 2 567 140 -0.81262672264716906 0 3786 -0.81262672264716906 1
gene 2 6 576 -1.556770339634628 0 3826 -1.556770339634628 1
gene 2 576 89 0.27465685306799448 0 3827 0.27465685306799448 1
gene 1 5 591 0.84182739483277635 0 3903 0.84182739483277635 1
gene 1 591 17 -1.5689381179720805 0 3904 -1.5689381179720805 1
gene 3 279 576 -1.0016808253720779 0 3951 -1.0016808253720779 1
gene 3 11 597 -1.2552928960673941 0 3970 -1.2552928960673941 1
gene 3 597 279 1.0585601360344143 0 3971 1.0585601360344143 1
gene 3 6 38 -1.3755164038741574 0 4053 -1.3755164038741574 1
gene 3 4 633 -0.55998893504030489 0 4221 -0.55998893504030489 1
gene 3 633 60 0.49278715625069441 0 4222 0.49278715625069441 1
gene 1 259 656 -0.64254532388529983 0 4345 -0.64254532388529983 1
gene 1 656 359 1.5303843291617858 0 4346 1.5303843291617858 1
gene 2 576 252 1.274846967437699 0 4459 1.274846967437699 1
gene 3 2 576 -0.040495791491351928 0 4615 -0.040495791491351928 1
genomeend 1
