genomestart 1
trait 1 0 0.745919 0 0.0634113 0 0.760943 0.270133 1 
trait 2 0.2 0.848205 0.293286 0 0.644617 0 0 0 
trait 3 0 0.00475228 1 0.248061 0.0918914 0.705697 0 0.14301 
node 1 1 1 3
node 2 3 1 1
node 3 2 1 1
node 4 2 1 1
node 5 3 1 1
node 6 3 1 1
node 7 1 1 1
node 8 1 1 1
node 9 3 1 1
node 10 1 1 1
node 11 3 1 1
node 12 2 1 1
node 13 2 1 1
node 14 3 1 1
node 15 2 1 1
node 16 3 1 1
node 17 3 0 2
node 18 1 0 2
node 30 1 0 0
nodegru 45 0 -1.9406100178326526 1.0889406933397709 -0.87377691123344792 0.98884557652699101 1.421616642932229 -3.2290288699926011 [ -0.040894489754407903 -0.10039059147256923 0.10109729976444393 1.8209237474114279 1.5360744455997246 1.1966285215209371 -0.60082858689167939 0 0 ] [ 2.5387502692354613 0.17872074021898243 2.4134580324932271 0.73434087854546537 0.92669759990027989 3.2677672848886656 -1.3180486144582035 0 0 ] [ 3.0757210851068244 1.0046174726470456 -1.7656182242862966 -1.5525232481549138 -0.76420759934196592 1.0092011450367053 0 0 0 ]
node 49 1 0 0
nodegru 148 0 0.21930246763830191 -2.4809409081847131 0.30463160611904772 -0.91533337715795915 0 0.85817082871597772 [ -0.69047739016380039 0.065811028967523499 0.85080323221665022 0 ] [ 3.9405603094215316 1.0751989130280908 -0.53451452219603324 0 ] [ 1.2654128790671997 0.096419919094266338 -0.21966821128487046 0 ]
node 169 1 0 0
nodegru 188 0 1.1132633181350602 2.1028376333894383 -0.2946830169738659 0.77464740992274472 0.53256238323290006 -0.36782986245482685 [ -1.4335677211329192 -0.75033639685732156 0 ] [ -0.27515037393902914 1.7587833424372521 0 ] [ 0.90200136154983257 -1.3887809724029065 0 ]
node 196 1 0 0
node 205 1 0 0
nodegru 231 0 -0.11925412114674894 0.21855699304424081 -0.69499771212926031 0.50562717439868821 2.0851336548035655 1.175028874620343 [ -1.1920127073265672 1.0708422945210907 -1.1955206693129243 0 0 ] [ -1.2627889633936755 0.41851430545491836 -0.45071012314907749 0 0 ] [ 1.4601105472352871 0 -0.51327976119391605 0 0 ]
nodegru 241 0 -1.4784083012390918 -1.4357704727145704 -2.4437634893431159 0.5286015428270221 1.4306346082271237 -1.0668930518752398 [ 0.54270450982391105 0.40645097471142699 ] [ 0.081786679374886068 0 ] [ 0.85414789377439204 0 ]
node 261 1 0 0
nodegru 301 0 0 0 0 -3.2984484759152162 -0.61091468744488187 0.67520996656977095 [ 0.056645876055884122 0 ] [ -3.5569531466145783 0 ] [ 0 0 ]
nodegru 319 0 0.69223761707182863 -0.32941903189263266 0.47413049683632819 -0.95787885596876921 -1.2510509559656731 -1.3658842210964692 [ -0.91835570843813752 ] [ -0.57428234167130776 ] [ -0.40131466528461995 ]
node 324 1 0 0
node 366 1 0 0
node 393 3 0 0
node 421 1 0 0
nodegru 471 0 0.63406682276822002 1.7340201550321748 0.48080139792561594 -1.4174062579019955 0.14379267843616786 0.91180658941706949 [ -0.33553240929522199 0.83259836576534363 -0.1239302249736759 ] [ -0.77643319045958736 -0.011245236038810225 0 ] [ 0.13562875573319791 0.87633485015311041 0.90803002166004387 ]
node 514 1 0 0
nodegru 534 0 0.99293134081779577 -1.050700688059768 0.74516082380207282 0.36489459749539133 -0.25672709464874449 0.99807364609934091 [ -0.52011261811485177 0 ] [ 0.43597101999259136 -0.49348469404200307 ] [ 0 0 ]
nodegru 567 0 -2.041852126848815 0.49049608874623485 1.0151548457868187 -1.9467432854914775 -1.1025609660905604 -0.37433256109912533 [ -0.56247351554337588 0 ] [ 0.22903693478043974 0 ] [ -0.78804212286511532 0 ]
node 575 1 0 0
node 588 1 0 0
node 632 1 0 0
nodegru 658 0 0 0 0 0 0 0 [ 0 0 ] [ 0 0 ] [ 0 0 ]
node 668 1 0 0
nodegru 678 0 0 0 0.045267681379461515 0 0 0 [ 0 ] [ -0.69967717709936061 ] [ 1.3940607960773916 ]
nodegru 697 0 -1.477142199397619 0 0 -1.4852944195667721 0 0 [ -1.2264524177771308 0 ] [ 0 0 ] [ -0.47536359493404795 0 ]
nodegru 758 0 0 0 0 0 0 0 [ 0 ] [ 0 ] [ 0 ]
node 769 1 0 0
node 804 3 0 0
node 821 1 0 0
node 882 1 0 0
node 943 1 0 0
node 945 1 0 0
node 962 1 0 0
gene 3 1 17 1.4537450729188253 0 1 1.4537450729188253 1
gene 1 2 17 2.1617627689436838 0 2 2.1617627689436838 1
gene 2 3 17 0.90038045444543491 0 3 0.90038045444543491 1
gene 3 4 17 -0.24204407480640527 0 4 -0.24204407480640527 1
gene 1 5 17 -0.83850191060383894 0 5 -0.83850191060383894 1
gene 2 6 17 0.50875543128175449 0 6 0.50875543128175449 1
gene 3 7 17 -1.3882653847747786 0 7 -1.3882653847747786 1
gene 1 8 17 2.5450859137555053 0 8 2.5450859137555053 0
gene 2 9 17 -0.2001388232224337 0 9 -0.2001388232224337 0
gene 2 10 17 -0.43721491398160106 0 10 -0.43721491398160106 0
gene 2 11 17 -0.10357372118326544 0 11 -0.10357372118326544 0
gene 2 12 17 1.4218876361483184 0 12 1.4218876361483184 1
gene 2 13 17 -0.97485515124856248 0 13 -0.97485515124856248 0
gene 2 14 17 -0.42161588483565293 0 14 -0.42161588483565293 1
gene 1 15 17 -6.8562982691714058 0 15 -6.8562982691714058 1
gene 2 16 17 -7.0595242968106282 0 16 -7.0595242968106282 1
gene 1 1 18 1.0740180816846052 0 17 1.0740180816846052 1
gene 1 2 18 -0.8001529433765231 0 18 -0.8001529433765231 1
gene 3 3 18 -3.5582784379638168 0 19 -3.5582784379638168 0
gene 1 4 18 0.42718386506996298 0 20 0.42718386506996298 1
gene 1 5 18 1.3609391873986176 0 21 1.3609391873986176 0
gene 1 6 18 -0.75087898050010171 0 22 -0.75087898050010171 1
gene 2 7 18 -0.40262013832229226 0 23 -0.40262013832229226 0
gene 3 8 18 -2.5963348492962943 0 24 -2.5963348492962943 1
gene 2 9 18 -2.0411337991436636 0 25 -2.0411337991436636 1
gene 3 10 18 -0.59449561200779666 0 26 -0.59449561200779666 1
gene 1 11 18 -0.65184851486787598 0 27 -0.65184851486787598 0
gene 2 12 18 -0.18208131342291894 0 28 -0.18208131342291894 0
gene 2 13 18 0.28538622627285615 0 29 0.28538622627285615 1
gene 2 14 18 3.3315298654285863 0 30 3.3315298654285863 1
gene 2 15 18 0.020938544543897097 0 31 0.020938544543897097 0
gene 2 16 18 -1.451036117948143 0 32 -1.451036117948143 0
gene 3 10 30 2.6750074546667779 0 74 2.6750074546667779 0
gene 2 30 17 0.76678727602902197 0 75 0.76678727602902197 1
gene 1 4 30 0.23596721037103202 0 126 0.23596721037103202 1
gene 3 9 30 -1.5731779507236454 0 136 -1.5731779507236454 1
gene 3 15 45 -0.37149469874403196 0 148 -0.37149469874403196 1
gene 1 45 18 0.1546947845046851 0 149 0.1546947845046851 0
gene 2 9 49 1.6878346936720585 0 180 1.6878346936720585 1
gene 3 49 17 0.92822369091595702 0 181 0.92822369091595702 1
gene 2 15 30 0.16753317865893858 0 325 0.16753317865893858 0
gene 1 4 45 0.45151089525386268 0 349 0.45151089525386268 1
gene 1 6 30 0.4002732885537077 0 418 0.4002732885537077 0
gene 3 6 45 -0.77882371483315893 0 488 -0.77882371483315893 1
gene 1 10 49 -0.67060837297263021 0 541 -0.67060837297263021 1
gene 1 12 49 0.76362466521729933 0 821 0.76362466521729933 1
gene 2 7 148 1.1586623013292729 0 826 1.1586623013292729 1
gene 2 148 18 -0.65612699098704708 0 827 -0.65612699098704708 0
gene 3 12 148 -0.18285258192701848 0 896 -0.18285258192701848 1
gene 2 13 169 1.0615869690950899 0 947 1.0615869690950899 1
gene 2 169 17 -0.54359724328089376 0 948 -0.54359724328089376 1
gene 2 11 30 2.0267873937388825 0 979 2.0267873937388825 0
gene 1 7 169 0.55863170375052462 0 1023 0.55863170375052462 0
gene 3 9 45 -1.4548535712318744 0 1030 -1.4548535712318744 1
gene 2 14 169 -1.453963103682717 0 1074 -1.453963103682717 1
gene 1 12 188 -1.4504922763213943 0 1101 -1.4504922763213943 1
gene 2 188 18 2.5796239488197612 0 1102 2.5796239488197612 1
gene 2 12 45 -1.6214877083531989 0 1109 -1.6214877083531989 0
gene 3 30 45 3.2306394373209399 0 1151 3.2306394373209399 1
gene 2 3 196 -0.5046773448142583 0 1160 -0.5046773448142583 1
gene 2 196 17 -3.2037223676236919 0 1161 -3.2037223676236919 1
gene 2 148 205 -1.2409205696270431 0 1231 -1.2409205696270431 0
gene 1 205 18 1.260279353130739 0 1232 1.260279353130739 1
gene 2 10 196 -1.1537287850648765 0 1243 -1.1537287850648765 0
gene 3 49 30 0.6634373118465009 0 1340 0.6634373118465009 0
gene 1 5 231 0.57855594022132295 0 1431 0.57855594022132295 1
gene 1 231 18 -0.21491036434420874 0 1432 -0.21491036434420874 1
gene 2 148 241 1.4789210075880033 0 1461 1.4789210075880033 1
gene 2 241 205 1.5019921828070619 0 1462 1.5019921828070619 1
gene 3 3 261 1.506377080458392 0 1574 1.506377080458392 1
gene 3 261 18 -1.5717078396453092 0 1575 -1.5717078396453092 1
gene 1 12 169 -0.68670325734964743 0 1744 -0.68670325734964743 1
gene 3 196 188 -4.2043226867468668 0 1761 -4.2043226867468668 1
gene 2 10 301 -1.100102767627734 0 1855 -1.100102767627734 1
gene 2 301 30 -1.5388864211453523 0 1856 -1.5388864211453523 1
gene 3 30 30 1.1385264120244079 1 1866 1.1385264120244079 1
gene 2 10 319 0.04901272829110398 0 1983 0.04901272829110398 1
gene 2 319 196 -0.52600801294949284 0 1984 -0.52600801294949284 0
gene 2 319 324 1.784914076460951 0 2021 1.784914076460951 0
gene 2 324 196 3.2554535853003399 0 2022 3.2554535853003399 1
gene 1 11 324 -0.46579942431570931 0 2045 -0.46579942431570931 1
gene 1 8 366 1.1315636900866235 0 2235 1.1315636900866235 1
gene 1 366 17 0.073010026976936399 0 2236 0.073010026976936399 1
gene 2 49 205 1.4639985419176513 0 2319 1.4639985419176513 0
gene 2 6 393 0.64480775322057671 0 2399 0.64480775322057671 0
gene 2 393 17 -0.23394460754187063 0 2400 -0.23394460754187063 0
gene 1 6 421 -1.4204048160092926 0 2550 -1.4204048160092926 1
gene 1 421 30 -0.71149831694154919 0 2551 -0.71149831694154919 0
gene 1 16 231 1.3655923513535373 0 2640 1.3655923513535373 0
gene 3 16 49 0.091912989314605009 0 2678 0.091912989314605009 1
gene 2 8 393 -0.29797919271419721 0 2689 -0.29797919271419721 1
gene 2 49 169 0.49554626713299532 0 2883 0.49554626713299532 1
gene 3 421 471 0.020734136468141401 0 2910 0.020734136468141401 1
gene 3 471 30 -1.2823980340186498 0 2911 -1.2823980340186498 1
gene 1 301 18 1.0555346727164157 0 2946 1.0555346727164157 1
gene 2 169 148 1.22645838150124 0 2964 1.22645838150124 1
gene 3 393 514 0.23231550712711879 0 3170 0.23231550712711879 1
gene 2 514 17 0.80770076476396102 0 3171 0.80770076476396102 0
gene 1 16 534 0.42893645117475487 0 3285 0.42893645117475487 1
gene 1 534 231 2.8073103424661374 0 3286 2.8073103424661374 1
gene 3 205 205 0.25013633014174935 1 3437 0.25013633014174935 0
gene 2 13 261 1.7410833396674523 0 3452 1.7410833396674523 1
gene 2 6 567 2.521762707979307 0 3498 2.521762707979307 0
gene 3 567 393 -2.2580574491331622 0 3499 -2.2580574491331622 1
gene 1 15 231 -1.2936585544579002 0 3508 -1.2936585544579002 1
gene 1 7 575 0.1773709632350928 0 3564 0.1773709632350928 1
gene 1 575 169 4.951011420437605 0 3565 4.951011420437605 1
gene 1 324 471 1.0045942394084271 0 3574 1.0045942394084271 1
gene 2 11 588 0.95160201678592793 0 3644 0.95160201678592793 1
gene 2 588 17 1.4189276515594347 0 3645 1.4189276515594347 1
gene 3 9 301 -0.85360442584082685 0 3744 -0.85360442584082685 1
gene 3 324 169 1.9206114946494866 0 3803 1.9206114946494866 1
gene 2 45 205 -0.097504339691952019 0 3810 -0.097504339691952019 1
gene 1 45 632 1.0749982467736108 0 3874 1.0749982467736108 1
gene 1 632 18 0.89934699442207211 0 3875 0.89934699442207211 1
gene 1 12 534 1.0102442302788812 0 3930 1.0102442302788812 1
gene 1 11 658 -1.1106362403885628 0 4096 -1.1106362403885628 0
gene 1 658 18 2.0009986134250641 0 4097 2.0009986134250641 1
gene 2 6 148 -1.5446804166048207 0 4147 -1.5446804166048207 1
gene 2 49 668 0.083498493108665084 0 4169 0.083498493108665084 1
gene 2 668 205 -0.10775410388957429 0 4170 -0.10775410388957429 1
gene 2 319 678 1.3176468230400453 0 4232 1.3176468230400453 1
gene 2 678 324 -0.76792288211543247 0 4233 -0.76792288211543247 1
gene 2 10 45 0.87965866591765485 0 4336 0.87965866591765485 1
gene 3 421 241 0.031731322655329165 0 4344 0.031731322655329165 1
gene 2 15 697 -1.0063714040472971 0 4354 -1.0063714040472971 1
gene 2 697 30 1.2171443939288817 0 4355 1.2171443939288817 1
gene 1 3 632 -0.26508927730149057 0 4766 -0.26508927730149057 0
gene 3 205 758 -1.2159766313694309 1 4774 -1.2159766313694309 1
gene 3 758 205 -1.4184707994193169 0 4775 -1.4184707994193169 1
gene 3 49 769 0.85888712590508487 0 4826 0.85888712590508487 1
gene 3 769 30 0.69039293410740443 0 4827 0.69039293410740443 1
gene 1 12 575 -0.34951073459792453 0 4924 -0.34951073459792453 0
gene 1 12 804 1.1182731746781025 0 5037 1.1182731746781025 1
gene 1 804 575 1.7868779801236823 0 5038 1.7868779801236823 1
gene 1 7 231 1.9862977457168969 0 5090 1.9862977457168969 1
gene 3 588 588 1.9081426348575126 1 5104 1.9081426348575126 1
gene 2 514 821 -2.5489469843678862 0 5147 -2.5489469843678862 1
gene 2 821 17 -1.3653930506507834 0 5148 -1.3653930506507834 1
gene 3 514 668 -1.7454556812278255 0 5402 -1.7454556812278255 0
gene 3 324 324 0.52455904522191688 1 5418 0.52455904522191688 1
gene 3 148 196 3.0007727220658089 0 5427 3.0007727220658089 1
gene 1 804 196 -1.3138994152256749 0 5638 -1.3138994152256749 1
gene 1 11 882 2.4159276079926304 0 5655 2.4159276079926304 1
gene 1 882 658 0.4425602995057405 0 5656 0.4425602995057405 1
gene 1 534 18 -1.7789834888088443 0 5665 -1.7789834888088443 1
gene 1 49 471 0.74258617625692258 0 5770 0.74258617625692258 1
gene 2 45 514 -1.3900221695145696 0 5792 -1.3900221695145696 1
gene 1 324 188 -0.79359008781313434 0 5836 -0.79359008781313434 1
gene 3 16 196 -0.38727349386889182 0 5864 -0.38727349386889182 1
gene 3 678 821 2.9057017594602437 0 6046 2.9057017594602437 1
gene 2 12 943 0.31267440100790678 0 6088 0.31267440100790678 1
gene 2 943 45 0.94232103435430736 0 6089 0.94232103435430736 1
gene 3 514 945 0.98416904149771156 0 6114 0.98416904149771156 1
gene 3 945 668 1.6659364498527425 0 6115 1.6659364498527425 1
gene 3 567 697 -0.8274729067121972 0 6200 -0.8274729067121972 1
gene 1 678 588 -0.44670896672024812 0 6211 -0.44670896672024812 1
gene 2 6 962 -0.48259092121505698 0 6221 -0.48259092121505698 1
gene 2 962 567 2.521762707979307 0 6222 2.521762707979307 1
gene 1 962 945 2.0554306633097261 0 6232 2.0554306633097261 1
gene 1 471 45 -0.052551514260727683 0 6251 -0.052551514260727683 1
genomeend 1
