genomestart 1
trait 1 0 0.810793 0.661849 1 0.570642 0.993951 0.421621 1 
trait 2 1 0.116808 1 0 0 0.171802 0.28285 0.00311382 
trait 3 1 1 1 0.920992 0 0 0 0.0223476 
node 1 1 1 3
node 2 1 1 1
node 3 3 1 1
node 4 3 1 1
node 5 1 1 1
node 6 2 1 1
node 7 3 1 1
node 8 1 1 1
node 9 1 1 1
node 10 3 1 1
node 11 2 1 1
node 12 1 1 1
node 13 1 1 1
node 14 2 1 1
node 15 2 1 1
node 16 3 1 1
node 17 3 0 2
node 18 3 0 2
nodegru 21 0 0.99242525337842546 -3.0879884600117746 -1.3016790034257242 0.89464631555352636 -1.0207302845179711 -0.61880234471466489 [ 0.44308672004523075 -1.3026162084669881 -0.85462227666500135 -3.3171450241083029 -0.6721300620921562 -0.70951212649676587 2.1926264933741773 0 ] [ -1.0181552807419352 3.4441559680011853 1.4315666744632491 -0.72990680985614032 0.29938454939955128 -0.58235502177027754 1.2451651737769902 0 ] [ 1.351456390391782 -0.51406236342809275 -0.40913413297810319 0.6405083272329104 0.28940430250456761 0.019751164838555768 0.87183506245344655 0 ]
node 32 1 0 0
node 84 1 0 0
node 95 1 0 0
node 142 1 0 0
node 147 1 0 0
node 156 1 0 0
node 191 1 0 0
nodegru 197 0 -0.68738547092647551 -0.73998257971367909 -0.29697799743012443 -2.1308971816352091 1.3452132359823274 0.46751603948302378 [ 0.78723961291240518 -0.061516324086820728 -0.67925508072565077 1.2402809696459589 ] [ -1.3904131748203248 -1.1404763654062879 -2.4562205676716848 1.684206343807376 ] [ -1.6356096484864178 -1.9573655365767728 1.4468194709377453 -1.447477812155838 ]
nodegru 230 0 0.55563026925345427 -2.2199069276544767 -0.71849984639254394 0.84686408557317427 -0.48120114346090759 1.0562921753415335 [ 1.3249018764239278 ] [ 0.89988490445533997 ] [ -0.95218725453698427 ]
node 236 3 0 0
nodegru 258 0 -2.547110621839348 1.9205939562155838 -0.64491740667490161 -0.34796560758164413 2.6769277752269653 -0.068473117225092528 [ -1.1420519250175227 ] [ 0.34705796202042027 ] [ 0.818624839800701 ]
node 290 1 0 0
node 391 1 0 0
node 411 2 0 0
node 437 3 0 0
node 460 1 0 0
node 468 1 0 0
nodegru 540 0 0 1.1162795278319528 0 -0.20410760408458656 1.3886837800446357 0 [ -1.4402970294190092 ] [ 0 ] [ 0 ]
nodegru 555 0 -0.61680455930382228 -0.80110755274123857 0 -0.1088809124701102 0.58352223461657871 0.48329553170283118 [ 0 0.68627584804141706 -1.4323646882233976 ] [ -1.2434766100456365 -1.2159792164880685 0 ] [ 0 1.1194782234353378 -0.24476248665934544 ]
node 629 1 0 0
node 649 1 0 0
node 651 1 0 0
node 753 1 0 0
node 796 1 0 0
node 804 1 0 0
nodegru 815 0 0.10617130510796388 0 0 0.52086737706366337 0 0 [ 0 ] [ 1.4715174122115213 ] [ -0.18306447015286631 ]
gene 1 1 17 0.68457681391601299 0 1 0.68457681391601299 1
gene 3 2 17 1.6484003300538288 0 2 1.6484003300538288 1
gene 1 3 17 1.1028995048733892 0 3 1.1028995048733892 1
gene 2 4 17 0.35429294773111725 0 4 0.35429294773111725 0
gene 3 5 17 0.1955201528945566 0 5 0.1955201528945566 1
gene 2 6 17 -0.76261833322356365 0 6 -0.76261833322356365 0
gene 3 7 17 -1.0865601378430427 0 7 -1.0865601378430427 1
gene 2 8 17 -0.30999552612658382 0 8 -0.30999552612658382 0
gene 2 9 17 0.0423659258719375 0 9 0.0423659258719375 1
gene 2 10 17 -1.1036665090842481 0 10 -1.1036665090842481 1
gene 1 11 17 1.6390913967690857 0 11 1.6390913967690857 0
gene 1 12 17 4.9895050376604804 0 12 4.9895050376604804 1
gene 2 13 17 0.77775073413632378 0 13 0.77775073413632378 1
gene 3 14 17 1.5800227357912915 0 14 1.5800227357912915 0
gene 3 15 17 -4.958513515749253 0 15 -4.958513515749253 1
gene 3 16 17 -2.7991112709506938 0 16 -2.7991112709506938 1
gene 2 1 18 -0.73616502375163373 0 17 -0.73616502375163373 1
gene 1 2 18 0.38054993975933177 0 18 0.38054993975933177 0
gene 1 3 18 -0.21024025218106818 0 19 -0.21024025218106818 1
gene 3 4 18 1.1485815435408528 0 20 1.1485815435408528 1
gene 2 5 18 -0.61233046493135879 0 21 -0.61233046493135879 1
gene 3 6 18 1.3902472299012576 0 22 1.3902472299012576 1
gene 1 7 18 -3.0779893328798891 0 23 -3.0779893328798891 1
gene 1 8 18 -0.39813166479493106 0 24 -0.39813166479493106 1
gene 3 9 18 0.62571346276705775 0 25 0.62571346276705775 1
gene 2 10 18 0.93491657214933843 0 26 0.93491657214933843 1
gene 3 11 18 -0.71535953982517086 0 27 -0.71535953982517086 0
gene 3 12 18 0.54271529803178986 0 28 0.54271529803178986 0
gene 1 13 18 -0.38921069278810672 0 29 -0.38921069278810672 0
gene 2 14 18 1.6005601140673087 0 30 1.6005601140673087 1
gene 2 15 18 4.860396759286707 0 31 4.860396759286707 1
gene 2 16 18 -0.21035895599534693 0 32 -0.21035895599534693 1
gene 1 7 21 0.85657927643348442 0 41 0.85657927643348442 0
gene 1 21 17 -0.18969556628246587 0 42 -0.18969556628246587 0
gene 1 9 21 -2.0313831786771228 0 75 -2.0313831786771228 0
gene 1 9 32 3.2443241557312779 0 91 3.2443241557312779 0
gene 3 32 21 -0.47437241532577779 0 92 -0.47437241532577779 0
gene 2 18 18 -0.15189453803556716 1 209 -0.15189453803556716 1
gene 1 2 84 0.23666652652279763 0 362 0.23666652652279763 1
gene 1 84 18 0.052553176438693727 0 363 0.052553176438693727 1
gene 3 14 95 -4.112005307624119 0 425 -4.112005307624119 0
gene 3 95 17 2.6607224935017166 0 426 2.6607224935017166 1
gene 1 18 17 -0.9542481780304799 1 474 -0.9542481780304799 1
gene 1 12 95 1.0047062453835767 0 486 1.0047062453835767 1
gene 1 6 142 -0.41842261651457413 0 773 -0.41842261651457413 1
gene 3 142 17 -1.3729811310176652 0 774 -1.3729811310176652 0
gene 3 12 147 0.024182056786577255 0 816 0.024182056786577255 1
gene 3 147 18 -1.4912862747401403 0 817 -1.4912862747401403 1
gene 1 11 156 1.7689829479292887 0 881 1.7689829479292887 1
gene 1 156 17 0.38228076504649633 0 882 0.38228076504649633 1
gene 3 15 156 0.14470558643560186 0 965 0.14470558643560186 1
gene 1 84 84 -1.9057970074498081 1 974 -1.9057970074498081 1
gene 2 4 191 -0.52677794803249556 0 1134 -0.52677794803249556 1
gene 2 191 17 -0.38100536767440163 0 1135 -0.38100536767440163 1
gene 1 13 197 -0.80980300824614382 0 1187 -0.80980300824614382 0
gene 1 197 18 -1.4413805468666276 0 1188 -1.4413805468666276 1
gene 3 14 230 1.3656804542363064 0 1401 1.3656804542363064 1
gene 1 230 95 -0.84588492910651725 0 1402 -0.84588492910651725 0
gene 1 7 236 0.036123583110106917 0 1450 0.036123583110106917 0
gene 1 236 21 -1.8402021435742275 0 1451 -1.8402021435742275 1
gene 1 191 156 0.5757771053238665 0 1577 0.5757771053238665 1
gene 3 11 258 -1.894653700243055 0 1592 -1.894653700243055 1
gene 3 258 18 0.81630319162099774 0 1593 0.81630319162099774 1
gene 1 197 142 1.4570636534863448 0 1752 1.4570636534863448 0
gene 3 142 290 1.373589637630428 0 1780 1.373589637630428 1
gene 3 290 17 0.73466630244379227 0 1781 0.73466630244379227 1
gene 2 9 156 2.2104345542427315 0 1819 2.2104345542427315 1
gene 3 16 21 0.63200356212072251 0 1844 0.63200356212072251 1
gene 1 14 156 1.8523352152445982 0 1870 1.8523352152445982 1
gene 1 258 156 -0.8616744013790385 0 1919 -0.8616744013790385 1
gene 2 8 84 0.59795480458901951 0 2067 0.59795480458901951 1
gene 1 6 156 1.4549097621137788 0 2200 1.4549097621137788 1
gene 2 236 236 0.60169417136427672 1 2344 0.60169417136427672 1
gene 1 21 391 -1.4015892517760347 0 2348 -1.4015892517760347 0
gene 1 391 17 -1.6210186388907109 0 2349 -1.6210186388907109 1
gene 3 12 21 0.37951049575559359 0 2368 0.37951049575559359 1
gene 1 9 411 0.1651554052555726 0 2499 0.1651554052555726 1
gene 1 411 32 2.1887075303535477 0 2500 2.1887075303535477 0
gene 2 191 142 2.7190882753204031 0 2512 2.7190882753204031 0
gene 2 191 437 0.072485560817870165 0 2671 0.072485560817870165 0
gene 2 437 142 -1.2555800635626446 0 2672 -1.2555800635626446 1
gene 3 437 84 0.98960893949941209 0 2685 0.98960893949941209 1
gene 1 197 460 -0.033442225555629479 0 2812 -0.033442225555629479 1
gene 1 460 142 3.3992113105017743 0 2813 3.3992113105017743 1
gene 2 21 468 0.56412144660210306 0 2874 0.56412144660210306 1
gene 1 468 391 -1.2609955797721608 0 2875 -1.2609955797721608 1
gene 1 156 156 -0.50819649943532252 1 2885 -0.50819649943532252 1
gene 1 9 437 -0.20551422084938467 0 2904 -0.20551422084938467 1
gene 3 468 95 0.016517557909953462 0 2909 0.016517557909953462 1
gene 3 258 32 0.81783354204047176 0 3072 0.81783354204047176 1
gene 3 32 32 -0.37737100309569893 1 3257 -0.37737100309569893 1
gene 2 84 17 1.3990514950822346 0 3265 1.3990514950822346 1
gene 1 7 540 -0.80392507361430909 0 3305 -0.80392507361430909 1
gene 1 540 236 0.59640684868041749 0 3306 0.59640684868041749 1
gene 2 8 555 0.67326660345926259 0 3394 0.67326660345926259 1
gene 2 555 17 2.4952628992010202 0 3395 2.4952628992010202 1
gene 2 84 95 -0.13105568575256304 0 3425 -0.13105568575256304 1
gene 2 95 555 0.12198627233597746 0 3589 0.12198627233597746 0
gene 3 147 197 3.4457473882687033 0 3593 3.4457473882687033 1
gene 2 12 32 -0.87319467071126899 0 3695 -0.87319467071126899 1
gene 3 95 95 -1.1326734463836408 1 3721 -1.1326734463836408 1
gene 1 12 460 -0.84377689303074832 0 3824 -0.84377689303074832 0
gene 2 15 21 -1.4430016795839191 0 3830 -1.4430016795839191 1
gene 2 84 468 1.1160340316668311 0 3838 1.1160340316668311 1
gene 3 7 147 -1.6011226131120333 0 3844 -1.6011226131120333 1
gene 3 7 32 0.69932897188669496 0 3884 0.69932897188669496 1
gene 1 3 437 2.3539265724150122 0 3963 2.3539265724150122 0
gene 2 191 629 -0.47843670168818753 0 3989 -0.47843670168818753 1
gene 2 629 437 0.64526917279943319 0 3990 0.64526917279943319 1
gene 1 411 411 0.38231048867214024 1 4026 0.38231048867214024 1
gene 2 95 649 -2.0983396945979162 0 4115 -2.0983396945979162 1
gene 2 649 555 -3.3668000646246599 0 4116 -3.3668000646246599 1
gene 1 3 651 -0.67396451703923033 0 4126 -0.67396451703923033 1
gene 1 651 437 -3.336097955860243 0 4127 -3.336097955860243 1
gene 1 9 236 0.14641304018274556 0 4469 0.14641304018274556 1
gene 1 12 468 -0.62291704543070736 0 4511 -0.62291704543070736 1
gene 3 32 197 -0.57294036893776634 0 4710 -0.57294036893776634 1
gene 1 13 753 -1.2179258261890735 0 4837 -1.2179258261890735 1
gene 1 753 197 -1.6817915601105389 0 4838 -1.6817915601105389 1
gene 1 230 796 2.3074449602549172 0 5106 2.3074449602549172 1
gene 1 796 95 -0.24964094499575018 0 5107 -0.24964094499575018 1
gene 1 411 804 0.97008595381401763 0 5183 0.97008595381401763 1
gene 1 804 32 4.1507048912582478 0 5184 4.1507048912582478 1
gene 1 8 95 0.058948157149808611 0 5204 0.058948157149808611 1
gene 3 32 815 -1.2578696411838148 0 5280 -1.2578696411838148 1
gene 3 815 21 -3.3656587644320255 0 5281 -3.3656587644320255 1
gene 2 15 651 -0.046440577156115243 0 5284 -0.046440577156115243 1
gene 1 796 84 -0.37559797841850573 0 5310 -0.37559797841850573 1
gene 1 156 142 -1.9392202263414955 0 5449 -1.9392202263414955 1
gene 3 796 796 -0.99799229856487004 1 5503 -0.99799229856487004 1
gene 2 796 437 -1.2691823561998004 0 5604 -1.2691823561998004 1
gene 3 32 290 -0.32842903133874252 0 5608 -0.32842903133874252 1
gene 3 7 391 1.306856089414496 0 5732 1.306856089414496 1
gene 2 629 651 2.5150269672810226 0 5746 2.5150269672810226 1
gene 1 629 629 -0.12421728536682997 1 5760 -0.12421728536682997 1
gene 2 411 84 -0.47776765072614313 0 5941 -0.47776765072614313 1
genomeend 1
