genomestart 1
trait 1 0 0.464524 0.454359 0 0.324935 0.137977 0.746529 0 
trait 2 0.233851 0.48482 0 0 0.218319 0 0.510794 0.214608 
trait 3 0 0 0.318972 0.677918 0.218445 1 0 0.788621 
node 1 1 1 3
node 2 3 1 1
node 3 1 1 1
node 4 3 1 1
node 5 3 1 1
node 6 3 1 1
node 7 3 1 1
node 8 3 1 1
node 9 3 1 1
node 10 2 1 1
node 11 2 1 1
node 12 1 1 1
node 13 1 1 1
node 14 2 1 1
node 15 1 1 1
node 16 3 1 1
node 17 2 0 2
node 18 3 0 2
nodegru 22 0 -0.6827586065897524 -1.9446457463524518 3.3261310019652037 -1.0853984912789421 -1.3824798829771949 0.042384289923302967 [ 0.291498166179051 2.4665937365342829 -3.2615666826076657 0.064202545240616082 1.1178314951797161 -1.5142951437804359 -0.34913179504179015 -0.42070303830350891 ] [ -0.95982883519485074 -0.021387488358368845 -0.10091649163557054 2.9549415658483937 -1.0681189750638413 -1.0422633351023605 1.7369482646402661 0.4061408736305967 ] [ 0.34784861996204064 -0.43328880189605468 -1.8052963497141825 -2.5604945696240731 1.4877674106917191 0.16350215727626449 -1.459019838813236 0.66658498191581339 ]
node 61 1 0 0
node 65 1 0 0
node 82 2 0 0
nodegru 104 0 -2.0152781270515536 -1.0321125968043288 0.71086286739952065 -0.034993544702880741 -1.0827616011177943 0.913212887669547 [ 1.2268920632670128 -1.2905942438126514 0.71345636305094529 0 0 0.40900267819361885 -1.1333329554802427 ] [ -1.0716759544199683 0.21481136987675514 0.17793831121080478 0.96617221970398548 1.1969039704170561 -0.22978422265955445 0.12770025065527307 ] [ 1.617257200468917 0 -0.20462276283866854 1.5762865171191687 0.30264810416970778 0.30949267270485536 -0.9340758924065512 ]
nodegru 117 0 1.4799627817608243 -1.9106860325721498 -0.96969293266054846 0.89040772472061569 -2.4643491124568273 0.62238411494641754 [ 0 -0.30682044164595212 ] [ 1.982481514095553 0.94586127784376095 ] [ -1.3960964851528856 0.48869354580002533 ]
nodegru 119 0 2.0506978321590914 -0.34789521775576071 -0.33384946562994711 0.36820604576180038 0.49729386390992159 0.84686338009632345 [ 0.74327184806730195 -0.053420691542989118 -0.57934636626362168 0 0 ] [ 0.1251226401073498 -1.1952789464012157 0 0 0 ] [ 0.78549220333131586 -0.024166142346414805 -1.0227121233580223 0 0 ]
node 131 1 0 0
node 150 3 0 0
nodegru 165 0 0 0 0.14013023448182749 -0.80154282357615547 0.69081089491528036 0 [ -0.29008026248313501 -0.5458025646143605 0 0 ] [ -0.13489310053870693 -1.2081905983892227 0 0 ] [ -2.6004553754350428 0.82177654505790054 1.3618585222223114 0 ]
nodegru 209 0 -0.083998312979935763 1.3348544846916826 -0.19689225018811052 -1.2329455715291882 1.6055970085345195 -1.2658494113785443 [ -2.6322624942438035 ] [ 0.1594768872761525 ] [ -0.18999970783013836 ]
node 228 3 0 0
node 236 3 0 0
node 294 1 0 0
node 319 1 0 0
node 329 1 0 0
node 333 1 0 0
node 389 1 0 0
nodegru 470 0 -0.96432772952333456 -1.8668704607369706 0.13169153413348439 2.4008663889956039 0.82711135750967602 0.98081822715737776 [ -0.64486176969709885 -0.72686499693750639 0 0 ] [ 1.6393024097845437 -1.0317502066175221 0 -0.44978047928296983 ] [ -1.1048982269619116 0.50461121648764751 0 0 ]
nodegru 502 0 -0.97433188440014251 1.2664605121903401 0.5373912828682883 2.2610579902590517 -0.5214872285823744 -2.4754856198446293 [ 1.4394541375522754 1.1286729120782917 0.92879221026263759 ] [ -0.72064072905138155 1.468488582860906 0.074739602662036012 ] [ -1.9434112694316594 -0.70212006811151284 0 ]
nodegru 528 0 0 0 0 1.3789078895370048 0 1.2487829519662927 [ 0 0 ] [ 0.92983826060306196 0 ] [ -0.67351505075279394 0.94738043213606837 ]
node 530 1 0 0
node 564 1 0 0
node 576 1 0 0
nodegru 586 0 0 -1.4091100156815304 0 0 0 -0.18379559492869096 [ 0 ] [ 1.2646947127136843 ] [ 0 ]
nodegru 589 0 0 0 0 -0.99827143805952345 0 0 [ 0 0 ] [ 0 0 ] [ 0 0 ]
nodegru 623 0 -1.3620416919524045 -0.79313232344255424 0.014250722487573848 -1.0889649051655852 0.87447943835262187 -0.93152722387180065 [ 0.53674454639514191 ] [ 0.72648827020381035 ] [ 0.78268483294299096 ]
node 666 1 0 0
node 676 2 0 0
node 684 1 0 0
node 694 1 0 0
node 696 1 0 0
node 730 1 0 0
nodegru 733 0 0 0 0 0 0 0 [ 0 ] [ 0 ] [ 0 ]
node 750 1 0 0
nodegru 778 0 0 0 0 0 0 0 [ 0 ] [ 0 ] [ 0 ]
nodegru 792 0 0 0 0 0.27713062999636429 0 0 [ 0.22600328723248247 ] [ 0 ] [ 0 ]
node 798 1 0 0
nodegru 801 0 0 0 0 0 0 0 [ 0 ] [ 0 ] [ 0 ]
nodegru 803 0 0 -1.2455920871559494 0 0 0 0 [ 0 ] [ 0 ] [ 0 ]
node 842 1 0 0
nodegru 845 0 0 0 0 -1.479224039930489 0 0 [ 0 ] [ 0 ] [ 0 ]
nodegru 863 0 0.84286312937869834 0 0 0 -1.1971248286762857 0 [ 0 ] [ 0 ] [ 0 ]
node 912 1 0 0
node 915 1 0 0
nodegru 927 0 0 0 0 0 0 0 [ 0 ] [ 0 ] [ 0 ]
gene 3 1 17 -1.4510623197774692 0 1 -1.4510623197774692 1
gene 3 2 17 3.1239801922924726 0 2 3.1239801922924726 1
gene 3 3 17 0.52461234783968547 0 3 0.52461234783968547 1
gene 3 4 17 2.3904116327829712 0 4 2.3904116327829712 0
gene 3 5 17 -3.8059046346721725 0 5 -3.8059046346721725 1
gene 2 6 17 3.7568766345534832 0 6 3.7568766345534832 1
gene 1 7 17 1.3783000625568911 0 7 1.3783000625568911 1
gene 3 8 17 2.298111426782846 0 8 2.298111426782846 1
gene 3 9 17 -2.7982432773794241 0 9 -2.7982432773794241 1
gene 2 10 17 1.8863275255478582 0 10 1.8863275255478582 1
gene 1 11 17 0.78451670766087089 0 11 0.78451670766087089 1
gene 2 12 17 0.98073413431678613 0 12 0.98073413431678613 0
gene 3 13 17 3.0301573297614963 0 13 3.0301573297614963 1
gene 2 14 17 0.8444412356915143 0 14 0.8444412356915143 0
gene 2 15 17 -7.7447041886601156 0 15 -7.7447041886601156 1
gene 1 16 17 -5.0971356474781118 0 16 -5.0971356474781118 1
gene 3 1 18 1.4870832238751852 0 17 1.4870832238751852 1
gene 3 2 18 -1.9287881634332185 0 18 -1.9287881634332185 0
gene 1 3 18 1.8427108562750329 0 19 1.8427108562750329 0
gene 1 4 18 -0.67460368674928506 0 20 -0.67460368674928506 0
gene 2 5 18 0.66410292366710633 0 21 0.66410292366710633 0
gene 2 6 18 -3.7473463962075053 0 22 -3.7473463962075053 1
gene 2 7 18 -1.0776280598145109 0 23 -1.0776280598145109 1
gene 3 8 18 0.77735948505688435 0 24 0.77735948505688435 0
gene 1 9 18 4.2654723270169796 0 25 4.2654723270169796 0
gene 2 10 18 -2.2813200153323447 0 26 -2.2813200153323447 0
gene 3 11 18 0.97583420224293793 0 27 0.97583420224293793 1
gene 1 12 18 -0.62691027979688263 0 28 -0.62691027979688263 1
gene 2 13 18 0.084885825209732091 0 29 0.084885825209732091 0
gene 2 14 18 3.2786394019046057 0 30 3.2786394019046057 1
gene 1 15 18 0.33512005528207878 0 31 0.33512005528207878 1
gene 1 16 18 1.2781506980667592 0 32 1.2781506980667592 1
gene 3 8 22 -0.66011752079246433 0 49 -0.66011752079246433 0
gene 3 22 18 -1.3576659410529144 0 50 -1.3576659410529144 1
gene 3 2 22 -1.048951448429819 0 99 -1.048951448429819 1
gene 1 17 17 -2.1347122188353502 1 122 -2.1347122188353502 1
gene 2 6 22 0.072974682586721462 0 221 0.072974682586721462 0
gene 1 3 22 0.95102835863410873 0 242 0.95102835863410873 1
gene 3 4 61 0.50091698486400638 0 306 0.50091698486400638 1
gene 2 61 18 -1.1257326228663944 0 307 -1.1257326228663944 1
gene 3 8 65 1.2979293611356659 0 319 1.2979293611356659 0
gene 3 65 22 -2.305017016970095 0 320 -2.305017016970095 1
gene 2 11 61 -1.2724065469915078 0 354 -1.2724065469915078 1
gene 1 13 61 0.66904874386687241 0 413 0.66904874386687241 0
gene 3 14 82 -0.2729711985555342 0 443 -0.2729711985555342 1
gene 3 82 17 0.66803870986590108 0 444 0.66803870986590108 1
gene 3 22 82 -0.5151089201751673 0 454 -0.5151089201751673 1
gene 2 10 61 0.55900527679315082 0 505 0.55900527679315082 1
gene 3 8 104 1.729130198121597 0 573 1.729130198121597 0
gene 3 104 65 0.51525367773848285 0 574 0.51525367773848285 0
gene 2 10 117 0.49454676918431506 0 636 0.49454676918431506 1
gene 2 117 18 -0.48303616139247835 0 637 -0.48303616139247835 1
gene 2 6 119 -0.22730280842040795 0 655 -0.22730280842040795 0
gene 2 119 22 2.1343036080404669 0 656 2.1343036080404669 0
gene 1 13 131 1.7428364147165962 0 731 1.7428364147165962 0
gene 1 131 61 0.48901908634650482 0 732 0.48901908634650482 0
gene 2 131 22 -0.98233574977253368 0 812 -0.98233574977253368 1
gene 2 12 150 1.4842441719883328 0 832 1.4842441719883328 0
gene 2 150 17 2.9822877701289427 0 833 2.9822877701289427 1
gene 1 14 104 -3.1203714330309866 0 875 -3.1203714330309866 1
gene 1 5 165 -0.41651056051091784 0 911 -0.41651056051091784 0
gene 1 165 18 -1.4082253595852412 0 912 -1.4082253595852412 1
gene 1 10 104 -0.31892176895352187 0 957 -0.31892176895352187 1
gene 2 65 82 -2.0820668735923555 0 964 -2.0820668735923555 0
gene 1 13 209 -0.96592856127113502 0 1195 -0.96592856127113502 1
gene 1 209 131 -0.68214896353061727 0 1196 -0.68214896353061727 0
gene 2 6 117 0.70877864151670544 0 1257 0.70877864151670544 1
gene 3 6 104 -0.74480301013440031 0 1264 -0.74480301013440031 1
gene 2 82 150 1.2564125409146829 0 1322 1.2564125409146829 0
gene 1 9 228 1.3919482777788996 0 1329 1.3919482777788996 1
gene 1 228 18 -0.87912049744237242 0 1330 -0.87912049744237242 0
gene 3 61 150 1.8170519675207566 0 1335 1.8170519675207566 1
gene 3 4 236 -0.37109187984424263 0 1384 -0.37109187984424263 1
gene 3 236 17 1.158889150553797 0 1385 1.158889150553797 0
gene 2 2 65 0.72335505682199952 0 1629 0.72335505682199952 1
gene 3 7 165 2.1366869134999282 0 1651 2.1366869134999282 1
gene 2 11 104 5.6509817280578334 0 1681 5.6509817280578334 1
gene 3 209 165 1.3407688757128873 0 1709 1.3407688757128873 1
gene 1 2 104 0.8112109849747321 0 1713 0.8112109849747321 0
gene 1 209 294 0.65065928765137648 0 1783 0.65065928765137648 1
gene 1 294 131 0.92648236729506517 0 1784 0.92648236729506517 1
gene 2 119 319 -1.4024895505991248 0 1930 -1.4024895505991248 1
gene 2 319 22 -0.10670259483470701 0 1931 -0.10670259483470701 1
gene 3 228 236 -0.24284813541120295 0 1977 -0.24284813541120295 1
gene 1 131 329 -0.96220653735203965 0 2001 -0.96220653735203965 1
gene 1 329 61 -1.1260628013992975 0 2002 -1.1260628013992975 0
gene 3 3 333 -4.0020227329814908 0 2024 -4.0020227329814908 1
gene 3 333 17 -1.1251271162764762 0 2025 -1.1251271162764762 1
gene 1 228 228 -2.3617753432419968 1 2190 -2.3617753432419968 1
gene 3 22 65 -1.9262572743120872 1 2246 -1.9262572743120872 1
gene 1 6 228 1.1944949436907166 0 2260 1.1944949436907166 1
gene 1 15 119 0.46048158451937204 0 2280 0.46048158451937204 1
gene 3 16 329 1.4608721381336787 0 2292 1.4608721381336787 0
gene 3 104 389 -0.9884163993356827 0 2375 -0.9884163993356827 1
gene 3 389 65 4.9905918030955787 0 2376 4.9905918030955787 1
gene 1 236 236 -2.3272583460562206 1 2536 -2.3272583460562206 1
gene 2 61 61 -2.6956108145861006 1 2555 -2.6956108145861006 0
gene 1 14 389 0.72408890292238859 0 2674 0.72408890292238859 1
gene 1 165 333 0.093698083233879181 0 2682 0.093698083233879181 1
gene 1 65 65 0.92893087138837716 1 2740 0.92893087138837716 0
gene 3 16 470 2.1939597559133359 0 2966 2.1939597559133359 0
gene 3 470 329 2.5680997399930376 0 2967 2.5680997399930376 1
gene 3 8 502 -0.54459259079051792 0 3132 -0.54459259079051792 0
gene 3 502 104 2.3035743391623598 0 3133 2.3035743391623598 1
gene 2 8 294 0.4199350638873573 0 3150 0.4199350638873573 1
gene 1 329 528 -0.47027365000465582 0 3336 -0.47027365000465582 1
gene 1 528 61 0.90210618493245276 0 3337 0.90210618493245276 0
gene 1 5 530 -0.70663162540021895 0 3351 -0.70663162540021895 1
gene 1 530 18 1.105831065031621 0 3352 1.105831065031621 1
gene 2 65 528 -0.25652877462866197 0 3386 -0.25652877462866197 1
gene 2 165 470 1.4109332249085109 0 3393 1.4109332249085109 1
gene 2 18 18 -1.3177929238033448 1 3412 -1.3177929238033448 1
gene 1 528 564 -1.675024560501345 0 3543 -1.675024560501345 1
gene 1 564 61 0.57467229714369039 0 3544 0.57467229714369039 1
gene 1 228 333 -0.43111532550822729 0 3631 -0.43111532550822729 1
gene 3 1 333 1.2361837221478034 0 3638 1.2361837221478034 1
gene 3 6 576 0.53693392362302794 0 3649 0.53693392362302794 1
gene 2 576 119 -1.2535519985265808 0 3650 -1.2535519985265808 1
gene 2 131 319 0.14507657016863895 0 3674 0.14507657016863895 1
gene 2 119 61 -0.35626498533238893 0 3687 -0.35626498533238893 0
gene 3 2 586 -1.6964735357074407 0 3728 -1.6964735357074407 1
gene 3 586 18 2.1521313098036368 0 3729 2.1521313098036368 1
gene 3 236 589 -1.2278691179714487 0 3753 -1.2278691179714487 1
gene 3 589 17 1.9068787577128403 0 3754 1.9068787577128403 1
gene 1 104 150 -1.1330183742721651 0 3780 -1.1330183742721651 1
gene 3 119 502 0.028369536869400136 0 3883 0.028369536869400136 1
gene 2 1 389 0.26337205025524463 0 3977 0.26337205025524463 1
gene 2 65 623 -4.5764772117028372 0 3985 -4.5764772117028372 1
gene 2 623 82 0.63095147611151992 0 3986 0.63095147611151992 1
gene 3 131 131 -2.3540119225410803 1 4044 -2.3540119225410803 1
gene 3 82 82 -0.98844748851305209 1 4282 -0.98844748851305209 1
gene 1 228 666 -0.48619391139885126 0 4329 -0.48619391139885126 1
gene 1 666 18 -0.060554724913348901 0 4330 -0.060554724913348901 1
gene 3 104 564 -1.8667931362831935 0 4337 -1.8667931362831935 1
gene 2 61 676 -1.3387919053615964 1 4396 -1.3387919053615964 1
gene 2 676 61 4.8502138128272323 0 4397 4.8502138128272323 1
gene 2 82 684 -2.4835405917761575 0 4430 -2.4835405917761575 1
gene 2 684 150 2.8588946309680558 0 4431 2.8588946309680558 0
gene 1 65 150 3.3374555671296342 0 4474 3.3374555671296342 1
gene 1 5 694 -1.139097305545163 0 4491 -1.139097305545163 1
gene 1 694 165 -5.4607151606868554 0 4492 -5.4607151606868554 1
gene 2 684 696 1.8540839212267124 0 4499 1.8540839212267124 1
gene 2 696 150 0.11479089949968813 0 4500 0.11479089949968813 1
gene 1 16 589 -0.0054325950357284047 0 4598 -0.0054325950357284047 1
gene 2 131 82 -0.38217587460865071 0 4606 -0.38217587460865071 0
gene 2 14 730 -0.076045385131633614 0 4716 -0.076045385131633614 1
gene 2 730 17 0.4041461539008408 0 4717 0.4041461539008408 1
gene 2 12 733 -0.66302643514379234 0 4728 -0.66302643514379234 1
gene 2 733 150 0.61285321699122586 0 4729 0.61285321699122586 0
gene 3 8 750 -0.73210064029884558 0 4838 -0.73210064029884558 1
gene 3 750 502 -1.442956972607857 0 4839 -1.442956972607857 1
gene 1 329 119 -0.77970297298380298 0 4980 -0.77970297298380298 1
gene 1 65 778 -2.839967036312431 1 5017 -2.839967036312431 1
gene 1 778 65 1.827660577757126 0 5018 1.827660577757126 0
gene 2 131 792 1.3128956641596257 0 5102 1.3128956641596257 1
gene 1 792 82 -0.76481869805828606 0 5103 -0.76481869805828606 1
gene 2 733 798 -0.52314721351635984 0 5150 -0.52314721351635984 0
gene 2 798 150 -2.8738887486392111 0 5151 -2.8738887486392111 1
gene 1 2 801 -0.050280812452678125 0 5163 -0.050280812452678125 1
gene 1 801 17 0.47655810833748341 0 5164 0.47655810833748341 1
gene 3 16 803 -1.1543897470246953 0 5174 -1.1543897470246953 1
gene 3 803 470 -0.73862691234733302 0 5175 -0.73862691234733302 0
gene 2 676 389 0.48842340683956792 0 5271 0.48842340683956792 1
gene 3 13 676 1.856132054634454 0 5421 1.856132054634454 1
gene 3 803 842 -0.52051987662935639 0 5469 -0.52051987662935639 1
gene 3 842 470 -0.3551671089861389 0 5470 -0.3551671089861389 1
gene 1 3 845 2.4422770586992968 0 5497 2.4422770586992968 1
gene 1 845 18 -2.7738873722375779 0 5498 -2.7738873722375779 1
gene 1 778 863 3.7513632049091914 0 5603 3.7513632049091914 1
gene 1 863 65 1.3576241551701091 0 5604 1.3576241551701091 1
gene 2 236 119 -0.51673157839883654 0 5721 -0.51673157839883654 1
gene 3 694 576 3.2395347725784105 0 5758 3.2395347725784105 1
gene 3 803 676 -2.3800278223957996 0 5803 -2.3800278223957996 1
gene 2 733 912 0.81689930489142393 0 5859 0.81689930489142393 1
gene 2 912 798 1.0309104970800274 0 5860 1.0309104970800274 1
gene 1 13 694 0.39995869407428364 0 5872 0.39995869407428364 1
gene 2 13 915 -1.0067276684598663 0 5877 -1.0067276684598663 1
gene 2 915 18 4.2194827493370903 0 5878 4.2194827493370903 1
gene 2 5 294 2.4035565780492298 0 5928 2.4035565780492298 1
gene 1 696 696 -2.7850487172999649 1 5944 -2.7850487172999649 1
gene 2 119 927 -0.79838026049471511 0 5990 -0.79838026049471511 1
gene 2 927 61 -0.14323333657497231 0 5991 -0.14323333657497231 1
gene 1 294 294 -0.38820827910127503 1 6186 -0.38820827910127503 1
genomeend 1
