genomestart 1
trait 1 0 0.464524 0.454359 0 0.324935 0.814787 0.746529 0 
trait 2 0.233851 0 0.0350335 0 0.218319 0 0.510794 0 
trait 3 0 0 0.318972 0.677918 0.218445 1 0 0.788621 
node 1 1 1 3
node 2 3 1 1
node 3 1 1 1
node 4 3 1 1
node 5 3 1 1
node 6 3 1 1
node 7 3 1 1
node 8 3 1 1
node 9 3 1 1
node 10 2 1 1
node 11 2 1 1
node 12 1 1 1
node 13 1 1 1
node 14 2 1 1
node 15 1 1 1
node 16 3 1 1
node 17 2 0 2
node 18 3 0 2
nodegru 22 0 -0.6827586065897524 -1.9446457463524518 3.3261310019652037 -1.0853984912789421 -1.3824798829771949 0.042384289923302967 [ 0.291498166179051 2.4665937365342829 -3.2615666826076657 0.064202545240616082 1.1178314951797161 -1.5142951437804359 -0.34913179504179015 -0.42070303830350891 ] [ -0.95982883519485074 -0.021387488358368845 -0.10091649163557054 2.9549415658483937 -1.0681189750638413 -1.0422633351023605 1.7369482646402661 0.4061408736305967 ] [ 0.34784861996204064 -0.43328880189605468 -1.8052963497141825 -2.5604945696240731 1.4877674106917191 0.16350215727626449 -1.459019838813236 0.66658498191581339 ]
node 61 1 0 0
node 65 1 0 0
node 82 2 0 0
nodegru 104 0 -2.0152781270515536 -1.0321125968043288 0.71086286739952065 -0.034993544702880741 -1.0827616011177943 0.913212887669547 [ 1.2268920632670128 -1.2905942438126514 0.71345636305094529 0 0 0.40900267819361885 -1.1333329554802427 ] [ -1.0716759544199683 0.21481136987675514 0.17793831121080478 0.96617221970398548 1.1969039704170561 -0.22978422265955445 0.12770025065527307 ] [ 1.617257200468917 0 -0.20462276283866854 1.5762865171191687 0.30264810416970778 0.30949267270485536 -0.9340758924065512 ]
nodegru 117 0 1.4799627817608243 -1.9106860325721498 -0.96969293266054846 0.89040772472061569 -2.4643491124568273 0.62238411494641754 [ 0 -0.30682044164595212 ] [ 1.982481514095553 0.94586127784376095 ] [ -1.3960964851528856 0.48869354580002533 ]
nodegru 119 0 2.0506978321590914 -0.34789521775576071 -0.33384946562994711 0.36820604576180038 0.49729386390992159 0.84686338009632345 [ 0.74327184806730195 -0.053420691542989118 -0.57934636626362168 0 0 ] [ 0.1251226401073498 -1.1952789464012157 0 0 0 ] [ 0.78549220333131586 -0.024166142346414805 -1.0227121233580223 0 0 ]
node 131 1 0 0
node 150 3 0 0
nodegru 165 0 0 0 0.14013023448182749 -0.80154282357615547 0.69081089491528036 0 [ -0.29008026248313501 -0.5458025646143605 0 0 ] [ -0.13489310053870693 -1.2081905983892227 0 0 ] [ -2.6004553754350428 0.82177654505790054 1.3618585222223114 0 ]
nodegru 209 0 -0.083998312979935763 1.3348544846916826 -0.19689225018811052 -1.2329455715291882 1.6055970085345195 -1.2658494113785443 [ -2.6322624942438035 ] [ 0.1594768872761525 ] [ -0.18999970783013836 ]
node 228 3 0 0
node 236 3 0 0
node 294 1 0 0
node 319 1 0 0
node 329 1 0 0
node 333 1 0 0
node 389 1 0 0
nodegru 470 0 -0.96432772952333456 -1.8668704607369706 0.13169153413348439 2.4008663889956039 0.82711135750967602 0.98081822715737776 [ -0.64486176969709885 -0.72686499693750639 0 0 ] [ 1.6393024097845437 -1.0317502066175221 0 -0.44978047928296983 ] [ -1.1048982269619116 0.50461121648764751 0 0 ]
nodegru 502 0 -0.97433188440014251 1.2664605121903401 0.5373912828682883 2.2610579902590517 -0.5214872285823744 -2.4754856198446293 [ 1.4394541375522754 1.1286729120782917 0.92879221026263759 ] [ -0.72064072905138155 1.468488582860906 0.074739602662036012 ] [ -1.9434112694316594 -0.70212006811151284 0 ]
nodegru 528 0 0 0 0 1.3789078895370048 0 1.2487829519662927 [ 0 0 ] [ 0.92983826060306196 0 ] [ -0.67351505075279394 0.94738043213606837 ]
node 530 1 0 0
node 564 1 0 0
node 576 1 0 0
nodegru 586 0 0 -1.4091100156815304 0 0 0 -0.18379559492869096 [ 0 ] [ 1.2646947127136843 ] [ 0 ]
nodegru 589 0 0 0 0 -0.99827143805952345 0 0 [ 0 0 ] [ 0 0 ] [ 0 0 ]
nodegru 623 0 -1.3620416919524045 -0.79313232344255424 0.014250722487573848 -1.0889649051655852 0.87447943835262187 -0.93152722387180065 [ 0.53674454639514191 ] [ 0.72648827020381035 ] [ 0.78268483294299096 ]
node 666 1 0 0
node 676 1 0 0
node 684 1 0 0
node 694 1 0 0
node 696 1 0 0
node 730 1 0 0
nodegru 733 0 0 0 0 0 0 0 [ 0 ] [ 0 ] [ 0 ]
node 750 1 0 0
nodegru 778 0 0 0 0 0 0 0 [ 0 ] [ 0 ] [ 0 ]
nodegru 792 0 0 0 0 0.27713062999636429 0 0 [ 0.22600328723248247 ] [ 0 ] [ 0 ]
node 798 1 0 0
nodegru 801 0 0 0 0 0 0 0 [ 0 ] [ 0 ] [ 0 ]
nodegru 803 0 0 -1.2455920871559494 0 0 0 0 [ 0 ] [ 0 ] [ 0 ]
node 842 1 0 0
nodegru 845 0 0 0 0 -1.479224039930489 0 0 [ 0 ] [ 0 ] [ 0 ]
nodegru 863 0 0.84286312937869834 0 0 0 -1.1971248286762857 0 [ 0 ] [ 0 ] [ 0 ]
node 912 1 0 0
node 915 1 0 0
nodegru 927 0 0 0 0 0 0 0 [ 0 ] [ 0 ] [ 0 ]
gene 3 1 17 -1.4609727789466143 0 1 -1.4609727789466143 1
gene 3 2 17 3.1239801922924726 0 2 3.1239801922924726 1
gene 3 3 17 0.52461234783968547 0 3 0.52461234783968547 1
gene 3 4 17 1.0726556417404931 0 4 1.0726556417404931 0
gene 3 5 17 -3.5424631997209337 0 5 -3.5424631997209337 1
gene 2 6 17 2.6806679089463632 0 6 2.6806679089463632 1
gene 1 7 17 1.3783000625568911 0 7 1.3783000625568911 1
gene 3 8 17 1.3149716513301113 0 8 1.3149716513301113 1
gene 3 9 17 -2.9078295151273856 0 9 -2.9078295151273856 1
gene 2 10 17 1.8863275255478582 0 10 1.8863275255478582 1
gene 1 11 17 0.78451670766087089 0 11 0.78451670766087089 1
gene 2 12 17 0.98073413431678613 0 12 0.98073413431678613 0
gene 3 13 17 1.971394255976842 0 13 1.971394255976842 1
gene 2 14 17 1.9342081534835547 0 14 1.9342081534835547 0
gene 2 15 17 -7.7447041886601156 0 15 -7.7447041886601156 1
gene 1 16 17 -4.8234123980269832 0 16 -4.8234123980269832 1
gene 3 1 18 1.4870832238751852 0 17 1.4870832238751852 1
gene 3 2 18 -1.1954158934277557 0 18 -1.1954158934277557 0
gene 1 3 18 1.8427108562750329 0 19 1.8427108562750329 0
gene 1 4 18 0.46340989110218822 0 20 0.46340989110218822 0
gene 2 5 18 0.10857184445884627 0 21 0.10857184445884627 0
gene 2 6 18 -3.7473463962075053 0 22 -3.7473463962075053 1
gene 2 7 18 -1.0776280598145109 0 23 -1.0776280598145109 1
gene 3 8 18 0.77735948505688435 0 24 0.77735948505688435 0
gene 1 9 18 4.0567585863437312 0 25 4.0567585863437312 0
gene 2 10 18 -2.2813200153323447 0 26 -2.2813200153323447 0
gene 3 11 18 1.0626995682542675 0 27 1.0626995682542675 1
gene 1 12 18 2.1557482868226936 0 28 2.1557482868226936 1
gene 2 13 18 -1.0679097676500258 0 29 -1.0679097676500258 0
gene 2 14 18 4.1772910126844849 0 30 4.1772910126844849 1
gene 1 15 18 0.91044933577554743 0 31 0.91044933577554743 1
gene 1 16 18 2.3783475574470812 0 32 2.3783475574470812 1
gene 3 8 22 -0.66011752079246433 0 49 -0.66011752079246433 0
gene 3 22 18 -1.3576659410529144 0 50 -1.3576659410529144 1
gene 3 2 22 1.3749392805038669 0 99 1.3749392805038669 1
gene 1 17 17 -2.1347122188353502 1 122 -2.1347122188353502 1
gene 2 6 22 0.56117366536575075 0 221 0.56117366536575075 0
gene 1 3 22 0.95102835863410873 0 242 0.95102835863410873 1
gene 3 4 61 0.50091698486400638 0 306 0.50091698486400638 1
gene 2 61 18 -1.1257326228663944 0 307 -1.1257326228663944 1
gene 3 8 65 1.2979293611356659 0 319 1.2979293611356659 0
gene 3 65 22 -2.305017016970095 0 320 -2.305017016970095 1
gene 2 11 61 -1.2724065469915078 0 354 -1.2724065469915078 1
gene 1 13 61 0.66904874386687241 0 413 0.66904874386687241 0
gene 3 14 82 -0.2729711985555342 0 443 -0.2729711985555342 1
gene 3 82 17 0.66803870986590108 0 444 0.66803870986590108 1
gene 3 22 82 -0.5151089201751673 0 454 -0.5151089201751673 1
gene 2 10 61 0.55900527679315082 0 505 0.55900527679315082 1
gene 3 8 104 1.729130198121597 0 573 1.729130198121597 0
gene 3 104 65 0.51525367773848285 0 574 0.51525367773848285 0
gene 2 10 117 -0.98664532275248562 0 636 -0.98664532275248562 1
gene 2 117 18 -0.59836726267746054 0 637 -0.59836726267746054 1
gene 2 6 119 -0.22730280842040795 0 655 -0.22730280842040795 0
gene 2 119 22 2.1343036080404669 0 656 2.1343036080404669 0
gene 1 13 131 1.7428364147165962 0 731 1.7428364147165962 0
gene 1 131 61 0.48901908634650482 0 732 0.48901908634650482 0
gene 2 131 22 0.99653141922155875 0 812 0.99653141922155875 1
gene 2 12 150 1.4842441719883328 0 832 1.4842441719883328 0
gene 2 150 17 2.9822877701289427 0 833 2.9822877701289427 1
gene 1 14 104 -3.1203714330309866 0 875 -3.1203714330309866 1
gene 1 5 165 0.33718155363443381 0 911 0.33718155363443381 0
gene 1 165 18 -1.4082253595852412 0 912 -1.4082253595852412 1
gene 1 10 104 -0.31892176895352187 0 957 -0.31892176895352187 1
gene 2 65 82 -2.3255576069120121 0 964 -2.3255576069120121 0
gene 1 13 209 1.3891904723780188 0 1195 1.3891904723780188 1
gene 1 209 131 -0.79149513099877877 0 1196 -0.79149513099877877 0
gene 2 6 117 0.82314034636278666 0 1257 0.82314034636278666 1
gene 3 6 104 -0.12159111519418242 0 1264 -0.12159111519418242 1
gene 2 82 150 0.68499568276339939 0 1322 0.68499568276339939 0
gene 1 9 228 0.50755187799574442 0 1329 0.50755187799574442 1
gene 1 228 18 -0.87912049744237242 0 1330 -0.87912049744237242 0
gene 3 61 150 1.8170519675207566 0 1335 1.8170519675207566 1
gene 3 4 236 4.6241716195941764 0 1384 4.6241716195941764 1
gene 3 236 17 1.158889150553797 0 1385 1.158889150553797 0
gene 2 2 65 0.72335505682199952 0 1629 0.72335505682199952 1
gene 3 7 165 2.1366869134999282 0 1651 2.1366869134999282 1
gene 2 11 104 5.6509817280578334 0 1681 5.6509817280578334 1
gene 3 209 165 1.3179018501275697 0 1709 1.3179018501275697 1
gene 1 2 104 0.8112109849747321 0 1713 0.8112109849747321 0
gene 1 209 294 -0.14794723230784168 0 1783 -0.14794723230784168 1
gene 1 294 131 0.92648236729506517 0 1784 0.92648236729506517 1
gene 2 119 319 -1.4024895505991248 0 1930 -1.4024895505991248 1
gene 2 319 22 -0.10670259483470701 0 1931 -0.10670259483470701 1
gene 3 228 236 -0.24284813541120295 0 1977 -0.24284813541120295 1
gene 1 131 329 -0.96220653735203965 0 2001 -0.96220653735203965 1
gene 1 329 61 -1.1260628013992975 0 2002 -1.1260628013992975 0
gene 3 3 333 -4.0020227329814908 0 2024 -4.0020227329814908 1
gene 3 333 17 -1.1251271162764762 0 2025 -1.1251271162764762 1
gene 1 228 228 -1.438888827776019 1 2190 -1.438888827776019 1
gene 3 22 65 -1.9262572743120872 1 2246 -1.9262572743120872 1
gene 1 6 228 1.1944949436907166 0 2260 1.1944949436907166 1
gene 1 15 119 0.46048158451937204 0 2280 0.46048158451937204 1
gene 3 16 329 1.4608721381336787 0 2292 1.4608721381336787 0
gene 3 104 389 0.8517013740966568 0 2375 0.8517013740966568 1
gene 3 389 65 4.9905918030955787 0 2376 4.9905918030955787 1
gene 1 236 236 -2.3272583460562206 1 2536 -2.3272583460562206 1
gene 2 61 61 -2.6956108145861006 1 2555 -2.6956108145861006 0
gene 1 14 389 0.72408890292238859 0 2674 0.72408890292238859 1
gene 1 165 333 0.093698083233879181 0 2682 0.093698083233879181 1
gene 1 65 65 0.92893087138837716 1 2740 0.92893087138837716 0
gene 3 16 470 1.0406180129109965 0 2966 1.0406180129109965 0
gene 3 470 329 2.5680997399930376 0 2967 2.5680997399930376 1
gene 3 8 502 1.0857989876930598 0 3132 1.0857989876930598 0
gene 3 502 104 2.3035743391623598 0 3133 2.3035743391623598 1
gene 2 8 294 -0.093308792027322951 0 3150 -0.093308792027322951 1
gene 1 329 528 -0.47027365000465582 0 3336 -0.47027365000465582 1
gene 1 528 61 2.8184000802312044 0 3337 2.8184000802312044 0
gene 1 5 530 -0.70663162540021895 0 3351 -0.70663162540021895 1
gene 1 530 18 1.105831065031621 0 3352 1.105831065031621 1
gene 2 65 528 -0.25652877462866197 0 3386 -0.25652877462866197 1
gene 2 165 470 1.4109332249085109 0 3393 1.4109332249085109 1
gene 2 18 18 -1.3177929238033448 1 3412 -1.3177929238033448 1
gene 1 528 564 4.5481416837070796 0 3543 4.5481416837070796 1
gene 1 564 61 -0.68215835894558507 0 3544 -0.68215835894558507 1
gene 1 228 333 -0.81892341925712464 0 3631 -0.81892341925712464 1
gene 3 1 333 1.2361837221478034 0 3638 1.2361837221478034 1
gene 3 6 576 -0.77333067230569719 0 3649 -0.77333067230569719 1
gene 2 576 119 -0.082594798217804577 0 3650 -0.082594798217804577 1
gene 2 131 319 0.14507657016863895 0 3674 0.14507657016863895 1
gene 2 119 61 -1.3847836895774974 0 3687 -1.3847836895774974 0
gene 3 2 586 -2.1216279701896141 0 3728 -2.1216279701896141 1
gene 3 586 18 5.2094493313736505 0 3729 5.2094493313736505 1
gene 3 236 589 2.2781690546675444 0 3753 2.2781690546675444 1
gene 3 589 17 1.4672804558497297 0 3754 1.4672804558497297 1
gene 1 104 150 -2.0661992505501021 0 3780 -2.0661992505501021 1
gene 3 119 502 0.028369536869400136 0 3883 0.028369536869400136 1
gene 2 1 389 0.26337205025524463 0 3977 0.26337205025524463 1
gene 2 65 623 -4.5764772117028372 0 3985 -4.5764772117028372 1
gene 2 623 82 -0.72217531512592703 0 3986 -0.72217531512592703 1
gene 3 131 131 -2.3540119225410803 1 4044 -2.3540119225410803 1
gene 3 82 82 0.27592657239917973 1 4282 0.27592657239917973 1
gene 1 228 666 1.2247396471094061 0 4329 1.2247396471094061 1
gene 1 666 18 -0.32755464656630295 0 4330 -0.32755464656630295 1
gene 3 104 564 -1.8667931362831935 0 4337 -1.8667931362831935 1
gene 2 61 676 -2.9813737647986853 1 4396 -2.9813737647986853 1
gene 2 676 61 2.3828038304964099 0 4397 2.3828038304964099 1
gene 2 82 684 -1.2056039388783295 0 4430 -1.2056039388783295 1
gene 2 684 150 2.2498276844852731 0 4431 2.2498276844852731 0
gene 1 65 150 2.4336063933715253 0 4474 2.4336063933715253 1
gene 1 5 694 -2.2335135721291945 0 4491 -2.2335135721291945 1
gene 1 694 165 -5.4607151606868554 0 4492 -5.4607151606868554 1
gene 2 684 696 0.82886318086127941 0 4499 0.82886318086127941 1
gene 2 696 150 0.11479089949968813 0 4500 0.11479089949968813 1
gene 1 16 589 -0.0054325950357284047 0 4598 -0.0054325950357284047 1
gene 2 131 82 -1.7577038343333191 0 4606 -1.7577038343333191 0
gene 2 14 730 0.84594059402399724 0 4716 0.84594059402399724 1
gene 2 730 17 0.72998130611608836 0 4717 0.72998130611608836 1
gene 2 12 733 -0.75440204597748917 0 4728 -0.75440204597748917 1
gene 2 733 150 1.6190456143203402 0 4729 1.6190456143203402 0
gene 3 8 750 1.4963015411031906 0 4838 1.4963015411031906 1
gene 3 750 502 -0.55225298812252144 0 4839 -0.55225298812252144 1
gene 1 329 119 -0.77970297298380298 0 4980 -0.77970297298380298 1
gene 1 65 778 -1.921366286427419 1 5017 -1.921366286427419 1
gene 1 778 65 0.63654522720563467 0 5018 0.63654522720563467 0
gene 2 131 792 -0.87759490026049081 0 5102 -0.87759490026049081 1
gene 1 792 82 1.2982289834405432 0 5103 1.2982289834405432 1
gene 2 733 798 -1.312409128207904 0 5150 -1.312409128207904 0
gene 2 798 150 -3.0308448169524058 0 5151 -3.0308448169524058 1
gene 1 2 801 -1.4051898121392306 0 5163 -1.4051898121392306 1
gene 1 801 17 -1.4458188099999998 0 5164 -1.4458188099999998 1
gene 3 16 803 1.1607470196488998 0 5174 1.1607470196488998 1
gene 3 803 470 -0.12576422939345439 0 5175 -0.12576422939345439 0
gene 2 676 389 2.2793615647961207 0 5271 2.2793615647961207 1
gene 3 13 676 1.257466026003224 0 5421 1.257466026003224 1
gene 3 803 842 -1.1095360939435364 0 5469 -1.1095360939435364 1
gene 3 842 470 1.890577742080473 0 5470 1.890577742080473 1
gene 1 3 845 -1.3206498445107835 0 5497 -1.3206498445107835 1
gene 1 845 18 -0.020336725991376082 0 5498 -0.020336725991376082 1
gene 1 778 863 3.6614051659877433 0 5603 3.6614051659877433 1
gene 1 863 65 0.46526511430985518 0 5604 0.46526511430985518 1
gene 2 236 119 -0.76785965788544142 0 5721 -0.76785965788544142 1
gene 3 694 576 0.6811289697331977 0 5758 0.6811289697331977 1
gene 3 803 676 -0.52785455320396213 0 5803 -0.52785455320396213 1
gene 2 733 912 -0.60412746230332526 0 5859 -0.60412746230332526 1
gene 2 912 798 -1.3064640761848838 0 5860 -1.3064640761848838 1
gene 1 13 694 0.33635351240465106 0 5872 0.33635351240465106 1
gene 2 13 915 -0.64852834173875318 0 5877 -0.64852834173875318 1
gene 2 915 18 2.8626724085131068 0 5878 2.8626724085131068 1
gene 2 5 294 0.35104850556284584 0 5928 0.35104850556284584 1
gene 1 696 696 -0.95507870589153787 1 5944 -0.95507870589153787 1
gene 2 119 927 1 0 5990 0 1
gene 2 927 61 -1.3847836895774974 0 5991 0 1
genomeend 1
