genomestart 1
trait 1 0 0.947017 0.337665 0 0.060595 0.536215 1 0.160283 
trait 2 0.97268 0 1 0.777744 0.28302 0.650706 0.415171 0.550321 
trait 3 0.3 0 0.372536 0.346509 0 0 0 0.9156 
node 1 1 1 3
node 2 1 1 1
node 3 1 1 1
node 4 1 1 1
node 5 1 1 1
node 6 1 1 1
node 7 1 1 1
node 8 3 1 1
node 9 3 1 1
node 10 2 1 1
node 11 3 1 1
node 12 3 1 1
node 13 3 1 1
node 14 2 1 1
node 15 1 1 1
node 16 1 1 1
node 17 1 0 2
node 18 1 0 2
node 25 1 0 0
nodegru 28 0 0.2433516517017742 -2.8542268384966194 0.77122943185792747 0.3345148874607472 0.629023211602598 1.423934510175108 [ 2.7288530032284806 1.3793843197074644 5.8120754509289165 -0.13265912497074295 -0.26011271297936917 ] [ -3.3225541044131641 -0.4629940592977192 0.62476010370289914 0.5099599701398797 0.77158856427836631 ] [ -2.2537641775579025 -1.1243066012972529 -0.20812858534424028 1.5314612968505643 -1.2850035381433571 ]
node 54 3 0 0
nodegru 149 0 0.26133126568111187 2.8595968528462561 -1.9494134727629895 -0.50547261699357682 0.92310359418536714 0.69922525142283409 [ 0.066889689800743835 ] [ 1.6502189145657322 ] [ -0.18555059921254899 ]
nodegru 161 0 -0.5308026312993851 1.4915620386561201 -0.68335632569312876 -0.795262186692684 1.3636825563682629 1.9452346176585342 [ 1.0609745690883017 ] [ 2.3426936235477651 ] [ 0.61082952870560336 ]
node 168 1 0 0
nodegru 173 0 -1.1456211601130764 1.1562480373104327 -1.4497900621266058 -0.81216324810505047 -3.1326583503431911 -0.49604113958591656 [ -4.3813871831546471 ] [ 0.3986502098378959 ] [ 0.18425182960194156 ]
node 177 3 0 0
nodegru 244 0 -0.54623251783020454 -0.45815807066772041 -1.1009625972253096 -4.6265900193837428 -0.0012726481078531027 -0.2440744874738503 [ 1.5471467846292755 -1.7689764533513115 0.55652232866572315 ] [ -1.1117026014773652 0.49837052635772661 -0.034724594575690437 ] [ -1.2022345164801154 -0.22591908612564171 0.10275089279876592 ]
node 268 1 0 0
node 328 1 0 0
nodegru 420 0 -0.26425399410736466 0.48023736429411795 -0.62000431661494293 0 0.27170789557122987 -0.477692339791773 [ 1.5323926275746862 0.52339922940516814 -0.15898108862292992 ] [ -0.81213315427868316 0.67202766457201335 0.17592457503821912 ] [ 0.54824238016653926 0 0 ]
node 486 1 0 0
node 497 1 0 0
nodegru 550 0 -1.5666150560447085 -1.7079360669981389 -0.14759898658264392 0 -0.0734130149117731 -0.42481665496007381 [ -0.2709017499680173 ] [ 0.75494430412302926 ] [ -1.1696523398485279 ]
node 596 1 0 0
node 643 1 0 0
nodegru 707 0 0 0 0 0 0 0 [ 0 ] [ 0 ] [ 0 ]
node 716 1 0 0
node 783 1 0 0
nodegru 784 0 0 0 0 0 0 0 [ 0 ] [ 0 ] [ 0 ]
node 788 1 0 0
nodegru 795 0 0 0 0 0 0 0 [ 0 ] [ 0 ] [ 0 ]
nodegru 834 0 0 0 0 0 0 0 [ 0 ] [ 0 ] [ 0 ]
gene 2 1 17 -3.452571680281578 0 1 -3.452571680281578 1
gene 1 2 17 1.3829859424768869 0 2 1.3829859424768869 1
gene 2 3 17 5.4114274698828462 0 3 5.4114274698828462 1
gene 1 4 17 3.9895197148386004 0 4 3.9895197148386004 1
gene 2 5 17 -0.4353746685364166 0 5 -0.4353746685364166 1
gene 1 6 17 -8 0 6 -8 1
gene 1 7 17 -0.074661436525482072 0 7 -0.074661436525482072 0
gene 2 8 17 1.5704217441707948 0 8 1.5704217441707948 1
gene 2 9 17 -0.98231200733329782 0 9 -0.98231200733329782 1
gene 3 10 17 0.94261331131803505 0 10 0.94261331131803505 1
gene 2 11 17 8 0 11 8 1
gene 1 12 17 -0.29705200823817901 0 12 -0.29705200823817901 1
gene 2 13 17 2.4105271994650956 0 13 2.4105271994650956 0
gene 1 14 17 -1.7654823124247989 0 14 -1.7654823124247989 0
gene 2 15 17 -7.2134471743895894 0 15 -7.2134471743895894 1
gene 3 16 17 -6.3269439012868993 0 16 -6.3269439012868993 1
gene 2 1 18 3.1215318036831601 0 17 3.1215318036831601 1
gene 2 2 18 2.9929585824687766 0 18 2.9929585824687766 1
gene 1 3 18 4.7285754397644544 0 19 4.7285754397644544 0
gene 3 4 18 0.36914177139715498 0 20 0.36914177139715498 0
gene 2 5 18 -1.2043025631943265 0 21 -1.2043025631943265 1
gene 3 6 18 -3.9097790761896296 0 22 -3.9097790761896296 1
gene 3 7 18 0.20502860690701241 0 23 0.20502860690701241 0
gene 2 8 18 0.93379576361449235 0 24 0.93379576361449235 0
gene 3 9 18 -5.1111006176150875 0 25 -5.1111006176150875 1
gene 3 10 18 2.3404488946965194 0 26 2.3404488946965194 1
gene 1 11 18 -1.1652028575377553 0 27 -1.1652028575377553 1
gene 3 12 18 -3.8708780174473656 0 28 -3.8708780174473656 0
gene 2 13 18 2.5336284765664625 0 29 2.5336284765664625 1
gene 2 14 18 5.224653151922233 0 30 5.224653151922233 1
gene 3 15 18 4.4063538964401712 0 31 4.4063538964401712 0
gene 2 16 18 4.2926255763939709 0 32 4.2926255763939709 1
gene 3 12 25 -1.1648326351609237 0 54 -1.1648326351609237 0
gene 3 25 18 4.7237932811136325 0 55 4.7237932811136325 1
gene 3 12 28 -3.6427881378414053 0 66 -3.6427881378414053 1
gene 3 28 25 4.0809017636724274 0 67 4.0809017636724274 1
gene 2 18 25 -1.2592780300226425 1 200 -1.2592780300226425 0
gene 3 4 54 -3.5266751027790253 0 239 -3.5266751027790253 1
gene 3 54 18 -5.9889846893441785 0 240 -5.9889846893441785 1
gene 2 10 28 -0.67440937677138013 0 328 -0.67440937677138013 1
gene 2 10 54 6.6730793924876863 0 386 6.6730793924876863 1
gene 1 18 18 -7.0860677177952907 1 553 -7.0860677177952907 1
gene 1 4 25 1.6337859363452463 0 595 1.6337859363452463 1
gene 3 16 25 0.028719806824214711 0 707 0.028719806824214711 1
gene 2 14 54 -1.3370348754511379 0 758 -1.3370348754511379 0
gene 3 15 149 -2.4321193899643232 0 825 -2.4321193899643232 1
gene 3 149 18 2.1456839233383924 0 826 2.1456839233383924 1
gene 3 54 54 5.2807440151370795 1 839 5.2807440151370795 0
gene 1 3 54 0.052681385331173725 0 851 0.052681385331173725 0
gene 2 18 161 1.2404713310489763 1 891 1.2404713310489763 1
gene 2 161 25 -0.338748383493511 0 892 -0.338748383493511 1
gene 1 13 25 0.37692570750458421 0 902 0.37692570750458421 1
gene 1 3 28 -0.80792710129540724 0 911 -0.80792710129540724 1
gene 2 8 168 -3.3088272243313619 0 933 -3.3088272243313619 1
gene 2 168 18 3.5131006902144755 0 934 3.5131006902144755 0
gene 2 168 173 0.33839659571572922 0 964 0.33839659571572922 1
gene 1 173 18 -2.378285959539137 0 965 -2.378285959539137 0
gene 2 7 177 1.0508019009375955 0 983 1.0508019009375955 1
gene 2 177 18 -0.46330226886239945 0 984 -0.46330226886239945 1
gene 2 1 54 3.7146609403261261 0 1144 3.7146609403261261 1
gene 2 173 17 -2.1261318838811158 0 1320 -2.1261318838811158 0
gene 2 173 244 0.92499144534812816 0 1423 0.92499144534812816 1
gene 2 244 18 -0.53634624324568758 0 1424 -0.53634624324568758 1
gene 3 149 28 -4.5422618666394907 0 1544 -4.5422618666394907 1
gene 3 2 177 0.73288273892033984 0 1571 0.73288273892033984 1
gene 1 173 268 -2.3965872521030658 0 1621 -2.3965872521030658 0
gene 2 268 17 -1.1614890597581347 0 1622 -1.1614890597581347 1
gene 1 25 268 1.0001269385684872 0 1696 1.0001269385684872 1
gene 3 54 328 0.059850816875626656 1 1972 0.059850816875626656 1
gene 3 328 54 0.65578092735064253 0 1973 0.65578092735064253 0
gene 1 9 177 0.3306514615335745 0 2307 0.3306514615335745 1
gene 2 161 17 -1.9207694229766583 0 2325 -1.9207694229766583 1
gene 2 11 328 -2.005710199245117 0 2345 -2.005710199245117 1
gene 3 177 168 -2.5089995239437561 0 2457 -2.5089995239437561 0
gene 2 173 420 4.5680577764604511 0 2474 4.5680577764604511 1
gene 2 420 268 -0.32797898949495474 0 2475 -0.32797898949495474 0
gene 3 3 328 -2.1651743599982813 0 2694 -2.1651743599982813 1
gene 1 2 244 0.39529595449347787 0 2707 0.39529595449347787 1
gene 2 420 486 -0.15126126988384 0 2892 -0.15126126988384 1
gene 2 486 268 0.59239307166654298 0 2893 0.59239307166654298 1
gene 2 14 497 -2.8899762576399262 0 2978 -2.8899762576399262 1
gene 2 497 54 -1.5523728600481399 0 2979 -1.5523728600481399 1
gene 1 7 168 1.3416978599697809 0 3263 1.3416978599697809 1
gene 2 13 550 1.2259589246129425 0 3342 1.2259589246129425 1
gene 2 550 17 0.86068494425187103 0 3343 0.86068494425187103 1
gene 2 173 497 0.54021795887510216 0 3406 0.54021795887510216 1
gene 2 161 244 -2.0925682443625147 0 3461 -2.0925682443625147 1
gene 1 13 497 -1.9196872480305318 0 3477 -1.9196872480305318 0
gene 1 17 17 0.67925930380786759 1 3536 0.67925930380786759 1
gene 3 3 177 -1.8143233474410712 0 3596 -1.8143233474410712 1
gene 1 28 177 2.4423855072550409 0 3627 2.4423855072550409 0
gene 1 14 596 1.0271431892305349 0 3649 1.0271431892305349 1
gene 1 596 17 1.61796467500644 0 3650 1.61796467500644 1
gene 3 596 54 -1.2541310734833271 0 3688 -1.2541310734833271 1
gene 3 177 328 0.32625593353354182 0 3703 0.32625593353354182 1
gene 2 6 420 -1.4951272504381496 0 3923 -1.4951272504381496 1
gene 2 9 596 0.47866925829028195 0 3966 0.47866925829028195 1
gene 1 28 643 0.086714676854533268 0 3979 0.086714676854533268 1
gene 1 643 177 3.5543524557977695 0 3980 3.5543524557977695 1
gene 2 643 268 -0.12720527622252947 0 3984 -0.12720527622252947 1
gene 3 4 168 0.19343304852649246 0 4086 0.19343304852649246 1
gene 3 16 643 -1.383627880077636 0 4243 -1.383627880077636 1
gene 3 168 168 -0.86115994041839616 1 4266 -0.86115994041839616 1
gene 2 497 497 0.79477679277527002 1 4322 0.79477679277527002 0
gene 3 328 707 -2.1871214842829487 0 4393 -2.1871214842829487 1
gene 3 707 54 1.6627932263830645 0 4394 1.6627932263830645 1
gene 1 3 716 1.5426306044881375 0 4460 1.5426306044881375 1
gene 1 716 18 2.1117961325737626 0 4461 2.1117961325737626 1
gene 1 161 168 -0.98585305758093167 0 4467 -0.98585305758093167 1
gene 3 3 497 -0.88996556722091757 0 4483 -0.88996556722091757 1
gene 1 18 268 -2.5715227341612441 1 4691 -2.5715227341612441 1
gene 3 328 420 1.9353781121016378 0 4743 1.9353781121016378 1
gene 3 161 328 0.18596519282365453 0 4755 0.18596519282365453 1
gene 2 643 643 0.55835439919417462 1 4764 0.55835439919417462 1
gene 2 420 28 -0.11184427845843335 1 4794 -0.11184427845843335 1
gene 2 13 54 0.9628387326201604 0 4800 0.9628387326201604 1
gene 2 497 783 1 1 4979 0 1
gene 2 783 497 0.79477679277527002 0 4980 0 1
gene 1 13 784 1 0 4982 0 1
gene 1 784 497 -1.9196872480305318 0 4983 0 1
gene 3 177 788 1 0 4998 0 1
gene 3 788 168 -2.5089995239437561 0 4999 0 1
gene 1 3 795 1 0 5024 0 1
gene 1 795 54 0.052681385331173725 0 5025 0 1
gene 1 7 834 1 0 5241 0 1
gene 1 834 17 -0.074661436525482072 0 5242 0 1
genomeend 1
