genomestart 1
trait 1 0 0 0.480175 0.479991 0 0 0 0.937549 
trait 2 0.690559 0 1 0 0.514766 1 0 0.718268 
trait 3 0 0 0 0.774881 0 0 0 0 
node 1 2 1 3
node 2 1 1 1
node 3 1 1 1
node 4 1 1 1
node 5 1 1 1
node 6 1 1 1
node 7 3 1 1
node 8 2 1 1
node 9 3 1 1
node 10 3 1 1
node 11 1 1 1
node 12 3 1 1
node 13 1 1 1
node 14 3 1 1
node 15 2 1 1
node 16 1 1 1
node 17 1 0 2
node 18 1 0 2
node 25 1 0 0
nodegru 28 0 -0.54857779669043505 1.1646052439066605 4.343070359827518 -0.29187378929549501 0.58881529401466959 0.043409324736990655 [ -0.57547943879639707 -1.4372364696754312 0 ] [ 0.92633175008293778 1.062199461302813 -0.72951509278710702 ] [ 3.8237724068219645 0 0.99439933895803956 ]
node 37 1 0 0
node 126 1 0 0
node 131 1 0 0
node 197 1 0 0
nodegru 251 0 0 0 0 0 0 0 [ -1.0374931793368856 ] [ 1.4113003215339504 ] [ 0.59390701171658333 ]
node 253 1 0 0
nodegru 281 0 2.3298201148071422 -0.13621642214069918 0.14921076858845109 -1.6968900555264623 1.3076978951262765 -1.1734761976047772 [ 0.074026348103781392 ] [ 0.32225593636848782 ] [ -1.3125578699691958 ]
nodegru 324 0 0 0 0 0 0 0 [ 0 ] [ 0 ] [ 0 ]
node 327 1 0 0
gene 2 1 17 2.5587750647956393 0 1 2.5587750647956393 1
gene 3 2 17 1.7917047472632048 0 2 1.7917047472632048 1
gene 2 3 17 -0.12372559920126847 0 3 -0.12372559920126847 1
gene 1 4 17 -1.5882718996555885 0 4 -1.5882718996555885 0
gene 1 5 17 1.6892633234100713 0 5 1.6892633234100713 0
gene 1 6 17 -5.6483358809018229 0 6 -5.6483358809018229 1
gene 3 7 17 -0.94538803908293501 0 7 -0.94538803908293501 0
gene 2 8 17 1.8392345939479928 0 8 1.8392345939479928 1
gene 3 9 17 -2.9020659962678641 0 9 -2.9020659962678641 1
gene 3 10 17 2.5936825699609156 0 10 2.5936825699609156 1
gene 2 11 17 -1.4294030964045801 0 11 -1.4294030964045801 1
gene 1 12 17 2.761384892399136 0 12 2.761384892399136 1
gene 2 13 17 4.3358468484766064 0 13 4.3358468484766064 0
gene 1 14 17 -1.5575652555830619 0 14 -1.5575652555830619 1
gene 2 15 17 -7.7355648792514407 0 15 -7.7355648792514407 1
gene 3 16 17 -5.9507729434179026 0 16 -5.9507729434179026 1
gene 1 1 18 3.4529603938353062 0 17 3.4529603938353062 1
gene 2 2 18 -0.23717413178513458 0 18 -0.23717413178513458 1
gene 1 3 18 -5.216177126726218 0 19 -5.216177126726218 1
gene 3 4 18 -3.5938234224886743 0 20 -3.5938234224886743 1
gene 2 5 18 3.6851790976641605 0 21 3.6851790976641605 1
gene 3 6 18 -1.1035993707383052 0 22 -1.1035993707383052 1
gene 2 7 18 1.1382953467025863 0 23 1.1382953467025863 0
gene 2 8 18 0.054366414693354792 0 24 0.054366414693354792 1
gene 3 9 18 -0.27822332492946761 0 25 -0.27822332492946761 1
gene 2 10 18 1.8281555221547168 0 26 1.8281555221547168 0
gene 3 11 18 0.64921535185967361 0 27 0.64921535185967361 1
gene 3 12 18 3.3705151678857002 0 28 3.3705151678857002 0
gene 2 13 18 -2.2578935095844295 0 29 -2.2578935095844295 1
gene 2 14 18 6.7333610005366431 0 30 6.7333610005366431 1
gene 3 15 18 0.29885129481500505 0 31 0.29885129481500505 1
gene 2 16 18 2.7305101508882408 0 32 2.7305101508882408 1
gene 3 12 25 4.6678366915638723 0 54 4.6678366915638723 1
gene 3 25 18 4.347106130256833 0 55 4.347106130256833 1
gene 3 12 28 -1.645386662169074 0 66 -1.645386662169074 1
gene 3 28 25 0.25250480382354218 0 67 0.25250480382354218 1
gene 2 13 37 5.6306562966809866 0 147 5.6306562966809866 1
gene 2 37 17 1.5529399656471519 0 148 1.5529399656471519 1
gene 1 17 25 -1.4886216006654416 1 395 -1.4886216006654416 1
gene 2 17 17 1.3508811815878754 1 549 1.3508811815878754 0
gene 2 17 126 1.8926939481835314 1 677 1.8926939481835314 1
gene 2 126 17 -1.1509506395789564 0 678 -1.1509506395789564 1
gene 1 10 131 2.1142454327150455 0 694 2.1142454327150455 1
gene 2 131 18 2.8537957837589989 0 695 2.8537957837589989 1
gene 3 25 131 1.1793517929871342 0 990 1.1793517929871342 1
gene 2 13 197 0.61481655557398518 0 1118 0.61481655557398518 1
gene 2 197 17 -0.84274628122465045 0 1119 -0.84274628122465045 1
gene 3 37 131 2.0639087788592603 0 1126 2.0639087788592603 1
gene 1 37 18 -2.666761095247586 0 1250 -2.666761095247586 1
gene 2 1 131 0.064208712225877082 0 1470 0.064208712225877082 1
gene 2 3 197 -0.84754590217375481 0 1473 -0.84754590217375481 1
gene 2 7 251 1 0 1486 1 1
gene 2 251 18 1.8297613348484787 0 1487 1.8297613348484787 1
gene 3 9 28 0.18034664875843864 0 1496 0.18034664875843864 1
gene 3 7 253 1 0 1501 1 1
gene 3 253 17 0.13000768661965045 0 1502 0.13000768661965045 1
gene 2 10 25 0.65969935486079179 0 1566 0.65969935486079179 1
gene 1 5 281 0.86649550724145752 0 1699 0.86649550724145752 1
gene 1 281 17 -0.17620207400815657 0 1700 -0.17620207400815657 1
gene 1 1 28 0.012523258110751985 0 1907 0.012523258110751985 1
gene 3 8 131 -0.74072340398129233 0 1915 -0.74072340398129233 1
gene 1 5 324 1 0 1960 0 1
gene 1 324 17 1.6892633234100713 0 1961 0 1
gene 1 4 327 1 0 1970 0 1
gene 1 327 17 -1.5882718996555885 0 1971 0 1
genomeend 1
