genomestart 1
trait 1 0 0.947017 0.337665 0 0.060595 0.536215 1 0.160283 
trait 2 0 0 0 0 0 0.3542 0 0 
trait 3 0.729259 0 0.825272 0 0.659563 0 1 0.957659 
node 1 1 1 3
node 2 1 1 1
node 3 1 1 1
node 4 1 1 1
node 5 1 1 1
node 6 1 1 1
node 7 2 1 1
node 8 2 1 1
node 9 3 1 1
node 10 3 1 1
node 11 3 1 1
node 12 1 1 1
node 13 3 1 1
node 14 2 1 1
node 15 1 1 1
node 16 1 1 1
node 17 1 0 2
node 18 1 0 2
node 25 1 0 0
nodegru 28 0 0.62832447100818356 -2.5183381515174816 -2.4165157368017898 -0.78012162040924726 -0.68627885365219732 1.4697786415786382 [ 1.4825648192700767 2.1845729910696732 -0.16974954803928247 1.0742352917204776 ] [ -2.8953234634340386 -0.81538661025249715 0.62476010370289914 1.1005314335229488 ] [ -0.88878338382988409 -0.80114164263994492 1.0256964860138 0.083512861786183223 ]
node 54 1 0 0
nodegru 149 0 0.26133126568111187 3.4062536730925803 -1.390268275463147 1.302360632364806 0 -0.7460016278764241 [ -0.15518101102448112 ] [ 0.90617558216032368 ] [ -0.98879034746847605 ]
nodegru 161 0 -0.74655997508510941 1.9734003122306429 -0.31990805143486156 -0.34511407154850393 -1.0438613938371939 1.2636278899217155 [ 1.3948226517042248 0 0 ] [ -0.81184825408824191 0 0 ] [ 0.2205916197135076 -0.59792716316782268 0 ]
node 168 1 0 0
nodegru 173 0 -0.91940759258317184 -1.2448822335549081 0.71903831452086497 -3.3043244463877404 -4.2653809475085609 0.076479932328909594 [ -2.1149163260659742 ] [ -0.51266299212009803 ] [ 0.39590022126021795 ]
node 177 3 0 0
nodegru 244 0 -1.0217237894058804 1.1856870973416078 -1.5522904317138206 -2.6996931967789743 0.0062359641335141269 -1.5859722937857603 [ -0.14039960929211204 1.1911123924381624 0.81053772327049523 ] [ -2.8278064342810803 -0.030905988780272189 -2.343884903632051 ] [ -1.0554650533271324 -1.2641538962554901 -0.062875690666435141 ]
node 268 1 0 0
node 328 1 0 0
nodegru 420 0 0.94301977285324579 0 0 0 0 0 [ 0 -1.2710440239268561 0 ] [ 0 0 -0.23263499873347346 ] [ 0 -0.52087289864238018 -1.1391069866433305 ]
node 486 1 0 0
node 497 1 0 0
nodegru 550 0 0 0 -1.3435811278613197 0 0.15393434053004457 0 [ 0.79619295652778499 0 ] [ 0 1.0335386484086229 ] [ 0 -1.3470460313125727 ]
node 596 1 0 0
node 615 1 0 0
nodegru 659 0 0 -1.16354492337608 0 0 1.4463812217332335 1.1918834437112713 [ -0.008236740486806603 1.2510327644418147 ] [ -1.1834346780941982 0 ] [ 0 -1.2237663125729963 ]
nodegru 675 0 0 0 0 0.39048285474557559 0 1.2161661608685581 [ 0 0 0 ] [ 0.93551020367793281 0 0 ] [ 1.0867616520667269 -1.4118946739062177 1.0398735902457841 ]
nodegru 721 0 -1.3696801782910153 1.4593477074333223 -0.4199063537735056 -2.401739784004977 0 1.0989523465274611 [ 1.0437449217046355 ] [ 2.5175690748810622 ] [ 2.4820138323037018 ]
node 781 1 0 0
nodegru 798 0 0 0 0 0 0 0 [ 0 ] [ 0 ] [ 0 ]
gene 2 1 17 4.1423586586687531 0 1 4.1423586586687531 1
gene 1 2 17 2.409030399708556 0 2 2.409030399708556 1
gene 2 3 17 3.7918513614180718 0 3 3.7918513614180718 1
gene 1 4 17 1.5552662650846252 0 4 1.5552662650846252 1
gene 2 5 17 -0.57018268297900576 0 5 -0.57018268297900576 1
gene 1 6 17 -2.5227828109743005 0 6 -2.5227828109743005 1
gene 1 7 17 -0.28433931888283215 0 7 -0.28433931888283215 1
gene 2 8 17 1.8205732595271309 0 8 1.8205732595271309 1
gene 2 9 17 0.23117248305639815 0 9 0.23117248305639815 1
gene 3 10 17 -0.070320723378248351 0 10 -0.070320723378248351 1
gene 2 11 17 5.0978210471094698 0 11 5.0978210471094698 1
gene 1 12 17 -1.6094578779812241 0 12 -1.6094578779812241 1
gene 2 13 17 -0.7845479861295539 0 13 -0.7845479861295539 0
gene 1 14 17 1.3796820693554737 0 14 1.3796820693554737 0
gene 2 15 17 -3.7915917179973753 0 15 -3.7915917179973753 1
gene 3 16 17 -6.2685951279795695 0 16 -6.2685951279795695 1
gene 2 1 18 2.7439803144633683 0 17 2.7439803144633683 1
gene 2 2 18 3.2149215017980528 0 18 3.2149215017980528 1
gene 1 3 18 3.4659052311749678 0 19 3.4659052311749678 1
gene 3 4 18 -0.85253327379586685 0 20 -0.85253327379586685 0
gene 2 5 18 -4.3239219222794851 0 21 -4.3239219222794851 1
gene 3 6 18 -3.7704837686710455 0 22 -3.7704837686710455 1
gene 3 7 18 -2.6405141747745287 0 23 -2.6405141747745287 0
gene 2 8 18 8 0 24 8 0
gene 3 9 18 -0.79141435809033633 0 25 -0.79141435809033633 1
gene 3 10 18 -3.5632870008998032 0 26 -3.5632870008998032 1
gene 1 11 18 0.69270895872856908 0 27 0.69270895872856908 1
gene 3 12 18 -0.36492423869898682 0 28 -0.36492423869898682 0
gene 2 13 18 1.4854326825521107 0 29 1.4854326825521107 1
gene 2 14 18 3.3509903495903082 0 30 3.3509903495903082 1
gene 3 15 18 0.640133800748798 0 31 0.640133800748798 0
gene 2 16 18 1.7437882797065138 0 32 1.7437882797065138 1
gene 3 12 25 -1.1401130336523582 0 54 -1.1401130336523582 0
gene 3 25 18 1.1693779617405391 0 55 1.1693779617405391 1
gene 3 12 28 1.2060872114757482 0 66 1.2060872114757482 1
gene 3 28 25 0.71047393312234164 0 67 0.71047393312234164 1
gene 2 18 25 -1.1116626058293797 1 200 -1.1116626058293797 0
gene 3 4 54 -6.7529981766142875 0 239 -6.7529981766142875 1
gene 3 54 18 -4.3410260038641395 0 240 -4.3410260038641395 1
gene 2 10 28 1.5082125007213145 0 328 1.5082125007213145 1
gene 2 10 54 4.6922750182879502 0 386 4.6922750182879502 1
gene 1 18 18 -6.8784497742906439 1 553 -6.8784497742906439 1
gene 1 4 25 1.1472314920496343 0 595 1.1472314920496343 1
gene 3 16 25 3.4214073996624936 0 707 3.4214073996624936 1
gene 2 14 54 -0.48043959307504802 0 758 -0.48043959307504802 0
gene 3 15 149 -0.86881404922754146 0 825 -0.86881404922754146 1
gene 3 149 18 3.8077896590380877 0 826 3.8077896590380877 1
gene 3 54 54 2.1114185180568215 1 839 2.1114185180568215 0
gene 1 3 54 -0.051232933789133517 0 851 -0.051232933789133517 1
gene 2 18 161 -0.76668373018814417 1 891 -0.76668373018814417 1
gene 2 161 25 -3.6970144161940617 0 892 -3.6970144161940617 0
gene 1 13 25 0.97071896701618976 0 902 0.97071896701618976 1
gene 1 3 28 -1.8002686166671422 0 911 -1.8002686166671422 1
gene 2 8 168 -2.6780182650210413 0 933 -2.6780182650210413 1
gene 2 168 18 4.1264946978196946 0 934 4.1264946978196946 0
gene 2 168 173 -6.3653914096604067 0 964 -6.3653914096604067 1
gene 1 173 18 1.5411566666053405 0 965 1.5411566666053405 0
gene 2 7 177 7.8334898486889388 0 983 7.8334898486889388 1
gene 2 177 18 0.33422152923150988 0 984 0.33422152923150988 0
gene 2 1 54 3.0850712412898744 0 1144 3.0850712412898744 1
gene 2 173 17 -0.37939870840841805 0 1320 -0.37939870840841805 0
gene 2 173 244 -1.8243382840064999 0 1423 -1.8243382840064999 1
gene 2 244 18 -6.0033044933822479 0 1424 -6.0033044933822479 1
gene 3 149 28 0.066632406584281614 0 1544 0.066632406584281614 1
gene 3 2 177 0.42847963745169326 0 1571 0.42847963745169326 1
gene 2 173 268 0.34238999632298461 0 1621 0.34238999632298461 0
gene 2 268 17 -4.8148752759745701 0 1622 -4.8148752759745701 1
gene 1 25 268 5.2531581680537922 0 1696 5.2531581680537922 1
gene 3 54 328 0.46143172772667918 1 1972 0.46143172772667918 1
gene 3 328 54 1.415676742985694 0 1973 1.415676742985694 1
gene 2 9 177 -1.0353256240651596 0 2307 -1.0353256240651596 1
gene 2 161 17 -5.090787235922547 0 2325 -5.090787235922547 1
gene 2 11 328 -4.7836524254100627 0 2345 -4.7836524254100627 1
gene 2 177 168 -0.15951608804032025 0 2457 -0.15951608804032025 1
gene 1 173 420 8 0 2474 8 0
gene 2 420 268 1.0615495452943955 0 2475 1.0615495452943955 0
gene 3 3 328 -2.0696292594399441 0 2694 -2.0696292594399441 1
gene 1 2 244 -1.3900874366006288 0 2707 -1.3900874366006288 1
gene 2 420 486 -2.6822232996030815 0 2892 -2.6822232996030815 1
gene 2 486 268 -0.50009346078154326 0 2893 -0.50009346078154326 1
gene 2 14 497 -0.94026110132237029 0 2978 -0.94026110132237029 0
gene 2 497 54 1.014420600149045 0 2979 1.014420600149045 1
gene 1 7 168 2.6490394182731567 0 3263 2.6490394182731567 1
gene 2 13 550 -6.1990741140670487 0 3342 -6.1990741140670487 0
gene 2 550 17 2.9073069530573239 0 3343 2.9073069530573239 1
gene 2 173 497 0.17125402678328328 0 3406 0.17125402678328328 1
gene 2 161 244 -0.57436695069743615 0 3461 -0.57436695069743615 1
gene 1 13 497 1.7349101580841984 0 3477 1.7349101580841984 1
gene 1 17 17 0.5701002343884205 1 3536 0.5701002343884205 1
gene 3 3 177 0.7200831718370706 0 3596 0.7200831718370706 1
gene 1 28 177 -4.9041051608063766 0 3627 -4.9041051608063766 1
gene 1 14 596 2.8595613890139209 0 3649 2.8595613890139209 1
gene 1 596 17 -3.7604554466719069 0 3650 -3.7604554466719069 1
gene 3 596 54 1.2858034559925102 0 3688 1.2858034559925102 1
gene 3 177 328 -2.5158903864286328 0 3703 -2.5158903864286328 1
gene 2 173 615 1.7504439851038365 0 3784 1.7504439851038365 1
gene 2 615 420 -1.1297236101840267 0 3785 -1.1297236101840267 1
gene 1 550 168 0.091332098977329093 0 3900 0.091332098977329093 1
gene 2 149 596 -0.16526488757937419 0 4021 -0.16526488757937419 1
gene 2 1 497 -0.46001317163929956 0 4027 -0.46001317163929956 1
gene 2 497 25 1.3481805924550541 0 4041 1.3481805924550541 1
gene 2 9 659 -0.81811392228962565 0 4067 -0.81811392228962565 1
gene 2 659 17 1.3819374523041477 0 4068 1.3819374523041477 1
gene 2 13 675 2.1362544876226477 0 4168 2.1362544876226477 1
gene 2 675 550 -0.18462570299609826 0 4169 -0.18462570299609826 1
gene 2 9 675 -5.8200593582913553 0 4271 -5.8200593582913553 1
gene 1 16 161 -1.6957414092941869 0 4283 -1.6957414092941869 1
gene 1 12 177 -1.2373477994638253 0 4384 -1.2373477994638253 1
gene 1 177 675 -0.77596511145865787 0 4406 -0.77596511145865787 1
gene 2 10 615 0.81333032264994931 0 4471 0.81333032264994931 1
gene 3 328 17 0.55731782575944333 0 4479 0.55731782575944333 1
gene 2 161 721 -1.8869622675175604 0 4509 -1.8869622675175604 1
gene 2 721 25 -0.20826869723772079 0 4510 -0.20826869723772079 1
gene 3 12 486 0.6467539815449872 0 4644 0.6467539815449872 1
gene 1 5 596 -1.0632936251644483 0 4646 -1.0632936251644483 1
gene 3 177 420 -3.4952123139496951 0 4655 -3.4952123139496951 1
gene 1 615 328 -1.0736318792093693 0 4668 -1.0736318792093693 1
gene 1 486 486 -0.23468219266956769 1 4674 -0.23468219266956769 1
gene 2 10 161 0.97512662432860897 0 4696 0.97512662432860897 1
gene 2 328 328 -1.0967882662530937 1 4775 -1.0967882662530937 1
gene 2 675 596 -0.11603603121639976 0 4781 -0.11603603121639976 1
gene 1 28 659 1.2820437498307058 0 4889 1.2820437498307058 1
gene 2 14 781 0.4989866500250002 0 4957 0.4989866500250002 1
gene 2 781 497 2.2403237972130645 0 4958 2.2403237972130645 1
gene 2 177 798 1.5835138499194354 0 5053 1.5835138499194354 1
gene 2 798 18 -1.3914015199483381 0 5054 -1.3914015199483381 1
gene 1 615 596 0.16603123357800359 0 5332 0.16603123357800359 1
gene 2 149 615 0.87604422861525988 0 5341 0.87604422861525988 1
genomeend 1
