genomestart 1
trait 1 0.1 0 0 0 0 0 0 0 
trait 2 0.2 0.734595 1 0.981711 0.615997 0.558156 0.556077 0.837957 
trait 3 0.126802 0 0.26358 0.137014 0.617066 0 0.490106 0.384318 
node 1 2 1 3
node 2 1 1 1
node 3 1 1 1
node 4 1 1 1
node 5 1 1 1
node 6 1 1 1
node 7 3 1 1
node 8 2 1 1
node 9 3 1 1
node 10 3 1 1
node 11 1 1 1
node 12 3 1 1
node 13 1 1 1
node 14 3 1 1
node 15 3 1 1
node 16 1 1 1
node 17 1 0 2
node 18 1 0 2
node 25 1 0 0
nodegru 28 0 -0.8836127134895011 -0.8982768363311312 -0.69553000768438444 -0.96631787203546504 -0.2925189408904495 -1.7280009154826408 [ -1.5362580637616374 0.91897055596065291 ] [ 3.3180427475916421 -0.38851610542671566 ] [ 0.78993470980317093 -0.38256346428886201 ]
node 37 1 0 0
node 126 1 0 0
node 131 1 0 0
node 197 1 0 0
gene 2 1 17 1.9735068350441323 0 1 1.9735068350441323 1
gene 3 2 17 1.2716714869121424 0 2 1.2716714869121424 1
gene 2 3 17 -0.23526922787319382 0 3 -0.23526922787319382 1
gene 1 4 17 -0.66943304155461214 0 4 -0.66943304155461214 1
gene 1 5 17 1.8797803364599965 0 5 1.8797803364599965 1
gene 1 6 17 -5.9465158341669104 0 6 -5.9465158341669104 1
gene 3 7 17 0.13000768661965045 0 7 0.13000768661965045 1
gene 2 8 17 3.2591726392317435 0 8 3.2591726392317435 1
gene 3 9 17 -3.5987062603694886 0 9 -3.5987062603694886 1
gene 3 10 17 1.1353083716869858 0 10 1.1353083716869858 1
gene 2 11 17 -1.7458727745087226 0 11 -1.7458727745087226 1
gene 1 12 17 1.7602883520351198 0 12 1.7602883520351198 1
gene 2 13 17 3.7806356576181184 0 13 3.7806356576181184 0
gene 1 14 17 -0.68415259252495764 0 14 -0.68415259252495764 1
gene 2 15 17 -6.9428637914559159 0 15 -6.9428637914559159 1
gene 3 16 17 -5.275303851708447 0 16 -5.275303851708447 1
gene 1 1 18 3.7881361503564452 0 17 3.7881361503564452 1
gene 2 2 18 -0.82290595761635599 0 18 -0.82290595761635599 1
gene 1 3 18 -3.8718571927733056 0 19 -3.8718571927733056 1
gene 3 4 18 -3.4049203861062045 0 20 -3.4049203861062045 1
gene 2 5 18 5.0524972402735138 0 21 5.0524972402735138 1
gene 3 6 18 -2.0723757297137642 0 22 -2.0723757297137642 1
gene 2 7 18 1.8297613348484787 0 23 1.8297613348484787 1
gene 2 8 18 0.84924550859688097 0 24 0.84924550859688097 1
gene 3 9 18 -0.060916794492358317 0 25 -0.060916794492358317 1
gene 3 10 18 2.6839479083120583 0 26 2.6839479083120583 0
gene 3 11 18 1.267555210398303 0 27 1.267555210398303 1
gene 3 12 18 2.9953629984498784 0 28 2.9953629984498784 0
gene 2 13 18 -2.3927936446353764 0 29 -2.3927936446353764 1
gene 2 14 18 5.2559087964500808 0 30 5.2559087964500808 1
gene 3 15 18 1.1140955524119058 0 31 1.1140955524119058 1
gene 2 16 18 2.7617426560082206 0 32 2.7617426560082206 1
gene 3 12 25 3.5651116678794432 0 54 3.5651116678794432 0
gene 3 25 18 2.8962505361513471 0 55 2.8962505361513471 1
gene 1 12 28 -1.0458195111927666 0 66 -1.0458195111927666 1
gene 3 28 25 -0.034212537125783316 0 67 -0.034212537125783316 1
gene 2 13 37 5.7073142613318346 0 147 5.7073142613318346 1
gene 2 37 17 0.17980890822587958 0 148 0.17980890822587958 1
gene 1 17 25 -2.2183400307401735 1 395 -2.2183400307401735 1
gene 2 17 17 1.3171018414744651 1 549 1.3171018414744651 0
gene 2 17 126 2.095153822375067 1 677 2.095153822375067 1
gene 2 126 17 -1.4688352534867986 0 678 -1.4688352534867986 1
gene 1 10 131 1.1564354082366612 0 694 1.1564354082366612 1
gene 2 131 18 2.3270510469223602 0 695 2.3270510469223602 1
gene 3 25 131 0.36960032646060004 0 990 0.36960032646060004 1
gene 1 13 197 0.69670327575723789 0 1118 0.69670327575723789 1
gene 2 197 17 0.29667658302778221 0 1119 0.29667658302778221 1
gene 3 37 131 0.85547540772495578 0 1126 0.85547540772495578 1
gene 1 37 18 -2.666761095247586 0 1250 -2.666761095247586 1
gene 2 1 131 -0.12580599176036472 0 1470 -0.12580599176036472 1
gene 2 3 197 -0.060826270403725222 0 1473 -0.060826270403725222 1
gene 3 10 25 -0.14468195808338091 0 1672 -0.14468195808338091 1
gene 2 12 131 0.99926011310855867 0 1733 0.99926011310855867 1
gene 3 197 197 0.49188512866007406 1 1753 0.49188512866007406 1
gene 2 15 28 0.85459351579406928 0 1844 0.85459351579406928 1
gene 1 3 126 -0.2964091819228647 0 1952 -0.2964091819228647 1
gene 2 18 17 -0.19935478419035429 1 2131 -0.19935478419035429 1
gene 3 2 37 -0.65562351963278998 0 2186 -0.65562351963278998 1
genomeend 1
