genomestart 1
trait 1 0 0.947017 0.337665 0 0.060595 0.536215 1 0.160283 
trait 2 0 0 0 0 0.28302 1 0 0 
trait 3 0.952776 0 1 0 0 0 0.991183 1 
node 1 1 1 3
node 2 1 1 1
node 3 1 1 1
node 4 1 1 1
node 5 2 1 1
node 6 1 1 1
node 7 2 1 1
node 8 2 1 1
node 9 3 1 1
node 10 1 1 1
node 11 3 1 1
node 12 3 1 1
node 13 3 1 1
node 14 2 1 1
node 15 1 1 1
node 16 1 1 1
node 17 1 0 2
node 18 1 0 2
node 25 1 0 0
nodegru 28 0 1.3249330738675469 0.0037414538691479034 -0.049658645433214632 -0.11273030709136755 0.9750047346926316 -0.42392692501839568 [ 0.38578666857713229 1.3336719706811346 3.4770233710189453 -0.16492787430292344 ] [ -2.9772717822237276 0.027848048381436639 1.0894069374023969 2.8468742295386615 ] [ 0.11158965649622932 -2.0548553650988524 -0.78747929063973909 -1.168715632832011 ]
node 54 1 0 0
nodegru 149 0 0.26133126568111187 2.8595968528462561 -2.5370949977250277 -1.7384820914540824 1.241028507585185 1.4768152988873493 [ -1.5072297777548571 ] [ -0.43013469871605503 ] [ -0.67917305332570022 ]
nodegru 161 0 -0.74655997508510941 1.4915620386561201 -0.31990805143486156 -0.34511407154850393 -1.4819675262467786 0.92707289961496031 [ -0.070654874933257394 0 ] [ 0.42297279691462064 0 ] [ 0.2205916197135076 0 ]
node 168 2 0 0
nodegru 173 0 0.00082329078615792084 1.3794946974979223 -0.20167209333818059 -2.1900946724648098 -3.9976897262957367 1.3141890365230799 [ -2.4836471460217826 ] [ -0.38235528016572601 ] [ -0.37782526103678404 ]
node 177 3 0 0
nodegru 244 0 -1.6871733244914435 1.1060247764019411 -1.8821167444726996 -1.9701818912151186 -0.26982322045128004 -1.5859722937857603 [ -0.14039960929211204 -0.9142213661289873 0.62308326904805522 ] [ -2.7443453943097711 -1.0227116372076384 -0.23593522502851461 ] [ -1.1859345367112821 0 0.80717983297406681 ]
node 268 1 0 0
node 328 1 0 0
nodegru 420 0 0 0 0 0 -0.43456647006541793 -1.1394909441654995 [ 0 0 ] [ 0 0 ] [ 0 0 ]
node 486 1 0 0
node 497 1 0 0
nodegru 550 0 0 -0.12384821433753158 -1.3435811278613197 -0.22465193025984426 0.6644676887264791 0 [ 0.79619295652778499 0 ] [ 0 0 ] [ 0 0 ]
node 596 1 0 0
node 615 1 0 0
nodegru 659 0 -0.92092402275694718 2.0587331590050519 0.43992510388601802 0.0020154530657527231 -0.035407756704561311 -1.744259042313443 [ 3.1373133527288739 ] [ -0.95919501313902211 ] [ -0.52132442128906231 ]
node 683 1 0 0
nodegru 742 0 0 -0.76717804524450472 0 -0.92194621750244221 0 0 [ 0.64790163033078507 ] [ 0 ] [ 1.0306586970252258 ]
node 758 1 0 0
node 801 1 0 0
nodegru 840 0 0 0 0 0 0 0 [ 0 ] [ 0 ] [ 0 ]
gene 2 1 17 -4.0372383610984492 0 1 -4.0372383610984492 1
gene 1 2 17 2.8679786575343353 0 2 2.8679786575343353 1
gene 2 3 17 0.90506213526477142 0 3 0.90506213526477142 1
gene 1 4 17 2.2338392963790508 0 4 2.2338392963790508 1
gene 2 5 17 -1.3446725329126576 0 5 -1.3446725329126576 1
gene 1 6 17 -5.3120235485546408 0 6 -5.3120235485546408 1
gene 1 7 17 0.025862809981155588 0 7 0.025862809981155588 1
gene 2 8 17 1.7960340428613284 0 8 1.7960340428613284 1
gene 3 9 17 -2.1716433012260334 0 9 -2.1716433012260334 0
gene 3 10 17 3.761608651961017 0 10 3.761608651961017 1
gene 2 11 17 5.4870232699844159 0 11 5.4870232699844159 1
gene 1 12 17 -0.25931292155725538 0 12 -0.25931292155725538 1
gene 2 13 17 -0.38894832524887679 0 13 -0.38894832524887679 0
gene 1 14 17 1.2643438455482681 0 14 1.2643438455482681 0
gene 2 15 17 -6.7850655332603811 0 15 -6.7850655332603811 1
gene 3 16 17 -6.4227987797571338 0 16 -6.4227987797571338 1
gene 2 1 18 6.3917493856939256 0 17 6.3917493856939256 1
gene 2 2 18 3.854001142016612 0 18 3.854001142016612 0
gene 1 3 18 2.0471243167049833 0 19 2.0471243167049833 1
gene 3 4 18 -0.10117610222714601 0 20 -0.10117610222714601 0
gene 2 5 18 0.76238024526386572 0 21 0.76238024526386572 1
gene 3 6 18 -0.18918420173655326 0 22 -0.18918420173655326 1
gene 3 7 18 5.4443856200409986 0 23 5.4443856200409986 0
gene 2 8 18 -0.40833399091304057 0 24 -0.40833399091304057 0
gene 3 9 18 -7.798312976862448 0 25 -7.798312976862448 1
gene 3 10 18 3.339429471799837 0 26 3.339429471799837 1
gene 1 11 18 -2.1404360717350785 0 27 -2.1404360717350785 1
gene 3 12 18 -2.1511132361605356 0 28 -2.1511132361605356 0
gene 2 13 18 0.59455484552055338 0 29 0.59455484552055338 1
gene 2 14 18 7.4687755871418755 0 30 7.4687755871418755 1
gene 3 15 18 6.7857640661698584 0 31 6.7857640661698584 0
gene 2 16 18 6.9534572534977714 0 32 6.9534572534977714 1
gene 3 12 25 -3.6244066262731365 0 54 -3.6244066262731365 0
gene 3 25 18 7.4994662161914007 0 55 7.4994662161914007 1
gene 3 12 28 2.8226181402907788 0 66 2.8226181402907788 1
gene 3 28 25 3.2185138388157419 0 67 3.2185138388157419 1
gene 2 18 25 -2.6544005114838485 1 200 -2.6544005114838485 0
gene 3 4 54 -6.9280725640375511 0 239 -6.9280725640375511 1
gene 3 54 18 -3.5197288107684468 0 240 -3.5197288107684468 1
gene 2 10 28 -0.27760244872309348 0 328 -0.27760244872309348 1
gene 2 10 54 5.5537312233605096 0 386 5.5537312233605096 1
gene 1 18 18 -7.6079018184020644 1 553 -7.6079018184020644 1
gene 1 4 25 4.2808063099071418 0 595 4.2808063099071418 1
gene 3 16 25 5.7030641342061887 0 707 5.7030641342061887 1
gene 2 14 54 1.8600265082717065 0 758 1.8600265082717065 0
gene 3 15 149 1.9095974852841342 0 825 1.9095974852841342 1
gene 3 149 18 -1.5995994040740653 0 826 -1.5995994040740653 1
gene 3 54 54 2.9666314737250232 1 839 2.9666314737250232 0
gene 1 3 54 2.8138384585333238 0 851 2.8138384585333238 1
gene 2 18 161 -1.1128242021020622 1 891 -1.1128242021020622 1
gene 2 161 25 -0.38783863949954411 0 892 -0.38783863949954411 1
gene 1 13 25 1.0888100648712424 0 902 1.0888100648712424 0
gene 1 3 28 2.9575924565818132 0 911 2.9575924565818132 1
gene 2 8 168 -8 0 933 -8 1
gene 2 168 18 0.31249221568577501 0 934 0.31249221568577501 0
gene 2 168 173 -0.44380316252066065 0 964 -0.44380316252066065 1
gene 1 173 18 -4.4020827838229408 0 965 -4.4020827838229408 0
gene 2 7 177 2.6674058996920498 0 983 2.6674058996920498 1
gene 2 177 18 -6.3760257812105241 0 984 -6.3760257812105241 1
gene 2 1 54 6.9042660945114989 0 1144 6.9042660945114989 1
gene 2 173 17 0.45215577723093109 0 1320 0.45215577723093109 0
gene 2 173 244 -4.0971992323627688 0 1423 -4.0971992323627688 1
gene 2 244 18 -6.7158109320866926 0 1424 -6.7158109320866926 1
gene 3 149 28 -3.2695822540063331 0 1544 -3.2695822540063331 1
gene 3 2 177 -0.22663572557579537 0 1571 -0.22663572557579537 1
gene 2 173 268 -1.509091670163484 0 1621 -1.509091670163484 0
gene 2 268 17 -1.9344424744762678 0 1622 -1.9344424744762678 1
gene 1 25 268 -2.1540543558793401 0 1696 -2.1540543558793401 1
gene 3 54 328 -2.6971435217173503 1 1972 -2.6971435217173503 1
gene 3 328 54 -2.1697828777459369 0 1973 -2.1697828777459369 1
gene 1 9 177 -0.12846919178425759 0 2307 -0.12846919178425759 1
gene 2 161 17 -6.8131130860713842 0 2325 -6.8131130860713842 1
gene 2 11 328 -5.2510489696874521 0 2345 -5.2510489696874521 1
gene 2 177 168 0.093346091496453232 0 2457 0.093346091496453232 1
gene 2 173 420 1.9344574857663634 0 2474 1.9344574857663634 0
gene 2 420 268 -0.069713107342698089 0 2475 -0.069713107342698089 0
gene 3 3 328 2.8817788338669477 0 2694 2.8817788338669477 1
gene 1 2 244 -6.7272627622481735 0 2707 -6.7272627622481735 1
gene 2 420 486 -7.2521756704673983 0 2892 -7.2521756704673983 1
gene 1 486 268 2.9887640608887964 0 2893 2.9887640608887964 1
gene 2 14 497 -1.213749109866912 0 2978 -1.213749109866912 0
gene 2 497 54 -2.4940700775450426 0 2979 -2.4940700775450426 1
gene 1 7 168 2.3228901905579908 0 3263 2.3228901905579908 1
gene 2 13 550 -1.3472076288178592 0 3342 -1.3472076288178592 0
gene 2 550 17 -2.435837451338692 0 3343 -2.435837451338692 1
gene 2 173 497 -1.0369483430576272 0 3406 -1.0369483430576272 1
gene 2 161 244 -2.16596576602476 0 3461 -2.16596576602476 1
gene 1 13 497 -0.11881511407849149 0 3477 -0.11881511407849149 1
gene 1 17 17 1.5931930665826393 1 3536 1.5931930665826393 1
gene 3 3 177 1.3654276204134466 0 3596 1.3654276204134466 1
gene 1 28 177 1.5722878072747437 0 3627 1.5722878072747437 1
gene 1 14 596 -1.2179194741034505 0 3649 -1.2179194741034505 0
gene 1 596 17 1.2610662916028255 0 3650 1.2610662916028255 1
gene 3 596 54 3.1219077611444095 0 3688 3.1219077611444095 1
gene 3 177 328 0.83641219736841144 0 3703 0.83641219736841144 1
gene 2 173 615 1.2486213670338602 0 3784 1.2486213670338602 1
gene 2 615 420 1.9788908590464338 0 3785 1.9788908590464338 1
gene 1 550 168 0.14718148957341071 0 3900 0.14718148957341071 1
gene 2 149 596 -1.741909041647757 0 4021 -1.741909041647757 1
gene 2 1 497 0.99375752056658151 0 4027 0.99375752056658151 1
gene 2 497 25 -0.60963063505926662 0 4041 -0.60963063505926662 1
gene 2 9 659 -0.3594793690645508 0 4067 -0.3594793690645508 1
gene 2 659 17 1.7972786283573501 0 4068 1.7972786283573501 1
gene 3 16 161 -1.4645337201489752 0 4209 -1.4645337201489752 1
gene 2 2 683 -1.0637291677127263 0 4216 -1.0637291677127263 1
gene 2 683 18 2.3687399036105443 0 4217 2.3687399036105443 1
gene 1 14 328 0.68814472606784882 0 4375 0.68814472606784882 1
gene 2 28 168 0.53605798167924301 0 4381 0.53605798167924301 1
gene 3 16 596 0.012605366302936072 0 4552 0.012605366302936072 1
gene 3 615 17 0.96479379011541311 0 4560 0.96479379011541311 1
gene 1 14 742 1 0 4657 0 1
gene 1 742 596 -1.2179194741034505 0 4658 0 0
gene 3 168 268 0.1331779407957466 0 4752 0.1331779407957466 1
gene 2 14 758 1 0 4768 0 1
gene 2 758 497 -1.213749109866912 0 4769 0 1
gene 2 3 25 0.72639943087771508 0 4782 0.72639943087771508 1
gene 3 177 177 0.3810835785144398 1 5041 0.3810835785144398 1
gene 2 13 801 1 0 5060 0 1
gene 2 801 550 -1.3472076288178592 0 5061 0 1
gene 1 244 168 -0.46309928477886098 1 5159 -0.46309928477886098 1
gene 1 742 840 1 0 5298 0 1
gene 1 840 596 -1.2179194741034505 0 5299 0 1
genomeend 1
