genomestart 1
trait 1 0.521296 0.748533 0.346725 0 1 1 0 0.763925 
trait 2 0.667523 0 0 0.627215 0 0.63758 0 0.272263 
trait 3 0.144979 0 0 0 1 0.919102 0.567914 0.359696 
node 1 2 1 3
node 2 1 1 1
node 3 3 0 2
node 4 3 0 2
nodegru 10 0 -0.238107 1.11264 0.54594 1.1116 -1.09848 0.382433 [ 1.07832 -0.609694 0.0749528 0.616234 ] [ -0.402273 0.342714 -0.467424 0 ] [ 0.559616 0.492467 0.129615 -0.020661 ]
nodegru 16 0 0.740244 -1.45536 -0.646108 0.133249 0.41016 0.0820633 [ 0.59995 0.376833 0.637619 0.551081 0.885165 -0.432316 0.172975 0.351307 0 ] [ -1.28041 1.15516 -1.05125 0.740226 0.655589 0.363264 1.55298 -0.473423 0 ] [ -0.370334 -1.51547 0.72634 -0.312434 -0.0673295 0.997008 -0.716195 0.663737 0.435379 ]
nodegru 52 0 -0.0174948 -0.681054 -2.02596 -0.0425599 -0.35941 0.630094 [ -0.0618732 0.265932 -0.623774 0 ] [ 0.0490516 -0.113612 -0.302394 -0.1616 ] [ 2.50585 0.193293 0 0 ]
node 60 2 0 0
nodegru 97 0 -0.0672542 0.0397294 0.0417248 1.23396 0.314909 -0.479123 [ 0.793935 -1.00673 -0.103334 -1.197 0 0 ] [ -0.00113098 0.0510839 0.368297 1.27642 0 0 ] [ -0.31146 -0.256942 0.879713 0.415104 -0.0149049 0 ]
node 149 1 0 0
nodegru 205 0 0 0.706766 -0.173804 0 -0.546333 0 [ 0 ] [ -0.327628 ] [ 0.0835272 ]
node 221 1 0 0
nodegru 244 0 0.165918 0 0.596538 -0.41764 0 0.393378 [ 0.519749 -0.680155 ] [ 0.243473 0.109979 ] [ 0.478812 0.19546 ]
node 255 1 0 0
nodegru 272 0 0.144743 -0.5591 1.2624 -0.321795 0 0 [ 0.253865 ] [ 0.585174 ] [ 0.681485 ]
node 316 1 0 0
nodegru 355 0 0.362119 0.476694 0.615613 0 0.480378 -0.0857188 [ -0.556462 ] [ 0.689847 ] [ 0.0120963 ]
gene 2 1 3 -0.288166 0 1 -0.288166 1
gene 2 2 3 -0.195955 0 2 -0.195955 1
gene 1 1 4 0.522633 0 3 0.522633 1
gene 1 2 4 -2.48103 0 4 -2.48103 1
gene 3 4 4 -0.536323 1 21 -0.536323 0
gene 1 2 10 0.207767 0 26 0.207767 0
gene 1 10 4 0.0764696 0 27 0.0764696 1
gene 2 10 3 -0.534624 0 38 -0.534624 1
gene 1 2 16 1.49583 0 43 1.49583 0
gene 1 16 3 3.13966 0 44 3.13966 1
gene 3 10 16 4.10635 0 82 4.10635 1
gene 3 1 16 0.689306 0 187 0.689306 1
gene 3 2 52 0.330099 0 204 0.330099 0
gene 1 52 10 -0.275368 0 205 -0.275368 1
gene 3 16 4 -0.343133 0 232 -0.343133 0
gene 1 2 60 -0.444461 0 258 -0.444461 0
gene 1 60 52 -0.145861 0 259 -0.145861 1
gene 3 52 4 1.28696 0 266 1.28696 1
gene 1 52 16 1.4382 0 346 1.4382 1
gene 3 16 52 2.36324 1 411 2.36324 1
gene 3 4 97 -0.794517 1 505 -0.794517 1
gene 1 97 4 -2.15424 0 506 -2.15424 1
gene 1 16 10 -1.96911 1 510 -1.96911 0
gene 3 52 97 -1.00971 0 661 -1.00971 0
gene 2 60 16 -1.31689 0 676 -1.31689 0
gene 3 60 3 -0.458068 0 820 -0.458068 1
gene 1 60 97 -0.685664 0 840 -0.685664 1
gene 1 16 149 0.415512 1 854 0.415512 1
gene 1 149 10 0.298689 0 855 0.298689 1
gene 1 1 149 -1.00281 0 1084 -1.00281 1
gene 3 149 60 -0.638199 0 1105 -0.638199 1
gene 3 16 97 -2.32992 0 1114 -2.32992 1
gene 3 97 3 -0.389352 0 1125 -0.389352 1
gene 3 2 149 -0.958985 0 1160 -0.958985 1
gene 3 1 60 -1.13041 0 1225 -1.13041 1
gene 2 60 205 0.870572 0 1231 0.870572 1
gene 2 205 16 1.06127 0 1232 1.06127 1
gene 1 2 221 -0.987932 0 1307 -0.987932 1
gene 1 221 16 0.0672842 0 1308 0.0672842 0
gene 1 221 244 -0.48943 0 1484 -0.48943 1
gene 1 244 16 0.631739 0 1485 0.631739 1
gene 2 205 52 -1.32235 0 1515 -1.32235 1
gene 1 2 255 -0.510198 0 1537 -0.510198 1
gene 1 255 4 -0.726477 0 1538 -0.726477 1
gene 3 52 272 -0.13295 0 1675 -0.13295 1
gene 3 272 97 -0.986768 0 1676 -0.986768 1
gene 1 255 149 -0.482512 0 1734 -0.482512 1
gene 3 16 316 -0.78718 0 1908 -0.78718 1
gene 3 316 4 -0.344825 0 1909 -0.344825 1
gene 2 205 244 -0.387288 0 1962 -0.387288 1
gene 2 272 16 -0.596598 0 2074 -0.596598 1
gene 1 2 355 0.403512 0 2103 0.403512 1
gene 1 355 60 -1.77993 0 2104 -1.77993 1
gene 3 10 316 -0.718233 0 2261 -0.718233 1
gene 1 255 60 -0.0823989 0 2279 -0.0823989 1
gene 2 149 97 0.433197 0 2448 0.433197 1
genomeend 1
