genomestart 1
trait 1 0.506552 0.471948 0.342556 0.426588 0 0.0920513 0.987308 0.35386 
trait 2 0 0.771193 0 0 0.284205 0.53729 0 0.276627 
trait 3 0 0.965088 0.277469 0.393118 0.781467 0 0 0.202903 
node 1 3 1 3
node 2 3 1 1
node 3 2 1 1
node 4 3 1 1
node 5 2 1 1
node 6 2 1 1
node 7 2 1 1
node 8 1 1 1
node 9 2 1 1
node 10 1 1 1
node 11 2 1 1
node 12 2 1 1
node 13 2 1 1
node 14 1 1 1
node 15 2 1 1
node 16 2 1 1
node 17 2 0 2
node 18 1 0 2
node 37 1 0 0
nodegru 42 0 -0.95113598157238965 -1.5551189866639297 -1.502676378005499 0.81522605769113898 -0.093059665799634511 0.4379713458185881 [ 3.9565123906156572 2.6580053543010749 1.1011718912521249 -1.395730355938771 ] [ -1.1309142630225579 2.6755306300127559 -0.31729050321378299 0.34954030944478709 ] [ -1.3432477551248148 -0.76376452355820923 1.1247896846033585 -1.7392118255324716 ]
node 81 1 0 0
node 89 1 0 0
nodegru 122 0 0 0 -0.76826852735517015 0.76646698464940632 0.78502231244231679 -0.4749484469531795 [ -1.6064559000574314 ] [ 0.8785531760093539 ] [ 0 ]
node 167 1 0 0
node 175 1 0 0
gene 2 1 17 0.80894643082700035 0 1 0.80894643082700035 1
gene 1 2 17 3.8208680103164481 0 2 3.8208680103164481 1
gene 2 3 17 1.0783756976380827 0 3 1.0783756976380827 1
gene 2 4 17 -1.2442782846019966 0 4 -1.2442782846019966 1
gene 3 5 17 -4.4580237704599384 0 5 -4.4580237704599384 1
gene 1 6 17 -3.7746095712178431 0 6 -3.7746095712178431 1
gene 1 7 17 -0.69071587486691577 0 7 -0.69071587486691577 1
gene 1 8 17 -0.04301846681303273 0 8 -0.04301846681303273 1
gene 3 9 17 -1.2475975182594721 0 9 -1.2475975182594721 1
gene 1 10 17 -0.058611647486040253 0 10 -0.058611647486040253 1
gene 3 11 17 0.3837368881254164 0 11 0.3837368881254164 1
gene 2 12 17 0.60314590791386835 0 12 0.60314590791386835 1
gene 1 13 17 0.16279250833335918 0 13 0.16279250833335918 1
gene 1 14 17 -0.10598266758303287 0 14 -0.10598266758303287 1
gene 2 15 17 -8 0 15 -8 1
gene 3 16 17 0.83628962740129298 0 16 0.83628962740129298 0
gene 3 1 18 0.45418450443734659 0 17 0.45418450443734659 1
gene 1 2 18 -0.60682195010912698 0 18 -0.60682195010912698 1
gene 1 3 18 1.0221047888147201 0 19 1.0221047888147201 0
gene 1 4 18 0.47629581064744653 0 20 0.47629581064744653 1
gene 2 5 18 1.7022962880797201 0 21 1.7022962880797201 1
gene 2 6 18 0.31919049067385052 0 22 0.31919049067385052 1
gene 2 7 18 0.56105961490471834 0 23 0.56105961490471834 1
gene 2 8 18 -2.2593994058013891 0 24 -2.2593994058013891 1
gene 2 9 18 -0.011087782686151626 0 25 -0.011087782686151626 1
gene 1 10 18 1.0078722802027467 0 26 1.0078722802027467 1
gene 3 11 18 -0.89613854577585061 0 27 -0.89613854577585061 0
gene 3 12 18 0.99949284060834587 0 28 0.99949284060834587 1
gene 3 13 18 -0.28777170194674795 0 29 -0.28777170194674795 1
gene 3 14 18 2.071498300913488 0 30 2.071498300913488 1
gene 1 15 18 0.37396465142907787 0 31 0.37396465142907787 1
gene 1 16 18 3.7600515548885105 0 32 3.7600515548885105 0
gene 1 18 18 0.71945803413142362 1 44 0.71945803413142362 0
gene 3 11 37 0.15674311069619995 0 143 0.15674311069619995 1
gene 3 37 18 -0.22557838481179393 0 144 -0.22557838481179393 1
gene 3 16 42 1.0088558553293605 0 159 1.0088558553293605 0
gene 3 42 17 2.0752093948308419 0 160 2.0752093948308419 0
gene 3 3 37 1.0873742595256186 0 180 1.0873742595256186 1
gene 2 1 42 -1.0016422092456567 0 223 -1.0016422092456567 1
gene 1 7 42 -1.0935457116428511 0 228 -1.0935457116428511 1
gene 3 17 17 -0.39185122279070839 1 272 -0.39185122279070839 1
gene 1 16 37 -0.81133308625376455 0 382 -0.81133308625376455 0
gene 1 18 81 1.7734760266139524 1 392 1.7734760266139524 1
gene 1 81 18 0.36856401659015753 0 393 0.36856401659015753 1
gene 1 3 89 0.55079951442349684 0 456 0.55079951442349684 1
gene 1 89 18 -0.46406256056579881 0 457 -0.46406256056579881 1
gene 2 5 81 -1.0143292874630214 0 569 -1.0143292874630214 1
gene 2 6 81 0.39611987881181754 0 575 0.39611987881181754 1
gene 3 7 37 1.5228564874375503 0 586 1.5228564874375503 0
gene 3 37 37 2.2530857791440031 1 599 2.2530857791440031 0
gene 1 16 89 -0.18131035924018835 0 620 -0.18131035924018835 1
gene 3 16 122 0.6262377312529076 0 675 0.6262377312529076 1
gene 3 122 42 2.6296739816338164 0 676 2.6296739816338164 1
gene 2 2 81 -0.96711423525918028 0 866 -0.96711423525918028 1
gene 1 5 89 1.2863482280105112 0 903 1.2863482280105112 1
gene 3 7 167 0.57687763803493108 0 915 0.57687763803493108 1
gene 3 167 37 0.18628479735287129 0 916 0.18628479735287129 1
gene 3 42 175 1.2589412079001503 0 964 1.2589412079001503 1
gene 3 175 17 1.7312480424210652 0 965 1.7312480424210652 1
gene 1 14 167 -0.86657787969642242 0 984 -0.86657787969642242 1
genomeend 1
