genomestart 1
trait 1 0 0.383857 0.136315 0.455368 0 0 0.553545 0 
trait 2 0.2 0 0 0 0.202055 0 0 0 
trait 3 0.537614 0 0 0.0869739 0.538567 0 0 0.139625 
node 1 1 1 3
node 2 3 1 1
node 3 1 1 1
node 4 2 1 1
node 5 2 1 1
node 6 2 1 1
node 7 3 1 1
node 8 1 1 1
node 9 3 1 1
node 10 3 1 1
node 11 1 1 1
node 12 2 1 1
node 13 3 1 1
node 14 1 1 1
node 15 1 1 1
node 16 2 1 1
node 17 1 0 2
node 18 2 0 2
nodegru 19 0 -1.33518 2.4905 -1.06852 1.64026 -0.197959 -0.116874 [ 0.748802 -0.319235 0.906121 -0.534547 0.608025 0.63863 0.390661 -0.618687 ] [ 0.792145 -0.109125 1.34954 -2.11284 0.986112 -0.117316 0.544986 0.509523 ] [ -0.0721937 -0.121606 1.01981 -0.53069 0.635052 -0.151863 0.0148128 0.203647 ]
nodegru 20 0 0.598187 -0.522713 2.96146 0.348078 -0.909607 0.245574 [ 1.92041 -1.20668 0.658831 0.054326 0.502824 0.505587 ] [ -0.892411 0.482592 -0.915098 -0.202331 -0.384087 -0.474593 ] [ 0.402697 -0.198051 -0.107623 -0.322033 -0.537013 0 ]
gene 1 1 17 -0.301424 0 1 -0.301424 1
gene 3 2 17 -0.231326 0 2 -0.231326 1
gene 2 3 17 1.6811 0 3 1.6811 1
gene 3 4 17 -7.66321 0 4 -7.66321 0
gene 1 5 17 -4.74078 0 5 -4.74078 1
gene 2 6 17 2.06776 0 6 2.06776 1
gene 3 7 17 5.94809 0 7 5.94809 1
gene 2 8 17 -0.42871 0 8 -0.42871 1
gene 3 9 17 -0.565235 0 9 -0.565235 0
gene 1 10 17 0.655944 0 10 0.655944 1
gene 3 11 17 -0.843373 0 11 -0.843373 1
gene 1 12 17 -4.60141 0 12 -4.60141 1
gene 2 13 17 1.50717 0 13 1.50717 1
gene 1 14 17 0.640189 0 14 0.640189 1
gene 1 15 17 -0.0621821 0 15 -0.0621821 1
gene 1 16 17 -4.72008 0 16 -4.72008 1
gene 1 1 18 4.88589 0 17 4.88589 1
gene 1 2 18 -0.915289 0 18 -0.915289 1
gene 3 3 18 2.88511 0 19 2.88511 1
gene 2 4 18 2.08024 0 20 2.08024 1
gene 1 5 18 -1.07504 0 21 -1.07504 1
gene 2 6 18 2.92647 0 22 2.92647 1
gene 1 7 18 -0.779932 0 23 -0.779932 1
gene 2 8 18 2.94425 0 24 2.94425 1
gene 3 9 18 -2.59451 0 25 -2.59451 1
gene 3 10 18 -3.77718 0 26 -3.77718 1
gene 2 11 18 2.54901 0 27 2.54901 1
gene 2 12 18 -0.696981 0 28 -0.696981 1
gene 3 13 18 1.26481 0 29 1.26481 1
gene 3 14 18 -0.991075 0 30 -0.991075 1
gene 2 15 18 3.84375 0 31 3.84375 1
gene 2 16 18 1.68226 0 32 1.68226 1
gene 3 4 19 -0.111264 0 44 -0.111264 1
gene 3 19 17 -1.39018 0 45 -1.39018 1
gene 3 9 20 0.421841 0 46 0.421841 1
gene 3 20 17 -0.701427 0 47 -0.701427 1
gene 3 4 20 0.271741 0 73 0.271741 1
gene 1 2 19 2.22311 0 116 2.22311 1
gene 3 1 20 0.882092 0 180 0.882092 1
gene 1 1 19 0.348723 0 239 0.348723 1
gene 2 14 19 0.334372 0 285 0.334372 1
gene 1 15 20 -0.131606 0 316 -0.131606 1
gene 3 15 19 -0.781102 0 357 -0.781102 1
gene 1 16 20 -0.373872 0 384 -0.373872 1
gene 1 11 19 0.292507 0 418 0.292507 1
gene 3 19 20 -1.04681 0 484 -1.04681 1
gene 2 3 19 -0.701152 0 494 -0.701152 1
gene 3 13 19 0.507738 0 520 0.507738 1
genomeend 1
