genomestart 1
trait 1 0.805396 0.532385 0.701584 0.374211 0.286669 0.90483 0.437359 0.0315676 
trait 2 0.831034 0.680991 0.272521 0.444858 0.0785781 0.417667 0.15119 0.0997097 
trait 3 0.473925 0.252796 0.725738 0.837956 0.798389 0.105312 0 0.72088 
node 1 3 1 3
node 2 3 1 1
node 3 3 1 1
node 4 3 1 1
node 5 2 1 1
node 6 2 1 1
node 7 3 1 1
node 8 1 1 1
node 9 1 1 1
node 10 3 1 1
node 11 3 1 1
node 12 1 1 1
node 13 2 1 1
node 14 2 1 1
node 15 1 1 1
node 16 3 1 1
node 17 2 0 2
node 18 3 0 2
node 60 2 0 0
node 99 1 0 0
node 183 2 0 0
node 219 3 0 0
node 226 3 0 0
node 336 2 0 0
node 363 3 0 0
node 374 1 0 0
node 430 2 0 0
node 537 1 0 0
node 624 1 0 0
node 664 1 0 0
node 709 1 0 0
gene 1 1 17 2.71749 0 1 2.71749 1
gene 2 2 17 -1.82848 0 2 -1.82848 1
gene 1 3 17 -3.37964 0 3 -3.37964 1
gene 1 4 17 -0.349787 0 4 -0.349787 1
gene 1 5 17 0.0310482 0 5 0.0310482 1
gene 3 6 17 1.03272 0 6 1.03272 1
gene 1 7 17 -1.49925 0 7 -1.49925 1
gene 2 8 17 -4.11853 0 8 -4.11853 1
gene 1 9 17 -3.40381 0 9 -3.40381 1
gene 1 10 17 1.98972 0 10 1.98972 1
gene 3 11 17 0.454422 0 11 0.454422 1
gene 3 12 17 7.86389 0 12 7.86389 1
gene 2 13 17 5.85806 0 13 5.85806 1
gene 1 14 17 0.294595 0 14 0.294595 1
gene 1 15 17 1.99793 0 15 1.99793 1
gene 2 16 17 1.39393 0 16 1.39393 1
gene 2 1 18 -1.26064 0 17 -1.26064 1
gene 1 2 18 -3.891 0 18 -3.891 1
gene 3 3 18 1.72035 0 19 1.72035 1
gene 2 4 18 -1.68906 0 20 -1.68906 1
gene 2 5 18 -3.00584 0 21 -3.00584 1
gene 2 6 18 -1.78328 0 22 -1.78328 1
gene 2 7 18 0.143793 0 23 0.143793 1
gene 3 8 18 3.84427 0 24 3.84427 1
gene 3 9 18 6.9787 0 25 6.9787 1
gene 2 10 18 7.37267 0 26 7.37267 1
gene 2 11 18 3.63346 0 27 3.63346 1
gene 3 12 18 4.40572 0 28 4.40572 1
gene 1 13 18 -0.74528 0 29 -0.74528 1
gene 1 14 18 -0.00583741 0 30 -0.00583741 1
gene 3 15 18 -1.28863 0 31 -1.28863 1
gene 2 16 18 -0.0451008 0 32 -0.0451008 1
gene 3 17 17 1.43121 1 55 1.43121 1
gene 2 11 60 1.58496 0 358 1.58496 1
gene 1 60 17 -1.24809 0 359 -1.24809 1
gene 1 6 60 -2.09914 0 522 -2.09914 0
gene 1 15 60 0.129086 0 691 0.129086 1
gene 3 17 18 0.169628 0 757 0.169628 1
gene 2 18 18 2.49335 1 772 2.49335 1
gene 1 4 60 -1.77736 0 849 -1.77736 1
gene 3 60 99 -3.67694 0 908 -3.67694 1
gene 2 99 17 1.57241 0 909 1.57241 1
gene 2 60 60 -1.04688 1 995 -1.04688 1
gene 1 14 60 4.87822 0 1217 4.87822 1
gene 1 99 99 -0.628493 1 1259 -0.628493 1
gene 2 18 99 -0.580154 1 1610 -0.580154 1
gene 3 7 99 0.770028 0 1628 0.770028 1
gene 1 9 60 -0.267553 0 2042 -0.267553 1
gene 3 10 60 1.81139 0 2070 1.81139 1
gene 2 9 99 -1.80061 0 2107 -1.80061 1
gene 1 13 99 2.66254 0 2207 2.66254 1
gene 1 1 99 -0.195332 0 2215 -0.195332 1
gene 1 17 99 1.79917 1 2229 1.79917 1
gene 3 15 99 0.778102 0 2237 0.778102 1
gene 2 8 99 -0.395168 0 2411 -0.395168 1
gene 3 7 60 0.73982 0 2467 0.73982 1
gene 3 16 99 0.0616507 0 2485 0.0616507 1
gene 3 13 60 -5.15439 0 2913 -5.15439 1
gene 2 60 18 0.471065 0 2929 0.471065 1
gene 3 12 99 7.17471 0 2949 7.17471 1
gene 2 60 183 -1.15963 0 2989 -1.15963 1
gene 1 183 17 -0.270373 0 2990 -0.270373 1
gene 2 17 183 0.218202 1 3036 0.218202 1
gene 3 183 183 2.11558 1 3085 2.11558 1
gene 2 13 183 0.15162 0 3247 0.15162 1
gene 1 11 183 1.08768 0 3276 1.08768 1
gene 1 2 183 -0.763277 0 3312 -0.763277 1
gene 2 7 183 -1.50915 0 3344 -1.50915 1
gene 2 17 60 5.09629 1 3382 5.09629 1
gene 1 183 219 -4.23708 0 3425 -4.23708 1
gene 2 219 17 -0.948826 0 3426 -0.948826 1
gene 2 60 226 5.07467 0 3530 5.07467 1
gene 1 226 99 -0.894874 0 3531 -0.894874 1
gene 1 1 219 -0.0167915 0 3572 -0.0167915 1
gene 1 226 226 -0.578692 1 3700 -0.578692 1
gene 3 8 219 2.24636 0 3731 2.24636 1
gene 1 2 219 -0.590291 0 3774 -0.590291 1
gene 1 7 226 0.300689 0 3792 0.300689 1
gene 3 3 99 -1.70122 0 3808 -1.70122 0
gene 1 226 183 0.735696 0 4030 0.735696 1
gene 3 10 183 1.55134 0 4214 1.55134 1
gene 3 99 219 -0.916968 0 4524 -0.916968 1
gene 1 11 219 -1.03502 0 4535 -1.03502 1
gene 3 16 226 1.03011 0 4563 1.03011 1
gene 3 15 183 1.45549 0 4719 1.45549 1
gene 1 15 219 1.39865 0 4735 1.39865 1
gene 2 13 336 0.920137 0 4752 0.920137 1
gene 2 336 18 0.69119 0 4753 0.69119 1
gene 1 1 60 -1.57373 0 4815 -1.57373 1
gene 1 336 60 1.09201 0 4843 1.09201 1
gene 1 5 219 -0.986883 0 4857 -0.986883 1
gene 3 10 219 -0.796656 0 5070 -0.796656 1
gene 2 13 363 1.03984 0 5088 1.03984 1
gene 3 363 336 1.42348 0 5089 1.42348 1
gene 1 13 219 -0.284443 0 5143 -0.284443 1
gene 1 18 363 2.85308 1 5378 2.85308 1
gene 2 8 336 0.909561 0 5395 0.909561 1
gene 3 8 183 0.0935661 0 5511 0.0935661 1
gene 3 363 17 -1.27746 0 5522 -1.27746 1
gene 2 219 219 1.46073 1 6022 1.46073 1
gene 2 1 226 -1.11594 0 6255 -1.11594 1
gene 1 363 374 0.764268 0 6357 0.764268 1
gene 1 374 336 -0.733219 0 6358 -0.733219 1
gene 3 336 226 0.733809 0 6404 0.733809 1
gene 2 3 374 -1.79978 0 6435 -1.79978 0
gene 1 6 219 0.749765 0 6601 0.749765 1
gene 1 183 18 0.0675268 0 6623 0.0675268 1
gene 2 6 99 -0.366411 0 6673 -0.366411 1
gene 1 9 219 -0.240496 0 6823 -0.240496 1
gene 2 2 430 0.125561 0 6995 0.125561 1
gene 2 430 17 0.594902 0 6996 0.594902 1
gene 3 5 183 -0.187313 0 7084 -0.187313 1
gene 3 183 99 -0.723499 0 7147 -0.723499 1
gene 1 1 363 0.168742 0 7187 0.168742 1
gene 2 7 336 -0.249442 0 7215 -0.249442 1
gene 2 363 430 0.323245 0 7252 0.323245 1
gene 1 430 226 -0.881237 0 7294 -0.881237 1
gene 1 11 99 -2.01198 0 7471 -2.01198 1
gene 1 2 336 -0.488939 0 7531 -0.488939 1
gene 1 374 430 -0.525982 0 7649 -0.525982 1
gene 3 430 430 0.216362 1 8063 0.216362 1
gene 1 430 99 -0.575682 0 8097 -0.575682 1
gene 3 6 363 -0.244822 0 8191 -0.244822 1
gene 2 3 537 -0.391266 0 8208 -0.391266 1
gene 2 537 374 0.548556 0 8209 0.548556 1
gene 2 16 219 -0.195341 0 8233 -0.195341 0
gene 1 219 363 0.719516 1 8248 0.719516 1
gene 3 9 226 -0.597689 0 8473 -0.597689 1
gene 2 374 17 -0.200152 0 8514 -0.200152 1
gene 2 374 183 1.23282 0 8547 1.23282 1
gene 2 6 226 -1.06709 0 8593 -1.06709 1
gene 2 12 183 -0.285443 0 8649 -0.285443 1
gene 1 14 374 -1.23259 0 8657 -1.23259 1
gene 3 5 374 0.342963 0 8922 0.342963 1
gene 2 13 624 0.312052 0 9144 0.312052 1
gene 2 624 183 0.151587 0 9145 0.151587 1
gene 3 1 430 -0.0199239 0 9452 -0.0199239 1
gene 3 363 363 -0.642806 1 9485 -0.642806 1
gene 3 16 183 -1.03637 0 9515 -1.03637 1
gene 3 10 664 0.937361 0 9579 0.937361 1
gene 3 664 183 2.28635 0 9580 2.28635 1
gene 1 4 99 -0.516723 0 9648 -0.516723 1
gene 1 374 60 0.853914 0 9847 0.853914 1
gene 3 10 336 0.386953 0 10036 0.386953 1
gene 3 3 709 1 0 10069 0 1
gene 3 709 99 -1.70122 0 10070 0 1
genomeend 1
