genomestart 1
trait 1 0.196964 0.993092 0.343154 0.169017 0.148478 0.780355 0.133445 0.563584 
trait 2 0.663985 0 0.180705 0.31243 1 0 0.993218 0 
trait 3 0.702909 0.206827 0.742337 0.742675 0.795169 0.0850265 0.0925478 0.873288 
node 1 1 1 3
node 2 1 1 1
node 3 2 1 1
node 4 1 1 1
node 5 2 1 1
node 6 2 1 1
node 7 2 1 1
node 8 2 1 1
node 9 3 1 1
node 10 3 1 1
node 11 1 1 1
node 12 2 1 1
node 13 3 1 1
node 14 2 1 1
node 15 1 1 1
node 16 3 1 1
node 17 1 0 2
node 18 1 0 2
node 60 3 0 0
node 99 2 0 0
node 183 3 0 0
node 219 2 0 0
node 226 1 0 0
node 336 2 0 0
node 363 2 0 0
node 367 1 0 0
node 462 1 0 0
node 493 1 0 0
node 534 2 0 0
node 536 1 0 0
node 588 1 0 0
gene 1 1 17 0.598955 0 1 0.598955 1
gene 2 2 17 -0.910191 0 2 -0.910191 1
gene 2 3 17 -0.518035 0 3 -0.518035 1
gene 1 4 17 4.71988 0 4 4.71988 1
gene 1 5 17 1.214 0 5 1.214 1
gene 1 6 17 -0.733635 0 6 -0.733635 1
gene 3 7 17 -2.77601 0 7 -2.77601 1
gene 3 8 17 -1.44997 0 8 -1.44997 1
gene 1 9 17 -2.0164 0 9 -2.0164 1
gene 2 10 17 0.0269678 0 10 0.0269678 1
gene 2 11 17 0.255527 0 11 0.255527 1
gene 2 12 17 2.54407 0 12 2.54407 1
gene 2 13 17 1.31114 0 13 1.31114 1
gene 3 14 17 0.937741 0 14 0.937741 1
gene 1 15 17 0.606012 0 15 0.606012 1
gene 3 16 17 -0.433422 0 16 -0.433422 1
gene 3 1 18 2.68485 0 17 2.68485 1
gene 1 2 18 -3.79248 0 18 -3.79248 1
gene 1 3 18 2.05923 0 19 2.05923 1
gene 1 4 18 -0.828715 0 20 -0.828715 1
gene 3 5 18 0.768087 0 21 0.768087 1
gene 1 6 18 0.391911 0 22 0.391911 1
gene 2 7 18 1.83068 0 23 1.83068 1
gene 1 8 18 -0.331393 0 24 -0.331393 1
gene 1 9 18 7.27509 0 25 7.27509 1
gene 1 10 18 4.32532 0 26 4.32532 1
gene 2 11 18 2.5 0 27 2.5 1
gene 3 12 18 -0.207426 0 28 -0.207426 1
gene 2 13 18 -4.99588 0 29 -4.99588 1
gene 1 14 18 -3.12537 0 30 -3.12537 1
gene 3 15 18 -1.89501 0 31 -1.89501 1
gene 1 16 18 -1.90811 0 32 -1.90811 1
gene 2 17 17 0.350114 1 55 0.350114 1
gene 1 11 60 -1.47259 0 358 -1.47259 1
gene 1 60 17 1.47184 0 359 1.47184 1
gene 3 6 60 -0.239349 0 522 -0.239349 1
gene 3 15 60 -0.344395 0 691 -0.344395 1
gene 1 17 18 -3.32192 0 757 -3.32192 1
gene 3 18 18 1.30351 1 772 1.30351 1
gene 1 4 60 -2.44824 0 849 -2.44824 1
gene 2 60 99 -1.0358 0 908 -1.0358 1
gene 2 99 17 -5.84825 0 909 -5.84825 1
gene 1 60 60 -1.77154 1 995 -1.77154 1
gene 1 14 60 0.44108 0 1217 0.44108 1
gene 1 99 99 -1.71195 1 1259 -1.71195 1
gene 1 18 99 -0.481684 1 1610 -0.481684 1
gene 3 7 99 -2.22468 0 1628 -2.22468 1
gene 2 9 60 -0.89016 0 2042 -0.89016 1
gene 1 10 60 0.149686 0 2070 0.149686 1
gene 2 9 99 -3.61025 0 2107 -3.61025 1
gene 3 13 99 -0.952065 0 2207 -0.952065 1
gene 2 1 99 -1.90434 0 2215 -1.90434 1
gene 3 17 99 -0.567841 1 2229 -0.567841 0
gene 1 15 99 -0.718379 0 2237 -0.718379 1
gene 2 8 99 -3.40455 0 2411 -3.40455 1
gene 1 7 60 0.335719 0 2467 0.335719 1
gene 1 16 99 -0.146758 0 2485 -0.146758 1
gene 1 13 60 -1.23077 0 2913 -1.23077 1
gene 2 60 18 -0.755122 0 2929 -0.755122 1
gene 2 12 99 -0.133825 0 2949 -0.133825 1
gene 2 60 183 -2.38379 0 2989 -2.38379 1
gene 1 183 17 -0.0429491 0 2990 -0.0429491 1
gene 1 17 183 -1.05596 1 3036 -1.05596 1
gene 1 183 183 0.246041 1 3085 0.246041 1
gene 3 13 183 -1.14515 0 3247 -1.14515 1
gene 2 11 183 2.04533 0 3276 2.04533 1
gene 1 2 183 1.97068 0 3312 1.97068 1
gene 2 7 183 0.827523 0 3344 0.827523 1
gene 2 17 60 -2.47299 1 3382 -2.47299 1
gene 3 183 219 -0.862963 0 3425 -0.862963 1
gene 3 219 17 -1.4578 0 3426 -1.4578 1
gene 1 60 226 0.304486 0 3530 0.304486 1
gene 1 226 99 1.76009 0 3531 1.76009 1
gene 1 1 219 2.67705 0 3572 2.67705 1
gene 2 226 226 -0.618665 1 3700 -0.618665 1
gene 3 8 219 2.61057 0 3731 2.61057 1
gene 2 2 219 1.93197 0 3774 1.93197 0
gene 1 7 226 0.405287 0 3792 0.405287 1
gene 2 3 99 1.55199 0 3808 1.55199 1
gene 2 226 183 -1.44905 0 4030 -1.44905 1
gene 1 10 183 1.54232 0 4214 1.54232 1
gene 2 99 219 -1.02411 0 4524 -1.02411 1
gene 3 11 219 -0.14627 0 4535 -0.14627 1
gene 3 16 226 0.88338 0 4563 0.88338 1
gene 3 15 183 -0.937405 0 4719 -0.937405 1
gene 1 15 219 0.446831 0 4735 0.446831 1
gene 1 13 336 -1.82914 0 4752 -1.82914 1
gene 3 336 18 -3.00889 0 4753 -3.00889 1
gene 1 1 60 -0.693954 0 4815 -0.693954 1
gene 2 336 60 -1.33448 0 4843 -1.33448 1
gene 2 5 219 -0.0722687 0 4857 -0.0722687 1
gene 1 10 219 2.19879 0 5070 2.19879 1
gene 2 13 363 -0.451309 0 5088 -0.451309 1
gene 1 363 336 1.44133 0 5089 1.44133 1
gene 1 13 219 -5.07773 0 5143 -5.07773 1
gene 1 18 363 0.798517 1 5378 0.798517 1
gene 2 8 336 -1.13325 0 5395 -1.13325 1
gene 2 8 183 0.185109 0 5511 0.185109 1
gene 1 363 17 -0.478344 0 5522 -0.478344 1
gene 1 219 219 -1.04297 1 6022 -1.04297 1
gene 2 1 226 -0.783693 0 6255 -0.783693 1
gene 1 9 367 0.326652 0 6279 0.326652 1
gene 1 367 17 -1.48855 0 6280 -1.48855 1
gene 1 8 60 -0.843127 0 6295 -0.843127 1
gene 3 16 336 -0.808289 0 6340 -0.808289 1
gene 1 367 219 -0.724183 0 6422 -0.724183 1
gene 3 10 367 -2.51124 0 7035 -2.51124 1
gene 3 367 183 -0.13431 0 7048 -0.13431 1
gene 2 5 363 0.700971 0 7130 0.700971 1
gene 2 2 462 -1.00312 0 7145 -1.00312 1
gene 2 462 219 1.50007 0 7146 1.50007 1
gene 2 3 367 1.01313 0 7304 1.01313 1
gene 2 183 60 -0.546839 1 7349 -0.546839 1
gene 2 226 219 -1.08447 0 7374 -1.08447 1
gene 2 14 363 -0.10259 0 7512 -0.10259 1
gene 2 462 493 0.612789 0 7547 0.612789 1
gene 2 493 219 0.275922 0 7548 0.275922 1
gene 1 16 219 1.68014 0 7600 1.68014 1
gene 1 8 363 -0.146072 0 7709 -0.146072 1
gene 2 18 17 -0.588322 1 7851 -0.588322 1
gene 2 12 226 0.630377 0 7956 0.630377 1
gene 2 3 219 0.322293 0 8008 0.322293 1
gene 1 1 336 0.569729 0 8131 0.569729 1
gene 1 18 534 -0.59222 1 8226 -0.59222 1
gene 3 534 18 -0.360955 0 8227 -0.360955 1
gene 2 8 536 -0.313587 0 8236 -0.313587 1
gene 2 536 99 -0.983449 0 8237 -0.983449 1
gene 2 14 183 -0.648832 0 8261 -0.648832 1
gene 2 536 536 1.03744 1 8497 1.03744 1
gene 1 336 462 -0.690367 0 8914 -0.690367 1
gene 2 534 363 0.797315 0 8922 0.797315 1
gene 1 15 588 -0.0640993 0 8982 -0.0640993 1
gene 1 588 219 0.357332 0 8983 0.357332 1
gene 2 588 99 -0.135195 0 9203 -0.135195 1
gene 1 336 336 0.498979 1 9232 0.498979 1
gene 3 4 462 0.457969 0 9455 0.457969 1
gene 2 536 367 0.720509 0 9487 0.720509 1
gene 2 367 363 0.110017 0 9560 0.110017 1
gene 1 493 493 0.0700919 1 9579 0.0700919 1
genomeend 1
