genomestart 1
trait 1 0.142094 1 0.353207 0.690452 0 0 0 0 
trait 2 1 0 1 0.85954 0.615649 0.88275 0 0 
trait 3 0.022928 0.425406 1 0.764606 0 0.701061 0.963261 0 
node 1 2 1 3
node 2 3 1 1
node 3 2 1 1
node 4 2 1 1
node 5 3 1 1
node 6 2 1 1
node 7 1 1 1
node 8 2 1 1
node 9 2 1 1
node 10 1 1 1
node 11 1 1 1
node 12 2 1 1
node 13 1 1 1
node 14 1 1 1
node 15 2 1 1
node 16 3 1 1
node 17 1 0 2
node 18 3 0 2
nodegru 19 0 0.264047 -1.83941 0.321654 0.875066 -0.214749 -1.05925 [ 0.319197 0.676121 0.0331819 -1.98443 0.175376 -0.270319 0.173644 -0.138055 0.0843436 -1.67492 -0.572614 -1.28831 0.147464 0.574954 0.832311 ] [ -1.06572 -1.14564 1.44773 1.19737 -1.45263 1.0414 -1.52753 -0.717531 -1.2778 -0.695846 -0.587719 -0.667564 0.0398785 2.54159 -0.800156 ] [ 2.05996 3.7708 1.55528 -0.859739 0.251087 -0.160189 -0.0549884 0.527325 0.45745 0.311487 -0.513045 -0.507458 -0.635348 0.141042 0.775844 ]
nodegru 38 0 0.302325 0.247949 -1.53743 1.11244 -1.56427 0.437856 [ -0.520797 0.484637 ] [ 0.31465 0 ] [ -1.5038 0 ]
nodegru 41 0 -0.243907 -0.60336 0 0 0 0 [ 0 0 0 ] [ 0 0 0 ] [ 0.483583 0 0 ]
gene 1 1 17 1.8846 0 1 1.8846 1
gene 1 2 17 0.923216 0 2 0.923216 1
gene 2 3 17 0.867769 0 3 0.867769 1
gene 1 4 17 1.67169 0 4 1.67169 0
gene 1 5 17 0.676629 0 5 0.676629 1
gene 3 6 17 0.747074 0 6 0.747074 0
gene 1 7 17 0.614173 0 7 0.614173 1
gene 2 8 17 0.76937 0 8 0.76937 1
gene 2 9 17 0.557959 0 9 0.557959 1
gene 2 10 17 0.645342 0 10 0.645342 1
gene 1 11 17 0.412767 0 11 0.412767 1
gene 2 12 17 -3.50119 0 12 -3.50119 1
gene 2 13 17 2.09394 0 13 2.09394 1
gene 2 14 17 -0.596542 0 14 -0.596542 1
gene 1 15 17 -6.06122 0 15 -6.06122 1
gene 1 16 17 -2.00102 0 16 -2.00102 1
gene 3 1 18 0.522533 0 17 0.522533 1
gene 3 2 18 1.60115 0 18 1.60115 1
gene 3 3 18 -0.596823 0 19 -0.596823 1
gene 3 4 18 0.897504 0 20 0.897504 1
gene 2 5 18 -2.32333 0 21 -2.32333 1
gene 3 6 18 -1.66435 0 22 -1.66435 1
gene 1 7 18 -1.4386 0 23 -1.4386 1
gene 1 8 18 0.25133 0 24 0.25133 1
gene 1 9 18 0.452888 0 25 0.452888 1
gene 2 10 18 1.93808 0 26 1.93808 1
gene 1 11 18 -0.394351 0 27 -0.394351 0
gene 3 12 18 4.61809 0 28 4.61809 1
gene 3 13 18 -1.07239 0 29 -1.07239 1
gene 3 14 18 1.54484 0 30 1.54484 1
gene 1 15 18 -0.557826 0 31 -0.557826 1
gene 1 16 18 0.407889 0 32 0.407889 1
gene 2 17 17 -1.0921 1 34 -1.0921 1
gene 2 11 19 0.416694 0 36 0.416694 1
gene 2 19 18 3.91354 0 37 3.91354 1
gene 1 14 19 -0.592713 0 45 -0.592713 1
gene 3 2 19 -1.08327 0 50 -1.08327 1
gene 1 19 17 -1.08731 0 60 -1.08731 1
gene 1 7 19 -1.52087 0 67 -1.52087 1
gene 1 4 19 0.238511 0 75 0.238511 1
gene 2 15 19 -1.10381 0 77 -1.10381 1
gene 3 1 19 -1.0156 1 78 -1.0156 1
gene 2 1 19 0.0077522 0 136 0.0077522 1
gene 2 16 19 -1.15221 1 171 -1.15221 1
gene 1 16 19 0.127836 0 201 0.127836 1
gene 3 6 19 1.34211 0 206 1.34211 1
gene 3 8 19 1.49001 0 209 1.49001 1
gene 2 10 19 -0.616269 0 220 -0.616269 1
gene 3 13 19 0.828533 0 227 0.828533 1
gene 3 9 19 0.57885 0 253 0.57885 1
gene 1 4 38 -0.0468657 0 265 -0.0468657 1
gene 1 38 17 1.72289 0 266 1.72289 1
gene 3 6 41 0.304424 0 295 0.304424 1
gene 3 41 17 1.04078 0 296 1.04078 1
gene 3 19 41 0.112158 0 349 0.112158 1
gene 3 38 41 -1.02781 1 423 -1.02781 1
gene 3 9 38 -0.164653 1 447 -0.164653 1
genomeend 1
