genomestart 1
trait 1 0 0.954142 0 1 0.776786 0.456531 1 0 
trait 2 0 0 1 0 0.0670056 0.992588 0.717474 0.677353 
trait 3 0 0 1 0.336102 0 0 0.0982464 1 
node 1 2 1 3
node 2 3 1 1
node 3 3 1 1
node 4 1 1 1
node 5 3 1 1
node 6 2 1 1
node 7 3 1 1
node 8 1 1 1
node 9 1 1 1
node 10 2 1 1
node 11 2 1 1
node 12 3 1 1
node 13 1 1 1
node 14 3 1 1
node 15 3 1 1
node 16 1 1 1
node 17 2 0 2
node 18 1 0 2
node 31 3 0 0
nodegru 37 0 -0.548121 -0.286019 0.957502 -2.32851 -2.07864 0.156482 [ 3.11865 -0.284913 0.305262 ] [ 2.27126 0.290433 0 ] [ 2.68538 0.121042 0 ]
node 64 1 0 0
node 101 1 0 0
node 108 1 0 0
node 118 1 0 0
node 155 1 0 0
node 161 1 0 0
nodegru 234 0 0 0.610865 0.0177823 -0.100141 -0.53203 0.0443454 [ -0.262812 ] [ -0.706443 ] [ -0.0132683 ]
nodegru 265 0 0 0 0 0 0 0 [ 0 ] [ 0 ] [ 0 ]
gene 3 1 17 -0.0803234 0 1 -0.0803234 1
gene 1 2 17 2.04148 0 2 2.04148 0
gene 1 3 17 1.60597 0 3 1.60597 1
gene 2 4 17 0.972643 0 4 0.972643 1
gene 1 5 17 -3.36857 0 5 -3.36857 1
gene 1 6 17 -0.647283 0 6 -0.647283 0
gene 3 7 17 -5.21826 0 7 -5.21826 1
gene 3 8 17 2.04835 0 8 2.04835 1
gene 2 9 17 -1.60072 0 9 -1.60072 1
gene 2 10 17 0.428776 0 10 0.428776 1
gene 1 11 17 -5.59767 0 11 -5.59767 1
gene 3 12 17 -2.61096 0 12 -2.61096 1
gene 3 13 17 -4.2737 0 13 -4.2737 1
gene 3 14 17 -2.66398 0 14 -2.66398 0
gene 2 15 17 -7.65208 0 15 -7.65208 1
gene 1 16 17 -2.55036 0 16 -2.55036 1
gene 2 1 18 3.42142 0 17 3.42142 1
gene 2 2 18 0.0340188 0 18 0.0340188 1
gene 1 3 18 7.65926 0 19 7.65926 1
gene 3 4 18 0.77779 0 20 0.77779 0
gene 3 5 18 -1.83652 0 21 -1.83652 1
gene 1 6 18 1.574 0 22 1.574 0
gene 3 7 18 -4.5324 0 23 -4.5324 1
gene 2 8 18 -2.25896 0 24 -2.25896 1
gene 3 9 18 -1.75742 0 25 -1.75742 0
gene 2 10 18 -0.0309896 0 26 -0.0309896 0
gene 1 11 18 0.629301 0 27 0.629301 1
gene 2 12 18 4.26699 0 28 4.26699 0
gene 1 13 18 -2.43758 0 29 -2.43758 1
gene 1 14 18 -0.282507 0 30 -0.282507 1
gene 3 15 18 -2.42967 0 31 -2.42967 0
gene 2 16 18 -1.8257 0 32 -1.8257 0
gene 3 4 31 0.160928 0 106 0.160928 1
gene 3 31 18 0.0807455 0 107 0.0807455 1
gene 3 2 37 -1.35366 0 145 -1.35366 1
gene 3 37 17 3.08127 0 146 3.08127 1
gene 3 14 64 -1.15359 0 279 -1.15359 1
gene 3 64 17 -1.64744 0 280 -1.64744 1
gene 1 15 64 5.38973 0 314 5.38973 1
gene 1 16 31 3.07377 0 328 3.07377 1
gene 3 12 64 -1.28515 0 394 -1.28515 1
gene 2 16 101 -2.50168 0 476 -2.50168 1
gene 2 101 18 3.92941 0 477 3.92941 1
gene 3 37 101 -0.362531 0 486 -0.362531 1
gene 3 15 108 1.55062 0 543 1.55062 1
gene 3 108 18 -2.62379 0 544 -2.62379 1
gene 1 37 17 -1.22125 1 585 -1.22125 1
gene 3 9 118 1.45596 0 619 1.45596 1
gene 3 118 18 2.70908 0 620 2.70908 1
gene 1 8 64 0.474971 0 628 0.474971 1
gene 1 118 118 -0.241045 1 658 -0.241045 1
gene 2 31 31 -0.352692 1 709 -0.352692 1
gene 3 118 108 -0.682016 0 736 -0.682016 1
gene 2 10 155 -0.0404045 0 888 -0.0404045 1
gene 2 155 18 -0.774956 0 889 -0.774956 1
gene 2 6 64 0.694922 0 924 0.694922 1
gene 1 6 161 0.623804 0 928 0.623804 1
gene 1 161 18 0.695185 0 929 0.695185 1
gene 2 11 155 -0.298833 0 1003 -0.298833 1
gene 3 3 31 -1.83103 0 1025 -1.83103 1
gene 3 10 161 0.353605 0 1036 0.353605 1
gene 3 118 31 -0.608633 0 1135 -0.608633 1
gene 3 18 18 0.119767 1 1203 0.119767 1
gene 2 10 37 -0.0468324 0 1253 -0.0468324 1
gene 1 3 101 -0.584193 0 1343 -0.584193 1
gene 2 155 155 -0.375886 1 1351 -0.375886 1
gene 2 11 37 -0.100539 0 1373 -0.100539 1
gene 2 6 118 0.783686 0 1414 0.783686 1
gene 1 6 234 1 0 1514 0 1
gene 1 234 17 -0.647283 0 1515 0 1
gene 2 161 101 -0.80812 0 1522 -0.80812 1
gene 1 101 101 0.982583 1 1595 0.982583 1
gene 3 1 161 0.0485312 0 1724 0.0485312 1
gene 1 234 18 -0.814359 0 1730 -0.814359 1
gene 2 12 265 1 0 1741 0 1
gene 2 265 18 4.26699 0 1742 0 1
gene 3 234 155 0.410522 0 1833 0.410522 1
genomeend 1
