genomestart 1
trait 1 0.245362 0.117413 0.147799 0.50679 0.091161 0.512664 0.326969 0.609469 
trait 2 0.912124 0.660018 0.280013 0.61124 0.127042 0.0474601 0.555015 0.0345504 
trait 3 0.995709 0.0618838 0.533674 0.430565 0.534961 0.410706 0.0699891 0.131265 
node 1 2 1 3
node 2 3 1 1
node 3 1 1 1
node 4 2 1 1
node 5 3 1 1
node 6 3 1 1
node 7 1 1 1
node 8 2 1 1
node 9 2 1 1
node 10 2 1 1
node 11 2 1 1
node 12 2 1 1
node 13 1 1 1
node 14 3 1 1
node 15 1 1 1
node 16 3 1 1
node 17 1 0 2
node 18 2 0 2
node 60 2 0 0
node 99 3 0 0
node 183 3 0 0
node 219 2 0 0
node 226 1 0 0
node 336 3 0 0
node 363 1 0 0
node 367 1 0 0
node 380 1 0 0
node 441 1 0 0
node 549 1 0 0
node 684 1 0 0
gene 1 1 17 1.73083 0 1 1.73083 1
gene 2 2 17 -0.954835 0 2 -0.954835 1
gene 3 3 17 -0.241519 0 3 -0.241519 1
gene 1 4 17 0.936964 0 4 0.936964 1
gene 3 5 17 -0.0965237 0 5 -0.0965237 1
gene 1 6 17 -1.79035 0 6 -1.79035 1
gene 2 7 17 0.816423 0 7 0.816423 1
gene 1 8 17 -2.2464 0 8 -2.2464 1
gene 3 9 17 -2.4221 0 9 -2.4221 1
gene 1 10 17 -2.3657 0 10 -2.3657 1
gene 3 11 17 -0.348545 0 11 -0.348545 1
gene 1 12 17 1.18604 0 12 1.18604 1
gene 2 13 17 3.62102 0 13 3.62102 1
gene 1 14 17 2.88553 0 14 2.88553 1
gene 2 15 17 2.71761 0 15 2.71761 1
gene 3 16 17 -2.84004 0 16 -2.84004 1
gene 2 1 18 -0.706939 0 17 -0.706939 1
gene 2 2 18 -0.967978 0 18 -0.967978 1
gene 2 3 18 1.02667 0 19 1.02667 1
gene 3 4 18 -0.124533 0 20 -0.124533 1
gene 1 5 18 -2.48519 0 21 -2.48519 1
gene 3 6 18 0.0321665 0 22 0.0321665 1
gene 2 7 18 -1.55537 0 23 -1.55537 1
gene 2 8 18 1.05866 0 24 1.05866 1
gene 3 9 18 6.91311 0 25 6.91311 1
gene 1 10 18 2.83808 0 26 2.83808 1
gene 3 11 18 1.30854 0 27 1.30854 1
gene 1 12 18 1.8012 0 28 1.8012 1
gene 3 13 18 0.0739 0 29 0.0739 1
gene 2 14 18 -0.86956 0 30 -0.86956 1
gene 2 15 18 1.37833 0 31 1.37833 1
gene 2 16 18 -0.452096 0 32 -0.452096 1
gene 1 17 17 -0.0854604 1 55 -0.0854604 1
gene 2 11 60 -1.55385 0 358 -1.55385 1
gene 1 60 17 0.795515 0 359 0.795515 1
gene 1 6 60 -0.149314 0 522 -0.149314 1
gene 3 15 60 -0.468412 0 691 -0.468412 1
gene 1 17 18 -1.16715 0 757 -1.16715 1
gene 2 18 18 0.583466 1 772 0.583466 1
gene 3 4 60 1.25775 0 849 1.25775 1
gene 2 60 99 0.559147 0 908 0.559147 1
gene 3 99 17 -1.11575 0 909 -1.11575 1
gene 3 60 60 -0.88781 1 995 -0.88781 1
gene 2 14 60 0.60308 0 1217 0.60308 1
gene 1 99 99 0.757644 1 1259 0.757644 1
gene 3 18 99 0.27277 1 1610 0.27277 1
gene 3 7 99 -0.481717 0 1628 -0.481717 1
gene 1 9 60 2.10434 0 2042 2.10434 1
gene 1 10 60 0.348338 0 2070 0.348338 1
gene 3 9 99 1.22217 0 2107 1.22217 1
gene 2 13 99 1.88709 0 2207 1.88709 1
gene 1 1 99 0.0877989 0 2215 0.0877989 0
gene 2 17 99 1.86194 1 2229 1.86194 1
gene 3 15 99 -3.24995 0 2237 -3.24995 0
gene 1 8 99 1.8045 0 2411 1.8045 1
gene 2 7 60 -1.40536 0 2467 -1.40536 1
gene 2 16 99 0.0668085 0 2485 0.0668085 1
gene 1 13 60 1.64735 0 2913 1.64735 1
gene 3 60 18 -1.22147 0 2929 -1.22147 1
gene 1 12 99 -0.270407 0 2949 -0.270407 1
gene 3 60 183 0.0698494 0 2989 0.0698494 1
gene 1 183 17 -1.33304 0 2990 -1.33304 1
gene 3 17 183 1.69272 1 3036 1.69272 1
gene 2 183 183 -0.790841 1 3085 -0.790841 1
gene 3 13 183 0.791514 0 3247 0.791514 1
gene 1 11 183 1.62971 0 3276 1.62971 1
gene 1 2 183 -1.38224 0 3312 -1.38224 1
gene 3 7 183 -1.94149 0 3344 -1.94149 1
gene 1 17 60 -2.7723 1 3382 -2.7723 0
gene 2 183 219 3.30248 0 3425 3.30248 1
gene 3 219 17 -0.608444 0 3426 -0.608444 1
gene 2 60 226 -4.13377 0 3530 -4.13377 1
gene 3 226 99 0.319522 0 3531 0.319522 1
gene 2 1 219 -0.0471277 0 3572 -0.0471277 1
gene 3 226 226 -0.178981 1 3700 -0.178981 1
gene 2 8 219 -1.12885 0 3731 -1.12885 1
gene 2 2 219 -0.0562152 0 3774 -0.0562152 1
gene 1 7 226 0.688863 0 3792 0.688863 1
gene 3 3 99 -1.60701 0 3808 -1.60701 1
gene 1 226 183 1.86984 0 4030 1.86984 1
gene 3 10 183 -2.68364 0 4214 -2.68364 1
gene 2 99 219 0.25636 0 4524 0.25636 1
gene 2 11 219 -0.780758 0 4535 -0.780758 1
gene 3 16 226 0.631271 0 4563 0.631271 1
gene 1 15 183 -0.714961 0 4719 -0.714961 1
gene 2 15 219 0.403194 0 4735 0.403194 1
gene 1 13 336 0.281028 0 4752 0.281028 1
gene 1 336 18 1.85617 0 4753 1.85617 1
gene 1 1 60 0.449119 0 4815 0.449119 1
gene 2 336 60 0.199162 0 4843 0.199162 1
gene 1 5 219 3.29587 0 4857 3.29587 1
gene 1 10 219 0.144429 0 5070 0.144429 1
gene 1 13 363 0.823658 0 5088 0.823658 1
gene 2 363 336 -2.49745 0 5089 -2.49745 1
gene 3 13 219 0.592522 0 5143 0.592522 1
gene 2 18 363 -0.346988 1 5378 -0.346988 1
gene 1 8 336 4.19127 0 5395 4.19127 0
gene 2 8 183 -0.0810572 0 5511 -0.0810572 1
gene 2 363 17 -0.884273 0 5522 -0.884273 1
gene 3 219 219 0.553237 1 6022 0.553237 1
gene 1 1 226 -0.639056 0 6255 -0.639056 1
gene 1 4 367 2.52001 0 6310 2.52001 1
gene 1 367 17 -0.202591 0 6311 -0.202591 1
gene 3 6 336 2.20062 0 6331 2.20062 1
gene 2 336 336 -1.38692 1 6345 -1.38692 1
gene 2 99 380 -0.816923 0 6426 -0.816923 1
gene 2 380 219 0.947457 0 6427 0.947457 1
gene 2 6 219 0.0573343 0 6459 0.0573343 1
gene 2 6 363 -1.65956 0 6686 -1.65956 1
gene 3 10 336 -1.0418 0 6707 -1.0418 1
gene 3 2 367 0.25748 0 7076 0.25748 1
gene 2 219 60 0.509838 1 7131 0.509838 1
gene 3 60 441 -1.85195 1 7151 -1.85195 1
gene 3 441 60 1.02751 0 7152 1.02751 1
gene 1 226 219 -0.400102 0 7592 -0.400102 1
gene 1 15 336 0.10717 0 7676 0.10717 1
gene 3 5 363 1.78679 0 7774 1.78679 1
gene 3 9 441 0.61461 0 8057 0.61461 1
gene 1 13 380 -0.275644 0 8169 -0.275644 1
gene 2 14 336 0.0358559 0 8227 0.0358559 1
gene 2 14 226 0.147508 0 8263 0.147508 1
gene 3 6 367 -0.669988 0 8327 -0.669988 1
gene 1 8 60 -1.32286 0 8343 -1.32286 0
gene 1 336 226 -0.677725 0 8353 -0.677725 1
gene 3 7 380 -0.944903 0 8422 -0.944903 1
gene 3 380 380 0.680174 1 8551 0.680174 0
gene 3 380 549 -0.817496 1 8603 -0.817496 1
gene 3 549 380 -0.502009 0 8604 -0.502009 1
gene 2 3 336 -0.905071 0 8812 -0.905071 1
gene 2 18 336 -0.948265 1 8913 -0.948265 1
gene 3 183 549 -0.114984 0 8928 -0.114984 1
gene 2 363 226 -0.632173 0 9324 -0.632173 0
gene 1 5 380 -2.40214 0 9345 -2.40214 1
gene 1 14 380 0.473171 0 9533 0.473171 1
gene 2 363 99 1.36775 0 9584 1.36775 1
gene 3 226 18 -0.28847 0 9716 -0.28847 1
gene 2 12 441 -0.25595 0 9818 -0.25595 1
gene 3 8 380 1.43407 0 9849 1.43407 1
gene 3 549 367 0.69538 0 10021 0.69538 1
gene 3 16 367 -0.107343 0 10037 -0.107343 1
gene 2 12 336 0.276714 0 10202 0.276714 1
gene 1 441 441 0.365374 1 10279 0.365374 1
gene 1 17 684 1.16493 1 10291 1.16493 1
gene 1 684 60 -2.32182 0 10292 -2.32182 1
gene 2 367 367 0.161306 1 10560 0.161306 1
gene 2 8 549 -0.383129 0 10609 -0.383129 1
gene 3 549 684 0.483518 1 10629 0.483518 1
genomeend 1
