genomestart 1
trait 1 0 1 0.562588 0 0.291407 0 0 0.607015 
trait 2 0.990843 0.24726 1 1 0 1 0 1 
trait 3 0 0.757661 0.675016 0.872026 0 1 0.588693 1 
node 1 2 1 3
node 2 3 1 1
node 3 3 0 2
node 4 1 0 2
nodegru 7 0 1.56152 -0.131002 1.48301 -1.99827 -1.95998 -0.389001 [ 0.861734 -0.0946636 0 ] [ 0.765068 -0.483282 0 ] [ 1.56621 0.544708 0 ]
node 14 1 0 0
node 23 1 0 0
node 27 3 0 0
node 73 1 0 0
nodegru 113 0 -3.65393 1.9902 -0.929144 1.27295 -2.4184 1.16989 [ -5.2313 0.0938767 0.912626 0.395836 ] [ -0.254885 1.01953 0.0813068 -0.26807 ] [ 0.880745 0.345306 -0.213745 0.181828 ]
nodegru 145 0 0.401041 -0.816678 -1.60208 -1.12415 0.580475 -1.18725 [ -2.24243 -0.244734 0.0392157 -0.150527 1.22914 -1.10029 0.483202 0.63884 0.809196 0.55545 0.00144869 -0.17747 0.667177 -0.234084 ] [ -0.545982 -1.09723 0.987363 -1.2288 -2.24567 -0.499725 -0.925858 0.819413 1.00596 -1.18529 1.05083 0 0.513474 0.199446 ] [ 0.860769 3.30972 0.982785 2.03192 0.878553 0.280989 0.809374 0.557548 -1.22074 -0.0572395 0.172257 -0.139142 -0.664015 0.0988929 ]
node 231 3 0 0
nodegru 257 0 -0.364046 0.338511 0.204407 2.39255 0.0931835 1.01378 [ -3.44856 2.4091 0.390482 1.14759 ] [ 2.23586 -0.503035 -0.238693 0.900723 ] [ 0.942335 -0.611487 -0.563079 -0.820853 ]
node 264 2 0 0
node 266 1 0 0
node 340 2 0 0
nodegru 347 0 2.9972 1.96605 -1.76033 -1.06647 -0.932753 0.211171 [ -0.380698 -0.0531791 0.413283 -0.659859 0.887002 1.02611 ] [ -1.3029 0.535054 1.41438 -0.340605 -2.22088 0.942812 ] [ -3.5346 2.39845 -0.209312 -1.44603 -1.44186 -0.770109 ]
node 414 1 0 0
node 477 3 0 0
node 700 1 0 0
nodegru 1104 0 -0.348139 -1.80887 0.712475 -0.253722 0.0219386 -0.0235959 [ -0.0255919 0 ] [ -0.45423 0 ] [ -0.641278 0 ]
node 1366 2 0 0
node 1400 3 0 0
node 1574 1 0 0
node 1581 1 0 0
nodegru 1605 0 -0.770889 -1.54635 0.841217 -0.568021 0.370972 -0.760735 [ -1.22993 -0.0662141 0 ] [ -0.683724 -0.741532 0 ] [ -0.996729 0.194644 -0.24409 ]
node 1607 1 0 0
node 1614 2 0 0
node 1677 1 0 0
node 1705 1 0 0
node 1707 1 0 0
node 1748 1 0 0
node 1767 1 0 0
node 1797 1 0 0
nodegru 2027 0 -0.380436 0 0.08417 0.16958 0 -0.625367 [ 1.00841 ] [ 0.232572 ] [ -0.579262 ]
nodegru 2111 0 0 -0.239467 0 0 0 0.17312 [ -0.672525 ] [ 0.60152 ] [ 0 ]
node 2143 1 0 0
node 2172 1 0 0
gene 3 1 3 -0.138859 0 1 -0.138859 1
gene 1 2 3 -0.534033 0 2 -0.534033 1
gene 3 1 4 0.470946 0 3 0.470946 0
gene 2 2 4 0.351589 0 4 0.351589 0
gene 3 2 7 0.73841 0 12 0.73841 1
gene 2 7 4 -0.109866 0 13 -0.109866 1
gene 1 1 7 -1.22313 0 23 -1.22313 1
gene 3 2 14 0.597203 0 43 0.597203 0
gene 1 14 3 0.228596 0 44 0.228596 0
gene 3 7 14 0.11996 0 58 0.11996 1
gene 3 14 4 -0.183947 0 67 -0.183947 0
gene 1 7 3 -0.983618 0 86 -0.983618 0
gene 1 2 23 -2.28345 0 93 -2.28345 0
gene 1 23 14 -1.13017 0 94 -1.13017 1
gene 1 14 27 -0.154185 0 110 -0.154185 1
gene 1 27 3 2.94744 0 111 2.94744 1
gene 2 1 27 -1.26831 0 114 -1.26831 1
gene 3 7 23 -0.708197 0 137 -0.708197 0
gene 2 23 27 -0.271348 0 280 -0.271348 0
gene 2 4 14 -1.56858 1 303 -1.56858 0
gene 1 1 23 -0.191559 0 441 -0.191559 1
gene 1 2 73 0.708045 0 459 0.708045 0
gene 2 73 23 0.417274 0 460 0.417274 1
gene 3 3 3 1.0367 1 550 1.0367 1
gene 1 2 113 -0.631798 0 722 -0.631798 1
gene 1 113 73 1.2779 0 723 1.2779 1
gene 2 4 145 -1.48198 1 970 -1.48198 0
gene 2 145 14 -0.370245 0 971 -0.370245 1
gene 2 145 3 0.457266 0 1294 0.457266 1
gene 2 145 27 3.62727 0 1375 3.62727 1
gene 1 1 73 -0.697449 0 1460 -0.697449 1
gene 1 23 231 -1.07548 0 1540 -1.07548 0
gene 2 231 27 -0.332768 0 1541 -0.332768 1
gene 2 73 73 1.45734 1 1661 1.45734 0
gene 2 1 113 -0.923848 0 1691 -0.923848 1
gene 1 2 145 0.532407 0 1697 0.532407 0
gene 3 23 23 0.663334 1 1707 0.663334 1
gene 2 7 257 -0.751719 0 1750 -0.751719 1
gene 2 257 3 -0.608995 0 1751 -0.608995 0
gene 2 257 264 -0.103546 0 1790 -0.103546 1
gene 1 264 3 0.195627 0 1791 0.195627 1
gene 1 23 266 0.677224 0 1800 0.677224 0
gene 2 266 231 -1.29067 0 1801 -1.29067 1
gene 3 2 264 -1.62343 0 1959 -1.62343 1
gene 2 23 264 -0.862702 0 1968 -0.862702 0
gene 3 231 145 0.190995 0 2009 0.190995 1
gene 1 231 264 -0.242333 0 2050 -0.242333 0
gene 3 27 4 -0.111796 0 2177 -0.111796 1
gene 2 231 231 -3.42521 1 2333 -3.42521 1
gene 2 4 340 0.794755 1 2351 0.794755 0
gene 2 340 145 -0.101436 0 2352 -0.101436 1
gene 3 2 347 1.37576 0 2381 1.37576 0
gene 3 347 145 2.63351 0 2382 2.63351 1
gene 1 1 264 0.117309 0 2477 0.117309 1
gene 3 264 27 0.56136 0 2638 0.56136 1
gene 2 145 257 1.00286 0 2691 1.00286 1
gene 2 23 414 -0.0735831 0 2778 -0.0735831 1
gene 2 414 264 -0.0933574 0 2779 -0.0933574 0
gene 1 7 347 0.159019 0 2790 0.159019 1
gene 1 23 4 -0.0132947 0 2810 -0.0132947 1
gene 3 73 145 0.707144 0 2866 0.707144 1
gene 3 73 231 -2.05723 0 3037 -2.05723 1
gene 3 7 231 -0.249917 0 3115 -0.249917 1
gene 3 414 3 -0.132835 0 3123 -0.132835 1
gene 2 7 477 -0.0562125 0 3343 -0.0562125 1
gene 3 477 23 0.191547 0 3344 0.191547 1
gene 1 113 477 -0.96849 0 3372 -0.96849 1
gene 2 73 266 0.976795 0 3383 0.976795 0
gene 1 7 73 1.0371 0 3447 1.0371 1
gene 3 414 414 -0.829898 1 3528 -0.829898 1
gene 2 347 477 1.4822 0 3590 1.4822 0
gene 2 340 14 -0.723226 0 3614 -0.723226 1
gene 3 340 23 3.04357 0 3806 3.04357 0
gene 1 2 340 3.43564 0 3982 3.43564 1
gene 1 231 347 -0.292864 1 4123 -0.292864 1
gene 1 347 231 0.925505 0 4134 0.925505 1
gene 3 1 266 -0.43234 0 4291 -0.43234 1
gene 1 113 264 0.955421 0 4310 0.955421 1
gene 2 1 145 0.0857633 0 4481 0.0857633 1
gene 3 414 23 3.28546 1 4602 3.28546 1
gene 3 347 266 1.32878 0 4760 1.32878 1
gene 3 2 700 -1.82555 0 4984 -1.82555 0
gene 3 700 347 1.27046 0 4985 1.27046 1
gene 1 347 23 2.7898 0 5172 2.7898 1
gene 1 477 73 0.823686 0 5211 0.823686 1
gene 3 340 700 -0.396128 0 5283 -0.396128 1
gene 3 73 14 -0.619537 0 5353 -0.619537 1
gene 2 266 145 2.1214 0 5392 2.1214 1
gene 2 477 266 -2.36054 0 5628 -2.36054 1
gene 1 7 414 0.72432 0 5849 0.72432 0
gene 1 340 477 -1.51199 0 6075 -1.51199 1
gene 3 73 700 -5.5224 1 6371 -5.5224 1
gene 2 257 14 -0.878134 0 6510 -0.878134 1
gene 1 347 414 2.06018 0 6648 2.06018 1
gene 3 23 145 -0.417943 0 6873 -0.417943 1
gene 3 2 231 -0.743692 0 6973 -0.743692 1
gene 1 700 113 1.11314 0 6988 1.11314 1
gene 3 73 414 -1.70715 0 7223 -1.70715 1
gene 2 231 14 -1.01646 0 7242 -1.01646 1
gene 1 7 145 -0.205411 0 7295 -0.205411 1
gene 1 477 4 0.0612817 0 7454 0.0612817 1
gene 3 14 14 -2.22244 1 7470 -2.22244 1
gene 3 27 414 -3.35823 0 7699 -3.35823 1
gene 1 700 23 -0.719478 0 7731 -0.719478 1
gene 3 2 1104 0.175557 0 7878 0.175557 1
gene 3 1104 700 -0.0623874 0 7879 -0.0623874 1
gene 1 1104 477 -0.574226 0 7900 -0.574226 1
gene 2 113 23 0.295823 0 7950 0.295823 1
gene 1 27 27 1.6423 1 8108 1.6423 1
gene 1 700 700 1.88343 1 8130 1.88343 1
gene 1 3 700 0.465649 1 8160 0.465649 1
gene 1 1 477 0.19962 0 8175 0.19962 1
gene 1 231 414 -0.406799 0 8341 -0.406799 1
gene 3 1 14 0.696251 0 8386 0.696251 1
gene 3 1 231 0.775842 0 8550 0.775842 1
gene 2 700 264 0.121989 0 8623 0.121989 1
gene 2 113 145 0.166607 0 8645 0.166607 1
gene 2 14 414 -0.853461 0 8849 -0.853461 1
gene 2 266 264 1.70872 0 8956 1.70872 1
gene 1 700 27 -0.774643 0 9089 -0.774643 1
gene 3 3 73 0.0226793 1 9314 0.0226793 1
gene 3 145 414 -0.624769 0 9548 -0.624769 1
gene 2 347 27 -0.388811 0 9569 -0.388811 0
gene 2 477 264 3.4454 0 9731 3.4454 1
gene 2 264 14 -0.623955 0 9782 -0.623955 1
gene 1 231 1366 0.936631 0 9791 0.936631 1
gene 1 1366 264 -0.161551 0 9792 -0.161551 1
gene 3 1104 347 -0.318278 0 9806 -0.318278 0
gene 2 145 1366 -0.122044 0 9819 -0.122044 1
gene 1 700 1366 0.223825 0 9825 0.223825 1
gene 1 264 264 1.20615 1 9835 1.20615 1
gene 1 1104 145 -1.34259 0 9994 -1.34259 1
gene 1 1104 14 0.328215 0 10006 0.328215 1
gene 2 7 340 2.01635 0 10044 2.01635 1
gene 2 23 1400 2.06169 0 10052 2.06169 0
gene 2 1400 266 0.390776 0 10053 0.390776 1
gene 3 1 1366 2.12822 0 10219 2.12822 1
gene 3 73 27 0.461451 0 10440 0.461451 1
gene 1 1 700 0.235572 0 10464 0.235572 1
gene 1 113 1366 1.27235 0 10691 1.27235 1
gene 1 14 257 -0.183318 0 10706 -0.183318 0
gene 1 1366 4 0.0709657 0 10805 0.0709657 1
gene 2 3 1400 0.852513 1 10933 0.852513 1
gene 2 7 1400 -0.0785647 0 10958 -0.0785647 1
gene 3 477 145 -0.415837 0 10970 -0.415837 1
gene 1 1400 1400 -0.0548455 1 11121 -0.0548455 1
gene 1 1366 1366 1.21544 1 11128 1.21544 0
gene 2 340 4 -0.185437 0 11341 -0.185437 1
gene 1 7 1574 0.380541 0 11367 0.380541 1
gene 1 1574 414 1.35073 0 11368 1.35073 1
gene 3 14 1581 -0.461345 0 11405 -0.461345 1
gene 3 1581 4 -0.4137 0 11406 -0.4137 1
gene 3 264 4 0.545013 0 11412 0.545013 1
gene 1 347 1605 0.318625 0 11578 0.318625 1
gene 3 1605 477 0.737503 0 11579 0.737503 1
gene 3 1104 1607 0.591798 0 11591 0.591798 1
gene 3 1607 347 -0.943491 0 11592 -0.943491 1
gene 2 414 1614 0.327715 0 11623 0.327715 1
gene 2 1614 264 0.154127 0 11624 0.154127 1
gene 3 7 27 -0.55721 0 11628 -0.55721 1
gene 1 1607 1400 -0.225594 0 11644 -0.225594 1
gene 3 1574 3 0.676592 0 11784 0.676592 1
gene 2 4 1677 -0.898084 1 12050 -0.898084 1
gene 2 1677 340 -0.0695122 0 12051 -0.0695122 1
gene 3 700 477 0.9832 0 12141 0.9832 1
gene 2 113 27 -0.660044 0 12254 -0.660044 0
gene 2 113 1705 -0.0331575 0 12272 -0.0331575 1
gene 2 1705 27 0.644828 0 12273 0.644828 1
gene 1 14 1707 -1.29008 0 12293 -1.29008 1
gene 1 1707 257 0.265046 0 12294 0.265046 1
gene 1 1104 3 0.19117 0 12387 0.19117 1
gene 3 113 1677 -0.417377 1 12397 -0.417377 1
gene 3 231 4 1.34449 0 12494 1.34449 1
gene 1 1605 1574 0.325657 0 12506 0.325657 1
gene 2 347 1748 1 0 12613 1 1
gene 2 1748 27 -0.887152 0 12614 -0.887152 1
gene 3 4 414 -1.0124 1 12627 -1.0124 1
gene 1 113 7 0.318348 1 12723 0.318348 1
gene 2 340 1605 0.197081 0 12739 0.197081 0
gene 2 23 1767 0.464054 0 12765 0.464054 1
gene 2 1767 1400 1.77591 0 12766 1.77591 1
gene 2 340 1797 0.692972 0 12926 0.692972 1
gene 2 1797 1605 -0.980665 0 12927 -0.980665 1
gene 2 1677 1574 -0.310862 0 12955 -0.310862 1
gene 3 1104 231 -1.23208 0 12977 -1.23208 0
gene 2 27 264 -0.592808 0 12985 -0.592808 1
gene 3 113 1797 -0.703649 0 13048 -0.703649 1
gene 3 7 1767 -0.852264 0 13150 -0.852264 1
gene 3 1705 1705 0.260071 1 13167 0.260071 1
gene 3 1 414 0.188899 0 13202 0.188899 1
gene 3 27 231 -0.0645088 1 13213 -0.0645088 1
gene 2 1607 145 0.515083 0 13320 0.515083 1
gene 3 2 1748 -0.597708 0 13334 -0.597708 1
gene 1 1574 14 -0.576063 0 13427 -0.576063 1
gene 1 1104 1400 -0.44027 0 13573 -0.44027 1
gene 2 347 1581 0.0354696 0 13683 0.0354696 1
gene 3 347 113 0.919397 0 13932 0.919397 1
gene 3 1748 3 -0.311125 0 14164 -0.311125 1
gene 3 1797 14 -0.28638 0 14188 -0.28638 1
gene 2 1677 1677 -0.188987 1 14199 -0.188987 1
gene 2 1705 1797 0.543155 0 14339 0.543155 1
gene 3 1581 3 0.529286 0 14362 0.529286 1
gene 3 1366 27 -0.101967 0 14387 -0.101967 1
gene 3 1767 1104 -0.236833 1 14403 -0.236833 1
gene 1 700 1581 -0.655288 0 14599 -0.655288 1
gene 1 1605 1705 0.672665 1 14617 0.672665 1
gene 3 113 1707 -0.824577 0 14638 -0.824577 1
gene 3 340 2027 1 0 14758 0 1
gene 3 2027 23 3.04357 0 14759 0 1
gene 3 113 1581 -0.201281 0 14833 -0.201281 1
gene 3 700 1705 -0.695385 0 14966 -0.695385 1
gene 3 1797 3 -0.0076736 0 15069 -0.0076736 1
gene 1 1748 1748 0.385419 1 15089 0.385419 1
gene 1 1677 1797 -0.0864908 0 15100 -0.0864908 1
gene 3 1104 1707 0.135354 0 15113 0.135354 1
gene 1 1767 1707 -0.507769 0 15296 -0.507769 1
gene 3 700 266 -0.714226 0 15327 -0.714226 1
gene 1 1366 2111 1 1 15337 0 1
gene 1 2111 1366 1.21544 0 15338 0 1
gene 2 1366 1707 -0.805601 0 15545 -0.805601 1
gene 3 1104 2143 1 0 15575 0 1
gene 3 2143 231 -1.23208 0 15576 0 1
gene 2 1797 27 -0.772469 0 15608 -0.772469 1
gene 3 23 1707 0.0825574 0 15797 0.0825574 1
gene 2 73 2172 1 1 15859 0 1
gene 2 2172 73 1.45734 0 15860 0 1
gene 2 1605 1748 0.573471 0 15877 0.573471 1
genomeend 1
