/* Organism #1 Fitness: 9.129135 Time: 0 */
genomestart 1
trait 1 0.000000 0.000000 0.000000 0.000000 0.000000 0.000000 0.137206 0.000000 
trait 2 0.973587 0.000000 0.600989 0.000000 0.485219 0.000000 0.118453 0.000000 
trait 3 0.788446 0.999164 0.766521 0.000000 0.939737 1.000000 0.395431 0.000000 
node 1 3 1 3
node 2 2 1 1
node 3 3 0 2
node 4 1 0 2
nodegru 7 0 0.496872 -0.80284 0.802815 -0.188381 -1.22829 0.819232 [ 0.55794 0.2151 ] [ 0.335596 -0.229392 ] [ 1.78141 1.29783 ]
node 14 2 0 0
node 23 1 0 0
node 27 3 0 0
node 73 1 0 0
nodegru 113 0 -1.66934 1.42196 1.45275 0.843125 -1.34599 -1.03988 [ -2.66809 -0.15915 ] [ 0.275573 -0.616558 ] [ -0.170626 -0.611756 ]
nodegru 145 0 0.476745 0.230234 0.365766 0.948015 1.00359 0.279135 [ -0.38818 -0.227194 0.425432 0.489057 -0.964452 0 ] [ -0.00840424 -0.0431747 0.759721 -0.698325 0.052997 0 ] [ 0.511095 -0.279627 0.258067 0 -0.590519 0 ]
node 231 1 0 0
nodegru 257 0 -0.699981 0.448544 0.105204 2.19365 -0.682827 -1.05027 [ -1.54966 0 ] [ -0.212708 0 ] [ 1.10034 0 ]
node 264 1 0 0
node 266 1 0 0
node 340 2 0 0
nodegru 347 0 -0.476663 0.028767 -0.229623 0.0676967 0.152498 0.138037 [ 0.81165 -0.502384 ] [ 0.56211 0 ] [ -0.552767 0 ]
node 414 1 0 0
gene 3 1 3 0.601589 0 1 0.601589 1
gene 1 2 3 -2.1491 0 2 -2.1491 1
gene 3 1 4 -0.718602 0 3 -0.718602 0
gene 2 2 4 1.24477 0 4 1.24477 0
gene 3 2 7 -2.34565 0 12 -2.34565 1
gene 3 7 4 0.75771 0 13 0.75771 1
gene 2 1 7 -0.727359 0 23 -0.727359 1
gene 1 2 14 1.79045 0 43 1.79045 0
gene 1 14 3 -0.0813474 0 44 -0.0813474 0
gene 3 7 14 -0.983268 0 58 -0.983268 1
gene 3 14 4 -0.313915 0 67 -0.313915 1
gene 2 7 3 0.181984 0 86 0.181984 0
gene 1 2 23 0.71298 0 93 0.71298 0
gene 1 23 14 -0.18023 0 94 -0.18023 1
gene 1 14 27 -0.713434 0 110 -0.713434 1
gene 1 27 3 0.45451 0 111 0.45451 1
gene 2 1 27 0.661408 0 114 0.661408 1
gene 3 7 23 -2.50455 0 137 -2.50455 1
gene 2 23 27 -1.36891 0 280 -1.36891 0
gene 2 4 14 -1.56411 1 303 -1.56411 0
gene 2 1 23 2.47463 0 441 2.47463 1
gene 1 2 73 0.666323 0 459 0.666323 0
gene 1 73 23 -1.07043 0 460 -1.07043 1
gene 3 3 3 0.986735 1 550 0.986735 1
gene 1 2 113 1.66076 0 722 1.66076 1
gene 1 113 73 1.12087 0 723 1.12087 1
gene 2 4 145 -0.187274 1 970 -0.187274 0
gene 2 145 14 0.0936191 0 971 0.0936191 1
gene 1 145 3 0.0259634 0 1294 0.0259634 1
gene 2 145 27 -0.975618 0 1375 -0.975618 1
gene 3 1 73 -0.792528 0 1460 -0.792528 1
gene 2 23 231 -1.43651 0 1540 -1.43651 0
gene 2 231 27 2.23206 0 1541 2.23206 1
gene 2 73 73 0.662072 1 1661 0.662072 1
gene 2 1 113 -2.63376 0 1691 -2.63376 1
gene 1 2 145 0.533563 0 1697 0.533563 0
gene 3 23 23 -3.81946 1 1707 -3.81946 1
gene 2 7 257 -1.01416 0 1750 -1.01416 1
gene 2 257 3 1.17114 0 1751 1.17114 0
gene 2 257 264 0.649624 0 1790 0.649624 1
gene 1 264 3 1.44033 0 1791 1.44033 1
gene 2 23 266 -0.73379 0 1800 -0.73379 1
gene 2 266 231 -0.225702 0 1801 -0.225702 1
gene 3 2 264 -3.48379 0 1959 -3.48379 1
gene 2 23 264 4.53488 0 1968 4.53488 0
gene 3 231 145 0.786421 0 2009 0.786421 1
gene 1 231 264 0.380906 0 2050 0.380906 1
gene 3 27 4 -1.08482 0 2177 -1.08482 1
gene 2 231 231 0.14536 1 2333 0.14536 1
gene 2 4 340 -0.217919 1 2351 -0.217919 1
gene 2 340 145 0.363401 0 2352 0.363401 1
gene 3 2 347 -0.0138434 0 2381 -0.0138434 1
gene 3 347 145 -0.415988 0 2382 -0.415988 1
gene 1 1 264 0.830081 0 2477 0.830081 1
gene 3 264 27 -1.87276 0 2638 -1.87276 1
gene 3 145 257 -0.0404069 0 2691 -0.0404069 1
gene 2 23 414 1.50683 0 2778 1.50683 1
gene 2 414 264 5.11933 0 2779 5.11933 1
gene 1 7 347 -0.0110623 0 2790 -0.0110623 1
gene 2 23 4 0.108907 0 2810 0.108907 1
gene 3 73 145 -0.389976 0 2866 -0.389976 1
gene 3 113 23 -0.403282 0 3023 -0.403282 1
gene 3 347 231 -0.753473 0 3104 -0.753473 1
genomeend 1


